<?xml version="1.0"?>
<opencv_storage>
<shapeML type_id="opencv-ml-ann-mlp">
  <layer_sizes type_id="opencv-matrix">
    <rows>1</rows>
    <cols>3</cols>
    <dt>i</dt>
    <data>
      1600 40 1</data></layer_sizes>
  <activation_function>SIGMOID_SYM</activation_function>
  <f_param1>5.9999999999999998e-01</f_param1>
  <f_param2>1.</f_param2>
  <min_val>-9.4999999999999996e-01</min_val>
  <max_val>9.4999999999999996e-01</max_val>
  <min_val1>-9.7999999999999998e-01</min_val1>
  <max_val1>9.7999999999999998e-01</max_val1>
  <training_params>
    <train_method>BACKPROP</train_method>
    <dw_scale>1.0000000000000001e-01</dw_scale>
    <moment_scale>1.0000000000000001e-01</moment_scale>
    <term_criteria><epsilon>9.9999999747524271e-07</epsilon>
      <iterations>4000</iterations></term_criteria></training_params>
  <input_scale>
    1. 0. 5.8627715216492376e-02 -6.7191314068339572e-02
    5.8627715216492376e-02 -6.7191314068339572e-02
    8.2818687864678844e-02 -4.7457899787624949e-02
    4.1549953314659195e-02 -9.5238095238095233e-02
    4.1549953314659195e-02 -9.5238095238095233e-02
    4.7923449252859789e-02 -8.2385255457163450e-02
    4.7923449252859789e-02 -8.2385255457163450e-02
    2.7858346204144596e-02 -1.4367394278317269e-01
    3.7205615207155547e-02 -1.0660035817780522e-01
    2.4209468745093041e-02 -1.6647409968535890e-01
    2.5256817329835597e-02 -1.5920308451727830e-01
    1.4966293320367681e-02 -2.8301428829414393e-01
    1.1103792922518476e-02 -4.1358509593425558e-01
    9.8882329911870251e-03 -4.9296730092018914e-01
    1.2107064670839848e-02 -3.6770107646382144e-01
    1.1823635053228945e-02 -3.7941912035979625e-01
    1.0589779822060439e-02 -4.4298595817450581e-01
    9.6836384054450730e-03 -5.1051271234099194e-01
    8.7469465313680540e-03 -6.2152460521765807e-01
    8.3096138182424898e-03 -7.0949163376207514e-01
    8.7469465313680540e-03 -6.2152460521765807e-01
    9.4632879554761868e-03 -5.3143273260078627e-01
    9.6836384054450730e-03 -5.1051271234099194e-01
    1.4966293320367681e-02 -2.8301428829414393e-01
    1.6150009695401580e-02 -2.5912599825880289e-01
    2.0458485722386947e-02 -1.9929783282370206e-01
    2.3286610602373782e-02 -1.7347216662217774e-01
    2.2465556321349247e-02 -1.8022929453307149e-01
    2.4209468745093041e-02 -1.6647409968535890e-01
    2.2465556321349247e-02 -1.8022929453307149e-01
    3.1516193284773786e-02 -1.2641888767038476e-01
    2.9514410854296430e-02 -1.3530201829834768e-01
    3.1516193284773786e-02 -1.2641888767038476e-01
    2.7858346204144596e-02 -1.4367394278317269e-01
    2.7858346204144596e-02 -1.4367394278317269e-01
    3.7205615207155547e-02 -1.0660035817780522e-01
    3.7205615207155547e-02 -1.0660035817780522e-01 1. 0.
    8.2818687864678844e-02 -4.7457899787624949e-02
    8.2818687864678844e-02 -4.7457899787624949e-02
    4.7923449252859789e-02 -8.2385255457163450e-02
    5.8627715216492376e-02 -6.7191314068339572e-02
    5.8627715216492376e-02 -6.7191314068339572e-02
    3.7205615207155547e-02 -1.0660035817780522e-01
    3.7205615207155547e-02 -1.0660035817780522e-01
    2.5256817329835597e-02 -1.5920308451727830e-01
    2.5256817329835597e-02 -1.5920308451727830e-01
    2.5256817329835597e-02 -1.5920308451727830e-01
    2.2465556321349247e-02 -1.8022929453307149e-01
    1.2107064670839848e-02 -3.6770107646382144e-01
    1.1823635053228945e-02 -3.7941912035979625e-01
    9.1473016783165158e-03 -5.6610491735019519e-01
    8.5304530960133608e-03 -6.5991201759608975e-01
    8.0447458234367813e-03 -7.9751452135036771e-01
    7.9508484662310520e-03 -8.4743537697379501e-01
    7.8518851689271009e-03 -9.5387171288134620e-01
    7.8951589345093789e-03 -1.1219996652098272e+00
    7.8488667099902883e-03 -1.0389606596673662e+00
    7.8464861734913894e-03 -9.7120103019304660e-01
    7.8536342902817014e-03 -1.0530929395530542e+00
    7.8518851689270992e-03 -1.0483590051950642e+00
    7.9632557776490240e-03 -8.3963137322987014e-01
    7.9763878320850360e-03 -8.3187451525183487e-01
    7.9832288608841923e-03 -8.2801332151485374e-01
    8.4451213227703190e-03 -6.7750748589415821e-01
    9.8039215686274508e-03 -5.0000000000000000e-01
    1.2009766727510576e-02 -3.7162806255690028e-01
    1.5179931631590851e-02 -2.7835560025568840e-01
    1.8089989152885601e-02 -2.2805581830941171e-01
    1.6719610083472281e-02 -2.4910340416499152e-01
    1.6426680402129593e-02 -2.5415212262620729e-01
    1.8493846765949739e-02 -2.2254954928463114e-01
    2.1063531820141576e-02 -1.9312181983410703e-01
    2.1063531820141576e-02 -1.9312181983410703e-01
    2.6459108187655844e-02 -1.5161960871578067e-01
    3.4002585805878310e-02 -1.1690776692807599e-01
    3.4002585805878310e-02 -1.1690776692807599e-01
    5.8627715216492376e-02 -6.7191314068339572e-02
    5.8627715216492376e-02 -6.7191314068339572e-02 1. 0.
    4.7923449252859789e-02 -8.2385255457163450e-02
    4.7923449252859789e-02 -8.2385255457163450e-02
    5.8627715216492376e-02 -6.7191314068339572e-02
    3.7205615207155547e-02 -1.0660035817780522e-01
    2.4209468745093041e-02 -1.6647409968535890e-01
    2.2465556321349247e-02 -1.8022929453307149e-01
    1.8928245829274902e-02 -2.1693045781865619e-01
    1.0965704267447647e-02 -4.2100911777380462e-01
    9.4982662965384535e-03 -5.2795419515703068e-01
    8.4451213227703190e-03 -6.7750748589415821e-01
    8.3378299056117572e-03 -7.0234506519518369e-01
    7.9508484662310520e-03 -8.4743537697379501e-01
    7.8433154915930319e-03 -9.9328099894095578e-01
    7.8703894950974667e-03 -1.0869096324072243e+00
    8.6633371201309869e-03 -1.5737097890017715e+00
    8.7910075703109582e-03 -1.6271266034351957e+00
    9.2979705260881357e-03 -1.8221932799553850e+00
    9.1187843011984529e-03 -1.7557245818577156e+00
    8.5667622261498388e-03 -1.5316215791291712e+00
    9.0907786735853879e-03 -1.7451230745865882e+00
    8.7687833271261721e-03 -1.6179883123378203e+00
    8.1089324923579193e-03 -1.2964269711658520e+00
    8.2958939765090250e-03 -1.4023789311975088e+00
    8.1502157520955704e-03 -1.3217085837078131e+00
    7.8488667099902883e-03 -1.0389606596673662e+00
    7.9974677368479883e-03 -8.2032452774927278e-01
    8.4130669329665723e-03 -6.8457787335442599e-01
    8.6633371201309869e-03 -6.3544117663163013e-01
    1.1647972892194661e-02 -3.8713150354058212e-01
    1.4567796966772887e-02 -2.9217435489538879e-01
    1.8089989152885601e-02 -2.2805581830941171e-01
    1.7360937026818912e-02 -2.3876165079580167e-01
    1.7713308523060776e-02 -2.3345742581517182e-01
    1.9397163679091868e-02 -2.1118934387685415e-01
    1.9905341850913329e-02 -2.0531577324874647e-01
    3.4002585805878310e-02 -1.1690776692807599e-01
    3.1516193284773786e-02 -1.2641888767038476e-01
    5.8627715216492376e-02 -6.7191314068339572e-02
    8.2818687864678844e-02 -4.7457899787624949e-02 1. 0.
    5.8627715216492376e-02 -6.7191314068339572e-02
    4.7923449252859789e-02 -8.2385255457163450e-02
    4.1549953314659195e-02 -9.5238095238095233e-02
    2.3286610602373782e-02 -1.7347216662217774e-01
    1.5179931631590851e-02 -2.7835560025568840e-01
    1.4567796966772887e-02 -2.9217435489538879e-01
    9.9760614886818862e-03 -4.8591265790377502e-01
    9.1763420068167473e-03 -5.6264380147414594e-01
    8.5484472641571482e-03 -6.5640548992415670e-01
    8.0363817913140199e-03 -8.0129047209124282e-01
    7.9082812260068587e-03 -1.1374596401585821e+00
    8.0282136969241202e-03 -1.2421180068162374e+00
    8.4289500927333897e-03 -1.4683420476150388e+00
    8.9082003877484148e-03 -1.6743413043399493e+00
    9.6836384054450730e-03 -1.9588150810475018e+00
    9.9760614886818880e-03 -2.0579830217101063e+00
    1.0163110072794196e-02 -2.1198648920376568e+00
    9.7229377082163476e-03 -1.9723361503835724e+00
    8.6043755730529272e-03 -1.5482075328861751e+00
    9.9316951516037373e-03 -2.0431393992214923e+00
    1.0067612680472909e-02 -2.0884074753583239e+00
    1.0114853380149216e-02 -2.1040031531090162e+00
    9.8039215686274508e-03 -2. 9.5702659299078986e-03
    -1.9194297398747864e+00 8.6633371201309869e-03
    -1.5737097890017715e+00 8.3235913114151436e-03
    -1.4166004224045525e+00 8.0710311403130088e-03
    -1.2718675476729207e+00 7.9178807314970439e-03
    -8.7114481036875335e-01 8.2824284289178558e-03
    -7.1666271158535289e-01 8.6236848605017007e-03
    -6.4241607443962112e-01 1.0021358220331952e-02
    -4.8237638894272000e-01 1.5639942600153590e-02
    -2.6886642896893248e-01 1.7360937026818912e-02
    -2.3876165079580167e-01 1.7030413037729307e-02
    -2.4397501823713333e-01 1.7360937026818912e-02
    -2.3876165079580167e-01 2.2465556321349247e-02
    -1.8022929453307149e-01 3.1516193284773786e-02
    -1.2641888767038476e-01 8.2818687864678844e-02
    -4.7457899787624949e-02 8.2818687864678844e-02
    -4.7457899787624949e-02 8.2818687864678844e-02
    -4.7457899787624949e-02 4.7923449252859789e-02
    -8.2385255457163450e-02 4.7923449252859789e-02
    -8.2385255457163450e-02 2.3286610602373782e-02
    -1.7347216662217774e-01 2.1063531820141576e-02
    -1.9312181983410703e-01 1.1324645051840436e-02
    -4.0234300734740963e-01 1.0114853380149218e-02
    -4.7528445882903403e-01 9.8456498482516856e-03
    -4.9648625302195015e-01 8.2824284289178558e-03
    -7.1666271158535289e-01 7.8835493488791514e-03
    -9.0350790290525096e-01 7.9632557776490240e-03
    -1.1909988500706310e+00 8.5127746448984895e-03
    -1.5073350070669134e+00 8.6433367572452645e-03
    -1.5651237660647717e+00 9.4632879554761885e-03
    -1.8817056960456418e+00 9.6836384054450730e-03
    -1.9588150810475018e+00 8.9082003877484148e-03
    -1.6743413043399493e+00 9.8456498482516856e-03
    -2.0141544582822295e+00 9.4289684780594751e-03
    -1.8694784018408708e+00 9.0097256546800130e-03
    -1.7140749975847411e+00 8.9329085295353373e-03
    -1.6841041822143081e+00 9.6836384054450730e-03
    -1.9588150810475018e+00 9.0362596689717006e-03
    -1.7243011006533304e+00 8.9329085295353373e-03
    -1.6841041822143081e+00 8.3523331453750019e-03
    -1.4310643610541955e+00 8.3974676669013922e-03
    -1.4532336742203960e+00 8.8600780935700132e-03
    -1.6551422290302815e+00 9.4289684780594751e-03
    -1.8694784018408708e+00 8.8839263721678507e-03
    -1.6646880911083510e+00 8.0124586331783518e-03
    -1.2304975797559743e+00 7.8441078017070388e-03
    -9.8439146109287545e-01 8.0363817913140199e-03
    -8.0129047209124282e-01 8.3235913114151436e-03
    -7.0591536200630900e-01 8.7469465313680540e-03
    -6.2152460521765807e-01 1.4567796966772887e-02
    -2.9217435489538879e-01 1.6719610083472281e-02
    -2.4910340416499152e-01 1.6426680402129593e-02
    -2.5415212262620729e-01 2.1729011673120566e-02
    -1.8677184190940710e-01 2.2465556321349247e-02
    -1.8022929453307149e-01 5.8627715216492376e-02
    -6.7191314068339572e-02 5.8627715216492376e-02
    -6.7191314068339572e-02 8.2818687864678844e-02
    -4.7457899787624949e-02 4.1549953314659195e-02
    -9.5238095238095233e-02 2.4209468745093041e-02
    -1.6647409968535890e-01 2.3286610602373782e-02
    -1.7347216662217774e-01 1.9397163679091868e-02
    -2.1118934387685415e-01 1.0589779822060439e-02
    -4.4298595817450581e-01 9.3952920163091619e-03
    -5.3838190205816538e-01 8.6836919783775616e-03
    -6.3195812296574683e-01 7.8436323868272609e-03
    -1.0112997936948631e+00 8.3096138182424898e-03
    -1.4094598898897599e+00 7.9763878320850360e-03
    -1.2021043819298491e+00 8.0710311403130088e-03
    -1.2718675476729207e+00 9.1763420068167456e-03
    -1.7773234102641242e+00 8.2562472330924355e-03
    -1.3814835257889051e+00 8.6633371201309869e-03
    -1.5737097890017715e+00 8.6043755730529272e-03
    -1.5482075328861751e+00 9.8039215686274508e-03 -2.
    9.0632739584453476e-03 -1.7346495349231241e+00
    1.0314293777733425e-02 -2.1691307487397364e+00
    9.0632739584453476e-03 -1.7346495349231241e+00
    9.7630249527327229e-03 -1.9860625479688310e+00
    1.1647972892194668e-02 -2.5831015839690581e+00
    9.7229377082163476e-03 -1.9723361503835724e+00
    9.4289684780594751e-03 -1.8694784018408708e+00
    1.0262797085994913e-02 -2.1524198922155171e+00
    1.0314293777733425e-02 -2.1691307487397364e+00
    9.8456498482516856e-03 -2.0141544582822295e+00
    9.9316951516037373e-03 -2.0431393992214923e+00
    8.7910075703109582e-03 -1.6271266034351957e+00
    8.0710311403130088e-03 -1.2718675476729207e+00
    7.8441078017070388e-03 -9.8439146109287545e-01
    7.8488667099902883e-03 -9.6250035138015744e-01
    8.0991454242720813e-03 -7.7506091661264398e-01
    8.8600780935700115e-03 -6.0417768483007195e-01
    1.3559298439274961e-02 -3.1856733748903310e-01
    1.6719610083472281e-02 -2.4910340416499152e-01
    1.8928245829274902e-02 -2.1693045781865619e-01
    1.9397163679091868e-02 -2.1118934387685415e-01
    2.7858346204144596e-02 -1.4367394278317269e-01
    5.8627715216492376e-02 -6.7191314068339572e-02
    8.2818687864678844e-02 -4.7457899787624949e-02
    2.6459108187655844e-02 -1.5161960871578067e-01
    2.4209468745093041e-02 -1.6647409968535890e-01
    1.2207363689507948e-02 -3.6375200566938293e-01
    1.2107064670839848e-02 -3.6770107646382144e-01
    9.7630249527327229e-03 -5.0350881497801347e-01
    8.4289500927333897e-03 -6.8104022603197534e-01
    7.9697305777999012e-03 -8.3574714025400532e-01
    8.1834842672863541e-03 -1.3411719272206604e+00
    8.2310451228736203e-03 -1.3678332288460768e+00
    8.4954069751702194e-03 -1.4993916041120652e+00
    9.0097256546800130e-03 -1.7140749975847411e+00
    1.0212413823976094e-02 -2.1360009363293817e+00
    1.0067612680472909e-02 -2.0884074753583239e+00
    1.0366939370205004e-02 -2.1861429000000845e+00
    9.1187843011984529e-03 -1.7557245818577156e+00
    9.5702659299078986e-03 -1.9194297398747864e+00
    9.7229377082163476e-03 -1.9723361503835724e+00
    9.6451064356370061e-03 -1.9454938284556800e+00
    9.6451064356370061e-03 -1.9454938284556800e+00
    1.0314293777733425e-02 -2.1691307487397364e+00
    9.2059168688019520e-03 -1.7883269297159210e+00
    8.1950260552315010e-03 -1.3477595097800392e+00
    9.4982662965384553e-03 -1.8941037104602754e+00
    9.3952920163091619e-03 -1.8574175621006708e+00
    9.8456498482516856e-03 -2.0141544582822295e+00
    1.0067612680472909e-02 -2.0884074753583239e+00
    9.9316951516037373e-03 -2.0431393992214923e+00
    9.5339199373525880e-03 -1.9066768647745922e+00
    9.4289684780594751e-03 -1.8694784018408708e+00
    8.0991454242720813e-03 -1.2902211665767369e+00
    7.9281697426977788e-03 -1.1584926685818495e+00
    7.8555437564636448e-03 -9.4531318687332166e-01
    8.1189308554376373e-03 -7.6764947357873836e-01
    8.5854032046563892e-03 -6.4940375700839115e-01
    1.4567796966772887e-02 -2.9217435489538879e-01
    1.8928245829274902e-02 -2.1693045781865619e-01
    1.8928245829274902e-02 -2.1693045781865619e-01
    2.7858346204144596e-02 -1.4367394278317269e-01
    2.9514410854296430e-02 -1.3530201829834768e-01
    8.2818687864678844e-02 -4.7457899787624949e-02
    2.5256817329835597e-02 -1.5920308451727830e-01
    2.4209468745093041e-02 -1.6647409968535890e-01
    1.2009766727510576e-02 -3.7162806255690028e-01
    1.0709146385997783e-02 -4.3570583217638170e-01
    9.0907786735853861e-03 -5.7302548717768553e-01
    7.8800121781083237e-03 -9.0761803188526324e-01
    8.3671046729802342e-03 -1.4383899044561528e+00
    8.4130669329665723e-03 -1.4607541945520499e+00
    8.3974676669013922e-03 -1.4532336742203960e+00
    9.4632879554761885e-03 -1.8817056960456418e+00
    1.0163110072794196e-02 -2.1198648920376568e+00
    1.1563789365399610e-02 -2.5578062634523224e+00
    1.1563789365399610e-02 -2.5578062634523224e+00
    1.0475827459157276e-02 -2.2211108331943574e+00
    9.2979705260881357e-03 -1.8221932799553850e+00
    1.0114853380149216e-02 -2.1040031531090162e+00
    1.3137759457341582e-02 -3.0188799849673336e+00
    1.2310810083525470e-02 -2.7794766047006831e+00
    1.1324645051840436e-02 -2.4854414808719016e+00
    1.0532149518073608e-02 -2.2390876520389971e+00
    9.6836384054450730e-03 -1.9588150810475018e+00
    1.3559298439274961e-02 -3.1390537645260821e+00
    1.0314293777733425e-02 -2.1691307487397364e+00
    9.9760614886818880e-03 -2.0579830217101063e+00
    8.8600780935700132e-03 -1.6551422290302815e+00
    9.6836384054450730e-03 -1.9588150810475018e+00
    9.6451064356370061e-03 -1.9454938284556800e+00
    8.6633371201309869e-03 -1.5737097890017715e+00
    8.7687833271261721e-03 -1.6179883123378203e+00
    1.0532149518073608e-02 -2.2390876520389971e+00
    8.3671046729802342e-03 -1.4383899044561528e+00
    8.0282136969241202e-03 -1.2421180068162374e+00
    7.8622378725113282e-03 -9.3260275528204595e-01
    8.0991454242720813e-03 -7.7506091661264398e-01
    9.0907786735853861e-03 -5.7302548717768553e-01
    1.4032363542616957e-02 -3.0555865781563663e-01
    1.8928245829274902e-02 -2.1693045781865619e-01
    2.2465556321349247e-02 -1.8022929453307149e-01
    2.7858346204144596e-02 -1.4367394278317269e-01
    3.1516193284773786e-02 -1.2641888767038476e-01
    2.5256817329835597e-02 -1.5920308451727830e-01
    1.3413516946377524e-02 -3.2282868875438936e-01
    1.2207363689507948e-02 -3.6375200566938293e-01
    9.0097256546800147e-03 -5.8340504435866203e-01
    7.8993639070978339e-03 -8.8721395073426901e-01
    8.3523331453750019e-03 -1.4310643610541955e+00
    8.8136264606852813e-03 -1.6363636363636358e+00
    9.2979705260881357e-03 -1.8221932799553850e+00
    9.0097256546800130e-03 -1.7140749975847411e+00
    8.7469465313680540e-03 -1.6089467602811958e+00
    9.3952920163091619e-03 -1.8574175621006708e+00
    1.1033880034428206e-02 -2.3963355863535143e+00
    1.1249102509006736e-02 -2.4624158997805532e+00
    9.3622432841373848e-03 -1.8455190581674863e+00
    9.2667185207527120e-03 -1.8107584471282070e+00
    1.0709146385997787e-02 -2.2951264962530540e+00
    9.9316951516037373e-03 -2.0431393992214923e+00
    1.0899201936043759e-02 -2.3545950070147565e+00
    1.2107064670839850e-02 -2.7196004146003401e+00
    9.1763420068167456e-03 -1.7773234102641242e+00
    1.1823635053228948e-02 -2.6356078182135856e+00
    1.0648763122304067e-02 -2.2760833806246095e+00
    1.0589779822060436e-02 -2.2574078964509052e+00
    1.1324645051840436e-02 -2.4854414808719016e+00
    1.1563789365399610e-02 -2.5578062634523224e+00
    1.0589779822060436e-02 -2.2574078964509052e+00
    9.9760614886818880e-03 -2.0579830217101063e+00
    1.0067612680472909e-02 -2.0884074753583239e+00
    9.6836384054450730e-03 -1.9588150810475018e+00
    9.9316951516037373e-03 -2.0431393992214923e+00
    1.0212413823976094e-02 -2.1360009363293817e+00
    8.9082003877484148e-03 -1.6743413043399493e+00
    7.9335752577627955e-03 -1.1638287479252927e+00
    7.9082812260068587e-03 -8.7915207247316696e-01
    8.0710311403130088e-03 -7.8624539310689656e-01
    8.7910075703109582e-03 -6.1458032699409870e-01
    1.8928245829274902e-02 -2.1693045781865619e-01
    2.1729011673120566e-02 -1.8677184190940710e-01
    2.2465556321349247e-02 -1.8022929453307149e-01
    8.2818687864678844e-02 -4.7457899787624949e-02
    2.0458485722386947e-02 -1.9929783282370206e-01
    1.2641655714259136e-02 -3.4771655267984680e-01
    1.0475827459157278e-02 -4.5022516889074821e-01
    7.9569621529984765e-03 -8.4352739228697327e-01
    8.5127746448984895e-03 -1.5073350070669134e+00
    8.7254901960784302e-03 -1.5999999999999999e+00
    8.7469465313680540e-03 -1.6089467602811958e+00
    9.6073219714574373e-03 -1.9323670855175235e+00
    9.4632879554761885e-03 -1.8817056960456418e+00
    1.0021358220331953e-02 -2.0730699572419282e+00
    8.8839263721678507e-03 -1.6646880911083510e+00
    1.0420770978284583e-02 -2.2034661689925570e+00
    1.0262797085994913e-02 -2.1524198922155171e+00
    1.1915332948608583e-02 -2.6628760937957834e+00
    1.0475827459157276e-02 -2.2211108331943574e+00
    9.8882329911870234e-03 -2.0285321118325017e+00
    1.2107064670839850e-02 -2.7196004146003401e+00
    9.3952920163091619e-03 -1.8574175621006708e+00
    1.2417560384288038e-02 -2.8106938645110398e+00
    1.4567796966772887e-02 -3.4226138716316972e+00
    1.2009766727510578e-02 -2.6908624529582967e+00
    1.1823635053228948e-02 -2.6356078182135856e+00
    1.1103792922518481e-02 -2.4178820993079571e+00
    1.2641655714259134e-02 -2.8759056544562327e+00
    1.1324645051840436e-02 -2.4854414808719016e+00
    9.8882329911870234e-03 -2.0285321118325017e+00
    1.1324645051840436e-02 -2.4854414808719016e+00
    1.1033880034428206e-02 -2.3963355863535143e+00
    1.0163110072794196e-02 -2.1198648920376568e+00
    1.0589779822060436e-02 -2.2574078964509052e+00
    1.0212413823976094e-02 -2.1360009363293817e+00
    9.7630249527327229e-03 -1.9860625479688310e+00
    8.5304530960133608e-03 -1.5153535218873171e+00
    7.8475968209377692e-03 -1.0342956259505622e+00
    7.8766402254370899e-03 -9.1174323148823477e-01
    8.2310451228736203e-03 -7.3108327748669621e-01
    1.4032363542616957e-02 -3.0555865781563663e-01
    2.1729011673120566e-02 -1.8677184190940710e-01
    2.1729011673120566e-02 -1.8677184190940710e-01
    2.9514410854296430e-02 -1.3530201829834768e-01
    2.0458485722386947e-02 -1.9929783282370206e-01
    1.2107064670839848e-02 -3.6770107646382144e-01
    8.1610816424811904e-03 -7.5292855467879838e-01
    8.1189308554376373e-03 -1.3026778945578592e+00
    8.7910075703109582e-03 -1.6271266034351957e+00
    8.4289500927333897e-03 -1.4683420476150388e+00
    9.1187843011984529e-03 -1.7557245818577156e+00
    8.8839263721678507e-03 -1.6646880911083510e+00
    9.2667185207527120e-03 -1.8107584471282070e+00
    1.0770978938530337e-02 -2.3145502494313788e+00
    9.7229377082163476e-03 -1.9723361503835724e+00
    9.3298075325344062e-03 -1.8337789119845433e+00
    9.6073219714574373e-03 -1.9323670855175235e+00
    1.1033880034428206e-02 -2.3963355863535143e+00
    1.0532149518073608e-02 -2.2390876520389971e+00
    1.0648763122304067e-02 -2.2760833806246095e+00
    9.8456498482516856e-03 -2.0141544582822295e+00
    9.0097256546800130e-03 -1.7140749975847411e+00
    9.8882329911870234e-03 -2.0285321118325017e+00
    1.1103792922518481e-02 -2.4178820993079571e+00
    1.1103792922518481e-02 -2.4178820993079571e+00
    1.1647972892194668e-02 -2.5831015839690581e+00
    1.1481902127729302e-02 -2.5331140255951103e+00
    1.0770978938530337e-02 -2.3145502494313788e+00
    1.1103792922518481e-02 -2.4178820993079571e+00
    1.0834312616987288e-02 -2.3343683004870588e+00
    1.1402216970722842e-02 -2.5090001927487204e+00
    1.0366939370205004e-02 -2.1861429000000845e+00
    1.0589779822060436e-02 -2.2574078964509052e+00
    1.1249102509006736e-02 -2.4624158997805532e+00
    1.0709146385997787e-02 -2.2951264962530540e+00
    1.0420770978284583e-02 -2.2034661689925570e+00
    9.8882329911870234e-03 -2.0285321118325017e+00
    8.4289500927333897e-03 -1.4683420476150388e+00
    7.8447418227072432e-03 -1.0204334391177725e+00
    7.8911220178176540e-03 -8.9533202399913114e-01
    9.2059168688019485e-03 -5.5918187182857682e-01
    1.5179931631590851e-02 -2.7835560025568840e-01
    2.2465556321349247e-02 -1.8022929453307149e-01
    4.7923449252859789e-02 -8.2385255457163450e-02
    1.3413516946377524e-02 -3.2282868875438936e-01
    1.0709146385997783e-02 -4.3570583217638170e-01
    7.8555437564636448e-03 -1.0578504710249077e+00
    8.2692139078903142e-03 -1.3883917238832020e+00
    8.2958939765090250e-03 -1.4023789311975088e+00
    8.7044075395960336e-03 -1.5911461377717739e+00
    9.3622432841373848e-03 -1.8455190581674863e+00
    9.0362596689717006e-03 -1.7243011006533304e+00
    1.1103792922518481e-02 -2.4178820993079571e+00
    1.1324645051840436e-02 -2.4854414808719016e+00
    9.7229377082163476e-03 -1.9723361503835724e+00
    9.3622432841373848e-03 -1.8455190581674863e+00
    8.9836620881806120e-03 -1.7039685360738979e+00
    1.1175510108453888e-02 -2.4399026619928934e+00
    1.0770978938530337e-02 -2.3145502494313788e+00
    1.0021358220331953e-02 -2.0730699572419282e+00
    9.1763420068167456e-03 -1.7773234102641242e+00
    1.1734552705037586e-02 -2.6090261677222895e+00
    1.3710785081830660e-02 -3.1819805153394638e+00
    1.3007192810292886e-02 -2.9814239699997174e+00
    1.1033880034428206e-02 -2.3963355863535143e+00
    9.8039215686274508e-03 -2. 1.0475827459157276e-02
    -2.2211108331943574e+00 1.2107064670839850e-02
    -2.7196004146003401e+00 1.2310810083525470e-02
    -2.7794766047006831e+00 9.9316951516037373e-03
    -2.0431393992214923e+00 1.0589779822060436e-02
    -2.2574078964509052e+00 1.1823635053228948e-02
    -2.6356078182135856e+00 1.1103792922518481e-02
    -2.4178820993079571e+00 9.8882329911870234e-03
    -2.0285321118325017e+00 9.6073219714574373e-03
    -1.9323670855175235e+00 1.0021358220331953e-02
    -2.0730699572419282e+00 9.4289684780594751e-03
    -1.8694784018408708e+00 9.5339199373525880e-03
    -1.9066768647745922e+00 8.1950260552315010e-03
    -1.3477595097800392e+00 7.8455345651956710e-03
    -9.7557900037101675e-01 7.9178807314970439e-03
    -8.7114481036875335e-01 1.2417560384288037e-02
    -3.5578403348241000e-01 1.9397163679091868e-02
    -2.1118934387685415e-01 2.4209468745093041e-02
    -1.6647409968535890e-01 1.3413516946377524e-02
    -3.2282868875438936e-01 8.1291426867160146e-03
    -7.6395673518755891e-01 8.0801967757416718e-03
    -1.2779421327566265e+00 8.3096138182424898e-03
    -1.4094598898897599e+00 9.6073219714574373e-03
    -1.9323670855175235e+00 9.3622432841373848e-03
    -1.8455190581674863e+00 8.7044075395960336e-03
    -1.5911461377717739e+00 9.5339199373525880e-03
    -1.9066768647745922e+00 1.1103792922518481e-02
    -2.4178820993079571e+00 9.0907786735853879e-03
    -1.7451230745865882e+00 1.0067612680472909e-02
    -2.0884074753583239e+00 9.7229377082163476e-03
    -1.9723361503835724e+00 1.1402216970722842e-02
    -2.5090001927487204e+00 1.1103792922518481e-02
    -2.4178820993079571e+00 1.1033880034428206e-02
    -2.3963355863535143e+00 9.9760614886818880e-03
    -2.0579830217101063e+00 1.0965704267447644e-02
    -2.3752454704253445e+00 1.1481902127729302e-02
    -2.5331140255951103e+00 1.1481902127729302e-02
    -2.5331140255951103e+00 1.0314293777733425e-02
    -2.1691307487397364e+00 1.0262797085994913e-02
    -2.1524198922155171e+00 1.0834312616987288e-02
    -2.3343683004870588e+00 1.0262797085994913e-02
    -2.1524198922155171e+00 1.2310810083525470e-02
    -2.7794766047006831e+00 1.1103792922518481e-02
    -2.4178820993079571e+00 1.4032363542616947e-02
    -3.2726940455516851e+00 1.2641655714259134e-02
    -2.8759056544562327e+00 1.3273106412584050e-02
    -3.0575868277617775e+00 1.0314293777733425e-02
    -2.1691307487397364e+00 1.1823635053228948e-02
    -2.6356078182135856e+00 1.1647972892194668e-02
    -2.5831015839690581e+00 9.2667185207527120e-03
    -1.8107584471282070e+00 1.0262797085994913e-02
    -2.1524198922155171e+00 1.0420770978284583e-02
    -2.2034661689925570e+00 8.8839263721678507e-03
    -1.6646880911083510e+00 7.8431570583786941e-03
    -1.0022497216285493e+00 7.8536342902817014e-03
    -9.4958380446877966e-01 9.5702659299078986e-03
    -5.2098807225172772e-01 1.8928245829274902e-02
    -2.1693045781865619e-01 1.6426680402129593e-02
    -2.5415212262620729e-01 1.2009766727510576e-02
    -3.7162806255690028e-01 7.8455345651956693e-03
    -1.0250323137538790e+00 8.2692139078903142e-03
    -1.3883917238832020e+00 9.5339199373525880e-03
    -1.9066768647745922e+00 9.6451064356370061e-03
    -1.9454938284556800e+00 9.0097256546800130e-03
    -1.7140749975847411e+00 9.0907786735853879e-03
    -1.7451230745865882e+00 1.2207363689507941e-02
    -2.7491257351551419e+00 1.0114853380149216e-02
    -2.1040031531090162e+00 9.5339199373525880e-03
    -1.9066768647745922e+00 9.4632879554761885e-03
    -1.8817056960456418e+00 1.0834312616987288e-02
    -2.3343683004870588e+00 1.0366939370205004e-02
    -2.1861429000000845e+00 1.0532149518073608e-02
    -2.2390876520389971e+00 1.2207363689507941e-02
    -2.7491257351551419e+00 1.0899201936043759e-02
    -2.3545950070147565e+00 1.0314293777733425e-02
    -2.1691307487397364e+00 1.1249102509006736e-02
    -2.4624158997805532e+00 1.0899201936043759e-02
    -2.3545950070147565e+00 1.0589779822060436e-02
    -2.2574078964509052e+00 1.0532149518073608e-02
    -2.2390876520389971e+00 1.1823635053228948e-02
    -2.6356078182135856e+00 1.4032363542616947e-02
    -3.2726940455516851e+00 1.2310810083525470e-02
    -2.7794766047006831e+00 1.4381590752496492e-02
    -3.3706247360261159e+00 1.3413516946377529e-02
    -3.0976181325718803e+00 1.2641655714259134e-02
    -2.8759056544562327e+00 1.0965704267447644e-02
    -2.3752454704253445e+00 9.2667185207527120e-03
    -1.8107584471282070e+00 9.5702659299078986e-03
    -1.9194297398747864e+00 9.9316951516037373e-03
    -2.0431393992214923e+00 1.0709146385997787e-02
    -2.2951264962530540e+00 9.8039215686274508e-03 -2.
    1.0834312616987288e-02 -2.3343683004870588e+00
    9.3298075325344062e-03 -1.8337789119845433e+00
    7.9178807314970439e-03 -1.1479147761629929e+00
    7.8536342902817014e-03 -1.0530929395530542e+00
    7.9335752577627938e-03 -8.5923294280421980e-01
    1.6150009695401580e-02 -2.5912599825880289e-01
    1.3273106412584048e-02 -3.2705530744715522e-01
    8.8366474186712084e-03 -6.0764362025019991e-01
    7.8911220178176540e-03 -1.1169040905443706e+00
    8.6433367572452645e-03 -1.5651237660647717e+00
    9.7229377082163476e-03 -1.9723361503835724e+00
    1.0770978938530337e-02 -2.3145502494313788e+00
    1.0420770978284583e-02 -2.2034661689925570e+00
    1.1103792922518481e-02 -2.4178820993079571e+00
    1.2009766727510578e-02 -2.6908624529582967e+00
    9.4289684780594751e-03 -1.8694784018408708e+00
    9.5339199373525880e-03 -1.9066768647745922e+00
    1.2207363689507941e-02 -2.7491257351551419e+00
    1.3710785081830660e-02 -3.1819805153394638e+00
    1.5639942600153590e-02 -3.7193189340702331e+00
    1.2527782291046204e-02 -2.8428212488760578e+00
    1.1647972892194668e-02 -2.5831015839690581e+00
    1.1175510108453888e-02 -2.4399026619928934e+00
    1.0212413823976094e-02 -2.1360009363293817e+00
    1.0532149518073608e-02 -2.2390876520389971e+00
    1.0163110072794196e-02 -2.1198648920376568e+00
    1.0648763122304067e-02 -2.2760833806246095e+00
    1.1249102509006736e-02 -2.4624158997805532e+00
    1.1175510108453888e-02 -2.4399026619928934e+00
    1.0834312616987288e-02 -2.3343683004870588e+00
    1.0532149518073608e-02 -2.2390876520389971e+00
    1.3137759457341582e-02 -3.0188799849673336e+00
    1.3007192810292886e-02 -2.9814239699997174e+00
    1.2527782291046204e-02 -2.8428212488760578e+00
    1.2417560384288038e-02 -2.8106938645110398e+00
    1.5179931631590843e-02 -3.5925269657999763e+00
    1.1734552705037586e-02 -2.6090261677222895e+00
    1.5404188097575627e-02 -3.6544272751933908e+00
    1.1033880034428206e-02 -2.3963355863535143e+00
    9.9316951516037373e-03 -2.0431393992214923e+00
    9.0632739584453476e-03 -1.7346495349231241e+00
    9.7630249527327229e-03 -1.9860625479688310e+00
    8.8600780935700132e-03 -1.6551422290302815e+00
    7.8433154915930319e-03 -9.9328099894095578e-01
    7.8800121781083237e-03 -9.0761803188526324e-01
    1.0114853380149218e-02 -4.7528445882903403e-01
    1.4966293320367681e-02 -2.8301428829414393e-01
    8.3235913114151436e-03 -7.0591536200630900e-01
    7.9632557776490240e-03 -1.1909988500706310e+00
    8.4130669329665723e-03 -1.4607541945520499e+00
    9.6836384054450730e-03 -1.9588150810475018e+00
    9.2360382427885742e-03 -1.7994708216848752e+00
    1.1103792922518481e-02 -2.4178820993079571e+00
    1.1402216970722842e-02 -2.5090001927487204e+00
    9.9316951516037373e-03 -2.0431393992214923e+00
    9.5702659299078986e-03 -1.9194297398747864e+00
    9.4632879554761885e-03 -1.8817056960456418e+00
    9.3952920163091619e-03 -1.8574175621006708e+00
    1.2009766727510578e-02 -2.6908624529582967e+00
    1.1033880034428206e-02 -2.3963355863535143e+00
    1.0899201936043759e-02 -2.3545950070147565e+00
    1.2207363689507941e-02 -2.7491257351551419e+00
    1.0366939370205004e-02 -2.1861429000000845e+00
    9.4289684780594751e-03 -1.8694784018408708e+00
    1.3413516946377529e-02 -3.0976181325718803e+00
    1.2207363689507941e-02 -2.7491257351551419e+00
    1.2881144936365677e-02 -2.9451507675292712e+00
    1.1734552705037586e-02 -2.6090261677222895e+00
    1.2417560384288038e-02 -2.8106938645110398e+00
    1.2107064670839850e-02 -2.7196004146003401e+00
    1.2107064670839850e-02 -2.7196004146003401e+00
    1.2417560384288038e-02 -2.8106938645110398e+00
    1.1481902127729302e-02 -2.5331140255951103e+00
    1.3413516946377529e-02 -3.0976181325718803e+00
    1.2417560384288038e-02 -2.8106938645110398e+00
    1.3413516946377529e-02 -3.0976181325718803e+00
    1.1481902127729302e-02 -2.5331140255951103e+00
    1.2759373940549573e-02 -2.9099974409581488e+00
    1.1563789365399610e-02 -2.5578062634523224e+00
    1.2009766727510578e-02 -2.6908624529582967e+00
    9.8882329911870234e-03 -2.0285321118325017e+00
    1.0770978938530337e-02 -2.3145502494313788e+00
    8.7687833271261721e-03 -1.6179883123378203e+00
    8.0620686873201751e-03 -1.2658353689506980e+00
    7.8441078017070388e-03 -9.8439146109287545e-01
    8.5127746448984895e-03 -6.6342252738220142e-01
    1.3868340953152189e-02 -3.0993404669460345e-01
    7.9449135200447968e-03 -8.5135550832210372e-01
    8.0124586331783518e-03 -1.2304975797559743e+00
    8.5667622261498388e-03 -1.5316215791291712e+00
    9.9760614886818880e-03 -2.0579830217101063e+00
    1.0420770978284583e-02 -2.2034661689925570e+00
    1.0021358220331953e-02 -2.0730699572419282e+00
    1.1324645051840436e-02 -2.4854414808719016e+00
    1.0114853380149216e-02 -2.1040031531090162e+00
    9.6073219714574373e-03 -1.9323670855175235e+00
    8.7687833271261721e-03 -1.6179883123378203e+00
    9.7229377082163476e-03 -1.9723361503835724e+00
    1.0475827459157276e-02 -2.2211108331943574e+00
    1.0965704267447644e-02 -2.3752454704253445e+00
    1.0899201936043759e-02 -2.3545950070147565e+00
    1.1402216970722842e-02 -2.5090001927487204e+00
    9.9316951516037373e-03 -2.0431393992214923e+00
    1.0262797085994913e-02 -2.1524198922155171e+00
    1.1249102509006736e-02 -2.4624158997805532e+00
    1.0648763122304067e-02 -2.2760833806246095e+00
    1.1175510108453888e-02 -2.4399026619928934e+00
    1.2310810083525470e-02 -2.7794766047006831e+00
    1.1915332948608583e-02 -2.6628760937957834e+00
    1.1033880034428206e-02 -2.3963355863535143e+00
    1.0834312616987288e-02 -2.3343683004870588e+00
    9.7630249527327229e-03 -1.9860625479688310e+00
    1.0589779822060436e-02 -2.2574078964509052e+00
    1.0475827459157276e-02 -2.2211108331943574e+00
    1.2881144936365677e-02 -2.9451507675292712e+00
    1.4567796966772887e-02 -3.4226138716316972e+00
    1.1734552705037586e-02 -2.6090261677222895e+00
    1.1823635053228948e-02 -2.6356078182135856e+00
    1.3710785081830660e-02 -3.1819805153394638e+00
    1.0420770978284583e-02 -2.2034661689925570e+00
    1.0067612680472909e-02 -2.0884074753583239e+00
    1.0648763122304067e-02 -2.2760833806246095e+00
    9.8039215686274508e-03 -2. 7.8911220178176540e-03
    -1.1169040905443706e+00 7.8447418227072432e-03
    -1.0204334391177725e+00 7.9832288608841923e-03
    -8.2801332151485374e-01 1.0262797085994917e-02
    -4.6459336471318557e-01 7.9129952613388801e-03
    -8.7514171188043366e-01 7.8431570583786941e-03
    -1.0022497216285493e+00 8.7044075395960336e-03
    -1.5911461377717739e+00 1.0212413823976094e-02
    -2.1360009363293817e+00 9.8882329911870234e-03
    -2.0285321118325017e+00 1.0163110072794196e-02
    -2.1198648920376568e+00 9.9316951516037373e-03
    -2.0431393992214923e+00 9.5339199373525880e-03
    -1.9066768647745922e+00 9.9316951516037373e-03
    -2.0431393992214923e+00 1.1324645051840436e-02
    -2.4854414808719016e+00 1.0899201936043759e-02
    -2.3545950070147565e+00 1.3137759457341582e-02
    -3.0188799849673336e+00 1.2417560384288038e-02
    -2.8106938645110398e+00 1.4381590752496492e-02
    -3.3706247360261159e+00 1.1033880034428206e-02
    -2.3963355863535143e+00 1.0067612680472909e-02
    -2.0884074753583239e+00 9.5702659299078986e-03
    -1.9194297398747864e+00 1.1481902127729302e-02
    -2.5331140255951103e+00 1.0589779822060436e-02
    -2.2574078964509052e+00 1.1823635053228948e-02
    -2.6356078182135856e+00 1.0834312616987288e-02
    -2.3343683004870588e+00 1.0770978938530337e-02
    -2.3145502494313788e+00 1.0475827459157276e-02
    -2.2211108331943574e+00 1.2881144936365677e-02
    -2.9451507675292712e+00 1.1481902127729302e-02
    -2.5331140255951103e+00 1.1103792922518481e-02
    -2.4178820993079571e+00 1.1481902127729302e-02
    -2.5331140255951103e+00 1.2759373940549573e-02
    -2.9099974409581488e+00 1.2881144936365677e-02
    -2.9451507675292712e+00 1.4203287792151492e-02
    -3.3206967683043627e+00 1.3710785081830660e-02
    -3.1819805153394638e+00 1.3710785081830660e-02
    -3.1819805153394638e+00 1.0709146385997787e-02
    -2.2951264962530540e+00 1.1647972892194668e-02
    -2.5831015839690581e+00 9.2360382427885742e-03
    -1.7994708216848752e+00 9.7630249527327229e-03
    -1.9860625479688310e+00 7.9229385690537408e-03
    -1.1531881598148557e+00 7.8433154915930319e-03
    -1.0067644514152674e+00 7.8835493488791514e-03
    -9.0350790290525096e-01 8.8839263721678507e-03
    -6.0071313379445079e-01 7.8703894950974684e-03
    -9.2003968884262999e-01 7.8431570583786941e-03
    -1.0022497216285493e+00 8.0124586331783518e-03
    -1.2304975797559743e+00 8.1721703167422308e-03
    -1.3346347815039139e+00 8.9082003877484148e-03
    -1.6743413043399493e+00 9.8039215686274508e-03 -2.
    9.1763420068167456e-03 -1.7773234102641242e+00
    1.0163110072794196e-02 -2.1198648920376568e+00
    9.3952920163091619e-03 -1.8574175621006708e+00
    9.4289684780594751e-03 -1.8694784018408708e+00
    1.1324645051840436e-02 -2.4854414808719016e+00
    1.2417560384288038e-02 -2.8106938645110398e+00
    1.2107064670839850e-02 -2.7196004146003401e+00
    1.4966293320367677e-02 -3.5333905083996138e+00
    1.1915332948608583e-02 -2.6628760937957834e+00
    1.0532149518073608e-02 -2.2390876520389971e+00
    1.0163110072794196e-02 -2.1198648920376568e+00
    1.0770978938530337e-02 -2.3145502494313788e+00
    1.0163110072794196e-02 -2.1198648920376568e+00
    1.3007192810292886e-02 -2.9814239699997174e+00
    9.8456498482516856e-03 -2.0141544582822295e+00
    1.1402216970722842e-02 -2.5090001927487204e+00
    1.0067612680472909e-02 -2.0884074753583239e+00
    1.0475827459157276e-02 -2.2211108331943574e+00
    9.0907786735853879e-03 -1.7451230745865882e+00
    1.0314293777733425e-02 -2.1691307487397364e+00
    1.0899201936043759e-02 -2.3545950070147565e+00
    1.0366939370205004e-02 -2.1861429000000845e+00
    1.1033880034428206e-02 -2.3963355863535143e+00
    1.1103792922518481e-02 -2.4178820993079571e+00
    1.1915332948608583e-02 -2.6628760937957834e+00
    1.1481902127729302e-02 -2.5331140255951103e+00
    1.1402216970722842e-02 -2.5090001927487204e+00
    1.0770978938530337e-02 -2.3145502494313788e+00
    1.0532149518073608e-02 -2.2390876520389971e+00
    9.4982662965384553e-03 -1.8941037104602754e+00
    8.1610816424811886e-03 -1.3281472641539047e+00
    7.8800121781083237e-03 -9.0761803188526324e-01
    7.8647925171090281e-03 -9.2839899083985900e-01
    8.7687833271261739e-03 -6.1805143607935387e-01
    8.0363817913140199e-03 -8.0129047209124282e-01
    7.8951589345093789e-03 -8.9126586309006439e-01
    8.0282136969241202e-03 -1.2421180068162374e+00
    8.5304530960133608e-03 -1.5153535218873171e+00
    9.9760614886818880e-03 -2.0579830217101063e+00
    9.8882329911870234e-03 -2.0285321118325017e+00
    1.0021358220331953e-02 -2.0730699572419282e+00
    9.8456498482516856e-03 -2.0141544582822295e+00
    1.0262797085994913e-02 -2.1524198922155171e+00
    1.1481902127729302e-02 -2.5331140255951103e+00
    1.2310810083525470e-02 -2.7794766047006831e+00
    1.0475827459157276e-02 -2.2211108331943574e+00
    1.1563789365399610e-02 -2.5578062634523224e+00
    1.4966293320367677e-02 -3.5333905083996138e+00
    1.1823635053228948e-02 -2.6356078182135856e+00
    1.2759373940549573e-02 -2.9099974409581488e+00
    9.6073219714574373e-03 -1.9323670855175235e+00
    1.2310810083525470e-02 -2.7794766047006831e+00
    1.3273106412584050e-02 -3.0575868277617775e+00
    1.0163110072794196e-02 -2.1198648920376568e+00
    1.0212413823976094e-02 -2.1360009363293817e+00
    1.3559298439274961e-02 -3.1390537645260821e+00
    1.1402216970722842e-02 -2.5090001927487204e+00
    1.0366939370205004e-02 -2.1861429000000845e+00
    1.0589779822060436e-02 -2.2574078964509052e+00
    1.0770978938530337e-02 -2.3145502494313788e+00
    1.2009766727510578e-02 -2.6908624529582967e+00
    1.1175510108453888e-02 -2.4399026619928934e+00
    1.0709146385997787e-02 -2.2951264962530540e+00
    1.5888180545318986e-02 -3.7874566117919959e+00
    1.6150009695401576e-02 -3.8591264740685993e+00
    1.3413516946377529e-02 -3.0976181325718803e+00
    9.8882329911870234e-03 -2.0285321118325017e+00
    9.9760614886818880e-03 -2.0579830217101063e+00
    1.0067612680472909e-02 -2.0884074753583239e+00
    9.4982662965384553e-03 -1.8941037104602754e+00
    8.4783452878861385e-03 -1.4915219345217221e+00
    7.8598451526919241e-03 -9.3682289190737000e-01
    7.8911220178176540e-03 -8.9533202399913114e-01
    8.3235913114151436e-03 -7.0591536200630900e-01
    7.9974677368479883e-03 -8.2032452774927278e-01
    7.9229385690537408e-03 -8.6716117529384817e-01
    8.0282136969241202e-03 -1.2421180068162374e+00
    8.3378299056117607e-03 -1.4238015607358152e+00
    9.4982662965384553e-03 -1.8941037104602754e+00
    9.6451064356370061e-03 -1.9454938284556800e+00
    1.1033880034428206e-02 -2.3963355863535143e+00
    1.0532149518073608e-02 -2.2390876520389971e+00
    1.0532149518073608e-02 -2.2390876520389971e+00
    1.0067612680472909e-02 -2.0884074753583239e+00
    1.2009766727510578e-02 -2.6908624529582967e+00
    9.2979705260881357e-03 -1.8221932799553850e+00
    1.0021358220331953e-02 -2.0730699572419282e+00
    1.1249102509006736e-02 -2.4624158997805532e+00
    1.4032363542616947e-02 -3.2726940455516851e+00
    1.1563789365399610e-02 -2.5578062634523224e+00
    1.1033880034428206e-02 -2.3963355863535143e+00
    1.0770978938530337e-02 -2.3145502494313788e+00
    1.2641655714259134e-02 -2.8759056544562327e+00
    1.2207363689507941e-02 -2.7491257351551419e+00
    9.9760614886818880e-03 -2.0579830217101063e+00
    9.7630249527327229e-03 -1.9860625479688310e+00
    1.0021358220331953e-02 -2.0730699572419282e+00
    1.0366939370205004e-02 -2.1861429000000845e+00
    1.1175510108453888e-02 -2.4399026619928934e+00
    1.2759373940549573e-02 -2.9099974409581488e+00
    1.4966293320367677e-02 -3.5333905083996138e+00
    1.1402216970722842e-02 -2.5090001927487204e+00
    1.1033880034428206e-02 -2.3963355863535143e+00
    1.4966293320367677e-02 -3.5333905083996138e+00
    9.8882329911870234e-03 -2.0285321118325017e+00
    1.1249102509006736e-02 -2.4624158997805532e+00
    1.2009766727510578e-02 -2.6908624529582967e+00
    9.4632879554761885e-03 -1.8817056960456418e+00
    1.1402216970722842e-02 -2.5090001927487204e+00
    1.0899201936043759e-02 -2.3545950070147565e+00
    8.8839263721678507e-03 -1.6646880911083510e+00
    7.8502960723191902e-03 -1.0436483497492208e+00
    7.8766402254370899e-03 -9.1174323148823477e-01
    8.4289500927333897e-03 -6.8104022603197534e-01
    8.1089324923579193e-03 -7.7135081438541730e-01
    7.8993639070978339e-03 -8.8721395073426901e-01
    7.8455345651956710e-03 -9.7557900037101675e-01
    8.2824284289178575e-03 -1.3953565377887007e+00
    9.0907786735853879e-03 -1.7451230745865882e+00
    1.0589779822060436e-02 -2.2574078964509052e+00
    1.1563789365399610e-02 -2.5578062634523224e+00
    1.1823635053228948e-02 -2.6356078182135856e+00
    1.0212413823976094e-02 -2.1360009363293817e+00
    8.6433367572452645e-03 -1.5651237660647717e+00
    9.3952920163091619e-03 -1.8574175621006708e+00
    9.6836384054450730e-03 -1.9588150810475018e+00
    1.4567796966772887e-02 -3.4226138716316972e+00
    1.3273106412584050e-02 -3.0575868277617775e+00
    1.0067612680472909e-02 -2.0884074753583239e+00
    1.0366939370205004e-02 -2.1861429000000845e+00
    1.3007192810292886e-02 -2.9814239699997174e+00
    1.2527782291046204e-02 -2.8428212488760578e+00
    1.4032363542616947e-02 -3.2726940455516851e+00
    1.4567796966772887e-02 -3.4226138716316972e+00
    1.3273106412584050e-02 -3.0575868277617775e+00
    1.0648763122304067e-02 -2.2760833806246095e+00
    1.0532149518073608e-02 -2.2390876520389971e+00
    1.0648763122304067e-02 -2.2760833806246095e+00
    1.0163110072794196e-02 -2.1198648920376568e+00
    1.0314293777733425e-02 -2.1691307487397364e+00
    1.3413516946377529e-02 -3.0976181325718803e+00
    1.2527782291046204e-02 -2.8428212488760578e+00
    1.1103792922518481e-02 -2.4178820993079571e+00
    1.2417560384288038e-02 -2.8106938645110398e+00
    1.1324645051840436e-02 -2.4854414808719016e+00
    1.0212413823976094e-02 -2.1360009363293817e+00
    1.0648763122304067e-02 -2.2760833806246095e+00
    9.0097256546800130e-03 -1.7140749975847411e+00
    9.9316951516037373e-03 -2.0431393992214923e+00
    1.1249102509006736e-02 -2.4624158997805532e+00
    8.6836919783775599e-03 -1.5823833315205309e+00
    7.8993639070978339e-03 -1.1271238455756785e+00
    7.8734328630492689e-03 -9.1588371270954017e-01
    9.4289684780594733e-03 -5.3490856006429532e-01
    8.1502157520955704e-03 -7.5659643307655733e-01
    7.8703894950974684e-03 -9.2003968884262999e-01
    7.8536342902817014e-03 -9.4958380446877966e-01
    7.9832288608841940e-03 -1.2077100380106156e+00
    9.4632879554761885e-03 -1.8817056960456418e+00
    1.1033880034428206e-02 -2.3963355863535143e+00
    1.1033880034428206e-02 -2.3963355863535143e+00
    1.0589779822060436e-02 -2.2574078964509052e+00
    9.0907786735853879e-03 -1.7451230745865882e+00
    9.2979705260881357e-03 -1.8221932799553850e+00
    1.1823635053228948e-02 -2.6356078182135856e+00
    1.1734552705037586e-02 -2.6090261677222895e+00
    1.0314293777733425e-02 -2.1691307487397364e+00
    1.5404188097575627e-02 -3.6544272751933908e+00
    1.0067612680472909e-02 -2.0884074753583239e+00
    1.0475827459157276e-02 -2.2211108331943574e+00
    9.3952920163091619e-03 -1.8574175621006708e+00
    1.0709146385997787e-02 -2.2951264962530540e+00
    1.0709146385997787e-02 -2.2951264962530540e+00
    1.0834312616987288e-02 -2.3343683004870588e+00
    1.0314293777733425e-02 -2.1691307487397364e+00
    1.0262797085994913e-02 -2.1524198922155171e+00
    9.2360382427885742e-03 -1.7994708216848752e+00
    1.0021358220331953e-02 -2.0730699572419282e+00
    1.1249102509006736e-02 -2.4624158997805532e+00
    1.2310810083525470e-02 -2.7794766047006831e+00
    1.2881144936365677e-02 -2.9451507675292712e+00
    1.2009766727510578e-02 -2.6908624529582967e+00
    1.0834312616987288e-02 -2.3343683004870588e+00
    1.1481902127729302e-02 -2.5331140255951103e+00
    1.1563789365399610e-02 -2.5578062634523224e+00
    1.0709146385997787e-02 -2.2951264962530540e+00
    1.0262797085994913e-02 -2.1524198922155171e+00
    9.2667185207527120e-03 -1.8107584471282070e+00
    9.7630249527327229e-03 -1.9860625479688310e+00
    9.6451064356370061e-03 -1.9454938284556800e+00
    9.3298075325344062e-03 -1.8337789119845433e+00
    7.9335752577627955e-03 -1.1638287479252927e+00
    7.8703894950974684e-03 -9.2003968884262999e-01
    1.0899201936043759e-02 -4.2470148667640178e-01
    8.0533075272108540e-03 -7.9374846773813046e-01
    7.8703894950974684e-03 -9.2003968884262999e-01
    7.8536342902817014e-03 -9.4958380446877966e-01
    7.8800121781083237e-03 -1.1017850735323593e+00
    8.5667622261498388e-03 -1.5316215791291712e+00
    9.3952920163091619e-03 -1.8574175621006708e+00
    1.1175510108453888e-02 -2.4399026619928934e+00
    9.6451064356370061e-03 -1.9454938284556800e+00
    9.5339199373525880e-03 -1.9066768647745922e+00
    8.8366474186712066e-03 -1.6457014715109577e+00
    1.1402216970722842e-02 -2.5090001927487204e+00
    1.4381590752496492e-02 -3.3706247360261159e+00
    1.1481902127729302e-02 -2.5331140255951103e+00
    9.8456498482516856e-03 -2.0141544582822295e+00
    1.1481902127729302e-02 -2.5331140255951103e+00
    1.3710785081830660e-02 -3.1819805153394638e+00
    1.2207363689507941e-02 -2.7491257351551419e+00
    1.1175510108453888e-02 -2.4399026619928934e+00
    1.0420770978284583e-02 -2.2034661689925570e+00
    1.0262797085994913e-02 -2.1524198922155171e+00
    1.0709146385997787e-02 -2.2951264962530540e+00
    1.0163110072794196e-02 -2.1198648920376568e+00
    1.1563789365399610e-02 -2.5578062634523224e+00
    1.0212413823976094e-02 -2.1360009363293817e+00
    1.1647972892194668e-02 -2.5831015839690581e+00
    1.2310810083525470e-02 -2.7794766047006831e+00
    1.2759373940549573e-02 -2.9099974409581488e+00
    1.0114853380149216e-02 -2.1040031531090162e+00
    1.1402216970722842e-02 -2.5090001927487204e+00
    1.1915332948608583e-02 -2.6628760937957834e+00
    9.9760614886818880e-03 -2.0579830217101063e+00
    1.0212413823976094e-02 -2.1360009363293817e+00
    1.1915332948608583e-02 -2.6628760937957834e+00
    1.0314293777733425e-02 -2.1691307487397364e+00
    1.0212413823976094e-02 -2.1360009363293817e+00
    1.0163110072794196e-02 -2.1198648920376568e+00
    9.9760614886818880e-03 -2.0579830217101063e+00
    8.0048684404679018e-03 -1.2247448713915889e+00
    7.8536342902817014e-03 -9.4958380446877966e-01
    1.4032363542616957e-02 -3.0555865781563663e-01
    8.1721703167422308e-03 -7.4926864926535508e-01
    7.9229385690537408e-03 -8.6716117529384817e-01
    7.8993639070978339e-03 -8.8721395073426901e-01
    7.8455345651956693e-03 -1.0250323137538790e+00
    8.1950260552315010e-03 -1.3477595097800392e+00
    9.2979705260881357e-03 -1.8221932799553850e+00
    9.4289684780594751e-03 -1.8694784018408708e+00
    8.8136264606852813e-03 -1.6363636363636358e+00
    8.6836919783775599e-03 -1.5823833315205309e+00
    9.2979705260881357e-03 -1.8221932799553850e+00
    1.2641655714259134e-02 -2.8759056544562327e+00
    1.0021358220331953e-02 -2.0730699572419282e+00
    1.1481902127729302e-02 -2.5331140255951103e+00
    1.2881144936365677e-02 -2.9451507675292712e+00
    1.2641655714259134e-02 -2.8759056544562327e+00
    1.1324645051840436e-02 -2.4854414808719016e+00
    1.1324645051840436e-02 -2.4854414808719016e+00
    1.1563789365399610e-02 -2.5578062634523224e+00
    1.0212413823976094e-02 -2.1360009363293817e+00
    1.2310810083525470e-02 -2.7794766047006831e+00
    1.1103792922518481e-02 -2.4178820993079571e+00
    1.1249102509006736e-02 -2.4624158997805532e+00
    1.1481902127729302e-02 -2.5331140255951103e+00
    1.0589779822060436e-02 -2.2574078964509052e+00
    1.2759373940549573e-02 -2.9099974409581488e+00
    1.3868340953152180e-02 -3.2264928963592028e+00
    1.2009766727510578e-02 -2.6908624529582967e+00
    1.0021358220331953e-02 -2.0730699572419282e+00
    9.3298075325344062e-03 -1.8337789119845433e+00
    1.1402216970722842e-02 -2.5090001927487204e+00
    1.1563789365399610e-02 -2.5578062634523224e+00
    1.0589779822060436e-02 -2.2574078964509052e+00
    9.8882329911870234e-03 -2.0285321118325017e+00
    9.5339199373525880e-03 -1.9066768647745922e+00
    1.1249102509006736e-02 -2.4624158997805532e+00
    1.0163110072794196e-02 -2.1198648920376568e+00
    1.0314293777733425e-02 -2.1691307487397364e+00
    8.1834842672863541e-03 -1.3411719272206604e+00
    7.8464861734913894e-03 -9.7120103019304660e-01
    1.4032363542616957e-02 -3.0555865781563663e-01
    8.4130669329665723e-03 -6.8457787335442599e-01
    7.9335752577627938e-03 -8.5923294280421980e-01
    7.8800121781083237e-03 -9.0761803188526324e-01
    7.8447418227072432e-03 -1.0204334391177725e+00
    8.1291426867160146e-03 -1.3089746499250248e+00
    8.7469465313680540e-03 -1.6089467602811958e+00
    9.7229377082163476e-03 -1.9723361503835724e+00
    9.6836384054450730e-03 -1.9588150810475018e+00
    8.8366474186712066e-03 -1.6457014715109577e+00
    1.0770978938530337e-02 -2.3145502494313788e+00
    1.1402216970722842e-02 -2.5090001927487204e+00
    1.2759373940549573e-02 -2.9099974409581488e+00
    1.3413516946377529e-02 -3.0976181325718803e+00
    1.0475827459157276e-02 -2.2211108331943574e+00
    1.0899201936043759e-02 -2.3545950070147565e+00
    1.1481902127729302e-02 -2.5331140255951103e+00
    1.3868340953152180e-02 -3.2264928963592028e+00
    1.1249102509006736e-02 -2.4624158997805532e+00
    1.3137759457341582e-02 -3.0188799849673336e+00
    1.3559298439274961e-02 -3.1390537645260821e+00
    1.2527782291046204e-02 -2.8428212488760578e+00
    1.2310810083525470e-02 -2.7794766047006831e+00
    1.0067612680472909e-02 -2.0884074753583239e+00
    1.1915332948608583e-02 -2.6628760937957834e+00
    1.3868340953152180e-02 -3.2264928963592028e+00
    1.0212413823976094e-02 -2.1360009363293817e+00
    1.0212413823976094e-02 -2.1360009363293817e+00
    1.1324645051840436e-02 -2.4854414808719016e+00
    1.0532149518073608e-02 -2.2390876520389971e+00
    1.1103792922518481e-02 -2.4178820993079571e+00
    1.0965704267447644e-02 -2.3752454704253445e+00
    1.0899201936043759e-02 -2.3545950070147565e+00
    9.4632879554761885e-03 -1.8817056960456418e+00
    1.1481902127729302e-02 -2.5331140255951103e+00
    1.0709146385997787e-02 -2.2951264962530540e+00
    1.0212413823976094e-02 -2.1360009363293817e+00
    1.0475827459157276e-02 -2.2211108331943574e+00
    7.9281697426977788e-03 -1.1584926685818495e+00
    7.9335752577627938e-03 -8.5923294280421980e-01
    2.3286610602373782e-02 -1.7347216662217774e-01
    9.1473016783165158e-03 -5.6610491735019519e-01
    8.0710311403130088e-03 -7.8624539310689656e-01
    7.9037377285387459e-03 -8.8317608663278457e-01
    7.8436323868272609e-03 -9.8882646494608839e-01
    7.9697305777999012e-03 -1.1965341570849695e+00
    8.1189308554376373e-03 -1.3026778945578592e+00
    8.3974676669013922e-03 -1.4532336742203960e+00
    9.1473016783165141e-03 -1.7664570106205160e+00
    9.3298075325344062e-03 -1.8337789119845433e+00
    8.9329085295353373e-03 -1.6841041822143081e+00
    1.0420770978284583e-02 -2.2034661689925570e+00
    1.1481902127729302e-02 -2.5331140255951103e+00
    1.1175510108453888e-02 -2.4399026619928934e+00
    1.1647972892194668e-02 -2.5831015839690581e+00
    1.1823635053228948e-02 -2.6356078182135856e+00
    1.0475827459157276e-02 -2.2211108331943574e+00
    1.1249102509006736e-02 -2.4624158997805532e+00
    1.1324645051840436e-02 -2.4854414808719016e+00
    1.2009766727510578e-02 -2.6908624529582967e+00
    1.2881144936365677e-02 -2.9451507675292712e+00
    1.1103792922518481e-02 -2.4178820993079571e+00
    1.4203287792151492e-02 -3.3206967683043627e+00
    1.1823635053228948e-02 -2.6356078182135856e+00
    1.0314293777733425e-02 -2.1691307487397364e+00
    9.9316951516037373e-03 -2.0431393992214923e+00
    9.4982662965384553e-03 -1.8941037104602754e+00
    1.1823635053228948e-02 -2.6356078182135856e+00
    1.0899201936043759e-02 -2.3545950070147565e+00
    9.6451064356370061e-03 -1.9454938284556800e+00
    1.0709146385997787e-02 -2.2951264962530540e+00
    1.0366939370205004e-02 -2.1861429000000845e+00
    1.1175510108453888e-02 -2.4399026619928934e+00
    1.0589779822060436e-02 -2.2574078964509052e+00
    1.0834312616987288e-02 -2.3343683004870588e+00
    9.0907786735853879e-03 -1.7451230745865882e+00
    9.8456498482516856e-03 -2.0141544582822295e+00
    9.1473016783165141e-03 -1.7664570106205160e+00
    7.9281697426977788e-03 -1.1584926685818495e+00
    8.3235913114151436e-03 -7.0591536200630900e-01
    2.1729011673120566e-02 -1.8677184190940710e-01
    1.5888180545318983e-02 -2.6402942726434581e-01
    8.1950260552315010e-03 -7.4197213430399367e-01
    7.9763878320850360e-03 -8.3187451525183487e-01
    7.8475968209377692e-03 -9.6684156338856897e-01
    7.8464861734913877e-03 -1.0296529440472575e+00
    8.0620686873201751e-03 -1.2658353689506980e+00
    8.1189308554376373e-03 -1.3026778945578592e+00
    8.3378299056117607e-03 -1.4238015607358152e+00
    9.0907786735853879e-03 -1.7451230745865882e+00
    1.0420770978284583e-02 -2.2034661689925570e+00
    1.0212413823976094e-02 -2.1360009363293817e+00
    8.8839263721678507e-03 -1.6646880911083510e+00
    9.2979705260881357e-03 -1.8221932799553850e+00
    1.0589779822060436e-02 -2.2574078964509052e+00
    8.1950260552315010e-03 -1.3477595097800392e+00
    9.2667185207527120e-03 -1.8107584471282070e+00
    1.2417560384288038e-02 -2.8106938645110398e+00
    1.3273106412584050e-02 -3.0575868277617775e+00
    1.0021358220331953e-02 -2.0730699572419282e+00
    1.1402216970722842e-02 -2.5090001927487204e+00
    1.1647972892194668e-02 -2.5831015839690581e+00
    1.0965704267447644e-02 -2.3752454704253445e+00
    1.5179931631590843e-02 -3.5925269657999763e+00
    1.2417560384288038e-02 -2.8106938645110398e+00
    1.1563789365399610e-02 -2.5578062634523224e+00
    9.6073219714574373e-03 -1.9323670855175235e+00
    9.4632879554761885e-03 -1.8817056960456418e+00
    9.0097256546800130e-03 -1.7140749975847411e+00
    1.0475827459157276e-02 -2.2211108331943574e+00
    1.1402216970722842e-02 -2.5090001927487204e+00
    1.2009766727510578e-02 -2.6908624529582967e+00
    1.1734552705037586e-02 -2.6090261677222895e+00
    1.1103792922518481e-02 -2.4178820993079571e+00
    8.8136264606852813e-03 -1.6363636363636358e+00
    9.9760614886818880e-03 -2.0579830217101063e+00
    9.4632879554761885e-03 -1.8817056960456418e+00
    8.5484472641571482e-03 -1.5234485624359160e+00
    7.8835493488791531e-03 -1.1067971810589328e+00
    1.4032363542616957e-02 -3.0555865781563663e-01
    1.8928245829274902e-02 -2.1693045781865619e-01
    1.7713308523060776e-02 -2.3345742581517182e-01
    8.4451213227703190e-03 -6.7750748589415821e-01
    8.1291426867160146e-03 -7.6395673518755891e-01
    7.9229385690537408e-03 -8.6716117529384817e-01
    7.8502960723191920e-03 -9.5817714869217285e-01
    7.9632557776490240e-03 -1.1909988500706310e+00
    7.9697305777999012e-03 -1.1965341570849695e+00
    8.1721703167422308e-03 -1.3346347815039139e+00
    8.1721703167422308e-03 -1.3346347815039139e+00
    8.9329085295353373e-03 -1.6841041822143081e+00
    9.9316951516037373e-03 -2.0431393992214923e+00
    9.8882329911870234e-03 -2.0285321118325017e+00
    1.0366939370205004e-02 -2.1861429000000845e+00
    1.0114853380149216e-02 -2.1040031531090162e+00
    1.0770978938530337e-02 -2.3145502494313788e+00
    1.1481902127729302e-02 -2.5331140255951103e+00
    1.3559298439274961e-02 -3.1390537645260821e+00
    1.3710785081830660e-02 -3.1819805153394638e+00
    1.2009766727510578e-02 -2.6908624529582967e+00
    9.8039215686274508e-03 -2. 1.0163110072794196e-02
    -2.1198648920376568e+00 1.1402216970722842e-02
    -2.5090001927487204e+00 1.2207363689507941e-02
    -2.7491257351551419e+00 1.3559298439274961e-02
    -3.1390537645260821e+00 1.5639942600153590e-02
    -3.7193189340702331e+00 1.1823635053228948e-02
    -2.6356078182135856e+00 1.0532149518073608e-02
    -2.2390876520389971e+00 1.1103792922518481e-02
    -2.4178820993079571e+00 1.1249102509006736e-02
    -2.4624158997805532e+00 1.1647972892194668e-02
    -2.5831015839690581e+00 1.1915332948608583e-02
    -2.6628760937957834e+00 1.0475827459157276e-02
    -2.2211108331943574e+00 1.0899201936043759e-02
    -2.3545950070147565e+00 9.6451064356370061e-03
    -1.9454938284556800e+00 1.0163110072794196e-02
    -2.1198648920376568e+00 8.5127746448984895e-03
    -1.5073350070669134e+00 8.9580594525885734e-03
    -1.6939791077198392e+00 7.8475968209377692e-03
    -9.6684156338856897e-01 1.2417560384288037e-02
    -3.5578403348241000e-01 2.2465556321349247e-02
    -1.8022929453307149e-01 1.8493846765949739e-02
    -2.2254954928463114e-01 1.2107064670839848e-02
    -3.6770107646382144e-01 8.2067983121725373e-03
    -7.3833521444455630e-01 7.9632557776490240e-03
    -8.3963137322987014e-01 7.9229385690537408e-03
    -8.6716117529384817e-01 7.8622378725113282e-03
    -1.0722679022083428e+00 7.9632557776490240e-03
    -1.1909988500706310e+00 7.9229385690537408e-03
    -1.1531881598148557e+00 8.0991454242720813e-03
    -1.2902211665767369e+00 8.2692139078903142e-03
    -1.3883917238832020e+00 8.7469465313680540e-03
    -1.6089467602811958e+00 9.5702659299078986e-03
    -1.9194297398747864e+00 1.0314293777733425e-02
    -2.1691307487397364e+00 9.1473016783165141e-03
    -1.7664570106205160e+00 1.0067612680472909e-02
    -2.0884074753583239e+00 9.2979705260881357e-03
    -1.8221932799553850e+00 9.4289684780594751e-03
    -1.8694784018408708e+00 1.1324645051840436e-02
    -2.4854414808719016e+00 1.4966293320367677e-02
    -3.5333905083996138e+00 1.0589779822060436e-02
    -2.2574078964509052e+00 1.2107064670839850e-02
    -2.7196004146003401e+00 1.3413516946377529e-02
    -3.0976181325718803e+00 1.0965704267447644e-02
    -2.3752454704253445e+00 9.9760614886818880e-03
    -2.0579830217101063e+00 1.0648763122304067e-02
    -2.2760833806246095e+00 1.0420770978284583e-02
    -2.2034661689925570e+00 1.0475827459157276e-02
    -2.2211108331943574e+00 1.1103792922518481e-02
    -2.4178820993079571e+00 9.4632879554761885e-03
    -1.8817056960456418e+00 1.1823635053228948e-02
    -2.6356078182135856e+00 1.1324645051840436e-02
    -2.4854414808719016e+00 9.6451064356370061e-03
    -1.9454938284556800e+00 8.7910075703109582e-03
    -1.6271266034351957e+00 8.8600780935700132e-03
    -1.6551422290302815e+00 8.6633371201309869e-03
    -1.5737097890017715e+00 8.2562472330924355e-03
    -1.3814835257889051e+00 8.5304530960133608e-03
    -1.5153535218873171e+00 8.7687833271261739e-03
    -6.1805143607935387e-01 1.3137759457341578e-02
    -3.3124867665476965e-01 2.2465556321349247e-02
    -1.8022929453307149e-01 2.1729011673120566e-02
    -1.8677184190940710e-01 1.7713308523060776e-02
    -2.3345742581517182e-01 8.9329085295353373e-03
    -5.9378749281720289e-01 8.2435253090536193e-03
    -7.2746795255401264e-01 7.9697305777999012e-03
    -8.3574714025400532e-01 7.9763878320850360e-03
    -8.3187451525183487e-01 7.8518851689270992e-03
    -1.0483590051950642e+00 7.9129952613388801e-03
    -1.1426720797609808e+00 8.3378299056117607e-03
    -1.4238015607358152e+00 8.5304530960133608e-03
    -1.5153535218873171e+00 8.1189308554376373e-03
    -1.3026778945578592e+00 1.0114853380149216e-02
    -2.1040031531090162e+00 9.8039215686274508e-03 -2.
    1.1402216970722842e-02 -2.5090001927487204e+00
    1.2527782291046204e-02 -2.8428212488760578e+00
    1.0709146385997787e-02 -2.2951264962530540e+00
    9.7630249527327229e-03 -1.9860625479688310e+00
    1.0532149518073608e-02 -2.2390876520389971e+00
    1.0212413823976094e-02 -2.1360009363293817e+00
    9.8039215686274508e-03 -2. 1.1647972892194668e-02
    -2.5831015839690581e+00 1.3559298439274961e-02
    -3.1390537645260821e+00 1.2107064670839850e-02
    -2.7196004146003401e+00 1.0114853380149216e-02
    -2.1040031531090162e+00 1.1033880034428206e-02
    -2.3963355863535143e+00 1.0709146385997787e-02
    -2.2951264962530540e+00 1.1175510108453888e-02
    -2.4399026619928934e+00 1.0770978938530337e-02
    -2.3145502494313788e+00 8.6836919783775599e-03
    -1.5823833315205309e+00 1.2759373940549573e-02
    -2.9099974409581488e+00 9.9760614886818880e-03
    -2.0579830217101063e+00 1.0212413823976094e-02
    -2.1360009363293817e+00 9.6073219714574373e-03
    -1.9323670855175235e+00 9.2667185207527120e-03
    -1.8107584471282070e+00 8.7910075703109582e-03
    -1.6271266034351957e+00 8.3096138182424898e-03
    -1.4094598898897599e+00 7.8488667099902883e-03
    -1.0389606596673662e+00 1.0475827459157278e-02
    -4.5022516889074821e-01 1.4032363542616957e-02
    -3.0555865781563663e-01 2.2465556321349247e-02
    -1.8022929453307149e-01 2.1729011673120566e-02
    -1.8677184190940710e-01 2.0458485722386947e-02
    -1.9929783282370206e-01 1.5404188097575645e-02
    -2.7364068968839428e-01 8.5127746448984895e-03
    -6.6342252738220142e-01 8.1291426867160146e-03
    -7.6395673518755891e-01 8.0202398560547360e-03
    -8.0887272975221691e-01 7.8703894950974684e-03
    -9.2003968884262999e-01 7.8536342902817014e-03
    -1.0530929395530542e+00 7.8598451526919241e-03
    -1.0674376220290707e+00 8.0991454242720813e-03
    -1.2902211665767369e+00 8.0895675373445688e-03
    -1.2840597820232216e+00 8.4130669329665723e-03
    -1.4607541945520499e+00 8.7687833271261721e-03
    -1.6179883123378203e+00 8.9580594525885734e-03
    -1.6939791077198392e+00 9.7229377082163476e-03
    -1.9723361503835724e+00 1.2641655714259134e-02
    -2.8759056544562327e+00 1.1481902127729302e-02
    -2.5331140255951103e+00 1.3273106412584050e-02
    -3.0575868277617775e+00 1.2641655714259134e-02
    -2.8759056544562327e+00 1.1249102509006736e-02
    -2.4624158997805532e+00 1.1915332948608583e-02
    -2.6628760937957834e+00 1.3710785081830660e-02
    -3.1819805153394638e+00 1.3007192810292886e-02
    -2.9814239699997174e+00 1.2107064670839850e-02
    -2.7196004146003401e+00 9.6836384054450730e-03
    -1.9588150810475018e+00 9.5702659299078986e-03
    -1.9194297398747864e+00 1.2207363689507941e-02
    -2.7491257351551419e+00 1.1823635053228948e-02
    -2.6356078182135856e+00 1.0420770978284583e-02
    -2.2034661689925570e+00 1.1481902127729302e-02
    -2.5331140255951103e+00 9.4289684780594751e-03
    -1.8694784018408708e+00 8.5854032046563892e-03
    -1.5398740601789882e+00 8.6836919783775599e-03
    -1.5823833315205309e+00 9.0632739584453476e-03
    -1.7346495349231241e+00 8.3974676669013922e-03
    -1.4532336742203960e+00 8.0533075272108540e-03
    -1.2598449517006374e+00 8.3671046729802325e-03
    -6.9522178715380689e-01 1.3559298439274961e-02
    -3.1856733748903310e-01 1.3868340953152189e-02
    -3.0993404669460345e-01 2.9514410854296430e-02
    -1.3530201829834768e-01 2.1729011673120566e-02
    -1.8677184190940710e-01 2.0458485722386947e-02
    -1.9929783282370206e-01 1.8928245829274902e-02
    -2.1693045781865619e-01 1.0834312616987290e-02
    -4.2838141684469966e-01 8.2562472330924338e-03
    -7.2385951864966591e-01 8.0533075272108540e-03
    -7.9374846773813046e-01 8.0447458234367813e-03
    -7.9751452135036771e-01 7.8598451526919241e-03
    -9.3682289190737000e-01 7.8475968209377692e-03
    -1.0342956259505622e+00 7.8447418227072432e-03
    -1.0204334391177725e+00 8.0363817913140199e-03
    -1.2479868846938322e+00 8.1395702201852056e-03
    -1.3153179652438609e+00 8.7044075395960336e-03
    -1.5911461377717739e+00 9.6451064356370061e-03
    -1.9454938284556800e+00 9.1473016783165141e-03
    -1.7664570106205160e+00 9.4982662965384553e-03
    -1.8941037104602754e+00 9.8456498482516856e-03
    -2.0141544582822295e+00 9.5339199373525880e-03
    -1.9066768647745922e+00 9.1187843011984529e-03
    -1.7557245818577156e+00 9.7630249527327229e-03
    -1.9860625479688310e+00 9.9760614886818880e-03
    -2.0579830217101063e+00 9.8882329911870234e-03
    -2.0285321118325017e+00 1.0899201936043759e-02
    -2.3545950070147565e+00 1.0262797085994913e-02
    -2.1524198922155171e+00 9.3952920163091619e-03
    -1.8574175621006708e+00 8.6433367572452645e-03
    -1.5651237660647717e+00 1.1402216970722842e-02
    -2.5090001927487204e+00 9.4632879554761885e-03
    -1.8817056960456418e+00 9.0097256546800130e-03
    -1.7140749975847411e+00 8.6043755730529272e-03
    -1.5482075328861751e+00 8.7687833271261721e-03
    -1.6179883123378203e+00 8.7910075703109582e-03
    -1.6271266034351957e+00 9.2979705260881357e-03
    -1.8221932799553850e+00 8.8136264606852813e-03
    -1.6363636363636358e+00 7.9335752577627955e-03
    -1.1638287479252927e+00 7.8576139173297775e-03
    -9.4105962634627072e-01 9.3622432841373848e-03
    -5.4185297928754683e-01 1.3273106412584048e-02
    -3.2705530744715522e-01 2.1729011673120566e-02
    -1.8677184190940710e-01 2.2465556321349247e-02
    -1.8022929453307149e-01 2.1729011673120566e-02
    -1.8677184190940710e-01 1.9397163679091868e-02
    -2.1118934387685415e-01 1.8928245829274902e-02
    -2.1693045781865619e-01 1.6426680402129593e-02
    -2.5415212262620729e-01 1.1647972892194661e-02
    -3.8713150354058212e-01 8.3821482313197557e-03
    -6.9166850124508183e-01 8.0363817913140199e-03
    -8.0129047209124282e-01 7.9832288608841923e-03
    -8.2801332151485374e-01 7.8647925171090281e-03
    -9.2839899083985900e-01 7.8433154915930319e-03
    -9.9328099894095578e-01 7.8703894950974667e-03
    -1.0869096324072243e+00 8.3235913114151436e-03
    -1.4166004224045525e+00 8.5304530960133608e-03
    -1.5153535218873171e+00 8.8600780935700132e-03
    -1.6551422290302815e+00 8.6633371201309869e-03
    -1.5737097890017715e+00 9.3298075325344062e-03
    -1.8337789119845433e+00 9.2667185207527120e-03
    -1.8107584471282070e+00 1.0532149518073608e-02
    -2.2390876520389971e+00 9.4982662965384553e-03
    -1.8941037104602754e+00 1.1103792922518481e-02
    -2.4178820993079571e+00 1.0420770978284583e-02
    -2.2034661689925570e+00 9.4982662965384553e-03
    -1.8941037104602754e+00 9.1187843011984529e-03
    -1.7557245818577156e+00 9.5339199373525880e-03
    -1.9066768647745922e+00 1.0212413823976094e-02
    -2.1360009363293817e+00 1.0420770978284583e-02
    -2.2034661689925570e+00 1.0212413823976094e-02
    -2.1360009363293817e+00 8.8839263721678507e-03
    -1.6646880911083510e+00 8.5854032046563892e-03
    -1.5398740601789882e+00 8.5127746448984895e-03
    -1.5073350070669134e+00 9.2667185207527120e-03
    -1.8107584471282070e+00 9.3622432841373848e-03
    -1.8455190581674863e+00 8.9580594525885734e-03
    -1.6939791077198392e+00 8.0801967757416718e-03
    -1.2779421327566265e+00 7.8647925171090281e-03
    -9.2839899083985900e-01 8.3821482313197557e-03
    -6.9166850124508183e-01 1.0709146385997783e-02
    -4.3570583217638170e-01 1.3273106412584048e-02
    -3.2705530744715522e-01 2.1729011673120566e-02
    -1.8677184190940710e-01 2.9514410854296430e-02
    -1.3530201829834768e-01 2.2465556321349247e-02
    -1.8022929453307149e-01 1.9905341850913329e-02
    -2.0531577324874647e-01 1.8928245829274902e-02
    -2.1693045781865619e-01 1.7713308523060776e-02
    -2.3345742581517182e-01 1.7360937026818912e-02
    -2.3876165079580167e-01 1.0366939370205004e-02
    -4.5742663940219158e-01 8.2824284289178558e-03
    -7.1666271158535289e-01 8.0447458234367813e-03
    -7.9751452135036771e-01 7.9974677368479883e-03
    -8.2032452774927278e-01 7.9178807314970439e-03
    -8.7114481036875335e-01 7.8647925171090281e-03
    -1.0771231010229432e+00 7.8576139173297775e-03
    -1.0626319225728225e+00 7.9508484662310520e-03
    -1.1800309819151233e+00 8.1502157520955704e-03
    -1.3217085837078131e+00 9.0097256546800130e-03
    -1.7140749975847411e+00 8.8366474186712066e-03
    -1.6457014715109577e+00 9.3952920163091619e-03
    -1.8574175621006708e+00 9.8456498482516856e-03
    -2.0141544582822295e+00 1.1402216970722842e-02
    -2.5090001927487204e+00 1.0965704267447644e-02
    -2.3752454704253445e+00 1.0021358220331953e-02
    -2.0730699572419282e+00 9.4632879554761885e-03
    -1.8817056960456418e+00 1.0163110072794196e-02
    -2.1198648920376568e+00 8.9082003877484148e-03
    -1.6743413043399493e+00 9.5339199373525880e-03
    -1.9066768647745922e+00 8.9836620881806120e-03
    -1.7039685360738979e+00 9.7229377082163476e-03
    -1.9723361503835724e+00 9.7630249527327229e-03
    -1.9860625479688310e+00 9.8456498482516856e-03
    -2.0141544582822295e+00 9.1473016783165141e-03
    -1.7664570106205160e+00 9.3622432841373848e-03
    -1.8455190581674863e+00 8.9329085295353373e-03
    -1.6841041822143081e+00 8.1502157520955704e-03
    -1.3217085837078131e+00 7.8433154915930319e-03
    -9.9328099894095578e-01 8.4451213227703190e-03
    -6.7750748589415821e-01 9.2059168688019485e-03
    -5.5918187182857682e-01 1.1324645051840436e-02
    -4.0234300734740963e-01 2.0458485722386947e-02
    -1.9929783282370206e-01 2.1063531820141576e-02
    -1.9312181983410703e-01 3.1516193284773786e-02
    -1.2641888767038476e-01 2.6459108187655844e-02
    -1.5161960871578067e-01 1.9905341850913329e-02
    -2.0531577324874647e-01 1.9397163679091868e-02
    -2.1118934387685415e-01 1.7360937026818912e-02
    -2.3876165079580167e-01 1.7360937026818912e-02
    -2.3876165079580167e-01 1.7360937026818912e-02
    -2.3876165079580167e-01 1.1103792922518476e-02
    -4.1358509593425558e-01 8.3096138182424898e-03
    -7.0949163376207514e-01 8.1089324923579193e-03
    -7.7135081438541730e-01 8.1089324923579193e-03
    -7.7135081438541730e-01 7.8464861734913894e-03
    -9.7120103019304660e-01 7.8703894950974667e-03
    -1.0869096324072243e+00 7.9697305777999012e-03
    -1.1965341570849695e+00 8.1721703167422308e-03
    -1.3346347815039139e+00 8.6836919783775599e-03
    -1.5823833315205309e+00 8.6043755730529272e-03
    -1.5482075328861751e+00 8.8136264606852813e-03
    -1.6363636363636358e+00 1.0021358220331953e-02
    -2.0730699572419282e+00 9.9316951516037373e-03
    -2.0431393992214923e+00 9.2360382427885742e-03
    -1.7994708216848752e+00 9.2979705260881357e-03
    -1.8221932799553850e+00 8.3974676669013922e-03
    -1.4532336742203960e+00 9.4632879554761885e-03
    -1.8817056960456418e+00 1.0366939370205004e-02
    -2.1861429000000845e+00 9.5339199373525880e-03
    -1.9066768647745922e+00 9.7229377082163476e-03
    -1.9723361503835724e+00 9.7229377082163476e-03
    -1.9723361503835724e+00 8.9580594525885734e-03
    -1.6939791077198392e+00 8.9580594525885734e-03
    -1.6939791077198392e+00 9.0907786735853879e-03
    -1.7451230745865882e+00 8.1721703167422308e-03
    -1.3346347815039139e+00 8.1291426867160146e-03
    -1.3089746499250248e+00 7.8488667099902883e-03
    -9.6250035138015744e-01 8.3671046729802325e-03
    -6.9522178715380689e-01 8.8366474186712084e-03
    -6.0764362025019991e-01 1.0709146385997783e-02
    -4.3570583217638170e-01 1.6150009695401580e-02
    -2.5912599825880289e-01 2.0458485722386947e-02
    -1.9929783282370206e-01 2.6459108187655844e-02
    -1.5161960871578067e-01 2.9514410854296430e-02
    -1.3530201829834768e-01 2.6459108187655844e-02
    -1.5161960871578067e-01 2.5256817329835597e-02
    -1.5920308451727830e-01 1.9397163679091868e-02
    -2.1118934387685415e-01 1.8493846765949739e-02
    -2.2254954928463114e-01 1.8493846765949739e-02
    -2.2254954928463114e-01 1.8493846765949739e-02
    -2.2254954928463114e-01 1.8493846765949739e-02
    -2.2254954928463114e-01 1.0420770978284585e-02
    -4.5383043047001176e-01 8.5484472641571482e-03
    -6.5640548992415670e-01 8.3821482313197557e-03
    -6.9166850124508183e-01 8.1395702201852074e-03
    -7.6027244090336665e-01 8.0124586331783536e-03
    -8.1267937170450566e-01 7.8766402254370881e-03
    -1.0968000259982227e+00 7.9037377285387494e-03
    -1.1322770341445962e+00 8.1189308554376373e-03
    -1.3026778945578592e+00 8.5304530960133608e-03
    -1.5153535218873171e+00 8.8366474186712066e-03
    -1.6457014715109577e+00 8.7044075395960336e-03
    -1.5911461377717739e+00 9.4632879554761885e-03
    -1.8817056960456418e+00 9.0632739584453476e-03
    -1.7346495349231241e+00 9.2667185207527120e-03
    -1.8107584471282070e+00 9.0632739584453476e-03
    -1.7346495349231241e+00 1.0589779822060436e-02
    -2.2574078964509052e+00 9.5339199373525880e-03
    -1.9066768647745922e+00 1.0163110072794196e-02
    -2.1198648920376568e+00 8.8600780935700132e-03
    -1.6551422290302815e+00 9.7229377082163476e-03
    -1.9723361503835724e+00 8.9836620881806120e-03
    -1.7039685360738979e+00 9.0362596689717006e-03
    -1.7243011006533304e+00 8.2692139078903142e-03
    -1.3883917238832020e+00 7.9697305777999012e-03
    -1.1965341570849695e+00 7.8502960723191902e-03
    -1.0436483497492208e+00 8.4130669329665723e-03
    -6.8457787335442599e-01 8.7254901960784319e-03
    -6.2500000000000011e-01 9.5702659299078986e-03
    -5.2098807225172772e-01 1.4203287792151485e-02
    -3.0114161869426798e-01 1.7360937026818912e-02
    -2.3876165079580167e-01 2.5256817329835597e-02
    -1.5920308451727830e-01 3.4002585805878310e-02
    -1.1690776692807599e-01 3.1516193284773786e-02
    -1.2641888767038476e-01 2.7858346204144596e-02
    -1.4367394278317269e-01 2.6459108187655844e-02
    -1.5161960871578067e-01 2.3286610602373782e-02
    -1.7347216662217774e-01 1.8928245829274902e-02
    -2.1693045781865619e-01 1.9397163679091868e-02
    -2.1118934387685415e-01 1.9397163679091868e-02
    -2.1118934387685415e-01 1.9397163679091868e-02
    -2.1118934387685415e-01 1.9905341850913329e-02
    -2.0531577324874647e-01 2.0458485722386947e-02
    -1.9929783282370206e-01 9.8039215686274508e-03
    -5.0000000000000000e-01 8.8600780935700115e-03
    -6.0417768483007195e-01 8.2824284289178558e-03
    -7.1666271158535289e-01 8.1089324923579193e-03
    -7.7135081438541730e-01 7.8536342902817014e-03
    -9.4958380446877966e-01 7.8734328630492671e-03
    -1.0918416673680229e+00 7.9391561567784246e-03
    -1.1691968510887059e+00 8.1502157520955704e-03
    -1.3217085837078131e+00 9.1473016783165141e-03
    -1.7664570106205160e+00 9.0097256546800130e-03
    -1.7140749975847411e+00 9.0632739584453476e-03
    -1.7346495349231241e+00 9.9760614886818880e-03
    -2.0579830217101063e+00 9.4982662965384553e-03
    -1.8941037104602754e+00 9.8039215686274508e-03 -2.
    9.8039215686274508e-03 -2. 1.0212413823976094e-02
    -2.1360009363293817e+00 1.0021358220331953e-02
    -2.0730699572419282e+00 9.2979705260881357e-03
    -1.8221932799553850e+00 8.3523331453750019e-03
    -1.4310643610541955e+00 7.9632557776490240e-03
    -1.1909988500706310e+00 7.8598451526919241e-03
    -1.0674376220290707e+00 8.0124586331783536e-03
    -8.1267937170450566e-01 8.5304530960133608e-03
    -6.5991201759608975e-01 8.7687833271261739e-03
    -6.1805143607935387e-01 1.0021358220331952e-02
    -4.8237638894272000e-01 1.8493846765949739e-02
    -2.2254954928463114e-01 1.8089989152885601e-02
    -2.2805581830941171e-01 2.0458485722386947e-02
    -1.9929783282370206e-01 2.5256817329835597e-02
    -1.5920308451727830e-01 2.9514410854296430e-02
    -1.3530201829834768e-01 1. 0. 4.7923449252859789e-02
    -8.2385255457163450e-02 4.1549953314659195e-02
    -9.5238095238095233e-02 3.7205615207155547e-02
    -1.0660035817780522e-01 3.4002585805878310e-02
    -1.1690776692807599e-01 2.5256817329835597e-02
    -1.5920308451727830e-01 2.5256817329835597e-02
    -1.5920308451727830e-01 2.4209468745093041e-02
    -1.6647409968535890e-01 2.4209468745093041e-02
    -1.6647409968535890e-01 2.4209468745093041e-02
    -1.6647409968535890e-01 1.9905341850913329e-02
    -2.0531577324874647e-01 1.5404188097575645e-02
    -2.7364068968839428e-01 9.2979705260881340e-03
    -5.4878920419708954e-01 8.3378299056117572e-03
    -7.0234506519518369e-01 8.1834842672863541e-03
    -7.4561656093735995e-01 7.9974677368479883e-03
    -8.2032452774927278e-01 7.8502960723191920e-03
    -9.5817714869217285e-01 7.8441078017070388e-03
    -1.0158560283424194e+00 7.9082812260068587e-03
    -1.1374596401585821e+00 7.8766402254370881e-03
    -1.0968000259982227e+00 8.3671046729802342e-03
    -1.4383899044561528e+00 8.7910075703109582e-03
    -1.6271266034351957e+00 9.0362596689717006e-03
    -1.7243011006533304e+00 8.9580594525885734e-03
    -1.6939791077198392e+00 8.6433367572452645e-03
    -1.5651237660647717e+00 8.6633371201309869e-03
    -1.5737097890017715e+00 8.1395702201852056e-03
    -1.3153179652438609e+00 8.2067983121725373e-03
    -1.3543983551594407e+00 7.8703894950974667e-03
    -1.0869096324072243e+00 7.9974677368479883e-03
    -8.2032452774927278e-01 8.4289500927333897e-03
    -6.8104022603197534e-01 9.1187843011984529e-03
    -5.6956541494788993e-01 1.0589779822060439e-02
    -4.4298595817450581e-01 1.2009766727510576e-02
    -3.7162806255690028e-01 2.0458485722386947e-02
    -1.9929783282370206e-01 2.0458485722386947e-02
    -1.9929783282370206e-01 2.6459108187655844e-02
    -1.5161960871578067e-01 2.6459108187655844e-02
    -1.5161960871578067e-01 3.4002585805878310e-02
    -1.1690776692807599e-01 4.1549953314659195e-02
    -9.5238095238095233e-02 8.2818687864678844e-02
    -4.7457899787624949e-02 4.1549953314659195e-02
    -9.5238095238095233e-02 4.1549953314659195e-02
    -9.5238095238095233e-02 4.1549953314659195e-02
    -9.5238095238095233e-02 4.1549953314659195e-02
    -9.5238095238095233e-02 4.7923449252859789e-02
    -8.2385255457163450e-02 2.7858346204144596e-02
    -1.4367394278317269e-01 2.7858346204144596e-02
    -1.4367394278317269e-01 2.7858346204144596e-02
    -1.4367394278317269e-01 2.6459108187655844e-02
    -1.5161960871578067e-01 2.6459108187655844e-02
    -1.5161960871578067e-01 2.6459108187655844e-02
    -1.5161960871578067e-01 2.1063531820141576e-02
    -1.9312181983410703e-01 1.5888180545318983e-02
    -2.6402942726434581e-01 9.5339199373525862e-03
    -5.2447271925031758e-01 8.9836620881806138e-03
    -5.8686529641215823e-01 8.2067983121725373e-03
    -7.3833521444455630e-01 8.1189308554376373e-03
    -7.6764947357873836e-01 8.0620686873201751e-03
    -7.8999214631594661e-01 8.0282136969241219e-03
    -8.0507648589941339e-01 7.8993639070978339e-03
    -8.8721395073426901e-01 7.9281697426977788e-03
    -8.6319061580608403e-01 8.1950260552315010e-03
    -7.4197213430399367e-01 8.0202398560547360e-03
    -8.0887272975221691e-01 7.8475968209377692e-03
    -9.6684156338856897e-01 7.8734328630492689e-03
    -9.1588371270954017e-01 7.8622378725113282e-03
    -9.3260275528204595e-01 8.2188037420142766e-03
    -7.3470564687039985e-01 8.7044075395960319e-03
    -6.2847778482521466e-01 8.7687833271261739e-03
    -6.1805143607935387e-01 9.2059168688019485e-03
    -5.5918187182857682e-01 1.0021358220331952e-02
    -4.8237638894272000e-01 2.1063531820141576e-02
    -1.9312181983410703e-01 2.1063531820141576e-02
    -1.9312181983410703e-01 2.1063531820141576e-02
    -1.9312181983410703e-01 2.5256817329835597e-02
    -1.5920308451727830e-01 2.7858346204144596e-02
    -1.4367394278317269e-01 2.7858346204144596e-02
    -1.4367394278317269e-01 3.7205615207155547e-02
    -1.0660035817780522e-01 4.1549953314659195e-02
    -9.5238095238095233e-02</input_scale>
  <output_scale>
    1.0526315789473684e+00 0.</output_scale>
  <inv_output_scale>
    9.4999999999999996e-01 0.</inv_output_scale>
  <weights>
    <_>
      -1.1719048386403424e-03 -2.2903224389177911e-04
      -9.9637750405231888e-04 -5.5088375721748159e-04
      2.2039270841974236e-04 1.2144499427915077e-03
      9.9728247011042037e-04 2.0453599492093418e-04
      -7.2831549546728146e-04 -4.2920232853557353e-04
      -1.1054717958401724e-03 -1.2409612586460942e-04
      -2.1397120762249158e-05 -7.8018402384446585e-04
      6.7194088742161514e-04 -1.1208781013474275e-03
      1.1037170489498088e-03 1.0083693640301039e-03
      -2.5698247005999147e-04 -3.4383640164285737e-05
      3.0002183913935715e-04 -7.7645728251324352e-04
      -6.5397802009701264e-04 9.5527311481024093e-04
      -1.0954164450422850e-03 -3.1663012947851025e-04
      6.1523554708813478e-04 -6.3403300196013517e-04
      1.0630743572223426e-03 -2.4215284090006096e-04
      1.2150750992007805e-03 -3.7732545206526025e-04
      2.2581237915161135e-04 8.1166924113520002e-04
      1.1322676431532379e-03 5.1786688077618958e-04
      8.1904968067006900e-04 5.2277548999592920e-04
      1.2256443938238879e-03 -1.5902424652943092e-04
      3.6772611138413813e-01 1.0527007357518856e-02
      8.6664859981063908e-03 3.8062489086940318e-03
      -9.2518590441395699e-03 1.0434932699987210e-02
      -5.2992552518905988e-03 -7.7583729989064727e-03
      -1.8063066728455233e-02 1.1444498088531757e-02
      3.1715013452367595e-03 8.9698224435382466e-03
      4.5225589618984145e-03 -5.1897287509072854e-03
      -2.5015146020938343e-02 5.5273677581776084e-03
      -2.2195449528240391e-02 7.2231368735154013e-03
      -1.2842765109623204e-02 1.2473365537255835e-02
      -7.1047557816077099e-03 2.0619253741871332e-02
      1.8762612069599741e-02 1.0311134467117731e-02
      4.0095032375635983e-03 -2.2271323885426391e-02
      1.1456054196297673e-02 -1.2371137960298517e-02
      4.6951211442216693e-03 3.1090171153864178e-03
      -9.5784645850950766e-03 -1.0678644718474172e-02
      1.1157562039378340e-02 4.7231118422570465e-03
      5.8358313906015508e-03 2.0382803557081285e-02
      9.6345526004053949e-03 4.2017396852966817e-03
      -1.1177112782527058e-02 -9.3022724735125871e-03
      5.3823051542704281e-02 1.0639734610514333e-02
      9.0598656431108444e-03 3.2767583223109430e-03
      -8.3951108201385568e-03 6.0079515353207045e-03
      -4.2424169978971683e-03 -8.2496604992097246e-03
      -6.0919924706613936e-03 1.1680027853804906e-02
      2.9598235684193805e-03 6.8588012349836171e-03
      4.5073420615736248e-03 -6.1078514533077855e-03
      -6.0172812456540320e-03 3.7231576752884284e-03
      -6.1217297453765541e-03 7.6246799434865568e-03
      -1.2817153070521935e-02 1.2316785606227537e-02
      -6.6129692651913678e-03 7.9560384820561089e-03
      3.4706231448902790e-03 1.0117077303881984e-02
      3.3803037996741107e-03 -6.9435816569375156e-03
      1.1170521211665089e-02 -1.2471121098731698e-02
      5.2531112908940757e-03 3.0477708150773997e-03
      -8.6496089458762172e-03 -1.1683265276358828e-02
      1.1320975366806695e-02 3.2481918508633881e-03
      6.5089340088141413e-03 9.4739144629189947e-03
      7.7322767211370456e-03 4.8081143761273719e-03
      -1.1441683269914042e-02 -8.3036921472768449e-03
      5.7293465439198263e-02 8.5057215099287493e-03
      7.0603949852758932e-03 2.6826958827208488e-03
      -5.6756079492466284e-03 4.3510469147983125e-03
      -1.0730773094268942e-03 -6.3599900394453795e-03
      -3.1052828239716852e-03 8.1652498803451261e-03
      2.2404426491468483e-03 6.1303145077238348e-03
      2.5339920410631079e-03 -4.3164873302763704e-03
      -5.0470569616984425e-03 1.8306062196047580e-03
      -4.0368429383857256e-03 5.5224483750106312e-03
      -9.2847382993568421e-03 7.1654544354889374e-03
      -4.7140429019442102e-03 4.4678696270079084e-03
      6.6902122090449316e-03 6.2686096799947693e-03
      3.1325549472233419e-03 -5.4709770708729136e-03
      7.7477901480134384e-03 -9.0708251386758827e-03
      3.4601099460843739e-03 2.6531286503090005e-03
      -6.1486030758598747e-03 -6.7898425545425377e-03
      9.8030590516879918e-03 1.8029658388954773e-03
      4.5500802224018181e-03 5.8761243491809046e-03
      7.1292059271621548e-03 3.7510820967151647e-03
      -6.4859259286381317e-03 -6.9238480296834283e-03
      6.6673279525044360e-01 1.2204611781349131e-01
      1.0159970347210938e-01 4.2391098784378752e-02
      -9.2340108497845255e-02 4.3908796772225075e-02
      -3.7676592540079434e-02 -8.0559572865196674e-02
      -3.9216863047205966e-02 1.2652820433623976e-01
      3.5894349222835450e-02 8.0010924814591336e-02
      3.8779876368205790e-02 -5.7500949353328459e-02
      -3.1112516787660201e-02 2.9866580107506219e-02
      -3.7182659649663240e-02 7.0456731000378178e-02
      -1.1289844946996175e-01 1.3119349256110138e-01
      -7.7651602900569730e-02 3.6226465814703471e-02
      4.3883922604102212e-02 1.0181949379373624e-01
      3.3382067799261991e-02 -4.6935434871277604e-02
      1.2778434343624778e-01 -1.3399466786251407e-01
      3.8811630606465461e-02 3.4617777972441699e-02
      -1.0520177704844519e-01 -1.2452821504126456e-01
      1.1752970320557961e-01 4.3251338624611856e-02
      6.0532344709913130e-02 4.9062224600163275e-02
      9.8455075912392664e-02 5.1681984421947956e-02
      -1.1312533910502198e-01 -9.5046345520266334e-02
      6.6715855941641022e-01 1.2067512516103823e-01
      1.0245047054226365e-01 4.3021027438188898e-02
      -9.1196022279095193e-02 4.2559395749432460e-02
      -3.8187420603644592e-02 -8.1017083443322938e-02
      -3.9063997896883772e-02 1.2674237858823126e-01
      3.4653724892146638e-02 7.9602645830742849e-02
      3.8973751379067799e-02 -5.7907146752229618e-02
      -2.9512939516098242e-02 3.0324878327938978e-02
      -3.7882403136802072e-02 6.9059137118037808e-02
      -1.1482206698490824e-01 1.3104169847275546e-01
      -7.7642018622081838e-02 3.7617050301851640e-02
      4.5311493765664755e-02 1.0193233801981340e-01
      3.1391668185427817e-02 -4.7630749307179240e-02
      1.2938591596547822e-01 -1.3475105698682069e-01
      3.9305567304330380e-02 3.4892612886472441e-02
      -1.0584876069545920e-01 -1.2462688205987997e-01
      1.1900674057825884e-01 4.4150359384654038e-02
      6.1742086245864539e-02 4.8968398331229387e-02
      9.9233968845570453e-02 5.1668777693938406e-02
      -1.1206968854883399e-01 -9.6471998075250115e-02
      6.9160049594664141e-01 5.3450740003351808e-02
      4.7245458243433638e-02 2.1511299427557893e-02
      -4.3006935794873802e-02 3.9227543234037966e-02
      -1.8175777813861548e-02 -3.9183392064647792e-02
      -4.6157155506309201e-02 4.3849395420157609e-02
      1.6059613073855315e-02 3.8244162121594774e-02
      1.7291250632488226e-02 -2.7552578333441640e-02
      -2.9220762962650679e-02 1.3310622436838219e-02
      -3.6127678651472060e-02 3.2758913157697980e-02
      -2.7423162369555800e-02 4.7242688789978879e-02
      -3.6776630140610451e-02 3.2526342258208725e-02
      5.0696470001626741e-02 4.5278164640262769e-02
      1.3615516314027932e-02 -4.0643822972489599e-02
      5.6203485061878881e-02 -5.8620980062129451e-02
      1.7801330759377055e-02 1.6899829181143938e-02
      -4.5650109679498105e-02 -5.4792600845400843e-02
      2.8046571371761298e-02 1.9464086284425614e-02
      3.0873487816922240e-02 4.2818834905013828e-02
      4.3704253744919951e-02 2.5017380476387775e-02
      -5.0133572996742308e-02 -4.4021767513814279e-02
      6.9179405220768098e-01 5.3433196975591110e-02
      4.5016882711496120e-02 2.0220097614057072e-02
      -4.2888323034646417e-02 4.0787992145280345e-02
      -1.6586395135709586e-02 -3.7846957412312858e-02
      -4.5755629136198885e-02 4.3586442105394273e-02
      1.7550813312472734e-02 3.9000111499170528e-02
      1.6345132717416670e-02 -2.7024218055007324e-02
      -2.9035105875274039e-02 1.1547652010289922e-02
      -3.6353841688932027e-02 3.4133611429999475e-02
      -2.7708414899010044e-02 4.6879790593332894e-02
      -3.6338536873945435e-02 3.0890302553418226e-02
      5.0339966770007578e-02 4.6374538049429780e-02
      1.4716143221380614e-02 -4.2863850882777110e-02
      5.4970594113236675e-02 -6.0416865579811393e-02
      1.9104061504891297e-02 1.6458950946395139e-02
      -4.7386308255256360e-02 -5.5944911456468786e-02
      2.8337039879271633e-02 1.9835508394060133e-02
      3.0155328770072484e-02 4.2493524127126564e-02
      4.4997248685271267e-02 2.3792864255148590e-02
      -4.8193967032612958e-02 -4.3605211313671385e-02
      -2.0140204297423170e-01 -1.8254025971787342e-02
      -1.8991813939190923e-02 -5.4645485428137762e-03
      1.9161962967067233e-02 -2.3163473136908769e-02
      -3.9129964791486073e-03 1.8074273443811097e-02
      1.7703647702377930e-02 -1.1238761377202254e-02
      5.7952721277265836e-05 -1.8478031585665845e-02
      1.6175781028307415e-03 1.2430729656713130e-02
      8.8556861632161227e-03 1.0380523610464421e-02
      1.0058931694593376e-02 -1.7513639773530890e-02
      4.7631255128022833e-02 -2.1283732393579884e-02
      1.7705805972375730e-02 -1.2694078840401650e-02
      -4.0308794872929293e-02 -2.0504284749991823e-02
      9.5760611596174786e-04 1.8301865585097579e-02
      -1.8879315994727249e-02 1.9184882825697532e-02
      2.5203730787432259e-04 -2.3422139042139842e-03
      2.1501453270639095e-02 1.9200717879083787e-02
      -5.9176016349519682e-02 -1.4854134687727859e-03
      -1.4711399090145755e-02 -1.9232841541614525e-02
      -1.8313187033549845e-02 -9.5236366477242755e-03
      2.1112177513363656e-02 1.9735719580987174e-02
      7.2845427028834620e-01 4.7806262690692984e-02
      4.2126867157337822e-02 1.8141404326606290e-02
      -3.8357801133412986e-02 4.2876645407903771e-02
      -1.6069551267262401e-02 -3.5027660507407306e-02
      -4.6668011341212096e-02 4.1973803323620447e-02
      1.5125513726722894e-02 3.5315606711250593e-02
      1.5090056493330280e-02 -2.4502228908025728e-02
      -2.9306650078020736e-02 1.0168327970872273e-02
      -3.6450747944985748e-02 3.1810300629771956e-02
      -2.8444068954653904e-02 4.4184812133094775e-02
      -3.3139250668771665e-02 3.5605560884551350e-02
      5.1613231751990826e-02 4.1337762919514957e-02
      1.4703269014408804e-02 -4.5357611443265840e-02
      5.0682547149321876e-02 -5.3139044052517612e-02
      1.6144542916010175e-02 1.5330439861673560e-02
      -4.2172519219641914e-02 -5.0666436932580439e-02
      2.9239722429565684e-02 1.8385563277196079e-02
      2.7008598853904442e-02 4.4633989896442378e-02
      4.0508191402615024e-02 2.2445968269153529e-02
      -4.5811338396913349e-02 -4.0013088862836499e-02
      3.9137835819154691e-02 1.0546504314224433e-02
      6.3207233526996953e-03 4.1168945363112223e-03
      -1.9543096921583961e-03 -6.9576250890662113e-03
      -1.2230976776770021e-02 -2.4135955107932728e-03
      6.8504036176371035e-03 2.3074729996893976e-02
      9.7363206460078545e-03 8.1486104161275117e-04
      1.0874951775116362e-02 2.4212643004954386e-04
      -1.5817498029118942e-04 1.5574749387507974e-02
      -1.8031288735530903e-03 -4.2060049932579467e-04
      8.8509837966205193e-03 1.3147699519667329e-02
      -2.4920937808804548e-03 2.5569401565731348e-03
      -2.1572604061765893e-02 6.2153015976290802e-03
      8.4673997791311680e-03 3.6076102007549186e-03
      1.1567814021803640e-02 -1.3471649616152449e-02
      9.7512176853696651e-03 5.0318371268120460e-03
      -5.1797882902734826e-03 -1.1509949245437547e-02
      -1.7833430201312866e-02 7.9328495766065026e-03
      2.5431091787812935e-04 -3.9849535969361640e-03
      6.2537925034922550e-03 4.1686377270421298e-03
      -7.1068504912285653e-03 -4.4119279301307887e-03
      -5.3623712923473191e-02 -1.1777671789442825e-02
      -1.2380313185049138e-02 -4.1383368428953640e-03
      1.3433621395483184e-02 -1.4208587917360960e-02
      -4.7521725407273160e-03 1.4632295437758944e-02
      1.0219812727736532e-02 -5.5977059300122145e-03
      2.6805265069661205e-03 -1.4611286384069470e-02
      4.2153744536343385e-03 8.8003407555784403e-03
      2.7439391211184563e-03 1.1964816200818096e-02
      1.9221785225883672e-03 -1.1632251626208333e-02
      3.9248586950832276e-02 -1.2888111790430699e-02
      1.3117448860433490e-02 -3.1798628057183838e-03
      -2.8981149012933360e-02 -1.2918560856434532e-02
      3.2773100556041514e-03 8.8290321390569314e-03
      -1.2864478355321868e-02 1.1671577545121754e-02
      3.3625841429470592e-03 -2.3351047739785073e-03
      1.6221931066298424e-02 1.3359334560060365e-02
      -4.7607865624304850e-02 -3.3152534878582183e-04
      -9.0471390435086507e-03 -8.6380535953211688e-03
      -1.3018484179904404e-02 -7.2055436039527047e-03
      1.6246989619925181e-02 1.4015194157046386e-02
      1.1121674000493077e-01 1.9905964922212176e-02
      1.6859069214956619e-02 9.8389076532162442e-03
      -1.3980524834619302e-02 5.6479204530933613e-03
      -1.1586492081175596e-02 -1.2623977521716203e-02
      -4.3863717350385708e-03 3.0309095601074545e-02
      9.1605774097502871e-03 1.3754239717068953e-02
      1.0366633075352369e-02 -8.6924143330740448e-03
      -1.1318942490415346e-02 1.3326502335779422e-02
      -1.3771572679425172e-02 1.1341456090333159e-02
      -1.1144068703698490e-02 2.4025468812885149e-02
      -1.1717695893081782e-02 1.2750263896629708e-02
      -8.1474038175006851e-04 1.7661038988064266e-02
      8.8276609722618520e-03 -1.0312248099585799e-02
      2.3018559892196078e-02 -2.4004981908516621e-02
      1.0921807009020143e-02 7.7924548379456919e-03
      -1.8424008811560415e-02 -2.2531911716442081e-02
      7.0021838125204974e-03 1.0869420885856766e-02
      9.9216935156165968e-03 1.0167676878170216e-02
      1.5375048276467389e-02 9.0024531434451868e-03
      -1.8415610161925521e-02 -1.6912429387776366e-02
      -1.3475470514812198e+00 1.5283039774618312e-02
      1.0592957814365077e-02 1.7207033401247615e-03
      -9.2963386444416540e-03 -2.5444505543791077e-02
      -7.7217274442204732e-03 -6.1987645727310152e-03
      2.7993998192074043e-02 1.4527693713193851e-02
      5.3264880258867189e-03 6.6512528164228060e-03
      7.4053659449504067e-03 -3.0368068510705764e-03
      3.2467865702767100e-02 1.1423723634139326e-02
      2.8801496689578498e-02 4.0172827592951871e-03
      -3.1462466680138516e-04 9.5596748011935982e-03
      -7.7382978614935110e-03 -2.7480899944066606e-02
      -3.3249100241336059e-02 1.0018401343243864e-02
      5.7204071607373395e-03 3.0235844652205079e-02
      1.3593489954677207e-02 -1.3817172398129090e-02
      6.3407155812866215e-03 2.2393308191847130e-03
      -9.7407774119576927e-03 -1.2462845016131091e-02
      -3.8985655788362885e-03 6.1158456277804318e-03
      3.5208917679833132e-03 -3.0874794441349166e-02
      9.2736237188376161e-03 2.6111266283842106e-03
      -1.0645708061889971e-02 -8.9934966798671662e-03
      9.7358482874936687e-04 -2.2015050559381556e-02
      -2.0167021685558627e-02 -4.3757969201693352e-03
      1.6836152037552336e-02 7.3258241307919874e-04
      4.6978627638495215e-03 1.5806830005267079e-02
      3.5925947284458278e-04 -3.5542605050204644e-02
      -3.5609058750938213e-03 -1.4566229049233057e-02
      -3.1949843596861022e-03 9.6293006831234748e-03
      -3.0679358309166271e-03 -4.5058362724483356e-03
      -9.5327715311857792e-04 -1.2377872136271973e-02
      4.4013662999164226e-02 -3.9959393899817924e-02
      1.4159255090538763e-02 -1.2361028403472709e-03
      2.4690180551222053e-02 -1.9020831379723518e-02
      -4.1136308311876648e-03 -1.1627206446061919e-02
      -2.8977587859227043e-02 2.9559056170602716e-02
      -5.5993812313566401e-03 -4.1866005762838067e-03
      2.2370715654710781e-02 2.7619402113692949e-02
      -4.4873363836227684e-02 -4.7049872273390693e-03
      -9.0526337833558880e-03 1.0363318670964114e-02
      -1.8451998589448307e-02 -5.5151039298044812e-03
      2.3356667196819496e-02 1.6706868668975305e-02
      -3.7706567902383326e-01 1.5144055308650255e-02
      1.4031679995350209e-02 6.1666078298937927e-03
      -1.4808542780609982e-02 -4.8102340213290441e-04
      -5.8765754531782217e-03 -1.3670070496409959e-02
      1.9229235869552318e-03 1.2074233101999636e-02
      5.8298883974187646e-03 1.2508951845717447e-02
      6.6216602160683834e-03 -9.9929870267802551e-03
      1.0711637231681104e-02 3.1313716351272355e-03
      7.2291901318118981e-03 1.1013953917429148e-02
      -4.3057873930723994e-03 7.6674545207212107e-03
      -1.2783822041022158e-02 -6.4672548537037626e-03
      1.9360714205415421e-03 1.4619155595229463e-02
      4.3723120561337476e-03 1.7930325515292550e-03
      1.6064408044584175e-02 -1.6964325297477170e-02
      6.7591362576578913e-03 4.7250250208850037e-03
      -1.4762514371438032e-02 -1.6697208107054214e-02
      4.5462850618807312e-03 7.3168202302297709e-03
      9.8103838746855573e-03 -2.8664103695696841e-03
      1.3057779301737090e-02 8.4729875762198197e-03
      -1.5911877620124068e-02 -1.4118906185490743e-02
      -5.9031169964817920e-01 1.3974318924675102e-02
      1.2630065986896812e-02 4.9024634541665968e-03
      -9.7854084739373865e-03 -1.0881138348201615e-02
      -4.4192201473071506e-03 -8.0551132044293511e-03
      1.1032492119510837e-02 1.0331050181475393e-02
      2.6223686524548843e-03 7.8340923888114214e-03
      4.5304279133626746e-03 -3.4957418326752544e-03
      2.1283535120949371e-02 4.2437689788991755e-03
      1.9377348874413673e-02 6.8760155565582310e-03
      -1.9767771712986860e-03 8.2411574200881819e-03
      -7.8577423526452524e-03 -2.0510765969780111e-02
      -9.0503125547643452e-03 1.1610541093024718e-02
      3.1671934311645945e-03 1.3926455622287297e-02
      1.3975010825614444e-02 -1.5401495590993405e-02
      3.2085729657477685e-03 3.5803924257460946e-03
      -1.1545807893456855e-02 -1.3001096068904440e-02
      3.6097620550094747e-03 4.0979375523391226e-03
