<?xml version="1.0"?>
<opencv_storage>
<shapeML type_id="opencv-ml-ann-mlp">
  <layer_sizes type_id="opencv-matrix">
    <rows>1</rows>
    <cols>3</cols>
    <dt>i</dt>
    <data>
      1600 40 1</data></layer_sizes>
  <activation_function>SIGMOID_SYM</activation_function>
  <f_param1>5.9999999999999998e-01</f_param1>
  <f_param2>1.</f_param2>
  <min_val>-9.4999999999999996e-01</min_val>
  <max_val>9.4999999999999996e-01</max_val>
  <min_val1>-9.7999999999999998e-01</min_val1>
  <max_val1>9.7999999999999998e-01</max_val1>
  <training_params>
    <train_method>BACKPROP</train_method>
    <dw_scale>1.0000000000000001e-01</dw_scale>
    <moment_scale>1.0000000000000001e-01</moment_scale>
    <term_criteria><epsilon>9.9999999747524271e-07</epsilon>
      <iterations>4000</iterations></term_criteria></training_params>
  <input_scale>
    1. 0. 3.1006821421014390e-02 -1.2856486930664504e-01
    3.1006821421014390e-02 -1.2856486930664504e-01
    4.3670183385214820e-02 -9.0535746042518531e-02
    2.2108610810680388e-02 -1.8333969940564224e-01
    2.2108610810680388e-02 -1.8333969940564224e-01
    2.5422232169981088e-02 -1.5811388300841897e-01
    2.5422232169981088e-02 -1.5811388300841897e-01
    2.2108610810680388e-02 -1.8333969940564224e-01
    2.5422232169981088e-02 -1.5811388300841897e-01
    1.9858156325469025e-02 -2.0584674239815451e-01
    2.2108610810680388e-02 -1.8333969940564224e-01
    1.5902705534839568e-02 -2.6375218935831479e-01
    1.2755483117215145e-02 -3.4377582547616431e-01
    1.1657704720844767e-02 -3.8669459561826547e-01
    1.2347745345302736e-02 -3.5838577953439649e-01
    1.2347745345302736e-02 -3.5838577953439649e-01
    1.2755483117215145e-02 -3.4377582547616431e-01
    1.1362856908643155e-02 -4.0047142031681360e-01
    9.2385115320093407e-03 -5.5543733966836650e-01
    8.3713575042722223e-03 -6.9421013450062330e-01
    9.1319353741684938e-03 -5.6796183424706481e-01
    1.0232762719862332e-02 -4.6671381185713562e-01
    1.0422099084564212e-02 -4.5374260648651510e-01
    1.5902705534839568e-02 -2.6375218935831479e-01
    1.5902705534839568e-02 -2.6375218935831479e-01
    1.6927269800051443e-02 -2.4565184222025874e-01
    1.9858156325469025e-02 -2.0584674239815451e-01
    1.9858156325469025e-02 -2.0584674239815451e-01
    2.2108610810680388e-02 -1.8333969940564224e-01
    1.9858156325469025e-02 -2.0584674239815451e-01
    2.5422232169981088e-02 -1.5811388300841897e-01
    2.2108610810680388e-02 -1.8333969940564224e-01
    2.5422232169981088e-02 -1.5811388300841897e-01
    1.9858156325469025e-02 -2.0584674239815451e-01
    1.9858156325469025e-02 -2.0584674239815451e-01
    4.3670183385214820e-02 -9.0535746042518531e-02
    4.3670183385214820e-02 -9.0535746042518531e-02 1. 0.
    4.3670183385214820e-02 -9.0535746042518531e-02
    4.3670183385214820e-02 -9.0535746042518531e-02
    2.5422232169981088e-02 -1.5811388300841897e-01
    3.1006821421014390e-02 -1.2856486930664504e-01
    3.1006821421014390e-02 -1.2856486930664504e-01
    1.9858156325469025e-02 -2.0584674239815451e-01
    1.9858156325469025e-02 -2.0584674239815451e-01
    1.8205238588207225e-02 -2.2645540682891915e-01
    1.8205238588207225e-02 -2.2645540682891915e-01
    1.8205238588207225e-02 -2.2645540682891915e-01
    1.6927269800051443e-02 -2.4565184222025874e-01
    1.1362856908643155e-02 -4.0047142031681360e-01
    1.1657704720844767e-02 -3.8669459561826547e-01
    1.0232762719862332e-02 -4.6671381185713562e-01
    9.3524223845613923e-03 -5.4289671403063688e-01
    8.4871850194674289e-03 -6.6862457592389746e-01
    8.2698527430663648e-03 -7.2008229982309568e-01
    8.1416302059667319e-03 -7.5955452531275003e-01
    7.8873139843755515e-03 -8.9934616773062692e-01
    7.8454711746842858e-03 -9.7590007294853309e-01
    7.9021179115696498e-03 -8.8465173692938270e-01
    7.8454711746842858e-03 -1.0246950765959599e+00
    7.8642178469902971e-03 -9.2932037728458516e-01
    7.9600096592242452e-03 -8.4162541153017323e-01
    8.2240493877321803e-03 -7.3314391493075892e-01
    8.4871850194674289e-03 -6.6862457592389746e-01
    9.1319353741684938e-03 -5.6796183424706481e-01
    1.0422099084564212e-02 -4.5374260648651510e-01
    1.2755483117215145e-02 -3.4377582547616431e-01
    1.3742304808368107e-02 -3.1339158526400440e-01
    1.5058830696019394e-02 -2.8097574347450821e-01
    1.5902705534839568e-02 -2.6375218935831479e-01
    1.5058830696019394e-02 -2.8097574347450821e-01
    1.5902705534839568e-02 -2.6375218935831479e-01
    1.6927269800051443e-02 -2.4565184222025874e-01
    1.6927269800051443e-02 -2.4565184222025874e-01
    1.8205238588207225e-02 -2.2645540682891915e-01
    3.1006821421014390e-02 -1.2856486930664504e-01
    3.1006821421014390e-02 -1.2856486930664504e-01
    3.1006821421014390e-02 -1.2856486930664504e-01
    3.1006821421014390e-02 -1.2856486930664504e-01 1. 0.
    2.5422232169981088e-02 -1.5811388300841897e-01
    2.5422232169981088e-02 -1.5811388300841897e-01
    3.1006821421014390e-02 -1.2856486930664504e-01
    1.9858156325469025e-02 -2.0584674239815451e-01
    1.6927269800051443e-02 -2.4565184222025874e-01
    1.5058830696019394e-02 -2.8097574347450821e-01
    1.5058830696019394e-02 -2.8097574347450821e-01
    1.0422099084564212e-02 -4.5374260648651510e-01
    1.0057754089811842e-02 -4.7958315233127197e-01
    9.1319353741684938e-03 -5.6796183424706481e-01
    8.9385947009132799e-03 -5.9299945332888104e-01
    8.2240493877321803e-03 -7.3314391493075892e-01
    7.9191391868905468e-03 -8.7013956187663200e-01
    7.8558694180478564e-03 -9.4462039587746183e-01
    7.9600096592242452e-03 -1.1881770515720094e+00
    7.9600096592242452e-03 -1.1881770515720094e+00
    8.0392156862745100e-03 -1.2500000000000002e+00
    8.2240493877321786e-03 -1.3639886789409466e+00
    7.9021179115696498e-03 -1.1303883305208779e+00
    8.0706628640648346e-03 -1.2716215146794838e+00
    8.0103414932715805e-03 -1.2289036095775181e+00
    7.8642178469902971e-03 -1.0760551736979407e+00
    7.8642178469902971e-03 -1.0760551736979407e+00
    7.9021179115696498e-03 -1.1303883305208779e+00
    7.8454711746842858e-03 -9.7590007294853309e-01
    8.1416302059667319e-03 -7.5955452531275003e-01
    9.2385115320093407e-03 -5.5543733966836650e-01
    9.3524223845613923e-03 -5.4289671403063688e-01
    1.1657704720844767e-02 -3.8669459561826547e-01
    1.3216389175528722e-02 -3.2879797461071458e-01
    1.5058830696019394e-02 -2.8097574347450821e-01
    1.3742304808368107e-02 -3.1339158526400440e-01
    1.4349134593916421e-02 -2.9748205865436478e-01
    1.4349134593916421e-02 -2.9748205865436478e-01
    1.5058830696019394e-02 -2.8097574347450821e-01
    3.1006821421014390e-02 -1.2856486930664504e-01
    2.5422232169981088e-02 -1.5811388300841897e-01
    3.1006821421014390e-02 -1.2856486930664504e-01
    4.3670183385214820e-02 -9.0535746042518531e-02 1. 0.
    3.1006821421014390e-02 -1.2856486930664504e-01
    2.5422232169981088e-02 -1.5811388300841897e-01
    2.2108610810680388e-02 -1.8333969940564224e-01
    1.5902705534839568e-02 -2.6375218935831479e-01
    1.4349134593916421e-02 -2.9748205865436478e-01
    1.3742304808368107e-02 -3.1339158526400440e-01
    9.8955904512796899e-03 -4.9236596391733095e-01
    9.4743065453099518e-03 -5.3033008588991071e-01
    8.9385947009132799e-03 -5.9299945332888104e-01
    8.4871850194674289e-03 -6.6862457592389746e-01
    7.8873139843755515e-03 -8.9934616773062692e-01
    7.8454711746842858e-03 -9.7590007294853309e-01
    7.9021179115696498e-03 -1.1303883305208779e+00
    8.0103414932715805e-03 -1.2289036095775181e+00
    8.2240493877321786e-03 -1.3639886789409466e+00
    8.6189439075195270e-03 -1.5545631755148026e+00
    8.6189439075195270e-03 -1.5545631755148026e+00
    8.2698527430663648e-03 -1.3887301496588274e+00
    7.9839626900463732e-03 -1.2083045973594573e+00
    8.4273879030585617e-03 -1.4675987714106862e+00
    8.3713575042722206e-03 -1.4404860290887931e+00
    8.3713575042722206e-03 -1.4404860290887931e+00
    8.2240493877321786e-03 -1.3639886789409466e+00
    8.1416302059667319e-03 -1.3165611772087666e+00
    7.9600096592242452e-03 -1.1881770515720094e+00
    7.8558694180478547e-03 -1.0586263057247414e+00
    7.8746909077593852e-03 -1.0938137736509683e+00
    8.2240493877321803e-03 -7.3314391493075892e-01
    8.9385947009132799e-03 -5.9299945332888104e-01
    9.1319353741684938e-03 -5.6796183424706481e-01
    1.0232762719862332e-02 -4.6671381185713562e-01
    1.3216389175528722e-02 -3.2879797461071458e-01
    1.3742304808368107e-02 -3.1339158526400440e-01
    1.3216389175528722e-02 -3.2879797461071458e-01
    1.3742304808368107e-02 -3.1339158526400440e-01
    1.9858156325469025e-02 -2.0584674239815451e-01
    2.5422232169981088e-02 -1.5811388300841897e-01
    4.3670183385214820e-02 -9.0535746042518531e-02
    4.3670183385214820e-02 -9.0535746042518531e-02
    4.3670183385214820e-02 -9.0535746042518531e-02
    2.5422232169981088e-02 -1.5811388300841897e-01
    2.5422232169981088e-02 -1.5811388300841897e-01
    1.5902705534839568e-02 -2.6375218935831479e-01
    1.3742304808368107e-02 -3.1339158526400440e-01
    1.1657704720844767e-02 -3.8669459561826547e-01
    1.0057754089811842e-02 -4.7958315233127197e-01
    9.6048898765513559e-03 -5.1772699090679264e-01
    8.6913966989453917e-03 -6.3065622388689124e-01
    8.1813514099009100e-03 -7.4629888470803418e-01
    7.8433964764661537e-03 -1.0081634007555276e+00
    7.9384202252182241e-03 -1.1684967331510239e+00
    7.9384202252182241e-03 -1.1684967331510239e+00
    8.1416302059667319e-03 -1.3165611772087666e+00
    8.2240493877321786e-03 -1.3639886789409466e+00
    8.1047692120905703e-03 -1.2937979144666532e+00
    8.6913966989453934e-03 -1.5856499343441839e+00
    8.3713575042722206e-03 -1.4404860290887931e+00
    8.2240493877321786e-03 -1.3639886789409466e+00
    8.2698527430663648e-03 -1.3887301496588274e+00
    8.5509593791990024e-03 -1.5245734893157246e+00
    8.3189033080770299e-03 -1.4142135623730951e+00
    8.2698527430663648e-03 -1.3887301496588274e+00
    8.0706628640648346e-03 -1.2716215146794838e+00
    7.9839626900463732e-03 -1.2083045973594573e+00
    8.1416302059667319e-03 -1.3165611772087666e+00
    8.2240493877321786e-03 -1.3639886789409466e+00
    8.0706628640648346e-03 -1.2716215146794838e+00
    7.8746909077593852e-03 -1.0938137736509683e+00
    7.8873139843755515e-03 -8.9934616773062692e-01
    8.0706628640648346e-03 -7.8639751565704907e-01
    8.8508851706236829e-03 -6.0553007081949839e-01
    9.2385115320093407e-03 -5.5543733966836650e-01
    1.2347745345302736e-02 -3.5838577953439649e-01
    1.2755483117215145e-02 -3.4377582547616431e-01
    1.2347745345302736e-02 -3.5838577953439649e-01
    1.8205238588207225e-02 -2.2645540682891915e-01
    1.9858156325469025e-02 -2.0584674239815451e-01
    3.1006821421014390e-02 -1.2856486930664504e-01
    3.1006821421014390e-02 -1.2856486930664504e-01
    4.3670183385214820e-02 -9.0535746042518531e-02
    2.2108610810680388e-02 -1.8333969940564224e-01
    1.6927269800051443e-02 -2.4565184222025874e-01
    1.5902705534839568e-02 -2.6375218935831479e-01
    1.3742304808368107e-02 -3.1339158526400440e-01
    9.8955904512796899e-03 -4.9236596391733095e-01
    9.2385115320093407e-03 -5.5543733966836650e-01
    8.9385947009132799e-03 -5.9299945332888104e-01
    7.9191391868905468e-03 -8.7013956187663200e-01
    7.9191391868905468e-03 -1.1492409307804574e+00
    7.8746909077593852e-03 -1.0938137736509683e+00
    7.9191391868905468e-03 -1.1492409307804574e+00
    8.1416302059667319e-03 -1.3165611772087666e+00
    7.9191391868905468e-03 -1.1492409307804574e+00
    8.0103414932715805e-03 -1.2289036095775181e+00
    8.2240493877321786e-03 -1.3639886789409466e+00
    9.1319353741684921e-03 -1.7606816861659007e+00
    8.6189439075195270e-03 -1.5545631755148026e+00
    9.2385115320093407e-03 -1.8003831009940154e+00
    8.3713575042722206e-03 -1.4404860290887931e+00
    8.5509593791990024e-03 -1.5245734893157246e+00
    9.3524223845613923e-03 -1.8419709940325180e+00
    8.3713575042722206e-03 -1.4404860290887931e+00
    8.2698527430663648e-03 -1.3887301496588274e+00
    8.5509593791990024e-03 -1.5245734893157246e+00
    8.7686042396248609e-03 -1.6179144164088310e+00
    8.6189439075195270e-03 -1.5545631755148026e+00
    8.4273879030585617e-03 -1.4675987714106862e+00
    7.9839626900463732e-03 -1.2083045973594573e+00
    7.8746909077593852e-03 -1.0938137736509683e+00
    7.9021179115696498e-03 -8.8465173692938270e-01
    7.9191391868905468e-03 -8.7013956187663200e-01
    8.3189033080770299e-03 -7.0710678118654757e-01
    9.2385115320093407e-03 -5.5543733966836650e-01
    1.1657704720844767e-02 -3.8669459561826547e-01
    1.2755483117215145e-02 -3.4377582547616431e-01
    1.6927269800051443e-02 -2.4565184222025874e-01
    1.8205238588207225e-02 -2.2645540682891915e-01
    2.2108610810680388e-02 -1.8333969940564224e-01
    3.1006821421014390e-02 -1.2856486930664504e-01
    4.3670183385214820e-02 -9.0535746042518531e-02
    1.9858156325469025e-02 -2.0584674239815451e-01
    1.6927269800051443e-02 -2.4565184222025874e-01
    1.0627505069887353e-02 -4.4065264923923170e-01
    1.0422099084564212e-02 -4.5374260648651510e-01
    9.3524223845613923e-03 -5.4289671403063688e-01
    8.5509593791990041e-03 -6.5592115238002113e-01
    8.0103414932715805e-03 -8.1373347120673489e-01
    7.9021179115696498e-03 -1.1303883305208779e+00
    7.8873139843755498e-03 -1.1119188982851385e+00
    7.8873139843755498e-03 -1.1119188982851385e+00
    8.1047692120905703e-03 -1.2937979144666532e+00
    8.4871850194674307e-03 -1.4956076040402972e+00
    8.4273879030585617e-03 -1.4675987714106862e+00
    9.2385115320093407e-03 -1.8003831009940154e+00
    8.7686042396248609e-03 -1.6179144164088310e+00
    8.8508851706236829e-03 -1.6514456476895409e+00
    9.3524223845613923e-03 -1.8419709940325180e+00
    9.4743065453099518e-03 -1.8856180831641269e+00
    9.2385115320093407e-03 -1.8003831009940154e+00
    9.1319353741684921e-03 -1.7606816861659007e+00
    8.6913966989453934e-03 -1.5856499343441839e+00
    8.2698527430663648e-03 -1.3887301496588274e+00
    8.6189439075195270e-03 -1.5545631755148026e+00
    8.2698527430663648e-03 -1.3887301496588274e+00
    8.6913966989453934e-03 -1.5856499343441839e+00
    8.7686042396248609e-03 -1.6179144164088310e+00
    8.4871850194674307e-03 -1.4956076040402972e+00
    8.3713575042722206e-03 -1.4404860290887931e+00
    8.4871850194674307e-03 -1.4956076040402972e+00
    7.9021179115696498e-03 -1.1303883305208779e+00
    7.8433964764661555e-03 -9.9190270074334186e-01
    7.9191391868905468e-03 -8.7013956187663200e-01
    8.2698527430663648e-03 -7.2008229982309568e-01
    8.9385947009132799e-03 -5.9299945332888104e-01
    1.2755483117215145e-02 -3.4377582547616431e-01
    1.6927269800051443e-02 -2.4565184222025874e-01
    1.6927269800051443e-02 -2.4565184222025874e-01
    2.2108610810680388e-02 -1.8333969940564224e-01
    2.5422232169981088e-02 -1.5811388300841897e-01
    4.3670183385214820e-02 -9.0535746042518531e-02
    1.8205238588207225e-02 -2.2645540682891915e-01
    1.6927269800051443e-02 -2.4565184222025874e-01
    1.0232762719862332e-02 -4.6671381185713562e-01
    9.6048898765513559e-03 -5.1772699090679264e-01
    9.6048898765513559e-03 -5.1772699090679264e-01
    7.9191391868905468e-03 -8.7013956187663200e-01
    7.9384202252182241e-03 -1.1684967331510239e+00
    7.9384202252182241e-03 -1.1684967331510239e+00
    7.9021179115696498e-03 -1.1303883305208779e+00
    8.1047692120905703e-03 -1.2937979144666532e+00
    8.8508851706236829e-03 -1.6514456476895409e+00
    9.1319353741684921e-03 -1.7606816861659007e+00
    9.6048898765513542e-03 -1.9315199276138029e+00
    9.2385115320093407e-03 -1.8003831009940154e+00
    8.8508851706236829e-03 -1.6514456476895409e+00
    8.7686042396248609e-03 -1.6179144164088310e+00
    9.6048898765513542e-03 -1.9315199276138029e+00
    9.3524223845613923e-03 -1.8419709940325180e+00
    9.2385115320093407e-03 -1.8003831009940154e+00
    8.9385947009132799e-03 -1.6863421954040054e+00
    8.6913966989453934e-03 -1.5856499343441839e+00
    1.0422099084564214e-02 -2.2038926600773596e+00
    9.7450010180330903e-03 -1.9798989873223327e+00
    9.2385115320093407e-03 -1.8003831009940154e+00
    8.3713575042722206e-03 -1.4404860290887931e+00
    8.6189439075195270e-03 -1.5545631755148026e+00
    8.5509593791990024e-03 -1.5245734893157246e+00
    8.1813514099009100e-03 -1.3399457248166977e+00
    8.2240493877321786e-03 -1.3639886789409466e+00
    8.5509593791990024e-03 -1.5245734893157246e+00
    7.9839626900463732e-03 -1.2083045973594573e+00
    7.8496255150202632e-03 -1.0415112878465911e+00
    7.9021179115696498e-03 -8.8465173692938270e-01
    8.3189033080770299e-03 -7.0710678118654757e-01
    9.7450010180330920e-03 -5.0507627227610541e-01
    1.4349134593916421e-02 -2.9748205865436478e-01
    1.6927269800051443e-02 -2.4565184222025874e-01
    1.9858156325469025e-02 -2.0584674239815451e-01
    2.2108610810680388e-02 -1.8333969940564224e-01
    3.1006821421014390e-02 -1.2856486930664504e-01
    1.8205238588207225e-02 -2.2645540682891915e-01
    1.2755483117215145e-02 -3.4377582547616431e-01
    1.1362856908643155e-02 -4.0047142031681360e-01
    9.3524223845613923e-03 -5.4289671403063688e-01
    8.0392156862745100e-03 -8.0000000000000004e-01
    7.8873139843755498e-03 -1.1119188982851385e+00
    8.0392156862745100e-03 -1.2500000000000002e+00
    8.1047692120905703e-03 -1.2937979144666532e+00
    8.0392156862745100e-03 -1.2500000000000002e+00
    8.1813514099009100e-03 -1.3399457248166977e+00
    8.6913966989453934e-03 -1.5856499343441839e+00
    8.8508851706236829e-03 -1.6514456476895409e+00
    9.2385115320093407e-03 -1.8003831009940154e+00
    8.7686042396248609e-03 -1.6179144164088310e+00
    8.7686042396248609e-03 -1.6179144164088310e+00
    8.9385947009132799e-03 -1.6863421954040054e+00
    9.2385115320093407e-03 -1.8003831009940154e+00
    9.0321298050584295e-03 -1.7227135384282175e+00
    9.3524223845613923e-03 -1.8419709940325180e+00
    8.4273879030585617e-03 -1.4675987714106862e+00
    9.8955904512796899e-03 -2.0310096011589902e+00
    9.4743065453099518e-03 -1.8856180831641269e+00
    9.4743065453099518e-03 -1.8856180831641269e+00
    9.4743065453099518e-03 -1.8856180831641269e+00
    1.0057754089811839e-02 -2.0851441405707472e+00
    9.4743065453099518e-03 -1.8856180831641269e+00
    8.4273879030585617e-03 -1.4675987714106862e+00
    8.4871850194674307e-03 -1.4956076040402972e+00
    8.4871850194674307e-03 -1.4956076040402972e+00
    8.5509593791990024e-03 -1.5245734893157246e+00
    8.4871850194674307e-03 -1.4956076040402972e+00
    8.1416302059667319e-03 -1.3165611772087666e+00
    7.8558694180478547e-03 -1.0586263057247414e+00
    7.9600096592242452e-03 -8.4162541153017323e-01
    8.6913966989453917e-03 -6.3065622388689124e-01
    9.7450010180330920e-03 -5.0507627227610541e-01
    1.6927269800051443e-02 -2.4565184222025874e-01
    1.8205238588207225e-02 -2.2645540682891915e-01
    1.9858156325469025e-02 -2.0584674239815451e-01
    4.3670183385214820e-02 -9.0535746042518531e-02
    1.5902705534839568e-02 -2.6375218935831479e-01
    1.2755483117215145e-02 -3.4377582547616431e-01
    1.1095171738445696e-02 -4.1403933560541262e-01
    8.1047692120905686e-03 -7.7291823461644193e-01
    7.8873139843755498e-03 -1.1119188982851385e+00
    7.9384202252182241e-03 -1.1684967331510239e+00
    8.0103414932715805e-03 -1.2289036095775181e+00
    8.1813514099009100e-03 -1.3399457248166977e+00
    8.0706628640648346e-03 -1.2716215146794838e+00
    8.4871850194674307e-03 -1.4956076040402972e+00
    8.2698527430663648e-03 -1.3887301496588274e+00
    8.7686042396248609e-03 -1.6179144164088310e+00
    9.0321298050584295e-03 -1.7227135384282175e+00
    9.1319353741684921e-03 -1.7606816861659007e+00
    9.3524223845613923e-03 -1.8419709940325180e+00
    8.9385947009132799e-03 -1.6863421954040054e+00
    9.4743065453099518e-03 -1.8856180831641269e+00
    8.3189033080770299e-03 -1.4142135623730951e+00
    8.8508851706236829e-03 -1.6514456476895409e+00
    9.7450010180330903e-03 -1.9798989873223327e+00
    9.1319353741684921e-03 -1.7606816861659007e+00
    9.8955904512796899e-03 -2.0310096011589902e+00
    9.3524223845613923e-03 -1.8419709940325180e+00
    9.7450010180330903e-03 -1.9798989873223327e+00
    1.0232762719862332e-02 -2.1426406817077588e+00
    9.2385115320093407e-03 -1.8003831009940154e+00
    9.6048898765513542e-03 -1.9315199276138029e+00
    8.6913966989453934e-03 -1.5856499343441839e+00
    8.6913966989453934e-03 -1.5856499343441839e+00
    8.6913966989453934e-03 -1.5856499343441839e+00
    8.5509593791990024e-03 -1.5245734893157246e+00
    8.3713575042722206e-03 -1.4404860290887931e+00
    8.0392156862745100e-03 -1.2500000000000002e+00
    7.8454711746842858e-03 -9.7590007294853309e-01
    8.0103414932715805e-03 -8.1373347120673489e-01
    8.7686042396248626e-03 -6.1807966469550857e-01
    1.4349134593916421e-02 -2.9748205865436478e-01
    1.8205238588207225e-02 -2.2645540682891915e-01
    1.8205238588207225e-02 -2.2645540682891915e-01
    2.5422232169981088e-02 -1.5811388300841897e-01
    1.5902705534839568e-02 -2.6375218935831479e-01
    1.2755483117215145e-02 -3.4377582547616431e-01
    8.6913966989453917e-03 -6.3065622388689124e-01
    7.8496255150202632e-03 -1.0415112878465911e+00
    7.9021179115696498e-03 -1.1303883305208779e+00
    7.8558694180478547e-03 -1.0586263057247414e+00
    7.9839626900463732e-03 -1.2083045973594573e+00
    8.0103414932715805e-03 -1.2289036095775181e+00
    8.3189033080770299e-03 -1.4142135623730951e+00
    8.8508851706236829e-03 -1.6514456476895409e+00
    8.4871850194674307e-03 -1.4956076040402972e+00
    8.4273879030585617e-03 -1.4675987714106862e+00
    8.7686042396248609e-03 -1.6179144164088310e+00
    9.3524223845613923e-03 -1.8419709940325180e+00
    9.1319353741684921e-03 -1.7606816861659007e+00
    9.2385115320093407e-03 -1.8003831009940154e+00
    8.6913966989453934e-03 -1.5856499343441839e+00
    8.3189033080770299e-03 -1.4142135623730951e+00
    8.6913966989453934e-03 -1.5856499343441839e+00
    8.9385947009132799e-03 -1.6863421954040054e+00
    8.8508851706236829e-03 -1.6514456476895409e+00
    9.3524223845613923e-03 -1.8419709940325180e+00
    9.2385115320093407e-03 -1.8003831009940154e+00
    9.2385115320093407e-03 -1.8003831009940154e+00
    9.4743065453099518e-03 -1.8856180831641269e+00
    9.4743065453099518e-03 -1.8856180831641269e+00
    1.0057754089811839e-02 -2.0851441405707472e+00
    9.2385115320093407e-03 -1.8003831009940154e+00
    9.4743065453099518e-03 -1.8856180831641269e+00
    9.0321298050584295e-03 -1.7227135384282175e+00
    8.6189439075195270e-03 -1.5545631755148026e+00
    8.4871850194674307e-03 -1.4956076040402972e+00
    8.3713575042722206e-03 -1.4404860290887931e+00
    7.9600096592242452e-03 -1.1881770515720094e+00
    7.9021179115696498e-03 -8.8465173692938270e-01
    8.2698527430663648e-03 -7.2008229982309568e-01
    1.0422099084564212e-02 -4.5374260648651510e-01
    1.5058830696019394e-02 -2.8097574347450821e-01
    1.9858156325469025e-02 -2.0584674239815451e-01
    2.5422232169981088e-02 -1.5811388300841897e-01
    1.2755483117215145e-02 -3.4377582547616431e-01
    1.1095171738445696e-02 -4.1403933560541262e-01
    7.8746909077593834e-03 -9.1423240782767479e-01
    7.8642178469902971e-03 -1.0760551736979407e+00
    7.8454711746842858e-03 -1.0246950765959599e+00
    7.8746909077593852e-03 -1.0938137736509683e+00
    8.0706628640648346e-03 -1.2716215146794838e+00
    8.1047692120905703e-03 -1.2937979144666532e+00
    8.6189439075195270e-03 -1.5545631755148026e+00
    8.8508851706236829e-03 -1.6514456476895409e+00
    8.4871850194674307e-03 -1.4956076040402972e+00
    8.4871850194674307e-03 -1.4956076040402972e+00
    8.1047692120905703e-03 -1.2937979144666532e+00
    8.6189439075195270e-03 -1.5545631755148026e+00
    9.4743065453099518e-03 -1.8856180831641269e+00
    8.7686042396248609e-03 -1.6179144164088310e+00
    8.3713575042722206e-03 -1.4404860290887931e+00
    8.9385947009132799e-03 -1.6863421954040054e+00
    9.2385115320093407e-03 -1.8003831009940154e+00
    8.8508851706236829e-03 -1.6514456476895409e+00
    8.5509593791990024e-03 -1.5245734893157246e+00
    8.4871850194674307e-03 -1.4956076040402972e+00
    9.1319353741684921e-03 -1.7606816861659007e+00
    9.0321298050584295e-03 -1.7227135384282175e+00
    9.3524223845613923e-03 -1.8419709940325180e+00
    9.2385115320093407e-03 -1.8003831009940154e+00
    9.7450010180330903e-03 -1.9798989873223327e+00
    1.0422099084564214e-02 -2.2038926600773596e+00
    1.0232762719862332e-02 -2.1426406817077588e+00
    9.4743065453099518e-03 -1.8856180831641269e+00
    8.6189439075195270e-03 -1.5545631755148026e+00
    8.6189439075195270e-03 -1.5545631755148026e+00
    8.4273879030585617e-03 -1.4675987714106862e+00
    8.2698527430663648e-03 -1.3887301496588274e+00
    7.8746909077593852e-03 -1.0938137736509683e+00
    8.1047692120905686e-03 -7.7291823461644193e-01
    8.3189033080770299e-03 -7.0710678118654757e-01
    1.3216389175528722e-02 -3.2879797461071458e-01
    1.8205238588207225e-02 -2.2645540682891915e-01
    2.5422232169981088e-02 -1.5811388300841897e-01
    1.2755483117215145e-02 -3.4377582547616431e-01
    8.7686042396248626e-03 -6.1807966469550857e-01
    7.8454711746842858e-03 -1.0246950765959599e+00
    7.8746909077593852e-03 -1.0938137736509683e+00
    8.0392156862745100e-03 -1.2500000000000002e+00
    8.0706628640648346e-03 -1.2716215146794838e+00
    7.9600096592242452e-03 -1.1881770515720094e+00
    8.4273879030585617e-03 -1.4675987714106862e+00
    8.9385947009132799e-03 -1.6863421954040054e+00
    8.1813514099009100e-03 -1.3399457248166977e+00
    8.4871850194674307e-03 -1.4956076040402972e+00
    8.5509593791990024e-03 -1.5245734893157246e+00
    9.0321298050584295e-03 -1.7227135384282175e+00
    9.3524223845613923e-03 -1.8419709940325180e+00
    8.8508851706236829e-03 -1.6514456476895409e+00
    8.5509593791990024e-03 -1.5245734893157246e+00
    8.6913966989453934e-03 -1.5856499343441839e+00
    8.7686042396248609e-03 -1.6179144164088310e+00
    8.8508851706236829e-03 -1.6514456476895409e+00
    8.4871850194674307e-03 -1.4956076040402972e+00
    8.3713575042722206e-03 -1.4404860290887931e+00
    8.4871850194674307e-03 -1.4956076040402972e+00
    8.7686042396248609e-03 -1.6179144164088310e+00
    9.4743065453099518e-03 -1.8856180831641269e+00
    8.9385947009132799e-03 -1.6863421954040054e+00
    1.0851042410176325e-02 -2.3395906074624078e+00
    1.0232762719862332e-02 -2.1426406817077588e+00
    1.1095171738445696e-02 -2.4152294576982398e+00
    9.7450010180330903e-03 -1.9798989873223327e+00
    9.8955904512796899e-03 -2.0310096011589902e+00
    9.3524223845613923e-03 -1.8419709940325180e+00
    8.5509593791990024e-03 -1.5245734893157246e+00
    8.6913966989453934e-03 -1.5856499343441839e+00
    8.3713575042722206e-03 -1.4404860290887931e+00
    8.0103414932715805e-03 -1.2289036095775181e+00
    7.9600096592242452e-03 -8.4162541153017323e-01
    8.1416302059667319e-03 -7.5955452531275003e-01
    1.0851042410176322e-02 -4.2742520713255511e-01
    1.8205238588207225e-02 -2.2645540682891915e-01
    1.6927269800051443e-02 -2.4565184222025874e-01
    1.1984155173528285e-02 -3.7267799624996495e-01
    7.9191391868905468e-03 -8.7013956187663200e-01
    7.8642178469902971e-03 -1.0760551736979407e+00
    8.1047692120905703e-03 -1.2937979144666532e+00
    8.1813514099009100e-03 -1.3399457248166977e+00
    8.1047692120905703e-03 -1.2937979144666532e+00
    8.3713575042722206e-03 -1.4404860290887931e+00
    9.0321298050584295e-03 -1.7227135384282175e+00
    8.4273879030585617e-03 -1.4675987714106862e+00
    8.4273879030585617e-03 -1.4675987714106862e+00
    8.4273879030585617e-03 -1.4675987714106862e+00
    9.0321298050584295e-03 -1.7227135384282175e+00
    8.9385947009132799e-03 -1.6863421954040054e+00
    8.4273879030585617e-03 -1.4675987714106862e+00
    8.6189439075195270e-03 -1.5545631755148026e+00
    8.4871850194674307e-03 -1.4956076040402972e+00
    8.3189033080770299e-03 -1.4142135623730951e+00
    8.6913966989453934e-03 -1.5856499343441839e+00
    8.5509593791990024e-03 -1.5245734893157246e+00
    8.6189439075195270e-03 -1.5545631755148026e+00
    8.4273879030585617e-03 -1.4675987714106862e+00
    8.5509593791990024e-03 -1.5245734893157246e+00
    9.6048898765513542e-03 -1.9315199276138029e+00
    9.4743065453099518e-03 -1.8856180831641269e+00
    9.8955904512796899e-03 -2.0310096011589902e+00
    1.0422099084564214e-02 -2.2038926600773596e+00
    1.0057754089811839e-02 -2.0851441405707472e+00
    9.6048898765513542e-03 -1.9315199276138029e+00
    9.3524223845613923e-03 -1.8419709940325180e+00
    9.6048898765513542e-03 -1.9315199276138029e+00
    9.2385115320093407e-03 -1.8003831009940154e+00
    9.1319353741684921e-03 -1.7606816861659007e+00
    8.6189439075195270e-03 -1.5545631755148026e+00
    8.6189439075195270e-03 -1.5545631755148026e+00
    8.2240493877321786e-03 -1.3639886789409466e+00
    7.8558694180478564e-03 -9.4462039587746183e-01
    8.0103414932715805e-03 -8.1373347120673489e-01
    8.2240493877321803e-03 -7.3314391493075892e-01
    1.5058830696019394e-02 -2.8097574347450821e-01
    1.4349134593916421e-02 -2.9748205865436478e-01
    9.4743065453099518e-03 -5.3033008588991071e-01
    7.8642178469902971e-03 -9.2932037728458516e-01
    7.9384202252182241e-03 -1.1684967331510239e+00
    8.2698527430663648e-03 -1.3887301496588274e+00
    8.4273879030585617e-03 -1.4675987714106862e+00
    8.4871850194674307e-03 -1.4956076040402972e+00
    8.8508851706236829e-03 -1.6514456476895409e+00
    8.9385947009132799e-03 -1.6863421954040054e+00
    8.6189439075195270e-03 -1.5545631755148026e+00
    8.3713575042722206e-03 -1.4404860290887931e+00
    8.9385947009132799e-03 -1.6863421954040054e+00
    9.2385115320093407e-03 -1.8003831009940154e+00
    9.7450010180330903e-03 -1.9798989873223327e+00
    8.6913966989453934e-03 -1.5856499343441839e+00
    8.4871850194674307e-03 -1.4956076040402972e+00
    8.4871850194674307e-03 -1.4956076040402972e+00
    8.4273879030585617e-03 -1.4675987714106862e+00
    8.5509593791990024e-03 -1.5245734893157246e+00
    8.4871850194674307e-03 -1.4956076040402972e+00
    8.5509593791990024e-03 -1.5245734893157246e+00
    8.3189033080770299e-03 -1.4142135623730951e+00
    8.6189439075195270e-03 -1.5545631755148026e+00
    8.6189439075195270e-03 -1.5545631755148026e+00
    8.6913966989453934e-03 -1.5856499343441839e+00
    9.2385115320093407e-03 -1.8003831009940154e+00
    9.4743065453099518e-03 -1.8856180831641269e+00
    9.1319353741684921e-03 -1.7606816861659007e+00
    9.8955904512796899e-03 -2.0310096011589902e+00
    1.0422099084564214e-02 -2.2038926600773596e+00
    1.0627505069887353e-02 -2.2693611435820435e+00
    1.1095171738445696e-02 -2.4152294576982398e+00
    9.7450010180330903e-03 -1.9798989873223327e+00
    8.7686042396248609e-03 -1.6179144164088310e+00
    8.3713575042722206e-03 -1.4404860290887931e+00
    8.3189033080770299e-03 -1.4142135623730951e+00
    7.9384202252182241e-03 -1.1684967331510239e+00
    7.9384202252182241e-03 -8.5580042427962322e-01
    8.1813514099009100e-03 -7.4629888470803418e-01
    1.0851042410176322e-02 -4.2742520713255511e-01
    1.5902705534839568e-02 -2.6375218935831479e-01
    8.7686042396248626e-03 -6.1807966469550857e-01
    7.8454711746842858e-03 -9.7590007294853309e-01
    7.9021179115696498e-03 -1.1303883305208779e+00
    8.3189033080770299e-03 -1.4142135623730951e+00
    8.1813514099009100e-03 -1.3399457248166977e+00
    8.5509593791990024e-03 -1.5245734893157246e+00
    9.1319353741684921e-03 -1.7606816861659007e+00
    8.9385947009132799e-03 -1.6863421954040054e+00
    8.6189439075195270e-03 -1.5545631755148026e+00
    8.5509593791990024e-03 -1.5245734893157246e+00
    8.5509593791990024e-03 -1.5245734893157246e+00
    9.1319353741684921e-03 -1.7606816861659007e+00
    8.9385947009132799e-03 -1.6863421954040054e+00
    8.5509593791990024e-03 -1.5245734893157246e+00
    8.6189439075195270e-03 -1.5545631755148026e+00
    8.4273879030585617e-03 -1.4675987714106862e+00
    8.2240493877321786e-03 -1.3639886789409466e+00
    8.6913966989453934e-03 -1.5856499343441839e+00
    8.6189439075195270e-03 -1.5545631755148026e+00
    8.6189439075195270e-03 -1.5545631755148026e+00
    8.4871850194674307e-03 -1.4956076040402972e+00
    8.5509593791990024e-03 -1.5245734893157246e+00
    8.6913966989453934e-03 -1.5856499343441839e+00
    9.0321298050584295e-03 -1.7227135384282175e+00
    8.8508851706236829e-03 -1.6514456476895409e+00
    8.9385947009132799e-03 -1.6863421954040054e+00
    1.0057754089811839e-02 -2.0851441405707472e+00
    9.3524223845613923e-03 -1.8419709940325180e+00
    1.0422099084564214e-02 -2.2038926600773596e+00
    1.0057754089811839e-02 -2.0851441405707472e+00
    1.1095171738445696e-02 -2.4152294576982398e+00
    1.0422099084564214e-02 -2.2038926600773596e+00
    9.4743065453099518e-03 -1.8856180831641269e+00
    8.6913966989453934e-03 -1.5856499343441839e+00
    8.6189439075195270e-03 -1.5545631755148026e+00
    7.9384202252182241e-03 -1.1684967331510239e+00
    7.8454711746842858e-03 -1.0246950765959599e+00
    8.0392156862745100e-03 -8.0000000000000004e-01
    8.9385947009132799e-03 -5.9299945332888104e-01
    1.5058830696019394e-02 -2.8097574347450821e-01
    8.3189033080770299e-03 -7.0710678118654757e-01
    7.8496255150202632e-03 -9.6014321848357609e-01
    7.9191391868905468e-03 -1.1492409307804574e+00
    8.3189033080770299e-03 -1.4142135623730951e+00
    8.3189033080770299e-03 -1.4142135623730951e+00
    8.3713575042722206e-03 -1.4404860290887931e+00
    9.1319353741684921e-03 -1.7606816861659007e+00
    9.1319353741684921e-03 -1.7606816861659007e+00
    8.7686042396248609e-03 -1.6179144164088310e+00
    8.3713575042722206e-03 -1.4404860290887931e+00
    8.6189439075195270e-03 -1.5545631755148026e+00
    8.4273879030585617e-03 -1.4675987714106862e+00
    8.9385947009132799e-03 -1.6863421954040054e+00
    8.3713575042722206e-03 -1.4404860290887931e+00
    8.5509593791990024e-03 -1.5245734893157246e+00
    8.2698527430663648e-03 -1.3887301496588274e+00
    8.3189033080770299e-03 -1.4142135623730951e+00
    8.4871850194674307e-03 -1.4956076040402972e+00
    8.4273879030585617e-03 -1.4675987714106862e+00
    8.4273879030585617e-03 -1.4675987714106862e+00
    8.6189439075195270e-03 -1.5545631755148026e+00
    8.5509593791990024e-03 -1.5245734893157246e+00
    8.4273879030585617e-03 -1.4675987714106862e+00
    8.5509593791990024e-03 -1.5245734893157246e+00
    8.4871850194674307e-03 -1.4956076040402972e+00
    8.5509593791990024e-03 -1.5245734893157246e+00
    8.7686042396248609e-03 -1.6179144164088310e+00
    1.0057754089811839e-02 -2.0851441405707472e+00
    1.0422099084564214e-02 -2.2038926600773596e+00
    9.8955904512796899e-03 -2.0310096011589902e+00
    9.8955904512796899e-03 -2.0310096011589902e+00
    1.0851042410176325e-02 -2.3395906074624078e+00
    9.1319353741684921e-03 -1.7606816861659007e+00
    8.9385947009132799e-03 -1.6863421954040054e+00
    8.8508851706236829e-03 -1.6514456476895409e+00
    8.3189033080770299e-03 -1.4142135623730951e+00
    7.8642178469902971e-03 -9.2932037728458516e-01
    7.9839626900463732e-03 -8.2760588860236795e-01
    8.4273879030585599e-03 -6.8138514386924698e-01
    1.1984155173528285e-02 -3.7267799624996495e-01
    8.2240493877321803e-03 -7.3314391493075892e-01
    7.9384202252182241e-03 -8.5580042427962322e-01
    7.9384202252182241e-03 -1.1684967331510239e+00
    8.2698527430663648e-03 -1.3887301496588274e+00
    8.1813514099009100e-03 -1.3399457248166977e+00
    8.4871850194674307e-03 -1.4956076040402972e+00
    8.8508851706236829e-03 -1.6514456476895409e+00
    9.0321298050584295e-03 -1.7227135384282175e+00
    8.7686042396248609e-03 -1.6179144164088310e+00
    8.9385947009132799e-03 -1.6863421954040054e+00
    8.9385947009132799e-03 -1.6863421954040054e+00
    8.9385947009132799e-03 -1.6863421954040054e+00
    9.0321298050584295e-03 -1.7227135384282175e+00
    8.8508851706236829e-03 -1.6514456476895409e+00
    8.4871850194674307e-03 -1.4956076040402972e+00
    8.3189033080770299e-03 -1.4142135623730951e+00
    8.2240493877321786e-03 -1.3639886789409466e+00
    8.4871850194674307e-03 -1.4956076040402972e+00
    8.6189439075195270e-03 -1.5545631755148026e+00
    8.4871850194674307e-03 -1.4956076040402972e+00
    8.3189033080770299e-03 -1.4142135623730951e+00
    8.6189439075195270e-03 -1.5545631755148026e+00
    8.5509593791990024e-03 -1.5245734893157246e+00
    8.8508851706236829e-03 -1.6514456476895409e+00
    8.6913966989453934e-03 -1.5856499343441839e+00
    8.6913966989453934e-03 -1.5856499343441839e+00
    8.9385947009132799e-03 -1.6863421954040054e+00
    1.0057754089811839e-02 -2.0851441405707472e+00
    1.0057754089811839e-02 -2.0851441405707472e+00
    1.0627505069887353e-02 -2.2693611435820435e+00
    1.0232762719862332e-02 -2.1426406817077588e+00
    1.0851042410176325e-02 -2.3395906074624078e+00
    9.8955904512796899e-03 -2.0310096011589902e+00
    9.4743065453099518e-03 -1.8856180831641269e+00
    8.5509593791990024e-03 -1.5245734893157246e+00
    8.4273879030585617e-03 -1.4675987714106862e+00
    7.8454711746842858e-03 -9.7590007294853309e-01
    8.0706628640648346e-03 -7.8639751565704907e-01
    8.2698527430663648e-03 -7.2008229982309568e-01
    9.4743065453099518e-03 -5.3033008588991071e-01
    8.1813514099009100e-03 -7.4629888470803418e-01
    7.9384202252182241e-03 -8.5580042427962322e-01
    7.8454711746842858e-03 -1.0246950765959599e+00
    7.8746909077593852e-03 -1.0938137736509683e+00
    8.0103414932715805e-03 -1.2289036095775181e+00
    8.3713575042722206e-03 -1.4404860290887931e+00
    8.2240493877321786e-03 -1.3639886789409466e+00
    9.1319353741684921e-03 -1.7606816861659007e+00
    8.6189439075195270e-03 -1.5545631755148026e+00
    8.4273879030585617e-03 -1.4675987714106862e+00
    9.0321298050584295e-03 -1.7227135384282175e+00
    9.2385115320093407e-03 -1.8003831009940154e+00
    8.9385947009132799e-03 -1.6863421954040054e+00
    9.2385115320093407e-03 -1.8003831009940154e+00
    8.4871850194674307e-03 -1.4956076040402972e+00
    8.4273879030585617e-03 -1.4675987714106862e+00
    8.3189033080770299e-03 -1.4142135623730951e+00
    8.4273879030585617e-03 -1.4675987714106862e+00
    8.3189033080770299e-03 -1.4142135623730951e+00
    8.6913966989453934e-03 -1.5856499343441839e+00
    8.2240493877321786e-03 -1.3639886789409466e+00
    8.5509593791990024e-03 -1.5245734893157246e+00
    8.4871850194674307e-03 -1.4956076040402972e+00
    8.6189439075195270e-03 -1.5545631755148026e+00
    8.2240493877321786e-03 -1.3639886789409466e+00
    8.5509593791990024e-03 -1.5245734893157246e+00
    8.6913966989453934e-03 -1.5856499343441839e+00
    9.1319353741684921e-03 -1.7606816861659007e+00
    9.4743065453099518e-03 -1.8856180831641269e+00
    9.6048898765513542e-03 -1.9315199276138029e+00
    9.3524223845613923e-03 -1.8419709940325180e+00
    1.0232762719862332e-02 -2.1426406817077588e+00
    1.0232762719862332e-02 -2.1426406817077588e+00
    9.2385115320093407e-03 -1.8003831009940154e+00
    9.1319353741684921e-03 -1.7606816861659007e+00
    8.3189033080770299e-03 -1.4142135623730951e+00
    7.8496255150202632e-03 -1.0415112878465911e+00
    8.2698527430663648e-03 -7.2008229982309568e-01
    8.2240493877321803e-03 -7.3314391493075892e-01
    9.3524223845613923e-03 -5.4289671403063688e-01
    8.4273879030585599e-03 -6.8138514386924698e-01
    8.0392156862745100e-03 -8.0000000000000004e-01
    7.8558694180478547e-03 -1.0586263057247414e+00
    7.9839626900463732e-03 -1.2083045973594573e+00
    8.2698527430663648e-03 -1.3887301496588274e+00
    8.3713575042722206e-03 -1.4404860290887931e+00
    8.5509593791990024e-03 -1.5245734893157246e+00
    8.9385947009132799e-03 -1.6863421954040054e+00
    8.8508851706236829e-03 -1.6514456476895409e+00
    8.7686042396248609e-03 -1.6179144164088310e+00
    9.0321298050584295e-03 -1.7227135384282175e+00
    8.7686042396248609e-03 -1.6179144164088310e+00
    8.4871850194674307e-03 -1.4956076040402972e+00
    9.2385115320093407e-03 -1.8003831009940154e+00
    8.5509593791990024e-03 -1.5245734893157246e+00
    8.6913966989453934e-03 -1.5856499343441839e+00
    8.2240493877321786e-03 -1.3639886789409466e+00
    8.6913966989453934e-03 -1.5856499343441839e+00
    8.8508851706236829e-03 -1.6514456476895409e+00
    8.5509593791990024e-03 -1.5245734893157246e+00
    8.3713575042722206e-03 -1.4404860290887931e+00
    8.6913966989453934e-03 -1.5856499343441839e+00
    8.8508851706236829e-03 -1.6514456476895409e+00
    8.6189439075195270e-03 -1.5545631755148026e+00
    8.6189439075195270e-03 -1.5545631755148026e+00
    8.7686042396248609e-03 -1.6179144164088310e+00
    9.6048898765513542e-03 -1.9315199276138029e+00
    9.0321298050584295e-03 -1.7227135384282175e+00
    9.7450010180330903e-03 -1.9798989873223327e+00
    1.0627505069887353e-02 -2.2693611435820435e+00
    1.0851042410176325e-02 -2.3395906074624078e+00
    1.0851042410176325e-02 -2.3395906074624078e+00
    9.4743065453099518e-03 -1.8856180831641269e+00
    9.1319353741684921e-03 -1.7606816861659007e+00
    8.8508851706236829e-03 -1.6514456476895409e+00
    8.4871850194674307e-03 -1.4956076040402972e+00
    7.8873139843755498e-03 -1.1119188982851385e+00
    8.1813514099009100e-03 -7.4629888470803418e-01
    8.2240493877321803e-03 -7.3314391493075892e-01
    8.9385947009132799e-03 -5.9299945332888104e-01
    8.4273879030585599e-03 -6.8138514386924698e-01
    8.0706628640648346e-03 -7.8639751565704907e-01
    7.8746909077593852e-03 -1.0938137736509683e+00
    7.9384202252182241e-03 -1.1684967331510239e+00
    8.1416302059667319e-03 -1.3165611772087666e+00
    8.1813514099009100e-03 -1.3399457248166977e+00
    8.6189439075195270e-03 -1.5545631755148026e+00
    9.1319353741684921e-03 -1.7606816861659007e+00
    8.9385947009132799e-03 -1.6863421954040054e+00
    8.8508851706236829e-03 -1.6514456476895409e+00
    8.9385947009132799e-03 -1.6863421954040054e+00
    8.3713575042722206e-03 -1.4404860290887931e+00
    8.7686042396248609e-03 -1.6179144164088310e+00
    8.9385947009132799e-03 -1.6863421954040054e+00
    8.7686042396248609e-03 -1.6179144164088310e+00
    8.5509593791990024e-03 -1.5245734893157246e+00
    8.3713575042722206e-03 -1.4404860290887931e+00
    8.4273879030585617e-03 -1.4675987714106862e+00
    8.8508851706236829e-03 -1.6514456476895409e+00
    8.9385947009132799e-03 -1.6863421954040054e+00
    8.4871850194674307e-03 -1.4956076040402972e+00
    8.4273879030585617e-03 -1.4675987714106862e+00
    8.5509593791990024e-03 -1.5245734893157246e+00
    8.6913966989453934e-03 -1.5856499343441839e+00
    9.2385115320093407e-03 -1.8003831009940154e+00
    9.6048898765513542e-03 -1.9315199276138029e+00
    9.6048898765513542e-03 -1.9315199276138029e+00
    9.2385115320093407e-03 -1.8003831009940154e+00
    8.9385947009132799e-03 -1.6863421954040054e+00
    1.0627505069887353e-02 -2.2693611435820435e+00
    9.2385115320093407e-03 -1.8003831009940154e+00
    9.6048898765513542e-03 -1.9315199276138029e+00
    9.8955904512796899e-03 -2.0310096011589902e+00
    8.6189439075195270e-03 -1.5545631755148026e+00
    8.8508851706236829e-03 -1.6514456476895409e+00
    8.6189439075195270e-03 -1.5545631755148026e+00
    8.0392156862745100e-03 -1.2500000000000002e+00
    8.0392156862745100e-03 -8.0000000000000004e-01
    8.2240493877321803e-03 -7.3314391493075892e-01
    9.1319353741684938e-03 -5.6796183424706481e-01
    8.6189439075195270e-03 -6.4326752090267691e-01
    8.0392156862745100e-03 -8.0000000000000004e-01
    7.8873139843755515e-03 -8.9934616773062692e-01
    7.9191391868905468e-03 -1.1492409307804574e+00
    8.0706628640648346e-03 -1.2716215146794838e+00
    8.3189033080770299e-03 -1.4142135623730951e+00
    8.6913966989453934e-03 -1.5856499343441839e+00
    8.7686042396248609e-03 -1.6179144164088310e+00
    8.6189439075195270e-03 -1.5545631755148026e+00
    8.1813514099009100e-03 -1.3399457248166977e+00
    8.2240493877321786e-03 -1.3639886789409466e+00
    8.3713575042722206e-03 -1.4404860290887931e+00
    9.4743065453099518e-03 -1.8856180831641269e+00
    9.1319353741684921e-03 -1.7606816861659007e+00
    8.3189033080770299e-03 -1.4142135623730951e+00
    8.2698527430663648e-03 -1.3887301496588274e+00
    8.4273879030585617e-03 -1.4675987714106862e+00
    8.4273879030585617e-03 -1.4675987714106862e+00
    8.7686042396248609e-03 -1.6179144164088310e+00
    8.7686042396248609e-03 -1.6179144164088310e+00
    8.7686042396248609e-03 -1.6179144164088310e+00
    8.4871850194674307e-03 -1.4956076040402972e+00
    8.5509593791990024e-03 -1.5245734893157246e+00
    8.4871850194674307e-03 -1.4956076040402972e+00
    8.9385947009132799e-03 -1.6863421954040054e+00
    8.6189439075195270e-03 -1.5545631755148026e+00
    9.3524223845613923e-03 -1.8419709940325180e+00
    9.1319353741684921e-03 -1.7606816861659007e+00
    8.7686042396248609e-03 -1.6179144164088310e+00
    9.7450010180330903e-03 -1.9798989873223327e+00
    9.3524223845613923e-03 -1.8419709940325180e+00
    9.2385115320093407e-03 -1.8003831009940154e+00
    9.6048898765513542e-03 -1.9315199276138029e+00
    8.3189033080770299e-03 -1.4142135623730951e+00
    8.5509593791990024e-03 -1.5245734893157246e+00
    8.6913966989453934e-03 -1.5856499343441839e+00
    7.9384202252182241e-03 -1.1684967331510239e+00
    7.8746909077593834e-03 -9.1423240782767479e-01
    8.2240493877321803e-03 -7.3314391493075892e-01
    1.0057754089811842e-02 -4.7958315233127197e-01
    8.6189439075195270e-03 -6.4326752090267691e-01
    8.0706628640648346e-03 -7.8639751565704907e-01
    7.9021179115696498e-03 -8.8465173692938270e-01
    7.8454711746842858e-03 -1.0246950765959599e+00
    8.1047692120905703e-03 -1.2937979144666532e+00
    8.5509593791990024e-03 -1.5245734893157246e+00
    8.5509593791990024e-03 -1.5245734893157246e+00
    8.6913966989453934e-03 -1.5856499343441839e+00
    8.3189033080770299e-03 -1.4142135623730951e+00
    8.2698527430663648e-03 -1.3887301496588274e+00
    8.4871850194674307e-03 -1.4956076040402972e+00
    8.8508851706236829e-03 -1.6514456476895409e+00
    8.2240493877321786e-03 -1.3639886789409466e+00
    9.0321298050584295e-03 -1.7227135384282175e+00
    8.3189033080770299e-03 -1.4142135623730951e+00
    8.3713575042722206e-03 -1.4404860290887931e+00
    8.1416302059667319e-03 -1.3165611772087666e+00
    8.3713575042722206e-03 -1.4404860290887931e+00
    8.4273879030585617e-03 -1.4675987714106862e+00
    8.3189033080770299e-03 -1.4142135623730951e+00
    8.2240493877321786e-03 -1.3639886789409466e+00
    8.3189033080770299e-03 -1.4142135623730951e+00
    8.2698527430663648e-03 -1.3887301496588274e+00
    8.3713575042722206e-03 -1.4404860290887931e+00
    9.0321298050584295e-03 -1.7227135384282175e+00
    9.4743065453099518e-03 -1.8856180831641269e+00
    9.2385115320093407e-03 -1.8003831009940154e+00
    9.2385115320093407e-03 -1.8003831009940154e+00
    8.9385947009132799e-03 -1.6863421954040054e+00
    8.8508851706236829e-03 -1.6514456476895409e+00
    9.3524223845613923e-03 -1.8419709940325180e+00
    9.1319353741684921e-03 -1.7606816861659007e+00
    9.1319353741684921e-03 -1.7606816861659007e+00
    8.3189033080770299e-03 -1.4142135623730951e+00
    8.4871850194674307e-03 -1.4956076040402972e+00
    8.3189033080770299e-03 -1.4142135623730951e+00
    8.0103414932715805e-03 -1.2289036095775181e+00
    7.8496255150202632e-03 -9.6014321848357609e-01
    8.1813514099009100e-03 -7.4629888470803418e-01
    1.1362856908643155e-02 -4.0047142031681360e-01
    8.4871850194674289e-03 -6.6862457592389746e-01
    8.0706628640648346e-03 -7.8639751565704907e-01
    7.9021179115696498e-03 -8.8465173692938270e-01
    7.8433964764661555e-03 -9.9190270074334186e-01
    7.9839626900463732e-03 -1.2083045973594573e+00
    8.2698527430663648e-03 -1.3887301496588274e+00
    8.6189439075195270e-03 -1.5545631755148026e+00
    8.4273879030585617e-03 -1.4675987714106862e+00
    8.5509593791990024e-03 -1.5245734893157246e+00
    8.3189033080770299e-03 -1.4142135623730951e+00
    8.7686042396248609e-03 -1.6179144164088310e+00
    9.0321298050584295e-03 -1.7227135384282175e+00
    9.0321298050584295e-03 -1.7227135384282175e+00
    8.3713575042722206e-03 -1.4404860290887931e+00
    8.6913966989453934e-03 -1.5856499343441839e+00
    8.6189439075195270e-03 -1.5545631755148026e+00
    8.4871850194674307e-03 -1.4956076040402972e+00
    8.4871850194674307e-03 -1.4956076040402972e+00
    8.3713575042722206e-03 -1.4404860290887931e+00
    8.2698527430663648e-03 -1.3887301496588274e+00
    8.3189033080770299e-03 -1.4142135623730951e+00
    8.2240493877321786e-03 -1.3639886789409466e+00
    8.6189439075195270e-03 -1.5545631755148026e+00
    8.6913966989453934e-03 -1.5856499343441839e+00
    8.8508851706236829e-03 -1.6514456476895409e+00
    9.1319353741684921e-03 -1.7606816861659007e+00
    9.4743065453099518e-03 -1.8856180831641269e+00
    8.8508851706236829e-03 -1.6514456476895409e+00
    8.9385947009132799e-03 -1.6863421954040054e+00
    9.3524223845613923e-03 -1.8419709940325180e+00
    8.5509593791990024e-03 -1.5245734893157246e+00
    9.1319353741684921e-03 -1.7606816861659007e+00
    9.7450010180330903e-03 -1.9798989873223327e+00
    8.6913966989453934e-03 -1.5856499343441839e+00
    8.4871850194674307e-03 -1.4956076040402972e+00
    8.3713575042722206e-03 -1.4404860290887931e+00
    8.0706628640648346e-03 -1.2716215146794838e+00
    7.8454711746842858e-03 -9.7590007294853309e-01
    8.1813514099009100e-03 -7.4629888470803418e-01
    1.5902705534839568e-02 -2.6375218935831479e-01
    8.6189439075195270e-03 -6.4326752090267691e-01
    8.2240493877321803e-03 -7.3314391493075892e-01
    8.0103414932715805e-03 -8.1373347120673489e-01
    7.8433964764661555e-03 -9.9190270074334186e-01
    7.9021179115696498e-03 -1.1303883305208779e+00
    8.2240493877321786e-03 -1.3639886789409466e+00
    8.4273879030585617e-03 -1.4675987714106862e+00
    8.1813514099009100e-03 -1.3399457248166977e+00
    8.2240493877321786e-03 -1.3639886789409466e+00
    8.5509593791990024e-03 -1.5245734893157246e+00
    9.0321298050584295e-03 -1.7227135384282175e+00
    8.4273879030585617e-03 -1.4675987714106862e+00
    8.6913966989453934e-03 -1.5856499343441839e+00
    8.7686042396248609e-03 -1.6179144164088310e+00
    9.0321298050584295e-03 -1.7227135384282175e+00
    8.7686042396248609e-03 -1.6179144164088310e+00
    8.8508851706236829e-03 -1.6514456476895409e+00
    8.4871850194674307e-03 -1.4956076040402972e+00
    8.3713575042722206e-03 -1.4404860290887931e+00
    8.6189439075195270e-03 -1.5545631755148026e+00
    8.3713575042722206e-03 -1.4404860290887931e+00
    8.4871850194674307e-03 -1.4956076040402972e+00
    8.4273879030585617e-03 -1.4675987714106862e+00
    8.6189439075195270e-03 -1.5545631755148026e+00
    8.4871850194674307e-03 -1.4956076040402972e+00
    9.2385115320093407e-03 -1.8003831009940154e+00
    8.9385947009132799e-03 -1.6863421954040054e+00
    8.4273879030585617e-03 -1.4675987714106862e+00
    8.4273879030585617e-03 -1.4675987714106862e+00
    8.9385947009132799e-03 -1.6863421954040054e+00
    9.1319353741684921e-03 -1.7606816861659007e+00
    9.3524223845613923e-03 -1.8419709940325180e+00
    8.9385947009132799e-03 -1.6863421954040054e+00
    8.3713575042722206e-03 -1.4404860290887931e+00
    8.6913966989453934e-03 -1.5856499343441839e+00
    8.3713575042722206e-03 -1.4404860290887931e+00
    8.1047692120905703e-03 -1.2937979144666532e+00
    7.8454711746842858e-03 -1.0246950765959599e+00
    8.1416302059667319e-03 -7.5955452531275003e-01
    1.5058830696019394e-02 -2.8097574347450821e-01
    8.8508851706236829e-03 -6.0553007081949839e-01
    8.1416302059667319e-03 -7.5955452531275003e-01
    8.0103414932715805e-03 -8.1373347120673489e-01
    7.8454711746842858e-03 -9.7590007294853309e-01
    7.8873139843755498e-03 -1.1119188982851385e+00
    8.0706628640648346e-03 -1.2716215146794838e+00
    8.4273879030585617e-03 -1.4675987714106862e+00
    8.4871850194674307e-03 -1.4956076040402972e+00
    8.1047692120905703e-03 -1.2937979144666532e+00
    8.9385947009132799e-03 -1.6863421954040054e+00
    9.0321298050584295e-03 -1.7227135384282175e+00
    8.9385947009132799e-03 -1.6863421954040054e+00
    8.8508851706236829e-03 -1.6514456476895409e+00
    8.5509593791990024e-03 -1.5245734893157246e+00
    8.7686042396248609e-03 -1.6179144164088310e+00
    8.8508851706236829e-03 -1.6514456476895409e+00
    9.1319353741684921e-03 -1.7606816861659007e+00
    8.8508851706236829e-03 -1.6514456476895409e+00
    8.6913966989453934e-03 -1.5856499343441839e+00
    8.5509593791990024e-03 -1.5245734893157246e+00
    8.4871850194674307e-03 -1.4956076040402972e+00
    8.9385947009132799e-03 -1.6863421954040054e+00
    8.4871850194674307e-03 -1.4956076040402972e+00
    8.9385947009132799e-03 -1.6863421954040054e+00
    9.0321298050584295e-03 -1.7227135384282175e+00
    8.6189439075195270e-03 -1.5545631755148026e+00
    8.2698527430663648e-03 -1.3887301496588274e+00
    8.9385947009132799e-03 -1.6863421954040054e+00
    8.9385947009132799e-03 -1.6863421954040054e+00
    8.8508851706236829e-03 -1.6514456476895409e+00
    8.8508851706236829e-03 -1.6514456476895409e+00
    9.4743065453099518e-03 -1.8856180831641269e+00
    8.6913966989453934e-03 -1.5856499343441839e+00
    8.8508851706236829e-03 -1.6514456476895409e+00
    8.4273879030585617e-03 -1.4675987714106862e+00
    8.3189033080770299e-03 -1.4142135623730951e+00
    8.1813514099009100e-03 -1.3399457248166977e+00
    7.8642178469902971e-03 -9.2932037728458516e-01
    8.3189033080770299e-03 -7.0710678118654757e-01
    2.2108610810680388e-02 -1.8333969940564224e-01
    9.2385115320093407e-03 -5.5543733966836650e-01
    8.3189033080770299e-03 -7.0710678118654757e-01
    8.0706628640648346e-03 -7.8639751565704907e-01
    7.8558694180478564e-03 -9.4462039587746183e-01
    7.8642178469902971e-03 -1.0760551736979407e+00
    7.8873139843755498e-03 -1.1119188982851385e+00
    7.9600096592242452e-03 -1.1881770515720094e+00
    8.1047692120905703e-03 -1.2937979144666532e+00
    8.2698527430663648e-03 -1.3887301496588274e+00
    8.1813514099009100e-03 -1.3399457248166977e+00
    8.5509593791990024e-03 -1.5245734893157246e+00
    8.7686042396248609e-03 -1.6179144164088310e+00
    8.6189439075195270e-03 -1.5545631755148026e+00
    8.8508851706236829e-03 -1.6514456476895409e+00
    8.9385947009132799e-03 -1.6863421954040054e+00
    8.6913966989453934e-03 -1.5856499343441839e+00
    8.7686042396248609e-03 -1.6179144164088310e+00
    8.6189439075195270e-03 -1.5545631755148026e+00
    9.0321298050584295e-03 -1.7227135384282175e+00
    8.9385947009132799e-03 -1.6863421954040054e+00
    8.7686042396248609e-03 -1.6179144164088310e+00
    9.0321298050584295e-03 -1.7227135384282175e+00
    8.8508851706236829e-03 -1.6514456476895409e+00
    8.3713575042722206e-03 -1.4404860290887931e+00
    8.6189439075195270e-03 -1.5545631755148026e+00
    8.2698527430663648e-03 -1.3887301496588274e+00
    9.0321298050584295e-03 -1.7227135384282175e+00
    8.8508851706236829e-03 -1.6514456476895409e+00
    8.5509593791990024e-03 -1.5245734893157246e+00
    8.9385947009132799e-03 -1.6863421954040054e+00
    8.9385947009132799e-03 -1.6863421954040054e+00
    9.3524223845613923e-03 -1.8419709940325180e+00
    8.6189439075195270e-03 -1.5545631755148026e+00
    8.8508851706236829e-03 -1.6514456476895409e+00
    8.3713575042722206e-03 -1.4404860290887931e+00
    8.3713575042722206e-03 -1.4404860290887931e+00
    7.9384202252182241e-03 -1.1684967331510239e+00
    7.8642178469902971e-03 -9.2932037728458516e-01
    8.7686042396248626e-03 -6.1807966469550857e-01
    1.6927269800051443e-02 -2.4565184222025874e-01
    1.3742304808368107e-02 -3.1339158526400440e-01
    8.4273879030585599e-03 -6.8138514386924698e-01
    8.2240493877321803e-03 -7.3314391493075892e-01
    7.8558694180478564e-03 -9.4462039587746183e-01
    7.8496255150202632e-03 -9.6014321848357609e-01
    7.8746909077593852e-03 -1.0938137736509683e+00
    7.9191391868905468e-03 -1.1492409307804574e+00
    7.9839626900463732e-03 -1.2083045973594573e+00
    8.0706628640648346e-03 -1.2716215146794838e+00
    8.4871850194674307e-03 -1.4956076040402972e+00
    8.5509593791990024e-03 -1.5245734893157246e+00
    8.1047692120905703e-03 -1.2937979144666532e+00
    8.3713575042722206e-03 -1.4404860290887931e+00
    8.7686042396248609e-03 -1.6179144164088310e+00
    7.9839626900463732e-03 -1.2083045973594573e+00
    8.4871850194674307e-03 -1.4956076040402972e+00
    9.1319353741684921e-03 -1.7606816861659007e+00
    8.8508851706236829e-03 -1.6514456476895409e+00
    8.2698527430663648e-03 -1.3887301496588274e+00
    8.8508851706236829e-03 -1.6514456476895409e+00
    8.9385947009132799e-03 -1.6863421954040054e+00
    8.6189439075195270e-03 -1.5545631755148026e+00
    8.9385947009132799e-03 -1.6863421954040054e+00
    8.6913966989453934e-03 -1.5856499343441839e+00
    8.9385947009132799e-03 -1.6863421954040054e+00
    8.5509593791990024e-03 -1.5245734893157246e+00
    8.6189439075195270e-03 -1.5545631755148026e+00
    8.1813514099009100e-03 -1.3399457248166977e+00
    8.4273879030585617e-03 -1.4675987714106862e+00
    8.9385947009132799e-03 -1.6863421954040054e+00
    9.7450010180330903e-03 -1.9798989873223327e+00
    9.7450010180330903e-03 -1.9798989873223327e+00
    8.8508851706236829e-03 -1.6514456476895409e+00
    8.2240493877321786e-03 -1.3639886789409466e+00
    8.5509593791990024e-03 -1.5245734893157246e+00
    8.2240493877321786e-03 -1.3639886789409466e+00
    7.8558694180478547e-03 -1.0586263057247414e+00
    7.8873139843755515e-03 -8.9934616773062692e-01
    1.4349134593916421e-02 -2.9748205865436478e-01
    1.6927269800051443e-02 -2.4565184222025874e-01
    1.4349134593916421e-02 -2.9748205865436478e-01
    8.6189439075195270e-03 -6.4326752090267691e-01
    8.3713575042722223e-03 -6.9421013450062330e-01
    8.0392156862745100e-03 -8.0000000000000004e-01
    7.8746909077593834e-03 -9.1423240782767479e-01
    7.8558694180478547e-03 -1.0586263057247414e+00
    7.8558694180478547e-03 -1.0586263057247414e+00
    7.9191391868905468e-03 -1.1492409307804574e+00
    7.9384202252182241e-03 -1.1684967331510239e+00
    8.1047692120905703e-03 -1.2937979144666532e+00
    8.4273879030585617e-03 -1.4675987714106862e+00
    8.6913966989453934e-03 -1.5856499343441839e+00
    8.7686042396248609e-03 -1.6179144164088310e+00
    8.5509593791990024e-03 -1.5245734893157246e+00
    8.6189439075195270e-03 -1.5545631755148026e+00
    8.5509593791990024e-03 -1.5245734893157246e+00
    9.0321298050584295e-03 -1.7227135384282175e+00
    9.2385115320093407e-03 -1.8003831009940154e+00
    9.0321298050584295e-03 -1.7227135384282175e+00
    8.6913966989453934e-03 -1.5856499343441839e+00
    8.5509593791990024e-03 -1.5245734893157246e+00
    8.6913966989453934e-03 -1.5856499343441839e+00
    8.7686042396248609e-03 -1.6179144164088310e+00
    9.0321298050584295e-03 -1.7227135384282175e+00
    9.2385115320093407e-03 -1.8003831009940154e+00
    8.9385947009132799e-03 -1.6863421954040054e+00
    8.6913966989453934e-03 -1.5856499343441839e+00
    8.8508851706236829e-03 -1.6514456476895409e+00
    8.6189439075195270e-03 -1.5545631755148026e+00
    9.2385115320093407e-03 -1.8003831009940154e+00
    1.0057754089811839e-02 -2.0851441405707472e+00
    8.8508851706236829e-03 -1.6514456476895409e+00
    8.8508851706236829e-03 -1.6514456476895409e+00
    8.4273879030585617e-03 -1.4675987714106862e+00
    8.4273879030585617e-03 -1.4675987714106862e+00
    7.9839626900463732e-03 -1.2083045973594573e+00
    7.8873139843755498e-03 -1.1119188982851385e+00
    7.9600096592242452e-03 -8.4162541153017323e-01
    1.3216389175528722e-02 -3.2879797461071458e-01
    1.8205238588207225e-02 -2.2645540682891915e-01
    1.5902705534839568e-02 -2.6375218935831479e-01
    1.1984155173528285e-02 -3.7267799624996495e-01
    8.4871850194674289e-03 -6.6862457592389746e-01
    8.1416302059667319e-03 -7.5955452531275003e-01
    8.0392156862745100e-03 -8.0000000000000004e-01
    7.8558694180478564e-03 -9.4462039587746183e-01
    7.8558694180478547e-03 -1.0586263057247414e+00
    7.8558694180478547e-03 -1.0586263057247414e+00
    7.9021179115696498e-03 -1.1303883305208779e+00
    8.0103414932715805e-03 -1.2289036095775181e+00
    8.1416302059667319e-03 -1.3165611772087666e+00
    8.6913966989453934e-03 -1.5856499343441839e+00
    9.1319353741684921e-03 -1.7606816861659007e+00
    8.3713575042722206e-03 -1.4404860290887931e+00
    8.5509593791990024e-03 -1.5245734893157246e+00
    8.3713575042722206e-03 -1.4404860290887931e+00
    8.4871850194674307e-03 -1.4956076040402972e+00
    8.9385947009132799e-03 -1.6863421954040054e+00
    9.3524223845613923e-03 -1.8419709940325180e+00
    8.6189439075195270e-03 -1.5545631755148026e+00
    8.8508851706236829e-03 -1.6514456476895409e+00
    8.9385947009132799e-03 -1.6863421954040054e+00
    8.6913966989453934e-03 -1.5856499343441839e+00
    8.5509593791990024e-03 -1.5245734893157246e+00
    8.5509593791990024e-03 -1.5245734893157246e+00
    8.6913966989453934e-03 -1.5856499343441839e+00
    8.5509593791990024e-03 -1.5245734893157246e+00
    8.7686042396248609e-03 -1.6179144164088310e+00
    8.3189033080770299e-03 -1.4142135623730951e+00
    9.3524223845613923e-03 -1.8419709940325180e+00
    9.1319353741684921e-03 -1.7606816861659007e+00
    8.7686042396248609e-03 -1.6179144164088310e+00
    8.3189033080770299e-03 -1.4142135623730951e+00
    8.2240493877321786e-03 -1.3639886789409466e+00
    8.0103414932715805e-03 -1.2289036095775181e+00
    7.9191391868905468e-03 -1.1492409307804574e+00
    7.8454711746842858e-03 -1.0246950765959599e+00
    9.3524223845613923e-03 -5.4289671403063688e-01
    1.3742304808368107e-02 -3.1339158526400440e-01
    1.9858156325469025e-02 -2.0584674239815451e-01
    1.8205238588207225e-02 -2.2645540682891915e-01
    1.5058830696019394e-02 -2.8097574347450821e-01
    9.0321298050584312e-03 -5.8047956186168204e-01
    8.4273879030585599e-03 -6.8138514386924698e-01
    8.1813514099009100e-03 -7.4629888470803418e-01
    8.2240493877321803e-03 -7.3314391493075892e-01
    7.8746909077593834e-03 -9.1423240782767479e-01
    7.8454711746842858e-03 -9.7590007294853309e-01
    8.0103414932715805e-03 -1.2289036095775181e+00
    8.1047692120905703e-03 -1.2937979144666532e+00
    7.9191391868905468e-03 -1.1492409307804574e+00
    8.3713575042722206e-03 -1.4404860290887931e+00
    8.7686042396248609e-03 -1.6179144164088310e+00
    9.2385115320093407e-03 -1.8003831009940154e+00
    9.4743065453099518e-03 -1.8856180831641269e+00
    8.7686042396248609e-03 -1.6179144164088310e+00
    8.6189439075195270e-03 -1.5545631755148026e+00
    8.6189439075195270e-03 -1.5545631755148026e+00
    8.6913966989453934e-03 -1.5856499343441839e+00
    8.4273879030585617e-03 -1.4675987714106862e+00
    8.6913966989453934e-03 -1.5856499343441839e+00
    8.8508851706236829e-03 -1.6514456476895409e+00
    8.8508851706236829e-03 -1.6514456476895409e+00
    8.4273879030585617e-03 -1.4675987714106862e+00
    8.6189439075195270e-03 -1.5545631755148026e+00
    8.5509593791990024e-03 -1.5245734893157246e+00
    8.3189033080770299e-03 -1.4142135623730951e+00
    8.5509593791990024e-03 -1.5245734893157246e+00
    8.1047692120905703e-03 -1.2937979144666532e+00
    1.0232762719862332e-02 -2.1426406817077588e+00
    8.6189439075195270e-03 -1.5545631755148026e+00
    8.6189439075195270e-03 -1.5545631755148026e+00
    8.4273879030585617e-03 -1.4675987714106862e+00
    8.2240493877321786e-03 -1.3639886789409466e+00
    8.0103414932715805e-03 -1.2289036095775181e+00
    7.8454711746842858e-03 -1.0246950765959599e+00
    7.9839626900463732e-03 -8.2760588860236795e-01
    1.0851042410176322e-02 -4.2742520713255511e-01
    1.5058830696019394e-02 -2.8097574347450821e-01
    1.9858156325469025e-02 -2.0584674239815451e-01
    1.8205238588207225e-02 -2.2645540682891915e-01
    1.5902705534839568e-02 -2.6375218935831479e-01
    1.3216389175528722e-02 -3.2879797461071458e-01
    8.6189439075195270e-03 -6.4326752090267691e-01
    8.4273879030585599e-03 -6.8138514386924698e-01
    8.2698527430663648e-03 -7.2008229982309568e-01
    8.0706628640648346e-03 -7.8639751565704907e-01
    7.8642178469902971e-03 -9.2932037728458516e-01
    7.8433964764661537e-03 -1.0081634007555276e+00
    7.8873139843755498e-03 -1.1119188982851385e+00
    7.8746909077593852e-03 -1.0938137736509683e+00
    7.9839626900463732e-03 -1.2083045973594573e+00
    8.1047692120905703e-03 -1.2937979144666532e+00
    8.4871850194674307e-03 -1.4956076040402972e+00
    8.9385947009132799e-03 -1.6863421954040054e+00
    9.6048898765513542e-03 -1.9315199276138029e+00
    9.2385115320093407e-03 -1.8003831009940154e+00
    9.0321298050584295e-03 -1.7227135384282175e+00
    9.2385115320093407e-03 -1.8003831009940154e+00
    8.9385947009132799e-03 -1.6863421954040054e+00
    8.9385947009132799e-03 -1.6863421954040054e+00
    8.9385947009132799e-03 -1.6863421954040054e+00
    9.0321298050584295e-03 -1.7227135384282175e+00
    8.4871850194674307e-03 -1.4956076040402972e+00
    8.1813514099009100e-03 -1.3399457248166977e+00
    8.3189033080770299e-03 -1.4142135623730951e+00
    8.6913966989453934e-03 -1.5856499343441839e+00
    9.0321298050584295e-03 -1.7227135384282175e+00
    8.8508851706236829e-03 -1.6514456476895409e+00
    9.4743065453099518e-03 -1.8856180831641269e+00
    8.4871850194674307e-03 -1.4956076040402972e+00
    8.1416302059667319e-03 -1.3165611772087666e+00
    8.0706628640648346e-03 -1.2716215146794838e+00
    8.1416302059667319e-03 -1.3165611772087666e+00
    7.9600096592242452e-03 -1.1881770515720094e+00
    7.8558694180478564e-03 -9.4462039587746183e-01
    8.8508851706236829e-03 -6.0553007081949839e-01
    1.3742304808368107e-02 -3.1339158526400440e-01
    1.4349134593916421e-02 -2.9748205865436478e-01
    2.2108610810680388e-02 -1.8333969940564224e-01
    1.8205238588207225e-02 -2.2645540682891915e-01
    1.5902705534839568e-02 -2.6375218935831479e-01
    1.3742304808368107e-02 -3.1339158526400440e-01
    9.8955904512796899e-03 -4.9236596391733095e-01
    8.4871850194674289e-03 -6.6862457592389746e-01
    8.2240493877321803e-03 -7.3314391493075892e-01
    8.1813514099009100e-03 -7.4629888470803418e-01
    7.9600096592242452e-03 -8.4162541153017323e-01
    7.8558694180478564e-03 -9.4462039587746183e-01
    7.8642178469902971e-03 -9.2932037728458516e-01
    7.8454711746842858e-03 -1.0246950765959599e+00
    7.8873139843755498e-03 -1.1119188982851385e+00
    8.1416302059667319e-03 -1.3165611772087666e+00
    8.4273879030585617e-03 -1.4675987714106862e+00
    8.3713575042722206e-03 -1.4404860290887931e+00
    8.4273879030585617e-03 -1.4675987714106862e+00
    8.5509593791990024e-03 -1.5245734893157246e+00
    8.5509593791990024e-03 -1.5245734893157246e+00
    8.6189439075195270e-03 -1.5545631755148026e+00
    8.8508851706236829e-03 -1.6514456476895409e+00
    8.6913966989453934e-03 -1.5856499343441839e+00
    8.4871850194674307e-03 -1.4956076040402972e+00
    8.7686042396248609e-03 -1.6179144164088310e+00
    8.2240493877321786e-03 -1.3639886789409466e+00
    8.3189033080770299e-03 -1.4142135623730951e+00
    8.0392156862745100e-03 -1.2500000000000002e+00
    8.9385947009132799e-03 -1.6863421954040054e+00
    8.6913966989453934e-03 -1.5856499343441839e+00
    8.5509593791990024e-03 -1.5245734893157246e+00
    8.2698527430663648e-03 -1.3887301496588274e+00
    8.1416302059667319e-03 -1.3165611772087666e+00
    8.0706628640648346e-03 -1.2716215146794838e+00
    8.1813514099009100e-03 -1.3399457248166977e+00
    8.1416302059667319e-03 -1.3165611772087666e+00
    7.8433964764661555e-03 -9.9190270074334186e-01
    7.9600096592242452e-03 -8.4162541153017323e-01
    9.6048898765513559e-03 -5.1772699090679264e-01
    1.2755483117215145e-02 -3.4377582547616431e-01
    1.8205238588207225e-02 -2.2645540682891915e-01
    1.9858156325469025e-02 -2.0584674239815451e-01
    1.8205238588207225e-02 -2.2645540682891915e-01
    1.4349134593916421e-02 -2.9748205865436478e-01
    1.3742304808368107e-02 -3.1339158526400440e-01
    1.2755483117215145e-02 -3.4377582547616431e-01
    1.0851042410176322e-02 -4.2742520713255511e-01
    8.4273879030585599e-03 -6.8138514386924698e-01
    8.1416302059667319e-03 -7.5955452531275003e-01
    8.0706628640648346e-03 -7.8639751565704907e-01
    8.0392156862745100e-03 -8.0000000000000004e-01
    7.9021179115696498e-03 -8.8465173692938270e-01
    7.8558694180478564e-03 -9.4462039587746183e-01
    7.9021179115696498e-03 -1.1303883305208779e+00
    8.0392156862745100e-03 -1.2500000000000002e+00
    8.0706628640648346e-03 -1.2716215146794838e+00
    8.0392156862745100e-03 -1.2500000000000002e+00
    8.5509593791990024e-03 -1.5245734893157246e+00
    8.4273879030585617e-03 -1.4675987714106862e+00
    8.4273879030585617e-03 -1.4675987714106862e+00
    8.5509593791990024e-03 -1.5245734893157246e+00
    8.9385947009132799e-03 -1.6863421954040054e+00
    8.8508851706236829e-03 -1.6514456476895409e+00
    8.6189439075195270e-03 -1.5545631755148026e+00
    8.3713575042722206e-03 -1.4404860290887931e+00
    8.2698527430663648e-03 -1.3887301496588274e+00
    8.7686042396248609e-03 -1.6179144164088310e+00
    8.7686042396248609e-03 -1.6179144164088310e+00
    9.1319353741684921e-03 -1.7606816861659007e+00
    8.4871850194674307e-03 -1.4956076040402972e+00
    8.3713575042722206e-03 -1.4404860290887931e+00
    7.9839626900463732e-03 -1.2083045973594573e+00
    8.1813514099009100e-03 -1.3399457248166977e+00
    8.1813514099009100e-03 -1.3399457248166977e+00
    8.1813514099009100e-03 -1.3399457248166977e+00
    7.8558694180478547e-03 -1.0586263057247414e+00
    8.0706628640648346e-03 -7.8639751565704907e-01
    8.5509593791990041e-03 -6.5592115238002113e-01
    1.0422099084564212e-02 -4.5374260648651510e-01
    1.2755483117215145e-02 -3.4377582547616431e-01
    1.8205238588207225e-02 -2.2645540682891915e-01
    2.2108610810680388e-02 -1.8333969940564224e-01
    1.9858156325469025e-02 -2.0584674239815451e-01
    1.5058830696019394e-02 -2.8097574347450821e-01
    1.3742304808368107e-02 -3.1339158526400440e-01
    1.2347745345302736e-02 -3.5838577953439649e-01
    1.1984155173528285e-02 -3.7267799624996495e-01
    9.4743065453099518e-03 -5.3033008588991071e-01
    8.3189033080770299e-03 -7.0710678118654757e-01
    8.1813514099009100e-03 -7.4629888470803418e-01
    8.1416302059667319e-03 -7.5955452531275003e-01
    8.0392156862745100e-03 -8.0000000000000004e-01
    7.8642178469902971e-03 -9.2932037728458516e-01
    7.8558694180478564e-03 -9.4462039587746183e-01
    7.8496255150202632e-03 -1.0415112878465911e+00
    7.8873139843755498e-03 -1.1119188982851385e+00
    8.1047692120905703e-03 -1.2937979144666532e+00
    8.1047692120905703e-03 -1.2937979144666532e+00
    8.5509593791990024e-03 -1.5245734893157246e+00
    8.5509593791990024e-03 -1.5245734893157246e+00
    9.0321298050584295e-03 -1.7227135384282175e+00
    8.5509593791990024e-03 -1.5245734893157246e+00
    8.3189033080770299e-03 -1.4142135623730951e+00
    8.5509593791990024e-03 -1.5245734893157246e+00
    8.7686042396248609e-03 -1.6179144164088310e+00
    8.1813514099009100e-03 -1.3399457248166977e+00
    8.3713575042722206e-03 -1.4404860290887931e+00
    8.4273879030585617e-03 -1.4675987714106862e+00
    8.6189439075195270e-03 -1.5545631755148026e+00
    8.4871850194674307e-03 -1.4956076040402972e+00
    8.4273879030585617e-03 -1.4675987714106862e+00
    7.9839626900463732e-03 -1.2083045973594573e+00
    8.0706628640648346e-03 -1.2716215146794838e+00
    8.0706628640648346e-03 -1.2716215146794838e+00
    7.9021179115696498e-03 -1.1303883305208779e+00
    7.9021179115696498e-03 -8.8465173692938270e-01
    8.5509593791990041e-03 -6.5592115238002113e-01
    9.1319353741684938e-03 -5.6796183424706481e-01
    1.1362856908643155e-02 -4.0047142031681360e-01
    1.5902705534839568e-02 -2.6375218935831479e-01
    1.6927269800051443e-02 -2.4565184222025874e-01
    2.5422232169981088e-02 -1.5811388300841897e-01
    1.8205238588207225e-02 -2.2645540682891915e-01
    1.5058830696019394e-02 -2.8097574347450821e-01
    1.4349134593916421e-02 -2.9748205865436478e-01
    1.1984155173528285e-02 -3.7267799624996495e-01
    1.1984155173528285e-02 -3.7267799624996495e-01
    1.1984155173528285e-02 -3.7267799624996495e-01
    9.7450010180330920e-03 -5.0507627227610541e-01
    8.3713575042722223e-03 -6.9421013450062330e-01
    8.2698527430663648e-03 -7.2008229982309568e-01
    8.2698527430663648e-03 -7.2008229982309568e-01
    8.0103414932715805e-03 -8.1373347120673489e-01
    7.8454711746842858e-03 -9.7590007294853309e-01
    7.8496255150202632e-03 -1.0415112878465911e+00
    7.8873139843755498e-03 -1.1119188982851385e+00
    8.0103414932715805e-03 -1.2289036095775181e+00
    8.0392156862745100e-03 -1.2500000000000002e+00
    8.0392156862745100e-03 -1.2500000000000002e+00
    8.6913966989453934e-03 -1.5856499343441839e+00
    8.6913966989453934e-03 -1.5856499343441839e+00
    8.4273879030585617e-03 -1.4675987714106862e+00
    8.4273879030585617e-03 -1.4675987714106862e+00
    8.0706628640648346e-03 -1.2716215146794838e+00
    8.2240493877321786e-03 -1.3639886789409466e+00
    8.9385947009132799e-03 -1.6863421954040054e+00
    8.6913966989453934e-03 -1.5856499343441839e+00
    8.6189439075195270e-03 -1.5545631755148026e+00
    8.2698527430663648e-03 -1.3887301496588274e+00
    8.0103414932715805e-03 -1.2289036095775181e+00
    8.0103414932715805e-03 -1.2289036095775181e+00
    8.0103414932715805e-03 -1.2289036095775181e+00
    7.8642178469902971e-03 -1.0760551736979407e+00
    7.8558694180478547e-03 -1.0586263057247414e+00
    7.8746909077593834e-03 -9.1423240782767479e-01
    8.6189439075195270e-03 -6.4326752090267691e-01
    8.8508851706236829e-03 -6.0553007081949839e-01
    1.0422099084564212e-02 -4.5374260648651510e-01
    1.2347745345302736e-02 -3.5838577953439649e-01
    1.5902705534839568e-02 -2.6375218935831479e-01
    1.8205238588207225e-02 -2.2645540682891915e-01
    2.2108610810680388e-02 -1.8333969940564224e-01
    1.8205238588207225e-02 -2.2645540682891915e-01
    1.6927269800051443e-02 -2.4565184222025874e-01
    1.4349134593916421e-02 -2.9748205865436478e-01
    1.3216389175528722e-02 -3.2879797461071458e-01
    1.3216389175528722e-02 -3.2879797461071458e-01
    1.3216389175528722e-02 -3.2879797461071458e-01
    1.3216389175528722e-02 -3.2879797461071458e-01
    9.6048898765513559e-03 -5.1772699090679264e-01
    8.6913966989453917e-03 -6.3065622388689124e-01
    8.6913966989453917e-03 -6.3065622388689124e-01
    8.4273879030585599e-03 -6.8138514386924698e-01
    8.2240493877321803e-03 -7.3314391493075892e-01
    7.8642178469902971e-03 -9.2932037728458516e-01
    7.8454711746842858e-03 -1.0246950765959599e+00
    7.8873139843755498e-03 -1.1119188982851385e+00
    7.9384202252182241e-03 -1.1684967331510239e+00
    8.0392156862745100e-03 -1.2500000000000002e+00
    8.1416302059667319e-03 -1.3165611772087666e+00
    8.5509593791990024e-03 -1.5245734893157246e+00
    8.3713575042722206e-03 -1.4404860290887931e+00
    8.2698527430663648e-03 -1.3887301496588274e+00
    8.1813514099009100e-03 -1.3399457248166977e+00
    8.8508851706236829e-03 -1.6514456476895409e+00
    8.5509593791990024e-03 -1.5245734893157246e+00
    8.7686042396248609e-03 -1.6179144164088310e+00
    8.0706628640648346e-03 -1.2716215146794838e+00
    8.1813514099009100e-03 -1.3399457248166977e+00
    8.0103414932715805e-03 -1.2289036095775181e+00
    7.9839626900463732e-03 -1.2083045973594573e+00
    7.8642178469902971e-03 -1.0760551736979407e+00
    7.8433964764661555e-03 -9.9190270074334186e-01
    7.9600096592242452e-03 -8.4162541153017323e-01
    8.8508851706236829e-03 -6.0553007081949839e-01
    9.1319353741684938e-03 -5.6796183424706481e-01
    1.0057754089811842e-02 -4.7958315233127197e-01
    1.3216389175528722e-02 -3.2879797461071458e-01
    1.3742304808368107e-02 -3.1339158526400440e-01
    1.6927269800051443e-02 -2.4565184222025874e-01
    3.1006821421014390e-02 -1.2856486930664504e-01
    2.5422232169981088e-02 -1.5811388300841897e-01
    1.9858156325469025e-02 -2.0584674239815451e-01
    1.8205238588207225e-02 -2.2645540682891915e-01
    1.5058830696019394e-02 -2.8097574347450821e-01
    1.3742304808368107e-02 -3.1339158526400440e-01
    1.4349134593916421e-02 -2.9748205865436478e-01
    1.4349134593916421e-02 -2.9748205865436478e-01
    1.4349134593916421e-02 -2.9748205865436478e-01
    1.5058830696019394e-02 -2.8097574347450821e-01
    1.5902705534839568e-02 -2.6375218935831479e-01
    9.7450010180330920e-03 -5.0507627227610541e-01
    9.1319353741684938e-03 -5.6796183424706481e-01
    8.5509593791990041e-03 -6.5592115238002113e-01
    8.2698527430663648e-03 -7.2008229982309568e-01
    8.0103414932715805e-03 -8.1373347120673489e-01
    7.8746909077593834e-03 -9.1423240782767479e-01
    7.8433964764661555e-03 -9.9190270074334186e-01
    7.8642178469902971e-03 -1.0760551736979407e+00
    8.0103414932715805e-03 -1.2289036095775181e+00
    8.3189033080770299e-03 -1.4142135623730951e+00
    8.3713575042722206e-03 -1.4404860290887931e+00
    8.4273879030585617e-03 -1.4675987714106862e+00
    8.2240493877321786e-03 -1.3639886789409466e+00
    8.6189439075195270e-03 -1.5545631755148026e+00
    8.5509593791990024e-03 -1.5245734893157246e+00
    8.4273879030585617e-03 -1.4675987714106862e+00
    8.2240493877321786e-03 -1.3639886789409466e+00
    8.1047692120905703e-03 -1.2937979144666532e+00
    7.8873139843755498e-03 -1.1119188982851385e+00
    7.8433964764661555e-03 -9.9190270074334186e-01
    7.8746909077593834e-03 -9.1423240782767479e-01
    8.2698527430663648e-03 -7.2008229982309568e-01
    9.1319353741684938e-03 -5.6796183424706481e-01
    9.3524223845613923e-03 -5.4289671403063688e-01
    1.1095171738445696e-02 -4.1403933560541262e-01
    1.5902705534839568e-02 -2.6375218935831479e-01
    1.5058830696019394e-02 -2.8097574347450821e-01
    1.5058830696019394e-02 -2.8097574347450821e-01
    1.6927269800051443e-02 -2.4565184222025874e-01
    2.2108610810680388e-02 -1.8333969940564224e-01 1. 0.
    2.5422232169981088e-02 -1.5811388300841897e-01
    2.2108610810680388e-02 -1.8333969940564224e-01
    1.9858156325469025e-02 -2.0584674239815451e-01
    1.8205238588207225e-02 -2.2645540682891915e-01
    1.8205238588207225e-02 -2.2645540682891915e-01
    1.8205238588207225e-02 -2.2645540682891915e-01
    1.6927269800051443e-02 -2.4565184222025874e-01
    1.6927269800051443e-02 -2.4565184222025874e-01
    1.6927269800051443e-02 -2.4565184222025874e-01
    1.5902705534839568e-02 -2.6375218935831479e-01
    1.3742304808368107e-02 -3.1339158526400440e-01
    9.3524223845613923e-03 -5.4289671403063688e-01
    8.5509593791990041e-03 -6.5592115238002113e-01
    8.4273879030585599e-03 -6.8138514386924698e-01
    8.2240493877321803e-03 -7.3314391493075892e-01
    8.0103414932715805e-03 -8.1373347120673489e-01
    7.8642178469902971e-03 -9.2932037728458516e-01
    7.8873139843755498e-03 -1.1119188982851385e+00
    7.8433964764661555e-03 -9.9190270074334186e-01
    7.8642178469902971e-03 -1.0760551736979407e+00
    8.0392156862745100e-03 -1.2500000000000002e+00
    7.9600096592242452e-03 -1.1881770515720094e+00
    8.2698527430663648e-03 -1.3887301496588274e+00
    7.8873139843755498e-03 -1.1119188982851385e+00
    8.0706628640648346e-03 -1.2716215146794838e+00
    7.8558694180478547e-03 -1.0586263057247414e+00
    7.8642178469902971e-03 -1.0760551736979407e+00
    7.8642178469902971e-03 -9.2932037728458516e-01
    8.2240493877321803e-03 -7.3314391493075892e-01
    8.6913966989453917e-03 -6.3065622388689124e-01
    9.6048898765513559e-03 -5.1772699090679264e-01
    1.0422099084564212e-02 -4.5374260648651510e-01
    1.2755483117215145e-02 -3.4377582547616431e-01
    1.5902705534839568e-02 -2.6375218935831479e-01
    1.5902705534839568e-02 -2.6375218935831479e-01
    1.8205238588207225e-02 -2.2645540682891915e-01
    1.8205238588207225e-02 -2.2645540682891915e-01
    1.8205238588207225e-02 -2.2645540682891915e-01
    2.2108610810680388e-02 -1.8333969940564224e-01
    4.3670183385214820e-02 -9.0535746042518531e-02
    2.2108610810680388e-02 -1.8333969940564224e-01
    2.2108610810680388e-02 -1.8333969940564224e-01
    2.2108610810680388e-02 -1.8333969940564224e-01
    2.2108610810680388e-02 -1.8333969940564224e-01
    2.5422232169981088e-02 -1.5811388300841897e-01
    2.2108610810680388e-02 -1.8333969940564224e-01
    2.2108610810680388e-02 -1.8333969940564224e-01
    2.2108610810680388e-02 -1.8333969940564224e-01
    1.9858156325469025e-02 -2.0584674239815451e-01
    1.9858156325469025e-02 -2.0584674239815451e-01
    1.9858156325469025e-02 -2.0584674239815451e-01
    1.6927269800051443e-02 -2.4565184222025874e-01
    1.4349134593916421e-02 -2.9748205865436478e-01
    9.7450010180330920e-03 -5.0507627227610541e-01
    9.3524223845613923e-03 -5.4289671403063688e-01
    8.5509593791990041e-03 -6.5592115238002113e-01
    8.3713575042722223e-03 -6.9421013450062330e-01
    8.3189033080770299e-03 -7.0710678118654757e-01
    8.2698527430663648e-03 -7.2008229982309568e-01
    7.9384202252182241e-03 -8.5580042427962322e-01
    7.9839626900463732e-03 -8.2760588860236795e-01
    8.3713575042722223e-03 -6.9421013450062330e-01
    8.0706628640648346e-03 -7.8639751565704907e-01
    7.8873139843755515e-03 -8.9934616773062692e-01
    8.0103414932715805e-03 -8.1373347120673489e-01
    7.9384202252182241e-03 -8.5580042427962322e-01
    8.3713575042722223e-03 -6.9421013450062330e-01
    8.7686042396248626e-03 -6.1807966469550857e-01
    8.9385947009132799e-03 -5.9299945332888104e-01
    9.7450010180330920e-03 -5.0507627227610541e-01
    1.1362856908643155e-02 -4.0047142031681360e-01
    1.6927269800051443e-02 -2.4565184222025874e-01
    1.6927269800051443e-02 -2.4565184222025874e-01
    1.6927269800051443e-02 -2.4565184222025874e-01
    1.6927269800051443e-02 -2.4565184222025874e-01
    1.9858156325469025e-02 -2.0584674239815451e-01
    1.9858156325469025e-02 -2.0584674239815451e-01
    1.9858156325469025e-02 -2.0584674239815451e-01
    2.2108610810680388e-02 -1.8333969940564224e-01</input_scale>
  <output_scale>
    1.0526315789473684e+00 0.</output_scale>
  <inv_output_scale>
    9.4999999999999996e-01 0.</inv_output_scale>
  <weights>
    <_>
      -1.1719048386403424e-03 -2.2903224389177911e-04
      -9.9637750405231888e-04 -5.5088375721748159e-04
      2.2039270841974236e-04 1.2144499427915077e-03
      9.9728247011042037e-04 2.0453599492093418e-04
      -7.2831549546728146e-04 -4.2920232853557353e-04
      -1.1054717958401724e-03 -1.2409612586460942e-04
      -2.1397120762249158e-05 -7.8018402384446585e-04
      6.7194088742161514e-04 -1.1208781013474275e-03
      1.1037170489498088e-03 1.0083693640301039e-03
      -2.5698247005999147e-04 -3.4383640164285737e-05
      3.0002183913935715e-04 -7.7645728251324352e-04
      -6.5397802009701264e-04 9.5527311481024093e-04
      -1.0954164450422850e-03 -3.1663012947851025e-04
      6.1523554708813478e-04 -6.3403300196013517e-04
      1.0630743572223426e-03 -2.4215284090006096e-04
      1.2150750992007805e-03 -3.7732545206526025e-04
      2.2581237915161135e-04 8.1166924113520002e-04
      1.1322676431532379e-03 5.1786688077618958e-04
      8.1904968067006900e-04 5.2277548999592920e-04
      1.2256443938238879e-03 -1.5902424652943092e-04
      8.8339063870950002e-02 4.0624117165070431e-02
      3.3486640088284059e-02 1.2755339728701470e-02
      -2.9914155852766272e-02 6.2711159956087012e-03
      -1.3598445884137996e-02 -2.5493002658815499e-02
      -2.6344754109445838e-03 5.1093834876819857e-02
      1.1045009455770933e-02 2.6439008064591478e-02
      1.2766370410434985e-02 -1.6898312272220706e-02
      -2.8230524640230257e-03 1.1233838686785326e-02
      -3.7165291677114117e-03 2.1699563082872714e-02
      -5.2891246283388781e-02 5.3314754983526606e-02
      -2.3318981940953550e-02 6.6261625583950616e-03
      3.5285682502101258e-03 3.4949767604130648e-02
      1.0770835155483710e-02 -5.9895657215946509e-03
      4.4811922411708234e-02 -4.7542028662834246e-02
      1.3286472794493243e-02 1.0475416270611698e-02
      -3.6716594893449091e-02 -4.2326783678682575e-02
      5.2845629120869361e-02 1.4169723261704063e-02
      1.8685522756310264e-02 5.4237621619872287e-03
      3.4521419483972540e-02 1.5120639764878903e-02
      -3.9219264948679930e-02 -3.1682890780627415e-02
      8.7386046509995777e-02 4.0731403383372222e-02
      3.3870799165066932e-02 1.2246403926138573e-02
      -2.9042792014980560e-02 7.8023668362449889e-03
      -1.2257204475094608e-02 -2.5955115659573428e-02
      -3.5446922495195716e-03 5.1327090978231432e-02
      1.0494065160281261e-02 2.4298237308822947e-02
      1.2438786269818090e-02 -1.7602669150611091e-02
      -1.2815436931695849e-03 9.2630522772887674e-03
      -2.5388025637153437e-03 2.1988602704797085e-02
      -5.2863431721551730e-02 5.3155884207977733e-02
      -2.2778166578143782e-02 6.0334778107326873e-03
      2.2871073398435964e-03 3.4745829594640093e-02
      9.7796160911184336e-03 -3.3503399982713366e-03
      4.4523558746638207e-02 -4.7639363868682914e-02
      1.3870731126151640e-02 1.0100535855734645e-02
      -3.5780948275090194e-02 -4.3328014432040360e-02
      5.3006869986409570e-02 1.2629939098840127e-02
      1.9189079229643666e-02 6.1209323031489972e-03
      3.2608730408929247e-02 1.5528655721524776e-02
      -3.9476131742767505e-02 -3.0672370194732224e-02
      -3.1306210768791816e-02 -1.2195138666304187e-03
      -7.0511439494576485e-04 -4.6135611862431280e-04
      2.2894546060432154e-03 -5.3876940369817496e-04
      1.0758035234354815e-03 8.7278524234553952e-04
      6.4975433175355453e-04 -1.8274721922665585e-03
      2.3883000611643279e-04 -1.0319771290170469e-03
      3.8209759001216849e-04 7.6247420184144207e-04
      -2.5331354420993885e-04 5.6226662672517085e-04
      1.0243595044530489e-03 -8.9000655183306355e-04
      4.1402824575863300e-04 -2.3417342523243496e-03
      2.2620253355429996e-03 -7.5496209428927428e-04
      6.9439066673560859e-04 -1.6067754874075058e-03
      1.2156085340382244e-03 3.6407397773409233e-04
      -1.9586540978797241e-03 6.9498392400795038e-04
      9.8399187794482993e-04 5.5403866251156912e-04
      2.0064424719699403e-03 3.1711069897894812e-03
      -2.1480225514596788e-04 -1.3435252529686522e-03
      -9.0352303501485792e-04 -1.0184495941927957e-04
      -2.6084545082472244e-04 -4.4293040462833780e-04
      2.6564660690726522e-03 8.5066677142718280e-04
      2.2340035560997640e-01 6.7555003436774425e-02
      7.5117155400783259e-02 2.9032374416108560e-02
      -6.2814634460992461e-02 1.8289489525744548e-02
      -2.8273107507845438e-02 -5.2479595920808080e-02
      -7.7276462974983891e-03 5.6232809339354914e-02
      2.7515480545839192e-02 5.1963097293137271e-02
      2.9298692313116773e-02 -3.6285306221249529e-02
      -5.2232530114556391e-03 2.4766247182119380e-02
      -6.9663808545294302e-03 4.5165072962438234e-02
      -5.5985051306464133e-02 5.6461775663824890e-02
      -5.0194067951185015e-02 1.2473170586146156e-02
      6.2118548390998679e-03 7.4616945460567241e-02
      2.6023507175471857e-02 -1.0192450124691513e-02
      5.5303258218928328e-02 -5.4418423223975457e-02
      2.8354000505048736e-02 2.5825479028295725e-02
      -8.0188865896469619e-02 -5.9666908596621389e-02
      5.6461714930837653e-02 3.0327324257764274e-02
      3.8684095175100026e-02 1.2984310580219293e-02
      7.4575514739313051e-02 3.4231259410992518e-02
      -7.7031764158606048e-02 -6.6451361303161927e-02
      2.2382611977594308e-01 6.6184010784321359e-02
      7.5967922470937532e-02 2.9662303069918721e-02
      -6.1670548242240456e-02 1.6940088502951953e-02
      -2.8783935571410586e-02 -5.2937106498934336e-02
      -7.5747811471761680e-03 5.6446983591346464e-02
      2.6274856215150345e-02 5.1554818309288784e-02
      2.9492567323978789e-02 -3.6691503620150681e-02
      -3.6236757398936223e-03 2.5224545402552173e-02
      -7.6661243416683220e-03 4.3767479080097878e-02
      -5.7908668821410623e-02 5.6309981575478979e-02
      -5.0184483672697108e-02 1.3863755073294206e-02
      7.6394260006623837e-03 7.4729789686644399e-02
      2.4033107561637651e-02 -1.0887764560593153e-02
      5.6904830748158747e-02 -5.5174812348282087e-02
      2.8847937202913652e-02 2.6100313942326467e-02
      -8.0835849543483634e-02 -5.9765575615236932e-02
      5.7938752303516888e-02 3.1226345017806727e-02
      3.9893836711051435e-02 1.2890484311285403e-02
      7.5354407672490839e-02 3.4218052682982961e-02
      -7.5976113602418072e-02 -6.7877013858145666e-02
      1.9777969620009422e-01 3.9073542407212690e-02
      5.5870640737306958e-02 2.9010501491535990e-02
      -4.5107476524429167e-02 1.6411617998599640e-02
      -2.8645726182315166e-02 -3.9780196327885327e-02
      -7.0205831727537527e-03 1.9997655905176739e-02
      2.6185141025557791e-02 3.8558408060875085e-02
      2.7331187714419680e-02 -3.0535517944387559e-02
      -4.8048312419349936e-03 2.5638695203913719e-02
      -9.6722700971028884e-03 3.3737748297654004e-02
      -1.9447101058150021e-02 2.0151946589423583e-02
      -3.6451873280647876e-02 1.4059730901888608e-02
      8.8612034194208694e-03 5.2945605617469478e-02
      2.3164430652856310e-02 -9.9578438321801088e-03
      2.4170913721397007e-02 -2.0757270977106022e-02
      2.7620188886083370e-02 2.5400565890917760e-02
      -5.8637036683604177e-02 -2.9839765518902849e-02
      1.9316641592559049e-02 2.8022782153658273e-02
      3.3966353129106459e-02 1.3466373389640688e-02
      5.4436180626647068e-02 3.0662731446641847e-02
      -5.3594913679189733e-02 -4.7987198140903735e-02
      1.9797325246113384e-01 3.9055999379452006e-02
      5.3642065205369481e-02 2.7719299678035176e-02
      -4.4988863764201796e-02 1.7972066909842033e-02
      -2.7056343504163242e-02 -3.8443761675550379e-02
      -6.6190568026435236e-03 1.9734702590413409e-02
      2.7676341264175185e-02 3.9314357438450867e-02
      2.6385069799348144e-02 -3.0007157665953039e-02
      -4.6191741545583767e-03 2.3875724777365420e-02
      -9.8984331345628625e-03 3.5112446569955290e-02
      -1.9732353587604272e-02 1.9789048392777633e-02
      -3.6013780013982852e-02 1.2423691197098227e-02
      8.5047001878017486e-03 5.4041979026636482e-02
      2.4265057560208789e-02 -1.2177871742467620e-02
      2.2938022772754797e-02 -2.2553156494787972e-02
      2.8922919631597613e-02 2.4959687656168964e-02
      -6.0373235259362376e-02 -3.0992076129970892e-02
      1.9607110100069387e-02 2.8394204263292807e-02
      3.3248194082256724e-02 1.3141062611753431e-02
      5.5729175566998378e-02 2.9438215225402863e-02
      -5.1655307715060453e-02 -4.7570641940760848e-02
      -8.8107166824279159e-03 2.7601431144749018e-02
      2.6613652029362375e-02 3.8425398351644709e-03
      -1.4884701157809431e-02 3.9031305149141642e-04
      -4.5025220632453587e-03 -9.1816949566154247e-03
      3.3417599286700060e-03 1.4033225146618322e-02
      2.2649528924512229e-03 8.5106586649194432e-03
      3.0454610103145588e-03 -4.8513298047038189e-03
      3.4837065278737109e-03 1.9797102442232909e-03
      3.1810269402029793e-03 5.7311359921838768e-03
      -1.4445926980049813e-02 1.3558211904896233e-02
      -6.3198516099520546e-03 -2.9709946826898983e-03
      -2.4956428583359546e-03 2.3400241281806650e-02
      2.1022823900421852e-03 2.1839801310904665e-03
      1.7374471898265798e-02 -1.5532470057533795e-02
      2.1565084208441812e-03 3.3759370839566765e-03
      -3.1928893046014359e-02 -2.1705199987729466e-02
      1.3266411807606281e-02 3.1635000585356057e-03
      4.8874268735675224e-03 -2.0109713923529711e-03
      2.8208683816641565e-02 2.7114484928338774e-03
      -3.0898471695242697e-02 -1.8898527284342683e-02
      1.9793904492629194e-01 3.8727265239651122e-02
      5.5274828199404706e-02 2.7615500115770613e-02
      -4.4268247771897008e-02 1.7196417517485189e-02
      -2.8108097170892542e-02 -3.9075932043486590e-02
      -8.9840472297159739e-03 2.0115173466616832e-02
      2.6676559896523341e-02 3.9095781664495857e-02
      2.6690714783484160e-02 -3.0213491991240852e-02
      -4.1512751786760491e-03 2.3859917568678123e-02
      -8.1553779618920783e-03 3.6074611778200011e-02
      -1.8942802624533923e-02 2.0064290710233072e-02
      -3.6376788693016457e-02 1.3312696913858724e-02
      6.6617155902557630e-03 5.3395926156331021e-02
      2.5360859585563778e-02 -1.0555664848448736e-02
      2.4026343147128995e-02 -2.1252824787657165e-02
      2.7666652220395875e-02 2.5233288947240213e-02
      -5.9332479991084625e-02 -3.1094136160584283e-02
      1.8843765229458978e-02 2.8920744661460492e-02
      3.3116345463137492e-02 1.1101941611636985e-02
      5.5569168169757377e-02 3.0547071755669130e-02
      -5.3747743581146597e-02 -4.8319431887268928e-02
      2.5453060629134695e-02 4.2338506380745766e-02
      3.9803933359823324e-02 5.5830549438944561e-03
      -2.5115979405573773e-02 1.1358474178078497e-03
      -6.7251562795233250e-03 -1.9967075728209736e-02
      4.2552699373200279e-03 3.6056521568336532e-02
      6.0461977383822587e-03 1.8198944758246439e-02
      6.1677249164683295e-03 -7.5514779678852771e-03
      3.9280821675643143e-03 3.5719673799052640e-03
      2.9062790276519201e-03 1.3007090917923150e-02
      -3.5605569741507574e-02 3.3952328821384194e-02
      -1.7451461524630157e-02 -7.1803933901718169e-04
      -2.5667556220799635e-03 3.8016735521693025e-02
      4.0564166814338097e-03 3.1058281109662103e-03
      3.4234646473710877e-02 -3.4898151242058049e-02
      5.3023232942839517e-03 4.3658893009473195e-03
      -4.5242820609320278e-02 -3.8634284893888433e-02
      3.4998502559423959e-02 5.5139864194725984e-03
      1.0373538236496463e-02 -2.5940886575144401e-03
      4.0519946942950101e-02 7.9073804807022509e-03
      -4.5137149212077315e-02 -3.1768705670158548e-02
      -9.6942669596763575e-03 2.7692826396862276e-02
      2.7513948687230817e-02 2.7605058154925722e-03
      -1.4989419772290584e-02 -8.7042025379081812e-04
      -4.0171056898833189e-03 -7.4455216425125138e-03
      3.6695256081052544e-03 1.3418157182563116e-02
      3.4377323375472616e-03 7.2366285463950674e-03
      4.2242295166352757e-03 -4.8214636225929648e-03
      3.2629657546794665e-03 3.6479874575940235e-03
      2.5814430594160980e-03 7.1202188227794099e-03
      -1.3177563670744753e-02 1.4975830646735626e-02
      -6.1364194745337315e-03 -1.9179390585435014e-03
      -4.7037947705512884e-03 2.5213633035410830e-02
      3.0807288931905346e-03 3.6059762868220200e-03
      1.6684336917406083e-02 -1.6231988919439413e-02
      3.7567325023505436e-03 1.5094119345806483e-03
      -3.0924104406799203e-02 -2.0983424702635332e-02
      1.4052508310813595e-02 2.4458831621458920e-03
      6.7307271394209571e-03 -2.3743119949699168e-03
      2.7931403084295835e-02 2.1983267845637456e-03
      -2.9233871807980136e-02 -1.9125438488195760e-02
      -4.0358840300372789e-02 1.4949580402623858e-02
      1.6969060216990534e-02 2.5127183786961419e-03
      -6.5996588874628051e-03 -1.3818658866456026e-03
      -1.8210381084816402e-03 -3.4651552808649382e-03
      4.0775716480586409e-03 7.4700906774746185e-03
      6.9240155253726609e-04 4.7605194340928116e-03
      1.0481227216996233e-03 -1.2055907442336871e-03
      3.5252752750192153e-03 2.2320596948921315e-03
      2.0646838933338343e-03 3.2373861485296010e-03
      -8.6797514590846864e-03 7.8225134711133945e-03
      -2.0790208900632713e-03 -2.9772589825856057e-03
      -2.6080376644588513e-03 1.6230111298756646e-02
      5.5847641450886899e-04 2.2971357236335564e-03
      9.3005234567669036e-03 -8.6430006517364908e-03
      1.2440694839665231e-03 9.4027465989540389e-04
      -2.1633279139791850e-02 -1.2440890107549686e-02
      8.7164136803792661e-03 1.4228886951837454e-03
      2.5858153149824429e-03 -2.4089932843998152e-03
      1.7156752323369859e-02 1.1301968307035643e-03
      -1.8090772162641183e-02 -1.2918102248184914e-02
      -7.7145420999424882e-02 1.3687772070233533e-02
      1.6323179427804067e-02 -1.3698845766680378e-03
      -6.7058923414629124e-03 -2.2764820506435603e-03
      4.6879163242346937e-04 -1.2743945800476044e-03
      3.6822729227003288e-03 1.1095393350851607e-02
      -1.1816943514488482e-03 1.6806194690542038e-03
      1.1438164145193473e-04 -1.1128372189802844e-03
      4.9122999755024360e-03 -1.6052388136689199e-03
      2.8349486939997421e-03 1.8209105474895662e-04
      -1.2345569275199343e-02 1.2708102704483401e-02
      -1.8688028934308288e-03 -2.1560387627750101e-03
      -4.3095816519761795e-03 1.4680950562615560e-02
      -8.1964177639733138e-04 3.2372142403154199e-03
      1.1353465077559004e-02 -1.0682263404520035e-02
      -1.1229535254841752e-03 -1.3288588291869511e-03
      -1.9329055241636459e-02 -1.2172461570344430e-02
      1.1020475769293690e-02 -3.0988100566970735e-04
      8.6560870892641380e-04 -3.2861913422469230e-03
      1.5485357930250906e-02 -8.7711817547820204e-04
      -1.7634224282506907e-02 -1.0115922397303478e-02
      8.4403267339000325e-04 1.4144743182451285e-02
      2.2563282326029555e-02 1.0176643000556438e-02
      -1.6262791876503185e-02 6.6397529781969007e-03
      -1.0348350852696113e-02 -1.2598990431546967e-02
      -2.0291175056459231e-03 9.3065376749708727e-03
      1.0847500163383157e-02 1.3523292660186694e-02
      1.1551620823420020e-02 -7.8167502161902800e-03
      -2.2926299482323590e-03 8.8161783052431043e-03
      -3.1757776072224336e-03 1.0415492744575972e-02
      -7.7211579428406703e-03 8.7572355496801507e-03
      -1.0830937699020259e-02 4.2548788079977166e-03
      3.0909399703000612e-03 2.3215068404684864e-02
      8.7473618081767516e-03 -3.1061172585107057e-03
      8.6220980939541326e-03 -8.4257929730346542e-03
      9.3393975577233061e-03 9.4495416488318031e-03
      -2.6020241620880079e-02 -9.5426954692469160e-03
      8.4775645407642857e-03 9.7504512410017813e-03
      1.0372625058266575e-02 3.0826588112387401e-03
      2.3485114643779337e-02 9.7541466508247882e-03
      -2.1610557849943358e-02 -1.9663533642370046e-02
      -9.6293870270638585e-02 2.9828390254318573e-02
      2.7503966835054156e-02 6.0300342205742881e-03
      -2.0028084820571650e-02 2.1736265195895139e-03
      -6.0406949345559839e-03 -1.6318796495275203e-02
      3.0166455670803323e-04 4.4771365491634935e-02
      5.2594764967369570e-03 1.4740244931287168e-02
      6.3522845586464049e-03 -1.0347665397106165e-02
      2.5166676061782705e-03 3.2119226196955825e-03
      1.0598316337525737e-03 1.1233256947259183e-02
      -4.4720135757285048e-02 4.4309200230154423e-02
      -1.3451814136455966e-02 1.1839783459818784e-03
      -2.0948558910232219e-03 2.8158105797949778e-02
      3.2610955028222160e-03 -1.3026931166924114e-05
      3.9575519881149240e-02 -4.0913264633380179e-02
      7.3614027751163474e-03 3.4208288860423713e-03
      -3.1030383013383088e-02 -3.7928001527202479e-02
      4.6141703945934726e-02 8.1713892414856937e-03
      1.0921819465476613e-02 -5.0039673370799948e-04
      2.8044393320808360e-02 9.4344437694931574e-03
      -3.1524057998993188e-02 -2.2855218289848107e-02
      -9.7072398739493734e-02 3.0124533959141896e-02
      2.8654881738220672e-02 7.7614756384562934e-03
      -1.9630917349623859e-02 3.1085968312607115e-04
      -6.1512775073167061e-03 -1.7063022202110995e-02
      9.8212933025652958e-04 4.4180874404262813e-02
      3.8851416936637488e-03 1.6886488191146562e-02
      5.9848633149999046e-03 -8.8678371490302343e-03
      1.0022683198067169e-03 4.5052872785042589e-03
      1.5183160902103063e-03 1.3155896150429216e-02
      -4.2975184627884022e-02 4.5833443940181066e-02
      -1.3395741930783330e-02 -8.0903760917665018e-04
      -2.0232554416382180e-03 2.7994174355534918e-02
      3.8872324200380040e-03 -3.9820214931710047e-04
