<?xml version="1.0"?>
<opencv_storage>
<shapeML type_id="opencv-ml-ann-mlp">
  <layer_sizes type_id="opencv-matrix">
    <rows>1</rows>
    <cols>3</cols>
    <dt>i</dt>
    <data>
      1600 40 1</data></layer_sizes>
  <activation_function>SIGMOID_SYM</activation_function>
  <f_param1>5.9999999999999998e-01</f_param1>
  <f_param2>1.</f_param2>
  <min_val>-9.4999999999999996e-01</min_val>
  <max_val>9.4999999999999996e-01</max_val>
  <min_val1>-9.7999999999999998e-01</min_val1>
  <max_val1>9.7999999999999998e-01</max_val1>
  <training_params>
    <train_method>BACKPROP</train_method>
    <dw_scale>1.0000000000000001e-01</dw_scale>
    <moment_scale>1.0000000000000001e-01</moment_scale>
    <term_criteria><epsilon>9.9999999747524271e-07</epsilon>
      <iterations>4000</iterations></term_criteria></training_params>
  <input_scale>
    1. 0. 3.2103107776030426e-02 -1.2403473458920847e-01
    3.2103107776030426e-02 -1.2403473458920847e-01
    3.2103107776030426e-02 -1.2403473458920847e-01
    1.8826641510556207e-02 -2.1821789023599242e-01
    1.8826641510556207e-02 -2.1821789023599242e-01
    3.2103107776030426e-02 -1.2403473458920847e-01
    3.2103107776030426e-02 -1.2403473458920847e-01
    2.2876984097211832e-02 -1.7677669529663689e-01
    3.2103107776030426e-02 -1.2403473458920847e-01
    2.2876984097211832e-02 -1.7677669529663689e-01
    2.2876984097211832e-02 -1.7677669529663689e-01
    2.2876984097211832e-02 -1.7677669529663689e-01
    1.8826641510556207e-02 -2.1821789023599242e-01
    1.8826641510556207e-02 -2.1821789023599242e-01
    1.2735873280838474e-02 -3.4444748191358604e-01
    1.2735873280838474e-02 -3.4444748191358604e-01 1. 0.
    2.2876984097211832e-02 -1.7677669529663689e-01
    9.5926382156142510e-03 -5.1887452166277093e-01
    8.5331590674748905e-03 -6.5938047339578698e-01
    9.8603911710047672e-03 -4.9526055654364853e-01
    1.2015580705573944e-02 -3.7139067635410372e-01
    1.2735873280838474e-02 -3.4444748191358604e-01 1. 0.
    3.2103107776030426e-02 -1.2403473458920847e-01
    2.2876984097211832e-02 -1.7677669529663689e-01
    1.6435310552965831e-02 -2.5400025400038101e-01
    1.8826641510556207e-02 -2.1821789023599242e-01
    2.2876984097211832e-02 -1.7677669529663689e-01
    1.8826641510556207e-02 -2.1821789023599242e-01
    3.2103107776030426e-02 -1.2403473458920847e-01
    2.2876984097211832e-02 -1.7677669529663689e-01
    3.2103107776030426e-02 -1.2403473458920847e-01
    1.8826641510556207e-02 -2.1821789023599242e-01
    1.8826641510556207e-02 -2.1821789023599242e-01
    3.2103107776030426e-02 -1.2403473458920847e-01
    3.2103107776030426e-02 -1.2403473458920847e-01 1. 0.
    3.2103107776030426e-02 -1.2403473458920847e-01
    3.2103107776030426e-02 -1.2403473458920847e-01
    2.2876984097211832e-02 -1.7677669529663689e-01
    3.2103107776030426e-02 -1.2403473458920847e-01
    2.2876984097211832e-02 -1.7677669529663689e-01
    1.6435310552965831e-02 -2.5400025400038101e-01
    1.6435310552965831e-02 -2.5400025400038101e-01
    1.6435310552965831e-02 -2.5400025400038101e-01
    1.6435310552965831e-02 -2.5400025400038101e-01
    1.6435310552965831e-02 -2.5400025400038101e-01
    1.6435310552965831e-02 -2.5400025400038101e-01
    1.0937290355310212e-02 -4.2257712736425818e-01
    1.1427337982521947e-02 -3.9735970711951313e-01
    1.1427337982521947e-02 -3.9735970711951313e-01
    9.5926382156142510e-03 -5.1887452166277093e-01
    8.9677037828560097e-03 -5.8901508937395164e-01
    8.5331590674748905e-03 -6.5938047339578698e-01
    8.5331590674748905e-03 -6.5938047339578698e-01
    8.0257769440076066e-03 -8.0622577482985502e-01
    8.0257769440076066e-03 -8.0622577482985502e-01
    8.3189033080770299e-03 -7.0710678118654757e-01
    7.9013971995285873e-03 -8.8531564076536218e-01
    8.3189033080770299e-03 -7.0710678118654757e-01
    8.3189033080770299e-03 -7.0710678118654757e-01
    8.6611991711915311e-03 -6.3581075733974191e-01
    9.1507936388847324e-03 -5.6568542494923801e-01
    9.8603911710047672e-03 -4.9526055654364853e-01
    1.2735873280838474e-02 -3.4444748191358604e-01
    1.2735873280838474e-02 -3.4444748191358604e-01
    1.2015580705573944e-02 -3.7139067635410372e-01
    1.2735873280838474e-02 -3.4444748191358604e-01
    1.4820192182241294e-02 -2.8629916715693410e-01
    1.3641197749745950e-02 -3.1622776601683794e-01
    1.3641197749745950e-02 -3.1622776601683794e-01
    1.4820192182241294e-02 -2.8629916715693410e-01
    1.4820192182241294e-02 -2.8629916715693410e-01
    1.6435310552965831e-02 -2.5400025400038101e-01
    2.2876984097211832e-02 -1.7677669529663689e-01
    2.2876984097211832e-02 -1.7677669529663689e-01
    2.2876984097211832e-02 -1.7677669529663689e-01
    2.2876984097211832e-02 -1.7677669529663689e-01 1. 0.
    2.2876984097211832e-02 -1.7677669529663689e-01
    2.2876984097211832e-02 -1.7677669529663689e-01
    2.2876984097211832e-02 -1.7677669529663689e-01
    1.6435310552965831e-02 -2.5400025400038101e-01
    1.3641197749745950e-02 -3.1622776601683794e-01
    1.2735873280838474e-02 -3.4444748191358604e-01
    1.3641197749745950e-02 -3.1622776601683794e-01
    1.0167548487649704e-02 -4.7140452079103173e-01
    1.0522672835293128e-02 -4.4721359549995793e-01
    9.1507936388847324e-03 -5.6568542494923801e-01
    9.1507936388847324e-03 -5.6568542494923801e-01
    8.4195300411246000e-03 -6.8313005106397329e-01
    8.0257769440076066e-03 -8.0622577482985502e-01
    8.0842888507043145e-03 -7.8086880944303039e-01
    7.8575813504800918e-03 -9.4112394811431999e-01
    7.8575813504800918e-03 -9.4112394811431999e-01
    7.8575813504800918e-03 -9.4112394811431999e-01
    7.8467408099990085e-03 -1.0307764064044154e+00
    8.0257769440076066e-03 -8.0622577482985502e-01
    7.8575813504800918e-03 -9.4112394811431999e-01
    7.9347443933348513e-03 -8.5839507527895209e-01
    8.2301094214562668e-03 -7.3135745086122728e-01
    8.2301094214562668e-03 -7.3135745086122728e-01
    7.9013971995285873e-03 -8.8531564076536218e-01
    7.9013971995285873e-03 -8.8531564076536218e-01
    8.6611991711915311e-03 -6.3581075733974191e-01
    9.5926382156142510e-03 -5.1887452166277093e-01
    9.5926382156142510e-03 -5.1887452166277093e-01
    1.1427337982521947e-02 -3.9735970711951313e-01
    1.2015580705573944e-02 -3.7139067635410372e-01
    1.2735873280838474e-02 -3.4444748191358604e-01
    1.1427337982521947e-02 -3.9735970711951313e-01
    1.2015580705573944e-02 -3.7139067635410372e-01
    1.2735873280838474e-02 -3.4444748191358604e-01
    1.2735873280838474e-02 -3.4444748191358604e-01
    2.2876984097211832e-02 -1.7677669529663689e-01
    1.8826641510556207e-02 -2.1821789023599242e-01
    2.2876984097211832e-02 -1.7677669529663689e-01
    3.2103107776030426e-02 -1.2403473458920847e-01 1. 0.
    3.2103107776030426e-02 -1.2403473458920847e-01
    2.2876984097211832e-02 -1.7677669529663689e-01
    1.8826641510556207e-02 -2.1821789023599242e-01
    1.3641197749745950e-02 -3.1622776601683794e-01
    1.3641197749745950e-02 -3.1622776601683794e-01
    1.2735873280838474e-02 -3.4444748191358604e-01
    9.5926382156142510e-03 -5.1887452166277093e-01
    9.5926382156142510e-03 -5.1887452166277093e-01
    8.8053552845146921e-03 -6.1237243569579447e-01
    8.8053552845146921e-03 -6.1237243569579447e-01
    7.9013971995285873e-03 -8.8531564076536218e-01
    7.9760812529117899e-03 -8.3205029433784350e-01
    7.8575813504800918e-03 -9.4112394811431999e-01
    7.8467408099990085e-03 -9.7014250014533199e-01
    7.8575813504800935e-03 -1.0625592962581034e+00
    8.1521749080421570e-03 -1.3228756555322956e+00
    8.1521749080421570e-03 -1.3228756555322956e+00
    7.8757491928847425e-03 -1.0954451150103324e+00
    7.8467408099990085e-03 -9.7014250014533199e-01
    7.9760812529117899e-03 -1.2018504251546629e+00
    7.9347443933348513e-03 -1.1649647450214349e+00
    7.9013971995285891e-03 -1.1295406451144279e+00
    7.8467408099990085e-03 -1.0307764064044154e+00
    7.8467408099990085e-03 -9.7014250014533199e-01
    7.8757491928847425e-03 -9.1287092917527690e-01
    8.0257769440076066e-03 -8.0622577482985502e-01
    7.8575813504800918e-03 -9.4112394811431999e-01
    9.5926382156142510e-03 -5.1887452166277093e-01
    9.8603911710047672e-03 -4.9526055654364853e-01
    9.3577844549224236e-03 -5.4232614454664041e-01
    9.3577844549224236e-03 -5.4232614454664041e-01
    1.1427337982521947e-02 -3.9735970711951313e-01
    1.2015580705573944e-02 -3.7139067635410372e-01
    1.1427337982521947e-02 -3.9735970711951313e-01
    1.2015580705573944e-02 -3.7139067635410372e-01
    1.4820192182241294e-02 -2.8629916715693410e-01
    1.8826641510556207e-02 -2.1821789023599242e-01
    3.2103107776030426e-02 -1.2403473458920847e-01
    3.2103107776030426e-02 -1.2403473458920847e-01 1. 0.
    3.2103107776030426e-02 -1.2403473458920847e-01
    3.2103107776030426e-02 -1.2403473458920847e-01
    1.3641197749745950e-02 -3.1622776601683794e-01
    1.2015580705573944e-02 -3.7139067635410372e-01
    1.2735873280838474e-02 -3.4444748191358604e-01
    9.8603911710047672e-03 -4.9526055654364853e-01
    9.5926382156142510e-03 -5.1887452166277093e-01
    9.1507936388847324e-03 -5.6568542494923801e-01
    8.6611991711915311e-03 -6.3581075733974191e-01
    7.9013971995285873e-03 -8.8531564076536218e-01
    7.8467408099990085e-03 -9.7014250014533199e-01
    7.8575813504800918e-03 -9.4112394811431999e-01
    7.8467408099990085e-03 -1.0307764064044154e+00
    7.8467408099990085e-03 -1.0307764064044154e+00
    7.8575813504800918e-03 -9.4112394811431999e-01
    8.2301094214562651e-03 -1.3673204516101203e+00
    7.9347443933348513e-03 -1.1649647450214349e+00
    7.8467408099990085e-03 -1.0307764064044154e+00
    7.8467408099990085e-03 -1.0307764064044154e+00
    7.9760812529117899e-03 -1.2018504251546629e+00
    7.8575813504800935e-03 -1.0625592962581034e+00
    7.8575813504800935e-03 -1.0625592962581034e+00
    7.8431372549019607e-03 -1. 7.9347443933348513e-03
    -8.5839507527895209e-01 7.8431372549019607e-03 -1.
    7.8467408099990085e-03 -1.0307764064044154e+00
    7.8431372549019607e-03 -1. 7.9347443933348513e-03
    -8.5839507527895209e-01 8.2301094214562668e-03
    -7.3135745086122728e-01 8.5331590674748905e-03
    -6.5938047339578698e-01 9.3577844549224236e-03
    -5.4232614454664041e-01 9.5926382156142510e-03
    -5.1887452166277093e-01 1.1427337982521947e-02
    -3.9735970711951313e-01 1.1427337982521947e-02
    -3.9735970711951313e-01 1.0937290355310212e-02
    -4.2257712736425818e-01 1.4820192182241294e-02
    -2.8629916715693410e-01 1.6435310552965831e-02
    -2.5400025400038101e-01 3.2103107776030426e-02
    -1.2403473458920847e-01 3.2103107776030426e-02
    -1.2403473458920847e-01 1. 0. 3.2103107776030426e-02
    -1.2403473458920847e-01 1.6435310552965831e-02
    -2.5400025400038101e-01 1.4820192182241294e-02
    -2.8629916715693410e-01 1.2735873280838474e-02
    -3.4444748191358604e-01 9.5926382156142510e-03
    -5.1887452166277093e-01 9.1507936388847324e-03
    -5.6568542494923801e-01 9.1507936388847324e-03
    -5.6568542494923801e-01 8.1521749080421570e-03
    -7.5592894601845462e-01 7.8757491928847425e-03
    -9.1287092917527690e-01 7.9013971995285873e-03
    -8.8531564076536218e-01 7.8575813504800918e-03
    -9.4112394811431999e-01 7.8575813504800935e-03
    -1.0625592962581034e+00 8.0842888507043145e-03
    -7.8086880944303039e-01 7.8757491928847425e-03
    -9.1287092917527690e-01 7.9013971995285891e-03
    -1.1295406451144279e+00 8.8053552845146939e-03
    -1.6329931618554525e+00 8.0842888507043145e-03
    -1.2806248474865698e+00 8.4195300411246017e-03
    -1.4638501094228002e+00 7.8757491928847425e-03
    -1.0954451150103324e+00 7.8757491928847425e-03
    -1.0954451150103324e+00 8.3189033080770299e-03
    -1.4142135623730951e+00 7.8467408099990085e-03
    -9.7014250014533199e-01 7.8431372549019607e-03 -1.
    7.9760812529117899e-03 -1.2018504251546629e+00
    8.0257769440076048e-03 -1.2403473458920842e+00
    8.0257769440076048e-03 -1.2403473458920842e+00
    7.9013971995285891e-03 -1.1295406451144279e+00
    7.9347443933348513e-03 -8.5839507527895209e-01
    8.0257769440076066e-03 -8.0622577482985502e-01
    8.3189033080770299e-03 -7.0710678118654757e-01
    8.3189033080770299e-03 -7.0710678118654757e-01
    9.3577844549224236e-03 -5.4232614454664041e-01
    9.3577844549224236e-03 -5.4232614454664041e-01
    1.0522672835293128e-02 -4.4721359549995793e-01
    1.1427337982521947e-02 -3.9735970711951313e-01
    1.3641197749745950e-02 -3.1622776601683794e-01
    1.4820192182241294e-02 -2.8629916715693410e-01
    1.8826641510556207e-02 -2.1821789023599242e-01
    3.2103107776030426e-02 -1.2403473458920847e-01 1. 0.
    2.2876984097211832e-02 -1.7677669529663689e-01
    1.6435310552965831e-02 -2.5400025400038101e-01
    9.8603911710047672e-03 -4.9526055654364853e-01
    9.8603911710047672e-03 -4.9526055654364853e-01
    9.3577844549224236e-03 -5.4232614454664041e-01
    8.9677037828560097e-03 -5.8901508937395164e-01
    8.8053552845146921e-03 -6.1237243569579447e-01
    7.9347443933348513e-03 -8.5839507527895209e-01
    7.9013971995285873e-03 -8.8531564076536218e-01
    7.9760812529117899e-03 -8.3205029433784350e-01
    7.8575813504800935e-03 -1.0625592962581034e+00
    7.9347443933348513e-03 -1.1649647450214349e+00
    7.8757491928847425e-03 -1.0954451150103324e+00
    8.6611991711915311e-03 -1.5727950313140986e+00
    8.3189033080770299e-03 -1.4142135623730951e+00
    8.3189033080770299e-03 -1.4142135623730951e+00
    8.6611991711915311e-03 -1.5727950313140986e+00
    8.9677037828560114e-03 -1.6977493752543311e+00
    8.3189033080770299e-03 -1.4142135623730951e+00
    8.2301094214562651e-03 -1.3673204516101203e+00
    7.9760812529117899e-03 -1.2018504251546629e+00
    7.9013971995285891e-03 -1.1295406451144279e+00
    7.9347443933348513e-03 -1.1649647450214349e+00
    7.8467408099990085e-03 -1.0307764064044154e+00
    8.0842888507043145e-03 -1.2806248474865698e+00
    8.1521749080421570e-03 -1.3228756555322956e+00
    7.9013971995285891e-03 -1.1295406451144279e+00
    7.8757491928847425e-03 -1.0954451150103324e+00
    8.0257769440076048e-03 -1.2403473458920842e+00
    7.9760812529117899e-03 -8.3205029433784350e-01
    8.1521749080421570e-03 -7.5592894601845462e-01
    8.4195300411246000e-03 -6.8313005106397329e-01
    9.1507936388847324e-03 -5.6568542494923801e-01
    9.1507936388847324e-03 -5.6568542494923801e-01
    1.2015580705573944e-02 -3.7139067635410372e-01
    1.3641197749745950e-02 -3.1622776601683794e-01
    1.3641197749745950e-02 -3.1622776601683794e-01
    1.8826641510556207e-02 -2.1821789023599242e-01
    2.2876984097211832e-02 -1.7677669529663689e-01 1. 0.
    1.8826641510556207e-02 -2.1821789023599242e-01
    1.6435310552965831e-02 -2.5400025400038101e-01
    9.5926382156142510e-03 -5.1887452166277093e-01
    9.3577844549224236e-03 -5.4232614454664041e-01
    1.1427337982521947e-02 -3.9735970711951313e-01
    8.3189033080770299e-03 -7.0710678118654757e-01
    7.8757491928847425e-03 -9.1287092917527690e-01
    7.8575813504800918e-03 -9.4112394811431999e-01
    7.9347443933348513e-03 -8.5839507527895209e-01
    7.8431372549019607e-03 -1. 8.3189033080770299e-03
    -1.4142135623730951e+00 8.4195300411246017e-03
    -1.4638501094228002e+00 8.9677037828560114e-03
    -1.6977493752543311e+00 8.8053552845146939e-03
    -1.6329931618554525e+00 8.2301094214562651e-03
    -1.3673204516101203e+00 8.0257769440076048e-03
    -1.2403473458920842e+00 8.3189033080770299e-03
    -1.4142135623730951e+00 8.3189033080770299e-03
    -1.4142135623730951e+00 8.4195300411246017e-03
    -1.4638501094228002e+00 8.2301094214562651e-03
    -1.3673204516101203e+00 7.9760812529117899e-03
    -1.2018504251546629e+00 8.9677037828560114e-03
    -1.6977493752543311e+00 8.9677037828560114e-03
    -1.6977493752543311e+00 8.4195300411246017e-03
    -1.4638501094228002e+00 7.9760812529117899e-03
    -1.2018504251546629e+00 8.1521749080421570e-03
    -1.3228756555322956e+00 8.1521749080421570e-03
    -1.3228756555322956e+00 7.8431372549019607e-03 -1.
    7.8467408099990085e-03 -1.0307764064044154e+00
    7.8757491928847425e-03 -1.0954451150103324e+00
    7.9013971995285873e-03 -8.8531564076536218e-01
    8.1521749080421570e-03 -7.5592894601845462e-01
    8.2301094214562668e-03 -7.3135745086122728e-01
    9.3577844549224236e-03 -5.4232614454664041e-01
    1.0167548487649704e-02 -4.7140452079103173e-01
    1.3641197749745950e-02 -3.1622776601683794e-01
    1.3641197749745950e-02 -3.1622776601683794e-01
    1.6435310552965831e-02 -2.5400025400038101e-01
    1.8826641510556207e-02 -2.1821789023599242e-01
    3.2103107776030426e-02 -1.2403473458920847e-01
    1.8826641510556207e-02 -2.1821789023599242e-01
    1.4820192182241294e-02 -2.8629916715693410e-01
    1.1427337982521947e-02 -3.9735970711951313e-01
    1.0937290355310212e-02 -4.2257712736425818e-01
    9.3577844549224236e-03 -5.4232614454664041e-01
    8.0257769440076066e-03 -8.0622577482985502e-01
    7.8467408099990085e-03 -9.7014250014533199e-01
    7.8467408099990085e-03 -9.7014250014533199e-01
    7.8431372549019607e-03 -1. 7.8575813504800935e-03
    -1.0625592962581034e+00 8.3189033080770299e-03
    -1.4142135623730951e+00 8.1521749080421570e-03
    -1.3228756555322956e+00 8.2301094214562651e-03
    -1.3673204516101203e+00 7.9760812529117899e-03
    -1.2018504251546629e+00 7.9347443933348513e-03
    -1.1649647450214349e+00 8.0257769440076048e-03
    -1.2403473458920842e+00 8.3189033080770299e-03
    -1.4142135623730951e+00 8.1521749080421570e-03
    -1.3228756555322956e+00 8.2301094214562651e-03
    -1.3673204516101203e+00 7.8431372549019607e-03 -1.
    8.6611991711915311e-03 -1.5727950313140986e+00
    8.4195300411246017e-03 -1.4638501094228002e+00
    8.6611991711915311e-03 -1.5727950313140986e+00
    8.4195300411246017e-03 -1.4638501094228002e+00
    8.9677037828560114e-03 -1.6977493752543311e+00
    8.8053552845146939e-03 -1.6329931618554525e+00
    7.9013971995285891e-03 -1.1295406451144279e+00
    7.9013971995285891e-03 -1.1295406451144279e+00
    7.9347443933348513e-03 -1.1649647450214349e+00
    7.9013971995285891e-03 -1.1295406451144279e+00
    7.9013971995285891e-03 -1.1295406451144279e+00
    7.8467408099990085e-03 -1.0307764064044154e+00
    7.9347443933348513e-03 -8.5839507527895209e-01
    8.3189033080770299e-03 -7.0710678118654757e-01
    1.0167548487649704e-02 -4.7140452079103173e-01
    1.0167548487649704e-02 -4.7140452079103173e-01
    1.3641197749745950e-02 -3.1622776601683794e-01
    1.4820192182241294e-02 -2.8629916715693410e-01
    1.6435310552965831e-02 -2.5400025400038101e-01 1. 0.
    1.6435310552965831e-02 -2.5400025400038101e-01
    1.4820192182241294e-02 -2.8629916715693410e-01
    1.2015580705573944e-02 -3.7139067635410372e-01
    9.1507936388847324e-03 -5.6568542494923801e-01
    7.9347443933348513e-03 -8.5839507527895209e-01
    8.0257769440076066e-03 -8.0622577482985502e-01
    7.9013971995285873e-03 -8.8531564076536218e-01
    7.8431372549019607e-03 -1. 7.8757491928847425e-03
    -9.1287092917527690e-01 7.9347443933348513e-03
    -1.1649647450214349e+00 7.8575813504800935e-03
    -1.0625592962581034e+00 8.0257769440076048e-03
    -1.2403473458920842e+00 8.0842888507043145e-03
    -1.2806248474865698e+00 8.0257769440076048e-03
    -1.2403473458920842e+00 8.3189033080770299e-03
    -1.4142135623730951e+00 8.0842888507043145e-03
    -1.2806248474865698e+00 8.2301094214562651e-03
    -1.3673204516101203e+00 7.8575813504800935e-03
    -1.0625592962581034e+00 7.9347443933348513e-03
    -1.1649647450214349e+00 8.3189033080770299e-03
    -1.4142135623730951e+00 8.1521749080421570e-03
    -1.3228756555322956e+00 8.6611991711915311e-03
    -1.5727950313140986e+00 8.2301094214562651e-03
    -1.3673204516101203e+00 8.4195300411246017e-03
    -1.4638501094228002e+00 9.3577844549224201e-03
    -1.8439088914585768e+00 8.4195300411246017e-03
    -1.4638501094228002e+00 8.9677037828560114e-03
    -1.6977493752543311e+00 7.9760812529117899e-03
    -1.2018504251546629e+00 8.0842888507043145e-03
    -1.2806248474865698e+00 7.9760812529117899e-03
    -1.2018504251546629e+00 7.9013971995285891e-03
    -1.1295406451144279e+00 7.8757491928847425e-03
    -1.0954451150103324e+00 7.8467408099990085e-03
    -1.0307764064044154e+00 7.9347443933348513e-03
    -8.5839507527895209e-01 8.6611991711915311e-03
    -6.3581075733974191e-01 1.0167548487649704e-02
    -4.7140452079103173e-01 1.3641197749745950e-02
    -3.1622776601683794e-01 1.4820192182241294e-02
    -2.8629916715693410e-01 1.4820192182241294e-02
    -2.8629916715693410e-01 2.2876984097211832e-02
    -1.7677669529663689e-01 1.4820192182241294e-02
    -2.8629916715693410e-01 1.4820192182241294e-02
    -2.8629916715693410e-01 9.1507936388847324e-03
    -5.6568542494923801e-01 8.1521749080421570e-03
    -7.5592894601845462e-01 8.0842888507043145e-03
    -7.8086880944303039e-01 8.5331590674748905e-03
    -6.5938047339578698e-01 7.9347443933348513e-03
    -8.5839507527895209e-01 7.9760812529117899e-03
    -8.3205029433784350e-01 7.8575813504800935e-03
    -1.0625592962581034e+00 8.1521749080421570e-03
    -1.3228756555322956e+00 7.9013971995285891e-03
    -1.1295406451144279e+00 7.8757491928847425e-03
    -1.0954451150103324e+00 7.9760812529117899e-03
    -1.2018504251546629e+00 8.2301094214562651e-03
    -1.3673204516101203e+00 8.0842888507043145e-03
    -1.2806248474865698e+00 8.4195300411246017e-03
    -1.4638501094228002e+00 7.9347443933348513e-03
    -1.1649647450214349e+00 7.8467408099990085e-03
    -1.0307764064044154e+00 7.9760812529117899e-03
    -1.2018504251546629e+00 8.0257769440076048e-03
    -1.2403473458920842e+00 7.9013971995285891e-03
    -1.1295406451144279e+00 8.3189033080770299e-03
    -1.4142135623730951e+00 8.3189033080770299e-03
    -1.4142135623730951e+00 8.2301094214562651e-03
    -1.3673204516101203e+00 8.4195300411246017e-03
    -1.4638501094228002e+00 8.5331590674748905e-03
    -1.5165750888103100e+00 8.8053552845146939e-03
    -1.6329931618554525e+00 8.4195300411246017e-03
    -1.4638501094228002e+00 8.9677037828560114e-03
    -1.6977493752543311e+00 8.3189033080770299e-03
    -1.4142135623730951e+00 7.9347443933348513e-03
    -1.1649647450214349e+00 7.8757491928847425e-03
    -1.0954451150103324e+00 7.8757491928847425e-03
    -1.0954451150103324e+00 7.8575813504800918e-03
    -9.4112394811431999e-01 8.4195300411246000e-03
    -6.8313005106397329e-01 9.5926382156142510e-03
    -5.1887452166277093e-01 1.2735873280838474e-02
    -3.4444748191358604e-01 1.3641197749745950e-02
    -3.1622776601683794e-01 1.6435310552965831e-02
    -2.5400025400038101e-01 2.2876984097211832e-02
    -1.7677669529663689e-01 1.3641197749745950e-02
    -3.1622776601683794e-01 1.2735873280838474e-02
    -3.4444748191358604e-01 8.3189033080770299e-03
    -7.0710678118654757e-01 8.0842888507043145e-03
    -7.8086880944303039e-01 8.5331590674748905e-03
    -6.5938047339578698e-01 8.5331590674748905e-03
    -6.5938047339578698e-01 7.9013971995285873e-03
    -8.8531564076536218e-01 7.8467408099990085e-03
    -9.7014250014533199e-01 7.9013971995285891e-03
    -1.1295406451144279e+00 8.0842888507043145e-03
    -1.2806248474865698e+00 8.0257769440076048e-03
    -1.2403473458920842e+00 7.8467408099990085e-03
    -1.0307764064044154e+00 7.9347443933348513e-03
    -8.5839507527895209e-01 7.8467408099990085e-03
    -1.0307764064044154e+00 8.3189033080770299e-03
    -1.4142135623730951e+00 7.9760812529117899e-03
    -1.2018504251546629e+00 7.8467408099990085e-03
    -1.0307764064044154e+00 7.9760812529117899e-03
    -1.2018504251546629e+00 7.9760812529117899e-03
    -1.2018504251546629e+00 7.9013971995285891e-03
    -1.1295406451144279e+00 7.8467408099990085e-03
    -1.0307764064044154e+00 7.8575813504800935e-03
    -1.0625592962581034e+00 8.1521749080421570e-03
    -1.3228756555322956e+00 8.0257769440076048e-03
    -1.2403473458920842e+00 8.0842888507043145e-03
    -1.2806248474865698e+00 8.1521749080421570e-03
    -1.3228756555322956e+00 8.8053552845146939e-03
    -1.6329931618554525e+00 9.5926382156142510e-03
    -1.9272482233188630e+00 9.5926382156142510e-03
    -1.9272482233188630e+00 8.8053552845146939e-03
    -1.6329931618554525e+00 8.0257769440076048e-03
    -1.2403473458920842e+00 7.9347443933348513e-03
    -1.1649647450214349e+00 7.8757491928847425e-03
    -1.0954451150103324e+00 7.8575813504800935e-03
    -1.0625592962581034e+00 8.0257769440076066e-03
    -8.0622577482985502e-01 9.3577844549224236e-03
    -5.4232614454664041e-01 9.5926382156142510e-03
    -5.1887452166277093e-01 1.3641197749745950e-02
    -3.1622776601683794e-01 1.4820192182241294e-02
    -2.8629916715693410e-01 2.2876984097211832e-02
    -1.7677669529663689e-01 1.3641197749745950e-02
    -3.1622776601683794e-01 9.8603911710047672e-03
    -4.9526055654364853e-01 8.2301094214562668e-03
    -7.3135745086122728e-01 8.0842888507043145e-03
    -7.8086880944303039e-01 7.9347443933348513e-03
    -8.5839507527895209e-01 7.8757491928847425e-03
    -9.1287092917527690e-01 7.9760812529117899e-03
    -8.3205029433784350e-01 7.8757491928847425e-03
    -1.0954451150103324e+00 8.0842888507043145e-03
    -1.2806248474865698e+00 7.8431372549019607e-03 -1.
    7.9347443933348513e-03 -1.1649647450214349e+00
    7.9760812529117899e-03 -1.2018504251546629e+00
    7.9760812529117899e-03 -1.2018504251546629e+00
    8.2301094214562651e-03 -1.3673204516101203e+00
    7.9347443933348513e-03 -1.1649647450214349e+00
    7.9013971995285891e-03 -1.1295406451144279e+00
    7.9013971995285891e-03 -1.1295406451144279e+00
    7.9013971995285891e-03 -1.1295406451144279e+00
    7.9760812529117899e-03 -1.2018504251546629e+00
    7.8757491928847425e-03 -1.0954451150103324e+00
    7.8467408099990085e-03 -1.0307764064044154e+00
    7.8575813504800935e-03 -1.0625592962581034e+00
    7.9347443933348513e-03 -1.1649647450214349e+00
    8.3189033080770299e-03 -1.4142135623730951e+00
    7.9347443933348513e-03 -1.1649647450214349e+00
    9.1507936388847324e-03 -1.7677669529663689e+00
    9.3577844549224201e-03 -1.8439088914585768e+00
    1.0167548487649700e-02 -2.1213203435596419e+00
    8.9677037828560114e-03 -1.6977493752543311e+00
    9.1507936388847324e-03 -1.7677669529663689e+00
    8.4195300411246017e-03 -1.4638501094228002e+00
    8.0257769440076048e-03 -1.2403473458920842e+00
    8.0257769440076048e-03 -1.2403473458920842e+00
    7.8467408099990085e-03 -1.0307764064044154e+00
    7.8575813504800918e-03 -9.4112394811431999e-01
    8.5331590674748905e-03 -6.5938047339578698e-01
    9.3577844549224236e-03 -5.4232614454664041e-01
    1.3641197749745950e-02 -3.1622776601683794e-01
    1.6435310552965831e-02 -2.5400025400038101e-01
    2.2876984097211832e-02 -1.7677669529663689e-01
    1.3641197749745950e-02 -3.1622776601683794e-01
    8.5331590674748905e-03 -6.5938047339578698e-01
    8.1521749080421570e-03 -7.5592894601845462e-01
    7.8575813504800918e-03 -9.4112394811431999e-01
    7.8575813504800918e-03 -9.4112394811431999e-01
    7.8575813504800918e-03 -9.4112394811431999e-01
    7.9347443933348513e-03 -1.1649647450214349e+00
    8.0257769440076048e-03 -1.2403473458920842e+00
    7.8575813504800935e-03 -1.0625592962581034e+00
    7.8575813504800935e-03 -1.0625592962581034e+00
    7.9013971995285891e-03 -1.1295406451144279e+00
    8.0842888507043145e-03 -1.2806248474865698e+00
    8.0842888507043145e-03 -1.2806248474865698e+00
    7.8467408099990085e-03 -9.7014250014533199e-01
    7.8467408099990085e-03 -1.0307764064044154e+00
    7.8467408099990085e-03 -1.0307764064044154e+00
    7.9013971995285873e-03 -8.8531564076536218e-01
    7.9347443933348513e-03 -1.1649647450214349e+00
    7.8575813504800935e-03 -1.0625592962581034e+00
    7.8757491928847425e-03 -1.0954451150103324e+00
    7.8467408099990085e-03 -1.0307764064044154e+00
    7.8431372549019607e-03 -1. 8.2301094214562651e-03
    -1.3673204516101203e+00 8.3189033080770299e-03
    -1.4142135623730951e+00 8.5331590674748905e-03
    -1.5165750888103100e+00 9.1507936388847324e-03
    -1.7677669529663689e+00 9.1507936388847324e-03
    -1.7677669529663689e+00 9.1507936388847324e-03
    -1.7677669529663689e+00 8.5331590674748905e-03
    -1.5165750888103100e+00 9.1507936388847324e-03
    -1.7677669529663689e+00 8.6611991711915311e-03
    -1.5727950313140986e+00 8.1521749080421570e-03
    -1.3228756555322956e+00 7.8467408099990085e-03
    -1.0307764064044154e+00 7.9347443933348513e-03
    -1.1649647450214349e+00 7.8467408099990085e-03
    -1.0307764064044154e+00 8.2301094214562668e-03
    -7.3135745086122728e-01 9.1507936388847324e-03
    -5.6568542494923801e-01 8.9677037828560097e-03
    -5.8901508937395164e-01 1.3641197749745950e-02
    -3.1622776601683794e-01 1.6435310552965831e-02
    -2.5400025400038101e-01 1.1427337982521947e-02
    -3.9735970711951313e-01 8.5331590674748905e-03
    -6.5938047339578698e-01 8.0842888507043145e-03
    -7.8086880944303039e-01 7.8431372549019607e-03 -1.
    7.8575813504800918e-03 -9.4112394811431999e-01
    7.8757491928847425e-03 -1.0954451150103324e+00
    8.0257769440076048e-03 -1.2403473458920842e+00
    8.0257769440076048e-03 -1.2403473458920842e+00
    7.9347443933348513e-03 -1.1649647450214349e+00
    7.9013971995285891e-03 -1.1295406451144279e+00
    7.9347443933348513e-03 -1.1649647450214349e+00
    8.0842888507043145e-03 -1.2806248474865698e+00
    8.1521749080421570e-03 -1.3228756555322956e+00
    7.8467408099990085e-03 -1.0307764064044154e+00
    7.8467408099990085e-03 -9.7014250014533199e-01
    7.8431372549019607e-03 -1. 7.8467408099990085e-03
    -1.0307764064044154e+00 7.8431372549019607e-03 -1.
    7.8467408099990085e-03 -9.7014250014533199e-01
    7.8575813504800918e-03 -9.4112394811431999e-01
    7.9347443933348513e-03 -8.5839507527895209e-01
    7.8467408099990085e-03 -1.0307764064044154e+00
    7.8575813504800935e-03 -1.0625592962581034e+00
    7.8575813504800935e-03 -1.0625592962581034e+00
    8.0257769440076048e-03 -1.2403473458920842e+00
    8.2301094214562651e-03 -1.3673204516101203e+00
    8.1521749080421570e-03 -1.3228756555322956e+00
    8.9677037828560114e-03 -1.6977493752543311e+00
    8.9677037828560114e-03 -1.6977493752543311e+00
    1.0522672835293128e-02 -2.2360679774997898e+00
    9.8603911710047690e-03 -2.0191391920625676e+00
    8.6611991711915311e-03 -1.5727950313140986e+00
    7.9760812529117899e-03 -1.2018504251546629e+00
    7.8467408099990085e-03 -9.7014250014533199e-01
    7.8575813504800935e-03 -1.0625592962581034e+00
    7.9013971995285873e-03 -8.8531564076536218e-01
    8.6611991711915311e-03 -6.3581075733974191e-01
    9.3577844549224236e-03 -5.4232614454664041e-01
    1.2015580705573944e-02 -3.7139067635410372e-01
    3.2103107776030426e-02 -1.2403473458920847e-01
    1.2735873280838474e-02 -3.4444748191358604e-01
    8.4195300411246000e-03 -6.8313005106397329e-01
    8.4195300411246000e-03 -6.8313005106397329e-01
    7.8431372549019607e-03 -1. 7.8757491928847425e-03
    -9.1287092917527690e-01 7.8575813504800935e-03
    -1.0625592962581034e+00 8.1521749080421570e-03
    -1.3228756555322956e+00 8.0842888507043145e-03
    -1.2806248474865698e+00 7.8467408099990085e-03
    -1.0307764064044154e+00 7.8757491928847425e-03
    -1.0954451150103324e+00 7.8757491928847425e-03
    -1.0954451150103324e+00 7.9760812529117899e-03
    -1.2018504251546629e+00 7.8575813504800935e-03
    -1.0625592962581034e+00 7.8431372549019607e-03 -1.
    7.8467408099990085e-03 -1.0307764064044154e+00
    7.8467408099990085e-03 -1.0307764064044154e+00
    7.8467408099990085e-03 -9.7014250014533199e-01
    7.8467408099990085e-03 -1.0307764064044154e+00
    7.8467408099990085e-03 -1.0307764064044154e+00
    7.8467408099990085e-03 -9.7014250014533199e-01
    7.8467408099990085e-03 -9.7014250014533199e-01
    7.8467408099990085e-03 -1.0307764064044154e+00
    7.8431372549019607e-03 -1. 7.9760812529117899e-03
    -1.2018504251546629e+00 7.9013971995285891e-03
    -1.1295406451144279e+00 8.0257769440076048e-03
    -1.2403473458920842e+00 8.8053552845146939e-03
    -1.6329931618554525e+00 8.4195300411246017e-03
    -1.4638501094228002e+00 9.3577844549224201e-03
    -1.8439088914585768e+00 9.5926382156142510e-03
    -1.9272482233188630e+00 1.0937290355310218e-02
    -2.3664319132398473e+00 9.3577844549224201e-03
    -1.8439088914585768e+00 8.3189033080770299e-03
    -1.4142135623730951e+00 7.9347443933348513e-03
    -1.1649647450214349e+00 7.9013971995285891e-03
    -1.1295406451144279e+00 7.8757491928847425e-03
    -9.1287092917527690e-01 7.9013971995285873e-03
    -8.8531564076536218e-01 8.8053552845146921e-03
    -6.1237243569579447e-01 1.1427337982521947e-02
    -3.9735970711951313e-01 2.2876984097211832e-02
    -1.7677669529663689e-01 1.2735873280838474e-02
    -3.4444748191358604e-01 9.3577844549224236e-03
    -5.4232614454664041e-01 8.1521749080421570e-03
    -7.5592894601845462e-01 7.8431372549019607e-03 -1.
    7.8431372549019607e-03 -1. 7.8575813504800935e-03
    -1.0625592962581034e+00 8.2301094214562651e-03
    -1.3673204516101203e+00 8.2301094214562651e-03
    -1.3673204516101203e+00 7.9347443933348513e-03
    -1.1649647450214349e+00 7.8757491928847425e-03
    -1.0954451150103324e+00 7.8467408099990085e-03
    -1.0307764064044154e+00 7.8467408099990085e-03
    -9.7014250014533199e-01 7.8575813504800935e-03
    -1.0625592962581034e+00 7.9013971995285873e-03
    -8.8531564076536218e-01 7.8575813504800935e-03
    -1.0625592962581034e+00 7.8431372549019607e-03 -1.
    7.8575813504800918e-03 -9.4112394811431999e-01
    7.8467408099990085e-03 -9.7014250014533199e-01
    7.8467408099990085e-03 -9.7014250014533199e-01
    7.8431372549019607e-03 -1. 7.8467408099990085e-03
    -1.0307764064044154e+00 7.8467408099990085e-03
    -1.0307764064044154e+00 7.8431372549019607e-03 -1.
    7.8467408099990085e-03 -1.0307764064044154e+00
    7.8575813504800918e-03 -9.4112394811431999e-01
    7.8431372549019607e-03 -1. 8.0257769440076048e-03
    -1.2403473458920842e+00 8.9677037828560114e-03
    -1.6977493752543311e+00 9.1507936388847324e-03
    -1.7677669529663689e+00 9.1507936388847324e-03
    -1.7677669529663689e+00 9.1507936388847324e-03
    -1.7677669529663689e+00 9.3577844549224201e-03
    -1.8439088914585768e+00 8.1521749080421570e-03
    -1.3228756555322956e+00 8.0842888507043145e-03
    -1.2806248474865698e+00 8.1521749080421570e-03
    -1.3228756555322956e+00 8.0257769440076048e-03
    -1.2403473458920842e+00 8.2301094214562668e-03
    -7.3135745086122728e-01 8.9677037828560097e-03
    -5.8901508937395164e-01 9.8603911710047672e-03
    -4.9526055654364853e-01 1.8826641510556207e-02
    -2.1821789023599242e-01 1.2735873280838474e-02
    -3.4444748191358604e-01 9.3577844549224236e-03
    -5.4232614454664041e-01 7.9760812529117899e-03
    -8.3205029433784350e-01 7.8431372549019607e-03 -1.
    7.8575813504800918e-03 -9.4112394811431999e-01
    7.8467408099990085e-03 -1.0307764064044154e+00
    8.0842888507043145e-03 -1.2806248474865698e+00
    8.4195300411246017e-03 -1.4638501094228002e+00
    7.9760812529117899e-03 -1.2018504251546629e+00
    8.0842888507043145e-03 -1.2806248474865698e+00
    8.0257769440076048e-03 -1.2403473458920842e+00
    7.8575813504800935e-03 -1.0625592962581034e+00
    7.8757491928847425e-03 -1.0954451150103324e+00
    7.8431372549019607e-03 -1. 7.8467408099990085e-03
    -9.7014250014533199e-01 7.8575813504800918e-03
    -9.4112394811431999e-01 7.9347443933348513e-03
    -8.5839507527895209e-01 7.8757491928847425e-03
    -9.1287092917527690e-01 7.8467408099990085e-03
    -1.0307764064044154e+00 7.8757491928847425e-03
    -9.1287092917527690e-01 7.9013971995285873e-03
    -8.8531564076536218e-01 7.8575813504800935e-03
    -1.0625592962581034e+00 7.8467408099990085e-03
    -9.7014250014533199e-01 7.8575813504800935e-03
    -1.0625592962581034e+00 7.8575813504800935e-03
    -1.0625592962581034e+00 7.8431372549019607e-03 -1.
    7.9013971995285891e-03 -1.1295406451144279e+00
    8.6611991711915311e-03 -1.5727950313140986e+00
    8.8053552845146939e-03 -1.6329931618554525e+00
    9.5926382156142510e-03 -1.9272482233188630e+00
    9.1507936388847324e-03 -1.7677669529663689e+00
    9.3577844549224201e-03 -1.8439088914585768e+00
    8.9677037828560114e-03 -1.6977493752543311e+00
    8.3189033080770299e-03 -1.4142135623730951e+00
    7.9760812529117899e-03 -1.2018504251546629e+00
    8.0842888507043145e-03 -1.2806248474865698e+00
    8.0842888507043145e-03 -7.8086880944303039e-01
    9.5926382156142510e-03 -5.1887452166277093e-01
    1.0522672835293128e-02 -4.4721359549995793e-01
    1.4820192182241294e-02 -2.8629916715693410e-01
    1.2735873280838474e-02 -3.4444748191358604e-01
    9.3577844549224236e-03 -5.4232614454664041e-01
    8.5331590674748905e-03 -6.5938047339578698e-01
    8.1521749080421570e-03 -7.5592894601845462e-01
    7.9347443933348513e-03 -8.5839507527895209e-01
    7.8467408099990085e-03 -1.0307764064044154e+00
    7.8467408099990085e-03 -9.7014250014533199e-01
    8.5331590674748905e-03 -1.5165750888103100e+00
    7.9760812529117899e-03 -1.2018504251546629e+00
    7.8575813504800935e-03 -1.0625592962581034e+00
    7.9760812529117899e-03 -1.2018504251546629e+00
    8.0257769440076048e-03 -1.2403473458920842e+00
    7.9013971995285891e-03 -1.1295406451144279e+00
    7.9347443933348513e-03 -1.1649647450214349e+00
    7.8467408099990085e-03 -9.7014250014533199e-01
    7.8467408099990085e-03 -9.7014250014533199e-01
    7.9013971995285873e-03 -8.8531564076536218e-01
    7.8757491928847425e-03 -9.1287092917527690e-01
    7.9013971995285873e-03 -8.8531564076536218e-01
    7.8467408099990085e-03 -1.0307764064044154e+00
    7.8757491928847425e-03 -9.1287092917527690e-01
    7.8467408099990085e-03 -1.0307764064044154e+00
    7.8467408099990085e-03 -9.7014250014533199e-01
    7.8431372549019607e-03 -1. 7.9347443933348513e-03
    -8.5839507527895209e-01 7.8575813504800918e-03
    -9.4112394811431999e-01 7.8575813504800935e-03
    -1.0625592962581034e+00 8.1521749080421570e-03
    -1.3228756555322956e+00 8.5331590674748905e-03
    -1.5165750888103100e+00 8.5331590674748905e-03
    -1.5165750888103100e+00 8.4195300411246017e-03
    -1.4638501094228002e+00 9.1507936388847324e-03
    -1.7677669529663689e+00 8.9677037828560114e-03
    -1.6977493752543311e+00 8.2301094214562651e-03
    -1.3673204516101203e+00 8.0842888507043145e-03
    -1.2806248474865698e+00 8.0257769440076048e-03
    -1.2403473458920842e+00 7.9347443933348513e-03
    -8.5839507527895209e-01 1.2015580705573944e-02
    -3.7139067635410372e-01 1.0522672835293128e-02
    -4.4721359549995793e-01 1.3641197749745950e-02
    -3.1622776601683794e-01 1.2015580705573944e-02
    -3.7139067635410372e-01 9.3577844549224236e-03
    -5.4232614454664041e-01 8.3189033080770299e-03
    -7.0710678118654757e-01 8.0257769440076066e-03
    -8.0622577482985502e-01 7.8757491928847425e-03
    -9.1287092917527690e-01 7.8575813504800935e-03
    -1.0625592962581034e+00 7.9013971995285891e-03
    -1.1295406451144279e+00 8.2301094214562651e-03
    -1.3673204516101203e+00 8.0842888507043145e-03
    -1.2806248474865698e+00 7.9760812529117899e-03
    -1.2018504251546629e+00 7.9760812529117899e-03
    -1.2018504251546629e+00 7.9013971995285891e-03
    -1.1295406451144279e+00 7.8431372549019607e-03 -1.
    7.9347443933348513e-03 -1.1649647450214349e+00
    7.8431372549019607e-03 -1. 7.8467408099990085e-03
    -9.7014250014533199e-01 8.0257769440076066e-03
    -8.0622577482985502e-01 7.8467408099990085e-03
    -1.0307764064044154e+00 7.8575813504800935e-03
    -1.0625592962581034e+00 7.8575813504800935e-03
    -1.0625592962581034e+00 7.8467408099990085e-03
    -9.7014250014533199e-01 7.8467408099990085e-03
    -1.0307764064044154e+00 7.9013971995285891e-03
    -1.1295406451144279e+00 7.8467408099990085e-03
    -1.0307764064044154e+00 7.8467408099990085e-03
    -1.0307764064044154e+00 7.9347443933348513e-03
    -1.1649647450214349e+00 8.2301094214562651e-03
    -1.3673204516101203e+00 7.9760812529117899e-03
    -1.2018504251546629e+00 8.6611991711915311e-03
    -1.5727950313140986e+00 8.9677037828560114e-03
    -1.6977493752543311e+00 9.1507936388847324e-03
    -1.7677669529663689e+00 9.5926382156142510e-03
    -1.9272482233188630e+00 8.4195300411246017e-03
    -1.4638501094228002e+00 8.1521749080421570e-03
    -1.3228756555322956e+00 7.9760812529117899e-03
    -1.2018504251546629e+00 7.9347443933348513e-03
    -1.1649647450214349e+00 7.9347443933348513e-03
    -8.5839507527895209e-01 1.2015580705573944e-02
    -3.7139067635410372e-01 1.0167548487649704e-02
    -4.7140452079103173e-01 1.4820192182241294e-02
    -2.8629916715693410e-01 1.2735873280838474e-02
    -3.4444748191358604e-01 9.3577844549224236e-03
    -5.4232614454664041e-01 8.0257769440076066e-03
    -8.0622577482985502e-01 8.0842888507043145e-03
    -7.8086880944303039e-01 7.9347443933348513e-03
    -8.5839507527895209e-01 7.9013971995285873e-03
    -8.8531564076536218e-01 7.9347443933348513e-03
    -1.1649647450214349e+00 8.6611991711915311e-03
    -1.5727950313140986e+00 8.2301094214562651e-03
    -1.3673204516101203e+00 8.0842888507043145e-03
    -1.2806248474865698e+00 8.0257769440076048e-03
    -1.2403473458920842e+00 7.8575813504800918e-03
    -9.4112394811431999e-01 7.8467408099990085e-03
    -1.0307764064044154e+00 7.9347443933348513e-03
    -1.1649647450214349e+00 7.8467408099990085e-03
    -9.7014250014533199e-01 7.8575813504800918e-03
    -9.4112394811431999e-01 7.8575813504800918e-03
    -9.4112394811431999e-01 7.8431372549019607e-03 -1.
    7.8757491928847425e-03 -1.0954451150103324e+00
    7.9347443933348513e-03 -1.1649647450214349e+00
    7.8757491928847425e-03 -1.0954451150103324e+00
    7.8575813504800918e-03 -9.4112394811431999e-01
    7.8431372549019607e-03 -1. 7.8467408099990085e-03
    -1.0307764064044154e+00 8.0257769440076048e-03
    -1.2403473458920842e+00 8.2301094214562651e-03
    -1.3673204516101203e+00 8.2301094214562651e-03
    -1.3673204516101203e+00 8.3189033080770299e-03
    -1.4142135623730951e+00 7.9760812529117899e-03
    -1.2018504251546629e+00 8.9677037828560114e-03
    -1.6977493752543311e+00 8.4195300411246017e-03
    -1.4638501094228002e+00 8.6611991711915311e-03
    -1.5727950313140986e+00 8.8053552845146939e-03
    -1.6329931618554525e+00 8.2301094214562651e-03
    -1.3673204516101203e+00 8.0257769440076048e-03
    -1.2403473458920842e+00 7.9347443933348513e-03
    -1.1649647450214349e+00 7.8431372549019607e-03 -1.
    1.0167548487649704e-02 -4.7140452079103173e-01
    1.0167548487649704e-02 -4.7140452079103173e-01
    1.6435310552965831e-02 -2.5400025400038101e-01
    1.3641197749745950e-02 -3.1622776601683794e-01
    9.1507936388847324e-03 -5.6568542494923801e-01
    8.4195300411246000e-03 -6.8313005106397329e-01
    8.1521749080421570e-03 -7.5592894601845462e-01
    7.8757491928847425e-03 -9.1287092917527690e-01
    7.8467408099990085e-03 -9.7014250014533199e-01
    7.9013971995285891e-03 -1.1295406451144279e+00
    8.0257769440076048e-03 -1.2403473458920842e+00
    8.0842888507043145e-03 -1.2806248474865698e+00
    7.8431372549019607e-03 -1. 7.8431372549019607e-03 -1.
    7.8467408099990085e-03 -9.7014250014533199e-01
    8.0257769440076048e-03 -1.2403473458920842e+00
    7.9013971995285891e-03 -1.1295406451144279e+00
    7.9760812529117899e-03 -8.3205029433784350e-01
    7.9760812529117899e-03 -8.3205029433784350e-01
    7.9013971995285873e-03 -8.8531564076536218e-01
    7.9013971995285873e-03 -8.8531564076536218e-01
    7.8431372549019607e-03 -1. 7.8467408099990085e-03
    -1.0307764064044154e+00 7.8467408099990085e-03
    -1.0307764064044154e+00 7.8757491928847425e-03
    -9.1287092917527690e-01 7.8575813504800918e-03
    -9.4112394811431999e-01 7.8757491928847425e-03
    -9.1287092917527690e-01 7.9347443933348513e-03
    -1.1649647450214349e+00 7.8467408099990085e-03
    -1.0307764064044154e+00 8.0842888507043145e-03
    -1.2806248474865698e+00 8.1521749080421570e-03
    -1.3228756555322956e+00 8.0257769440076048e-03
    -1.2403473458920842e+00 8.4195300411246017e-03
    -1.4638501094228002e+00 8.2301094214562651e-03
    -1.3673204516101203e+00 8.4195300411246017e-03
    -1.4638501094228002e+00 8.8053552845146939e-03
    -1.6329931618554525e+00 7.8757491928847425e-03
    -1.0954451150103324e+00 7.9347443933348513e-03
    -1.1649647450214349e+00 7.9760812529117899e-03
    -1.2018504251546629e+00 7.8575813504800918e-03
    -9.4112394811431999e-01 8.6611991711915311e-03
    -6.3581075733974191e-01 1.0522672835293128e-02
    -4.4721359549995793e-01 1.6435310552965831e-02
    -2.5400025400038101e-01 1.4820192182241294e-02
    -2.8629916715693410e-01 9.5926382156142510e-03
    -5.1887452166277093e-01 8.4195300411246000e-03
    -6.8313005106397329e-01 8.1521749080421570e-03
    -7.5592894601845462e-01 7.9347443933348513e-03
    -8.5839507527895209e-01 7.9013971995285891e-03
    -1.1295406451144279e+00 7.9013971995285891e-03
    -1.1295406451144279e+00 8.0257769440076048e-03
    -1.2403473458920842e+00 7.9013971995285891e-03
    -1.1295406451144279e+00 7.8575813504800935e-03
    -1.0625592962581034e+00 7.8467408099990085e-03
    -1.0307764064044154e+00 7.9760812529117899e-03
    -1.2018504251546629e+00 7.9760812529117899e-03
    -8.3205029433784350e-01 7.8757491928847425e-03
    -1.0954451150103324e+00 7.8575813504800918e-03
    -9.4112394811431999e-01 7.9013971995285873e-03
    -8.8531564076536218e-01 8.0257769440076066e-03
    -8.0622577482985502e-01 7.8757491928847425e-03
    -9.1287092917527690e-01 7.9013971995285873e-03
    -8.8531564076536218e-01 7.9347443933348513e-03
    -8.5839507527895209e-01 8.0842888507043145e-03
    -7.8086880944303039e-01 7.9347443933348513e-03
    -8.5839507527895209e-01 7.8757491928847425e-03
    -9.1287092917527690e-01 7.9013971995285873e-03
    -8.8531564076536218e-01 7.9013971995285891e-03
    -1.1295406451144279e+00 8.2301094214562651e-03
    -1.3673204516101203e+00 8.2301094214562651e-03
    -1.3673204516101203e+00 8.1521749080421570e-03
    -1.3228756555322956e+00 8.0842888507043145e-03
    -1.2806248474865698e+00 7.9347443933348513e-03
    -1.1649647450214349e+00 8.3189033080770299e-03
    -1.4142135623730951e+00 8.1521749080421570e-03
    -1.3228756555322956e+00 8.4195300411246017e-03
    -1.4638501094228002e+00 7.8757491928847425e-03
    -1.0954451150103324e+00 7.9013971995285891e-03
    -1.1295406451144279e+00 7.9347443933348513e-03
    -1.1649647450214349e+00 7.8757491928847425e-03
    -9.1287092917527690e-01 8.8053552845146921e-03
    -6.1237243569579447e-01 1.0522672835293128e-02
    -4.4721359549995793e-01 2.2876984097211832e-02
    -1.7677669529663689e-01 1.2735873280838474e-02
    -3.4444748191358604e-01 9.5926382156142510e-03
    -5.1887452166277093e-01 8.4195300411246000e-03
    -6.8313005106397329e-01 8.3189033080770299e-03
    -7.0710678118654757e-01 8.0257769440076066e-03
    -8.0622577482985502e-01 7.8467408099990085e-03
    -9.7014250014533199e-01 7.8575813504800935e-03
    -1.0625592962581034e+00 7.9347443933348513e-03
    -1.1649647450214349e+00 7.9760812529117899e-03
    -1.2018504251546629e+00 7.8575813504800935e-03
    -1.0625592962581034e+00 7.9760812529117899e-03
    -1.2018504251546629e+00 7.9760812529117899e-03
    -1.2018504251546629e+00 7.9347443933348513e-03
    -1.1649647450214349e+00 7.8575813504800918e-03
    -9.4112394811431999e-01 7.8431372549019607e-03 -1.
    7.8575813504800918e-03 -9.4112394811431999e-01
    7.8757491928847425e-03 -9.1287092917527690e-01
    7.8757491928847425e-03 -9.1287092917527690e-01
    7.9013971995285873e-03 -8.8531564076536218e-01
    7.9760812529117899e-03 -8.3205029433784350e-01
    7.9760812529117899e-03 -8.3205029433784350e-01
    8.0257769440076066e-03 -8.0622577482985502e-01
    7.8431372549019607e-03 -1. 7.9013971995285891e-03
    -1.1295406451144279e+00 7.9347443933348513e-03
    -1.1649647450214349e+00 8.0257769440076048e-03
    -1.2403473458920842e+00 8.3189033080770299e-03
    -1.4142135623730951e+00 7.9760812529117899e-03
    -1.2018504251546629e+00 7.9760812529117899e-03
    -1.2018504251546629e+00 8.3189033080770299e-03
    -1.4142135623730951e+00 7.9013971995285891e-03
    -1.1295406451144279e+00 8.2301094214562651e-03
    -1.3673204516101203e+00 8.5331590674748905e-03
    -1.5165750888103100e+00 7.9347443933348513e-03
    -1.1649647450214349e+00 7.9347443933348513e-03
    -1.1649647450214349e+00 7.8757491928847425e-03
    -1.0954451150103324e+00 7.8757491928847425e-03
    -9.1287092917527690e-01 8.8053552845146921e-03
    -6.1237243569579447e-01 1.0522672835293128e-02
    -4.4721359549995793e-01 2.2876984097211832e-02
    -1.7677669529663689e-01 1.1427337982521947e-02
    -3.9735970711951313e-01 1.0522672835293128e-02
    -4.4721359549995793e-01 8.8053552845146921e-03
    -6.1237243569579447e-01 8.1521749080421570e-03
    -7.5592894601845462e-01 8.0257769440076066e-03
    -8.0622577482985502e-01 7.8467408099990085e-03
    -9.7014250014533199e-01 7.8467408099990085e-03
    -1.0307764064044154e+00 7.8575813504800918e-03
    -9.4112394811431999e-01 7.8467408099990085e-03
    -1.0307764064044154e+00 7.8757491928847425e-03
    -1.0954451150103324e+00 8.0842888507043145e-03
    -1.2806248474865698e+00 7.8467408099990085e-03
    -1.0307764064044154e+00 7.8467408099990085e-03
    -1.0307764064044154e+00 7.8575813504800935e-03
    -1.0625592962581034e+00 7.9347443933348513e-03
    -1.1649647450214349e+00 7.8431372549019607e-03 -1.
    7.8757491928847425e-03 -1.0954451150103324e+00
    7.8757491928847425e-03 -9.1287092917527690e-01
    7.9347443933348513e-03 -8.5839507527895209e-01
    7.8467408099990085e-03 -9.7014250014533199e-01
    7.8757491928847425e-03 -9.1287092917527690e-01
    7.8467408099990085e-03 -9.7014250014533199e-01
    7.8467408099990085e-03 -9.7014250014533199e-01
    7.9347443933348513e-03 -1.1649647450214349e+00
    7.8575813504800918e-03 -9.4112394811431999e-01
    8.0257769440076048e-03 -1.2403473458920842e+00
    7.9347443933348513e-03 -1.1649647450214349e+00
    7.8431372549019607e-03 -1. 7.8757491928847425e-03
    -1.0954451150103324e+00 7.9760812529117899e-03
    -1.2018504251546629e+00 8.1521749080421570e-03
    -1.3228756555322956e+00 8.4195300411246017e-03
    -1.4638501094228002e+00 8.1521749080421570e-03
    -1.3228756555322956e+00 7.8757491928847425e-03
    -1.0954451150103324e+00 7.9347443933348513e-03
    -1.1649647450214349e+00 7.8575813504800935e-03
    -1.0625592962581034e+00 7.9347443933348513e-03
    -8.5839507527895209e-01 8.4195300411246000e-03
    -6.8313005106397329e-01 9.3577844549224236e-03
    -5.4232614454664041e-01 1.6435310552965831e-02
    -2.5400025400038101e-01 1.2015580705573944e-02
    -3.7139067635410372e-01 9.5926382156142510e-03
    -5.1887452166277093e-01 8.9677037828560097e-03
    -5.8901508937395164e-01 8.2301094214562668e-03
    -7.3135745086122728e-01 8.0842888507043145e-03
    -7.8086880944303039e-01 7.8467408099990085e-03
    -9.7014250014533199e-01 7.8757491928847425e-03
    -1.0954451150103324e+00 7.8757491928847425e-03
    -1.0954451150103324e+00 7.9347443933348513e-03
    -8.5839507527895209e-01 7.9760812529117899e-03
    -1.2018504251546629e+00 8.0257769440076048e-03
    -1.2403473458920842e+00 7.9760812529117899e-03
    -1.2018504251546629e+00 7.8575813504800935e-03
    -1.0625592962581034e+00 7.8575813504800935e-03
    -1.0625592962581034e+00 7.9013971995285891e-03
    -1.1295406451144279e+00 7.8757491928847425e-03
    -1.0954451150103324e+00 7.9013971995285891e-03
    -1.1295406451144279e+00 7.8575813504800935e-03
    -1.0625592962581034e+00 7.8431372549019607e-03 -1.
    7.8575813504800918e-03 -9.4112394811431999e-01
    7.8575813504800918e-03 -9.4112394811431999e-01
    7.9347443933348513e-03 -1.1649647450214349e+00
    7.8575813504800935e-03 -1.0625592962581034e+00
    7.9013971995285891e-03 -1.1295406451144279e+00
    7.9347443933348513e-03 -1.1649647450214349e+00
    7.8431372549019607e-03 -1. 7.8575813504800918e-03
    -9.4112394811431999e-01 8.0257769440076048e-03
    -1.2403473458920842e+00 8.0842888507043145e-03
    -1.2806248474865698e+00 7.9347443933348513e-03
    -1.1649647450214349e+00 7.9760812529117899e-03
    -1.2018504251546629e+00 8.4195300411246017e-03
    -1.4638501094228002e+00 8.0842888507043145e-03
    -1.2806248474865698e+00 8.0257769440076048e-03
    -1.2403473458920842e+00 7.8431372549019607e-03 -1.
    7.8467408099990085e-03 -1.0307764064044154e+00
    7.8757491928847425e-03 -9.1287092917527690e-01
    9.1507936388847324e-03 -5.6568542494923801e-01
    9.5926382156142510e-03 -5.1887452166277093e-01
    2.2876984097211832e-02 -1.7677669529663689e-01
    1.0937290355310212e-02 -4.2257712736425818e-01
    1.0167548487649704e-02 -4.7140452079103173e-01
    9.1507936388847324e-03 -5.6568542494923801e-01
    8.3189033080770299e-03 -7.0710678118654757e-01
    8.0842888507043145e-03 -7.8086880944303039e-01
    8.0257769440076066e-03 -8.0622577482985502e-01
    7.8575813504800918e-03 -9.4112394811431999e-01
    7.8757491928847425e-03 -9.1287092917527690e-01
    7.8467408099990085e-03 -9.7014250014533199e-01
    7.9013971995285873e-03 -8.8531564076536218e-01
    7.8757491928847425e-03 -1.0954451150103324e+00
    7.9760812529117899e-03 -1.2018504251546629e+00
    7.8467408099990085e-03 -1.0307764064044154e+00
    7.9013971995285891e-03 -1.1295406451144279e+00
    7.9013971995285891e-03 -1.1295406451144279e+00
    7.8431372549019607e-03 -1. 7.8431372549019607e-03 -1.
    7.8431372549019607e-03 -1. 7.9760812529117899e-03
    -1.2018504251546629e+00 7.9013971995285891e-03
    -1.1295406451144279e+00 7.8575813504800935e-03
    -1.0625592962581034e+00 7.9013971995285891e-03
    -1.1295406451144279e+00 7.9013971995285891e-03
    -1.1295406451144279e+00 7.8575813504800918e-03
    -9.4112394811431999e-01 7.8757491928847425e-03
    -1.0954451150103324e+00 7.8575813504800918e-03
    -9.4112394811431999e-01 8.0842888507043145e-03
    -1.2806248474865698e+00 8.0842888507043145e-03
    -1.2806248474865698e+00 7.8757491928847425e-03
    -1.0954451150103324e+00 8.0257769440076048e-03
    -1.2403473458920842e+00 7.9760812529117899e-03
    -1.2018504251546629e+00 8.4195300411246017e-03
    -1.4638501094228002e+00 7.9347443933348513e-03
    -1.1649647450214349e+00 8.0257769440076048e-03
    -1.2403473458920842e+00 7.8575813504800935e-03
    -1.0625592962581034e+00 7.8575813504800935e-03
    -1.0625592962581034e+00 8.2301094214562668e-03
    -7.3135745086122728e-01 8.6611991711915311e-03
    -6.3581075733974191e-01 9.8603911710047672e-03
    -4.9526055654364853e-01 1.3641197749745950e-02
    -3.1622776601683794e-01 1.2015580705573944e-02
    -3.7139067635410372e-01 1.0167548487649704e-02
    -4.7140452079103173e-01 1.0167548487649704e-02
    -4.7140452079103173e-01 8.1521749080421570e-03
    -7.5592894601845462e-01 8.2301094214562668e-03
    -7.3135745086122728e-01 8.0842888507043145e-03
    -7.8086880944303039e-01 7.9347443933348513e-03
    -8.5839507527895209e-01 7.8575813504800918e-03
    -9.4112394811431999e-01 7.8575813504800918e-03
    -9.4112394811431999e-01 7.8757491928847425e-03
    -1.0954451150103324e+00 7.9013971995285891e-03
    -1.1295406451144279e+00 7.8757491928847425e-03
    -9.1287092917527690e-01 7.8431372549019607e-03 -1.
    7.9347443933348513e-03 -1.1649647450214349e+00
    7.9760812529117899e-03 -8.3205029433784350e-01
    7.9013971995285891e-03 -1.1295406451144279e+00
    7.9760812529117899e-03 -1.2018504251546629e+00
    7.8467408099990085e-03 -1.0307764064044154e+00
    7.8757491928847425e-03 -9.1287092917527690e-01
    7.9347443933348513e-03 -1.1649647450214349e+00
    7.9013971995285891e-03 -1.1295406451144279e+00
    7.8467408099990085e-03 -1.0307764064044154e+00
    7.8757491928847425e-03 -1.0954451150103324e+00
    7.8757491928847425e-03 -1.0954451150103324e+00
    7.9760812529117899e-03 -1.2018504251546629e+00
    7.8575813504800935e-03 -1.0625592962581034e+00
    7.8757491928847425e-03 -1.0954451150103324e+00
    7.8575813504800918e-03 -9.4112394811431999e-01
    7.8467408099990085e-03 -1.0307764064044154e+00
    8.0257769440076048e-03 -1.2403473458920842e+00
    8.8053552845146939e-03 -1.6329931618554525e+00
    8.8053552845146939e-03 -1.6329931618554525e+00
    8.0257769440076048e-03 -1.2403473458920842e+00
    7.8431372549019607e-03 -1. 7.9013971995285891e-03
    -1.1295406451144279e+00 7.8575813504800935e-03
    -1.0625592962581034e+00 8.5331590674748905e-03
    -6.5938047339578698e-01 8.6611991711915311e-03
    -6.3581075733974191e-01 1.3641197749745950e-02
    -3.1622776601683794e-01 1.3641197749745950e-02
    -3.1622776601683794e-01 1.2015580705573944e-02
    -3.7139067635410372e-01 1.0167548487649704e-02
    -4.7140452079103173e-01 1.0167548487649704e-02
    -4.7140452079103173e-01 9.3577844549224236e-03
    -5.4232614454664041e-01 8.4195300411246000e-03
    -6.8313005106397329e-01 8.0842888507043145e-03
    -7.8086880944303039e-01 8.0257769440076066e-03
    -8.0622577482985502e-01 7.8757491928847425e-03
    -9.1287092917527690e-01 7.8467408099990085e-03
    -9.7014250014533199e-01 7.8757491928847425e-03
    -9.1287092917527690e-01 7.8757491928847425e-03
    -1.0954451150103324e+00 8.0842888507043145e-03
    -1.2806248474865698e+00 7.9760812529117899e-03
    -1.2018504251546629e+00 7.9347443933348513e-03
    -1.1649647450214349e+00 7.9013971995285891e-03
    -1.1295406451144279e+00 7.8757491928847425e-03
    -1.0954451150103324e+00 7.9760812529117899e-03
    -1.2018504251546629e+00 8.0842888507043145e-03
    -1.2806248474865698e+00 8.0257769440076048e-03
    -1.2403473458920842e+00 7.9013971995285891e-03
    -1.1295406451144279e+00 7.8467408099990085e-03
    -1.0307764064044154e+00 7.9013971995285891e-03
    -1.1295406451144279e+00 7.8757491928847425e-03
    -1.0954451150103324e+00 7.9347443933348513e-03
    -1.1649647450214349e+00 7.9347443933348513e-03
    -1.1649647450214349e+00 7.9760812529117899e-03
    -1.2018504251546629e+00 7.9013971995285891e-03
    -1.1295406451144279e+00 7.9760812529117899e-03
    -1.2018504251546629e+00 7.8575813504800935e-03
    -1.0625592962581034e+00 8.3189033080770299e-03
    -1.4142135623730951e+00 9.1507936388847324e-03
    -1.7677669529663689e+00 8.0842888507043145e-03
    -1.2806248474865698e+00 8.0257769440076048e-03
    -1.2403473458920842e+00 7.8757491928847425e-03
    -1.0954451150103324e+00 7.8575813504800935e-03
    -1.0625592962581034e+00 7.8467408099990085e-03
    -9.7014250014533199e-01 8.1521749080421570e-03
    -7.5592894601845462e-01 8.6611991711915311e-03
    -6.3581075733974191e-01 1.3641197749745950e-02
    -3.1622776601683794e-01 1.4820192182241294e-02
    -2.8629916715693410e-01 1.3641197749745950e-02
    -3.1622776601683794e-01 1.2015580705573944e-02
    -3.7139067635410372e-01 1.0522672835293128e-02
    -4.4721359549995793e-01 1.0167548487649704e-02
    -4.7140452079103173e-01 9.3577844549224236e-03
    -5.4232614454664041e-01 8.4195300411246000e-03
    -6.8313005106397329e-01 8.0257769440076066e-03
    -8.0622577482985502e-01 8.0257769440076066e-03
    -8.0622577482985502e-01 7.8757491928847425e-03
    -9.1287092917527690e-01 7.8467408099990085e-03
    -1.0307764064044154e+00 7.8575813504800935e-03
    -1.0625592962581034e+00 8.1521749080421570e-03
    -1.3228756555322956e+00 8.3189033080770299e-03
    -1.4142135623730951e+00 7.8467408099990085e-03
    -1.0307764064044154e+00 7.9013971995285891e-03
    -1.1295406451144279e+00 7.8575813504800935e-03
    -1.0625592962581034e+00 7.8575813504800935e-03
    -1.0625592962581034e+00 7.9013971995285891e-03
    -1.1295406451144279e+00 8.0257769440076048e-03
    -1.2403473458920842e+00 7.8431372549019607e-03 -1.
    7.9347443933348513e-03 -1.1649647450214349e+00
    7.8757491928847425e-03 -1.0954451150103324e+00
    7.8757491928847425e-03 -1.0954451150103324e+00
    7.8467408099990085e-03 -1.0307764064044154e+00
    7.8431372549019607e-03 -1. 7.8431372549019607e-03 -1.
    7.8757491928847425e-03 -1.0954451150103324e+00
    7.9347443933348513e-03 -1.1649647450214349e+00
    7.8575813504800935e-03 -1.0625592962581034e+00
    8.4195300411246017e-03 -1.4638501094228002e+00
    8.1521749080421570e-03 -1.3228756555322956e+00
    8.0842888507043145e-03 -1.2806248474865698e+00
    7.8757491928847425e-03 -1.0954451150103324e+00
    7.8431372549019607e-03 -1. 7.8757491928847425e-03
    -9.1287092917527690e-01 7.8467408099990085e-03
    -9.7014250014533199e-01 8.1521749080421570e-03
    -7.5592894601845462e-01 1.0522672835293128e-02
    -4.4721359549995793e-01 1.3641197749745950e-02
    -3.1622776601683794e-01 1.6435310552965831e-02
    -2.5400025400038101e-01 1.6435310552965831e-02
    -2.5400025400038101e-01 1.3641197749745950e-02
    -3.1622776601683794e-01 1.0937290355310212e-02
    -4.2257712736425818e-01 1.0937290355310212e-02
    -4.2257712736425818e-01 1.0522672835293128e-02
    -4.4721359549995793e-01 1.0522672835293128e-02
    -4.4721359549995793e-01 8.5331590674748905e-03
    -6.5938047339578698e-01 8.5331590674748905e-03
    -6.5938047339578698e-01 7.8575813504800918e-03
    -9.4112394811431999e-01 7.9013971995285891e-03
    -1.1295406451144279e+00 7.9347443933348513e-03
    -8.5839507527895209e-01 7.8575813504800935e-03
    -1.0625592962581034e+00 8.0842888507043145e-03
    -1.2806248474865698e+00 8.2301094214562651e-03
    -1.3673204516101203e+00 8.3189033080770299e-03
    -1.4142135623730951e+00 7.9760812529117899e-03
    -1.2018504251546629e+00 7.9347443933348513e-03
    -1.1649647450214349e+00 7.8467408099990085e-03
    -9.7014250014533199e-01 7.8467408099990085e-03
    -1.0307764064044154e+00 7.8575813504800918e-03
    -9.4112394811431999e-01 7.8757491928847425e-03
    -1.0954451150103324e+00 7.8575813504800935e-03
    -1.0625592962581034e+00 7.8467408099990085e-03
    -1.0307764064044154e+00 7.8467408099990085e-03
    -9.7014250014533199e-01 7.8467408099990085e-03
    -1.0307764064044154e+00 7.8575813504800935e-03
    -1.0625592962581034e+00 7.8757491928847425e-03
    -9.1287092917527690e-01 7.8575813504800935e-03
    -1.0625592962581034e+00 7.8757491928847425e-03
    -9.1287092917527690e-01 8.9677037828560114e-03
    -1.6977493752543311e+00 7.9760812529117899e-03
    -1.2018504251546629e+00 7.9013971995285891e-03
    -1.1295406451144279e+00 7.9347443933348513e-03
    -1.1649647450214349e+00 7.8431372549019607e-03 -1.
    7.9013971995285873e-03 -8.8531564076536218e-01
    8.0842888507043145e-03 -7.8086880944303039e-01
    8.8053552845146921e-03 -6.1237243569579447e-01
    1.1427337982521947e-02 -3.9735970711951313e-01
    1.6435310552965831e-02 -2.5400025400038101e-01
    1.6435310552965831e-02 -2.5400025400038101e-01
    1.6435310552965831e-02 -2.5400025400038101e-01
    1.3641197749745950e-02 -3.1622776601683794e-01
    1.2015580705573944e-02 -3.7139067635410372e-01
    1.0937290355310212e-02 -4.2257712736425818e-01
    1.2015580705573944e-02 -3.7139067635410372e-01
    1.0937290355310212e-02 -4.2257712736425818e-01
    1.0167548487649704e-02 -4.7140452079103173e-01
    8.5331590674748905e-03 -6.5938047339578698e-01
    8.2301094214562668e-03 -7.3135745086122728e-01
    8.0257769440076066e-03 -8.0622577482985502e-01
    8.0842888507043145e-03 -7.8086880944303039e-01
    7.8757491928847425e-03 -9.1287092917527690e-01
    7.8757491928847425e-03 -9.1287092917527690e-01
    7.8575813504800935e-03 -1.0625592962581034e+00
    8.0842888507043145e-03 -1.2806248474865698e+00
    8.2301094214562651e-03 -1.3673204516101203e+00
    8.1521749080421570e-03 -1.3228756555322956e+00
    7.9013971995285891e-03 -1.1295406451144279e+00
    8.0842888507043145e-03 -1.2806248474865698e+00
    7.9760812529117899e-03 -1.2018504251546629e+00
    7.9760812529117899e-03 -1.2018504251546629e+00
    7.8757491928847425e-03 -1.0954451150103324e+00
    7.9013971995285891e-03 -1.1295406451144279e+00
    7.9013971995285873e-03 -8.8531564076536218e-01
    7.8757491928847425e-03 -9.1287092917527690e-01
    7.8467408099990085e-03 -9.7014250014533199e-01
    7.8757491928847425e-03 -1.0954451150103324e+00
    8.0842888507043145e-03 -1.2806248474865698e+00
    8.0257769440076048e-03 -1.2403473458920842e+00
    8.4195300411246017e-03 -1.4638501094228002e+00
    7.8757491928847425e-03 -1.0954451150103324e+00
    7.8467408099990085e-03 -1.0307764064044154e+00
    7.8467408099990085e-03 -9.7014250014533199e-01
    7.8467408099990085e-03 -1.0307764064044154e+00
    7.8467408099990085e-03 -9.7014250014533199e-01
    8.6611991711915311e-03 -6.3581075733974191e-01
    9.1507936388847324e-03 -5.6568542494923801e-01
    1.4820192182241294e-02 -2.8629916715693410e-01
    1.4820192182241294e-02 -2.8629916715693410e-01
    1.8826641510556207e-02 -2.1821789023599242e-01
    1.6435310552965831e-02 -2.5400025400038101e-01
    1.3641197749745950e-02 -3.1622776601683794e-01
    1.1427337982521947e-02 -3.9735970711951313e-01
    1.1427337982521947e-02 -3.9735970711951313e-01
    1.0937290355310212e-02 -4.2257712736425818e-01
    9.8603911710047672e-03 -4.9526055654364853e-01
    9.5926382156142510e-03 -5.1887452166277093e-01
    8.9677037828560097e-03 -5.8901508937395164e-01
    8.3189033080770299e-03 -7.0710678118654757e-01
    8.5331590674748905e-03 -6.5938047339578698e-01
    8.1521749080421570e-03 -7.5592894601845462e-01
    8.0257769440076066e-03 -8.0622577482985502e-01
    7.8467408099990085e-03 -1.0307764064044154e+00
    7.8575813504800935e-03 -1.0625592962581034e+00
    7.8431372549019607e-03 -1. 7.8757491928847425e-03
    -1.0954451150103324e+00 7.8575813504800935e-03
    -1.0625592962581034e+00 7.8757491928847425e-03
    -1.0954451150103324e+00 7.8757491928847425e-03
    -1.0954451150103324e+00 7.9347443933348513e-03
    -1.1649647450214349e+00 7.9013971995285891e-03
    -1.1295406451144279e+00 7.8467408099990085e-03
    -9.7014250014533199e-01 7.8757491928847425e-03
    -1.0954451150103324e+00 7.9013971995285873e-03
    -8.8531564076536218e-01 7.8757491928847425e-03
    -9.1287092917527690e-01 8.0257769440076066e-03
    -8.0622577482985502e-01 8.0257769440076048e-03
    -1.2403473458920842e+00 7.9760812529117899e-03
    -1.2018504251546629e+00 8.0842888507043145e-03
    -1.2806248474865698e+00 7.9013971995285891e-03
    -1.1295406451144279e+00 7.8757491928847425e-03
    -1.0954451150103324e+00 7.8467408099990085e-03
    -9.7014250014533199e-01 7.8467408099990085e-03
    -1.0307764064044154e+00 7.8467408099990085e-03
    -1.0307764064044154e+00 8.3189033080770299e-03
    -7.0710678118654757e-01 8.6611991711915311e-03
    -6.3581075733974191e-01 9.8603911710047672e-03
    -4.9526055654364853e-01 1.2735873280838474e-02
    -3.4444748191358604e-01 1.4820192182241294e-02
    -2.8629916715693410e-01 1.6435310552965831e-02
    -2.5400025400038101e-01 1.6435310552965831e-02
    -2.5400025400038101e-01 1.2015580705573944e-02
    -3.7139067635410372e-01 1.1427337982521947e-02
    -3.9735970711951313e-01 1.1427337982521947e-02
    -3.9735970711951313e-01 1.0937290355310212e-02
    -4.2257712736425818e-01 9.8603911710047672e-03
    -4.9526055654364853e-01 9.3577844549224236e-03
    -5.4232614454664041e-01 9.1507936388847324e-03
    -5.6568542494923801e-01 9.3577844549224236e-03
    -5.4232614454664041e-01 8.4195300411246000e-03
    -6.8313005106397329e-01 8.3189033080770299e-03
    -7.0710678118654757e-01 7.8757491928847425e-03
    -9.1287092917527690e-01 7.8467408099990085e-03
    -9.7014250014533199e-01 7.8575813504800918e-03
    -9.4112394811431999e-01 7.9760812529117899e-03
    -8.3205029433784350e-01 7.9013971995285891e-03
    -1.1295406451144279e+00 7.8467408099990085e-03
    -1.0307764064044154e+00 7.8467408099990085e-03
    -9.7014250014533199e-01 7.8575813504800935e-03
    -1.0625592962581034e+00 7.9760812529117899e-03
    -1.2018504251546629e+00 7.9760812529117899e-03
    -1.2018504251546629e+00 7.9347443933348513e-03
    -1.1649647450214349e+00 7.8467408099990085e-03
    -1.0307764064044154e+00 7.8467408099990085e-03
    -1.0307764064044154e+00 8.0257769440076048e-03
    -1.2403473458920842e+00 8.0257769440076048e-03
    -1.2403473458920842e+00 8.4195300411246017e-03
    -1.4638501094228002e+00 8.0257769440076048e-03
    -1.2403473458920842e+00 7.9347443933348513e-03
    -1.1649647450214349e+00 7.8757491928847425e-03
    -9.1287092917527690e-01 7.8575813504800935e-03
    -1.0625592962581034e+00 7.8467408099990085e-03
    -1.0307764064044154e+00 7.8467408099990085e-03
    -1.0307764064044154e+00 8.1521749080421570e-03
    -7.5592894601845462e-01 8.6611991711915311e-03
    -6.3581075733974191e-01 8.6611991711915311e-03
    -6.3581075733974191e-01 9.8603911710047672e-03
    -4.9526055654364853e-01 1.2735873280838474e-02
    -3.4444748191358604e-01 1.6435310552965831e-02
    -2.5400025400038101e-01 1.8826641510556207e-02
    -2.1821789023599242e-01 1.6435310552965831e-02
    -2.5400025400038101e-01 1.2015580705573944e-02
    -3.7139067635410372e-01 1.1427337982521947e-02
    -3.9735970711951313e-01 1.0522672835293128e-02
    -4.4721359549995793e-01 1.0167548487649704e-02
    -4.7140452079103173e-01 1.0522672835293128e-02
    -4.4721359549995793e-01 9.5926382156142510e-03
    -5.1887452166277093e-01 9.5926382156142510e-03
    -5.1887452166277093e-01 9.5926382156142510e-03
    -5.1887452166277093e-01 9.3577844549224236e-03
    -5.4232614454664041e-01 8.0842888507043145e-03
    -7.8086880944303039e-01 8.3189033080770299e-03
    -7.0710678118654757e-01 8.2301094214562668e-03
    -7.3135745086122728e-01 8.0257769440076066e-03
    -8.0622577482985502e-01 7.8467408099990085e-03
    -9.7014250014533199e-01 7.8575813504800918e-03
    -9.4112394811431999e-01 7.9347443933348513e-03
    -1.1649647450214349e+00 7.9013971995285891e-03
    -1.1295406451144279e+00 8.0257769440076048e-03
    -1.2403473458920842e+00 7.8467408099990085e-03
    -1.0307764064044154e+00 7.8467408099990085e-03
    -9.7014250014533199e-01 7.9760812529117899e-03
    -1.2018504251546629e+00 8.0257769440076048e-03
    -1.2403473458920842e+00 7.8467408099990085e-03
    -1.0307764064044154e+00 7.9013971995285891e-03
    -1.1295406451144279e+00 7.9347443933348513e-03
    -1.1649647450214349e+00 8.0842888507043145e-03
    -1.2806248474865698e+00 8.0257769440076048e-03
    -1.2403473458920842e+00 7.9760812529117899e-03
    -1.2018504251546629e+00 7.8757491928847425e-03
    -9.1287092917527690e-01 7.8467408099990085e-03
    -9.7014250014533199e-01 7.8431372549019607e-03 -1.
    7.9760812529117899e-03 -8.3205029433784350e-01
    8.3189033080770299e-03 -7.0710678118654757e-01
    8.5331590674748905e-03 -6.5938047339578698e-01
    8.6611991711915311e-03 -6.3581075733974191e-01
    1.0937290355310212e-02 -4.2257712736425818e-01
    1.3641197749745950e-02 -3.1622776601683794e-01
    1.3641197749745950e-02 -3.1622776601683794e-01
    2.2876984097211832e-02 -1.7677669529663689e-01
    1.4820192182241294e-02 -2.8629916715693410e-01
    1.2015580705573944e-02 -3.7139067635410372e-01
    1.1427337982521947e-02 -3.9735970711951313e-01
    1.0167548487649704e-02 -4.7140452079103173e-01
    1.0167548487649704e-02 -4.7140452079103173e-01
    1.0167548487649704e-02 -4.7140452079103173e-01
    1.0522672835293128e-02 -4.4721359549995793e-01
    9.5926382156142510e-03 -5.1887452166277093e-01
    9.8603911710047672e-03 -4.9526055654364853e-01
    9.8603911710047672e-03 -4.9526055654364853e-01
    8.9677037828560097e-03 -5.8901508937395164e-01
    8.0257769440076066e-03 -8.0622577482985502e-01
    8.0842888507043145e-03 -7.8086880944303039e-01
    7.9013971995285873e-03 -8.8531564076536218e-01
    7.8757491928847425e-03 -9.1287092917527690e-01
    7.8575813504800918e-03 -9.4112394811431999e-01
    7.9347443933348513e-03 -8.5839507527895209e-01
    7.9760812529117899e-03 -1.2018504251546629e+00
    7.9760812529117899e-03 -1.2018504251546629e+00
    7.8467408099990085e-03 -1.0307764064044154e+00
    7.8431372549019607e-03 -1. 7.9013971995285873e-03
    -8.8531564076536218e-01 7.8431372549019607e-03 -1.
    8.3189033080770299e-03 -1.4142135623730951e+00
    8.1521749080421570e-03 -1.3228756555322956e+00
    8.0257769440076048e-03 -1.2403473458920842e+00
    7.8431372549019607e-03 -1. 7.9347443933348513e-03
    -8.5839507527895209e-01 7.8467408099990085e-03
    -9.7014250014533199e-01 7.8575813504800918e-03
    -9.4112394811431999e-01 8.0842888507043145e-03
    -7.8086880944303039e-01 8.1521749080421570e-03
    -7.5592894601845462e-01 8.1521749080421570e-03
    -7.5592894601845462e-01 8.6611991711915311e-03
    -6.3581075733974191e-01 8.6611991711915311e-03
    -6.3581075733974191e-01 1.0167548487649704e-02
    -4.7140452079103173e-01 1.0522672835293128e-02
    -4.4721359549995793e-01 1.3641197749745950e-02
    -3.1622776601683794e-01 1.4820192182241294e-02
    -2.8629916715693410e-01 1.6435310552965831e-02
    -2.5400025400038101e-01 1.3641197749745950e-02
    -3.1622776601683794e-01 1.2735873280838474e-02
    -3.4444748191358604e-01 1.0937290355310212e-02
    -4.2257712736425818e-01 1.0522672835293128e-02
    -4.4721359549995793e-01 1.0522672835293128e-02
    -4.4721359549995793e-01 1.0937290355310212e-02
    -4.2257712736425818e-01 1.0937290355310212e-02
    -4.2257712736425818e-01 1.0522672835293128e-02
    -4.4721359549995793e-01 1.0167548487649704e-02
    -4.7140452079103173e-01 1.0937290355310212e-02
    -4.2257712736425818e-01 1.0522672835293128e-02
    -4.4721359549995793e-01 1.0167548487649704e-02
    -4.7140452079103173e-01 8.4195300411246000e-03
    -6.8313005106397329e-01 8.0842888507043145e-03
    -7.8086880944303039e-01 7.8575813504800918e-03
    -9.4112394811431999e-01 7.9013971995285873e-03
    -8.8531564076536218e-01 7.9013971995285873e-03
    -8.8531564076536218e-01 7.8431372549019607e-03 -1.
    7.9347443933348513e-03 -1.1649647450214349e+00
    7.8575813504800935e-03 -1.0625592962581034e+00
    7.8575813504800918e-03 -9.4112394811431999e-01
    7.8757491928847425e-03 -9.1287092917527690e-01
    8.2301094214562651e-03 -1.3673204516101203e+00
    8.0842888507043145e-03 -1.2806248474865698e+00
    8.2301094214562651e-03 -1.3673204516101203e+00
    7.8575813504800918e-03 -9.4112394811431999e-01
    7.8575813504800935e-03 -1.0625592962581034e+00
    7.8467408099990085e-03 -9.7014250014533199e-01
    7.8575813504800918e-03 -9.4112394811431999e-01
    8.0842888507043145e-03 -7.8086880944303039e-01
    8.1521749080421570e-03 -7.5592894601845462e-01
    9.1507936388847324e-03 -5.6568542494923801e-01
    8.9677037828560097e-03 -5.8901508937395164e-01
    8.9677037828560097e-03 -5.8901508937395164e-01
    9.8603911710047672e-03 -4.9526055654364853e-01
    1.1427337982521947e-02 -3.9735970711951313e-01
    1.1427337982521947e-02 -3.9735970711951313e-01
    1.3641197749745950e-02 -3.1622776601683794e-01
    2.2876984097211832e-02 -1.7677669529663689e-01
    1.8826641510556207e-02 -2.1821789023599242e-01
    1.4820192182241294e-02 -2.8629916715693410e-01
    1.3641197749745950e-02 -3.1622776601683794e-01
    1.1427337982521947e-02 -3.9735970711951313e-01
    1.0937290355310212e-02 -4.2257712736425818e-01
    1.1427337982521947e-02 -3.9735970711951313e-01
    1.2015580705573944e-02 -3.7139067635410372e-01
    1.2015580705573944e-02 -3.7139067635410372e-01
    1.2735873280838474e-02 -3.4444748191358604e-01
    1.3641197749745950e-02 -3.1622776601683794e-01
    1.2015580705573944e-02 -3.7139067635410372e-01
    1.2015580705573944e-02 -3.7139067635410372e-01
    1.0937290355310212e-02 -4.2257712736425818e-01
    1.0167548487649704e-02 -4.7140452079103173e-01
    9.5926382156142510e-03 -5.1887452166277093e-01
    8.5331590674748905e-03 -6.5938047339578698e-01
    8.4195300411246000e-03 -6.8313005106397329e-01
    8.1521749080421570e-03 -7.5592894601845462e-01
    8.0257769440076066e-03 -8.0622577482985502e-01
    7.8467408099990085e-03 -1.0307764064044154e+00
    7.8575813504800935e-03 -1.0625592962581034e+00
    7.8575813504800935e-03 -1.0625592962581034e+00
    7.8431372549019607e-03 -1. 8.0257769440076048e-03
    -1.2403473458920842e+00 8.0842888507043145e-03
    -1.2806248474865698e+00 7.8757491928847425e-03
    -1.0954451150103324e+00 7.8431372549019607e-03 -1.
    7.8431372549019607e-03 -1. 7.9347443933348513e-03
    -8.5839507527895209e-01 8.0842888507043145e-03
    -7.8086880944303039e-01 8.4195300411246000e-03
    -6.8313005106397329e-01 8.4195300411246000e-03
    -6.8313005106397329e-01 9.3577844549224236e-03
    -5.4232614454664041e-01 9.3577844549224236e-03
    -5.4232614454664041e-01 1.1427337982521947e-02
    -3.9735970711951313e-01 1.3641197749745950e-02
    -3.1622776601683794e-01 1.2735873280838474e-02
    -3.4444748191358604e-01 1.2735873280838474e-02
    -3.4444748191358604e-01 1.4820192182241294e-02
    -2.8629916715693410e-01 1.6435310552965831e-02
    -2.5400025400038101e-01 1. 0. 1.8826641510556207e-02
    -2.1821789023599242e-01 1.6435310552965831e-02
    -2.5400025400038101e-01 1.4820192182241294e-02
    -2.8629916715693410e-01 1.4820192182241294e-02
    -2.8629916715693410e-01 1.4820192182241294e-02
    -2.8629916715693410e-01 1.4820192182241294e-02
    -2.8629916715693410e-01 1.4820192182241294e-02
    -2.8629916715693410e-01 1.4820192182241294e-02
    -2.8629916715693410e-01 1.4820192182241294e-02
    -2.8629916715693410e-01 1.4820192182241294e-02
    -2.8629916715693410e-01 1.3641197749745950e-02
    -3.1622776601683794e-01 1.2735873280838474e-02
    -3.4444748191358604e-01 1.1427337982521947e-02
    -3.9735970711951313e-01 1.1427337982521947e-02
    -3.9735970711951313e-01 1.0937290355310212e-02
    -4.2257712736425818e-01 9.3577844549224236e-03
    -5.4232614454664041e-01 8.4195300411246000e-03
    -6.8313005106397329e-01 7.9013971995285873e-03
    -8.8531564076536218e-01 8.2301094214562668e-03
    -7.3135745086122728e-01 8.2301094214562668e-03
    -7.3135745086122728e-01 7.8467408099990085e-03
    -9.7014250014533199e-01 8.0257769440076066e-03
    -8.0622577482985502e-01 7.9013971995285891e-03
    -1.1295406451144279e+00 8.0842888507043145e-03
    -7.8086880944303039e-01 7.8431372549019607e-03 -1.
    8.0257769440076066e-03 -8.0622577482985502e-01
    7.9760812529117899e-03 -8.3205029433784350e-01
    8.1521749080421570e-03 -7.5592894601845462e-01
    8.3189033080770299e-03 -7.0710678118654757e-01
    8.5331590674748905e-03 -6.5938047339578698e-01
    9.5926382156142510e-03 -5.1887452166277093e-01
    1.0522672835293128e-02 -4.4721359549995793e-01
    1.4820192182241294e-02 -2.8629916715693410e-01
    1.4820192182241294e-02 -2.8629916715693410e-01
    1.4820192182241294e-02 -2.8629916715693410e-01
    1.6435310552965831e-02 -2.5400025400038101e-01
    1.6435310552965831e-02 -2.5400025400038101e-01
    1.6435310552965831e-02 -2.5400025400038101e-01
    1.6435310552965831e-02 -2.5400025400038101e-01
    3.2103107776030426e-02 -1.2403473458920847e-01
    1.6435310552965831e-02 -2.5400025400038101e-01
    1.6435310552965831e-02 -2.5400025400038101e-01
    1.6435310552965831e-02 -2.5400025400038101e-01
    1.8826641510556207e-02 -2.1821789023599242e-01
    2.2876984097211832e-02 -1.7677669529663689e-01
    1.8826641510556207e-02 -2.1821789023599242e-01
    1.8826641510556207e-02 -2.1821789023599242e-01
    1.8826641510556207e-02 -2.1821789023599242e-01
    1.8826641510556207e-02 -2.1821789023599242e-01
    1.8826641510556207e-02 -2.1821789023599242e-01
    1.8826641510556207e-02 -2.1821789023599242e-01
    1.6435310552965831e-02 -2.5400025400038101e-01
    1.6435310552965831e-02 -2.5400025400038101e-01
    1.8826641510556207e-02 -2.1821789023599242e-01
    1.8826641510556207e-02 -2.1821789023599242e-01
    1.0937290355310212e-02 -4.2257712736425818e-01
    1.1427337982521947e-02 -3.9735970711951313e-01
    1.0937290355310212e-02 -4.2257712736425818e-01
    1.0167548487649704e-02 -4.7140452079103173e-01
    8.3189033080770299e-03 -7.0710678118654757e-01
    8.5331590674748905e-03 -6.5938047339578698e-01
    1.1427337982521947e-02 -3.9735970711951313e-01
    9.1507936388847324e-03 -5.6568542494923801e-01
    8.0257769440076066e-03 -8.0622577482985502e-01
    8.4195300411246000e-03 -6.8313005106397329e-01
    8.1521749080421570e-03 -7.5592894601845462e-01
    8.1521749080421570e-03 -7.5592894601845462e-01
    8.2301094214562668e-03 -7.3135745086122728e-01
    8.5331590674748905e-03 -6.5938047339578698e-01
    9.3577844549224236e-03 -5.4232614454664041e-01
    1.2015580705573944e-02 -3.7139067635410372e-01
    1.4820192182241294e-02 -2.8629916715693410e-01
    1.4820192182241294e-02 -2.8629916715693410e-01
    1.4820192182241294e-02 -2.8629916715693410e-01
    1.6435310552965831e-02 -2.5400025400038101e-01
    1.8826641510556207e-02 -2.1821789023599242e-01
    1.8826641510556207e-02 -2.1821789023599242e-01
    1.8826641510556207e-02 -2.1821789023599242e-01
    1.6435310552965831e-02 -2.5400025400038101e-01</input_scale>
  <output_scale>
    1.0526315789473684e+00 0.</output_scale>
  <inv_output_scale>
    9.4999999999999996e-01 0.</inv_output_scale>
  <weights>
    <_>
      -1.1719048386403424e-03 -2.2903224389177911e-04
      -9.9637750405231888e-04 -5.5088375721748159e-04
      2.2039270841974236e-04 1.2144499427915077e-03
      9.9728247011042037e-04 2.0453599492093418e-04
      -7.2831549546728146e-04 -4.2920232853557353e-04
      -1.1054717958401724e-03 -1.2409612586460942e-04
      -2.1397120762249158e-05 -7.8018402384446585e-04
      6.7194088742161514e-04 -1.1208781013474275e-03
      1.1037170489498088e-03 1.0083693640301039e-03
      -2.5698247005999147e-04 -3.4383640164285737e-05
      3.0002183913935715e-04 -7.7645728251324352e-04
      -6.5397802009701264e-04 9.5527311481024093e-04
      -1.0954164450422850e-03 -3.1663012947851025e-04
      6.1523554708813478e-04 -6.3403300196013517e-04
      1.0630743572223426e-03 -2.4215284090006096e-04
      1.2150750992007805e-03 -3.7732545206526025e-04
      2.2581237915161135e-04 8.1166924113520002e-04
      1.1322676431532379e-03 5.1786688077618958e-04
      8.1904968067006900e-04 5.2277548999592920e-04
      1.2256443938238879e-03 -1.5902424652943092e-04
      -1.4732310215572919e-01 -1.7185666587642506e-02
      -1.5420543054868842e-02 -1.0233156732008820e-02
      1.2931277381178647e-02 -9.4513255928408112e-03
      8.4735757811428593e-03 1.2109987526604646e-02
      1.0906250729195516e-02 -2.0907316916904280e-02
      -9.8123514011440316e-03 -1.0661672085299646e-02
      -8.9666138418683684e-03 1.1048918578868319e-02
      7.4953530999516977e-03 -8.2546696953162517e-03
      1.0605463886067231e-02 -9.7077796855317526e-03
      1.8717802658660805e-02 -2.0353731570163056e-02
      1.1339735225485207e-02 -8.4897194566628045e-03
      -1.0192183258697595e-02 -1.3879635340167999e-02
      -8.4453240101587789e-03 9.1231115346422000e-03
      -1.8838374368374055e-02 1.8035674770083051e-02
      -9.1740569872544499e-03 -9.3481518501030859e-03
      1.6233294315222389e-02 1.7689784696540818e-02
      -2.2087094499148582e-02 -9.5874684889902129e-03
      -1.0737348964535511e-02 -9.8118046824130778e-03
      -1.3811394795516962e-02 -1.1032685515575806e-02
      1.5758155882732338e-02 1.3410652455095980e-02
      4.9146761920223547e-02 3.4847483939042447e-02
      2.8350685575587110e-02 5.8649121802244420e-03
      -2.4874208459890995e-02 2.8362752817106627e-03
      -5.5157301168624641e-03 -2.2385534458877889e-02
      2.8248343170869106e-06 4.1458007058708439e-02
      3.9999769205268428e-03 2.0822753521862351e-02
      5.7911548053611473e-03 -1.2588105979186966e-02
      1.7973338946920920e-03 3.0955201685069675e-03
      1.1681135931997200e-03 1.9563018667717192e-02
      -4.4692286510875971e-02 4.1995323011415883e-02
      -2.0195747632749721e-02 1.4835870861974610e-03
      -1.3569517444213517e-03 2.9245721073317726e-02
      3.6452618562598312e-03 7.3398834074159226e-04
      3.6314041186915912e-02 -3.9071345883596793e-02
      7.4372780609054537e-03 3.7427348076825083e-03
      -2.9351774402805644e-02 -3.7874234766326571e-02
      4.2187902527378258e-02 6.4439975456485107e-03
      1.4949771036030787e-02 1.7704001587513876e-03
      2.6812738821885864e-02 9.9899645276032688e-03
      -3.3499199375888480e-02 -2.6053031652591815e-02
      2.9737574338488001e-02 7.7601337697897985e-03
      7.4277272396852485e-03 7.6155984885670283e-03
      -5.3859089230553162e-03 6.2468634570972811e-03
      -6.7718691667864985e-03 -5.3635299401185270e-03
      -4.8034289378643498e-03 6.0489379630915751e-03
      7.6159998881483015e-03 4.8314023290750236e-03
      8.1020444293591707e-03 -6.3238405165589760e-03
      -4.8033922457970616e-03 7.9645369224855284e-03
      -4.6812936528099888e-03 3.6218977559123533e-03
      -7.9973966858709333e-03 9.0936161720630952e-03
      -3.5400954695039267e-03 5.8567743044110358e-03
      6.2863206665875245e-03 6.7864420720990075e-03
      8.5746521049474989e-03 -5.8693650398904873e-03
      9.2466186774862597e-03 -8.1623984545324615e-03
      8.8281044368080826e-03 7.9211005330850522e-03
      -6.7670641762278419e-03 -5.9937812601361818e-03
      1.4624071453638768e-02 6.8838514821940641e-03
      4.8398760058061749e-03 6.3455981154337746e-03
      7.5538883292947806e-03 7.5512916198025200e-03
      -6.7745608782427066e-03 -6.8790060902592714e-03
      6.5149893725059291e-02 2.1545354142409004e-02
      1.7339922168885559e-02 1.5917791513031306e-02
      -1.5731713240050037e-02 1.4245865135803904e-02
      -1.5938593757675472e-02 -1.0820729860542711e-02
      -9.6439242039364995e-03 2.4635256110187090e-02
      1.6113508290793499e-02 1.0186162755423389e-02
      1.7379909221769071e-02 -1.4497130943945679e-02
      -8.4505827366512538e-03 1.4951429031417749e-02
      -8.4066342617258420e-03 7.6937665284686043e-03
      -2.7131475019497201e-02 2.3611491055629385e-02
      -1.0766133165862600e-02 1.1267099078267362e-02
      8.2913526564002225e-03 1.8245021674811342e-02
      1.6657154128754299e-02 -9.9393331937971761e-03
      2.2392570087953843e-02 -2.3057951547339545e-02
      1.5299271800133353e-02 1.5694131533450780e-02
      -1.7682347448717495e-02 -2.2065193381181139e-02
      2.5553301624343230e-02 1.6269269422801238e-02
      1.0308724791458041e-02 1.1957253654427343e-02
      1.6577319800593945e-02 1.6655697470764376e-02
      -1.9972230746777481e-02 -1.4879131723364027e-02
      6.5575657891026054e-02 2.0174361489955966e-02
      1.8190689239039819e-02 1.6547720166841366e-02
      -1.4587627021299926e-02 1.2896464113011282e-02
      -1.6449421821240644e-02 -1.1278240438668935e-02
      -9.4910590536142949e-03 2.4849430362178640e-02
      1.4872883960104536e-02 9.7778837715749092e-03
      1.7573784232631038e-02 -1.4903328342846810e-02
      -6.8510054650894343e-03 1.5409727251850538e-02
      -9.1063777488647503e-03 6.2961726461283401e-03
      -2.9055092534443723e-02 2.3459696967283460e-02
      -1.0756548887374701e-02 1.2657683565415476e-02
      9.7189238179628060e-03 1.8357865900888507e-02
      1.4666754514920062e-02 -1.0634647629698795e-02
      2.3994142617184210e-02 -2.3814340671646238e-02
      1.5793208497998326e-02 1.5968966447481459e-02
      -1.8329331095731486e-02 -2.2163860399796544e-02
      2.7030338997022479e-02 1.7168290182843604e-02
      1.1518466327409405e-02 1.1863427385493445e-02
      1.7356212733771567e-02 1.6642490742754812e-02
      -1.8916580190589442e-02 -1.6304784278347799e-02
      3.0517829426889100e-02 6.3314423076814850e-03
      7.8941531828266159e-03 8.3424443670713794e-03
      -7.1202018481098563e-03 6.0872053655013072e-03
      -8.4656089843088683e-03 -5.8803548440525509e-03
      -4.3605521561200329e-03 6.8526576050958196e-03
      7.1232411492217328e-03 4.7061421397928543e-03
      7.5422458663395361e-03 -5.4527299844593403e-03
      -3.6972793970767711e-03 8.3428531939737302e-03
      -6.3879894993541337e-03 1.6955995065801831e-03
      -7.6406814556545140e-03 1.1055849593976015e-02
      -4.0825690182086363e-03 7.4635125783571741e-03
      6.2765251082184843e-03 6.5378166180839505e-03
      6.3121066188913787e-03 -4.8055998959000536e-03
      9.6025887756605137e-03 -6.1867468238722776e-03
      6.9543037835569045e-03 7.8356122174908071e-03
      -6.6505413792977931e-03 -6.3956045154977686e-03
      1.3965787504384573e-02 6.8296867481756774e-03
      5.1773514686246167e-03 7.3368074413519089e-03
      6.1236558141638496e-03 7.7917207690338559e-03
      -8.3671443928684149e-03 -6.0558104838690759e-03
      3.0711385687928746e-02 6.3138992799207832e-03
      5.6655776508891158e-03 7.0512425535706070e-03
      -7.0015890878824660e-03 7.6476542767436586e-03
      -6.8762263061569523e-03 -4.5439201917175558e-03
      -3.9590257860097526e-03 6.5897042903324951e-03
      8.6144413878391519e-03 5.4620915173686528e-03
      6.5961279512680099e-03 -4.9243697060250289e-03
      -3.5116223097001516e-03 6.5798827674254344e-03
      -6.6141525368140957e-03 3.0702977788814733e-03
      -7.9259339851085516e-03 1.0692951397330022e-02
      -3.6444757515435148e-03 5.8274728735667868e-03
      5.9200218765993202e-03 7.6341900272509436e-03
      7.4127335262438622e-03 -7.0256278061875425e-03
      8.3696978270182514e-03 -7.9826323415542466e-03
      8.2570345290711375e-03 7.3947339827419864e-03
      -8.3867399550559517e-03 -7.5479151265657862e-03
      1.4256256011894928e-02 7.2011088578101904e-03
      4.4591924217748814e-03 7.0114966634646468e-03
      7.4166507545152041e-03 6.5672045477946708e-03
      -6.4275384287390096e-03 -5.6392542837261890e-03
      -1.0904516510010469e-02 -6.3099963249585800e-03
      -5.7958416805113716e-03 2.3128901376065483e-04
      4.5219727806241963e-03 3.3517180864623113e-03
      -9.7938748022390423e-04 4.3724248781437805e-03
      -5.8448456570772793e-03 -1.0195661922750520e-02
      -4.8353908110817536e-04 -5.0158825138924713e-03
      -2.2241667544318548e-04 1.9039255975285461e-03
      -5.5866007919909170e-03 -1.1844608024378316e-04
      -5.7628309589318237e-03 -5.9008359596697188e-03
      8.0371881846425623e-03 -8.1571737542003083e-03
      5.4213627353402790e-03 3.1442601070241147e-03
      7.0484079326233748e-03 -6.8269144651426708e-03
      2.5734366207761023e-04 -5.2313294409376951e-03
      -5.9420758014470578e-03 8.0566567303541128e-03
      -1.6332240178214717e-03 1.5786070268719646e-03
      5.5527152008378626e-03 7.2210880003786221e-03
      -5.9659235468077793e-03 -8.3515561572092604e-04
      -5.0615973314900864e-03 4.5311426462839987e-03
      -4.7607126966713979e-03 -2.6552456207706385e-03
      5.3053097331572365e-03 6.6133435666573736e-03
      3.0677178153086838e-02 5.9851651401198729e-03
      7.2983406449243842e-03 6.9474429913060440e-03
      -6.2809730955776851e-03 6.8720048843868104e-03
      -7.9279799728862420e-03 -5.1760905596537907e-03
      -6.3240162130821656e-03 6.9701751665359061e-03
      7.6146600201872725e-03 5.2435157434136317e-03
      6.9017729354040307e-03 -5.1307040313128402e-03
      -3.0437233338177815e-03 6.5640755587381364e-03
      -4.8710973641433635e-03 4.0324629871261947e-03
      -7.1363830220383846e-03 1.0968193714785484e-02
      -4.0074844305772019e-03 6.7164785903272893e-03
      4.0770372790533572e-03 6.9881371569454776e-03
      8.5085355515988510e-03 -5.4034209121686565e-03
      9.4580182013924777e-03 -6.6823006344233892e-03
      7.0007671178694024e-03 7.6683352738132421e-03
      -7.3459846867782183e-03 -7.6499751571790543e-03
      1.3492911141284519e-02 7.7276492559779017e-03
      4.3273438026556789e-03 4.9723756633481657e-03
      7.2566433572741826e-03 7.6760610780611249e-03
      -8.5199742948253426e-03 -6.3880442302342655e-03
      -1.0359059341291763e-02 -7.2890801188036846e-03
      -5.5148060161482873e-03 -5.5077009888598947e-04
      6.5647055598833312e-03 3.2951189975737628e-03
      -1.0386890462636301e-03 4.5964649650262609e-03
      -4.9130381867275039e-03 -9.4673739039054985e-03
      1.2853593138174131e-03 -6.2120693420509836e-03
      7.7218405226055610e-04 3.9373041220262545e-03
      -5.3985174508843310e-03 -2.5044453491122046e-04
      -5.9489410345521104e-03 -6.4300734302624261e-03
      8.0639677296961247e-03 -8.9391618257879200e-03
      4.3665478884895512e-03 4.8827870738432852e-03
      6.9658859782757649e-03 -5.2656223794764999e-03
      5.2661885297083152e-04 -3.9433622727598665e-03
      -7.2634531125590936e-03 7.9068010387613307e-03
      -8.8591398807013255e-04 7.6098948365872689e-04
      5.9368585503480325e-03 7.3472603088470803e-03
      -6.0013828908675165e-03 -1.2726080434162471e-03
      -5.3840261886641382e-03 3.5293878727157267e-03
      -4.9480708392739096e-03 -1.2105682443835195e-03
      5.6120079446463546e-03 6.1478184948811215e-03
      -1.1788066787258907e-02 -6.2186010728453615e-03
      -4.8955450226428115e-03 -8.5074500591106599e-04
      4.4172541661430167e-03 2.0909847811800110e-03
      -4.9397110686186436e-04 6.1085981922468198e-03
      -5.5170799776420023e-03 -1.0810729886805707e-02
      6.8924036398783502e-04 -6.2899126324166641e-03
      9.5635183087754258e-04 1.9337917796394132e-03
      -5.8073415651851519e-03 1.5498311331271350e-03
      -6.3624148397186889e-03 -4.5117531290741596e-03
      9.3055514939475309e-03 -6.7395550123609937e-03
      5.6047948707586143e-03 4.1973157311704637e-03
      4.8402560204081164e-03 -5.0135227115385393e-03
      1.2357901652258838e-03 -3.8093332852061268e-03
      -6.6322107823067813e-03 7.3571378684485341e-03
      -3.2999936315062464e-05 -2.8791812250398451e-04
      6.5575038400528529e-03 7.9428632854728499e-03
      -5.1798270436003938e-03 -1.5527725121106044e-03
      -3.2182970656367224e-03 4.1678020436670682e-03
      -5.0379934290171284e-03 -3.1683673290407782e-03
      6.9699096204194552e-03 6.3864323628042919e-03
      -1.0272458969554549e-02 -8.3181370471792620e-03
      -6.2281218715424577e-03 4.1498577913031103e-04
      6.4354166767969529e-03 1.7673791222929797e-03
      1.1140700247693272e-04 5.6866521925669706e-03
      -4.4963716469416954e-03 -1.0682168695082442e-02
      -8.1508970707830114e-04 -4.4580756463773463e-03
      -7.2912559103274961e-04 3.3053183885858603e-03
      -4.8902205737886379e-03 1.2567861200204035e-03
      -6.3212428803229503e-03 -4.7050945213871296e-03
      8.1109002956730996e-03 -8.1490042746033883e-03
      5.5948730377779494e-03 2.8925995745984370e-03
      6.2793478909849753e-03 -5.2929104259825232e-03
      -2.3396661254625870e-04 -4.7072538549908435e-03
      -6.8772839731065672e-03 8.3841355685313791e-03
      -9.5340657105192933e-04 1.3990403040571651e-04
      5.3715735803461723e-03 7.3070925062744029e-03
      -4.7176734113772868e-03 -1.0026643280821536e-03
      -4.3056916475356852e-03 3.9045487490973183e-03
      -6.5791914915888910e-03 -2.3415068996897673e-03
      7.1600228319922106e-03 4.8075535727357070e-03
      -3.9676498378583516e-02 -1.2059006344087317e-02
      -8.0245766897934900e-03 -3.3033168907929257e-03
      7.2991530164136327e-03 1.1509093986366106e-03
      1.9278207703442988e-03 8.5966576569630245e-03
      -4.1823430660137134e-03 -1.3865311253949597e-02
      -2.1798692710847650e-03 -8.2532792862734065e-03
      -1.2652345732448553e-03 4.6006463065062621e-03
      -2.6948291321817501e-03 -1.8831666773320328e-03
      -4.8896626252618678e-03 -8.2101545332637499e-03
      1.2027956938262727e-02 -1.0425308271411313e-02
      6.0264142692476597e-03 3.5728739420597235e-03
      3.8440025266076234e-03 -8.1538399181625715e-03
      -9.7922516319726258e-04 -3.4168243980434248e-03
      -1.0397398215927802e-02 1.3220360333036191e-02
      -2.9568390691903841e-03 -1.4756024227402839e-03
      8.8674431832827562e-03 1.1609563567754212e-02
      -8.9843195723254398e-03 -2.6639367306511767e-03
      -6.9381359985796944e-03 2.8311166260947614e-03
      -9.3886608677875676e-03 -5.0443039139717472e-03
      9.1955840635546699e-03 8.6649579149931880e-03
      -1.1504823596807338e-01 -2.9466256500551360e-02
      -2.7059859350179703e-02 -1.4057100645753278e-02
      2.3020379946194530e-02 -5.3746447891543396e-03
      1.3889749589255099e-02 2.1510954257760818e-02
      6.9797365082088509e-04 -3.5063895050879958e-02
      -1.1882148258469864e-02 -2.0197502067649982e-02
      -1.2294128804050898e-02 1.8946346401090639e-02
      -1.4381272941334051e-03 -1.1810834425975933e-02
      2.0338183552985628e-04 -1.7955985808794320e-02
      3.5527815313213133e-02 -3.7333889389742365e-02
      2.0064966898153517e-02 -3.5109754136038759e-03
      4.4377712651791129e-04 -2.5620964159150581e-02
      -1.1415885001349527e-02 2.7491633440050660e-03
      -3.3339956960984428e-02 3.3324177527040658e-02
      -1.5098048733938562e-02 -1.1751396571822647e-02
      2.8209694671555093e-02 3.0760319756611552e-02
      -3.7018871733208072e-02 -1.4747257229556762e-02
      -1.7784587260749642e-02 -3.7652369755367559e-03
      -2.6124014611090981e-02 -1.5861846437289568e-02
      2.8396320379940259e-02 2.3699708723265076e-02
      -2.3423006357058149e-01 -3.6440092129345535e-02
      -3.3160023018319919e-02 -2.3073044792081773e-02
      2.9489503194171336e-02 -1.2664508853840647e-02
      2.0911974108796506e-02 2.6553722995007703e-02
      5.7240916430209591e-03 -4.5482864753445533e-02
      -1.9485897347901137e-02 -2.7345498923707693e-02
      -1.9948633652404325e-02 2.4358635390381227e-02
      6.3113903186711052e-03 -1.9634956398873395e-02
      7.2267467672025966e-03 -2.3952670494059258e-02
      4.2173822830509085e-02 -5.0633881155033568e-02
      2.5043209237671137e-02 -9.3064691137484251e-03
      -7.4484311344944591e-03 -3.2651298279168108e-02
      -1.9047641630533796e-02 8.4812495163347316e-03
      -3.9761731910009215e-02 3.8895734448620843e-02
      -2.0834908875465838e-02 -1.9752721433608122e-02
      3.4309156475106899e-02 3.5369159782817475e-02
      -5.4034762508165357e-02 -2.1992128982523965e-02
      -2.5198961732529730e-02 -1.0102579370165822e-02
      -3.2233139866848691e-02 -2.3787631063793880e-02
      3.4971975311203649e-02 3.0867061948397629e-02
      -2.3500859203943650e-01 -3.6143948424522288e-02
      -3.2009108115153548e-02 -2.1341603374199710e-02
      2.9886670665119155e-02 -1.4527275690304200e-02
      2.0801391536035791e-02 2.5809497288171897e-02
      6.4045564165695094e-03 -4.6073355840817662e-02
      -2.0860232150974291e-02 -2.5199255663848712e-02
      -2.0316054896050817e-02 2.5838463638457248e-02
      4.7969910322995125e-03 -1.8341591740064660e-02
      7.6852312236602455e-03 -2.2030031290889106e-02
      4.3918773959910125e-02 -4.9109637445006925e-02
      2.5099281443343793e-02 -1.1299485068907034e-02
      -7.3768306851094527e-03 -3.2815229721583003e-02
      -1.8421504713318035e-02 8.0960742981846176e-03
      -4.0397234391793359e-02 3.9135204301535581e-02
      -2.2662013939563172e-02 -1.8465228020652341e-02
      3.4267744499295281e-02 3.7510774036691959e-02
      -5.4611310574377334e-02 -2.3231696445240004e-02
      -2.4652872597110027e-02 -9.0249002226258732e-03
      -3.1962197326380851e-02 -2.5815723476130793e-02
      3.4878002201882065e-02 3.0741809032196993e-02
      -4.7349418343048427e-04 4.9407763717173691e-04
      -1.4947955601538998e-05 -6.0405998552800968e-04
      8.7587241765668482e-04 -1.1551985943962311e-03
      5.8375464454631099e-04 -1.2289870768915792e-03
      -5.2893152915763205e-04 -4.0594988705829391e-04
      -4.8612965124038922e-04 -7.9101746860447725e-04
      2.2229348581299566e-04 1.0747041817950815e-03
      8.2058340025619239e-04 -8.6859745154712947e-04
      3.0144024765250976e-04 1.1521363763472147e-03
      6.3380642539112965e-04 -5.9511656907647141e-04
      7.7257823735759202e-04 8.3627098218526190e-04
      -1.0957742459373478e-03 1.9387142677419216e-04
      -8.3048399593597336e-04 1.0834177606126149e-03
      -1.2219184550069577e-03 5.4154151553535865e-05
      8.8640926615739604e-04 -1.1897417104257050e-03
      8.1460266760867124e-04 -5.2555614364662806e-04
      -1.0467511008256298e-03 6.6281595458792940e-04
      1.0199272449838014e-03 8.6943051960598078e-04
      1.2015010382165057e-03 3.0089124071448672e-04
      1.1215983451558428e-03 1.0102593102785040e-03
      -3.5617869766991911e-02 2.0400223090356204e-02
      1.4156444007396544e-02 -1.5193658198544735e-03
      -1.1396751445700473e-02 -4.5799350719121544e-03
      2.3881600163303245e-03 -1.0910101589006788e-02
