<?xml version="1.0"?>
<opencv_storage>
<shapeML type_id="opencv-ml-ann-mlp">
  <layer_sizes type_id="opencv-matrix">
    <rows>1</rows>
    <cols>3</cols>
    <dt>i</dt>
    <data>
      1600 40 1</data></layer_sizes>
  <activation_function>SIGMOID_SYM</activation_function>
  <f_param1>5.9999999999999998e-01</f_param1>
  <f_param2>1.</f_param2>
  <min_val>-9.4999999999999996e-01</min_val>
  <max_val>9.4999999999999996e-01</max_val>
  <min_val1>-9.7999999999999998e-01</min_val1>
  <max_val1>9.7999999999999998e-01</max_val1>
  <training_params>
    <train_method>BACKPROP</train_method>
    <dw_scale>1.0000000000000001e-01</dw_scale>
    <moment_scale>1.0000000000000001e-01</moment_scale>
    <term_criteria><epsilon>9.9999999747524271e-07</epsilon>
      <iterations>4000</iterations></term_criteria></training_params>
  <input_scale>
    1. 0. 5.8364820081315036e-02 -6.7496730706282690e-02
    5.8364820081315036e-02 -6.7496730706282690e-02
    8.2446470952412976e-02 -4.7673129462279612e-02
    4.1364491979727150e-02 -9.5672974646987957e-02
    4.1364491979727150e-02 -9.5672974646987957e-02
    4.7709045342960041e-02 -8.2760588860236808e-02
    4.7709045342960041e-02 -8.2760588860236808e-02
    2.7735454108129082e-02 -1.4433756729740643e-01
    4.7709045342960041e-02 -8.2760588860236808e-02
    2.6342668941056021e-02 -1.5232155510134432e-01
    2.7735454108129082e-02 -1.4433756729740643e-01
    1.4904292241032905e-02 -2.8439822949726051e-01
    1.1062360528128746e-02 -4.1577919672048519e-01
    9.8545580404754522e-03 -4.9574460346473448e-01
    1.2059925124321306e-02 -3.6959158289161553e-01
    1.1778067278916140e-02 -3.8138503569823690e-01
    1.0610087799348000e-02 -4.4172610429938608e-01
    9.6904443244749758e-03 -5.0990195135927852e-01
    8.7444458619812798e-03 -6.2192640467356652e-01
    8.3048872588513886e-03 -7.1071756269626163e-01
    8.7444458619812798e-03 -6.2192640467356652e-01
    9.4674565493715682e-03 -5.3101482482699713e-01
    9.6904443244749758e-03 -5.0990195135927852e-01
    1.4904292241032905e-02 -2.8439822949726051e-01
    1.6082159591748833e-02 -2.6037782196164777e-01
    2.0369999580128584e-02 -2.0023571015840683e-01
    2.3184879783894895e-02 -1.7428089905580857e-01
    2.2367654904622229e-02 -1.8107149208503709e-01
    2.4103446170792617e-02 -1.6724840200141816e-01
    2.2367654904622229e-02 -1.8107149208503709e-01
    3.1376501964752945e-02 -1.2700012700019048e-01
    2.9383902031322340e-02 -1.3592553320611694e-01
    3.1376501964752945e-02 -1.2700012700019048e-01
    2.7735454108129082e-02 -1.4433756729740643e-01
    2.7735454108129082e-02 -1.4433756729740643e-01
    3.7039930424166791e-02 -1.0708823421952983e-01
    3.7039930424166791e-02 -1.0708823421952983e-01 1. 0.
    8.2446470952412976e-02 -4.7673129462279612e-02
    8.2446470952412976e-02 -4.7673129462279612e-02
    4.7709045342960041e-02 -8.2760588860236808e-02
    5.8364820081315036e-02 -6.7496730706282690e-02
    5.8364820081315036e-02 -6.7496730706282690e-02
    3.7039930424166791e-02 -1.0708823421952983e-01
    3.7039930424166791e-02 -1.0708823421952983e-01
    2.5145937898423197e-02 -1.5994184989813393e-01
    2.5145937898423197e-02 -1.5994184989813393e-01
    2.5145937898423197e-02 -1.5994184989813393e-01
    2.4103446170792617e-02 -1.6724840200141816e-01
    1.2262556388684903e-02 -3.6162028533978946e-01
    1.1963163730145030e-02 -3.7354368381881420e-01
    9.1193611356612664e-03 -5.6949479745149945e-01
    8.5088489002871914e-03 -6.6421116415507153e-01
    8.0317089160917097e-03 -8.0344407898726933e-01
    7.9409387586221267e-03 -8.5405606648854304e-01
    7.8504267083684132e-03 -9.5780546268426858e-01
    7.9003997655346068e-03 -1.1283598168530551e+00
    7.8504267083684149e-03 -1.0440533479496770e+00
    7.8455782714416823e-03 -9.7536015585439961e-01
    7.8557703849264984e-03 -1.0583913773705396e+00
    7.8538259674919217e-03 -1.0535880821696646e+00
    7.9590825875119117e-03 -8.4220088196427068e-01
    7.9720946742749977e-03 -8.3435834397089015e-01
    7.9720946742749977e-03 -8.3435834397089015e-01
    8.4246359581646724e-03 -6.8199433947047350e-01
    9.7708438767233237e-03 -5.0283288385994518e-01
    1.1963163730145030e-02 -3.7354368381881420e-01
    1.5116866086387449e-02 -2.7971344051002628e-01
    1.8012751479756211e-02 -2.2914180453839533e-01
    1.6648982112020191e-02 -2.5030102358887496e-01
    1.6357478434187719e-02 -2.5537695922762460e-01
    1.8414677461762972e-02 -2.2360679774997894e-01
    2.0972198164906440e-02 -1.9402850002906638e-01
    2.0972198164906440e-02 -1.9402850002906638e-01
    2.6342668941056021e-02 -1.5232155510134432e-01
    3.3851518536729963e-02 -1.1744404390294068e-01
    3.3851518536729963e-02 -1.1744404390294068e-01
    5.8364820081315036e-02 -6.7496730706282690e-02
    5.8364820081315036e-02 -6.7496730706282690e-02 1. 0.
    4.7709045342960041e-02 -8.2760588860236808e-02
    4.7709045342960041e-02 -8.2760588860236808e-02
    5.8364820081315036e-02 -6.7496730706282690e-02
    3.7039930424166791e-02 -1.0708823421952983e-01
    2.4103446170792617e-02 -1.6724840200141816e-01
    2.2367654904622229e-02 -1.8107149208503709e-01
    1.8847005759981064e-02 -2.1795857001338645e-01
    1.0925094609665887e-02 -4.2325451566018524e-01
    9.5389057339534920e-03 -5.2399091021547239e-01
    8.4574132456473293e-03 -6.7486705694859306e-01
    8.3477330492804040e-03 -6.9990346824748961e-01
    7.9409387586221267e-03 -8.5405606648854304e-01
    7.8431574192560673e-03 -1.0022701504811240e+00
    7.8739881972645590e-03 -1.0927167294163060e+00
    8.7016149409075618e-03 -1.5899685531481436e+00
    8.8348054922912853e-03 -1.6449566416599490e+00
    9.3325056950499426e-03 -1.8347579223601589e+00
    9.1774720996452338e-03 -1.7777450206625718e+00
    8.5818696606723265e-03 -1.5383147316919443e+00
    9.1481502058194369e-03 -1.7667754036953320e+00
    8.8116100544915910e-03 -1.6355427233796127e+00
    8.1242299799145681e-03 -1.3059561525536139e+00
    8.3189033080770299e-03 -1.4142135623730951e+00
    8.1785563027789859e-03 -1.3383345024717586e+00
    7.8520448526107622e-03 -1.0488088481701519e+00
    7.9858518277618213e-03 -8.2656282693466743e-01
    8.3930274340248186e-03 -6.8914177638557528e-01
    8.6401494665942959e-03 -6.3948861358194509e-01
    1.1603393627331546e-02 -3.8914782709350015e-01
    1.4507793658598557e-02 -2.9361010975735174e-01
    1.8012751479756211e-02 -2.2914180453839533e-01
    1.7287204147823112e-02 -2.3990405756162686e-01
    1.7637878643527463e-02 -2.3457178740201490e-01
    1.9313695635478842e-02 -2.1218788062107707e-01
    1.9819467084972894e-02 -2.0628424925175867e-01
    3.3851518536729963e-02 -1.1744404390294068e-01
    3.1376501964752945e-02 -1.2700012700019048e-01
    5.8364820081315036e-02 -6.7496730706282690e-02
    8.2446470952412976e-02 -4.7673129462279612e-02 1. 0.
    5.8364820081315036e-02 -6.7496730706282690e-02
    4.7709045342960041e-02 -8.2760588860236808e-02
    4.1364491979727150e-02 -9.5672974646987957e-02
    2.3184879783894895e-02 -1.7428089905580857e-01
    1.5116866086387449e-02 -2.7971344051002628e-01
    1.4904292241032905e-02 -2.8439822949726051e-01
    1.0032700541776962e-02 -4.8150137634174467e-01
    9.2073387308814880e-03 -5.5901699437494745e-01
    8.5631234235567719e-03 -6.5359350212453726e-01
    8.0400369669761523e-03 -7.9962816637545131e-01
    7.9094834404335700e-03 -1.1388041973930374e+00
    8.0156466911670884e-03 -1.2328828005937948e+00
    8.4086877451727462e-03 -1.4586499149789458e+00
    8.9318349419850243e-03 -1.6836812669551362e+00
    9.7302409778626791e-03 -1.9748417658131499e+00
    1.0032700541776960e-02 -2.0768372618113804e+00
    1.0226583721508323e-02 -2.1406257218422526e+00
    9.7708438767233202e-03 -1.9887323047045016e+00
    8.6203769479924648e-03 -1.5551863718419059e+00
    9.9867610309078269e-03 -2.0615528128088298e+00
    1.0176532281500590e-02 -2.1242645786248002e+00
    1.0176532281500590e-02 -2.1242645786248002e+00
    9.8977164251388625e-03 -2.0317251233235725e+00
    9.6904443244749776e-03 -1.9611613513818407e+00
    8.7228405805919260e-03 -1.5988907445173430e+00
    8.3625540606168565e-03 -1.4361406616345072e+00
    8.0942761704157189e-03 -1.2871000373024994e+00
    7.9094834404335700e-03 -8.7811407991752288e-01
    8.2643925291206437e-03 -7.2158828647118001e-01
    8.6009522850854694e-03 -6.4653416836866962e-01
    9.9867610309078269e-03 -4.8507125007266588e-01
    1.5574598894680387e-02 -2.7017161347914959e-01
    1.7287204147823112e-02 -2.3990405756162686e-01
    1.6958277567831206e-02 -2.4514516892273003e-01
    1.7287204147823112e-02 -2.3990405756162686e-01
    2.2367654904622229e-02 -1.8107149208503709e-01
    3.1376501964752945e-02 -1.2700012700019048e-01
    8.2446470952412976e-02 -4.7673129462279612e-02
    8.2446470952412976e-02 -4.7673129462279612e-02
    8.2446470952412976e-02 -4.7673129462279612e-02
    4.7709045342960041e-02 -8.2760588860236808e-02
    4.7709045342960041e-02 -8.2760588860236808e-02
    2.3184879783894895e-02 -1.7428089905580857e-01
    2.0972198164906440e-02 -1.9402850002906638e-01
    1.1281918531719998e-02 -4.0446061674941758e-01
    1.0176532281500590e-02 -4.7075115315785043e-01
    9.8977164251388625e-03 -4.9219256508683729e-01
    8.2911323754082059e-03 -7.1433463628942129e-01
    7.8842915790683712e-03 -9.0267093384844010e-01
    7.9590825875119117e-03 -1.1873651778512666e+00
    8.5088489002871914e-03 -1.5055453054181624e+00
    8.6203769479924648e-03 -1.5551863718419059e+00
    9.4327497145561563e-03 -1.8708286933869711e+00
    9.7302409778626791e-03 -1.9748417658131499e+00
    8.9318349419850243e-03 -1.6836812669551362e+00
    9.8977164251388625e-03 -2.0317251233235725e+00
    9.4674565493715682e-03 -1.8831865952627527e+00
    9.0360775543181678e-03 -1.7242311251607116e+00
    8.9571966094867516e-03 -1.6936413589162196e+00
    9.7302409778626791e-03 -1.9748417658131499e+00
    9.0633357687378603e-03 -1.7346731418601340e+00
    8.9571966094867516e-03 -1.6936413589162196e+00
    8.3625540606168565e-03 -1.4361406616345072e+00
    8.4408763319516189e-03 -1.4739952070829800e+00
    8.9069237395078705e-03 -1.6738351585299653e+00
    9.5389057339534938e-03 -1.9084300519426685e+00
    8.9571966094867516e-03 -1.6936413589162196e+00
    8.0317089160917097e-03 -1.2446416946161167e+00
    7.8433187396880020e-03 -9.9322026081151127e-01
    8.0235793913678403e-03 -8.0727033468251952e-01
    8.3048872588513886e-03 -7.1071756269626163e-01
    8.7228405805919295e-03 -6.2543360353359823e-01
    1.4507793658598557e-02 -2.9361010975735174e-01
    1.6648982112020191e-02 -2.5030102358887496e-01
    1.6357478434187719e-02 -2.5537695922762460e-01
    2.1634555662940751e-02 -1.8764665626020038e-01
    2.2367654904622229e-02 -1.8107149208503709e-01
    5.8364820081315036e-02 -6.7496730706282690e-02
    5.8364820081315036e-02 -6.7496730706282690e-02
    8.2446470952412976e-02 -4.7673129462279612e-02
    4.1364491979727150e-02 -9.5672974646987957e-02
    2.4103446170792617e-02 -1.6724840200141816e-01
    2.3184879783894895e-02 -1.7428089905580857e-01
    1.9313695635478842e-02 -2.1218788062107707e-01
    1.0551472457473069e-02 -4.4538698366408436e-01
    9.4327497145561545e-03 -5.3452248382484868e-01
    8.7016149409075583e-03 -6.2894325678328433e-01
    7.8436414104169142e-03 -1.0114028771051198e+00
    8.3048872588513886e-03 -1.4070286883108423e+00
    7.9654961674131639e-03 -1.1929278784054476e+00
    8.0572957094966948e-03 -1.2625837188316760e+00
    9.1481502058194369e-03 -1.7667754036953320e+00
    8.2386575215518953e-03 -1.3719886811400708e+00
    8.6807622043837858e-03 -1.5811388300841895e+00
    8.6401494665942977e-03 -1.5637495003996007e+00
    9.8977164251388625e-03 -2.0317251233235725e+00
    9.1193611356612629e-03 -1.7559422921421226e+00
    1.0438238955490370e-02 -2.2090722034374517e+00
    9.1193611356612629e-03 -1.7559422921421226e+00
    9.8545580404754522e-03 -2.0171676968565060e+00
    1.1869253677038323e-02 -2.6491851234260366e+00
    9.8122752026772470e-03 -2.0028388942607536e+00
    9.5028362342334007e-03 -1.8957188610128877e+00
    1.0383533793521745e-02 -2.1914907207075656e+00
    1.0438238955490370e-02 -2.2090722034374517e+00
    9.9867610309078269e-03 -2.0615528128088298e+00
    1.0079622296887320e-02 -2.0923787373436502e+00
    8.8584174867170837e-03 -1.6544751843388947e+00
    8.0942761704157189e-03 -1.2871000373024994e+00
    7.8433187396880020e-03 -9.9322026081151127e-01
    7.8465472401703651e-03 -9.7094349863060503e-01
    8.0847182979516385e-03 -7.8069779754709867e-01
    8.8348054922912835e-03 -6.0791875887432878e-01
    1.3504437057426525e-02 -3.2015621187164245e-01
    1.6648982112020191e-02 -2.5030102358887496e-01
    1.8847005759981064e-02 -2.1795857001338645e-01
    1.9313695635478842e-02 -2.1218788062107707e-01
    2.7735454108129082e-02 -1.4433756729740643e-01
    5.8364820081315036e-02 -6.7496730706282690e-02
    8.2446470952412976e-02 -4.7673129462279612e-02
    2.6342668941056021e-02 -1.5232155510134432e-01
    2.4103446170792617e-02 -1.6724840200141816e-01
    1.2159674136218733e-02 -3.6561741280331156e-01
    1.2059925124321306e-02 -3.6959158289161553e-01
    9.7302409778626791e-03 -5.0636968354183332e-01
    8.4408763319516189e-03 -6.7842825756468284e-01
    7.9720946742749977e-03 -8.3435834397089015e-01
    8.1901039288996384e-03 -1.3449599241063761e+00
    8.2261590132073920e-03 -1.3651506743346553e+00
    8.4742512023101967e-03 -1.4896234766509897e+00
    8.9830179074059761e-03 -1.7037179541393102e+00
    1.0176532281500590e-02 -2.1242645786248002e+00
    1.0032700541776960e-02 -2.0768372618113804e+00
    1.0438238955490370e-02 -2.2090722034374517e+00
    9.1774720996452338e-03 -1.7777450206625718e+00
    9.6514325937639648e-03 -1.9476853598231836e+00
    9.8122752026772470e-03 -2.0028388942607536e+00
    9.7302409778626791e-03 -1.9748417658131499e+00
    9.7302409778626791e-03 -1.9748417658131499e+00
    1.0438238955490370e-02 -2.2090722034374517e+00
    9.2687559367301206e-03 -1.8115058371582067e+00
    8.2139024993032588e-03 -1.3583671412113076e+00
    9.5756826557226345e-03 -1.9213248974866606e+00
    9.4674565493715682e-03 -1.8831865952627527e+00
    9.9417753921464559e-03 -2.0465178460296038e+00
    1.0176532281500590e-02 -2.1242645786248002e+00
    1.0032700541776960e-02 -2.0768372618113804e+00
    9.6131852800848318e-03 -1.9344083032987029e+00
    9.5389057339534938e-03 -1.9084300519426685e+00
    8.1242299799145681e-03 -1.3059561525536139e+00
    7.9409387586221267e-03 -1.1708833169600994e+00
    7.8520448526107605e-03 -9.5346258924559235e-01
    8.1040459701944498e-03 -7.7319214103385825e-01
    8.5631234235567719e-03 -6.5359350212453726e-01
    1.4507793658598557e-02 -2.9361010975735174e-01
    1.8847005759981064e-02 -2.1795857001338645e-01
    1.8847005759981064e-02 -2.1795857001338645e-01
    2.7735454108129082e-02 -1.4433756729740643e-01
    2.9383902031322340e-02 -1.3592553320611694e-01
    8.2446470952412976e-02 -4.7673129462279612e-02
    2.5145937898423197e-02 -1.5994184989813393e-01
    2.4103446170792617e-02 -1.6724840200141816e-01
    1.1963163730145030e-02 -3.7354368381881420e-01
    1.0670097125366528e-02 -4.3805466769787071e-01
    9.0633357687378603e-03 -5.7647747916802039e-01
    7.8806889782044448e-03 -9.0681533378454549e-01
    8.3776508822999054e-03 -1.4435775295826980e+00
    8.4086877451727462e-03 -1.4586499149789458e+00
    8.3930274340248169e-03 -1.4510802192907533e+00
    9.4327497145561563e-03 -1.8708286933869711e+00
    1.0127555905114412e-02 -2.1081851067789183e+00
    1.1519688131863081e-02 -2.5445188683101652e+00
    1.1519688131863081e-02 -2.5445188683101652e+00
    1.0551472457473067e-02 -2.2452384929915477e+00
    9.3652897738659632e-03 -1.8466185312619383e+00
    1.0226583721508323e-02 -2.1406257218422526e+00
    1.3504437057426516e-02 -3.1234752377721193e+00
    1.2591617287173786e-02 -2.8613807855649003e+00
    1.1519688131863081e-02 -2.5445188683101652e+00
    1.0670097125366531e-02 -2.2828200992705949e+00
    9.7708438767233202e-03 -1.9887323047045016e+00
    1.3975073080956293e-02 -3.2565723019602570e+00
    1.0438238955490370e-02 -2.2090722034374517e+00
    1.0079622296887320e-02 -2.0923787373436502e+00
    8.9069237395078705e-03 -1.6738351585299653e+00
    9.7708438767233202e-03 -1.9887323047045016e+00
    9.7302409778626791e-03 -1.9748417658131499e+00
    8.7016149409075618e-03 -1.5899685531481436e+00
    8.8116100544915910e-03 -1.6355427233796127e+00
    1.0731549527087594e-02 -2.3021728866442670e+00
    8.4086877451727462e-03 -1.4586499149789458e+00
    8.0485652965855223e-03 -1.2565617248750867e+00
    7.8578784677190202e-03 -9.4053994312596023e-01
    8.0847182979516385e-03 -7.8069779754709867e-01
    9.0633357687378603e-03 -5.7647747916802039e-01
    1.3975073080956300e-02 -3.0707133368359762e-01
    1.8847005759981064e-02 -2.1795857001338645e-01
    2.2367654904622229e-02 -1.8107149208503709e-01
    2.7735454108129082e-02 -1.4433756729740643e-01
    3.1376501964752945e-02 -1.2700012700019048e-01
    2.5145937898423197e-02 -1.5994184989813393e-01
    1.3359411151945149e-02 -3.2444284226152503e-01
    1.2159674136218733e-02 -3.6561741280331156e-01
    8.9830179074059761e-03 -5.8695161224921355e-01
    7.8920046264698458e-03 -8.9442719099991586e-01
    8.3625540606168565e-03 -1.4361406616345072e+00
    8.8116100544915910e-03 -1.6355427233796127e+00
    9.3003324695872230e-03 -1.8230549667425566e+00
    9.0093082983993700e-03 -1.7139136501002612e+00
    8.7228405805919260e-03 -1.5988907445173430e+00
    9.3652897738659632e-03 -1.8466185312619383e+00
    1.0992862793655071e-02 -2.3836564731139824e+00
    1.1206815816655070e-02 -2.4494897427831797e+00
    9.3986993781103537e-03 -1.8586407545691699e+00
    9.3325056950499426e-03 -1.8347579223601589e+00
    1.0858992590101436e-02 -2.3420704766609934e+00
    1.0032700541776960e-02 -2.0768372618113804e+00
    1.1062360528128742e-02 -2.4051227379523441e+00
    1.2262556388684903e-02 -2.7653315937748606e+00
    9.2073387308814845e-03 -1.7888543819998313e+00
    1.1963163730145032e-02 -2.6770630673681688e+00
    1.0731549527087594e-02 -2.3021728866442670e+00
    1.0670097125366531e-02 -2.2828200992705949e+00
    1.1519688131863081e-02 -2.5445188683101652e+00
    1.1778067278916138e-02 -2.6220221204253784e+00
    1.0731549527087594e-02 -2.3021728866442670e+00
    1.0079622296887320e-02 -2.0923787373436502e+00
    1.0176532281500590e-02 -2.1242645786248002e+00
    9.7708438767233202e-03 -1.9887323047045016e+00
    1.0032700541776960e-02 -2.0768372618113804e+00
    1.0383533793521745e-02 -2.1914907207075656e+00
    8.9830179074059761e-03 -1.7037179541393102e+00
    7.9468051064551272e-03 -1.1763433953500924e+00
    7.9003997655346068e-03 -8.8624212335826991e-01
    8.0572957094966931e-03 -7.9202668708998103e-01
    8.7664377281200766e-03 -6.1842149143268843e-01
    1.8847005759981064e-02 -2.1795857001338645e-01
    2.1634555662940751e-02 -1.8764665626020038e-01
    2.2367654904622229e-02 -1.8107149208503709e-01
    8.2446470952412976e-02 -4.7673129462279612e-02
    2.0369999580128584e-02 -2.0023571015840683e-01
    1.2591617287173782e-02 -3.4948162266441518e-01
    1.0438238955490372e-02 -4.5267873021259264e-01
    7.9468051064551272e-03 -8.5009190679596514e-01
    8.5631234235567701e-03 -1.5300029708824392e+00
    8.7444458619812780e-03 -1.6079072901316596e+00
    8.7444458619812780e-03 -1.6079072901316596e+00
    9.6131852800848318e-03 -1.9344083032987029e+00
    9.4674565493715682e-03 -1.8831865952627527e+00
    9.9867610309078269e-03 -2.0615528128088298e+00
    8.8584174867170837e-03 -1.6544751843388947e+00
    1.0383533793521745e-02 -2.1914907207075656e+00
    1.0226583721508323e-02 -2.1406257218422526e+00
    1.2059925124321302e-02 -2.7056893238103168e+00
    1.0610087799348003e-02 -2.2638462845343548e+00
    9.9867610309078269e-03 -2.0615528128088298e+00
    1.2368727689207800e-02 -2.7964262908219131e+00
    9.4674565493715682e-03 -1.8831865952627527e+00
    1.2591617287173786e-02 -2.8613807855649003e+00
    1.4904292241032898e-02 -3.5161962919661285e+00
    1.2159674136218726e-02 -2.7350994919324636e+00
    1.1963163730145032e-02 -2.6770630673681688e+00
    1.1206815816655070e-02 -2.4494897427831797e+00
    1.3085093113004456e-02 -3.0037854904648662e+00
    1.1519688131863081e-02 -2.5445188683101652e+00
    9.9867610309078269e-03 -2.0615528128088298e+00
    1.1519688131863081e-02 -2.5445188683101652e+00
    1.1206815816655070e-02 -2.4494897427831797e+00
    1.0277743980503760e-02 -2.1572774865200239e+00
    1.0731549527087594e-02 -2.3021728866442670e+00
    1.0330048358911121e-02 -2.1742292260184359e+00
    9.8977164251388625e-03 -2.0317251233235725e+00
    8.5818696606723265e-03 -1.5383147316919443e+00
    7.8504267083684149e-03 -1.0440533479496770e+00
    7.8708887476950807e-03 -9.1934122311513289e-01
    8.2139024993032588e-03 -7.3617799611102341e-01
    1.3975073080956300e-02 -3.0707133368359762e-01
    2.1634555662940751e-02 -1.8764665626020038e-01
    2.1634555662940751e-02 -1.8764665626020038e-01
    2.9383902031322340e-02 -1.3592553320611694e-01
    2.0369999580128584e-02 -2.0023571015840683e-01
    1.2059925124321306e-02 -3.6959158289161553e-01
    8.1452882007714868e-03 -7.5828754440515511e-01
    8.1452882007714868e-03 -1.3187609467915740e+00
    8.8584174867170837e-03 -1.6544751843388947e+00
    8.4246359581646724e-03 -1.4662878298615178e+00
    9.1193611356612629e-03 -1.7559422921421226e+00
    8.8824541225608587e-03 -1.6641005886756874e+00
    9.2687559367301206e-03 -1.8115058371582067e+00
    1.0731549527087594e-02 -2.3021728866442670e+00
    9.6904443244749776e-03 -1.9611613513818407e+00
    9.3003324695872230e-03 -1.8230549667425566e+00
    9.5756826557226345e-03 -1.9213248974866606e+00
    1.0992862793655071e-02 -2.3836564731139824e+00
    1.0551472457473067e-02 -2.2452384929915477e+00
    1.0670097125366531e-02 -2.2828200992705949e+00
    9.8977164251388625e-03 -2.0317251233235725e+00
    9.0360775543181678e-03 -1.7242311251607116e+00
    9.9417753921464559e-03 -2.0465178460296038e+00
    1.1206815816655070e-02 -2.4494897427831797e+00
    1.1206815816655070e-02 -2.4494897427831797e+00
    1.1778067278916138e-02 -2.6220221204253784e+00
    1.1603393627331550e-02 -2.5697175478760448e+00
    1.0858992590101436e-02 -2.3420704766609934e+00
    1.1206815816655070e-02 -2.4494897427831797e+00
    1.0925094609665885e-02 -2.3626446098046157e+00
    1.1603393627331550e-02 -2.5697175478760448e+00
    1.0494204355604485e-02 -2.2269843868917136e+00
    1.0731549527087594e-02 -2.3021728866442670e+00
    1.1438268740145498e-02 -2.5199206336708295e+00
    1.0858992590101436e-02 -2.3420704766609934e+00
    1.0610087799348003e-02 -2.2638462845343548e+00
    1.0032700541776960e-02 -2.0768372618113804e+00
    8.4742512023101967e-03 -1.4896234766509897e+00
    7.8465472401703651e-03 -1.0299260476128380e+00
    7.8842915790683712e-03 -9.0267093384844010e-01
    9.1774720996452321e-03 -5.6251036474696281e-01
    1.5116866086387449e-02 -2.7971344051002628e-01
    2.2367654904622229e-02 -1.8107149208503709e-01
    4.7709045342960041e-02 -8.2760588860236808e-02
    1.3359411151945149e-02 -3.2444284226152503e-01
    1.0670097125366528e-02 -4.3805466769787071e-01
    7.8601506097527515e-03 -1.0680714859170830e+00
    8.3048872588513886e-03 -1.4070286883108423e+00
    8.3331840350573151e-03 -1.4214597937351170e+00
    8.7016149409075618e-03 -1.5899685531481436e+00
    9.3652897738659632e-03 -1.8466185312619383e+00
    9.0360775543181678e-03 -1.7242311251607116e+00
    1.1133654674384838e-02 -2.4270609798684499e+00
    1.1281918531719995e-02 -2.4724286088391811e+00
    9.6904443244749776e-03 -1.9611613513818407e+00
    9.3325056950499426e-03 -1.8347579223601589e+00
    8.9571966094867516e-03 -1.6936413589162196e+00
    1.1133654674384838e-02 -2.4270609798684499e+00
    1.0794496596289348e-02 -2.3219182474467295e+00
    1.0032700541776960e-02 -2.0768372618113804e+00
    9.2073387308814845e-03 -1.7888543819998313e+00
    1.1869253677038323e-02 -2.6491851234260366e+00
    1.3975073080956293e-02 -3.2565723019602570e+00
    1.3219731826533019e-02 -3.0423369230721908e+00
    1.1133654674384838e-02 -2.4270609798684499e+00
    9.8545580404754522e-03 -2.0171676968565060e+00
    1.0551472457473067e-02 -2.2452384929915477e+00
    1.2262556388684903e-02 -2.7653315937748606e+00
    1.2478354962115539e-02 -2.8284271247461885e+00
    9.9867610309078269e-03 -2.0615528128088298e+00
    1.0731549527087594e-02 -2.3021728866442670e+00
    1.2059925124321302e-02 -2.7056893238103168e+00
    1.1281918531719995e-02 -2.4724286088391811e+00
    9.9867610309078269e-03 -2.0615528128088298e+00
    9.6904443244749776e-03 -1.9611613513818407e+00
    1.0176532281500590e-02 -2.1242645786248002e+00
    9.5389057339534938e-03 -1.9084300519426685e+00
    9.6514325937639648e-03 -1.9476853598231836e+00
    8.2261590132073920e-03 -1.3651506743346553e+00
    7.8441254911882363e-03 -9.8425098425147639e-01
    7.9094834404335700e-03 -8.7811407991752288e-01
    1.2368727689207798e-02 -3.5759926992607577e-01
    1.9313695635478842e-02 -2.1218788062107707e-01
    2.4103446170792617e-02 -1.6724840200141816e-01
    1.3359411151945149e-02 -3.2444284226152503e-01
    8.1140298391319098e-03 -7.6945289767005998e-01
    8.1040459701944515e-03 -1.2933395813657269e+00
    8.3477330492804040e-03 -1.4287684593190133e+00
    9.6904443244749776e-03 -1.9611613513818407e+00
    9.3652897738659632e-03 -1.8466185312619383e+00
    8.7016149409075618e-03 -1.5899685531481436e+00
    9.5389057339534938e-03 -1.9084300519426685e+00
    1.1133654674384838e-02 -2.4270609798684499e+00
    9.0633357687378603e-03 -1.7346731418601340e+00
    1.0032700541776960e-02 -2.0768372618113804e+00
    9.6904443244749776e-03 -1.9611613513818407e+00
    1.1359041682772100e-02 -2.4958982745138694e+00
    1.1062360528128742e-02 -2.4051227379523441e+00
    1.1062360528128742e-02 -2.4051227379523441e+00
    9.9867610309078269e-03 -2.0615528128088298e+00
    1.1062360528128742e-02 -2.4051227379523441e+00
    1.1603393627331550e-02 -2.5697175478760448e+00
    1.1603393627331550e-02 -2.5697175478760448e+00
    1.0383533793521745e-02 -2.1914907207075656e+00
    1.0330048358911121e-02 -2.1742292260184359e+00
    1.0925094609665885e-02 -2.3626446098046157e+00
    1.0330048358911121e-02 -2.1742292260184359e+00
    1.2478354962115539e-02 -2.8284271247461885e+00
    1.1206815816655070e-02 -2.4494897427831797e+00
    1.4322526914704533e-02 -3.3541019662496838e+00
    1.2955213043411323e-02 -2.9664793948382662e+00
    1.3655142198921355e-02 -3.1662280397975131e+00
    1.0438238955490370e-02 -2.2090722034374517e+00
    1.2059925124321302e-02 -2.7056893238103168e+00
    1.1869253677038323e-02 -2.6491851234260366e+00
    9.3325056950499426e-03 -1.8347579223601589e+00
    1.0438238955490370e-02 -2.2090722034374517e+00
    1.0610087799348003e-02 -2.2638462845343548e+00
    8.9571966094867516e-03 -1.6936413589162196e+00
    7.8436414104169142e-03 -1.0114028771051198e+00
    7.8504267083684132e-03 -9.5780546268426858e-01
    9.5389057339534920e-03 -5.2399091021547239e-01
    1.8847005759981064e-02 -2.1795857001338645e-01
    1.6357478434187719e-02 -2.5537695922762460e-01
    1.1963163730145030e-02 -3.7354368381881420e-01
    7.8476781575732880e-03 -1.0346122632229275e+00
    8.3048872588513886e-03 -1.4070286883108423e+00
    9.6514325937639648e-03 -1.9476853598231836e+00
    9.7302409778626791e-03 -1.9748417658131499e+00
    9.0633357687378603e-03 -1.7346731418601340e+00
    9.1481502058194369e-03 -1.7667754036953320e+00
    1.2478354962115539e-02 -2.8284271247461885e+00
    1.0127555905114412e-02 -2.1081851067789183e+00
    9.5028362342334007e-03 -1.8957188610128877e+00
    9.4327497145561563e-03 -1.8708286933869711e+00
    1.0858992590101436e-02 -2.3420704766609934e+00
    1.0330048358911121e-02 -2.1742292260184359e+00
    1.0494204355604485e-02 -2.2269843868917136e+00
    1.2262556388684903e-02 -2.7653315937748606e+00
    1.0925094609665885e-02 -2.3626446098046157e+00
    1.0383533793521745e-02 -2.1914907207075656e+00
    1.1359041682772100e-02 -2.4958982745138694e+00
    1.0992862793655071e-02 -2.3836564731139824e+00
    1.0670097125366531e-02 -2.2828200992705949e+00
    1.0610087799348003e-02 -2.2638462845343548e+00
    1.1963163730145032e-02 -2.6770630673681688e+00
    1.4322526914704533e-02 -3.3541019662496838e+00
    1.2478354962115539e-02 -2.8284271247461885e+00
    1.4701503305573422e-02 -3.4598537881381808e+00
    1.3655142198921355e-02 -3.1662280397975131e+00
    1.2955213043411323e-02 -2.9664793948382662e+00
    1.1133654674384838e-02 -2.4270609798684499e+00
    9.3325056950499426e-03 -1.8347579223601589e+00
    9.6514325937639648e-03 -1.9476853598231836e+00
    1.0032700541776960e-02 -2.0768372618113804e+00
    1.0858992590101436e-02 -2.3420704766609934e+00
    9.9417753921464559e-03 -2.0465178460296038e+00
    1.1062360528128742e-02 -2.4051227379523441e+00
    9.4327497145561563e-03 -1.8708286933869711e+00
    7.9297450375101879e-03 -1.1600623607595686e+00
    7.8578784677190202e-03 -1.0632190661423897e+00
    7.9244154594654524e-03 -8.6602540378443882e-01
    1.6082159591748833e-02 -2.6037782196164777e-01
    1.3219731826533025e-02 -3.2869469269372925e-01
    8.8116100544915910e-03 -6.1141784051574299e-01
    7.9003997655346068e-03 -1.1283598168530551e+00
    8.7016149409075618e-03 -1.5899685531481436e+00
    9.8122752026772470e-03 -2.0028388942607536e+00
    1.0925094609665885e-02 -2.3626446098046157e+00
    1.0610087799348003e-02 -2.2638462845343548e+00
    1.1281918531719995e-02 -2.4724286088391811e+00
    1.2262556388684903e-02 -2.7653315937748606e+00
    9.4327497145561563e-03 -1.8708286933869711e+00
    9.5028362342334007e-03 -1.8957188610128877e+00
    1.2159674136218726e-02 -2.7350994919324636e+00
    1.3655142198921355e-02 -3.1662280397975131e+00
    1.5574598894680384e-02 -3.7013511046643481e+00
    1.2478354962115539e-02 -2.8284271247461885e+00
    1.1689484757952007e-02 -2.5955427380922007e+00
    1.1206815816655070e-02 -2.4494897427831797e+00
    1.0277743980503760e-02 -2.1572774865200239e+00
    1.0610087799348003e-02 -2.2638462845343548e+00
    1.0226583721508323e-02 -2.1406257218422526e+00
    1.0731549527087594e-02 -2.3021728866442670e+00
    1.1359041682772100e-02 -2.4958982745138694e+00
    1.1281918531719995e-02 -2.4724286088391811e+00
    1.0925094609665885e-02 -2.3626446098046157e+00
    1.0610087799348003e-02 -2.2638462845343548e+00
    1.3359411151945154e-02 -3.0822070014844893e+00
    1.3219731826533019e-02 -3.0423369230721908e+00
    1.2829831285940901e-02 -2.9303509212616716e+00
    1.2708707059231147e-02 -2.8953374109772185e+00
    1.5821614628292305e-02 -3.7692037026040581e+00
    1.1963163730145032e-02 -2.6770630673681688e+00
    1.6082159591748822e-02 -3.8405728739343017e+00
    1.1206815816655070e-02 -2.4494897427831797e+00
    1.0079622296887320e-02 -2.0923787373436502e+00
    9.1481502058194369e-03 -1.7667754036953320e+00
    9.8977164251388625e-03 -2.0317251233235725e+00
    8.9318349419850243e-03 -1.6836812669551362e+00
    7.8431574192560673e-03 -1.0022701504811240e+00
    7.8739881972645590e-03 -9.1515026088615647e-01
    1.0079622296887317e-02 -4.7792494836261629e-01
    1.4904292241032905e-02 -2.8439822949726051e-01
    8.3048872588513886e-03 -7.1071756269626163e-01
    7.9788794369279568e-03 -1.2041594578792294e+00
    8.4574132456473293e-03 -1.4817733206914760e+00
    9.7708438767233202e-03 -1.9887323047045016e+00
    9.3003324695872230e-03 -1.8230549667425566e+00
    1.1281918531719995e-02 -2.4724286088391811e+00
    1.1603393627331550e-02 -2.5697175478760448e+00
    1.0032700541776960e-02 -2.0768372618113804e+00
    9.5756826557226345e-03 -1.9213248974866606e+00
    9.4674565493715682e-03 -1.8831865952627527e+00
    9.3652897738659632e-03 -1.8466185312619383e+00
    1.1963163730145032e-02 -2.6770630673681688e+00
    1.0992862793655071e-02 -2.3836564731139824e+00
    1.0858992590101436e-02 -2.3420704766609934e+00
    1.2262556388684903e-02 -2.7653315937748606e+00
    1.0383533793521745e-02 -2.1914907207075656e+00
    9.4327497145561563e-03 -1.8708286933869711e+00
    1.3504437057426516e-02 -3.1234752377721193e+00
    1.2368727689207800e-02 -2.7964262908219131e+00
    1.3085093113004456e-02 -3.0037854904648662e+00
    1.1869253677038323e-02 -2.6491851234260366e+00
    1.2591617287173786e-02 -2.8613807855649003e+00
    1.2262556388684903e-02 -2.7653315937748606e+00
    1.2368727689207800e-02 -2.7964262908219131e+00
    1.2708707059231147e-02 -2.8953374109772185e+00
    1.1689484757952007e-02 -2.5955427380922007e+00
    1.3811888984679567e-02 -3.2105595007244951e+00
    1.2708707059231147e-02 -2.8953374109772185e+00
    1.3811888984679567e-02 -3.2105595007244951e+00
    1.1689484757952007e-02 -2.5955427380922007e+00
    1.3085093113004456e-02 -3.0037854904648662e+00
    1.1778067278916138e-02 -2.6220221204253784e+00
    1.2262556388684903e-02 -2.7653315937748606e+00
    1.0032700541776960e-02 -2.0768372618113804e+00
    1.0992862793655071e-02 -2.3836564731139824e+00
    8.8348054922912853e-03 -1.6449566416599490e+00
    8.0847182979516367e-03 -1.2809053684305687e+00
    7.8433187396880020e-03 -9.9322026081151127e-01
    8.4913948328814663e-03 -6.6775866849054244e-01
    1.3811888984679560e-02 -3.1147219036879414e-01
    7.9352524429923757e-03 -8.5803290871676063e-01
    8.0317089160917097e-03 -1.2446416946161167e+00
    8.6203769479924648e-03 -1.5551863718419059e+00
    1.0127555905114412e-02 -2.1081851067789183e+00
    1.0551472457473067e-02 -2.2452384929915477e+00
    1.0176532281500590e-02 -2.1242645786248002e+00
    1.1519688131863081e-02 -2.5445188683101652e+00
    1.0226583721508323e-02 -2.1406257218422526e+00
    9.6131852800848318e-03 -1.9344083032987029e+00
    8.7444458619812780e-03 -1.6079072901316596e+00
    9.6904443244749776e-03 -1.9611613513818407e+00
    1.0438238955490370e-02 -2.2090722034374517e+00
    1.0925094609665885e-02 -2.3626446098046157e+00
    1.0858992590101436e-02 -2.3420704766609934e+00
    1.1438268740145498e-02 -2.5199206336708295e+00
    9.9417753921464559e-03 -2.0465178460296038e+00
    1.0277743980503760e-02 -2.1572774865200239e+00
    1.1281918531719995e-02 -2.4724286088391811e+00
    1.0731549527087594e-02 -2.3021728866442670e+00
    1.1281918531719995e-02 -2.4724286088391811e+00
    1.2478354962115539e-02 -2.8284271247461885e+00
    1.2059925124321302e-02 -2.7056893238103168e+00
    1.1133654674384838e-02 -2.4270609798684499e+00
    1.0992862793655071e-02 -2.3836564731139824e+00
    9.8545580404754522e-03 -2.0171676968565060e+00
    1.0731549527087594e-02 -2.3021728866442670e+00
    1.0610087799348003e-02 -2.2638462845343548e+00
    1.3359411151945154e-02 -3.0822070014844893e+00
    1.5116866086387449e-02 -3.5750874115187732e+00
    1.1963163730145032e-02 -2.6770630673681688e+00
    1.2059925124321302e-02 -2.7056893238103168e+00
    1.4145127435910877e-02 -3.3043787493141465e+00
    1.0551472457473067e-02 -2.2452384929915477e+00
    1.0226583721508323e-02 -2.1406257218422526e+00
    1.0858992590101436e-02 -2.3420704766609934e+00
    9.9417753921464559e-03 -2.0465178460296038e+00
    7.9003997655346068e-03 -1.1283598168530551e+00
    7.8465472401703651e-03 -1.0299260476128380e+00
    7.9720946742749977e-03 -8.3435834397089015e-01
    1.0226583721508318e-02 -4.6715312714236978e-01
    7.9048551111692861e-03 -8.8217107550157925e-01
    7.8436414104169142e-03 -1.0114028771051198e+00
    8.7664377281200800e-03 -1.6170201292379318e+00
    1.0383533793521745e-02 -2.1914907207075656e+00
    9.9867610309078269e-03 -2.0615528128088298e+00
    1.0330048358911121e-02 -2.1742292260184359e+00
    1.0032700541776960e-02 -2.0768372618113804e+00
    9.6131852800848318e-03 -1.9344083032987029e+00
    9.9417753921464559e-03 -2.0465178460296038e+00
    1.1281918531719995e-02 -2.4724286088391811e+00
    1.0858992590101436e-02 -2.3420704766609934e+00
    1.3085093113004456e-02 -3.0037854904648662e+00
    1.2368727689207800e-02 -2.7964262908219131e+00
    1.4322526914704533e-02 -3.3541019662496838e+00
    1.1062360528128742e-02 -2.4051227379523441e+00
    1.0079622296887320e-02 -2.0923787373436502e+00
    9.5756826557226345e-03 -1.9213248974866606e+00
    1.1519688131863081e-02 -2.5445188683101652e+00
    1.0670097125366531e-02 -2.2828200992705949e+00
    1.1963163730145032e-02 -2.6770630673681688e+00
    1.0925094609665885e-02 -2.3626446098046157e+00
    1.0925094609665885e-02 -2.3626446098046157e+00
    1.0551472457473067e-02 -2.2452384929915477e+00
    1.3219731826533019e-02 -3.0423369230721908e+00
    1.1778067278916138e-02 -2.6220221204253784e+00
    1.1281918531719995e-02 -2.4724286088391811e+00
    1.1689484757952007e-02 -2.5955427380922007e+00
    1.3085093113004456e-02 -3.0037854904648662e+00
    1.3219731826533019e-02 -3.0423369230721908e+00
    1.4904292241032898e-02 -3.5161962919661285e+00
    1.4145127435910877e-02 -3.3043787493141465e+00
    1.4145127435910877e-02 -3.3043787493141465e+00
    1.0858992590101436e-02 -2.3420704766609934e+00
    1.1963163730145032e-02 -2.6770630673681688e+00
    9.3325056950499426e-03 -1.8347579223601589e+00
    9.8977164251388625e-03 -2.0317251233235725e+00
    7.9352524429923757e-03 -1.1654564642462952e+00
    7.8441254911882363e-03 -1.0160010160015238e+00
    7.8772547347198477e-03 -9.1097503734855378e-01
    8.8584174867170837e-03 -6.0442127477396157e-01
    7.8651888037197318e-03 -9.2777125072449074e-01
    7.8436414104169142e-03 -1.0114028771051198e+00
    8.0317089160917097e-03 -1.2446416946161167e+00
    8.2018850788232751e-03 -1.3516371839081214e+00
    8.9571966094867516e-03 -1.6936413589162196e+00
    9.9417753921464559e-03 -2.0465178460296038e+00
    9.2377624249310505e-03 -1.8001068344363942e+00
    1.0330048358911121e-02 -2.1742292260184359e+00
    9.4674565493715682e-03 -1.8831865952627527e+00
    9.4674565493715682e-03 -1.8831865952627527e+00
    1.1438268740145498e-02 -2.5199206336708295e+00
    1.2478354962115539e-02 -2.8284271247461885e+00
    1.2059925124321302e-02 -2.7056893238103168e+00
    1.4904292241032898e-02 -3.5161962919661285e+00
    1.1963163730145032e-02 -2.6770630673681688e+00
    1.0551472457473067e-02 -2.2452384929915477e+00
    1.0176532281500590e-02 -2.1242645786248002e+00
    1.0794496596289348e-02 -2.3219182474467295e+00
    1.0176532281500590e-02 -2.1242645786248002e+00
    1.3085093113004456e-02 -3.0037854904648662e+00
    9.8545580404754522e-03 -2.0171676968565060e+00
    1.1438268740145498e-02 -2.5199206336708295e+00
    1.0079622296887320e-02 -2.0923787373436502e+00
    1.0610087799348003e-02 -2.2638462845343548e+00
    9.1481502058194369e-03 -1.7667754036953320e+00
    1.0438238955490370e-02 -2.2090722034374517e+00
    1.1062360528128742e-02 -2.4051227379523441e+00
    1.0551472457473067e-02 -2.2452384929915477e+00
    1.1206815816655070e-02 -2.4494897427831797e+00
    1.1281918531719995e-02 -2.4724286088391811e+00
    1.2159674136218726e-02 -2.7350994919324636e+00
    1.1689484757952007e-02 -2.5955427380922007e+00
    1.1603393627331550e-02 -2.5697175478760448e+00
    1.0992862793655071e-02 -2.3836564731139824e+00
    1.0731549527087594e-02 -2.3021728866442670e+00
    9.6131852800848318e-03 -1.9344083032987029e+00
    8.1901039288996384e-03 -1.3449599241063761e+00
    7.8739881972645590e-03 -9.1515026088615647e-01
    7.8601506097527533e-03 -9.3626691956986874e-01
    8.7444458619812798e-03 -6.2192640467356652e-01
    8.0235793913678403e-03 -8.0727033468251952e-01
    7.8880632222154620e-03 -8.9854162351018996e-01
    8.0485652965855223e-03 -1.2565617248750867e+00
    8.5818696606723265e-03 -1.5383147316919443e+00
    1.0079622296887320e-02 -2.0923787373436502e+00
    1.0032700541776960e-02 -2.0768372618113804e+00
    1.0176532281500590e-02 -2.1242645786248002e+00
    9.9417753921464559e-03 -2.0465178460296038e+00
    1.0383533793521745e-02 -2.1914907207075656e+00
    1.1603393627331550e-02 -2.5697175478760448e+00
    1.2478354962115539e-02 -2.8284271247461885e+00
    1.0494204355604485e-02 -2.2269843868917136e+00
    1.1603393627331550e-02 -2.5697175478760448e+00
    1.4904292241032898e-02 -3.5161962919661285e+00
    1.1778067278916138e-02 -2.6220221204253784e+00
    1.2708707059231147e-02 -2.8953374109772185e+00
    9.6131852800848318e-03 -1.9344083032987029e+00
    1.2368727689207800e-02 -2.7964262908219131e+00
    1.3359411151945154e-02 -3.0822070014844893e+00
    1.0176532281500590e-02 -2.1242645786248002e+00
    1.0226583721508323e-02 -2.1406257218422526e+00
    1.3655142198921355e-02 -3.1662280397975131e+00
    1.1438268740145498e-02 -2.5199206336708295e+00
    1.0494204355604485e-02 -2.2269843868917136e+00
    1.0731549527087594e-02 -2.3021728866442670e+00
    1.0925094609665885e-02 -2.3626446098046157e+00
    1.2262556388684903e-02 -2.7653315937748606e+00
    1.1438268740145498e-02 -2.5199206336708295e+00
    1.0858992590101436e-02 -2.3420704766609934e+00
    1.6648982112020191e-02 -3.9951894149762741e+00
    1.6958277567831193e-02 -4.0792156108742237e+00
    1.3811888984679567e-02 -3.2105595007244951e+00
    9.9867610309078269e-03 -2.0615528128088298e+00
    1.0127555905114412e-02 -2.1081851067789183e+00
    1.0226583721508323e-02 -2.1406257218422526e+00
    9.6131852800848318e-03 -1.9344083032987029e+00
    8.5266183037117776e-03 -1.5136197594242098e+00
    7.8557703849264984e-03 -9.4483007078571757e-01
    7.8842915790683712e-03 -9.0267093384844010e-01
    8.3048872588513886e-03 -7.1071756269626163e-01
    7.9858518277618213e-03 -8.2656282693466743e-01
    7.9142856479497061e-03 -8.7407093533648628e-01
    8.0485652965855223e-03 -1.2565617248750867e+00
    8.3776508822999054e-03 -1.4435775295826980e+00
    9.5756826557226345e-03 -1.9213248974866606e+00
    9.7302409778626791e-03 -1.9748417658131499e+00
    1.1206815816655070e-02 -2.4494897427831797e+00
    1.0670097125366531e-02 -2.2828200992705949e+00
    1.0670097125366531e-02 -2.2828200992705949e+00
    1.0127555905114412e-02 -2.1081851067789183e+00
    1.2262556388684903e-02 -2.7653315937748606e+00
    9.2687559367301206e-03 -1.8115058371582067e+00
    9.9867610309078269e-03 -2.0615528128088298e+00
    1.1281918531719995e-02 -2.4724286088391811e+00
    1.3975073080956293e-02 -3.2565723019602570e+00
    1.1519688131863081e-02 -2.5445188683101652e+00
    1.1062360528128742e-02 -2.4051227379523441e+00
    1.0794496596289348e-02 -2.3219182474467295e+00
    1.2708707059231147e-02 -2.8953374109772185e+00
    1.2262556388684903e-02 -2.7653315937748606e+00
    9.9867610309078269e-03 -2.0615528128088298e+00
    9.7708438767233202e-03 -1.9887323047045016e+00
    1.0032700541776960e-02 -2.0768372618113804e+00
    1.0383533793521745e-02 -2.1914907207075656e+00
    1.1206815816655070e-02 -2.4494897427831797e+00
    1.2829831285940901e-02 -2.9303509212616716e+00
    1.5116866086387449e-02 -3.5750874115187732e+00
    1.1519688131863081e-02 -2.5445188683101652e+00
    1.1281918531719995e-02 -2.4724286088391811e+00
    1.5574598894680384e-02 -3.7013511046643481e+00
    9.9867610309078269e-03 -2.0615528128088298e+00
    1.1438268740145498e-02 -2.5199206336708295e+00
    1.2262556388684903e-02 -2.7653315937748606e+00
    9.5389057339534938e-03 -1.9084300519426685e+00
    1.1603393627331550e-02 -2.5697175478760448e+00
    1.1133654674384838e-02 -2.4270609798684499e+00
    8.9571966094867516e-03 -1.6936413589162196e+00
    7.8538259674919217e-03 -1.0535880821696646e+00
    7.8708887476950807e-03 -9.1934122311513289e-01
    8.4086877451727444e-03 -6.8556546004010432e-01
    8.0942761704157207e-03 -7.7694038615350902e-01
    7.8920046264698458e-03 -8.9442719099991586e-01
    7.8441254911882363e-03 -9.8425098425147639e-01
    8.3189033080770299e-03 -1.4142135623730951e+00
    9.1481502058194369e-03 -1.7667754036953320e+00
    1.0731549527087594e-02 -2.3021728866442670e+00
    1.1778067278916138e-02 -2.6220221204253784e+00
    1.2059925124321302e-02 -2.7056893238103168e+00
    1.0330048358911121e-02 -2.1742292260184359e+00
    8.6602758298334054e-03 -1.5723997408044463e+00
    9.4327497145561563e-03 -1.8708286933869711e+00
    9.6904443244749776e-03 -1.9611613513818407e+00
    1.4507793658598552e-02 -3.4058772731852791e+00
    1.3359411151945154e-02 -3.0822070014844893e+00
    1.0032700541776960e-02 -2.0768372618113804e+00
    1.0330048358911121e-02 -2.1742292260184359e+00
    1.3085093113004456e-02 -3.0037854904648662e+00
    1.2591617287173786e-02 -2.8613807855649003e+00
    1.4145127435910877e-02 -3.3043787493141465e+00
    1.4701503305573422e-02 -3.4598537881381808e+00
    1.3359411151945154e-02 -3.0822070014844893e+00
    1.0670097125366531e-02 -2.2828200992705949e+00
    1.0551472457473067e-02 -2.2452384929915477e+00
    1.0670097125366531e-02 -2.2828200992705949e+00
    1.0176532281500590e-02 -2.1242645786248002e+00
    1.0330048358911121e-02 -2.1742292260184359e+00
    1.3504437057426516e-02 -3.1234752377721193e+00
    1.2591617287173786e-02 -2.8613807855649003e+00
    1.1281918531719995e-02 -2.4724286088391811e+00
    1.2708707059231147e-02 -2.8953374109772185e+00
    1.1603393627331550e-02 -2.5697175478760448e+00
    1.0330048358911121e-02 -2.1742292260184359e+00
    1.0794496596289348e-02 -2.3219182474467295e+00
    9.0633357687378603e-03 -1.7346731418601340e+00
    1.0032700541776960e-02 -2.0768372618113804e+00
    1.1519688131863081e-02 -2.5445188683101652e+00
    8.7444458619812780e-03 -1.6079072901316596e+00
    7.9094834404335700e-03 -1.1388041973930374e+00
    7.8679558007459533e-03 -9.2354814518279882e-01
    9.3986993781103555e-03 -5.3802758684897034e-01
    8.1346486575285416e-03 -7.6200076200114297e-01
    7.8651888037197318e-03 -9.2777125072449074e-01
    7.8504267083684132e-03 -9.5780546268426858e-01
    8.0003652061809045e-03 -1.2212802396374114e+00
    9.5389057339534938e-03 -1.9084300519426685e+00
    1.1206815816655070e-02 -2.4494897427831797e+00
    1.1206815816655070e-02 -2.4494897427831797e+00
    1.0731549527087594e-02 -2.3021728866442670e+00
    9.1774720996452338e-03 -1.7777450206625718e+00
    9.3652897738659632e-03 -1.8466185312619383e+00
    1.2059925124321302e-02 -2.7056893238103168e+00
    1.1778067278916138e-02 -2.6220221204253784e+00
    1.0277743980503760e-02 -2.1572774865200239e+00
    1.5340009683220012e-02 -3.6367301868042001e+00
    1.0032700541776960e-02 -2.0768372618113804e+00
    1.0438238955490370e-02 -2.2090722034374517e+00
    9.3652897738659632e-03 -1.8466185312619383e+00
    1.0670097125366531e-02 -2.2828200992705949e+00
    1.0670097125366531e-02 -2.2828200992705949e+00
    1.0794496596289348e-02 -2.3219182474467295e+00
    1.0277743980503760e-02 -2.1572774865200239e+00
    1.0226583721508323e-02 -2.1406257218422526e+00
    9.2073387308814845e-03 -1.7888543819998313e+00
    9.9867610309078269e-03 -2.0615528128088298e+00
    1.1206815816655070e-02 -2.4494897427831797e+00
    1.2368727689207800e-02 -2.7964262908219131e+00
    1.2955213043411323e-02 -2.9664793948382662e+00
    1.2059925124321302e-02 -2.7056893238103168e+00
    1.1062360528128742e-02 -2.4051227379523441e+00
    1.1778067278916138e-02 -2.6220221204253784e+00
    1.1869253677038323e-02 -2.6491851234260366e+00
    1.0858992590101436e-02 -2.3420704766609934e+00
    1.0383533793521745e-02 -2.1914907207075656e+00
    9.3325056950499426e-03 -1.8347579223601589e+00
    9.8545580404754522e-03 -2.0171676968565060e+00
    9.7708438767233202e-03 -1.9887323047045016e+00
    9.4327497145561563e-03 -1.8708286933869711e+00
    7.9468051064551272e-03 -1.1763433953500924e+00
    7.8651888037197318e-03 -9.2777125072449074e-01
    1.0858992590101441e-02 -4.2697263381487299e-01
    8.0400369669761523e-03 -7.9962816637545131e-01
    7.8651888037197318e-03 -9.2777125072449074e-01
    7.8504267083684132e-03 -9.5780546268426858e-01
    7.8880632222154620e-03 -1.1129144981547530e+00
    8.6009522850854694e-03 -1.5467086643281251e+00
    9.4674565493715682e-03 -1.8831865952627527e+00
    1.1359041682772100e-02 -2.4958982745138694e+00
    9.7302409778626791e-03 -1.9748417658131499e+00
    9.6514325937639648e-03 -1.9476853598231836e+00
    8.9069237395078705e-03 -1.6738351585299653e+00
    1.1603393627331550e-02 -2.5697175478760448e+00
    1.4322526914704533e-02 -3.3541019662496838e+00
    1.1438268740145498e-02 -2.5199206336708295e+00
    9.8122752026772470e-03 -2.0028388942607536e+00
    1.1438268740145498e-02 -2.5199206336708295e+00
    1.3655142198921355e-02 -3.1662280397975131e+00
    1.2159674136218726e-02 -2.7350994919324636e+00
    1.1133654674384838e-02 -2.4270609798684499e+00
    1.0383533793521745e-02 -2.1914907207075656e+00
    1.0226583721508323e-02 -2.1406257218422526e+00
    1.0670097125366531e-02 -2.2828200992705949e+00
    1.0127555905114412e-02 -2.1081851067789183e+00
    1.1519688131863081e-02 -2.5445188683101652e+00
    1.0176532281500590e-02 -2.1242645786248002e+00
    1.1603393627331550e-02 -2.5697175478760448e+00
    1.2368727689207800e-02 -2.7964262908219131e+00
    1.2829831285940901e-02 -2.9303509212616716e+00
    1.0127555905114412e-02 -2.1081851067789183e+00
    1.1438268740145498e-02 -2.5199206336708295e+00
    1.2059925124321302e-02 -2.7056893238103168e+00
    1.0032700541776960e-02 -2.0768372618113804e+00
    1.0330048358911121e-02 -2.1742292260184359e+00
    1.2159674136218726e-02 -2.7350994919324636e+00
    1.0438238955490370e-02 -2.2090722034374517e+00
    1.0330048358911121e-02 -2.1742292260184359e+00
    1.0330048358911121e-02 -2.1742292260184359e+00
    1.0127555905114412e-02 -2.1081851067789183e+00
    8.0235793913678403e-03 -1.2387424101162798e+00
    7.8504267083684132e-03 -9.5780546268426858e-01
    1.3975073080956300e-02 -3.0707133368359762e-01
    8.1561510038211851e-03 -7.5458267790454503e-01
    7.9142856479497061e-03 -8.7407093533648628e-01
    7.8920046264698458e-03 -8.9442719099991586e-01
    7.8476781575732880e-03 -1.0346122632229275e+00
    8.2139024993032588e-03 -1.3583671412113076e+00
    9.3652897738659632e-03 -1.8466185312619383e+00
    9.5028362342334007e-03 -1.8957188610128877e+00
    8.8584174867170837e-03 -1.6544751843388947e+00
    8.7228405805919260e-03 -1.5988907445173430e+00
    9.3652897738659632e-03 -1.8466185312619383e+00
    1.2955213043411323e-02 -2.9664793948382662e+00
    9.9867610309078269e-03 -2.0615528128088298e+00
    1.1438268740145498e-02 -2.5199206336708295e+00
    1.2829831285940901e-02 -2.9303509212616716e+00
    1.2591617287173786e-02 -2.8613807855649003e+00
    1.1281918531719995e-02 -2.4724286088391811e+00
    1.1281918531719995e-02 -2.4724286088391811e+00
    1.1519688131863081e-02 -2.5445188683101652e+00
    1.0176532281500590e-02 -2.1242645786248002e+00
    1.2262556388684903e-02 -2.7653315937748606e+00
    1.1062360528128742e-02 -2.4051227379523441e+00
    1.1206815816655070e-02 -2.4494897427831797e+00
    1.1438268740145498e-02 -2.5199206336708295e+00
    1.0551472457473067e-02 -2.2452384929915477e+00
    1.2708707059231147e-02 -2.8953374109772185e+00
    1.3975073080956293e-02 -3.2565723019602570e+00
    1.1963163730145032e-02 -2.6770630673681688e+00
    1.0032700541776960e-02 -2.0768372618113804e+00
    9.3003324695872230e-03 -1.8230549667425566e+00
    1.1438268740145498e-02 -2.5199206336708295e+00
    1.1689484757952007e-02 -2.5955427380922007e+00
    1.0731549527087594e-02 -2.3021728866442670e+00
    9.9867610309078269e-03 -2.0615528128088298e+00
    9.6131852800848318e-03 -1.9344083032987029e+00
    1.1519688131863081e-02 -2.5445188683101652e+00
    1.0330048358911121e-02 -2.1742292260184359e+00
    1.0494204355604485e-02 -2.2269843868917136e+00
    8.2139024993032588e-03 -1.3583671412113076e+00
    7.8447710716585441e-03 -9.7979589711327120e-01
    1.3975073080956300e-02 -3.0707133368359762e-01
    8.3930274340248186e-03 -6.8914177638557528e-01
    7.9244154594654524e-03 -8.6602540378443882e-01
    7.8739881972645590e-03 -9.1515026088615647e-01
    7.8465472401703651e-03 -1.0299260476128380e+00
    8.1452882007714868e-03 -1.3187609467915740e+00
    8.7888233340232373e-03 -1.6262312563634833e+00
    9.8122752026772470e-03 -2.0028388942607536e+00
    9.7708438767233202e-03 -1.9887323047045016e+00
    8.9069237395078705e-03 -1.6738351585299653e+00
    1.0925094609665885e-02 -2.3626446098046157e+00
    1.1603393627331550e-02 -2.5697175478760448e+00
    1.2829831285940901e-02 -2.9303509212616716e+00
    1.3359411151945154e-02 -3.0822070014844893e+00
    1.0438238955490370e-02 -2.2090722034374517e+00
    1.0858992590101436e-02 -2.3420704766609934e+00
    1.1438268740145498e-02 -2.5199206336708295e+00
    1.3811888984679567e-02 -3.2105595007244951e+00
    1.1206815816655070e-02 -2.4494897427831797e+00
    1.3085093113004456e-02 -3.0037854904648662e+00
    1.3504437057426516e-02 -3.1234752377721193e+00
    1.2478354962115539e-02 -2.8284271247461885e+00
    1.2262556388684903e-02 -2.7653315937748606e+00
    1.0032700541776960e-02 -2.0768372618113804e+00
    1.1869253677038323e-02 -2.6491851234260366e+00
    1.3811888984679567e-02 -3.2105595007244951e+00
    1.0176532281500590e-02 -2.1242645786248002e+00
    1.0176532281500590e-02 -2.1242645786248002e+00
    1.1281918531719995e-02 -2.4724286088391811e+00
    1.0494204355604485e-02 -2.2269843868917136e+00
    1.1062360528128742e-02 -2.4051227379523441e+00
    1.1062360528128742e-02 -2.4051227379523441e+00
    1.1062360528128742e-02 -2.4051227379523441e+00
    9.5389057339534938e-03 -1.9084300519426685e+00
    1.1689484757952007e-02 -2.5955427380922007e+00
    1.0925094609665885e-02 -2.3626446098046157e+00
    1.0383533793521745e-02 -2.1914907207075656e+00
    1.0670097125366531e-02 -2.2828200992705949e+00
    7.9409387586221267e-03 -1.1708833169600994e+00
    7.9244154594654524e-03 -8.6602540378443882e-01
    2.3184879783894895e-02 -1.7428089905580857e-01
    9.1193611356612664e-03 -5.6949479745149945e-01
    8.0572957094966931e-03 -7.9202668708998103e-01
    7.8961165449619695e-03 -8.9032742675336496e-01
    7.8431574192560655e-03 -9.9773499142917288e-01
    7.9788794369279568e-03 -1.2041594578792294e+00
    8.1346486575285433e-03 -1.3123346456686356e+00
    8.4086877451727462e-03 -1.4586499149789458e+00
    9.1774720996452338e-03 -1.7777450206625718e+00
    9.3652897738659632e-03 -1.8466185312619383e+00
    8.9571966094867516e-03 -1.6936413589162196e+00
    1.0494204355604485e-02 -2.2269843868917136e+00
    1.1438268740145498e-02 -2.5199206336708295e+00
    1.1133654674384838e-02 -2.4270609798684499e+00
    1.1603393627331550e-02 -2.5697175478760448e+00
    1.1778067278916138e-02 -2.6220221204253784e+00
    1.0438238955490370e-02 -2.2090722034374517e+00
    1.1206815816655070e-02 -2.4494897427831797e+00
    1.1281918531719995e-02 -2.4724286088391811e+00
    1.1963163730145032e-02 -2.6770630673681688e+00
    1.2829831285940901e-02 -2.9303509212616716e+00
    1.1062360528128742e-02 -2.4051227379523441e+00
    1.4145127435910877e-02 -3.3043787493141465e+00
    1.1778067278916138e-02 -2.6220221204253784e+00
    1.0277743980503760e-02 -2.1572774865200239e+00
    9.8977164251388625e-03 -2.0317251233235725e+00
    9.4674565493715682e-03 -1.8831865952627527e+00
    1.1778067278916138e-02 -2.6220221204253784e+00
    1.0858992590101436e-02 -2.3420704766609934e+00
    9.6131852800848318e-03 -1.9344083032987029e+00
    1.0670097125366531e-02 -2.2828200992705949e+00
    1.0383533793521745e-02 -2.1914907207075656e+00
    1.1281918531719995e-02 -2.4724286088391811e+00
    1.0731549527087594e-02 -2.3021728866442670e+00
    1.0992862793655071e-02 -2.3836564731139824e+00
    9.1481502058194369e-03 -1.7667754036953320e+00
    9.9867610309078269e-03 -2.0615528128088298e+00
    9.2377624249310505e-03 -1.8001068344363942e+00
    7.9409387586221267e-03 -1.1708833169600994e+00
    8.3048872588513886e-03 -7.1071756269626163e-01
    2.1634555662940751e-02 -1.8764665626020038e-01
    1.5821614628292301e-02 -2.6530802761047972e-01
    8.1785563027789859e-03 -7.4719735473688287e-01
    7.9654961674131657e-03 -8.3827364428490936e-01
    7.8455782714416823e-03 -9.7536015585439961e-01
    7.8489712335678211e-03 -1.0393212589210723e+00
    8.0753702703958135e-03 -1.2747548783981963e+00
    8.1242299799145681e-03 -1.3059561525536139e+00
    8.3477330492804040e-03 -1.4287684593190133e+00
    9.1193611356612629e-03 -1.7559422921421226e+00
    1.0494204355604485e-02 -2.2269843868917136e+00
    1.0277743980503760e-02 -2.1572774865200239e+00
    8.8584174867170837e-03 -1.6544751843388947e+00
    9.2687559367301206e-03 -1.8115058371582067e+00
    1.0551472457473067e-02 -2.2452384929915477e+00
    8.1785563027789859e-03 -1.3383345024717586e+00
    9.2377624249310505e-03 -1.8001068344363942e+00
    1.2368727689207800e-02 -2.7964262908219131e+00
    1.3219731826533019e-02 -3.0423369230721908e+00
    9.9867610309078269e-03 -2.0615528128088298e+00
    1.1359041682772100e-02 -2.4958982745138694e+00
    1.1603393627331550e-02 -2.5697175478760448e+00
    1.0925094609665885e-02 -2.3626446098046157e+00
    1.5116866086387449e-02 -3.5750874115187732e+00
    1.2368727689207800e-02 -2.7964262908219131e+00
    1.1519688131863081e-02 -2.5445188683101652e+00
    9.5756826557226345e-03 -1.9213248974866606e+00
    9.4674565493715682e-03 -1.8831865952627527e+00
    8.9830179074059761e-03 -1.7037179541393102e+00
    1.0438238955490370e-02 -2.2090722034374517e+00
    1.1359041682772100e-02 -2.4958982745138694e+00
    1.1963163730145032e-02 -2.6770630673681688e+00
    1.1869253677038323e-02 -2.6491851234260366e+00
    1.1281918531719995e-02 -2.4724286088391811e+00
    8.8584174867170837e-03 -1.6544751843388947e+00
    1.0079622296887320e-02 -2.0923787373436502e+00
    9.5756826557226345e-03 -1.9213248974866606e+00
    8.6009522850854694e-03 -1.5467086643281251e+00
    7.8920046264698458e-03 -1.1180339887498947e+00
    1.3975073080956300e-02 -3.0707133368359762e-01
    1.8847005759981064e-02 -2.1795857001338645e-01
    1.7637878643527463e-02 -2.3457178740201490e-01
    8.4246359581646724e-03 -6.8199433947047350e-01
    8.1140298391319098e-03 -7.6945289767005998e-01
    7.9142856479497061e-03 -8.7407093533648628e-01
    7.8476781575732863e-03 -9.6654566695826094e-01
    7.9788794369279568e-03 -1.2041594578792294e+00
    7.9788794369279568e-03 -1.2041594578792294e+00
    8.1785563027789859e-03 -1.3383345024717586e+00
    8.1785563027789859e-03 -1.3383345024717586e+00
    8.9571966094867516e-03 -1.6936413589162196e+00
    9.9867610309078269e-03 -2.0615528128088298e+00
    9.8545580404754522e-03 -2.0171676968565060e+00
    1.0330048358911121e-02 -2.1742292260184359e+00
    1.0079622296887320e-02 -2.0923787373436502e+00
    1.0731549527087594e-02 -2.3021728866442670e+00
    1.1438268740145498e-02 -2.5199206336708295e+00
    1.3504437057426516e-02 -3.1234752377721193e+00
    1.3655142198921355e-02 -3.1662280397975131e+00
    1.1963163730145032e-02 -2.6770630673681688e+00
    9.7708438767233202e-03 -1.9887323047045016e+00
    1.0127555905114412e-02 -2.1081851067789183e+00
    1.1359041682772100e-02 -2.4958982745138694e+00
    1.2159674136218726e-02 -2.7350994919324636e+00
    1.3504437057426516e-02 -3.1234752377721193e+00
    1.5574598894680384e-02 -3.7013511046643481e+00
    1.1778067278916138e-02 -2.6220221204253784e+00
    1.0494204355604485e-02 -2.2269843868917136e+00
    1.1062360528128742e-02 -2.4051227379523441e+00
    1.1206815816655070e-02 -2.4494897427831797e+00
    1.1603393627331550e-02 -2.5697175478760448e+00
    1.1869253677038323e-02 -2.6491851234260366e+00
    1.0438238955490370e-02 -2.2090722034374517e+00
    1.0925094609665885e-02 -2.3626446098046157e+00
    9.7302409778626791e-03 -1.9748417658131499e+00
    1.0277743980503760e-02 -2.1572774865200239e+00
    8.5631234235567701e-03 -1.5300029708824392e+00
    9.0360775543181678e-03 -1.7242311251607116e+00
    7.8455782714416823e-03 -9.7536015585439961e-01
    1.2368727689207798e-02 -3.5759926992607577e-01
    2.2367654904622229e-02 -1.8107149208503709e-01
    1.8414677461762972e-02 -2.2360679774997894e-01
    1.2059925124321306e-02 -3.6959158289161553e-01
    8.1901039288996384e-03 -7.4351657776303182e-01
    7.9528526485266714e-03 -8.4614024097249751e-01
    7.9142856479497061e-03 -8.7407093533648628e-01
    7.8679558007459550e-03 -1.0827805840074196e+00
    7.9788794369279568e-03 -1.2041594578792294e+00
    7.9297450375101879e-03 -1.1600623607595686e+00
    8.1140298391319116e-03 -1.2996247113085773e+00
    8.2911323754082077e-03 -1.3999041194396715e+00
    8.7888233340232373e-03 -1.6262312563634833e+00
    9.5389057339534938e-03 -1.9084300519426685e+00
    1.0277743980503760e-02 -2.1572774865200239e+00
    9.1193611356612629e-03 -1.7559422921421226e+00
    1.0032700541776960e-02 -2.0768372618113804e+00
    9.2687559367301206e-03 -1.8115058371582067e+00
    9.3986993781103537e-03 -1.8586407545691699e+00
    1.1281918531719995e-02 -2.4724286088391811e+00
    1.4904292241032898e-02 -3.5161962919661285e+00
    1.0551472457473067e-02 -2.2452384929915477e+00
    1.2059925124321302e-02 -2.7056893238103168e+00
    1.3359411151945154e-02 -3.0822070014844893e+00
    1.0925094609665885e-02 -2.3626446098046157e+00
    9.9417753921464559e-03 -2.0465178460296038e+00
    1.0610087799348003e-02 -2.2638462845343548e+00
    1.0438238955490370e-02 -2.2090722034374517e+00
    1.0438238955490370e-02 -2.2090722034374517e+00
    1.1062360528128742e-02 -2.4051227379523441e+00
    9.4327497145561563e-03 -1.8708286933869711e+00
    1.1778067278916138e-02 -2.6220221204253784e+00
    1.1281918531719995e-02 -2.4724286088391811e+00
    9.6131852800848318e-03 -1.9344083032987029e+00
    8.7888233340232373e-03 -1.6262312563634833e+00
    8.9069237395078705e-03 -1.6738351585299653e+00
    8.7228405805919260e-03 -1.5988907445173430e+00
    8.2911323754082077e-03 -1.3999041194396715e+00
    8.5818696606723265e-03 -1.5383147316919443e+00
    8.7444458619812798e-03 -6.2192640467356652e-01
    1.3085093113004468e-02 -3.3291325335127009e-01
    2.2367654904622229e-02 -1.8107149208503709e-01
    2.1634555662940751e-02 -1.8764665626020038e-01
    1.7637878643527463e-02 -2.3457178740201490e-01
    8.9069237395078705e-03 -5.9743039504454154e-01
    8.2261590132073903e-03 -7.3251987403322949e-01
    7.9590825875119117e-03 -8.4220088196427068e-01
    7.9654961674131657e-03 -8.3827364428490936e-01
    7.8557703849264984e-03 -1.0583913773705396e+00
    7.9244154594654524e-03 -1.1547005383792517e+00
    8.3625540606168565e-03 -1.4361406616345072e+00
    8.5818696606723265e-03 -1.5383147316919443e+00
    8.1452882007714868e-03 -1.3187609467915740e+00
    1.0226583721508323e-02 -2.1406257218422526e+00
    9.8545580404754522e-03 -2.0171676968565060e+00
    1.1359041682772100e-02 -2.4958982745138694e+00
    1.2478354962115539e-02 -2.8284271247461885e+00
    1.0670097125366531e-02 -2.2828200992705949e+00
    9.7302409778626791e-03 -1.9748417658131499e+00
    1.0494204355604485e-02 -2.2269843868917136e+00
    1.0176532281500590e-02 -2.1242645786248002e+00
    9.7708438767233202e-03 -1.9887323047045016e+00
    1.1603393627331550e-02 -2.5697175478760448e+00
    1.3504437057426516e-02 -3.1234752377721193e+00
    1.2059925124321302e-02 -2.7056893238103168e+00
    1.0079622296887320e-02 -2.0923787373436502e+00
    1.0992862793655071e-02 -2.3836564731139824e+00
    1.0670097125366531e-02 -2.2828200992705949e+00
    1.1206815816655070e-02 -2.4494897427831797e+00
    1.0731549527087594e-02 -2.3021728866442670e+00
    8.6602758298334054e-03 -1.5723997408044463e+00
    1.2708707059231147e-02 -2.8953374109772185e+00
    9.9417753921464559e-03 -2.0465178460296038e+00
    1.0176532281500590e-02 -2.1242645786248002e+00
    9.6131852800848318e-03 -1.9344083032987029e+00
    9.3325056950499426e-03 -1.8347579223601589e+00
    8.8348054922912853e-03 -1.6449566416599490e+00
    8.3477330492804040e-03 -1.4287684593190133e+00
    7.8520448526107622e-03 -1.0488088481701519e+00
    1.0438238955490372e-02 -4.5267873021259264e-01
    1.3975073080956300e-02 -3.0707133368359762e-01
    2.2367654904622229e-02 -1.8107149208503709e-01
    2.1634555662940751e-02 -1.8764665626020038e-01
    2.0369999580128584e-02 -2.0023571015840683e-01
    1.5340009683220005e-02 -2.7497228241690280e-01
    8.4913948328814663e-03 -6.6775866849054244e-01
    8.1140298391319098e-03 -7.6945289767005998e-01
    8.0079091637327571e-03 -8.1495456523429954e-01
    7.8651888037197318e-03 -9.2777125072449074e-01
    7.8578784677190202e-03 -1.0632190661423897e+00
    7.8625872361950868e-03 -1.0729489793066220e+00
    8.1140298391319116e-03 -1.2996247113085773e+00
    8.1140298391319116e-03 -1.2996247113085773e+00
    8.4574132456473293e-03 -1.4817733206914760e+00
    8.8348054922912853e-03 -1.6449566416599490e+00
    8.9571966094867516e-03 -1.6936413589162196e+00
    9.6904443244749776e-03 -1.9611613513818407e+00
    1.2591617287173786e-02 -2.8613807855649003e+00
    1.1438268740145498e-02 -2.5199206336708295e+00
    1.3219731826533019e-02 -3.0423369230721908e+00
    1.2591617287173786e-02 -2.8613807855649003e+00
    1.1206815816655070e-02 -2.4494897427831797e+00
    1.1869253677038323e-02 -2.6491851234260366e+00
    1.3655142198921355e-02 -3.1662280397975131e+00
    1.2955213043411323e-02 -2.9664793948382662e+00
    1.2059925124321302e-02 -2.7056893238103168e+00
    9.6514325937639648e-03 -1.9476853598231836e+00
    9.5389057339534938e-03 -1.9084300519426685e+00
    1.2159674136218726e-02 -2.7350994919324636e+00
    1.1778067278916138e-02 -2.6220221204253784e+00
    1.0383533793521745e-02 -2.1914907207075656e+00
    1.1438268740145498e-02 -2.5199206336708295e+00
    9.4327497145561563e-03 -1.8708286933869711e+00
    8.5631234235567701e-03 -1.5300029708824392e+00
    8.6807622043837858e-03 -1.5811388300841895e+00
    9.1193611356612629e-03 -1.7559422921421226e+00
    8.4246359581646724e-03 -1.4662878298615178e+00
    8.0753702703958135e-03 -1.2747548783981963e+00
    8.3477330492804040e-03 -6.9990346824748961e-01
    1.3504437057426525e-02 -3.2015621187164245e-01
    1.3811888984679560e-02 -3.1147219036879414e-01
    2.9383902031322340e-02 -1.3592553320611694e-01
    2.1634555662940751e-02 -1.8764665626020038e-01
    2.0369999580128584e-02 -2.0023571015840683e-01
    1.8847005759981064e-02 -2.1795857001338645e-01
    1.0794496596289345e-02 -4.3067838460705449e-01
    8.2386575215518953e-03 -7.2886898685566259e-01
    8.0400369669761523e-03 -7.9962816637545131e-01
    8.0317089160917097e-03 -8.0344407898726933e-01
    7.8557703849264984e-03 -9.4483007078571757e-01
    7.8504267083684149e-03 -1.0440533479496770e+00
    7.8455782714416805e-03 -1.0252623033632291e+00
    8.0485652965855223e-03 -1.2565617248750867e+00
    8.1561510038211851e-03 -1.3252358280698573e+00
    8.7444458619812780e-03 -1.6079072901316596e+00
    9.6904443244749776e-03 -1.9611613513818407e+00
    9.1193611356612629e-03 -1.7559422921421226e+00
    9.4674565493715682e-03 -1.8831865952627527e+00
    9.8122752026772470e-03 -2.0028388942607536e+00
    9.5028362342334007e-03 -1.8957188610128877e+00
    9.0910933701224377e-03 -1.7452425503731646e+00
    9.7302409778626791e-03 -1.9748417658131499e+00
    9.9417753921464559e-03 -2.0465178460296038e+00
    9.8545580404754522e-03 -2.0171676968565060e+00
    1.0858992590101436e-02 -2.3420704766609934e+00
    1.0226583721508323e-02 -2.1406257218422526e+00
    9.3652897738659632e-03 -1.8466185312619383e+00
    8.6203769479924648e-03 -1.5551863718419059e+00
    1.1359041682772100e-02 -2.4958982745138694e+00
    9.4327497145561563e-03 -1.8708286933869711e+00
    8.9830179074059761e-03 -1.7037179541393102e+00
    8.5818696606723265e-03 -1.5383147316919443e+00
    8.7444458619812780e-03 -1.6079072901316596e+00
    8.7664377281200800e-03 -1.6170201292379318e+00
    9.3003324695872230e-03 -1.8230549667425566e+00
    8.8584174867170837e-03 -1.6544751843388947e+00
    7.9409387586221267e-03 -1.1708833169600994e+00
    7.8538259674919234e-03 -9.4913753954077573e-01
    9.3325056950499426e-03 -5.4503102987757657e-01
    1.3219731826533025e-02 -3.2869469269372925e-01
    2.1634555662940751e-02 -1.8764665626020038e-01
    2.2367654904622229e-02 -1.8107149208503709e-01
    2.1634555662940751e-02 -1.8764665626020038e-01
    1.9313695635478842e-02 -2.1218788062107707e-01
    1.8847005759981064e-02 -2.1795857001338645e-01
    1.6357478434187719e-02 -2.5537695922762460e-01
    1.1603393627331546e-02 -3.8914782709350015e-01
    8.3625540606168565e-03 -6.9631062382279130e-01
    8.0235793913678403e-03 -8.0727033468251952e-01
    7.9720946742749977e-03 -8.3435834397089015e-01
    7.8601506097527533e-03 -9.3626691956986874e-01
    7.8431574192560673e-03 -1.0022701504811240e+00
    7.8739881972645590e-03 -1.0927167294163060e+00
    8.3477330492804040e-03 -1.4287684593190133e+00
    8.5631234235567701e-03 -1.5300029708824392e+00
    8.8584174867170837e-03 -1.6544751843388947e+00
    8.6602758298334054e-03 -1.5723997408044463e+00
    9.3652897738659632e-03 -1.8466185312619383e+00
    9.2687559367301206e-03 -1.8115058371582067e+00
    1.0551472457473067e-02 -2.2452384929915477e+00
    9.5028362342334007e-03 -1.8957188610128877e+00
    1.1133654674384838e-02 -2.4270609798684499e+00
    1.0438238955490370e-02 -2.2090722034374517e+00
    9.4674565493715682e-03 -1.8831865952627527e+00
    9.0910933701224377e-03 -1.7452425503731646e+00
    9.5028362342334007e-03 -1.8957188610128877e+00
    1.0176532281500590e-02 -2.1242645786248002e+00
    1.0383533793521745e-02 -2.1914907207075656e+00
    1.0176532281500590e-02 -2.1242645786248002e+00
    8.8584174867170837e-03 -1.6544751843388947e+00
    8.5631234235567701e-03 -1.5300029708824392e+00
    8.4913948328814663e-03 -1.4975470138942315e+00
    9.2687559367301206e-03 -1.8115058371582067e+00
    9.4327497145561563e-03 -1.8708286933869711e+00
    9.0093082983993700e-03 -1.7139136501002612e+00
    8.0942761704157189e-03 -1.2871000373024994e+00
    7.8601506097527533e-03 -9.3626691956986874e-01
    8.3625540606168565e-03 -6.9631062382279130e-01
    1.0670097125366528e-02 -4.3805466769787071e-01
    1.3219731826533025e-02 -3.2869469269372925e-01
    2.1634555662940751e-02 -1.8764665626020038e-01
    2.9383902031322340e-02 -1.3592553320611694e-01
    2.2367654904622229e-02 -1.8107149208503709e-01
    1.9819467084972894e-02 -2.0628424925175867e-01
    1.8847005759981064e-02 -2.1795857001338645e-01
    1.7637878643527463e-02 -2.3457178740201490e-01
    1.7287204147823112e-02 -2.3990405756162686e-01
    1.0330048358911121e-02 -4.5993310550389993e-01
    8.2643925291206437e-03 -7.2158828647118001e-01
    8.0317089160917097e-03 -8.0344407898726933e-01
    7.9858518277618213e-03 -8.2656282693466743e-01
    7.9094834404335700e-03 -8.7811407991752288e-01
    7.8708887476950807e-03 -1.0877354075471128e+00
    7.8601506097527515e-03 -1.0680714859170830e+00
    7.9590825875119117e-03 -1.1873651778512666e+00
    8.1561510038211851e-03 -1.3252358280698573e+00
    9.0093082983993700e-03 -1.7139136501002612e+00
    8.8348054922912853e-03 -1.6449566416599490e+00
    9.3986993781103537e-03 -1.8586407545691699e+00
    9.8545580404754522e-03 -2.0171676968565060e+00
    1.1438268740145498e-02 -2.5199206336708295e+00
    1.0992862793655071e-02 -2.3836564731139824e+00
    1.0032700541776960e-02 -2.0768372618113804e+00
    9.4327497145561563e-03 -1.8708286933869711e+00
    1.0127555905114412e-02 -2.1081851067789183e+00
    8.8824541225608587e-03 -1.6641005886756874e+00
    9.5028362342334007e-03 -1.8957188610128877e+00
    8.9571966094867516e-03 -1.6936413589162196e+00
    9.6904443244749776e-03 -1.9611613513818407e+00
    9.7302409778626791e-03 -1.9748417658131499e+00
    9.8122752026772470e-03 -2.0028388942607536e+00
    9.1193611356612629e-03 -1.7559422921421226e+00
    9.3652897738659632e-03 -1.8466185312619383e+00
    9.0093082983993700e-03 -1.7139136501002612e+00
    8.1672395278630672e-03 -1.3317600781148142e+00
    7.8431574192560655e-03 -9.9773499142917288e-01
    8.4246359581646724e-03 -6.8199433947047350e-01
    9.1774720996452321e-03 -5.6251036474696281e-01
    1.1281918531719998e-02 -4.0446061674941758e-01
    2.0369999580128584e-02 -2.0023571015840683e-01
    2.0972198164906440e-02 -1.9402850002906638e-01
    3.1376501964752945e-02 -1.2700012700019048e-01
    2.6342668941056021e-02 -1.5232155510134432e-01
    1.9819467084972894e-02 -2.0628424925175867e-01
    1.9313695635478842e-02 -2.1218788062107707e-01
    1.7287204147823112e-02 -2.3990405756162686e-01
    1.7287204147823112e-02 -2.3990405756162686e-01
    1.7287204147823112e-02 -2.3990405756162686e-01
    1.1062360528128746e-02 -4.1577919672048519e-01
    8.2911323754082059e-03 -7.1433463628942129e-01
    8.0942761704157207e-03 -7.7694038615350902e-01
    8.0942761704157207e-03 -7.7694038615350902e-01
    7.8447710716585441e-03 -9.7979589711327120e-01
    7.8772547347198477e-03 -1.0977249200050074e+00
    7.9788794369279568e-03 -1.2041594578792294e+00
    8.1901039288996384e-03 -1.3449599241063761e+00
    8.7228405805919260e-03 -1.5988907445173430e+00
    8.6602758298334054e-03 -1.5723997408044463e+00
    8.8116100544915910e-03 -1.6355427233796127e+00
    1.0032700541776960e-02 -2.0768372618113804e+00
    9.9417753921464559e-03 -2.0465178460296038e+00
    9.2377624249310505e-03 -1.8001068344363942e+00
    9.3325056950499426e-03 -1.8347579223601589e+00
    8.4086877451727462e-03 -1.4586499149789458e+00
    9.5028362342334007e-03 -1.8957188610128877e+00
    1.0438238955490370e-02 -2.2090722034374517e+00
    9.5756826557226345e-03 -1.9213248974866606e+00
    9.7708438767233202e-03 -1.9887323047045016e+00
    9.7708438767233202e-03 -1.9887323047045016e+00
    8.9830179074059761e-03 -1.7037179541393102e+00
    8.9830179074059761e-03 -1.7037179541393102e+00
    9.1193611356612629e-03 -1.7559422921421226e+00
    8.2018850788232751e-03 -1.3516371839081214e+00
    8.1452882007714868e-03 -1.3187609467915740e+00
    7.8476781575732863e-03 -9.6654566695826094e-01
    8.3477330492804040e-03 -6.9990346824748961e-01
    8.8116100544915910e-03 -6.1141784051574299e-01
    1.0670097125366528e-02 -4.3805466769787071e-01
    1.6082159591748833e-02 -2.6037782196164777e-01
    2.0369999580128584e-02 -2.0023571015840683e-01
    2.6342668941056021e-02 -1.5232155510134432e-01
    2.9383902031322340e-02 -1.3592553320611694e-01
    2.6342668941056021e-02 -1.5232155510134432e-01
    2.5145937898423197e-02 -1.5994184989813393e-01
    1.9313695635478842e-02 -2.1218788062107707e-01
    1.8414677461762972e-02 -2.2360679774997894e-01
    1.8414677461762972e-02 -2.2360679774997894e-01
    1.8414677461762972e-02 -2.2360679774997894e-01
    1.8414677461762972e-02 -2.2360679774997894e-01
    1.0383533793521749e-02 -4.5631039664047957e-01
    8.5266183037117776e-03 -6.6066790802229358e-01
    8.3625540606168565e-03 -6.9631062382279130e-01
    8.1242299799145681e-03 -7.6572249232460099e-01
    8.0003652061809045e-03 -8.1881288793871920e-01
    7.8842915790683730e-03 -1.1078234188139948e+00
    7.9142856479497061e-03 -1.1440719048906887e+00
    8.1346486575285433e-03 -1.3123346456686356e+00
    8.5631234235567701e-03 -1.5300029708824392e+00
    8.8348054922912853e-03 -1.6449566416599490e+00
    8.7016149409075618e-03 -1.5899685531481436e+00
    9.5028362342334007e-03 -1.8957188610128877e+00
    9.0910933701224377e-03 -1.7452425503731646e+00
    9.3003324695872230e-03 -1.8230549667425566e+00
    9.1193611356612629e-03 -1.7559422921421226e+00
    1.0670097125366531e-02 -2.2828200992705949e+00
    9.6131852800848318e-03 -1.9344083032987029e+00
    1.0277743980503760e-02 -2.1572774865200239e+00
    8.9069237395078705e-03 -1.6738351585299653e+00
    9.8122752026772470e-03 -2.0028388942607536e+00
    9.0633357687378603e-03 -1.7346731418601340e+00
    9.0910933701224377e-03 -1.7452425503731646e+00
    8.3048872588513886e-03 -1.4070286883108423e+00
    7.9788794369279568e-03 -1.2041594578792294e+00
    7.8520448526107622e-03 -1.0488088481701519e+00
    8.3930274340248186e-03 -6.8914177638557528e-01
    8.7016149409075583e-03 -6.2894325678328433e-01
    9.5389057339534920e-03 -5.2399091021547239e-01
    1.4145127435910875e-02 -3.0262874684312724e-01
    1.7287204147823112e-02 -2.3990405756162686e-01
    2.5145937898423197e-02 -1.5994184989813393e-01
    3.3851518536729963e-02 -1.1744404390294068e-01
    3.1376501964752945e-02 -1.2700012700019048e-01
    2.7735454108129082e-02 -1.4433756729740643e-01
    2.6342668941056021e-02 -1.5232155510134432e-01
    2.3184879783894895e-02 -1.7428089905580857e-01
    1.8847005759981064e-02 -2.1795857001338645e-01
    1.9313695635478842e-02 -2.1218788062107707e-01
    1.9313695635478842e-02 -2.1218788062107707e-01
    1.9313695635478842e-02 -2.1218788062107707e-01
    1.9819467084972894e-02 -2.0628424925175867e-01
    2.0369999580128584e-02 -2.0023571015840683e-01
    9.7708438767233237e-03 -5.0283288385994518e-01
    8.8348054922912835e-03 -6.0791875887432878e-01
    8.2643925291206437e-03 -7.2158828647118001e-01
    8.0942761704157207e-03 -7.7694038615350902e-01
    7.8504267083684132e-03 -9.5780546268426858e-01
    7.8806889782044448e-03 -1.1027603556575878e+00
    7.9468051064551272e-03 -1.1763433953500924e+00
    8.1452882007714868e-03 -1.3187609467915740e+00
    9.1481502058194369e-03 -1.7667754036953320e+00
    9.0093082983993700e-03 -1.7139136501002612e+00
    9.0633357687378603e-03 -1.7346731418601340e+00
    1.0032700541776960e-02 -2.0768372618113804e+00
    9.5756826557226345e-03 -1.9213248974866606e+00
    9.8545580404754522e-03 -2.0171676968565060e+00
    9.8977164251388625e-03 -2.0317251233235725e+00
    1.0330048358911121e-02 -2.1742292260184359e+00
    1.0176532281500590e-02 -2.1242645786248002e+00
    9.3986993781103537e-03 -1.8586407545691699e+00
    8.3776508822999054e-03 -1.4435775295826980e+00
    7.9720946742749977e-03 -1.1985257979692343e+00
    7.8625872361950868e-03 -1.0729489793066220e+00
    8.0079091637327571e-03 -8.1495456523429954e-01
    8.5088489002871914e-03 -6.6421116415507153e-01
    8.7444458619812798e-03 -6.2192640467356652e-01
    9.9867610309078269e-03 -4.8507125007266588e-01
    1.8414677461762972e-02 -2.2360679774997894e-01
    1.8012751479756211e-02 -2.2914180453839533e-01
    2.0369999580128584e-02 -2.0023571015840683e-01
    2.5145937898423197e-02 -1.5994184989813393e-01
    2.9383902031322340e-02 -1.3592553320611694e-01 1. 0.
    4.7709045342960041e-02 -8.2760588860236808e-02
    4.1364491979727150e-02 -9.5672974646987957e-02
    3.7039930424166791e-02 -1.0708823421952983e-01
    3.3851518536729963e-02 -1.1744404390294068e-01
    2.5145937898423197e-02 -1.5994184989813393e-01
    2.5145937898423197e-02 -1.5994184989813393e-01
    2.4103446170792617e-02 -1.6724840200141816e-01
    2.4103446170792617e-02 -1.6724840200141816e-01
    2.4103446170792617e-02 -1.6724840200141816e-01
    1.9819467084972894e-02 -2.0628424925175867e-01
    1.5340009683220005e-02 -2.7497228241690280e-01
    9.2687559367301171e-03 -5.5202692670797404e-01
    8.3189033080770299e-03 -7.0710678118654757e-01
    8.1672395278630690e-03 -7.5088600149026785e-01
    7.9858518277618213e-03 -8.2656282693466743e-01
    7.8476781575732863e-03 -9.6654566695826094e-01
    7.8455782714416805e-03 -1.0252623033632291e+00
    7.9192626648851468e-03 -1.1493705371110516e+00
    7.8739881972645590e-03 -1.0927167294163060e+00
    8.3477330492804040e-03 -1.4287684593190133e+00
    8.7664377281200800e-03 -1.6170201292379318e+00
    9.0633357687378603e-03 -1.7346731418601340e+00
    8.9830179074059761e-03 -1.7037179541393102e+00
    8.6807622043837858e-03 -1.5811388300841895e+00
    8.7228405805919260e-03 -1.5988907445173430e+00
    8.1561510038211851e-03 -1.3252358280698573e+00
    8.2261590132073920e-03 -1.3651506743346553e+00
    7.8739881972645590e-03 -1.0927167294163060e+00
    7.9930132635292628e-03 -8.2268224950474655e-01
    8.4246359581646724e-03 -6.8199433947047350e-01
    9.0910933701224377e-03 -5.7298625900805700e-01
    1.0551472457473069e-02 -4.4538698366408436e-01
    1.1963163730145030e-02 -3.7354368381881420e-01
    2.0369999580128584e-02 -2.0023571015840683e-01
    2.0369999580128584e-02 -2.0023571015840683e-01
    2.6342668941056021e-02 -1.5232155510134432e-01
    2.6342668941056021e-02 -1.5232155510134432e-01
    3.3851518536729963e-02 -1.1744404390294068e-01
    4.1364491979727150e-02 -9.5672974646987957e-02
    8.2446470952412976e-02 -4.7673129462279612e-02
    4.1364491979727150e-02 -9.5672974646987957e-02
    4.1364491979727150e-02 -9.5672974646987957e-02
    4.1364491979727150e-02 -9.5672974646987957e-02
    4.1364491979727150e-02 -9.5672974646987957e-02
    4.7709045342960041e-02 -8.2760588860236808e-02
    2.7735454108129082e-02 -1.4433756729740643e-01
    2.7735454108129082e-02 -1.4433756729740643e-01
    2.7735454108129082e-02 -1.4433756729740643e-01
    2.6342668941056021e-02 -1.5232155510134432e-01
    2.6342668941056021e-02 -1.5232155510134432e-01
    2.6342668941056021e-02 -1.5232155510134432e-01
    2.0972198164906440e-02 -1.9402850002906638e-01
    1.5821614628292301e-02 -2.6530802761047972e-01
    9.5028362342334007e-03 -5.2750437871662958e-01
    8.9571966094867533e-03 -5.9044377650290236e-01
    8.1901039288996384e-03 -7.4351657776303182e-01
    8.1040459701944498e-03 -7.7319214103385825e-01
    8.0485652965855223e-03 -7.9582242575422157e-01
    8.0400369669761523e-03 -7.9962816637545131e-01
    7.9048551111692861e-03 -8.8217107550157925e-01
    7.9352524429923757e-03 -8.5803290871676063e-01
    8.1901039288996384e-03 -7.4351657776303182e-01
    8.0156466911670901e-03 -8.1110710565381272e-01
    7.8455782714416823e-03 -9.7536015585439961e-01
    7.8679558007459533e-03 -9.2354814518279882e-01
    7.8601506097527533e-03 -9.3626691956986874e-01
    8.2139024993032588e-03 -7.3617799611102341e-01
    8.7016149409075583e-03 -6.2894325678328433e-01
    8.7444458619812798e-03 -6.2192640467356652e-01
    9.1774720996452321e-03 -5.6251036474696281e-01
    9.9867610309078269e-03 -4.8507125007266588e-01
    2.0972198164906440e-02 -1.9402850002906638e-01
    2.0972198164906440e-02 -1.9402850002906638e-01
    2.0972198164906440e-02 -1.9402850002906638e-01
    2.5145937898423197e-02 -1.5994184989813393e-01
    2.7735454108129082e-02 -1.4433756729740643e-01
    2.7735454108129082e-02 -1.4433756729740643e-01
    3.7039930424166791e-02 -1.0708823421952983e-01
    4.1364491979727150e-02 -9.5672974646987957e-02</input_scale>
  <output_scale>
    1.0526315789473684e+00 0.</output_scale>
  <inv_output_scale>
    9.4999999999999996e-01 0.</inv_output_scale>
  <weights>
    <_>
      -1.1719048386403424e-03 -2.2903224389177911e-04
      -9.9637750405231888e-04 -5.5088375721748159e-04
      2.2039270841974236e-04 1.2144499427915077e-03
      9.9728247011042037e-04 2.0453599492093418e-04
      -7.2831549546728146e-04 -4.2920232853557353e-04
      -1.1054717958401724e-03 -1.2409612586460942e-04
      -2.1397120762249158e-05 -7.8018402384446585e-04
      6.7194088742161514e-04 -1.1208781013474275e-03
      1.1037170489498088e-03 1.0083693640301039e-03
      -2.5698247005999147e-04 -3.4383640164285737e-05
      3.0002183913935715e-04 -7.7645728251324352e-04
      -6.5397802009701264e-04 9.5527311481024093e-04
      -1.0954164450422850e-03 -3.1663012947851025e-04
      6.1523554708813478e-04 -6.3403300196013517e-04
      1.0630743572223426e-03 -2.4215284090006096e-04
      1.2150750992007805e-03 -3.7732545206526025e-04
      2.2581237915161135e-04 8.1166924113520002e-04
      1.1322676431532379e-03 5.1786688077618958e-04
      8.1904968067006900e-04 5.2277548999592920e-04
      1.2256443938238879e-03 -1.5902424652943092e-04
      2.3875806186915899e-01 7.6610171301140905e-03
      6.0153887199414077e-03 -5.4302727710128569e-05
      -6.2831376553087511e-03 6.3317037824472261e-04
      -1.2866485754562500e-03 -4.8219454674034773e-03
      -9.5161588695705842e-03 8.5019882144741158e-03
      -1.0416261950583568e-03 6.0324573649535784e-03
      4.5727384417416851e-04 -1.8638644830476405e-03
      -9.8676561323551969e-03 -8.6616877875054653e-04
      -7.6562914615365034e-03 4.2784845109279761e-03
      -1.0129484695590543e-02 1.0265038110119489e-02
      -4.3101860107927414e-03 1.2176715441101937e-02
      1.0427739471570888e-02 7.5990040421955451e-03
      -6.7863362644814183e-04 -1.2019575547523304e-02
      8.1719231140457826e-03 -8.9632794705921445e-03
      3.6530760478836494e-04 -1.8024945815789945e-04
      -6.7265676340501485e-03 -7.4803553069782381e-03
      8.0205937559383704e-03 7.9646730896059412e-04
      2.8219795399116714e-03 1.0602862307461288e-02
      7.3714688199207736e-03 1.0024636191515149e-03
      -8.2237953628219139e-03 -6.7115513324737799e-03
      1.7891344645546359e-01 7.7737601821349861e-03
      6.4087850268183724e-03 -6.0431743036304549e-04
      -5.4264882101187463e-03 2.7163606117026726e-03
      -1.8232081152083255e-04 -5.3137115564873940e-03
      -1.0264654934365267e-02 8.7375366814431924e-03
      -1.3177827193735184e-03 3.9220204312782015e-03
      3.9230704996304086e-04 -2.7824390434000603e-03
      -8.0295775335447826e-03 -2.6153136275041343e-03
      -6.5209730340982609e-03 4.6812096702835895e-03
      -1.0103903066450646e-02 1.0108486580280553e-02
      -3.8187804961880619e-03 1.1943334383259898e-02
      8.7220277750888111e-03 7.4049680817387300e-03
      -1.4211587193023538e-03 -9.6355947385170313e-03
      7.8864187121441172e-03 -9.0632871732809622e-03
      8.7829847879866924e-04 -3.0120003545859548e-04
      -5.7977303765831684e-03 -8.4850096045097582e-03
      8.1840361850678799e-03 -7.0531075115936345e-04
      3.4950514912165543e-03 1.1506545549743306e-02
      5.4692016770491667e-03 1.6041962771106506e-03
      -8.4883862930650276e-03 -5.7129820107086450e-03
      2.4341835613135626e-01 6.4812750721183390e-03
      5.1849367853037545e-03 4.9787066149137532e-04
      -3.5724052473566177e-03 8.4010651415901839e-04
      6.1448759880508358e-04 -4.2749056518430932e-03
      -5.7103681570166405e-03 6.0865928978415494e-03
      1.6559925379178159e-04 4.0435187935478839e-03
      6.7614052473024937e-04 -2.0973785619321467e-03
      -6.2651400551944876e-03 -4.2492600811624677e-04
      -4.3764593088849325e-03 3.4453540563264802e-03
      -7.3685321450584909e-03 5.6056026210106686e-03
      -2.7369931635434900e-03 5.6145965936701975e-03
      6.8310999833462857e-03 4.3500739574307444e-03
      6.4234958747667588e-04 -6.1202877792240285e-03
      5.4285616495010590e-03 -6.6640928704462168e-03
      1.4458077790747048e-03 7.9161594034877906e-04
      -4.1326331552558266e-03 -4.5310439928872934e-03
      7.5873603730154567e-03 -1.5861878577420427e-04
      2.5069231200991453e-03 6.2130574726605506e-03
      5.5277540005025704e-03 1.7902318466998884e-03
      -4.3984831311559896e-03 -5.0900175084378028e-03
      1.2486516726369665e+00 9.4165305294226731e-02
      7.7239234572585053e-02 2.8290515165325724e-02
      -7.0620644532713536e-02 1.8834411020163207e-02
      -2.5839708448767030e-02 -5.9845060808160953e-02
      -4.1533407233241157e-02 1.1327522832648379e-01
      2.3876305130182292e-02 5.9629031257864097e-02
      2.6822560506063145e-02 -4.0717979738499444e-02
      -3.8610651197067351e-02 1.7673951696589994e-02
      -3.7210881310702708e-02 5.1649868231133843e-02
      -1.2140654366967397e-01 1.1607239446130492e-01
      -5.8064135697611555e-02 4.1571699712753978e-02
      2.3940651004712057e-02 7.8128796085228241e-02
      2.0067344590833029e-02 -4.0753067639559146e-02
      1.0107791844901431e-01 -1.0218799224566472e-01
      2.5965832465144695e-02 2.2901939847324370e-02
      -8.1609981811728932e-02 -9.7281272654173315e-02
      1.2677966826550699e-01 2.9923870548964442e-02
      4.2909055330341193e-02 3.0410823967030390e-02
      7.5171563511973488e-02 3.6976475009668303e-02
      -8.5953447010439485e-02 -7.1331404128607070e-02
      1.2490774368029334e+00 9.2794312641773680e-02
      7.8090001642739354e-02 2.8920443819135704e-02
      -6.9476558313963474e-02 1.7485009997370599e-02
      -2.6350536512332195e-02 -6.0302571386287203e-02
      -4.1380542082918900e-02 1.1348940257847534e-01
      2.2635680799493473e-02 5.9220752274015610e-02
      2.7016435516925154e-02 -4.1124177137400589e-02
      -3.7011073925505462e-02 1.8132249917022780e-02
      -3.7910624797841540e-02 5.0252274348793473e-02
      -1.2333016118462048e-01 1.1592060037295901e-01
      -5.8054551419123655e-02 4.2962284199902147e-02
      2.5368222166274594e-02 7.8241640311305385e-02
      1.8076944976998834e-02 -4.1448382075460775e-02
      1.0267949097824473e-01 -1.0294438136997135e-01
      2.6459769163009614e-02 2.3176774761355115e-02
      -8.2256965458742920e-02 -9.7379939672788712e-02
      1.2825670563818622e-01 3.0822891309006631e-02
      4.4118796866292602e-02 3.0316997698096506e-02
      7.5950456445151263e-02 3.6963268281658759e-02
      -8.4897796454251481e-02 -7.2757056683590809e-02
      6.4532895893737774e-01 9.5491490367784898e-03
      9.4438598557547299e-03 1.2633908220074780e-03
      -8.6831150160838026e-03 1.0024697417071141e-03
      -6.2595847713657431e-04 -7.7089369142634475e-03
      -2.9503843866669540e-02 1.2343143233800865e-02
      -1.3294899597204582e-03 6.7975470580441460e-03
      -3.6941963027283572e-04 -2.4688110257976461e-03
      -2.9373960426037609e-02 -3.7005962475714096e-03
      -3.2154103075544865e-02 3.7142434800642343e-03
      -1.2417856865386868e-02 1.3217743864991917e-02
      -5.9043984977229479e-03 3.0367356447476460e-02
      1.6309920443403354e-02 7.8977964010206146e-03
      -4.4820217954422668e-03 -2.9036484788778211e-02
      1.0447927845845230e-02 -9.5101998619719109e-03
      -8.6944745227978965e-04 -1.9379551369476226e-04
      -8.0722495058577516e-03 -9.5021404552455002e-03
      1.2396251169340991e-02 -1.8748468896066117e-04
      4.4214868958617082e-03 2.0979307871364254e-02
      7.8944157501312680e-03 2.8598607651175558e-03
      -1.0287015062532991e-02 -7.8392516953463744e-03
      6.4552251519841741e-01 9.5316060090177915e-03
      7.2152843238173798e-03 -2.7810991493335465e-05
      -8.5645022558564262e-03 2.5629186529494748e-03
      9.6342420101536966e-04 -6.3725022619285070e-03
      -2.9102317496559286e-02 1.2080189919037539e-02
      1.6171027889691755e-04 7.5534964356199228e-03
      -1.3155375453443796e-03 -1.9404507473632984e-03
      -2.9188303338660990e-02 -5.4635666741197457e-03
      -3.2380266113004770e-02 5.0889417523655072e-03
      -1.2703109394841119e-02 1.2854845668345933e-02
      -5.4663052310579257e-03 2.8731316742686048e-02
      1.5953417211784393e-02 8.9941698101877205e-03
      -3.3813948880898133e-03 -3.1256512699065805e-02
      9.2150368972029866e-03 -1.1306085379653844e-02
      4.3328329323445182e-04 -6.3467374844355408e-04
      -9.8084480816160620e-03 -1.0654451066313535e-02
      1.2686719676851329e-02 1.8393742067385730e-04
      3.7033278490119061e-03 2.0653997093477032e-02
      9.1874106904825861e-03 1.6353445438783685e-03
      -8.3474090984037626e-03 -7.4226954952036827e-03
      1.6713067988832048e-01 4.7997327633284006e-03
      2.2185736707860748e-03 1.1801289868725176e-02
      -2.8887007385019620e-03 2.4851581884460625e-03
      -1.0782926355516784e-02 -5.0123311577854072e-03
      1.5579682295534431e-02 7.7720465331928461e-04
      9.3850763644575327e-03 4.5137438037738094e-03
      9.8779306775996466e-03 -1.1769090390882472e-02
      6.7265965289125557e-03 9.9566912188743667e-03
      8.2357254896122572e-04 6.3038937118140978e-03
      -5.3187519703589183e-03 -8.3226383437448256e-04
      -4.9624339167245934e-03 -1.7896439533227403e-02
      -2.1042042969833093e-02 4.8779791512130707e-04
      9.2838423415581017e-03 1.3994331634529504e-02
      5.0827030753111983e-03 -4.9498025926098541e-03
      1.0395237397238390e-02 8.8740395820510812e-03
      -3.1068750956383720e-03 -4.4494011333865539e-03
      6.6032678723357198e-04 1.1685344780570430e-02
      8.6637891739701350e-03 -1.9724327004219212e-02
      3.3018060500374165e-03 1.0301356504802508e-02
      -4.4298146834517793e-03 -9.9826492103127990e-04
      6.4548830766357546e-01 9.2028718692169133e-03
      8.8480473178525094e-03 -1.3161055375789460e-04
      -7.8438862635516506e-03 1.7872692605926392e-03
      -8.8329465713969912e-05 -7.0046726298647177e-03
      -3.1467307923631567e-02 1.2460660795240965e-02
      -8.3807108875489907e-04 7.3349206616649164e-03
      -1.0098925612083579e-03 -2.1467850726511382e-03
      -2.8720404362778628e-02 -5.4793738828070411e-03
      -3.0637210940334048e-02 6.0511069606102334e-03
      -1.1913558431770775e-02 1.3130087985801382e-02
      -5.8293139100915221e-03 2.9620322459446551e-02
      1.4110432614238388e-02 8.3481169398821626e-03
      -2.2855928627347759e-03 -2.9634305805046841e-02
      1.0303357271577215e-02 -1.0005753672523050e-02
      -8.2298411796728678e-04 -3.6107245737230647e-04
      -8.7676928133383243e-03 -1.0756511096926798e-02
      1.1923374806240923e-02 7.1047781884156296e-04
      3.5714792298926685e-03 1.8614876093360801e-02
      9.0274032932415819e-03 2.7442010741448369e-03
      -1.0439844964489861e-02 -8.1714854417115467e-03
      2.6572217960627831e-01 5.3873632829162139e-03
      3.8557738145607746e-03 1.0438700055664637e-02
      -2.0495017672053071e-03 2.6873887613101440e-03
      -1.0263717225501926e-02 -5.7102807747155771e-03
      9.8567289993860586e-03 3.5290587014246400e-03
      1.0446239183159158e-02 4.2244166609166521e-03
      1.0228103782769369e-02 -9.6619805767965555e-03
      1.4826874617771490e-04 8.6712512691370404e-03
      -4.7185703596865350e-03 6.2826409148345691e-03
      -7.1394394656952879e-03 5.4270737195333534e-04
      -6.7737924755072471e-03 -9.3501556157342507e-03
      -1.3695093576399638e-02 3.4357185683301472e-03
      8.6205039154103637e-03 8.3460759153497575e-03
      5.3568634938808372e-03 -6.7149416331279124e-03
      1.0421722201842077e-02 7.5435789990749213e-03
      -4.1677364157644142e-03 -5.8785987288959441e-03
      2.6361294189615439e-03 1.0661332777117690e-02
      8.4828823451432549e-03 -1.4399068333916930e-02
      4.4638123819567147e-03 1.1477418970256666e-02
      -5.6270401262079094e-03 -2.7440727316774697e-03
      1.6624712961107202e-01 4.8911280154416625e-03
      3.1188703286545655e-03 1.0719255849053441e-02
      -2.9934193529831312e-03 1.2244248831637405e-03
      -1.0297509982154729e-02 -3.2761578436823540e-03
      1.5907447974969402e-02 1.6213668926409565e-04
      1.0557855809553564e-02 3.2397136852495220e-03
      1.1056699183920342e-02 -1.1739224208771607e-02
      6.5058557557183139e-03 1.1624968432245237e-02
      2.2398866817433584e-04 7.6929765424096535e-03
      -4.0503886610537918e-03 5.8535490746475173e-04
      -4.7790017813062599e-03 -1.6843383909081026e-02
      -2.3250194882048422e-02 2.3011896687254638e-03
      1.0262288844706372e-02 1.5416327790261058e-02
      4.3925680944515043e-03 -5.6493214545152819e-03
      1.1995461478744765e-02 7.0075144326752796e-03
      -2.1020864564233236e-03 -3.7276258482923049e-03
      1.4464232904409095e-03 1.0967727884180741e-02
      1.0507089439823515e-02 -2.0087667606836144e-02
      3.0245253176916821e-03 9.7882347965323694e-03
      -2.7652147961895433e-03 -1.2251761248843693e-03
      3.1287476222390631e-01 -7.7526025172327852e-03
      -5.9500270512506713e-03 -4.8313945430326422e-04
      6.0041506371001259e-03 -1.0424820677759836e-03
      1.6877888354978419e-03 3.7122549153965094e-03
      -8.1373858148029044e-03 -1.2094742078435037e-02
      -2.8443401831148574e-03 -2.2339099626980012e-03
      -2.4193896568857937e-03 1.3070143120017682e-03
      -1.1043084755224686e-02 -1.6511749195321460e-03
      -1.2048696569391575e-02 -1.3364470035389145e-03
      8.6276089153940142e-03 -1.1977612741755048e-02
      3.0525666669050573e-03 9.1440469900423947e-03
      7.3746863052472113e-03 -5.5044439880945909e-03
      -2.9976588930770306e-03 -1.1917901345918797e-02
      -8.3296520718446222e-03 8.8369778652890828e-03
      -2.1347438981279905e-03 -2.2051118843786780e-03
      5.3097692696684106e-03 7.5834429343155504e-03
      -1.2115272941651873e-02 -1.5521982559504070e-03
      -1.3208763216705282e-03 7.7070440747557456e-03
      -6.0535726277200583e-03 -1.6068571489414915e-03
      6.7810457810207649e-03 4.3362359182210633e-03
      -5.3471033225927500e-01 7.1502126022668496e-03
      7.5630662079472083e-03 3.7639493666221054e-03
      -6.6704145320262394e-03 3.3742340325635884e-03
      -4.4480422431620341e-03 -4.8786372864332312e-03
      2.0397299969082159e-02 5.4707444021747037e-03
      3.8834485630718568e-03 5.2564738295550291e-03
      4.9451881124599889e-03 -4.9294135140553509e-03
      1.4850786460955136e-02 4.7992230250095405e-03
      8.2343909305167065e-03 4.0424943707313829e-03
      -8.3359960625072633e-03 7.2019216683983081e-03
      -6.8436195574800287e-03 -1.7322674813735575e-02
      -3.0192848525921939e-02 7.0333231812183790e-03
      5.3623809204188730e-03 1.9848828807232426e-02
      7.4872018249973254e-03 -6.1813504262926778e-03
      4.1536970794128145e-03 3.7832332820247746e-03
      -7.7486180714028416e-03 -7.0486224875299219e-03
      3.7677267988029486e-03 4.8470495583061322e-03
      4.0645195878971727e-03 -2.8022006530060713e-02
      6.4345941669952614e-03 2.9609516841517243e-03
      -8.7310842105861406e-03 -6.1581063898724338e-03
      -7.6926913545869524e-01 -2.2554032725232195e-02
      -2.0639506340331033e-02 -8.7367492087131633e-03
      1.7642613971108494e-02 -2.6252051150044663e-03
      8.1592788738958037e-03 1.6942985572260059e-02
      9.3457533215337112e-03 -2.0166322735999925e-02
      -6.7033485520742652e-03 -1.5862704831139024e-02
      -7.0475836559532540e-03 1.3847574033494188e-02
      3.7347451779900622e-03 -7.1746692302458292e-03
      6.0337683022778305e-03 -1.4679629766777696e-02
      2.3677468284482476e-02 -2.1544771405291912e-02
      1.6168623942781950e-02 -9.4651397949274737e-03
      -7.0133416465832698e-03 -1.9455948969355225e-02
      -6.2829242567925513e-03 1.2835688672107081e-02
      -1.9459836266559685e-02 1.6420860412566244e-02
      -9.7309707655679045e-03 -6.4937512150105058e-03
      2.1134747499903773e-02 1.9888595100807115e-02
      -1.5257774390361658e-02 -9.1779513824670460e-03
      -1.2881000519452429e-02 -2.1601441441827778e-02
      -1.9931209183023373e-02 -1.0267724646407428e-02
      2.0478739215061804e-02 1.8047548302709448e-02
      -6.6132804519097732e-01 -1.8312908036612705e-02
      -1.7388085967109022e-02 -4.0485675543024905e-03
      1.5812600525550832e-02 -2.6088474896665275e-03
      2.1130220359497939e-03 1.4058178039684869e-02
      1.5475265732132711e-02 -1.0497978985154689e-02
      -5.8590634914637433e-04 -1.5300359891014154e-02
      -1.1744444584214746e-03 7.2340766452365238e-03
      1.7131449069945303e-02 -4.2520423923711698e-04
      1.1684482191312372e-02 -1.2290919446889889e-02
      1.3527099502857153e-02 -1.2913836963497837e-02
      1.3235369454757314e-02 -1.9573859728967240e-02
      -1.7841851425948033e-02 -1.7074622722855298e-02
      -1.5206174045518300e-04 2.1149960289732688e-02
      -1.0790822149402350e-02 6.1593256466560527e-03
      -1.2953876635696806e-03 -2.2649997286777841e-03
      1.7000686502299415e-02 1.1375908845702313e-02
      -2.2434722864911848e-03 -2.5398598725055732e-03
      -9.2874199321414785e-03 -3.3645558250988326e-02
      -1.6982257694271946e-02 -5.4019739925828154e-03
      1.6322767685640730e-02 1.6547904008019816e-02
      -8.5534487340270959e-01 -1.5353807993367025e-02
      -1.4135810975930257e-02 1.2912931267595081e-03
      1.4331152365197303e-02 -3.6975788405182249e-03
      -1.4741944473781676e-03 1.1457302227478242e-02
      2.3189059392500207e-02 -8.0757846762744764e-03
      1.6229328415534282e-03 -1.1296042117857362e-02
      1.9441589916192330e-03 5.7263015567629591e-03
      2.1640139061797577e-02 4.9424079056035099e-03
      1.6192867269437049e-02 -8.1727324330137796e-03
      1.2282582004709913e-02 -8.3092877130866057e-03
      1.1350774386252977e-02 -3.0141783846796701e-02
      -2.7110885865685334e-02 -1.5147905934879918e-02
