<?xml version="1.0"?>
<opencv_storage>
<shapeML type_id="opencv-ml-ann-mlp">
  <layer_sizes type_id="opencv-matrix">
    <rows>1</rows>
    <cols>3</cols>
    <dt>i</dt>
    <data>
      1600 40 1</data></layer_sizes>
  <activation_function>SIGMOID_SYM</activation_function>
  <f_param1>5.9999999999999998e-01</f_param1>
  <f_param2>1.</f_param2>
  <min_val>-9.4999999999999996e-01</min_val>
  <max_val>9.4999999999999996e-01</max_val>
  <min_val1>-9.7999999999999998e-01</min_val1>
  <max_val1>9.7999999999999998e-01</max_val1>
  <training_params>
    <train_method>BACKPROP</train_method>
    <dw_scale>1.0000000000000001e-01</dw_scale>
    <moment_scale>1.0000000000000001e-01</moment_scale>
    <term_criteria><epsilon>9.9999999747524271e-07</epsilon>
      <iterations>4000</iterations></term_criteria></training_params>
  <input_scale>
    1. 0. 2.3863178957040466e-02 -1.6903085094570330e-01
    2.3863178957040466e-02 -1.6903085094570330e-01
    3.3509129172532327e-02 -1.1867816581938533e-01
    1.9624886028901153e-02 -2.0851441405707474e-01
    1.9624886028901153e-02 -2.0851441405707474e-01
    2.3863178957040466e-02 -1.6903085094570330e-01
    2.3863178957040466e-02 -1.6903085094570330e-01
    1.9624886028901153e-02 -2.0851441405707474e-01
    2.3863178957040466e-02 -1.6903085094570330e-01
    1.7120161767270561e-02 -2.4253562503633294e-01
    1.9624886028901153e-02 -2.0851441405707474e-01
    1.9624886028901153e-02 -2.0851441405707474e-01
    1.7120161767270561e-02 -2.4253562503633294e-01
    1.7120161767270561e-02 -2.4253562503633294e-01
    1.2478354962115544e-02 -3.5355339059327373e-01
    1.2478354962115544e-02 -3.5355339059327373e-01
    3.3509129172532327e-02 -1.1867816581938533e-01
    1.9624886028901153e-02 -2.0851441405707474e-01
    9.6562668431543919e-03 -5.1298917604257710e-01
    8.6277505602655180e-03 -6.4168894791974795e-01
    9.9086457366154793e-03 -4.9130368444051753e-01
    1.1857708957152227e-02 -3.7796447300922725e-01
    1.2478354962115544e-02 -3.5355339059327373e-01
    3.3509129172532327e-02 -1.1867816581938533e-01
    2.3863178957040466e-02 -1.6903085094570330e-01
    1.9624886028901153e-02 -2.0851441405707474e-01
    1.7120161767270561e-02 -2.4253562503633294e-01
    1.9624886028901153e-02 -2.0851441405707474e-01
    2.3863178957040466e-02 -1.6903085094570330e-01
    1.9624886028901153e-02 -2.0851441405707474e-01
    3.3509129172532327e-02 -1.1867816581938533e-01
    2.3863178957040466e-02 -1.6903085094570330e-01
    3.3509129172532327e-02 -1.1867816581938533e-01
    1.9624886028901153e-02 -2.0851441405707474e-01
    1.9624886028901153e-02 -2.0851441405707474e-01
    3.3509129172532327e-02 -1.1867816581938533e-01
    3.3509129172532327e-02 -1.1867816581938533e-01 1. 0.
    3.3509129172532327e-02 -1.1867816581938533e-01
    3.3509129172532327e-02 -1.1867816581938533e-01
    1.9624886028901153e-02 -2.0851441405707474e-01
    2.3863178957040466e-02 -1.6903085094570330e-01
    2.3863178957040466e-02 -1.6903085094570330e-01
    1.7120161767270561e-02 -2.4253562503633294e-01
    1.7120161767270561e-02 -2.4253562503633294e-01
    1.5426589121171381e-02 -2.7317918235407651e-01
    1.5426589121171381e-02 -2.7317918235407651e-01
    1.5426589121171381e-02 -2.7317918235407651e-01
    1.4188769156600639e-02 -3.0151134457776357e-01
    1.0900114397395523e-02 -4.2465029006520061e-01
    1.1339566996270572e-02 -4.0160966445124940e-01
    1.1339566996270572e-02 -4.0160966445124940e-01
    9.6562668431543919e-03 -5.1298917604257710e-01
    9.0564748108176597e-03 -5.7735026918962584e-01
    8.6277505602655180e-03 -6.4168894791974795e-01
    8.6277505602655180e-03 -6.4168894791974795e-01
    8.1003573254011339e-03 -7.7459666924148340e-01
    8.1003573254011339e-03 -7.7459666924148340e-01
    8.4106654409576379e-03 -6.8511878904467427e-01
    7.9543929856801549e-03 -8.4515425472851646e-01
    8.4106654409576379e-03 -6.8511878904467427e-01
    8.4106654409576379e-03 -6.8511878904467427e-01
    8.7553930298264783e-03 -6.2017367294604220e-01
    9.2339285670738156e-03 -5.5595944914256934e-01
    9.9086457366154793e-03 -4.9130368444051753e-01
    1.2478354962115544e-02 -3.5355339059327373e-01
    1.3236910050028106e-02 -3.2816506165694681e-01
    1.2478354962115544e-02 -3.5355339059327373e-01
    1.3236910050028106e-02 -3.2816506165694681e-01
    1.5426589121171381e-02 -2.7317918235407651e-01
    1.4188769156600639e-02 -3.0151134457776357e-01
    1.4188769156600639e-02 -3.0151134457776357e-01
    1.5426589121171381e-02 -2.7317918235407651e-01
    1.5426589121171381e-02 -2.7317918235407651e-01
    1.7120161767270561e-02 -2.4253562503633294e-01
    2.3863178957040466e-02 -1.6903085094570330e-01
    2.3863178957040466e-02 -1.6903085094570330e-01
    2.3863178957040466e-02 -1.6903085094570330e-01
    2.3863178957040466e-02 -1.6903085094570330e-01 1. 0.
    1.9624886028901153e-02 -2.0851441405707474e-01
    1.9624886028901153e-02 -2.0851441405707474e-01
    2.3863178957040466e-02 -1.6903085094570330e-01
    1.7120161767270561e-02 -2.4253562503633294e-01
    1.4188769156600639e-02 -3.0151134457776357e-01
    1.2478354962115544e-02 -3.5355339059327373e-01
    1.3236910050028106e-02 -3.2816506165694681e-01
    9.9086457366154793e-03 -4.9130368444051753e-01
    1.0195173807164032e-02 -4.6940279403817725e-01
    9.2339285670738156e-03 -5.5595944914256934e-01
    9.2339285670738156e-03 -5.5595944914256934e-01
    8.5132614939603841e-03 -6.6332495807107994e-01
    8.1003573254011339e-03 -7.7459666924148340e-01
    8.1644460983469214e-03 -7.5180941155611236e-01
    7.8552689516422202e-03 -9.4590530292691744e-01
    7.8552689516422202e-03 -9.4590530292691744e-01
    7.8552689516422202e-03 -9.4590530292691744e-01
    7.8461649088479284e-03 -1.0281745265969473e+00
    7.9957478370155152e-03 -8.2122993409346845e-01
    7.8552689516422202e-03 -9.4590530292691744e-01
    7.9198971311042043e-03 -8.6953870585248250e-01
    8.1644460983469214e-03 -7.5180941155611236e-01
    8.1644460983469214e-03 -7.5180941155611236e-01
    7.8920046264698458e-03 -8.9442719099991586e-01
    7.8920046264698458e-03 -8.9442719099991586e-01
    8.7553930298264783e-03 -6.2017367294604220e-01
    9.9086457366154793e-03 -4.9130368444051753e-01
    9.9086457366154793e-03 -4.9130368444051753e-01
    1.1857708957152227e-02 -3.7796447300922725e-01
    1.2478354962115544e-02 -3.5355339059327373e-01
    1.3236910050028106e-02 -3.2816506165694681e-01
    1.1857708957152227e-02 -3.7796447300922725e-01
    1.2478354962115544e-02 -3.5355339059327373e-01
    1.2478354962115544e-02 -3.5355339059327373e-01
    1.3236910050028106e-02 -3.2816506165694681e-01
    2.3863178957040466e-02 -1.6903085094570330e-01
    1.9624886028901153e-02 -2.0851441405707474e-01
    2.3863178957040466e-02 -1.6903085094570330e-01
    3.3509129172532327e-02 -1.1867816581938533e-01 1. 0.
    2.3863178957040466e-02 -1.6903085094570330e-01
    1.9624886028901153e-02 -2.0851441405707474e-01
    1.7120161767270561e-02 -2.4253562503633294e-01
    1.3236910050028106e-02 -3.2816506165694681e-01
    1.3236910050028106e-02 -3.2816506165694681e-01
    1.2478354962115544e-02 -3.5355339059327373e-01
    9.6562668431543919e-03 -5.1298917604257710e-01
    9.4327497145561545e-03 -5.3452248382484868e-01
    8.7553930298264783e-03 -6.2017367294604220e-01
    8.8976963528930031e-03 -5.9874081708009175e-01
    7.9543929856801549e-03 -8.4515425472851646e-01
    8.0442759853862084e-03 -7.9772403521746571e-01
    7.8552689516422202e-03 -9.4590530292691744e-01
    7.8461649088479302e-03 -9.7259752515927467e-01
    7.8552689516422202e-03 -1.0571882797418488e+00
    8.1003573254011339e-03 -1.2909944487358056e+00
    8.1003573254011339e-03 -1.2909944487358056e+00
    7.8705130353608540e-03 -1.0871146130092180e+00
    7.8461649088479302e-03 -9.7259752515927467e-01
    7.9543929856801549e-03 -1.1832159566199230e+00
    7.9198971311042043e-03 -1.1500350625790898e+00
    7.8920046264698458e-03 -1.1180339887498947e+00
    7.8461649088479284e-03 -1.0281745265969473e+00
    7.8461649088479302e-03 -9.7259752515927467e-01
    7.8705130353608540e-03 -9.1986621100779986e-01
    7.9957478370155152e-03 -8.2122993409346845e-01
    7.8552689516422202e-03 -9.4590530292691744e-01
    9.6562668431543919e-03 -5.1298917604257710e-01
    9.9086457366154793e-03 -4.9130368444051753e-01
    9.4327497145561545e-03 -5.3452248382484868e-01
    9.6562668431543919e-03 -5.1298917604257710e-01
    1.1857708957152227e-02 -3.7796447300922725e-01
    1.1857708957152227e-02 -3.7796447300922725e-01
    1.1339566996270572e-02 -4.0160966445124940e-01
    1.1857708957152227e-02 -3.7796447300922725e-01
    1.5426589121171381e-02 -2.7317918235407651e-01
    1.9624886028901153e-02 -2.0851441405707474e-01
    3.3509129172532327e-02 -1.1867816581938533e-01
    3.3509129172532327e-02 -1.1867816581938533e-01 1. 0.
    2.3863178957040466e-02 -1.6903085094570330e-01
    2.3863178957040466e-02 -1.6903085094570330e-01
    1.3236910050028106e-02 -3.2816506165694681e-01
    1.1857708957152227e-02 -3.7796447300922725e-01
    1.2478354962115544e-02 -3.5355339059327373e-01
    9.9086457366154793e-03 -4.9130368444051753e-01
    9.6562668431543919e-03 -5.1298917604257710e-01
    9.2339285670738156e-03 -5.5595944914256934e-01
    8.6277505602655180e-03 -6.4168894791974795e-01
    7.9198971311042043e-03 -8.6953870585248250e-01
    7.8461649088479302e-03 -9.7259752515927467e-01
    7.8552689516422202e-03 -9.4590530292691744e-01
    7.8461649088479284e-03 -1.0281745265969473e+00
    7.8461649088479284e-03 -1.0281745265969473e+00
    7.8552689516422202e-03 -9.4590530292691744e-01
    8.1644460983469197e-03 -1.3301243435223522e+00
    7.9198971311042043e-03 -1.1500350625790898e+00
    7.8552689516422202e-03 -1.0571882797418488e+00
    7.8552689516422202e-03 -1.0571882797418488e+00
    7.9957478370155152e-03 -1.2176857643454877e+00
    7.8705130353608540e-03 -1.0871146130092180e+00
    7.8705130353608540e-03 -1.0871146130092180e+00
    7.8431372549019607e-03 -1. 7.9198971311042043e-03
    -8.6953870585248250e-01 7.8431372549019607e-03 -1.
    7.8461649088479284e-03 -1.0281745265969473e+00
    7.8431372549019607e-03 -1. 7.9198971311042043e-03
    -8.6953870585248250e-01 8.1644460983469214e-03
    -7.5180941155611236e-01 8.6277505602655180e-03
    -6.4168894791974795e-01 9.6562668431543919e-03
    -5.1298917604257710e-01 9.6562668431543919e-03
    -5.1298917604257710e-01 1.1339566996270572e-02
    -4.0160966445124940e-01 1.1339566996270572e-02
    -4.0160966445124940e-01 1.0900114397395523e-02
    -4.2465029006520061e-01 1.5426589121171381e-02
    -2.7317918235407651e-01 1.7120161767270561e-02
    -2.4253562503633294e-01 3.3509129172532327e-02
    -1.1867816581938533e-01 3.3509129172532327e-02
    -1.1867816581938533e-01 1. 0. 1.9624886028901153e-02
    -2.0851441405707474e-01 1.4188769156600639e-02
    -3.0151134457776357e-01 1.3236910050028106e-02
    -3.2816506165694681e-01 1.1857708957152227e-02
    -3.7796447300922725e-01 9.4327497145561545e-03
    -5.3452248382484868e-01 9.2339285670738156e-03
    -5.5595944914256934e-01 9.2339285670738156e-03
    -5.5595944914256934e-01 8.1644460983469214e-03
    -7.5180941155611236e-01 7.8552689516422202e-03
    -9.4590530292691744e-01 7.8705130353608540e-03
    -9.1986621100779986e-01 7.8461649088479302e-03
    -9.7259752515927467e-01 7.8552689516422202e-03
    -1.0571882797418488e+00 8.0442759853862084e-03
    -7.9772403521746571e-01 7.8705130353608540e-03
    -9.1986621100779986e-01 7.8920046264698458e-03
    -1.1180339887498947e+00 8.7553930298264783e-03
    -1.6124515496597096e+00 8.1003573254011339e-03
    -1.2909944487358056e+00 8.4106654409576362e-03
    -1.4596008983995230e+00 7.8920046264698458e-03
    -1.1180339887498947e+00 7.8920046264698458e-03
    -1.1180339887498947e+00 8.3189033080770299e-03
    -1.4142135623730951e+00 7.8431372549019607e-03 -1.
    7.8461649088479284e-03 -1.0281745265969473e+00
    7.9957478370155152e-03 -1.2176857643454877e+00
    8.0442759853862084e-03 -1.2535663410560176e+00
    8.0442759853862084e-03 -1.2535663410560176e+00
    7.8920046264698458e-03 -1.1180339887498947e+00
    7.9198971311042043e-03 -8.6953870585248250e-01
    7.9957478370155152e-03 -8.2122993409346845e-01
    8.2370818728222817e-03 -7.2932495748947290e-01
    8.3189033080770299e-03 -7.0710678118654757e-01
    9.4327497145561545e-03 -5.3452248382484868e-01
    9.4327497145561545e-03 -5.3452248382484868e-01
    1.0522672835293128e-02 -4.4721359549995793e-01
    1.1339566996270572e-02 -4.0160966445124940e-01
    1.4188769156600639e-02 -3.0151134457776357e-01
    1.5426589121171381e-02 -2.7317918235407651e-01
    1.9624886028901153e-02 -2.0851441405707474e-01
    3.3509129172532327e-02 -1.1867816581938533e-01 1. 0.
    1.7120161767270561e-02 -2.4253562503633294e-01
    1.4188769156600639e-02 -3.0151134457776357e-01
    9.6562668431543919e-03 -5.1298917604257710e-01
    9.6562668431543919e-03 -5.1298917604257710e-01
    9.0564748108176597e-03 -5.7735026918962584e-01
    8.7553930298264783e-03 -6.2017367294604220e-01
    8.6277505602655180e-03 -6.4168894791974795e-01
    7.8705130353608540e-03 -9.1986621100779986e-01
    7.8705130353608540e-03 -9.1986621100779986e-01
    7.9198971311042043e-03 -8.6953870585248250e-01
    7.8705130353608540e-03 -1.0871146130092180e+00
    7.9543929856801549e-03 -1.1832159566199230e+00
    7.8920046264698458e-03 -1.1180339887498947e+00
    8.6277505602655180e-03 -1.5583874449479591e+00
    8.3189033080770299e-03 -1.4142135623730951e+00
    8.3189033080770299e-03 -1.4142135623730951e+00
    8.6277505602655180e-03 -1.5583874449479591e+00
    8.8976963528930048e-03 -1.6701717529076245e+00
    8.3189033080770299e-03 -1.4142135623730951e+00
    8.2370818728222817e-03 -1.3711309200802091e+00
    7.9957478370155152e-03 -1.2176857643454877e+00
    7.9198971311042043e-03 -1.1500350625790898e+00
    7.9543929856801549e-03 -1.1832159566199230e+00
    7.8552689516422202e-03 -1.0571882797418488e+00
    8.1003573254011339e-03 -1.2909944487358056e+00
    8.1644460983469197e-03 -1.3301243435223522e+00
    7.9198971311042043e-03 -1.1500350625790898e+00
    7.8920046264698458e-03 -1.1180339887498947e+00
    8.0442759853862084e-03 -1.2535663410560176e+00
    7.9198971311042043e-03 -8.6953870585248250e-01
    8.1003573254011339e-03 -7.7459666924148340e-01
    8.3189033080770299e-03 -7.0710678118654757e-01
    9.2339285670738156e-03 -5.5595944914256934e-01
    9.2339285670738156e-03 -5.5595944914256934e-01
    1.1857708957152227e-02 -3.7796447300922725e-01
    1.4188769156600639e-02 -3.0151134457776357e-01
    1.4188769156600639e-02 -3.0151134457776357e-01
    1.9624886028901153e-02 -2.0851441405707474e-01
    2.3863178957040466e-02 -1.6903085094570330e-01 1. 0.
    1.5426589121171381e-02 -2.7317918235407651e-01
    1.4188769156600639e-02 -3.0151134457776357e-01
    9.2339285670738156e-03 -5.5595944914256934e-01
    9.0564748108176597e-03 -5.7735026918962584e-01
    1.0900114397395523e-02 -4.2465029006520061e-01
    8.2370818728222817e-03 -7.2932495748947290e-01
    7.8461649088479302e-03 -9.7259752515927467e-01
    7.8461649088479302e-03 -9.7259752515927467e-01
    7.9198971311042043e-03 -8.6953870585248250e-01
    7.8431372549019607e-03 -1. 8.2370818728222817e-03
    -1.3711309200802091e+00 8.4106654409576362e-03
    -1.4596008983995230e+00 8.8976963528930048e-03
    -1.6701717529076245e+00 8.7553930298264783e-03
    -1.6124515496597096e+00 8.2370818728222817e-03
    -1.3711309200802091e+00 8.0442759853862084e-03
    -1.2535663410560176e+00 8.3189033080770299e-03
    -1.4142135623730951e+00 8.2370818728222817e-03
    -1.3711309200802091e+00 8.3189033080770299e-03
    -1.4142135623730951e+00 8.2370818728222817e-03
    -1.3711309200802091e+00 7.9957478370155152e-03
    -1.2176857643454877e+00 8.8976963528930048e-03
    -1.6701717529076245e+00 8.8976963528930048e-03
    -1.6701717529076245e+00 8.4106654409576362e-03
    -1.4596008983995230e+00 7.9957478370155152e-03
    -1.2176857643454877e+00 8.1644460983469197e-03
    -1.3301243435223522e+00 8.1644460983469197e-03
    -1.3301243435223522e+00 7.8552689516422202e-03
    -1.0571882797418488e+00 7.8705130353608540e-03
    -1.0871146130092180e+00 7.9198971311042043e-03
    -1.1500350625790898e+00 7.8705130353608540e-03
    -9.1986621100779986e-01 8.1003573254011339e-03
    -7.7459666924148340e-01 8.1644460983469214e-03
    -7.5180941155611236e-01 9.4327497145561545e-03
    -5.3452248382484868e-01 1.0195173807164032e-02
    -4.6940279403817725e-01 1.4188769156600639e-02
    -3.0151134457776357e-01 1.4188769156600639e-02
    -3.0151134457776357e-01 1.7120161767270561e-02
    -2.4253562503633294e-01 1.9624886028901153e-02
    -2.0851441405707474e-01 3.3509129172532327e-02
    -1.1867816581938533e-01 1.5426589121171381e-02
    -2.7317918235407651e-01 1.2478354962115544e-02
    -3.5355339059327373e-01 1.0522672835293128e-02
    -4.4721359549995793e-01 1.0522672835293128e-02
    -4.4721359549995793e-01 9.2339285670738156e-03
    -5.5595944914256934e-01 7.9198971311042043e-03
    -8.6953870585248250e-01 7.8431372549019607e-03 -1.
    7.8431372549019607e-03 -1. 7.8431372549019607e-03 -1.
    7.8552689516422202e-03 -1.0571882797418488e+00
    8.2370818728222817e-03 -1.3711309200802091e+00
    8.1644460983469197e-03 -1.3301243435223522e+00
    8.2370818728222817e-03 -1.3711309200802091e+00
    7.9957478370155152e-03 -1.2176857643454877e+00
    7.9543929856801549e-03 -1.1832159566199230e+00
    8.0442759853862084e-03 -1.2535663410560176e+00
    8.3189033080770299e-03 -1.4142135623730951e+00
    8.1003573254011339e-03 -1.2909944487358056e+00
    8.1644460983469197e-03 -1.3301243435223522e+00
    7.8461649088479284e-03 -1.0281745265969473e+00
    8.6277505602655180e-03 -1.5583874449479591e+00
    8.4106654409576362e-03 -1.4596008983995230e+00
    8.6277505602655180e-03 -1.5583874449479591e+00
    8.4106654409576362e-03 -1.4596008983995230e+00
    9.0564748108176597e-03 -1.7320508075688774e+00
    8.7553930298264783e-03 -1.6124515496597096e+00
    7.9198971311042043e-03 -1.1500350625790898e+00
    7.9543929856801549e-03 -1.1832159566199230e+00
    7.9957478370155152e-03 -1.2176857643454877e+00
    7.9543929856801549e-03 -1.1832159566199230e+00
    7.9198971311042043e-03 -1.1500350625790898e+00
    7.8431372549019607e-03 -1. 7.9198971311042043e-03
    -8.6953870585248250e-01 8.2370818728222817e-03
    -7.2932495748947290e-01 1.0195173807164032e-02
    -4.6940279403817725e-01 1.0522672835293128e-02
    -4.4721359549995793e-01 1.4188769156600639e-02
    -3.0151134457776357e-01 1.5426589121171381e-02
    -2.7317918235407651e-01 1.7120161767270561e-02
    -2.4253562503633294e-01 1. 0. 1.3236910050028106e-02
    -3.2816506165694681e-01 1.2478354962115544e-02
    -3.5355339059327373e-01 1.1339566996270572e-02
    -4.0160966445124940e-01 9.0564748108176597e-03
    -5.7735026918962584e-01 7.8920046264698458e-03
    -8.9442719099991586e-01 7.9198971311042043e-03
    -8.6953870585248250e-01 7.8552689516422202e-03
    -9.4590530292691744e-01 7.8552689516422202e-03
    -1.0571882797418488e+00 7.8461649088479302e-03
    -9.7259752515927467e-01 7.9543929856801549e-03
    -1.1832159566199230e+00 7.8920046264698458e-03
    -1.1180339887498947e+00 8.1003573254011339e-03
    -1.2909944487358056e+00 8.1644460983469197e-03
    -1.3301243435223522e+00 8.1003573254011339e-03
    -1.2909944487358056e+00 8.4106654409576362e-03
    -1.4596008983995230e+00 8.1003573254011339e-03
    -1.2909944487358056e+00 8.2370818728222817e-03
    -1.3711309200802091e+00 7.8552689516422202e-03
    -1.0571882797418488e+00 7.9198971311042043e-03
    -1.1500350625790898e+00 8.2370818728222817e-03
    -1.3711309200802091e+00 8.1003573254011339e-03
    -1.2909944487358056e+00 8.6277505602655180e-03
    -1.5583874449479591e+00 8.2370818728222817e-03
    -1.3711309200802091e+00 8.4106654409576362e-03
    -1.4596008983995230e+00 9.2339285670738139e-03
    -1.7986923354612532e+00 8.4106654409576362e-03
    -1.4596008983995230e+00 8.8976963528930048e-03
    -1.6701717529076245e+00 8.0442759853862084e-03
    -1.2535663410560176e+00 8.1644460983469197e-03
    -1.3301243435223522e+00 8.0442759853862084e-03
    -1.2535663410560176e+00 7.9198971311042043e-03
    -1.1500350625790898e+00 7.8920046264698458e-03
    -1.1180339887498947e+00 7.8461649088479284e-03
    -1.0281745265969473e+00 7.9543929856801549e-03
    -8.4515425472851646e-01 8.6277505602655180e-03
    -6.4168894791974795e-01 1.0522672835293128e-02
    -4.4721359549995793e-01 1.4188769156600639e-02
    -3.0151134457776357e-01 1.5426589121171381e-02
    -2.7317918235407651e-01 1.5426589121171381e-02
    -2.7317918235407651e-01 2.3863178957040466e-02
    -1.6903085094570330e-01 1.3236910050028106e-02
    -3.2816506165694681e-01 1.3236910050028106e-02
    -3.2816506165694681e-01 9.0564748108176597e-03
    -5.7735026918962584e-01 8.0442759853862084e-03
    -7.9772403521746571e-01 7.9957478370155152e-03
    -8.2122993409346845e-01 8.2370818728222817e-03
    -7.2932495748947290e-01 7.8705130353608540e-03
    -9.1986621100779986e-01 7.8920046264698458e-03
    -8.9442719099991586e-01 7.8920046264698458e-03
    -1.1180339887498947e+00 8.2370818728222817e-03
    -1.3711309200802091e+00 7.9957478370155152e-03
    -1.2176857643454877e+00 7.9198971311042043e-03
    -1.1500350625790898e+00 8.0442759853862084e-03
    -1.2535663410560176e+00 8.3189033080770299e-03
    -1.4142135623730951e+00 8.1644460983469197e-03
    -1.3301243435223522e+00 8.4106654409576362e-03
    -1.4596008983995230e+00 7.9543929856801549e-03
    -1.1832159566199230e+00 7.8552689516422202e-03
    -1.0571882797418488e+00 7.9957478370155152e-03
    -1.2176857643454877e+00 7.9957478370155152e-03
    -1.2176857643454877e+00 7.9198971311042043e-03
    -1.1500350625790898e+00 8.3189033080770299e-03
    -1.4142135623730951e+00 8.2370818728222817e-03
    -1.3711309200802091e+00 8.1644460983469197e-03
    -1.3301243435223522e+00 8.4106654409576362e-03
    -1.4596008983995230e+00 8.5132614939603859e-03
    -1.5075567228888185e+00 8.8976963528930048e-03
    -1.6701717529076245e+00 8.5132614939603859e-03
    -1.5075567228888185e+00 9.0564748108176597e-03
    -1.7320508075688774e+00 8.4106654409576362e-03
    -1.4596008983995230e+00 7.9543929856801549e-03
    -1.1832159566199230e+00 7.8920046264698458e-03
    -1.1180339887498947e+00 7.8705130353608540e-03
    -1.0871146130092180e+00 7.8705130353608540e-03
    -9.1986621100779986e-01 8.4106654409576379e-03
    -6.8511878904467427e-01 9.4327497145561545e-03
    -5.3452248382484868e-01 1.3236910050028106e-02
    -3.2816506165694681e-01 1.4188769156600639e-02
    -3.0151134457776357e-01 1.7120161767270561e-02
    -2.4253562503633294e-01 2.3863178957040466e-02
    -1.6903085094570330e-01 1.2478354962115544e-02
    -3.5355339059327373e-01 1.1857708957152227e-02
    -3.7796447300922725e-01 8.1644460983469214e-03
    -7.5180941155611236e-01 7.9957478370155152e-03
    -8.2122993409346845e-01 8.3189033080770299e-03
    -7.0710678118654757e-01 8.2370818728222817e-03
    -7.2932495748947290e-01 7.8552689516422202e-03
    -9.4590530292691744e-01 7.8431372549019607e-03 -1.
    7.9198971311042043e-03 -1.1500350625790898e+00
    8.1644460983469197e-03 -1.3301243435223522e+00
    8.1003573254011339e-03 -1.2909944487358056e+00
    7.8552689516422202e-03 -1.0571882797418488e+00
    7.8920046264698458e-03 -8.9442719099991586e-01
    7.8705130353608540e-03 -1.0871146130092180e+00
    8.4106654409576362e-03 -1.4596008983995230e+00
    8.0442759853862084e-03 -1.2535663410560176e+00
    7.8705130353608540e-03 -1.0871146130092180e+00
    8.0442759853862084e-03 -1.2535663410560176e+00
    8.0442759853862084e-03 -1.2535663410560176e+00
    7.9198971311042043e-03 -1.1500350625790898e+00
    7.8552689516422202e-03 -1.0571882797418488e+00
    7.8705130353608540e-03 -1.0871146130092180e+00
    8.1644460983469197e-03 -1.3301243435223522e+00
    8.0442759853862084e-03 -1.2535663410560176e+00
    8.1644460983469197e-03 -1.3301243435223522e+00
    8.2370818728222817e-03 -1.3711309200802091e+00
    8.8976963528930048e-03 -1.6701717529076245e+00
    9.9086457366154759e-03 -2.0354009783964289e+00
    9.6562668431543919e-03 -1.9493588689617929e+00
    8.8976963528930048e-03 -1.6701717529076245e+00
    8.1003573254011339e-03 -1.2909944487358056e+00
    7.9957478370155152e-03 -1.2176857643454877e+00
    7.9198971311042043e-03 -1.1500350625790898e+00
    7.8552689516422202e-03 -1.0571882797418488e+00
    8.0442759853862084e-03 -7.9772403521746571e-01
    9.2339285670738156e-03 -5.5595944914256934e-01
    9.4327497145561545e-03 -5.3452248382484868e-01
    1.4188769156600639e-02 -3.0151134457776357e-01
    1.5426589121171381e-02 -2.7317918235407651e-01
    2.3863178957040466e-02 -1.6903085094570330e-01
    1.2478354962115544e-02 -3.5355339059327373e-01
    9.6562668431543919e-03 -5.1298917604257710e-01
    8.1003573254011339e-03 -7.7459666924148340e-01
    7.9957478370155152e-03 -8.2122993409346845e-01
    7.8705130353608540e-03 -9.1986621100779986e-01
    7.8461649088479302e-03 -9.7259752515927467e-01
    7.8920046264698458e-03 -8.9442719099991586e-01
    7.9198971311042043e-03 -1.1500350625790898e+00
    8.1644460983469197e-03 -1.3301243435223522e+00
    7.8552689516422202e-03 -1.0571882797418488e+00
    7.9543929856801549e-03 -1.1832159566199230e+00
    7.9957478370155152e-03 -1.2176857643454877e+00
    7.9957478370155152e-03 -1.2176857643454877e+00
    8.3189033080770299e-03 -1.4142135623730951e+00
    7.9957478370155152e-03 -1.2176857643454877e+00
    7.9543929856801549e-03 -1.1832159566199230e+00
    7.9543929856801549e-03 -1.1832159566199230e+00
    7.9543929856801549e-03 -1.1832159566199230e+00
    8.0442759853862084e-03 -1.2535663410560176e+00
    7.8920046264698458e-03 -1.1180339887498947e+00
    7.8552689516422202e-03 -1.0571882797418488e+00
    7.8705130353608540e-03 -1.0871146130092180e+00
    7.9543929856801549e-03 -1.1832159566199230e+00
    8.3189033080770299e-03 -1.4142135623730951e+00
    7.9957478370155152e-03 -1.2176857643454877e+00
    9.2339285670738139e-03 -1.7986923354612532e+00
    9.2339285670738139e-03 -1.7986923354612532e+00
    1.0195173807164032e-02 -2.1303665267886509e+00
    9.0564748108176597e-03 -1.7320508075688774e+00
    9.2339285670738139e-03 -1.7986923354612532e+00
    8.5132614939603859e-03 -1.5075567228888185e+00
    8.1003573254011339e-03 -1.2909944487358056e+00
    8.1003573254011339e-03 -1.2909944487358056e+00
    7.8461649088479284e-03 -1.0281745265969473e+00
    7.8705130353608540e-03 -9.1986621100779986e-01
    8.5132614939603841e-03 -6.6332495807107994e-01
    9.2339285670738156e-03 -5.5595944914256934e-01
    1.4188769156600639e-02 -3.0151134457776357e-01
    1.7120161767270561e-02 -2.4253562503633294e-01
    2.3863178957040466e-02 -1.6903085094570330e-01
    1.2478354962115544e-02 -3.5355339059327373e-01
    8.3189033080770299e-03 -7.0710678118654757e-01
    7.9957478370155152e-03 -8.2122993409346845e-01
    7.8431372549019607e-03 -1. 7.8431372549019607e-03 -1.
    7.8431372549019607e-03 -1. 7.9957478370155152e-03
    -1.2176857643454877e+00 8.1644460983469197e-03
    -1.3301243435223522e+00 7.9198971311042043e-03
    -1.1500350625790898e+00 7.8920046264698458e-03
    -1.1180339887498947e+00 7.9543929856801549e-03
    -1.1832159566199230e+00 8.1644460983469197e-03
    -1.3301243435223522e+00 8.1003573254011339e-03
    -1.2909944487358056e+00 7.8431372549019607e-03 -1.
    7.8552689516422202e-03 -1.0571882797418488e+00
    7.8705130353608540e-03 -1.0871146130092180e+00
    7.8705130353608540e-03 -9.1986621100779986e-01
    7.9543929856801549e-03 -1.1832159566199230e+00
    7.8920046264698458e-03 -1.1180339887498947e+00
    7.8920046264698458e-03 -1.1180339887498947e+00
    7.8552689516422202e-03 -1.0571882797418488e+00
    7.8461649088479284e-03 -1.0281745265969473e+00
    8.2370818728222817e-03 -1.3711309200802091e+00
    8.3189033080770299e-03 -1.4142135623730951e+00
    8.5132614939603859e-03 -1.5075567228888185e+00
    9.0564748108176597e-03 -1.7320508075688774e+00
    8.8976963528930048e-03 -1.6701717529076245e+00
    9.0564748108176597e-03 -1.7320508075688774e+00
    8.6277505602655180e-03 -1.5583874449479591e+00
    9.2339285670738139e-03 -1.7986923354612532e+00
    8.7553930298264783e-03 -1.6124515496597096e+00
    8.2370818728222817e-03 -1.3711309200802091e+00
    7.8705130353608540e-03 -1.0871146130092180e+00
    7.9198971311042043e-03 -1.1500350625790898e+00
    7.8431372549019607e-03 -1. 8.2370818728222817e-03
    -7.2932495748947290e-01 9.0564748108176597e-03
    -5.7735026918962584e-01 8.8976963528930031e-03
    -5.9874081708009175e-01 1.4188769156600639e-02
    -3.0151134457776357e-01 1.7120161767270561e-02
    -2.4253562503633294e-01 1.0195173807164032e-02
    -4.6940279403817725e-01 8.2370818728222817e-03
    -7.2932495748947290e-01 7.9543929856801549e-03
    -8.4515425472851646e-01 7.8705130353608540e-03
    -1.0871146130092180e+00 7.8461649088479284e-03
    -1.0281745265969473e+00 7.9543929856801549e-03
    -1.1832159566199230e+00 8.1644460983469197e-03
    -1.3301243435223522e+00 8.1644460983469197e-03
    -1.3301243435223522e+00 8.0442759853862084e-03
    -1.2535663410560176e+00 7.9543929856801549e-03
    -1.1832159566199230e+00 7.9957478370155152e-03
    -1.2176857643454877e+00 8.1644460983469197e-03
    -1.3301243435223522e+00 8.2370818728222817e-03
    -1.3711309200802091e+00 7.8705130353608540e-03
    -1.0871146130092180e+00 7.8461649088479284e-03
    -1.0281745265969473e+00 7.8552689516422202e-03
    -1.0571882797418488e+00 7.8552689516422202e-03
    -1.0571882797418488e+00 7.8461649088479284e-03
    -1.0281745265969473e+00 7.8431372549019607e-03 -1.
    7.8431372549019607e-03 -1. 7.9198971311042043e-03
    -8.6953870585248250e-01 7.8461649088479284e-03
    -1.0281745265969473e+00 7.8705130353608540e-03
    -1.0871146130092180e+00 7.8920046264698458e-03
    -1.1180339887498947e+00 8.0442759853862084e-03
    -1.2535663410560176e+00 8.3189033080770299e-03
    -1.4142135623730951e+00 8.1644460983469197e-03
    -1.3301243435223522e+00 8.8976963528930048e-03
    -1.6701717529076245e+00 9.0564748108176597e-03
    -1.7320508075688774e+00 1.0522672835293128e-02
    -2.2360679774997898e+00 9.9086457366154759e-03
    -2.0354009783964289e+00 8.7553930298264783e-03
    -1.6124515496597096e+00 8.0442759853862084e-03
    -1.2535663410560176e+00 7.8461649088479284e-03
    -1.0281745265969473e+00 7.8461649088479284e-03
    -1.0281745265969473e+00 7.9198971311042043e-03
    -8.6953870585248250e-01 8.6277505602655180e-03
    -6.4168894791974795e-01 9.2339285670738156e-03
    -5.5595944914256934e-01 1.2478354962115544e-02
    -3.5355339059327373e-01 2.3863178957040466e-02
    -1.6903085094570330e-01 1.0900114397395523e-02
    -4.2465029006520061e-01 8.1644460983469214e-03
    -7.5180941155611236e-01 8.1644460983469214e-03
    -7.5180941155611236e-01 7.8705130353608540e-03
    -1.0871146130092180e+00 7.8431372549019607e-03 -1.
    7.9198971311042043e-03 -1.1500350625790898e+00
    8.3189033080770299e-03 -1.4142135623730951e+00
    8.2370818728222817e-03 -1.3711309200802091e+00
    7.8920046264698458e-03 -1.1180339887498947e+00
    7.9543929856801549e-03 -1.1832159566199230e+00
    7.9543929856801549e-03 -1.1832159566199230e+00
    8.1003573254011339e-03 -1.2909944487358056e+00
    7.9198971311042043e-03 -1.1500350625790898e+00
    7.8552689516422202e-03 -1.0571882797418488e+00
    7.8705130353608540e-03 -1.0871146130092180e+00
    7.8705130353608540e-03 -1.0871146130092180e+00
    7.8431372549019607e-03 -1. 7.8552689516422202e-03
    -1.0571882797418488e+00 7.8552689516422202e-03
    -1.0571882797418488e+00 7.8431372549019607e-03 -1.
    7.8461649088479302e-03 -9.7259752515927467e-01
    7.8461649088479284e-03 -1.0281745265969473e+00
    7.8461649088479284e-03 -1.0281745265969473e+00
    8.0442759853862084e-03 -1.2535663410560176e+00
    7.9198971311042043e-03 -1.1500350625790898e+00
    8.0442759853862084e-03 -1.2535663410560176e+00
    8.8976963528930048e-03 -1.6701717529076245e+00
    8.4106654409576362e-03 -1.4596008983995230e+00
    9.2339285670738139e-03 -1.7986923354612532e+00
    9.4327497145561563e-03 -1.8708286933869711e+00
    1.0900114397395522e-02 -2.3548788812706576e+00
    9.4327497145561563e-03 -1.8708286933869711e+00
    8.4106654409576362e-03 -1.4596008983995230e+00
    7.9957478370155152e-03 -1.2176857643454877e+00
    7.8920046264698458e-03 -1.1180339887498947e+00
    7.8920046264698458e-03 -8.9442719099991586e-01
    7.9198971311042043e-03 -8.6953870585248250e-01
    8.7553930298264783e-03 -6.2017367294604220e-01
    1.0900114397395523e-02 -4.2465029006520061e-01
    1.5426589121171381e-02 -2.7317918235407651e-01
    1.0900114397395523e-02 -4.2465029006520061e-01
    8.7553930298264783e-03 -6.2017367294604220e-01
    7.9957478370155152e-03 -8.2122993409346845e-01
    7.8552689516422202e-03 -1.0571882797418488e+00
    7.8461649088479284e-03 -1.0281745265969473e+00
    7.8705130353608540e-03 -1.0871146130092180e+00
    8.2370818728222817e-03 -1.3711309200802091e+00
    8.2370818728222817e-03 -1.3711309200802091e+00
    8.0442759853862084e-03 -1.2535663410560176e+00
    7.9543929856801549e-03 -1.1832159566199230e+00
    7.8920046264698458e-03 -1.1180339887498947e+00
    7.8552689516422202e-03 -1.0571882797418488e+00
    7.9198971311042043e-03 -1.1500350625790898e+00
    7.8705130353608540e-03 -9.1986621100779986e-01
    7.8705130353608540e-03 -1.0871146130092180e+00
    7.8431372549019607e-03 -1. 7.8552689516422202e-03
    -9.4590530292691744e-01 7.8431372549019607e-03 -1.
    7.8431372549019607e-03 -1. 7.8461649088479284e-03
    -1.0281745265969473e+00 7.8552689516422202e-03
    -1.0571882797418488e+00 7.8552689516422202e-03
    -1.0571882797418488e+00 7.8461649088479284e-03
    -1.0281745265969473e+00 7.8552689516422202e-03
    -1.0571882797418488e+00 7.8431372549019607e-03 -1.
    7.8552689516422202e-03 -1.0571882797418488e+00
    8.1003573254011339e-03 -1.2909944487358056e+00
    9.0564748108176597e-03 -1.7320508075688774e+00
    9.2339285670738139e-03 -1.7986923354612532e+00
    9.2339285670738139e-03 -1.7986923354612532e+00
    9.2339285670738139e-03 -1.7986923354612532e+00
    9.4327497145561563e-03 -1.8708286933869711e+00
    8.2370818728222817e-03 -1.3711309200802091e+00
    8.1644460983469197e-03 -1.3301243435223522e+00
    8.1003573254011339e-03 -1.2909944487358056e+00
    7.9543929856801549e-03 -1.1832159566199230e+00
    8.2370818728222817e-03 -7.2932495748947290e-01
    8.8976963528930031e-03 -5.9874081708009175e-01
    9.6562668431543919e-03 -5.1298917604257710e-01
    1.5426589121171381e-02 -2.7317918235407651e-01
    1.0900114397395523e-02 -4.2465029006520061e-01
    8.8976963528930031e-03 -5.9874081708009175e-01
    7.9198971311042043e-03 -8.6953870585248250e-01
    7.8431372549019607e-03 -1. 7.8552689516422202e-03
    -9.4590530292691744e-01 7.8552689516422202e-03
    -1.0571882797418488e+00 8.1003573254011339e-03
    -1.2909944487358056e+00 8.4106654409576362e-03
    -1.4596008983995230e+00 7.9957478370155152e-03
    -1.2176857643454877e+00 8.1003573254011339e-03
    -1.2909944487358056e+00 8.1003573254011339e-03
    -1.2909944487358056e+00 7.9198971311042043e-03
    -1.1500350625790898e+00 7.9198971311042043e-03
    -1.1500350625790898e+00 7.8705130353608540e-03
    -1.0871146130092180e+00 7.8552689516422202e-03
    -1.0571882797418488e+00 7.8431372549019607e-03 -1.
    7.8705130353608540e-03 -9.1986621100779986e-01
    7.8461649088479302e-03 -9.7259752515927467e-01
    7.8705130353608540e-03 -1.0871146130092180e+00
    7.8552689516422202e-03 -9.4590530292691744e-01
    7.8705130353608540e-03 -9.1986621100779986e-01
    7.8705130353608540e-03 -1.0871146130092180e+00
    7.8431372549019607e-03 -1. 7.8920046264698458e-03
    -1.1180339887498947e+00 7.8920046264698458e-03
    -1.1180339887498947e+00 7.8552689516422202e-03
    -1.0571882797418488e+00 7.9543929856801549e-03
    -1.1832159566199230e+00 8.7553930298264783e-03
    -1.6124515496597096e+00 8.8976963528930048e-03
    -1.6701717529076245e+00 9.4327497145561563e-03
    -1.8708286933869711e+00 9.2339285670738139e-03
    -1.7986923354612532e+00 9.4327497145561563e-03
    -1.8708286933869711e+00 9.0564748108176597e-03
    -1.7320508075688774e+00 8.4106654409576362e-03
    -1.4596008983995230e+00 7.9957478370155152e-03
    -1.2176857643454877e+00 8.0442759853862084e-03
    -1.2535663410560176e+00 8.0442759853862084e-03
    -7.9772403521746571e-01 9.4327497145561545e-03
    -5.3452248382484868e-01 1.0195173807164032e-02
    -4.6940279403817725e-01 1.3236910050028106e-02
    -3.2816506165694681e-01 1.1339566996270572e-02
    -4.0160966445124940e-01 8.8976963528930031e-03
    -5.9874081708009175e-01 8.3189033080770299e-03
    -7.0710678118654757e-01 8.1003573254011339e-03
    -7.7459666924148340e-01 7.9543929856801549e-03
    -8.4515425472851646e-01 7.8552689516422202e-03
    -1.0571882797418488e+00 7.8431372549019607e-03 -1.
    8.4106654409576362e-03 -1.4596008983995230e+00
    7.9957478370155152e-03 -1.2176857643454877e+00
    7.8705130353608540e-03 -1.0871146130092180e+00
    8.0442759853862084e-03 -1.2535663410560176e+00
    8.1644460983469197e-03 -1.3301243435223522e+00
    7.9198971311042043e-03 -1.1500350625790898e+00
    7.9957478370155152e-03 -1.2176857643454877e+00
    7.8461649088479284e-03 -1.0281745265969473e+00
    7.8461649088479284e-03 -1.0281745265969473e+00
    7.8552689516422202e-03 -9.4590530292691744e-01
    7.8461649088479302e-03 -9.7259752515927467e-01
    7.8552689516422202e-03 -9.4590530292691744e-01
    7.8552689516422202e-03 -1.0571882797418488e+00
    7.8552689516422202e-03 -9.4590530292691744e-01
    7.8552689516422202e-03 -1.0571882797418488e+00
    7.8431372549019607e-03 -1. 7.8552689516422202e-03
    -1.0571882797418488e+00 7.8705130353608540e-03
    -9.1986621100779986e-01 7.8431372549019607e-03 -1.
    7.8920046264698458e-03 -1.1180339887498947e+00
    8.2370818728222817e-03 -1.3711309200802091e+00
    8.6277505602655180e-03 -1.5583874449479591e+00
    8.5132614939603859e-03 -1.5075567228888185e+00
    8.5132614939603859e-03 -1.5075567228888185e+00
    9.2339285670738139e-03 -1.7986923354612532e+00
    9.0564748108176597e-03 -1.7320508075688774e+00
    8.3189033080770299e-03 -1.4142135623730951e+00
    8.1003573254011339e-03 -1.2909944487358056e+00
    7.9957478370155152e-03 -1.2176857643454877e+00
    7.9198971311042043e-03 -8.6953870585248250e-01
    1.0900114397395523e-02 -4.2465029006520061e-01
    1.0195173807164032e-02 -4.6940279403817725e-01
    1.2478354962115544e-02 -3.5355339059327373e-01
    1.0900114397395523e-02 -4.2465029006520061e-01
    9.0564748108176597e-03 -5.7735026918962584e-01
    8.1644460983469214e-03 -7.5180941155611236e-01
    7.9957478370155152e-03 -8.2122993409346845e-01
    7.8705130353608540e-03 -9.1986621100779986e-01
    7.8552689516422202e-03 -1.0571882797418488e+00
    7.8920046264698458e-03 -1.1180339887498947e+00
    8.1003573254011339e-03 -1.2909944487358056e+00
    8.0442759853862084e-03 -1.2535663410560176e+00
    7.9957478370155152e-03 -1.2176857643454877e+00
    8.0442759853862084e-03 -1.2535663410560176e+00
    7.9957478370155152e-03 -1.2176857643454877e+00
    7.8461649088479284e-03 -1.0281745265969473e+00
    7.9957478370155152e-03 -1.2176857643454877e+00
    7.8552689516422202e-03 -1.0571882797418488e+00
    7.8461649088479284e-03 -1.0281745265969473e+00
    7.9198971311042043e-03 -8.6953870585248250e-01
    7.8705130353608540e-03 -1.0871146130092180e+00
    7.8920046264698458e-03 -1.1180339887498947e+00
    7.8705130353608540e-03 -1.0871146130092180e+00
    7.8431372549019607e-03 -1. 7.8552689516422202e-03
    -1.0571882797418488e+00 7.9198971311042043e-03
    -1.1500350625790898e+00 7.8705130353608540e-03
    -1.0871146130092180e+00 7.8705130353608540e-03
    -1.0871146130092180e+00 7.9957478370155152e-03
    -1.2176857643454877e+00 8.3189033080770299e-03
    -1.4142135623730951e+00 8.0442759853862084e-03
    -1.2535663410560176e+00 8.7553930298264783e-03
    -1.6124515496597096e+00 9.0564748108176597e-03
    -1.7320508075688774e+00 9.2339285670738139e-03
    -1.7986923354612532e+00 9.4327497145561563e-03
    -1.8708286933869711e+00 8.5132614939603859e-03
    -1.5075567228888185e+00 8.2370818728222817e-03
    -1.3711309200802091e+00 7.9957478370155152e-03
    -1.2176857643454877e+00 7.9543929856801549e-03
    -1.1832159566199230e+00 7.8920046264698458e-03
    -8.9442719099991586e-01 1.0522672835293128e-02
    -4.4721359549995793e-01 9.6562668431543919e-03
    -5.1298917604257710e-01 1.3236910050028106e-02
    -3.2816506165694681e-01 1.1339566996270572e-02
    -4.0160966445124940e-01 9.0564748108176597e-03
    -5.7735026918962584e-01 7.9957478370155152e-03
    -8.2122993409346845e-01 8.0442759853862084e-03
    -7.9772403521746571e-01 7.9198971311042043e-03
    -8.6953870585248250e-01 7.8920046264698458e-03
    -8.9442719099991586e-01 7.9198971311042043e-03
    -1.1500350625790898e+00 8.5132614939603859e-03
    -1.5075567228888185e+00 8.1644460983469197e-03
    -1.3301243435223522e+00 8.1003573254011339e-03
    -1.2909944487358056e+00 8.1003573254011339e-03
    -1.2909944487358056e+00 7.8461649088479284e-03
    -1.0281745265969473e+00 7.8705130353608540e-03
    -1.0871146130092180e+00 8.0442759853862084e-03
    -1.2535663410560176e+00 7.8552689516422202e-03
    -1.0571882797418488e+00 7.8461649088479284e-03
    -1.0281745265969473e+00 7.8431372549019607e-03 -1.
    7.8552689516422202e-03 -1.0571882797418488e+00
    7.9198971311042043e-03 -1.1500350625790898e+00
    7.9543929856801549e-03 -1.1832159566199230e+00
    7.8920046264698458e-03 -1.1180339887498947e+00
    7.8431372549019607e-03 -1. 7.8552689516422202e-03
    -1.0571882797418488e+00 7.8705130353608540e-03
    -1.0871146130092180e+00 8.1003573254011339e-03
    -1.2909944487358056e+00 8.3189033080770299e-03
    -1.4142135623730951e+00 8.3189033080770299e-03
    -1.4142135623730951e+00 8.3189033080770299e-03
    -1.4142135623730951e+00 8.0442759853862084e-03
    -1.2535663410560176e+00 9.0564748108176597e-03
    -1.7320508075688774e+00 8.5132614939603859e-03
    -1.5075567228888185e+00 8.6277505602655180e-03
    -1.5583874449479591e+00 8.8976963528930048e-03
    -1.6701717529076245e+00 8.3189033080770299e-03
    -1.4142135623730951e+00 8.0442759853862084e-03
    -1.2535663410560176e+00 7.9543929856801549e-03
    -1.1832159566199230e+00 7.8461649088479284e-03
    -1.0281745265969473e+00 9.4327497145561545e-03
    -5.3452248382484868e-01 9.6562668431543919e-03
    -5.1298917604257710e-01 1.4188769156600639e-02
    -3.0151134457776357e-01 1.1857708957152227e-02
    -3.7796447300922725e-01 8.8976963528930031e-03
    -5.9874081708009175e-01 8.3189033080770299e-03
    -7.0710678118654757e-01 8.1644460983469214e-03
    -7.5180941155611236e-01 7.8920046264698458e-03
    -8.9442719099991586e-01 7.8461649088479302e-03
    -9.7259752515927467e-01 7.8920046264698458e-03
    -1.1180339887498947e+00 7.9957478370155152e-03
    -1.2176857643454877e+00 8.0442759853862084e-03
    -1.2535663410560176e+00 7.8461649088479284e-03
    -1.0281745265969473e+00 7.8552689516422202e-03
    -1.0571882797418488e+00 7.8461649088479284e-03
    -1.0281745265969473e+00 8.1003573254011339e-03
    -1.2909944487358056e+00 7.9957478370155152e-03
    -1.2176857643454877e+00 7.8705130353608540e-03
    -9.1986621100779986e-01 7.8705130353608540e-03
    -9.1986621100779986e-01 7.8552689516422202e-03
    -9.4590530292691744e-01 7.8552689516422202e-03
    -9.4590530292691744e-01 7.8552689516422202e-03
    -1.0571882797418488e+00 7.8552689516422202e-03
    -1.0571882797418488e+00 7.8552689516422202e-03
    -1.0571882797418488e+00 7.8461649088479302e-03
    -9.7259752515927467e-01 7.8431372549019607e-03 -1.
    7.8461649088479302e-03 -9.7259752515927467e-01
    7.9957478370155152e-03 -1.2176857643454877e+00
    7.8705130353608540e-03 -1.0871146130092180e+00
    8.1003573254011339e-03 -1.2909944487358056e+00
    8.1644460983469197e-03 -1.3301243435223522e+00
    8.0442759853862084e-03 -1.2535663410560176e+00
    8.5132614939603859e-03 -1.5075567228888185e+00
    8.3189033080770299e-03 -1.4142135623730951e+00
    8.4106654409576362e-03 -1.4596008983995230e+00
    8.7553930298264783e-03 -1.6124515496597096e+00
    7.9198971311042043e-03 -1.1500350625790898e+00
    7.9543929856801549e-03 -1.1832159566199230e+00
    7.9957478370155152e-03 -1.2176857643454877e+00
    7.8461649088479302e-03 -9.7259752515927467e-01
    8.4106654409576379e-03 -6.8511878904467427e-01
    9.9086457366154793e-03 -4.9130368444051753e-01
    1.4188769156600639e-02 -3.0151134457776357e-01
    1.2478354962115544e-02 -3.5355339059327373e-01
    9.2339285670738156e-03 -5.5595944914256934e-01
    8.3189033080770299e-03 -7.0710678118654757e-01
    8.1644460983469214e-03 -7.5180941155611236e-01
    7.9543929856801549e-03 -8.4515425472851646e-01
    7.8705130353608540e-03 -1.0871146130092180e+00
    7.8705130353608540e-03 -1.0871146130092180e+00
    7.9957478370155152e-03 -1.2176857643454877e+00
    7.8920046264698458e-03 -1.1180339887498947e+00
    7.8705130353608540e-03 -1.0871146130092180e+00
    7.8705130353608540e-03 -1.0871146130092180e+00
    8.0442759853862084e-03 -1.2535663410560176e+00
    7.8920046264698458e-03 -8.9442719099991586e-01
    7.9198971311042043e-03 -1.1500350625790898e+00
    7.8461649088479284e-03 -1.0281745265969473e+00
    7.8461649088479302e-03 -9.7259752515927467e-01
    7.9198971311042043e-03 -8.6953870585248250e-01
    7.8461649088479302e-03 -9.7259752515927467e-01
    7.8552689516422202e-03 -9.4590530292691744e-01
    7.8920046264698458e-03 -8.9442719099991586e-01
    7.9957478370155152e-03 -8.2122993409346845e-01
    7.8705130353608540e-03 -9.1986621100779986e-01
    7.8461649088479302e-03 -9.7259752515927467e-01
    7.8552689516422202e-03 -9.4590530292691744e-01
    7.9543929856801549e-03 -1.1832159566199230e+00
    8.3189033080770299e-03 -1.4142135623730951e+00
    8.2370818728222817e-03 -1.3711309200802091e+00
    8.1644460983469197e-03 -1.3301243435223522e+00
    8.1644460983469197e-03 -1.3301243435223522e+00
    7.9957478370155152e-03 -1.2176857643454877e+00
    8.4106654409576362e-03 -1.4596008983995230e+00
    8.1644460983469197e-03 -1.3301243435223522e+00
    8.4106654409576362e-03 -1.4596008983995230e+00
    7.8920046264698458e-03 -1.1180339887498947e+00
    7.9198971311042043e-03 -1.1500350625790898e+00
    7.9543929856801549e-03 -1.1832159566199230e+00
    7.8552689516422202e-03 -9.4590530292691744e-01
    8.5132614939603841e-03 -6.6332495807107994e-01
    9.9086457366154793e-03 -4.9130368444051753e-01
    1.7120161767270561e-02 -2.4253562503633294e-01
    1.1339566996270572e-02 -4.0160966445124940e-01
    9.2339285670738156e-03 -5.5595944914256934e-01
    8.3189033080770299e-03 -7.0710678118654757e-01
    8.2370818728222817e-03 -7.2932495748947290e-01
    7.9957478370155152e-03 -8.2122993409346845e-01
    7.8461649088479302e-03 -9.7259752515927467e-01
    7.8552689516422202e-03 -1.0571882797418488e+00
    7.9198971311042043e-03 -1.1500350625790898e+00
    7.9957478370155152e-03 -1.2176857643454877e+00
    7.8920046264698458e-03 -1.1180339887498947e+00
    8.0442759853862084e-03 -1.2535663410560176e+00
    8.0442759853862084e-03 -1.2535663410560176e+00
    7.9957478370155152e-03 -1.2176857643454877e+00
    7.8461649088479302e-03 -9.7259752515927467e-01
    7.8552689516422202e-03 -1.0571882797418488e+00
    7.8431372549019607e-03 -1. 7.8461649088479302e-03
    -9.7259752515927467e-01 7.8461649088479302e-03
    -9.7259752515927467e-01 7.8705130353608540e-03
    -9.1986621100779986e-01 7.8920046264698458e-03
    -8.9442719099991586e-01 7.8920046264698458e-03
    -8.9442719099991586e-01 7.9198971311042043e-03
    -8.6953870585248250e-01 7.8552689516422202e-03
    -1.0571882797418488e+00 7.9198971311042043e-03
    -1.1500350625790898e+00 7.9543929856801549e-03
    -1.1832159566199230e+00 8.1003573254011339e-03
    -1.2909944487358056e+00 8.3189033080770299e-03
    -1.4142135623730951e+00 8.0442759853862084e-03
    -1.2535663410560176e+00 8.1003573254011339e-03
    -1.2909944487358056e+00 8.4106654409576362e-03
    -1.4596008983995230e+00 7.9543929856801549e-03
    -1.1832159566199230e+00 8.2370818728222817e-03
    -1.3711309200802091e+00 8.5132614939603859e-03
    -1.5075567228888185e+00 7.9543929856801549e-03
    -1.1832159566199230e+00 7.9543929856801549e-03
    -1.1832159566199230e+00 7.8920046264698458e-03
    -1.1180339887498947e+00 7.8552689516422202e-03
    -9.4590530292691744e-01 8.5132614939603841e-03
    -6.6332495807107994e-01 9.9086457366154793e-03
    -4.9130368444051753e-01 1.7120161767270561e-02
    -2.4253562503633294e-01 1.0522672835293128e-02
    -4.4721359549995793e-01 9.9086457366154793e-03
    -4.9130368444051753e-01 8.6277505602655180e-03
    -6.4168894791974795e-01 8.1003573254011339e-03
    -7.7459666924148340e-01 7.9957478370155152e-03
    -8.2122993409346845e-01 7.8552689516422202e-03
    -9.4590530292691744e-01 7.8552689516422202e-03
    -1.0571882797418488e+00 7.8461649088479302e-03
    -9.7259752515927467e-01 7.8705130353608540e-03
    -1.0871146130092180e+00 7.9543929856801549e-03
    -1.1832159566199230e+00 8.1003573254011339e-03
    -1.2909944487358056e+00 7.8552689516422202e-03
    -1.0571882797418488e+00 7.8552689516422202e-03
    -1.0571882797418488e+00 7.8705130353608540e-03
    -1.0871146130092180e+00 7.9957478370155152e-03
    -1.2176857643454877e+00 7.8552689516422202e-03
    -1.0571882797418488e+00 7.9198971311042043e-03
    -1.1500350625790898e+00 7.8461649088479302e-03
    -9.7259752515927467e-01 7.8705130353608540e-03
    -9.1986621100779986e-01 7.8461649088479284e-03
    -1.0281745265969473e+00 7.8461649088479302e-03
    -9.7259752515927467e-01 7.8461649088479284e-03
    -1.0281745265969473e+00 7.8431372549019607e-03 -1.
    7.9543929856801549e-03 -1.1832159566199230e+00
    7.8461649088479302e-03 -9.7259752515927467e-01
    8.0442759853862084e-03 -1.2535663410560176e+00
    7.9957478370155152e-03 -1.2176857643454877e+00
    7.8552689516422202e-03 -1.0571882797418488e+00
    7.9543929856801549e-03 -1.1832159566199230e+00
    8.1003573254011339e-03 -1.2909944487358056e+00
    8.2370818728222817e-03 -1.3711309200802091e+00
    8.5132614939603859e-03 -1.5075567228888185e+00
    8.1003573254011339e-03 -1.2909944487358056e+00
    7.8920046264698458e-03 -1.1180339887498947e+00
    7.9957478370155152e-03 -1.2176857643454877e+00
    7.8920046264698458e-03 -1.1180339887498947e+00
    7.8705130353608540e-03 -9.1986621100779986e-01
    8.2370818728222817e-03 -7.2932495748947290e-01
    9.2339285670738156e-03 -5.5595944914256934e-01
    1.4188769156600639e-02 -3.0151134457776357e-01
    1.0900114397395523e-02 -4.2465029006520061e-01
    9.2339285670738156e-03 -5.5595944914256934e-01
    8.7553930298264783e-03 -6.2017367294604220e-01
    8.1644460983469214e-03 -7.5180941155611236e-01
    8.0442759853862084e-03 -7.9772403521746571e-01
    7.8461649088479302e-03 -9.7259752515927467e-01
    7.8705130353608540e-03 -1.0871146130092180e+00
    7.8920046264698458e-03 -1.1180339887498947e+00
    7.8920046264698458e-03 -8.9442719099991586e-01
    8.0442759853862084e-03 -1.2535663410560176e+00
    8.1003573254011339e-03 -1.2909944487358056e+00
    8.0442759853862084e-03 -1.2535663410560176e+00
    7.8920046264698458e-03 -1.1180339887498947e+00
    7.8920046264698458e-03 -1.1180339887498947e+00
    7.9543929856801549e-03 -1.1832159566199230e+00
    7.9198971311042043e-03 -1.1500350625790898e+00
    7.9543929856801549e-03 -1.1832159566199230e+00
    7.8920046264698458e-03 -1.1180339887498947e+00
    7.8552689516422202e-03 -1.0571882797418488e+00
    7.8461649088479302e-03 -9.7259752515927467e-01
    7.8431372549019607e-03 -1. 7.9543929856801549e-03
    -1.1832159566199230e+00 7.8705130353608540e-03
    -1.0871146130092180e+00 7.9198971311042043e-03
    -1.1500350625790898e+00 7.9543929856801549e-03
    -1.1832159566199230e+00 7.8461649088479284e-03
    -1.0281745265969473e+00 7.8461649088479302e-03
    -9.7259752515927467e-01 8.1003573254011339e-03
    -1.2909944487358056e+00 8.2370818728222817e-03
    -1.3711309200802091e+00 8.0442759853862084e-03
    -1.2535663410560176e+00 8.1003573254011339e-03
    -1.2909944487358056e+00 8.5132614939603859e-03
    -1.5075567228888185e+00 8.1644460983469197e-03
    -1.3301243435223522e+00 8.1003573254011339e-03
    -1.2909944487358056e+00 7.8552689516422202e-03
    -1.0571882797418488e+00 7.8705130353608540e-03
    -1.0871146130092180e+00 7.8461649088479302e-03
    -9.7259752515927467e-01 8.6277505602655180e-03
    -6.4168894791974795e-01 9.4327497145561545e-03
    -5.3452248382484868e-01 2.3863178957040466e-02
    -1.6903085094570330e-01 1.0195173807164032e-02
    -4.6940279403817725e-01 9.6562668431543919e-03
    -5.1298917604257710e-01 8.8976963528930031e-03
    -5.9874081708009175e-01 8.2370818728222817e-03
    -7.2932495748947290e-01 8.0442759853862084e-03
    -7.9772403521746571e-01 7.9957478370155152e-03
    -8.2122993409346845e-01 7.8552689516422202e-03
    -9.4590530292691744e-01 7.8705130353608540e-03
    -9.1986621100779986e-01 7.8461649088479302e-03
    -9.7259752515927467e-01 7.8705130353608540e-03
    -9.1986621100779986e-01 7.8920046264698458e-03
    -1.1180339887498947e+00 7.9543929856801549e-03
    -1.1832159566199230e+00 7.8461649088479284e-03
    -1.0281745265969473e+00 7.9198971311042043e-03
    -1.1500350625790898e+00 7.9543929856801549e-03
    -1.1832159566199230e+00 7.8552689516422202e-03
    -1.0571882797418488e+00 7.8552689516422202e-03
    -1.0571882797418488e+00 7.8552689516422202e-03
    -1.0571882797418488e+00 8.0442759853862084e-03
    -1.2535663410560176e+00 7.9543929856801549e-03
    -1.1832159566199230e+00 7.9198971311042043e-03
    -1.1500350625790898e+00 7.9543929856801549e-03
    -1.1832159566199230e+00 7.9198971311042043e-03
    -1.1500350625790898e+00 7.8461649088479302e-03
    -9.7259752515927467e-01 7.8920046264698458e-03
    -1.1180339887498947e+00 7.8461649088479302e-03
    -9.7259752515927467e-01 8.1644460983469197e-03
    -1.3301243435223522e+00 8.2370818728222817e-03
    -1.3711309200802091e+00 7.9543929856801549e-03
    -1.1832159566199230e+00 8.1644460983469197e-03
    -1.3301243435223522e+00 8.1003573254011339e-03
    -1.2909944487358056e+00 8.6277505602655180e-03
    -1.5583874449479591e+00 7.9957478370155152e-03
    -1.2176857643454877e+00 8.1003573254011339e-03
    -1.2909944487358056e+00 7.8920046264698458e-03
    -1.1180339887498947e+00 7.8920046264698458e-03
    -1.1180339887498947e+00 8.0442759853862084e-03
    -7.9772403521746571e-01 8.3189033080770299e-03
    -7.0710678118654757e-01 9.6562668431543919e-03
    -5.1298917604257710e-01 1.4188769156600639e-02
    -3.0151134457776357e-01 1.1857708957152227e-02
    -3.7796447300922725e-01 9.6562668431543919e-03
    -5.1298917604257710e-01 9.6562668431543919e-03
    -5.1298917604257710e-01 8.1003573254011339e-03
    -7.7459666924148340e-01 8.1644460983469214e-03
    -7.5180941155611236e-01 8.0442759853862084e-03
    -7.9772403521746571e-01 7.9198971311042043e-03
    -8.6953870585248250e-01 7.8552689516422202e-03
    -9.4590530292691744e-01 7.8705130353608540e-03
    -9.1986621100779986e-01 7.8705130353608540e-03
    -1.0871146130092180e+00 7.8920046264698458e-03
    -1.1180339887498947e+00 7.8705130353608540e-03
    -9.1986621100779986e-01 7.8431372549019607e-03 -1.
    7.9543929856801549e-03 -1.1832159566199230e+00
    7.8920046264698458e-03 -8.9442719099991586e-01
    7.9543929856801549e-03 -1.1832159566199230e+00
    8.0442759853862084e-03 -1.2535663410560176e+00
    7.8705130353608540e-03 -1.0871146130092180e+00
    7.8461649088479302e-03 -9.7259752515927467e-01
    7.9957478370155152e-03 -1.2176857643454877e+00
    7.9957478370155152e-03 -1.2176857643454877e+00
    7.8705130353608540e-03 -1.0871146130092180e+00
    7.8920046264698458e-03 -1.1180339887498947e+00
    7.8920046264698458e-03 -1.1180339887498947e+00
    7.9957478370155152e-03 -1.2176857643454877e+00
    7.8705130353608540e-03 -1.0871146130092180e+00
    7.9198971311042043e-03 -1.1500350625790898e+00
    7.8461649088479284e-03 -1.0281745265969473e+00
    7.8920046264698458e-03 -1.1180339887498947e+00
    8.1644460983469197e-03 -1.3301243435223522e+00
    9.0564748108176597e-03 -1.7320508075688774e+00
    9.0564748108176597e-03 -1.7320508075688774e+00
    8.1003573254011339e-03 -1.2909944487358056e+00
    7.8552689516422202e-03 -1.0571882797418488e+00
    7.9543929856801549e-03 -1.1832159566199230e+00
    7.8920046264698458e-03 -1.1180339887498947e+00
    8.2370818728222817e-03 -7.2932495748947290e-01
    8.4106654409576379e-03 -6.8511878904467427e-01
    1.4188769156600639e-02 -3.0151134457776357e-01
    1.4188769156600639e-02 -3.0151134457776357e-01
    1.1857708957152227e-02 -3.7796447300922725e-01
    9.6562668431543919e-03 -5.1298917604257710e-01
    9.6562668431543919e-03 -5.1298917604257710e-01
    9.0564748108176597e-03 -5.7735026918962584e-01
    8.3189033080770299e-03 -7.0710678118654757e-01
    8.0442759853862084e-03 -7.9772403521746571e-01
    8.0442759853862084e-03 -7.9772403521746571e-01
    7.8920046264698458e-03 -8.9442719099991586e-01
    7.8552689516422202e-03 -9.4590530292691744e-01
    7.8920046264698458e-03 -8.9442719099991586e-01
    7.8705130353608540e-03 -1.0871146130092180e+00
    8.0442759853862084e-03 -1.2535663410560176e+00
    7.9543929856801549e-03 -1.1832159566199230e+00
    7.9198971311042043e-03 -1.1500350625790898e+00
    7.8920046264698458e-03 -1.1180339887498947e+00
    7.8705130353608540e-03 -1.0871146130092180e+00
    7.9957478370155152e-03 -1.2176857643454877e+00
    8.1003573254011339e-03 -1.2909944487358056e+00
    8.0442759853862084e-03 -1.2535663410560176e+00
    7.9957478370155152e-03 -1.2176857643454877e+00
    7.8705130353608540e-03 -1.0871146130092180e+00
    7.9543929856801549e-03 -1.1832159566199230e+00
    7.9198971311042043e-03 -1.1500350625790898e+00
    7.9957478370155152e-03 -1.2176857643454877e+00
    7.9957478370155152e-03 -1.2176857643454877e+00
    8.0442759853862084e-03 -1.2535663410560176e+00
    7.9957478370155152e-03 -1.2176857643454877e+00
    8.1003573254011339e-03 -1.2909944487358056e+00
    7.9198971311042043e-03 -1.1500350625790898e+00
    8.5132614939603859e-03 -1.5075567228888185e+00
    9.4327497145561563e-03 -1.8708286933869711e+00
    8.2370818728222817e-03 -1.3711309200802091e+00
    8.1003573254011339e-03 -1.2909944487358056e+00
    7.9198971311042043e-03 -1.1500350625790898e+00
    7.8920046264698458e-03 -1.1180339887498947e+00
    7.8461649088479284e-03 -1.0281745265969473e+00
    7.9957478370155152e-03 -8.2122993409346845e-01
    8.4106654409576379e-03 -6.8511878904467427e-01
    1.4188769156600639e-02 -3.0151134457776357e-01
    1.5426589121171381e-02 -2.7317918235407651e-01
    1.3236910050028106e-02 -3.2816506165694681e-01
    1.1857708957152227e-02 -3.7796447300922725e-01
    9.9086457366154793e-03 -4.9130368444051753e-01
    9.6562668431543919e-03 -5.1298917604257710e-01
    9.0564748108176597e-03 -5.7735026918962584e-01
    8.4106654409576379e-03 -6.8511878904467427e-01
    8.0442759853862084e-03 -7.9772403521746571e-01
    8.0442759853862084e-03 -7.9772403521746571e-01
    7.8920046264698458e-03 -8.9442719099991586e-01
    7.8431372549019607e-03 -1. 7.8461649088479284e-03
    -1.0281745265969473e+00 8.1003573254011339e-03
    -1.2909944487358056e+00 8.2370818728222817e-03
    -1.3711309200802091e+00 7.8461649088479284e-03
    -1.0281745265969473e+00 7.8920046264698458e-03
    -1.1180339887498947e+00 7.8705130353608540e-03
    -1.0871146130092180e+00 7.8920046264698458e-03
    -1.1180339887498947e+00 7.9543929856801549e-03
    -1.1832159566199230e+00 8.1003573254011339e-03
    -1.2909944487358056e+00 7.8552689516422202e-03
    -1.0571882797418488e+00 7.9957478370155152e-03
    -1.2176857643454877e+00 7.9198971311042043e-03
    -1.1500350625790898e+00 7.9198971311042043e-03
    -1.1500350625790898e+00 7.8705130353608540e-03
    -1.0871146130092180e+00 7.8461649088479284e-03
    -1.0281745265969473e+00 7.8552689516422202e-03
    -1.0571882797418488e+00 7.9198971311042043e-03
    -1.1500350625790898e+00 7.9957478370155152e-03
    -1.2176857643454877e+00 7.8920046264698458e-03
    -1.1180339887498947e+00 8.6277505602655180e-03
    -1.5583874449479591e+00 8.3189033080770299e-03
    -1.4142135623730951e+00 8.2370818728222817e-03
    -1.3711309200802091e+00 7.9198971311042043e-03
    -1.1500350625790898e+00 7.8552689516422202e-03
    -1.0571882797418488e+00 7.8552689516422202e-03
    -9.4590530292691744e-01 7.8431372549019607e-03 -1.
    8.1003573254011339e-03 -7.7459666924148340e-01
    1.0522672835293128e-02 -4.4721359549995793e-01
    1.4188769156600639e-02 -3.0151134457776357e-01
    1.7120161767270561e-02 -2.4253562503633294e-01
    1.5426589121171381e-02 -2.7317918235407651e-01
    1.3236910050028106e-02 -3.2816506165694681e-01
    1.0195173807164032e-02 -4.6940279403817725e-01
    1.0195173807164032e-02 -4.6940279403817725e-01
    9.9086457366154793e-03 -4.9130368444051753e-01
    1.0195173807164032e-02 -4.6940279403817725e-01
    8.5132614939603841e-03 -6.6332495807107994e-01
    8.5132614939603841e-03 -6.6332495807107994e-01
    7.8705130353608540e-03 -9.1986621100779986e-01
    7.8705130353608540e-03 -1.0871146130092180e+00
    7.9543929856801549e-03 -8.4515425472851646e-01
    7.8461649088479284e-03 -1.0281745265969473e+00
    7.9957478370155152e-03 -1.2176857643454877e+00
    8.1644460983469197e-03 -1.3301243435223522e+00
    8.2370818728222817e-03 -1.3711309200802091e+00
    7.9957478370155152e-03 -1.2176857643454877e+00
    7.9957478370155152e-03 -1.2176857643454877e+00
    7.8461649088479284e-03 -1.0281745265969473e+00
    7.8705130353608540e-03 -1.0871146130092180e+00
    7.8461649088479302e-03 -9.7259752515927467e-01
    7.8920046264698458e-03 -1.1180339887498947e+00
    7.8705130353608540e-03 -1.0871146130092180e+00
    7.8705130353608540e-03 -1.0871146130092180e+00
    7.8461649088479284e-03 -1.0281745265969473e+00
    7.8705130353608540e-03 -1.0871146130092180e+00
    7.8920046264698458e-03 -1.1180339887498947e+00
    7.8461649088479302e-03 -9.7259752515927467e-01
    7.8920046264698458e-03 -1.1180339887498947e+00
    7.8461649088479302e-03 -9.7259752515927467e-01
    9.2339285670738139e-03 -1.7986923354612532e+00
    8.1003573254011339e-03 -1.2909944487358056e+00
    7.9957478370155152e-03 -1.2176857643454877e+00
    7.9957478370155152e-03 -1.2176857643454877e+00
    7.8552689516422202e-03 -1.0571882797418488e+00
    7.8705130353608540e-03 -9.1986621100779986e-01
    8.0442759853862084e-03 -7.9772403521746571e-01
    8.6277505602655180e-03 -6.4168894791974795e-01
    1.1339566996270572e-02 -4.0160966445124940e-01
    1.7120161767270561e-02 -2.4253562503633294e-01
    1.7120161767270561e-02 -2.4253562503633294e-01
    1.5426589121171381e-02 -2.7317918235407651e-01
    1.3236910050028106e-02 -3.2816506165694681e-01
    1.1857708957152227e-02 -3.7796447300922725e-01
    1.0195173807164032e-02 -4.6940279403817725e-01
    1.0900114397395523e-02 -4.2465029006520061e-01
    1.0195173807164032e-02 -4.6940279403817725e-01
    9.6562668431543919e-03 -5.1298917604257710e-01
    8.4106654409576379e-03 -6.8511878904467427e-01
    8.2370818728222817e-03 -7.2932495748947290e-01
    8.0442759853862084e-03 -7.9772403521746571e-01
    8.1003573254011339e-03 -7.7459666924148340e-01
    7.8920046264698458e-03 -8.9442719099991586e-01
    7.8920046264698458e-03 -8.9442719099991586e-01
    7.8552689516422202e-03 -1.0571882797418488e+00
    8.1003573254011339e-03 -1.2909944487358056e+00
    8.3189033080770299e-03 -1.4142135623730951e+00
    8.2370818728222817e-03 -1.3711309200802091e+00
    7.9543929856801549e-03 -1.1832159566199230e+00
    8.1644460983469197e-03 -1.3301243435223522e+00
    7.9957478370155152e-03 -1.2176857643454877e+00
    7.9957478370155152e-03 -1.2176857643454877e+00
    7.8920046264698458e-03 -1.1180339887498947e+00
    7.9543929856801549e-03 -1.1832159566199230e+00
    7.8461649088479302e-03 -9.7259752515927467e-01
    7.8461649088479302e-03 -9.7259752515927467e-01
    7.8461649088479284e-03 -1.0281745265969473e+00
    7.9198971311042043e-03 -1.1500350625790898e+00
    8.1644460983469197e-03 -1.3301243435223522e+00
    8.1003573254011339e-03 -1.2909944487358056e+00
    8.5132614939603859e-03 -1.5075567228888185e+00
    7.9198971311042043e-03 -1.1500350625790898e+00
    7.8705130353608540e-03 -1.0871146130092180e+00
    7.8431372549019607e-03 -1. 7.8552689516422202e-03
    -1.0571882797418488e+00 7.8431372549019607e-03 -1.
    8.5132614939603841e-03 -6.6332495807107994e-01
    9.2339285670738156e-03 -5.5595944914256934e-01
    1.4188769156600639e-02 -3.0151134457776357e-01
    1.5426589121171381e-02 -2.7317918235407651e-01
    1.9624886028901153e-02 -2.0851441405707474e-01
    1.5426589121171381e-02 -2.7317918235407651e-01
    1.3236910050028106e-02 -3.2816506165694681e-01
    1.1339566996270572e-02 -4.0160966445124940e-01
    1.1339566996270572e-02 -4.0160966445124940e-01
    1.0195173807164032e-02 -4.6940279403817725e-01
    9.4327497145561545e-03 -5.3452248382484868e-01
    9.2339285670738156e-03 -5.5595944914256934e-01
    8.7553930298264783e-03 -6.2017367294604220e-01
    8.2370818728222817e-03 -7.2932495748947290e-01
    8.5132614939603841e-03 -6.6332495807107994e-01
    8.1644460983469214e-03 -7.5180941155611236e-01
    8.0442759853862084e-03 -7.9772403521746571e-01
    7.8431372549019607e-03 -1. 7.8705130353608540e-03
    -1.0871146130092180e+00 7.8461649088479284e-03
    -1.0281745265969473e+00 7.8920046264698458e-03
    -1.1180339887498947e+00 7.8705130353608540e-03
    -1.0871146130092180e+00 7.8920046264698458e-03
    -1.1180339887498947e+00 7.9198971311042043e-03
    -1.1500350625790898e+00 7.9957478370155152e-03
    -1.2176857643454877e+00 7.9543929856801549e-03
    -1.1832159566199230e+00 7.8461649088479284e-03
    -1.0281745265969473e+00 7.9543929856801549e-03
    -1.1832159566199230e+00 7.8552689516422202e-03
    -9.4590530292691744e-01 7.8461649088479302e-03
    -9.7259752515927467e-01 7.9198971311042043e-03
    -8.6953870585248250e-01 8.1003573254011339e-03
    -1.2909944487358056e+00 8.0442759853862084e-03
    -1.2535663410560176e+00 8.1644460983469197e-03
    -1.3301243435223522e+00 7.9543929856801549e-03
    -1.1832159566199230e+00 7.9198971311042043e-03
    -1.1500350625790898e+00 7.8461649088479284e-03
    -1.0281745265969473e+00 7.8705130353608540e-03
    -1.0871146130092180e+00 7.8705130353608540e-03
    -1.0871146130092180e+00 8.1003573254011339e-03
    -7.7459666924148340e-01 8.6277505602655180e-03
    -6.4168894791974795e-01 9.9086457366154793e-03
    -4.9130368444051753e-01 1.2478354962115544e-02
    -3.5355339059327373e-01 1.5426589121171381e-02
    -2.7317918235407651e-01 1.7120161767270561e-02
    -2.4253562503633294e-01 1.5426589121171381e-02
    -2.7317918235407651e-01 1.1857708957152227e-02
    -3.7796447300922725e-01 1.1339566996270572e-02
    -4.0160966445124940e-01 1.1339566996270572e-02
    -4.0160966445124940e-01 1.0900114397395523e-02
    -4.2465029006520061e-01 9.4327497145561545e-03
    -5.3452248382484868e-01 9.0564748108176597e-03
    -5.7735026918962584e-01 8.8976963528930031e-03
    -5.9874081708009175e-01 9.0564748108176597e-03
    -5.7735026918962584e-01 8.4106654409576379e-03
    -6.8511878904467427e-01 8.3189033080770299e-03
    -7.0710678118654757e-01 7.8920046264698458e-03
    -8.9442719099991586e-01 7.8552689516422202e-03
    -9.4590530292691744e-01 7.8552689516422202e-03
    -9.4590530292691744e-01 7.9543929856801549e-03
    -8.4515425472851646e-01 7.9198971311042043e-03
    -1.1500350625790898e+00 7.8552689516422202e-03
    -1.0571882797418488e+00 7.8431372549019607e-03 -1.
    7.8920046264698458e-03 -1.1180339887498947e+00
    8.0442759853862084e-03 -1.2535663410560176e+00
    8.0442759853862084e-03 -1.2535663410560176e+00
    7.9957478370155152e-03 -1.2176857643454877e+00
    7.8920046264698458e-03 -1.1180339887498947e+00
    7.8705130353608540e-03 -1.0871146130092180e+00
    8.1003573254011339e-03 -1.2909944487358056e+00
    8.1003573254011339e-03 -1.2909944487358056e+00
    8.5132614939603859e-03 -1.5075567228888185e+00
    8.1003573254011339e-03 -1.2909944487358056e+00
    7.9957478370155152e-03 -1.2176857643454877e+00
    7.8461649088479302e-03 -9.7259752515927467e-01
    7.8920046264698458e-03 -1.1180339887498947e+00
    7.8705130353608540e-03 -1.0871146130092180e+00
    7.8705130353608540e-03 -1.0871146130092180e+00
    7.9957478370155152e-03 -8.2122993409346845e-01
    8.5132614939603841e-03 -6.6332495807107994e-01
    8.5132614939603841e-03 -6.6332495807107994e-01
    9.9086457366154793e-03 -4.9130368444051753e-01
    1.2478354962115544e-02 -3.5355339059327373e-01
    1.5426589121171381e-02 -2.7317918235407651e-01
    1.9624886028901153e-02 -2.0851441405707474e-01
    1.7120161767270561e-02 -2.4253562503633294e-01
    1.2478354962115544e-02 -3.5355339059327373e-01
    1.1339566996270572e-02 -4.0160966445124940e-01
    1.0522672835293128e-02 -4.4721359549995793e-01
    1.0195173807164032e-02 -4.6940279403817725e-01
    1.0522672835293128e-02 -4.4721359549995793e-01
    9.2339285670738156e-03 -5.5595944914256934e-01
    9.2339285670738156e-03 -5.5595944914256934e-01
    9.2339285670738156e-03 -5.5595944914256934e-01
    9.0564748108176597e-03 -5.7735026918962584e-01
    8.1003573254011339e-03 -7.7459666924148340e-01
    8.3189033080770299e-03 -7.0710678118654757e-01
    8.1644460983469214e-03 -7.5180941155611236e-01
    7.9957478370155152e-03 -8.2122993409346845e-01
    7.8461649088479302e-03 -9.7259752515927467e-01
    7.8552689516422202e-03 -9.4590530292691744e-01
    7.9198971311042043e-03 -1.1500350625790898e+00
    7.8920046264698458e-03 -1.1180339887498947e+00
    8.0442759853862084e-03 -1.2535663410560176e+00
    7.8552689516422202e-03 -1.0571882797418488e+00
    7.8431372549019607e-03 -1. 7.9957478370155152e-03
    -1.2176857643454877e+00 8.0442759853862084e-03
    -1.2535663410560176e+00 7.8461649088479284e-03
    -1.0281745265969473e+00 7.9198971311042043e-03
    -1.1500350625790898e+00 7.9543929856801549e-03
    -1.1832159566199230e+00 8.1003573254011339e-03
    -1.2909944487358056e+00 8.0442759853862084e-03
    -1.2535663410560176e+00 7.9957478370155152e-03
    -1.2176857643454877e+00 7.8552689516422202e-03
    -9.4590530292691744e-01 7.8431372549019607e-03 -1.
    7.8461649088479284e-03 -1.0281745265969473e+00
    7.9198971311042043e-03 -8.6953870585248250e-01
    8.3189033080770299e-03 -7.0710678118654757e-01
    8.5132614939603841e-03 -6.6332495807107994e-01
    8.6277505602655180e-03 -6.4168894791974795e-01
    1.0900114397395523e-02 -4.2465029006520061e-01
    1.3236910050028106e-02 -3.2816506165694681e-01
    1.4188769156600639e-02 -3.0151134457776357e-01
    2.3863178957040466e-02 -1.6903085094570330e-01
    1.5426589121171381e-02 -2.7317918235407651e-01
    1.2478354962115544e-02 -3.5355339059327373e-01
    1.1857708957152227e-02 -3.7796447300922725e-01
    1.0195173807164032e-02 -4.6940279403817725e-01
    1.0195173807164032e-02 -4.6940279403817725e-01
    1.0195173807164032e-02 -4.6940279403817725e-01
    1.0522672835293128e-02 -4.4721359549995793e-01
    9.2339285670738156e-03 -5.5595944914256934e-01
    9.4327497145561545e-03 -5.3452248382484868e-01
    9.4327497145561545e-03 -5.3452248382484868e-01
    8.7553930298264783e-03 -6.2017367294604220e-01
    7.9957478370155152e-03 -8.2122993409346845e-01
    8.0442759853862084e-03 -7.9772403521746571e-01
    7.8920046264698458e-03 -8.9442719099991586e-01
    7.8705130353608540e-03 -9.1986621100779986e-01
    7.8552689516422202e-03 -9.4590530292691744e-01
    7.9198971311042043e-03 -8.6953870585248250e-01
    7.9543929856801549e-03 -1.1832159566199230e+00
    7.9957478370155152e-03 -1.2176857643454877e+00
    7.8552689516422202e-03 -1.0571882797418488e+00
    7.8461649088479284e-03 -1.0281745265969473e+00
    7.8705130353608540e-03 -9.1986621100779986e-01
    7.8461649088479284e-03 -1.0281745265969473e+00
    8.2370818728222817e-03 -1.3711309200802091e+00
    8.1644460983469197e-03 -1.3301243435223522e+00
    8.0442759853862084e-03 -1.2535663410560176e+00
    7.8461649088479284e-03 -1.0281745265969473e+00
    7.8920046264698458e-03 -8.9442719099991586e-01
    7.8431372549019607e-03 -1. 7.8461649088479302e-03
    -9.7259752515927467e-01 7.9957478370155152e-03
    -8.2122993409346845e-01 8.0442759853862084e-03
    -7.9772403521746571e-01 8.1644460983469214e-03
    -7.5180941155611236e-01 8.6277505602655180e-03
    -6.4168894791974795e-01 8.6277505602655180e-03
    -6.4168894791974795e-01 9.9086457366154793e-03
    -4.9130368444051753e-01 1.0195173807164032e-02
    -4.6940279403817725e-01 1.3236910050028106e-02
    -3.2816506165694681e-01 1.5426589121171381e-02
    -2.7317918235407651e-01 1.7120161767270561e-02
    -2.4253562503633294e-01 1.4188769156600639e-02
    -3.0151134457776357e-01 1.3236910050028106e-02
    -3.2816506165694681e-01 1.1339566996270572e-02
    -4.0160966445124940e-01 1.0900114397395523e-02
    -4.2465029006520061e-01 1.0900114397395523e-02
    -4.2465029006520061e-01 1.0900114397395523e-02
    -4.2465029006520061e-01 1.0900114397395523e-02
    -4.2465029006520061e-01 1.0522672835293128e-02
    -4.4721359549995793e-01 9.6562668431543919e-03
    -5.1298917604257710e-01 1.0195173807164032e-02
    -4.6940279403817725e-01 9.9086457366154793e-03
    -4.9130368444051753e-01 9.6562668431543919e-03
    -5.1298917604257710e-01 8.3189033080770299e-03
    -7.0710678118654757e-01 8.0442759853862084e-03
    -7.9772403521746571e-01 7.8552689516422202e-03
    -9.4590530292691744e-01 7.8920046264698458e-03
    -8.9442719099991586e-01 7.8920046264698458e-03
    -8.9442719099991586e-01 7.8431372549019607e-03 -1.
    7.9543929856801549e-03 -1.1832159566199230e+00
    7.8705130353608540e-03 -1.0871146130092180e+00
    7.8461649088479302e-03 -9.7259752515927467e-01
    7.8552689516422202e-03 -9.4590530292691744e-01
    8.1644460983469197e-03 -1.3301243435223522e+00
    8.0442759853862084e-03 -1.2535663410560176e+00
    8.1644460983469197e-03 -1.3301243435223522e+00
    7.8552689516422202e-03 -9.4590530292691744e-01
    7.8552689516422202e-03 -1.0571882797418488e+00
    7.8461649088479302e-03 -9.7259752515927467e-01
    7.8461649088479302e-03 -9.7259752515927467e-01
    7.9957478370155152e-03 -8.2122993409346845e-01
    8.0442759853862084e-03 -7.9772403521746571e-01
    9.0564748108176597e-03 -5.7735026918962584e-01
    8.8976963528930031e-03 -5.9874081708009175e-01
    8.8976963528930031e-03 -5.9874081708009175e-01
    9.6562668431543919e-03 -5.1298917604257710e-01
    1.0900114397395523e-02 -4.2465029006520061e-01
    1.0900114397395523e-02 -4.2465029006520061e-01
    1.3236910050028106e-02 -3.2816506165694681e-01
    2.3863178957040466e-02 -1.6903085094570330e-01
    1.9624886028901153e-02 -2.0851441405707474e-01
    1.5426589121171381e-02 -2.7317918235407651e-01
    1.4188769156600639e-02 -3.0151134457776357e-01
    1.1857708957152227e-02 -3.7796447300922725e-01
    1.1339566996270572e-02 -4.0160966445124940e-01
    1.1857708957152227e-02 -3.7796447300922725e-01
    1.1857708957152227e-02 -3.7796447300922725e-01
    1.1857708957152227e-02 -3.7796447300922725e-01
    1.2478354962115544e-02 -3.5355339059327373e-01
    1.3236910050028106e-02 -3.2816506165694681e-01
    1.1857708957152227e-02 -3.7796447300922725e-01
    1.1857708957152227e-02 -3.7796447300922725e-01
    1.0195173807164032e-02 -4.6940279403817725e-01
    9.6562668431543919e-03 -5.1298917604257710e-01
    9.2339285670738156e-03 -5.5595944914256934e-01
    8.4106654409576379e-03 -6.8511878904467427e-01
    8.3189033080770299e-03 -7.0710678118654757e-01
    8.1003573254011339e-03 -7.7459666924148340e-01
    7.9957478370155152e-03 -8.2122993409346845e-01
    7.8552689516422202e-03 -1.0571882797418488e+00
    7.8705130353608540e-03 -1.0871146130092180e+00
    7.8705130353608540e-03 -1.0871146130092180e+00
    7.8431372549019607e-03 -1. 7.9957478370155152e-03
    -1.2176857643454877e+00 8.0442759853862084e-03
    -1.2535663410560176e+00 7.8705130353608540e-03
    -1.0871146130092180e+00 7.8431372549019607e-03 -1.
    7.8431372549019607e-03 -1. 7.9198971311042043e-03
    -8.6953870585248250e-01 8.1644460983469214e-03
    -7.5180941155611236e-01 8.4106654409576379e-03
    -6.8511878904467427e-01 8.4106654409576379e-03
    -6.8511878904467427e-01 9.2339285670738156e-03
    -5.5595944914256934e-01 9.2339285670738156e-03
    -5.5595944914256934e-01 1.0900114397395523e-02
    -4.2465029006520061e-01 1.3236910050028106e-02
    -3.2816506165694681e-01 1.1857708957152227e-02
    -3.7796447300922725e-01 1.1857708957152227e-02
    -3.7796447300922725e-01 1.3236910050028106e-02
    -3.2816506165694681e-01 1.7120161767270561e-02
    -2.4253562503633294e-01 1. 0. 1.9624886028901153e-02
    -2.0851441405707474e-01 1.7120161767270561e-02
    -2.4253562503633294e-01 1.5426589121171381e-02
    -2.7317918235407651e-01 1.5426589121171381e-02
    -2.7317918235407651e-01 1.5426589121171381e-02
    -2.7317918235407651e-01 1.5426589121171381e-02
    -2.7317918235407651e-01 1.4188769156600639e-02
    -3.0151134457776357e-01 1.4188769156600639e-02
    -3.0151134457776357e-01 1.4188769156600639e-02
    -3.0151134457776357e-01 1.4188769156600639e-02
    -3.0151134457776357e-01 1.3236910050028106e-02
    -3.2816506165694681e-01 1.2478354962115544e-02
    -3.5355339059327373e-01 1.0522672835293128e-02
    -4.4721359549995793e-01 1.0522672835293128e-02
    -4.4721359549995793e-01 1.0195173807164032e-02
    -4.6940279403817725e-01 9.0564748108176597e-03
    -5.7735026918962584e-01 8.3189033080770299e-03
    -7.0710678118654757e-01 7.8705130353608540e-03
    -9.1986621100779986e-01 8.1644460983469214e-03
    -7.5180941155611236e-01 8.1644460983469214e-03
    -7.5180941155611236e-01 7.8461649088479302e-03
    -9.7259752515927467e-01 7.9957478370155152e-03
    -8.2122993409346845e-01 7.8920046264698458e-03
    -1.1180339887498947e+00 8.0442759853862084e-03
    -7.9772403521746571e-01 7.8461649088479302e-03
    -9.7259752515927467e-01 8.0442759853862084e-03
    -7.9772403521746571e-01 7.9957478370155152e-03
    -8.2122993409346845e-01 8.3189033080770299e-03
    -7.0710678118654757e-01 8.4106654409576379e-03
    -6.8511878904467427e-01 8.6277505602655180e-03
    -6.4168894791974795e-01 9.6562668431543919e-03
    -5.1298917604257710e-01 1.0195173807164032e-02
    -4.6940279403817725e-01 1.3236910050028106e-02
    -3.2816506165694681e-01 1.3236910050028106e-02
    -3.2816506165694681e-01 1.3236910050028106e-02
    -3.2816506165694681e-01 1.4188769156600639e-02
    -3.0151134457776357e-01 1.4188769156600639e-02
    -3.0151134457776357e-01 1.4188769156600639e-02
    -3.0151134457776357e-01 1.7120161767270561e-02
    -2.4253562503633294e-01 3.3509129172532327e-02
    -1.1867816581938533e-01 1.7120161767270561e-02
    -2.4253562503633294e-01 1.7120161767270561e-02
    -2.4253562503633294e-01 1.7120161767270561e-02
    -2.4253562503633294e-01 1.9624886028901153e-02
    -2.0851441405707474e-01 2.3863178957040466e-02
    -1.6903085094570330e-01 1.9624886028901153e-02
    -2.0851441405707474e-01 1.9624886028901153e-02
    -2.0851441405707474e-01 1.9624886028901153e-02
    -2.0851441405707474e-01 1.7120161767270561e-02
    -2.4253562503633294e-01 1.7120161767270561e-02
    -2.4253562503633294e-01 1.7120161767270561e-02
    -2.4253562503633294e-01 1.5426589121171381e-02
    -2.7317918235407651e-01 1.5426589121171381e-02
    -2.7317918235407651e-01 1.7120161767270561e-02
    -2.4253562503633294e-01 1.7120161767270561e-02
    -2.4253562503633294e-01 1.0900114397395523e-02
    -4.2465029006520061e-01 1.0900114397395523e-02
    -4.2465029006520061e-01 1.0900114397395523e-02
    -4.2465029006520061e-01 1.0195173807164032e-02
    -4.6940279403817725e-01 8.4106654409576379e-03
    -6.8511878904467427e-01 8.6277505602655180e-03
    -6.4168894791974795e-01 1.1339566996270572e-02
    -4.0160966445124940e-01 9.2339285670738156e-03
    -5.5595944914256934e-01 8.1644460983469214e-03
    -7.5180941155611236e-01 8.6277505602655180e-03
    -6.4168894791974795e-01 8.3189033080770299e-03
    -7.0710678118654757e-01 8.3189033080770299e-03
    -7.0710678118654757e-01 8.4106654409576379e-03
    -6.8511878904467427e-01 8.6277505602655180e-03
    -6.4168894791974795e-01 9.4327497145561545e-03
    -5.3452248382484868e-01 1.1857708957152227e-02
    -3.7796447300922725e-01 1.4188769156600639e-02
    -3.0151134457776357e-01 1.4188769156600639e-02
    -3.0151134457776357e-01 1.4188769156600639e-02
    -3.0151134457776357e-01 1.4188769156600639e-02
    -3.0151134457776357e-01 1.5426589121171381e-02
    -2.7317918235407651e-01 1.5426589121171381e-02
    -2.7317918235407651e-01 1.5426589121171381e-02
    -2.7317918235407651e-01 1.7120161767270561e-02
    -2.4253562503633294e-01</input_scale>
  <output_scale>
    1.0526315789473684e+00 0.</output_scale>
  <inv_output_scale>
    9.4999999999999996e-01 0.</inv_output_scale>
  <weights>
    <_>
      -1.1719048386403424e-03 -2.2903224389177911e-04
      -9.9637750405231888e-04 -5.5088375721748159e-04
      2.2039270841974236e-04 1.2144499427915077e-03
      9.9728247011042037e-04 2.0453599492093418e-04
      -7.2831549546728146e-04 -4.2920232853557353e-04
      -1.1054717958401724e-03 -1.2409612586460942e-04
      -2.1397120762249158e-05 -7.8018402384446585e-04
      6.7194088742161514e-04 -1.1208781013474275e-03
      1.1037170489498088e-03 1.0083693640301039e-03
      -2.5698247005999147e-04 -3.4383640164285737e-05
      3.0002183913935715e-04 -7.7645728251324352e-04
      -6.5397802009701264e-04 9.5527311481024093e-04
      -1.0954164450422850e-03 -3.1663012947851025e-04
      6.1523554708813478e-04 -6.3403300196013517e-04
      1.0630743572223426e-03 -2.4215284090006096e-04
      1.2150750992007805e-03 -3.7732545206526025e-04
      2.2581237915161135e-04 8.1166924113520002e-04
      1.1322676431532379e-03 5.1786688077618958e-04
      8.1904968067006900e-04 5.2277548999592920e-04
      1.2256443938238879e-03 -1.5902424652943092e-04
      -3.7045645927153870e-02 -9.3523531974710322e-04
      -5.7128155619350631e-03 -4.0122133730058490e-03
      4.3883317175691643e-03 -3.6720131956165594e-03
      2.4111107464658641e-03 4.2834266928667509e-03
      2.7670285437616511e-03 -6.3957890633039799e-03
      -4.0736717226697991e-03 -3.3343881309993448e-03
      -3.0379247344804777e-03 4.3076746957705810e-03
      1.0186684219047001e-03 -2.5475442397439106e-03
      2.1389109145018917e-03 -3.8155539664527362e-03
      6.9256992374911010e-03 -5.5548896412029444e-03
      4.5077096846477963e-03 -1.5425686749484940e-03
      -1.9071938652077457e-03 -3.9826500892845311e-03
      -2.8289445578880087e-03 1.2666796903821314e-03
      4.9319188000887710e-04 -1.4461496266807254e-03
      -2.9981687937765422e-03 -3.6675878264227856e-03
      5.0148109888003643e-03 9.6695337881118139e-05
      -6.0082827090607036e-03 -3.1951594312319342e-03
      -4.0952061555978199e-03 -2.3144170335814931e-03
      -4.3978747409291075e-03 -4.2795962950146699e-03
      1.0236757879945226e-03 4.3311538266486453e-03
      -5.1587432809849856e-02 -9.8962816793351301e-04
      -6.5558602516349596e-03 -6.7123727386162778e-03
      7.4374733968293975e-03 -3.0842688652259246e-03
      5.5657282332366980e-03 6.0507125220444456e-03
      2.2273570673616207e-03 -7.2493423549662020e-03
      -6.3382718664256503e-03 -7.8356537407439086e-03
      -5.1492686201993825e-03 5.8929865766942490e-03
      2.8056128643967437e-03 -6.0974909596881073e-03
      3.7508945799359233e-03 -5.9169695524498587e-03
      7.8295562796945467e-03 -7.0199832061497687e-03
      7.3173876561363179e-03 -2.8388957779742359e-03
      -3.5313043733687936e-03 -5.3771734980732786e-03
      -5.3742231984715959e-03 4.4824169977534713e-03
      1.0636693981224446e-04 -1.3956815786022297e-03
      -4.5945936342318867e-03 -5.7210878005799336e-03
      6.4678323656903857e-03 -7.7388987416756227e-04
      -7.3750537946035699e-03 -6.8781915960320888e-03
      -6.0018831916564038e-03 -2.2541917308843539e-03
      -7.6605382722016906e-03 -6.0162256948101435e-03
      1.0675433342950253e-03 7.0716376825121557e-03
      8.7417860404721701e-02 4.5928381815300449e-02
      2.9680854564619927e-02 1.1602816102079333e-02
      -2.6389632943531617e-02 5.2285648471793603e-03
      -9.4259238526593868e-03 -2.5609301868291415e-02
      -2.0867713678074792e-03 -5.5641867672604241e-03
      9.6468273155962056e-03 2.5390780053759537e-02
      1.0785107564329393e-02 -1.6267304790293848e-02
      -2.0501023673286981e-03 9.1210113699572905e-03
      -1.9958817888577124e-03 2.1315339866623054e-02
      -1.0818374797799426e-02 -1.8937979805509458e-03
      -2.2259491711967481e-02 3.9012785902631316e-03
      3.4720228732684991e-03 3.0079071512060147e-02
      9.5935966373597251e-03 -3.8176077340433944e-03
      4.5410049938705919e-02 -4.7267732972437450e-02
      1.2339975826415321e-02 9.4103557495281744e-03
      -3.6001151056751904e-02 -4.0424775549657233e-02
      -6.2095654888216943e-03 1.1312167113075786e-02
      1.7903351244741506e-02 4.2559528255361571e-03
      2.9159241861938582e-02 1.4889661360775915e-02
      -4.0964237252486171e-02 -2.7423953606489207e-02
      9.7654119717068263e-02 4.5927050671788053e-02
      3.2108336027148243e-02 1.2057230549902776e-02
      -3.0224533083647077e-02 7.6282654402983086e-03
      -1.0863011043213383e-02 -2.5894076504881579e-02
      -3.7234671563541144e-03 -9.7530495209447298e-05
      1.0864648293009118e-02 2.5623099838389809e-02
      1.2306132696433705e-02 -1.7741537082810462e-02
      -2.8563596333038145e-03 8.9265723695704444e-03
      -2.3137314720572530e-03 2.2311973111499482e-02
      -9.3387523820530997e-03 1.2192154669978491e-03
      -2.5155885327741243e-02 4.7255857983748142e-03
      2.1587079924753087e-03 3.3371258412859831e-02
      1.0484769555925099e-02 -3.8017861433448535e-03
      4.6458215378390795e-02 -4.4248523122209879e-02
      1.1134205576894363e-02 9.8988095867433446e-03
      -3.6108339020450804e-02 -4.3210837682526052e-02
      -4.9441775996925700e-03 1.3070285966071789e-02
      1.7842304114220973e-02 5.5807560674619528e-03
      3.0993309361487448e-02 1.6565313757927067e-02
      -4.2807320345930211e-02 -2.9218195155706131e-02
      9.8079883883034971e-02 4.4556058019334988e-02
      3.2959103097302517e-02 1.2687159203713006e-02
      -2.9080446864896924e-02 6.2788644175057586e-03
      -1.1373839106778545e-02 -2.6351587083007822e-02
      -3.5706020060318972e-03 1.1664375678210817e-04
      9.6240239623202970e-03 2.5214820854541329e-02
      1.2500007707295748e-02 -1.8147734481711614e-02
      -1.2567823617419141e-03 9.3848705900032338e-03
      -3.0134749591960780e-03 2.0914379229159112e-02
      -1.1262369896999544e-02 1.0674213786519328e-03
      -2.5146301049253344e-02 6.1161702855228916e-03
      3.5862791540378601e-03 3.3484102638936988e-02
      8.4943699420908948e-03 -4.4971005792464819e-03
      4.8059787907621207e-02 -4.5004912246516510e-02
      1.1628142274759265e-02 1.0173644500774090e-02
      -3.6755322667464833e-02 -4.3309504701141449e-02
      -3.4671402270133552e-03 1.3969306726114027e-02
      1.9052045650172381e-02 5.4869297985280941e-03
      3.1772202294665375e-02 1.6552107029917523e-02
      -4.1751669789742221e-02 -3.0643847710689745e-02
      1.5330855210778516e-01 6.5088967784205864e-02
      4.7162254112045110e-02 1.8986791519876936e-02
      -4.2819224418128500e-02 8.8932036659842510e-03
      -1.7300751303250598e-02 -3.8522817933180083e-02
      -3.7145011857034099e-03 3.8740582458744663e-02
      1.4965202439072314e-02 3.7416820957484782e-02
      1.6238681959871860e-02 -2.3955170273039870e-02
      -2.4338444833024793e-03 1.4934092513258255e-02
      -5.9915687773653380e-03 2.9958211198431645e-02
      -4.8100929084577894e-02 4.1898001855845399e-02
      -3.4476385374882186e-02 8.5549613576818579e-03
      5.4867196933276133e-03 4.6512896822854297e-02
      1.2679468453452431e-02 -5.4259418670956263e-03
      6.8622009629144651e-02 -6.9517098952967982e-02
      1.6859540563603847e-02 1.4728854887774314e-02
      -5.2564964741543631e-02 -6.4215312551735806e-02
      3.8474708138560257e-02 1.8228226223178143e-02
      2.7525152648191980e-02 8.1949954878320214e-03
      4.4784617437747157e-02 2.2862818658259208e-02
      -6.1010841952822623e-02 -4.2434079128107718e-02
      1.5350210836882477e-01 6.5071424756445173e-02
      4.4933678580107633e-02 1.7695589706376129e-02
      -4.2700611657901122e-02 1.0453652577226601e-02
      -1.5711368625098660e-02 -3.7186383280845149e-02
      -3.3129748155931158e-03 3.8477629143981326e-02
      1.6456402677689719e-02 3.8172770335060564e-02
      1.5292564044800307e-02 -2.3426809994605561e-02
      -2.2481873959258850e-03 1.3171122086709836e-02
      -6.2177318148252834e-03 3.1332909470732688e-02
      -4.8386181614032152e-02 4.1535103659199421e-02
      -3.4038292108217162e-02 6.9189216528914924e-03
      5.1302164617084449e-03 4.7609270232021300e-02
      1.3780095360804871e-02 -7.6459697773830588e-03
      6.7389118680502416e-02 -7.1312984470649932e-02
      1.8162271309118082e-02 1.4287976653025416e-02
      -5.4301163317301837e-02 -6.5367623162803840e-02
      3.8765176646070598e-02 1.8599648332812659e-02
      2.6806993601342234e-02 7.8696847099447645e-03
      4.6077612378098438e-02 2.1638302437020019e-02
      -5.9071235988693245e-02 -4.2017522927964832e-02
      -4.0492872313431370e-02 7.6772478655906459e-03
      -2.4091987118494800e-03 -9.2473529350837514e-04
      1.0279947739478717e-03 -9.1894330109275433e-04
      8.1715855532427486e-04 3.2862015769672976e-04
      1.1856323617413912e-03 -2.6125233462201160e-02
      -2.6019666865646184e-03 -6.7409550386109205e-04
      -1.9382473266483556e-03 4.6212662971132794e-04
      7.1432063372175666e-04 -2.7249334773849707e-03
      1.2359525025406380e-03 -1.9173938876234739e-03
      1.7817399088127708e-02 -2.4335635876039301e-02
      1.6074024171363122e-03 -2.5156854876295150e-03
      -1.7088004217160526e-04 -2.9263943008584056e-03
      -2.4297274013247504e-03 9.3229986184904324e-04
      7.0249274961383442e-03 -6.4618719176803103e-03
      -3.0218708083849994e-03 -7.7733490816915280e-04
      -1.0677017946235429e-03 -4.7917814645481146e-03
      -2.8406295833336329e-02 -1.8501811162379947e-03
      -2.3544085782718853e-03 -1.4895834902172163e-03
      -1.6791709933795793e-03 -2.2793427248030645e-03
      -5.8761630401810141e-03 3.8006696287609257e-03
      1.5346790083398287e-01 6.4742690616644283e-02
      4.6566441574142851e-02 1.7591790144111566e-02
      -4.1979995665596341e-02 9.6780031848697455e-03
      -1.6763122291827980e-02 -3.7818553648781353e-02
      -5.6779652426655258e-03 3.8858100020184749e-02
      1.5456621310037881e-02 3.7954194561105555e-02
      1.5598209028936317e-02 -2.3633144319893353e-02
      -1.7802884200435198e-03 1.3155314878022540e-02
      -4.4746766421546137e-03 3.2295074678977388e-02
      -4.7596630650961806e-02 4.1810345976654867e-02
      -3.4401300787250753e-02 7.8079273696519940e-03
      3.2872318641625213e-03 4.6963217361715832e-02
      1.4875897386159832e-02 -6.0237628833641980e-03
      6.8477439054876646e-02 -7.0012652763519118e-02
      1.6906003897916352e-02 1.4561577944096784e-02
      -5.3260408049024079e-02 -6.5469683193417089e-02
      3.8001831775460196e-02 1.9126188730980372e-02
      2.6675144982222995e-02 5.8305637098284230e-03
      4.5917604980857431e-02 2.2747158967286487e-02
      -6.1163671854779486e-02 -4.2766312874472925e-02
      9.6241895371119782e-02 5.2088500276900200e-02
      3.4473832553381004e-02 1.3140723991573988e-02
      -2.9358721149790774e-02 7.3530280987667077e-03
      -1.2942649996072704e-02 -2.7833485456168944e-02
      -2.3079678935348734e-03 3.4250683781127826e-02
      1.1995289515833375e-02 2.6073401243392559e-02
      1.2497310667766156e-02 -1.6752106646054310e-02
      -2.1659381803779696e-03 9.0410390642713060e-03
      -3.7337880295182997e-03 2.1476047097696911e-02
      -4.0130962109849865e-02 3.3956339458269744e-02
      -2.5909072261874957e-02 5.9815944490880409e-03
      4.1353143403178357e-03 3.5162956477601613e-02
      9.4982592992143844e-03 -3.7457223049193931e-03
      5.5045022890056854e-02 -5.8383594072078937e-02
      1.2084747435100707e-02 1.0436403792458377e-02
      -3.9875497522264505e-02 -5.2833689452286850e-02
      3.2404044345101767e-02 1.3244549382809688e-02
      1.8277721029944377e-02 3.9159233972041081e-03
      3.4191072985672338e-02 1.6651402885478901e-02
      -4.7578846178349128e-02 -3.0838591299733431e-02
      -4.1376422590679800e-02 7.7686431177039147e-03
      -1.5089020539809813e-03 -2.0067693131801440e-03
      9.2327615946669094e-04 -2.1796766063750467e-03
      1.3025749286863255e-03 2.0647934717998098e-03
      1.5133980411766433e-03 -2.6740301426256368e-02
      -1.4291872414685703e-03 -1.9481256223852993e-03
      -7.5947882032765613e-04 4.9199281182218913e-04
      4.9357986052751140e-04 -1.0566562640141324e-03
      6.3636862175374691e-04 -5.2831105702791153e-04
      1.9085762397432756e-02 -2.2918017134200063e-02
      1.7908345525546501e-03 -1.4626298634831548e-03
      -2.3790319543869009e-03 -1.1130025472542977e-03
      -1.4512808981764615e-03 2.3542960175806020e-03
      6.3347925152786267e-03 -7.1613907795858075e-03
      -1.4216467268786282e-03 -2.6438600575451258e-03
      -6.2913155408475204e-05 -4.0700061794539649e-03
      -2.7620199330128957e-02 -2.5677980126276741e-03
      -5.1110831241853877e-04 -1.8529240928341403e-03
      -1.9564517257252907e-03 -2.7924644330731968e-03
      -4.2115631529187235e-03 3.5737584249078318e-03
      -3.9860814772975477e-02 5.6691071433700108e-03
      -2.8414789028805591e-03 -7.4103852813871371e-04
      2.9414386701207252e-03 -2.5032822652620752e-03
      1.9079530380251436e-03 1.6428474721199289e-03
      2.5341063718769927e-03 -2.6611740234533093e-02
      -2.9335173125347447e-03 -1.1628863634595833e-04
      -2.4449562422379514e-03 1.8635194207686984e-03
      1.4107008519240534e-03 -1.3497012771208554e-03
      6.7754058114948012e-04 -7.2165244934087802e-04
      1.7891111199158219e-02 -2.4327466396442381e-02
      1.7809127195739869e-03 -2.7673460200551979e-03
      -9.3994008381000267e-04 -1.3923902616982859e-03
      -2.9210376759486391e-03 1.4563754477959149e-03
      6.0897193244788218e-03 -6.1343930795030449e-03
      -2.3420533616154448e-03 -2.2160379046354179e-03
      -1.2488434151152242e-03 -4.7057769586523303e-03
      -2.7158045697905850e-02 -2.0176898285991962e-03
      -1.5985028943175112e-03 -2.1161773874038919e-03
      -3.4976497882970130e-03 -1.9656040037221833e-03
      -4.0214499413460201e-03 1.9948796348392222e-03
      2.9409229525786659e-02 2.5731554751546721e-02
      1.5644906598337185e-02 5.2653011558060512e-03
      -1.5265468911328215e-02 2.8186574329687000e-03
      -5.3058701136761716e-03 -1.2334875981194935e-02
      -1.1507079446691246e-03 2.6354048971147601e-03
      4.2406951562912066e-03 1.2568928797210142e-02
      5.8833468950134759e-03 -9.1700773003053869e-03
      4.2006719133746344e-04 3.4751195188800492e-03
      -2.0541069703033294e-03 1.0011473000186965e-02
      -9.3074909063439858e-03 5.5926543234091942e-03
      -1.3472425994407228e-02 2.9643157761308418e-03
      6.1063204275329196e-04 1.6008164411811118e-02
      4.1760727176690200e-03 -1.9677604694529577e-03
      2.8727093117054642e-02 -2.8858926613478698e-02
      5.0633201988911211e-03 4.1534571580250472e-03
      -1.8101612457465745e-02 -2.6047070191622064e-02
      2.0012265899229738e-03 6.4296810584657145e-03
      8.9174514979974990e-03 1.7344671530514233e-03
      1.3644219995393152e-02 6.5969698606391531e-03
      -2.3693895075855356e-02 -1.3712092943228765e-02
      -5.0058777667169388e-02 -2.7137798795314524e-03
      -9.4896644239642093e-03 -3.8441331713998475e-03
      7.6627340315959785e-03 -2.2160540374513639e-03
      4.4838641234568061e-03 8.0818287624446414e-03
      1.9329061957400054e-03 -7.7130241586066109e-04
      -3.5351415033415068e-03 -7.1651192987655628e-03
      -3.1795864035638376e-03 6.6380864436145414e-03
      1.1016898599914752e-04 -4.3643455675103655e-03
      1.1819903993282308e-03 -6.7818322384536689e-03
      5.3360218374946108e-03 -2.2263175793161278e-03
      7.6841707123631890e-03 -2.5135272065196518e-03
      -8.9022874291077529e-04 -8.0386429733047340e-03
      -4.1863471231158899e-03 2.7121336360605977e-03
      -1.8808347154422725e-03 1.1901793505251191e-03
      -5.3059234672941475e-03 -3.9841624183126183e-03
      9.0541900850493219e-03 1.8864407224462951e-03
      -7.0220620920759637e-04 -4.1618194396161540e-03
      -5.4467681949295762e-03 -3.2604023132439784e-03
      -8.9718261768772165e-03 -3.9745596925313239e-03
      4.5012340908572894e-03 7.5316493862079602e-03
      -1.9170161831888241e-01 -3.0052029891944769e-02
      -3.7595055399815280e-02 -2.0564764418330640e-02
      3.5521407947401974e-02 -1.1672709584379904e-02
      1.8326091779023002e-02 3.3113029707537919e-02
      6.5333932021215462e-03 -3.0690257804541505e-02
      -1.7316666445902396e-02 -3.3816762204415478e-02
      -1.7498033365418553e-02 2.3812531839159910e-02
      6.5161898286518333e-03 -1.7374604092646604e-02
      8.0459011562729194e-03 -2.9997119970135280e-02
      3.5307755097706069e-02 -3.2973685670434835e-02
      3.1282477532444841e-02 -9.4185162069536053e-03
      -8.3317902885353297e-03 -3.6956553256087023e-02
      -1.6844182129664077e-02 9.0839635713095956e-03
      -2.8290186643136487e-02 2.7971114486461786e-02
      -1.8478720666506746e-02 -1.7511696419599217e-02
      3.5976149476143804e-02 2.7050434184433095e-02
      -3.0262639071058896e-02 -1.9706970373703312e-02
      -2.6326915489754972e-02 -1.0439882507428189e-02
      -3.6498334325797986e-02 -2.2000875847647712e-02
      3.0550806331291074e-02 3.6176851234434704e-02
      -1.9248014678773762e-01 -2.9755886187121529e-02
      -3.6444140496648764e-02 -1.8833323000448605e-02
      3.5918575418349800e-02 -1.3535476420843363e-02
      1.8215509206262286e-02 3.2368804000702113e-02
      7.2138579756700428e-03 -3.1280748891913741e-02
      -1.8691001248975617e-02 -3.1670518944556372e-02
      -1.7865454609065079e-02 2.5292360087235909e-02
      5.0017905422802345e-03 -1.6081239433837869e-02
      8.5043856127306749e-03 -2.8074480766965254e-02
      3.7052706227107116e-02 -3.1449441960408171e-02
      3.1338549738117519e-02 -1.1411532162112062e-02
      -8.2601898391503267e-03 -3.7120484698501925e-02
      -1.6218045212448365e-02 8.6987883531594225e-03
      -2.8925689124920603e-02 2.8210584339376517e-02
      -2.0305825730604271e-02 -1.6224203006643321e-02
      3.5934737500332201e-02 2.9192048438307545e-02
      -3.0839187137271188e-02 -2.0946537836419397e-02
      -2.5780826354335283e-02 -9.3622033598882871e-03
      -3.6227391785330208e-02 -2.4028968259984542e-02
      3.0456833221969491e-02 3.6051598318234075e-02
      1.2652059916946515e-01 4.7573789697561160e-02
      3.5638194340036108e-02 1.3443547098668544e-02
      -3.0633737211982748e-02 6.4745405513025565e-03
      -1.2323473752371666e-02 -2.8692578482290260e-02
      -4.4202748248981603e-03 5.8607847014260507e-02
      1.1505282265676195e-02 2.6315500602971002e-02
      1.2860491108667951e-02 -1.7316615731709128e-02
      -1.8825688081320706e-03 1.0231084817837117e-02
      -4.0124412418783631e-03 2.4314840582177911e-02
      -5.6230798979038023e-02 5.7807076058348603e-02
      -2.4809322119572777e-02 6.8908928437623994e-03
      2.7483966729092675e-03 3.5879414264354634e-02
      1.0071703750007174e-02 -4.2440752384525623e-03
      4.9322861752224202e-02 -5.2727979897871688e-02
      1.4360407404259777e-02 1.0006000715762133e-02
      -3.7489345504958783e-02 -5.0120562359239416e-02
      5.9681419272546811e-02 1.5316180041556215e-02
