<?xml version="1.0"?>
<opencv_storage>
<shapeML type_id="opencv-ml-ann-mlp">
  <layer_sizes type_id="opencv-matrix">
    <rows>1</rows>
    <cols>3</cols>
    <dt>i</dt>
    <data>
      1600 40 1</data></layer_sizes>
  <activation_function>SIGMOID_SYM</activation_function>
  <f_param1>5.9999999999999998e-01</f_param1>
  <f_param2>1.</f_param2>
  <min_val>-9.4999999999999996e-01</min_val>
  <max_val>9.4999999999999996e-01</max_val>
  <min_val1>-9.7999999999999998e-01</min_val1>
  <max_val1>9.7999999999999998e-01</max_val1>
  <training_params>
    <train_method>BACKPROP</train_method>
    <dw_scale>1.0000000000000001e-01</dw_scale>
    <moment_scale>1.0000000000000001e-01</moment_scale>
    <term_criteria><epsilon>9.9999999747524271e-07</epsilon>
      <iterations>4000</iterations></term_criteria></training_params>
  <input_scale>
    1. 0. 5.7234046609474912e-02 -6.8842839082151427e-02
    5.7234046609474912e-02 -6.8842839082151427e-02
    8.0845433196218688e-02 -4.8621663832631522e-02
    4.0566826561782163e-02 -9.7590007294853301e-02
    4.0566826561782163e-02 -9.7590007294853301e-02
    4.6786870929910102e-02 -8.4414991182502896e-02
    4.6786870929910102e-02 -8.4414991182502896e-02
    2.7206982237607577e-02 -1.4726420810214480e-01
    4.6786870929910102e-02 -8.4414991182502896e-02
    2.5841963313326343e-02 -1.5541746804005230e-01
    2.7206982237607577e-02 -1.4726420810214480e-01
    1.4637952297041826e-02 -2.9051502023492209e-01
    1.1857708957152227e-02 -3.7796447300922725e-01
    9.9755329322074281e-03 -4.8595432244043502e-01
    1.2266255378464572e-02 -3.6147844564602555e-01
    1.2266255378464572e-02 -3.6147844564602555e-01
    1.0623972901241089e-02 -4.4086981886164378e-01
    9.6697378727684229e-03 -5.1176631571915898e-01
    8.7055910350822985e-03 -6.2828086243754322e-01
    8.2668407846038065e-03 -7.2091141040265505e-01
    8.7055910350822985e-03 -6.2828086243754322e-01
    9.3361094126896728e-03 -5.4464308095018643e-01
    9.5517481567855625e-03 -5.2275546221275704e-01
    1.4637952297041826e-02 -2.9051502023492209e-01
    1.5790615823165519e-02 -2.6590801173915518e-01
    1.9989595722209260e-02 -2.0437475815041778e-01
    2.2747469377974731e-02 -1.7784872874525054e-01
    2.1946725411347526e-02 -1.8478728707195910e-01
    2.3647565938348578e-02 -1.7066403719657230e-01
    2.1946725411347526e-02 -1.8478728707195910e-01
    3.0775748812810200e-02 -1.2956299912940142e-01
    2.8822657254840338e-02 -1.3867504905630729e-01
    3.0775748812810200e-02 -1.2956299912940142e-01
    2.7206982237607577e-02 -1.4726420810214480e-01
    2.7206982237607577e-02 -1.4726420810214480e-01
    3.6327345341986034e-02 -1.0923906912979292e-01
    3.6327345341986034e-02 -1.0923906912979292e-01 1. 0.
    8.0845433196218688e-02 -4.8621663832631522e-02
    8.0845433196218688e-02 -4.8621663832631522e-02
    4.6786870929910102e-02 -8.4414991182502896e-02
    5.7234046609474912e-02 -6.8842839082151427e-02
    5.7234046609474912e-02 -6.8842839082151427e-02
    3.6327345341986034e-02 -1.0923906912979292e-01
    3.6327345341986034e-02 -1.0923906912979292e-01
    2.4669156932813817e-02 -1.6320043678429896e-01
    2.4669156932813817e-02 -1.6320043678429896e-01
    2.4669156932813817e-02 -1.6320043678429896e-01
    2.3647565938348578e-02 -1.7066403719657230e-01
    1.2055526227164831e-02 -3.6976914760443069e-01
    1.2159196385486407e-02 -3.6563621206356528e-01
    9.5139906578542034e-03 -5.2641089819164999e-01
    8.7503204787936321e-03 -6.2098382831816135e-01
    8.0260318516852808e-03 -8.0610510944343794e-01
    7.9283579947406879e-03 -8.6305038501711417e-01
    7.8684760871761510e-03 -9.2278295621423134e-01
    7.9075302411298412e-03 -1.1366142229850429e+00
    7.8602952871273668e-03 -1.0683698523517693e+00
    7.8432245109109847e-03 -9.9529409153199411e-01
    7.8684760871761510e-03 -1.0836784460156872e+00
    7.8655702996579639e-03 -1.0785477764672502e+00
    7.9587250581522814e-03 -8.4242353917423207e-01
    7.9653887851172042e-03 -8.3833838333928123e-01
    7.9653887851172042e-03 -8.3833838333928123e-01
    8.3854127449010229e-03 -6.9090659019603129e-01
    9.6296004833450483e-03 -5.1543345039980160e-01
    1.2055526227164831e-02 -3.6976914760443069e-01
    1.5535603527316240e-02 -2.7095704736911225e-01
    1.7680775476967069e-02 -2.3393667553251241e-01
    1.6345472005082778e-02 -2.5559075328702552e-01
    1.6060110929875276e-02 -2.6078741450988507e-01
    1.8074384035748084e-02 -2.2827435497979007e-01
    2.0579537167750486e-02 -1.9802950859533486e-01
    2.0579537167750486e-02 -1.9802950859533486e-01
    2.5841963313326343e-02 -1.5541746804005230e-01
    3.3201821476891137e-02 -1.1980845957463077e-01
    3.3201821476891137e-02 -1.1980845957463077e-01
    5.7234046609474912e-02 -6.8842839082151427e-02
    5.7234046609474912e-02 -6.8842839082151427e-02 1. 0.
    4.6786870929910102e-02 -8.4414991182502896e-02
    4.6786870929910102e-02 -8.4414991182502896e-02
    5.7234046609474912e-02 -6.8842839082151427e-02
    3.6327345341986034e-02 -1.0923906912979292e-01
    2.3647565938348578e-02 -1.7066403719657230e-01
    2.1946725411347526e-02 -1.8478728707195910e-01
    1.8954894173599360e-02 -2.1659542988464364e-01
    1.0817133636141474e-02 -4.2936877145344582e-01
    9.8834698205392917e-03 -4.9335763856536347e-01
    8.6007252724483764e-03 -6.4657575013983970e-01
    8.3854127449010229e-03 -6.9090659019603129e-01
    7.9459919630306096e-03 -8.5063343208009290e-01
    7.8453195291816463e-03 -1.0238697078944961e+00
    7.8655702996579639e-03 -1.0785477764672502e+00
    8.6838372762739653e-03 -1.5824450168662922e+00
    8.7503204787936356e-03 -1.6103478937742157e+00
    9.2374727668845316e-03 -1.8000000000000000e+00
    9.0564748108176597e-03 -1.7320508075688774e+00
    8.4870393963976370e-03 -1.4955404445798337e+00
    9.2697153527583395e-03 -1.8118576883486968e+00
    8.9205579325627553e-03 -1.6792319136497555e+00
    8.1542389479305824e-03 -1.3241022442571240e+00
    8.4180183969854907e-03 -1.4631270419005795e+00
    8.2532851522298060e-03 -1.3798947746263466e+00
    7.8537164218431404e-03 -1.0533056234153542e+00
    7.9793178251774885e-03 -8.3020661758892667e-01
    8.4015608672716648e-03 -6.8718427093627676e-01
    8.6007252724483764e-03 -6.4657575013983970e-01
    1.1412246316190922e-02 -3.9808283730298050e-01
    1.4250065262115322e-02 -2.9995715203863027e-01
    1.7680775476967069e-02 -2.3393667553251241e-01
    1.6970321093791953e-02 -2.4494897427831783e-01
    1.7313687392392280e-02 -2.3949239753863377e-01
    1.8954894173599360e-02 -2.1659542988464364e-01
    1.9450304594097051e-02 -2.1055872190307895e-01
    3.3201821476891137e-02 -1.1980845957463077e-01
    3.0775748812810200e-02 -1.2956299912940142e-01
    5.7234046609474912e-02 -6.8842839082151427e-02
    8.0845433196218688e-02 -4.8621663832631522e-02 1. 0.
    5.7234046609474912e-02 -6.8842839082151427e-02
    4.6786870929910102e-02 -8.4414991182502896e-02
    4.0566826561782163e-02 -9.7590007294853301e-02
    2.2747469377974731e-02 -1.7784872874525054e-01
    1.5064286060899788e-02 -2.8085655969672835e-01
    1.4845938375350141e-02 -2.8571428571428570e-01
    1.0071695402794862e-02 -4.7852430162571341e-01
    9.5139906578542034e-03 -5.2641089819164999e-01
    8.7967312359198812e-03 -6.1369648575120306e-01
    8.1212002491213922e-03 -7.6682134899428056e-01
    7.8857126381430120e-03 -1.1097652667877205e+00
    7.9722525423452113e-03 -1.1986582537134605e+00
    8.3387794660994274e-03 -1.4242792663559445e+00
    8.8448893365373760e-03 -1.6490294859747161e+00
    9.5902778120044666e-03 -1.9264244369066521e+00
    1.0071695402794865e-02 -2.0897580260869772e+00
    1.0277378021150398e-02 -2.1571586249817916e+00
    9.9755329322074246e-03 -2.0578065752724584e+00
    8.5423003207685672e-03 -1.5206906325745553e+00
    9.8834698205392917e-03 -2.0269271656721561e+00
    1.0071695402794865e-02 -2.0897580260869772e+00
    1.0071695402794865e-02 -2.0897580260869772e+00
    9.7525480876356537e-03 -1.9824814143238609e+00
    9.7107125677820139e-03 -1.9681369917744040e+00
    8.7503204787936356e-03 -1.6103478937742157e+00
    8.3238242531943410e-03 -1.4167188142258718e+00
    8.1542389479305824e-03 -1.3241022442571240e+00
    7.9027951659078558e-03 -8.8403201584672075e-01
    8.2668407846038065e-03 -7.2091141040265505e-01
    8.5614158235586112e-03 -6.5391851756119257e-01
    9.8389006359023510e-03 -4.9705012174770841e-01
    1.5293853926993794e-02 -2.7593863806958141e-01
    1.6970321093791953e-02 -2.4494897427831783e-01
    1.6648274346072609e-02 -2.5031308716087941e-01
    1.6970321093791953e-02 -2.4494897427831783e-01
    2.1946725411347526e-02 -1.8478728707195910e-01
    3.0775748812810200e-02 -1.2956299912940142e-01
    8.0845433196218688e-02 -4.8621663832631522e-02
    8.0845433196218688e-02 -4.8621663832631522e-02
    8.0845433196218688e-02 -4.8621663832631522e-02
    4.6786870929910102e-02 -8.4414991182502896e-02
    4.6786870929910102e-02 -8.4414991182502896e-02
    2.2747469377974731e-02 -1.7784872874525054e-01
    2.0579537167750486e-02 -1.9802950859533486e-01
    1.1173968587691227e-02 -4.0993179571117222e-01
    1.0387491654342792e-02 -4.5604518194714877e-01
    1.0023086107855624e-02 -4.8224282217041214e-01
    8.4518807566886164e-03 -6.7605079212993968e-01
    7.9228657891282240e-03 -8.6721745583358700e-01
    7.9228657891282240e-03 -1.1531133203941100e+00
    8.4518807566886147e-03 -1.4791788008256572e+00
    8.5423003207685672e-03 -1.5206906325745553e+00
    9.3361094126896728e-03 -1.8360648192856803e+00
    9.5902778120044666e-03 -1.9264244369066521e+00
    8.9734025397144417e-03 -1.6999730165154776e+00
    9.8834698205392917e-03 -2.0269271656721561e+00
    9.4769852566658000e-03 -1.8865682561058417e+00
    9.0282620499062393e-03 -1.7212253839721012e+00
    8.8948651384621116e-03 -1.6690459207925603e+00
    9.9755329322074246e-03 -2.0578065752724584e+00
    9.2374727668845316e-03 -1.8000000000000000e+00
    9.0852249540747405e-03 -1.7430132638896456e+00
    8.4870393963976370e-03 -1.4955404445798337e+00
    8.4347900688911369e-03 -1.4711149188549517e+00
    8.9734025397144417e-03 -1.6999730165154776e+00
    9.5517481567855608e-03 -1.9129403177675610e+00
    9.0564748108176597e-03 -1.7320508075688774e+00
    8.0522468125453269e-03 -1.2591131218673473e+00
    7.8432245109109847e-03 -1.0047281587503070e+00
    7.9940592049939068e-03 -8.2212488592867761e-01
    8.2668407846038065e-03 -7.2091141040265505e-01
    8.6838372762739636e-03 -6.3193348858356868e-01
    1.4845938375350141e-02 -2.8571428571428570e-01
    1.6345472005082778e-02 -2.5559075328702552e-01
    1.6060110929875276e-02 -2.6078741450988507e-01
    2.1228455250327315e-02 -1.9150670125590089e-01
    2.1946725411347526e-02 -1.8478728707195910e-01
    5.7234046609474912e-02 -6.8842839082151427e-02
    5.7234046609474912e-02 -6.8842839082151427e-02
    8.0845433196218688e-02 -4.8621663832631522e-02
    4.0566826561782163e-02 -9.7590007294853301e-02
    2.3647565938348578e-02 -1.7066403719657230e-01
    2.2747469377974731e-02 -1.7784872874525054e-01
    2.0579537167750486e-02 -1.9802950859533486e-01
    1.0623972901241089e-02 -4.4086981886164378e-01
    9.4407126575305773e-03 -5.3371198679483001e-01
    8.9205579325627553e-03 -5.9551035915374717e-01
    7.8453195291816481e-03 -9.7668677204682375e-01
    8.3540264511534658e-03 -1.4319077177773070e+00
    8.0177230862655598e-03 -1.2344267996967351e+00
    8.1319739728386610e-03 -1.3107054276032879e+00
    9.3361094126896728e-03 -1.8360648192856803e+00
    8.3091567100747471e-03 -1.4092251392015922e+00
    8.7733116638776133e-03 -1.6198554330345731e+00
    8.7967312359198829e-03 -1.6294699794083669e+00
    1.0331795324882698e-02 -2.1747941810042000e+00
    9.2374727668845316e-03 -1.8000000000000000e+00
    1.1025589030334527e-02 -2.3937749957251060e+00
    9.2697153527583395e-03 -1.8118576883486968e+00
    9.7525480876356537e-03 -1.9824814143238609e+00
    1.1955081314816348e-02 -2.6746674847251857e+00
    9.6697378727684229e-03 -1.9540168418367889e+00
    9.3702922818380222e-03 -1.8484227510682363e+00
    1.0224198157252520e-02 -2.1398475105532748e+00
    1.0331795324882698e-02 -2.1747941810042000e+00
    9.8389006359023493e-03 -2.0118695404073907e+00
    1.0387491654342789e-02 -2.1927651899102623e+00
    8.7733116638776133e-03 -1.6198554330345731e+00
    8.1542389479305824e-03 -1.3241022442571240e+00
    7.8431372549019607e-03 -1. 7.8432245109109847e-03
    -9.9529409153199411e-01 8.0522468125453252e-03
    -7.9420981533171109e-01 8.7967312359198812e-03
    -6.1369648575120306e-01 1.3729041743700172e-02
    -3.1376041154824214e-01 1.6345472005082778e-02
    -2.5559075328702552e-01 1.8497796433701329e-02
    -2.2249707974499242e-01 1.8954894173599360e-02
    -2.1659542988464364e-01 2.7206982237607577e-02
    -1.4726420810214480e-01 5.7234046609474912e-02
    -6.8842839082151427e-02 8.0845433196218688e-02
    -4.8621663832631522e-02 2.5841963313326343e-02
    -1.5541746804005230e-01 2.3647565938348578e-02
    -1.7066403719657230e-01 1.2266255378464572e-02
    -3.6147844564602555e-01 1.2159196385486407e-02
    -3.6563621206356528e-01 9.8834698205392917e-03
    -4.9335763856536347e-01 8.4692954774605086e-03
    -6.7235020229085074e-01 8.0096259251916553e-03
    -8.1409157841069435e-01 8.2532851522298060e-03
    -1.3798947746263466e+00 8.1774788616324669e-03
    -1.3377121081198771e+00 8.4518807566886147e-03
    -1.4791788008256572e+00 8.9205579325627553e-03
    -1.6792319136497555e+00 1.0121393866128070e-02
    -2.1061570302086783e+00 1.0071695402794865e-02
    -2.0897580260869772e+00 1.0751131323915232e-02
    -2.3083236794165640e+00 9.3361094126896728e-03
    -1.8360648192856803e+00 9.5517481567855608e-03
    -1.9129403177675610e+00 1.0172216061632300e-02
    -2.1228503259753162e+00 1.0172216061632300e-02
    -2.1228503259753162e+00 1.0121393866128070e-02
    -2.1061570302086783e+00 1.0331795324882698e-02
    -2.1747941810042000e+00 9.4051542914165322e-03
    -1.8609561775433725e+00 8.3091567100747471e-03
    -1.4092251392015922e+00 9.7952689325062885e-03
    -1.9970566577134579e+00 9.3702922818380222e-03
    -1.8484227510682363e+00 9.7952689325062885e-03
    -1.9970566577134579e+00 1.0387491654342789e-02
    -2.1927651899102623e+00 1.0121393866128070e-02
    -2.1061570302086783e+00 9.6296004833450483e-03
    -1.9401146728531857e+00 9.7107125677820139e-03
    -1.9681369917744040e+00 8.1774788616324669e-03
    -1.3377121081198771e+00 7.9587250581522797e-03
    -1.1870513506545994e+00 7.8453195291816481e-03
    -9.7668677204682375e-01 8.0432917517141399e-03
    -7.9816391616361415e-01 8.5235362598650652e-03
    -6.6127765393457860e-01 1.4250065262115322e-02
    -2.9995715203863027e-01 1.8497796433701329e-02
    -2.2249707974499242e-01 1.8497796433701329e-02
    -2.2249707974499242e-01 2.7206982237607577e-02
    -1.4726420810214480e-01 2.8822657254840338e-02
    -1.3867504905630729e-01 8.0845433196218688e-02
    -4.8621663832631522e-02 2.4669156932813817e-02
    -1.6320043678429896e-01 2.3647565938348578e-02
    -1.7066403719657230e-01 1.2055526227164831e-02
    -3.6976914760443069e-01 1.0884833081733656e-02
    -4.2550968945692302e-01 9.0564748108176597e-03
    -5.7735026918962584e-01 7.9175644998516412e-03
    -8.7139893251315292e-01 8.3540264511534658e-03
    -1.4319077177773070e+00 8.5235362598650652e-03
    -1.5122240923310128e+00 8.4015608672716648e-03
    -1.4552137502179978e+00 9.4407126575305738e-03
    -1.8736697408754663e+00 1.0751131323915232e-02
    -2.3083236794165640e+00 1.1330608610373461e-02
    -2.4872556519115796e+00 1.1671620236633226e-02
    -2.5901912881273663e+00 1.0444510629164365e-02
    -2.2110831935702677e+00 9.5517481567855608e-03
    -1.9129403177675610e+00 1.0121393866128070e-02
    -2.1061570302086783e+00 1.3416216820195627e-02
    -3.0983866769659336e+00 1.2491254937576904e-02
    -2.8321858335470651e+00 1.1412246316190925e-02
    -2.5120399733257055e+00 1.0502898031360376e-02
    -2.2297602978606235e+00 9.6697378727684229e-03
    -1.9540168418367889e+00 1.4250065262115313e-02
    -3.3338094898007746e+00 1.0884833081733658e-02
    -2.3501227463851597e+00 1.0121393866128070e-02
    -2.1061570302086783e+00 8.9734025397144417e-03
    -1.6999730165154776e+00 9.7952689325062885e-03
    -1.9970566577134579e+00 9.7525480876356537e-03
    -1.9824814143238609e+00 8.8696454491342756e-03
    -1.6589793215650794e+00 8.7503204787936356e-03
    -1.6103478937742157e+00 1.0817133636141471e-02
    -2.3290003057626292e+00 8.4518807566886147e-03
    -1.4791788008256572e+00 8.0708174297228763e-03
    -1.2717247935843994e+00 7.8453195291816481e-03
    -9.7668677204682375e-01 8.0522468125453252e-03
    -7.9420981533171109e-01 9.0282620499062393e-03
    -5.8098143875399000e-01 1.3729041743700172e-02
    -3.1376041154824214e-01 1.8497796433701329e-02
    -2.2249707974499242e-01 2.1946725411347526e-02
    -1.8478728707195910e-01 2.7206982237607577e-02
    -1.4726420810214480e-01 3.0775748812810200e-02
    -1.2956299912940142e-01 2.4669156932813817e-02
    -1.6320043678429896e-01 1.3127116801801441e-02
    -3.3158353997003165e-01 1.2609586941304247e-02
    -3.4884541231485572e-01 9.0282620499062393e-03
    -5.8098143875399000e-01 7.9124530086715078e-03
    -8.7559503577091302e-01 8.3854127449010211e-03
    -1.4473736597537292e+00 8.7967312359198829e-03
    -1.6294699794083669e+00 9.3025890978961877e-03
    -1.8238779049719576e+00 9.0005750406448176e-03
    -1.7105338131489607e+00 8.7277495594409900e-03
    -1.6009450990224598e+00 9.7952689325062885e-03
    -1.9970566577134579e+00 1.1098787749752426e-02
    -2.4163422103293546e+00 1.1330608610373461e-02
    -2.4872556519115796e+00 9.6296004833450483e-03
    -1.9401146728531857e+00 9.2697153527583395e-03
    -1.8118576883486968e+00 1.1582645202546550e-02
    -2.5634797778466232e+00 1.0387491654342789e-02
    -2.1927651899102623e+00 1.1671620236633226e-02
    -2.5901912881273663e+00 1.3127116801801441e-02
    -3.0158312444893358e+00 9.3025890978961877e-03
    -1.8238779049719576e+00 1.2990592525903073e-02
    -2.9766533416370593e+00 1.0817133636141471e-02
    -2.3290003057626292e+00 1.0751131323915232e-02
    -2.3083236794165640e+00 1.1671620236633226e-02
    -2.5901912881273663e+00 1.1955081314816348e-02
    -2.6746674847251857e+00 1.0817133636141471e-02
    -2.3290003057626292e+00 1.0121393866128070e-02
    -2.1061570302086783e+00 1.0444510629164365e-02
    -2.2110831935702677e+00 9.9290042579610414e-03
    -2.0422369371150531e+00 1.0224198157252520e-02
    -2.1398475105532748e+00 1.0444510629164365e-02
    -2.2110831935702677e+00 9.1145245143671675e-03
    -1.7541160386140588e+00 7.9865861799541058e-03
    -1.2104198771788934e+00 7.8715615049128711e-03
    -9.1841072558499937e-01 8.0260318516852808e-03
    -8.0610510944343794e-01 8.6624808860899603e-03
    -6.3558910463740248e-01 1.8497796433701329e-02
    -2.2249707974499242e-01 2.1228455250327315e-02
    -1.9150670125590089e-01 2.1946725411347526e-02
    -1.8478728707195910e-01 8.0845433196218688e-02
    -4.8621663832631522e-02 1.9989595722209260e-02
    -2.0437475815041778e-01 1.3127116801801441e-02
    -3.3158353997003165e-01 1.0686764049662833e-02
    -4.3704832221970169e-01 7.9940592049939068e-03
    -8.2212488592867761e-01 8.4692954774605103e-03
    -1.4873201444615793e+00 8.8696454491342756e-03
    -1.6589793215650794e+00 8.6838372762739653e-03
    -1.5824450168662922e+00 9.5139906578542034e-03
    -1.8996567195611718e+00 9.3702922818380222e-03
    -1.8484227510682363e+00 1.0444510629164365e-02
    -2.2110831935702677e+00 9.0852249540747405e-03
    -1.7430132638896456e+00 1.0954295162674779e-02
    -2.3717082451262850e+00 1.0331795324882698e-02
    -2.1747941810042000e+00 1.2266255378464572e-02
    -2.7664166758624402e+00 1.1025589030334527e-02
    -2.3937749957251060e+00 9.9290042579610414e-03
    -2.0422369371150531e+00 1.3268882882469801e-02
    -3.0563807705575781e+00 9.4051542914165322e-03
    -1.8609561775433725e+00 1.2491254937576904e-02
    -2.8321858335470651e+00 1.5535603527316234e-02
    -3.6906218520965277e+00 1.2266255378464572e-02
    -2.7664166758624402e+00 1.2990592525903073e-02
    -2.9766533416370593e+00 1.1098787749752426e-02
    -2.4163422103293546e+00 1.2990592525903073e-02
    -2.9766533416370593e+00 1.2055526227164834e-02
    -2.7043900403226022e+00 9.9290042579610414e-03
    -2.0422369371150531e+00 1.1671620236633226e-02
    -2.5901912881273663e+00 1.1330608610373461e-02
    -2.4872556519115796e+00 1.0331795324882698e-02
    -2.1747941810042000e+00 1.0623972901241088e-02
    -2.2682432709548337e+00 1.0502898031360376e-02
    -2.2297602978606235e+00 1.0071695402794865e-02
    -2.0897580260869772e+00 8.6624808860899568e-03
    -1.5733435213155367e+00 7.8537164218431404e-03
    -1.0533056234153542e+00 7.8518772977917341e-03
    -9.5389198021050048e-01 8.1774788616324687e-03
    -7.4754500159640214e-01 1.3729041743700172e-02
    -3.1376041154824214e-01 2.1228455250327315e-02
    -1.9150670125590089e-01 2.1228455250327315e-02
    -1.9150670125590089e-01 2.8822657254840338e-02
    -1.3867504905630729e-01 1.9989595722209260e-02
    -2.0437475815041778e-01 1.2491254937576902e-02
    -3.5308417553504517e-01 8.1542389479305841e-03
    -7.5522868746517458e-01 8.0902831452079847e-03
    -1.2845232578665131e+00 8.8205875762759657e-03
    -1.6391938633789260e+00 8.3540264511534658e-03
    -1.4319077177773070e+00 9.2697153527583395e-03
    -1.8118576883486968e+00 9.0005750406448176e-03
    -1.7105338131489607e+00 9.2058464786055443e-03
    -1.7883008141753434e+00 1.1098787749752426e-02
    -2.4163422103293546e+00 9.9290042579610414e-03
    -2.0422369371150531e+00 9.4769852566658000e-03
    -1.8865682561058417e+00 9.6296004833450483e-03
    -1.9401146728531857e+00 1.1955081314816348e-02
    -2.6746674847251857e+00 1.0623972901241088e-02
    -2.2682432709548337e+00 1.0623972901241088e-02
    -2.2682432709548337e+00 1.0331795324882698e-02
    -2.1747941810042000e+00 9.2058464786055443e-03
    -1.7883008141753434e+00 1.0277378021150398e-02
    -2.1571586249817916e+00 1.2055526227164834e-02
    -2.7043900403226022e+00 1.1098787749752426e-02
    -2.4163422103293546e+00 1.1582645202546550e-02
    -2.5634797778466232e+00 1.1496223971097818e-02
    -2.5374389630546919e+00 1.1025589030334527e-02
    -2.3937749957251060e+00 1.1173968587691228e-02
    -2.4394301941500909e+00 1.1582645202546550e-02
    -2.5634797778466232e+00 1.1496223971097818e-02
    -2.5374389630546919e+00 1.0387491654342789e-02
    -2.1927651899102623e+00 1.1173968587691228e-02
    -2.4394301941500909e+00 1.1251213327027703e-02
    -2.4630604269214893e+00 1.0884833081733658e-02
    -2.3501227463851597e+00 1.0444510629164365e-02
    -2.2110831935702677e+00 1.0331795324882698e-02
    -2.1747941810042000e+00 8.6007252724483781e-03
    -1.5466091943344968e+00 7.8602952871273668e-03
    -1.0683698523517693e+00 7.8684760871761510e-03
    -9.2278295621423134e-01 9.1443859478859708e-03
    -5.6645588896515342e-01 1.4845938375350141e-02
    -2.8571428571428570e-01 2.1946725411347526e-02
    -1.8478728707195910e-01 4.6786870929910102e-02
    -8.4414991182502896e-02 1.3127116801801441e-02
    -3.3158353997003165e-01 1.0502898031360373e-02
    -4.4847870013627250e-01 7.8748271821125117e-03
    -1.0940252244394753e+00 8.2806687966957976e-03
    -1.3944333775567923e+00 8.2532851522298060e-03
    -1.3798947746263466e+00 8.6209317365823594e-03
    -1.5554275420956380e+00 9.5902778120044666e-03
    -1.9264244369066521e+00 8.9734025397144417e-03
    -1.6999730165154776e+00 1.0954295162674779e-02
    -2.3717082451262850e+00 1.1173968587691228e-02
    -2.4394301941500909e+00 9.9290042579610414e-03
    -2.0422369371150531e+00 9.5139906578542034e-03
    -1.8996567195611718e+00 9.1145245143671675e-03
    -1.7541160386140588e+00 1.1330608610373461e-02
    -2.4872556519115796e+00 1.1496223971097818e-02
    -2.5374389630546919e+00 1.0331795324882698e-02
    -2.1747941810042000e+00 9.2374727668845316e-03
    -1.8000000000000000e+00 1.1955081314816348e-02
    -2.6746674847251857e+00 1.4439558485282096e-02
    -3.3868256871728875e+00 1.2990592525903073e-02
    -2.9766533416370593e+00 1.1582645202546550e-02
    -2.5634797778466232e+00 1.0121393866128070e-02
    -2.1061570302086783e+00 1.0623972901241088e-02
    -2.2682432709548337e+00 1.2159196385486406e-02
    -2.7349588662354680e+00 1.2376878710312515e-02
    -2.7988092706244432e+00 1.0387491654342789e-02
    -2.1927651899102623e+00 1.0623972901241088e-02
    -2.2682432709548337e+00 1.2159196385486406e-02
    -2.7349588662354680e+00 1.2055526227164834e-02
    -2.7043900403226022e+00 1.0277378021150398e-02
    -2.1571586249817916e+00 9.5902778120044666e-03
    -1.9264244369066521e+00 1.0562701944052757e-02
    -2.2488092087019869e+00 9.4769852566658000e-03
    -1.8865682561058417e+00 9.9755329322074246e-03
    -2.0578065752724584e+00 8.2668407846038065e-03
    -1.3871329896713156e+00 7.8434862964123324e-03
    -1.0094788848943892e+00 7.8897064153745575e-03
    -8.9680283181362452e-01 1.2159196385486407e-02
    -3.6563621206356528e-01 1.8954894173599360e-02
    -2.1659542988464364e-01 2.3647565938348578e-02
    -1.7066403719657230e-01 1.3127116801801441e-02
    -3.3158353997003165e-01 8.0614213327946122e-03
    -7.9026645683398122e-01 8.1774788616324669e-03
    -1.3377121081198771e+00 8.3695694295304844e-03
    -1.4396054209803260e+00 9.5517481567855608e-03
    -1.9129403177675610e+00 9.5517481567855608e-03
    -1.9129403177675610e+00 8.8205875762759657e-03
    -1.6391938633789260e+00 9.4769852566658000e-03
    -1.8865682561058417e+00 1.1671620236633226e-02
    -2.5901912881273663e+00 9.0005750406448176e-03
    -1.7105338131489607e+00 9.9290042579610414e-03
    -2.0422369371150531e+00 9.9290042579610414e-03
    -2.0422369371150531e+00 1.2055526227164834e-02
    -2.7043900403226022e+00 1.1763266446449398e-02
    -2.6176042198643885e+00 1.1025589030334527e-02
    -2.3937749957251060e+00 1.0224198157252520e-02
    -2.1398475105532748e+00 1.0954295162674779e-02
    -2.3717082451262850e+00 1.1412246316190925e-02
    -2.5120399733257055e+00 1.1412246316190925e-02
    -2.5120399733257055e+00 1.0444510629164365e-02
    -2.2110831935702677e+00 1.0331795324882698e-02
    -2.1747941810042000e+00 1.1025589030334527e-02
    -2.3937749957251060e+00 1.0331795324882698e-02
    -2.1747941810042000e+00 1.2609586941304247e-02
    -2.8665992577177275e+00 1.1098787749752426e-02
    -2.4163422103293546e+00 1.5535603527316234e-02
    -3.6906218520965277e+00 1.3127116801801441e-02
    -3.0158312444893358e+00 1.3895344920202203e-02
    -3.2341087581371570e+00 1.0331795324882698e-02
    -2.1747941810042000e+00 1.1955081314816348e-02
    -2.6746674847251857e+00 1.2491254937576904e-02
    -2.8321858335470651e+00 9.3702922818380222e-03
    -1.8484227510682363e+00 1.0331795324882698e-02
    -2.1747941810042000e+00 1.0686764049662836e-02
    -2.2880765104443213e+00 9.0564748108176597e-03
    -1.7320508075688774e+00 7.8474162271623387e-03
    -1.0335824509572660e+00 7.8445337006096180e-03
    -9.8130676292531638e-01 9.5139906578542034e-03
    -5.2641089819164999e-01 1.8497796433701329e-02
    -2.2249707974499242e-01 1.6060110929875276e-02
    -2.6078741450988507e-01 1.1763266446449396e-02
    -3.8202872398020798e-01 7.8628435509468814e-03
    -1.0734450446852835e+00 8.2806687966957976e-03
    -1.3944333775567923e+00 9.6296004833450483e-03
    -1.9401146728531857e+00 9.6697378727684229e-03
    -1.9540168418367889e+00 9.2374727668845316e-03
    -1.8000000000000000e+00 9.0852249540747405e-03
    -1.7430132638896456e+00 1.2732093354032950e-02
    -2.9021065146238549e+00 1.0444510629164365e-02
    -2.2110831935702677e+00 9.7107125677820139e-03
    -1.9681369917744040e+00 9.4051542914165322e-03
    -1.8609561775433725e+00 1.1496223971097818e-02
    -2.5374389630546919e+00 1.0751131323915232e-02
    -2.3083236794165640e+00 1.0623972901241088e-02
    -2.2682432709548337e+00 1.2159196385486406e-02
    -2.7349588662354680e+00 1.0751131323915232e-02
    -2.3083236794165640e+00 1.0277378021150398e-02
    -2.1571586249817916e+00 1.1251213327027703e-02
    -2.4630604269214893e+00 1.0817133636141471e-02
    -2.3290003057626292e+00 1.1251213327027703e-02
    -2.4630604269214893e+00 1.0686764049662836e-02
    -2.2880765104443213e+00 1.2055526227164834e-02
    -2.7043900403226022e+00 1.4250065262115313e-02
    -3.3338094898007746e+00 1.2609586941304247e-02
    -2.8665992577177275e+00 1.4439558485282096e-02
    -3.3868256871728875e+00 1.4068848824073672e-02
    -3.2829526005987009e+00 1.3729041743700170e-02
    -3.1871452330953010e+00 1.1582645202546550e-02
    -2.5634797778466232e+00 9.6697378727684229e-03
    -1.9540168418367889e+00 1.0023086107855621e-02
    -2.0736441353327710e+00 9.9290042579610414e-03
    -2.0422369371150531e+00 1.1330608610373461e-02
    -2.4872556519115796e+00 1.0023086107855621e-02
    -2.0736441353327710e+00 1.1251213327027703e-02
    -2.4630604269214893e+00 9.5902778120044666e-03
    -1.9264244369066521e+00 7.9459919630306096e-03
    -1.1755945184927126e+00 7.8748271821125117e-03
    -1.0940252244394753e+00 7.9027951659078558e-03
    -8.8403201584672075e-01 1.5790615823165519e-02
    -2.6590801173915518e-01 1.2990592525903073e-02
    -3.3594775246822450e-01 8.7055910350822985e-03
    -6.2828086243754322e-01 7.9459919630306096e-03
    -1.1755945184927126e+00 8.7503204787936356e-03
    -1.6103478937742157e+00 9.7952689325062885e-03
    -1.9970566577134579e+00 1.1098787749752426e-02
    -2.4163422103293546e+00 1.0751131323915232e-02
    -2.3083236794165640e+00 1.1173968587691228e-02
    -2.4394301941500909e+00 1.2055526227164834e-02
    -2.7043900403226022e+00 9.5902778120044666e-03
    -1.9264244369066521e+00 9.4051542914165322e-03
    -1.8609561775433725e+00 1.3268882882469801e-02
    -3.0563807705575781e+00 1.3569473833453496e-02
    -3.1419412584889077e+00 1.5293853926993797e-02
    -3.6239941133138371e+00 1.2266255378464572e-02
    -2.7664166758624402e+00 1.1496223971097818e-02
    -2.5374389630546919e+00 1.1098787749752426e-02
    -2.4163422103293546e+00 1.0686764049662836e-02
    -2.2880765104443213e+00 1.1098787749752426e-02
    -2.4163422103293546e+00 1.0623972901241088e-02
    -2.2682432709548337e+00 1.1173968587691228e-02
    -2.4394301941500909e+00 1.1173968587691228e-02
    -2.4394301941500909e+00 1.2055526227164834e-02
    -2.7043900403226022e+00 1.1671620236633226e-02
    -2.5901912881273663e+00 1.0884833081733658e-02
    -2.3501227463851597e+00 1.3729041743700170e-02
    -3.1871452330953010e+00 1.3127116801801441e-02
    -3.0158312444893358e+00 1.2732093354032950e-02
    -2.9021065146238549e+00 1.2990592525903073e-02
    -2.9766533416370593e+00 1.6345472005082799e-02
    -3.9125046080090882e+00 1.2159196385486406e-02
    -2.7349588662354680e+00 1.5790615823165505e-02
    -3.7606990231680490e+00 1.1763266446449398e-02
    -2.6176042198643885e+00 1.0071695402794865e-02
    -2.0897580260869772e+00 9.1145245143671675e-03
    -1.7541160386140588e+00 9.7952689325062885e-03
    -1.9970566577134579e+00 9.0852249540747405e-03
    -1.7430132638896456e+00 7.8439226638385446e-03
    -1.0142525001060099e+00 7.8602952871273668e-03
    -9.3600544586570933e-01 9.9290042579610414e-03
    -4.8965914866501270e-01 1.4637952297041826e-02
    -2.9051502023492209e-01 8.2269768914445089e-03
    -7.3227855632810324e-01 8.0522468125453269e-03
    -1.2591131218673473e+00 8.4870393963976370e-03
    -1.4955404445798337e+00 1.0277378021150398e-02
    -2.1571586249817916e+00 9.3361094126896728e-03
    -1.8360648192856803e+00 1.1173968587691228e-02
    -2.4394301941500909e+00 1.2266255378464572e-02
    -2.7664166758624402e+00 1.0387491654342789e-02
    -2.1927651899102623e+00 9.7952689325062885e-03
    -1.9970566577134579e+00 9.7107125677820139e-03
    -1.9681369917744040e+00 9.7107125677820139e-03
    -1.9681369917744040e+00 1.3416216820195627e-02
    -3.0983866769659336e+00 1.1496223971097818e-02
    -2.5374389630546919e+00 1.0751131323915232e-02
    -2.3083236794165640e+00 1.2055526227164834e-02
    -2.7043900403226022e+00 1.0277378021150398e-02
    -2.1571586249817916e+00 9.6697378727684229e-03
    -1.9540168418367889e+00 1.3416216820195627e-02
    -3.0983866769659336e+00 1.2159196385486406e-02
    -2.7349588662354680e+00 1.3416216820195627e-02
    -3.0983866769659336e+00 1.1955081314816348e-02
    -2.6746674847251857e+00 1.2491254937576904e-02
    -2.8321858335470651e+00 1.3569473833453496e-02
    -3.1419412584889077e+00 1.2609586941304247e-02
    -2.8665992577177275e+00 1.2491254937576904e-02
    -2.8321858335470651e+00 1.1582645202546550e-02
    -2.5634797778466232e+00 1.3729041743700170e-02
    -3.1871452330953010e+00 1.2990592525903073e-02
    -2.9766533416370593e+00 1.5064286060899776e-02
    -3.5605363858327146e+00 1.2376878710312515e-02
    -2.7988092706244432e+00 1.2990592525903073e-02
    -2.9766533416370593e+00 1.2491254937576904e-02
    -2.8321858335470651e+00 1.3268882882469801e-02
    -3.0563807705575781e+00 1.0331795324882698e-02
    -2.1747941810042000e+00 1.0884833081733658e-02
    -2.3501227463851597e+00 9.0564748108176597e-03
    -1.7320508075688774e+00 8.1657356302109272e-03
    -1.3308800960512410e+00 7.8445337006096180e-03
    -1.0190493307301363e+00 8.4015608672716648e-03
    -6.8718427093627676e-01 1.3569473833453503e-02
    -3.1827456904173368e-01 7.9027951659078558e-03
    -8.8403201584672075e-01 8.0432917517141399e-03
    -1.2528754805234914e+00 8.6624808860899568e-03
    -1.5733435213155367e+00 1.0277378021150398e-02
    -2.1571586249817916e+00 1.0623972901241088e-02
    -2.2682432709548337e+00 1.0277378021150398e-02
    -2.1571586249817916e+00 1.2159196385486406e-02
    -2.7349588662354680e+00 1.0817133636141471e-02
    -2.3290003057626292e+00 1.0023086107855621e-02
    -2.0736441353327710e+00 8.9467336753928702e-03
    -1.6895400127092148e+00 9.9755329322074246e-03
    -2.0578065752724584e+00 1.1025589030334527e-02
    -2.3937749957251060e+00 1.1955081314816348e-02
    -2.6746674847251857e+00 1.0954295162674779e-02
    -2.3717082451262850e+00 1.1496223971097818e-02
    -2.5374389630546919e+00 9.9290042579610414e-03
    -2.0422369371150531e+00 1.0817133636141471e-02
    -2.3290003057626292e+00 1.1955081314816348e-02
    -2.6746674847251857e+00 1.0623972901241088e-02
    -2.2682432709548337e+00 1.1330608610373461e-02
    -2.4872556519115796e+00 1.2609586941304247e-02
    -2.8665992577177275e+00 1.1955081314816348e-02
    -2.6746674847251857e+00 1.1025589030334527e-02
    -2.3937749957251060e+00 1.1412246316190925e-02
    -2.5120399733257055e+00 1.0331795324882698e-02
    -2.1747941810042000e+00 1.1496223971097818e-02
    -2.5374389630546919e+00 1.0686764049662836e-02
    -2.2880765104443213e+00 1.3127116801801441e-02
    -3.0158312444893358e+00 1.5064286060899776e-02
    -3.5605363858327146e+00 1.1857708957152227e-02
    -2.6457513110645907e+00 1.2266255378464572e-02
    -2.7664166758624402e+00 1.5535603527316234e-02
    -3.6906218520965277e+00 1.1251213327027703e-02
    -2.4630604269214893e+00 1.0817133636141471e-02
    -2.3290003057626292e+00 1.1025589030334527e-02
    -2.3937749957251060e+00 1.0023086107855621e-02
    -2.0736441353327710e+00 7.9175644998516412e-03
    -1.1475800149490156e+00 7.8557321841133485e-03
    -1.0583005244258359e+00 7.9459919630306096e-03
    -8.5063343208009290e-01 1.0071695402794862e-02
    -4.7852430162571341e-01 7.8748271821125117e-03
    -9.1405570699921523e-01 7.8518772977917341e-03
    -1.0483367307263918e+00 8.8205875762759657e-03
    -1.6391938633789260e+00 1.0562701944052757e-02
    -2.2488092087019869e+00 1.0172216061632300e-02
    -2.1228503259753162e+00 1.1098787749752426e-02
    -2.4163422103293546e+00 1.0387491654342789e-02
    -2.1927651899102623e+00 9.9290042579610414e-03
    -2.0422369371150531e+00 1.0277378021150398e-02
    -2.1571586249817916e+00 1.1955081314816348e-02
    -2.6746674847251857e+00 1.1412246316190925e-02
    -2.5120399733257055e+00 1.4845938375350141e-02
    -3.5000000000000004e+00 1.2609586941304247e-02
    -2.8665992577177275e+00 1.4637952297041826e-02
    -3.4421628155107435e+00 1.1098787749752426e-02
    -2.4163422103293546e+00 1.0562701944052757e-02
    -2.2488092087019869e+00 9.9290042579610414e-03
    -2.0422369371150531e+00 1.1412246316190925e-02
    -2.5120399733257055e+00 1.1173968587691228e-02
    -2.4394301941500909e+00 1.1857708957152227e-02
    -2.6457513110645907e+00 1.0817133636141471e-02
    -2.3290003057626292e+00 1.1496223971097818e-02
    -2.5374389630546919e+00 1.1025589030334527e-02
    -2.3937749957251060e+00 1.3127116801801441e-02
    -3.0158312444893358e+00 1.1582645202546550e-02
    -2.5634797778466232e+00 1.2159196385486406e-02
    -2.7349588662354680e+00 1.1582645202546550e-02
    -2.5634797778466232e+00 1.2990592525903073e-02
    -2.9766533416370593e+00 1.4637952297041826e-02
    -3.4421628155107435e+00 1.5293853926993797e-02
    -3.6239941133138371e+00 1.3895344920202203e-02
    -3.2341087581371570e+00 1.5535603527316234e-02
    -3.6906218520965277e+00 1.1671620236633226e-02
    -2.5901912881273663e+00 1.3127116801801441e-02
    -3.0158312444893358e+00 9.5139906578542034e-03
    -1.8996567195611718e+00 9.8389006359023493e-03
    -2.0118695404073907e+00 7.9587250581522797e-03
    -1.1870513506545994e+00 7.8502144412343454e-03
    -1.0433934783862302e+00 7.8628435509468832e-03
    -9.3158006080617151e-01 8.7503204787936321e-03
    -6.2098382831816135e-01 7.8487275173757115e-03
    -9.6295001286293513e-01 7.8518772977917341e-03
    -1.0483367307263918e+00 8.1212002491213939e-03
    -1.3040847145316750e+00 8.2269768914445089e-03
    -1.3656005509902465e+00 9.0005750406448176e-03
    -1.7105338131489607e+00 1.0623972901241088e-02
    -2.2682432709548337e+00 9.3025890978961877e-03
    -1.8238779049719576e+00 1.0884833081733658e-02
    -2.3501227463851597e+00 9.7107125677820139e-03
    -1.9681369917744040e+00 9.6697378727684229e-03
    -1.9540168418367889e+00 1.2055526227164834e-02
    -2.7043900403226022e+00 1.3569473833453496e-02
    -3.1419412584889077e+00 1.1955081314816348e-02
    -2.6746674847251857e+00 1.4637952297041826e-02
    -3.4421628155107435e+00 1.1857708957152227e-02
    -2.6457513110645907e+00 1.0884833081733658e-02
    -2.3501227463851597e+00 1.0502898031360376e-02
    -2.2297602978606235e+00 1.0686764049662836e-02
    -2.2880765104443213e+00 1.0224198157252520e-02
    -2.1398475105532748e+00 1.3416216820195627e-02
    -3.0983866769659336e+00 9.8834698205392917e-03
    -2.0269271656721561e+00 1.1955081314816348e-02
    -2.6746674847251857e+00 1.0387491654342789e-02
    -2.1927651899102623e+00 1.0751131323915232e-02
    -2.3083236794165640e+00 9.3025890978961877e-03
    -1.8238779049719576e+00 1.0817133636141471e-02
    -2.3290003057626292e+00 1.1671620236633226e-02
    -2.5901912881273663e+00 1.0954295162674779e-02
    -2.3717082451262850e+00 1.1098787749752426e-02
    -2.4163422103293546e+00 1.1671620236633226e-02
    -2.5901912881273663e+00 1.2376878710312515e-02
    -2.7988092706244432e+00 1.3127116801801441e-02
    -3.0158312444893358e+00 1.2990592525903073e-02
    -2.9766533416370593e+00 1.1857708957152227e-02
    -2.6457513110645907e+00 1.1671620236633226e-02
    -2.5901912881273663e+00 9.5517481567855608e-03
    -1.9129403177675610e+00 8.2947728496485240e-03
    -1.4017970484470874e+00 7.8602952871273668e-03
    -9.3600544586570933e-01 7.8502144412343454e-03
    -9.5841120412852809e-01 8.6415146917430182e-03
    -6.3924789694933914e-01 7.9722525423452113e-03
    -8.3426614458456838e-01 7.8628435509468832e-03
    -9.3158006080617151e-01 8.1429859802914697e-03
    -1.3173776493351259e+00 8.6415146917430199e-03
    -1.5643383494451308e+00 1.0224198157252520e-02
    -2.1398475105532748e+00 1.0277378021150398e-02
    -2.1571586249817916e+00 1.0751131323915232e-02
    -2.3083236794165640e+00 1.0444510629164365e-02
    -2.2110831935702677e+00 1.0751131323915232e-02
    -2.3083236794165640e+00 1.2266255378464572e-02
    -2.7664166758624402e+00 1.3416216820195627e-02
    -3.0983866769659336e+00 1.0954295162674779e-02
    -2.3717082451262850e+00 1.1496223971097818e-02
    -2.5374389630546919e+00 1.4637952297041826e-02
    -3.4421628155107435e+00 1.1582645202546550e-02
    -2.5634797778466232e+00 1.3569473833453496e-02
    -3.1419412584889077e+00 9.8834698205392917e-03
    -2.0269271656721561e+00 1.2732093354032950e-02
    -2.9021065146238549e+00 1.3127116801801441e-02
    -3.0158312444893358e+00 1.0751131323915232e-02
    -2.3083236794165640e+00 1.0277378021150398e-02
    -2.1571586249817916e+00 1.3416216820195627e-02
    -3.0983866769659336e+00 1.2266255378464572e-02
    -2.7664166758624402e+00 1.0444510629164365e-02
    -2.2110831935702677e+00 1.0817133636141471e-02
    -2.3290003057626292e+00 1.1330608610373461e-02
    -2.4872556519115796e+00 1.3268882882469801e-02
    -3.0563807705575781e+00 1.2055526227164834e-02
    -2.7043900403226022e+00 1.1671620236633226e-02
    -2.5901912881273663e+00 1.8497796433701311e-02
    -4.4944410108488420e+00 1.8954894173599378e-02
    -4.6169025843831974e+00 1.4637952297041826e-02
    -3.4421628155107435e+00 1.0387491654342789e-02
    -2.1927651899102623e+00 1.0884833081733658e-02
    -2.3501227463851597e+00 1.0751131323915232e-02
    -2.3083236794165640e+00 9.6697378727684229e-03
    -1.9540168418367889e+00 8.5423003207685672e-03
    -1.5206906325745553e+00 7.8474162271623387e-03
    -9.6750868696913028e-01 7.8602952871273668e-03
    -9.3600544586570933e-01 8.2269768914445089e-03
    -7.3227855632810324e-01 7.9399198508993633e-03
    -8.5475858866580523e-01 7.8819020232242347e-03
    -9.0539631613475557e-01 8.1542389479305824e-03
    -1.3241022442571240e+00 8.4180183969854907e-03
    -1.4631270419005795e+00 9.6697378727684229e-03
    -1.9540168418367889e+00 9.8834698205392917e-03
    -2.0269271656721561e+00 1.1582645202546550e-02
    -2.5634797778466232e+00 1.0817133636141471e-02
    -2.3290003057626292e+00 1.1412246316190925e-02
    -2.5120399733257055e+00 1.0121393866128070e-02
    -2.1061570302086783e+00 1.2055526227164834e-02
    -2.7043900403226022e+00 9.4407126575305738e-03
    -1.8736697408754663e+00 1.0331795324882698e-02
    -2.1747941810042000e+00 1.1955081314816348e-02
    -2.6746674847251857e+00 1.4439558485282096e-02
    -3.3868256871728875e+00 1.2055526227164834e-02
    -2.7043900403226022e+00 1.0954295162674779e-02
    -2.3717082451262850e+00 1.0686764049662836e-02
    -2.2880765104443213e+00 1.2491254937576904e-02
    -2.8321858335470651e+00 1.3127116801801441e-02
    -3.0158312444893358e+00 1.0331795324882698e-02
    -2.1747941810042000e+00 1.0071695402794865e-02
    -2.0897580260869772e+00 1.0502898031360376e-02
    -2.2297602978606235e+00 1.0817133636141471e-02
    -2.3290003057626292e+00 1.1763266446449398e-02
    -2.6176042198643885e+00 1.4068848824073672e-02
    -3.2829526005987009e+00 1.5064286060899776e-02
    -3.5605363858327146e+00 1.2159196385486406e-02
    -2.7349588662354680e+00 1.1173968587691228e-02
    -2.4394301941500909e+00 1.6970321093791950e-02
    -4.0824829046386295e+00 1.0121393866128070e-02
    -2.1061570302086783e+00 1.1582645202546550e-02
    -2.5634797778466232e+00 1.2376878710312515e-02
    -2.7988092706244432e+00 9.5517481567855608e-03
    -1.9129403177675610e+00 1.1496223971097818e-02
    -2.5374389630546919e+00 1.0954295162674779e-02
    -2.3717082451262850e+00 9.0005750406448176e-03
    -1.7105338131489607e+00 7.8684760871761510e-03
    -1.0836784460156872e+00 7.8518772977917341e-03
    -9.5389198021050048e-01 8.3238242531943410e-03
    -7.0585637033868520e-01 8.0345540958030853e-03
    -8.0212895017769958e-01 7.8655702996579622e-03
    -9.2717264994553050e-01 7.8453195291816463e-03
    -1.0238697078944961e+00 8.4870393963976370e-03
    -1.4955404445798337e+00 9.2374727668845316e-03
    -1.8000000000000000e+00 1.0954295162674779e-02
    -2.3717082451262850e+00 1.2266255378464572e-02
    -2.7664166758624402e+00 1.2266255378464572e-02
    -2.7664166758624402e+00 1.0817133636141471e-02
    -2.3290003057626292e+00 8.7503204787936356e-03
    -1.6103478937742157e+00 9.6697378727684229e-03
    -1.9540168418367889e+00 9.5902778120044666e-03
    -1.9264244369066521e+00 1.4845938375350141e-02
    -3.5000000000000004e+00 1.3268882882469801e-02
    -3.0563807705575781e+00 1.0277378021150398e-02
    -2.1571586249817916e+00 1.0224198157252520e-02
    -2.1398475105532748e+00 1.2859010164375115e-02
    -2.9387690682262941e+00 1.2376878710312515e-02
    -2.7988092706244432e+00 1.4439558485282096e-02
    -3.3868256871728875e+00 1.4439558485282096e-02
    -3.3868256871728875e+00 1.4439558485282096e-02
    -3.3868256871728875e+00 1.1098787749752426e-02
    -2.4163422103293546e+00 1.1173968587691228e-02
    -2.4394301941500909e+00 1.1098787749752426e-02
    -2.4163422103293546e+00 1.0686764049662836e-02
    -2.2880765104443213e+00 1.0444510629164365e-02
    -2.2110831935702677e+00 1.4845938375350141e-02
    -3.5000000000000004e+00 1.2859010164375115e-02
    -2.9387690682262941e+00 1.1412246316190925e-02
    -2.5120399733257055e+00 1.4439558485282096e-02
    -3.3868256871728875e+00 1.1496223971097818e-02
    -2.5374389630546919e+00 1.0331795324882698e-02
    -2.1747941810042000e+00 1.1671620236633226e-02
    -2.5901912881273663e+00 9.0852249540747405e-03
    -1.7430132638896456e+00 1.0277378021150398e-02
    -2.1571586249817916e+00 1.1412246316190925e-02
    -2.5120399733257055e+00 8.6838372762739653e-03
    -1.5824450168662922e+00 7.9459919630306096e-03
    -1.1755945184927126e+00 7.8502144412343454e-03
    -9.5841120412852809e-01 9.2697153527583395e-03
    -5.5191972660467992e-01 8.0708174297228780e-03
    -7.8633365099493424e-01 7.8487275173757115e-03
    -9.6295001286293513e-01 7.8432245109109847e-03
    -9.9529409153199411e-01 8.0177230862655598e-03
    -1.2344267996967351e+00 9.6296004833450483e-03
    -1.9401146728531857e+00 1.1582645202546550e-02
    -2.5634797778466232e+00 1.1582645202546550e-02
    -2.5634797778466232e+00 1.1671620236633226e-02
    -2.5901912881273663e+00 9.5517481567855608e-03
    -1.9129403177675610e+00 9.3702922818380222e-03
    -1.8484227510682363e+00 1.1857708957152227e-02
    -2.6457513110645907e+00 1.2376878710312515e-02
    -2.7988092706244432e+00 1.0172216061632300e-02
    -2.1228503259753162e+00 1.5064286060899776e-02
    -3.5605363858327146e+00 9.9755329322074246e-03
    -2.0578065752724584e+00 1.0884833081733658e-02
    -2.3501227463851597e+00 9.5902778120044666e-03
    -1.9264244369066521e+00 1.1173968587691228e-02
    -2.4394301941500909e+00 1.1330608610373461e-02
    -2.4872556519115796e+00 1.0884833081733658e-02
    -2.3501227463851597e+00 1.0751131323915232e-02
    -2.3083236794165640e+00 1.0562701944052757e-02
    -2.2488092087019869e+00 9.5139906578542034e-03
    -1.8996567195611718e+00 1.0502898031360376e-02
    -2.2297602978606235e+00 1.2055526227164834e-02
    -2.7043900403226022e+00 1.2376878710312515e-02
    -2.7988092706244432e+00 1.2859010164375115e-02
    -2.9387690682262941e+00 1.2266255378464572e-02
    -2.7664166758624402e+00 1.1173968587691228e-02
    -2.4394301941500909e+00 1.1955081314816348e-02
    -2.6746674847251857e+00 1.1955081314816348e-02
    -2.6746674847251857e+00 1.0884833081733658e-02
    -2.3501227463851597e+00 1.0686764049662836e-02
    -2.2880765104443213e+00 9.2374727668845316e-03
    -1.8000000000000000e+00 1.0224198157252520e-02
    -2.1398475105532748e+00 9.8389006359023493e-03
    -2.0118695404073907e+00 9.3361094126896728e-03
    -1.8360648192856803e+00 7.9940592049939085e-03
    -1.2163602113447689e+00 7.8487275173757115e-03
    -9.6295001286293513e-01 1.0686764049662833e-02
    -4.3704832221970169e-01 7.9865861799541058e-03
    -8.2615959870940348e-01 7.8487275173757115e-03
    -9.6295001286293513e-01 7.8432245109109847e-03
    -9.9529409153199411e-01 7.9340422793817041e-03
    -1.1642832797715321e+00 8.6415146917430199e-03
    -1.5643383494451308e+00 9.5902778120044666e-03
    -1.9264244369066521e+00 1.1763266446449398e-02
    -2.6176042198643885e+00 9.8834698205392917e-03
    -2.0269271656721561e+00 1.0172216061632300e-02
    -2.1228503259753162e+00 9.2374727668845316e-03
    -1.8000000000000000e+00 1.1763266446449398e-02
    -2.6176042198643885e+00 1.4068848824073672e-02
    -3.2829526005987009e+00 1.2491254937576904e-02
    -2.8321858335470651e+00 1.0331795324882698e-02
    -2.1747941810042000e+00 1.1330608610373461e-02
    -2.4872556519115796e+00 1.3416216820195627e-02
    -3.0983866769659336e+00 1.1955081314816348e-02
    -2.6746674847251857e+00 1.1857708957152227e-02
    -2.6457513110645907e+00 1.0817133636141471e-02
    -2.3290003057626292e+00 1.0172216061632300e-02
    -2.1228503259753162e+00 1.1173968587691228e-02
    -2.4394301941500909e+00 1.0444510629164365e-02
    -2.2110831935702677e+00 1.2159196385486406e-02
    -2.7349588662354680e+00 1.0884833081733658e-02
    -2.3501227463851597e+00 1.2376878710312515e-02
    -2.7988092706244432e+00 1.2266255378464572e-02
    -2.7664166758624402e+00 1.3895344920202203e-02
    -3.2341087581371570e+00 1.0444510629164365e-02
    -2.2110831935702677e+00 1.1582645202546550e-02
    -2.5634797778466232e+00 1.1955081314816348e-02
    -2.6746674847251857e+00 1.0502898031360376e-02
    -2.2297602978606235e+00 1.0387491654342789e-02
    -2.1927651899102623e+00 1.2990592525903073e-02
    -2.9766533416370593e+00 1.0331795324882698e-02
    -2.1747941810042000e+00 1.0224198157252520e-02
    -2.1398475105532748e+00 1.0387491654342789e-02
    -2.1927651899102623e+00 9.9755329322074246e-03
    -2.0578065752724584e+00 8.0804372848001012e-03
    -1.2781002983611292e+00 7.8445337006096180e-03
    -9.8130676292531638e-01 1.3729041743700172e-02
    -3.1376041154824214e-01 8.0902831452079830e-03
    -7.7849894416152299e-01 7.8819020232242347e-03
    -9.0539631613475557e-01 7.8655702996579622e-03
    -9.2717264994553050e-01 7.8655702996579639e-03
    -1.0785477764672502e+00 8.2399983408864737e-03
    -1.3727176481332926e+00 9.7525480876356537e-03
    -1.9824814143238609e+00 9.6697378727684229e-03
    -1.9540168418367889e+00 9.1443859478859725e-03
    -1.7653625277457696e+00 9.0005750406448176e-03
    -1.7105338131489607e+00 9.7107125677820139e-03
    -1.9681369917744040e+00 1.3268882882469801e-02
    -3.0563807705575781e+00 1.0277378021150398e-02
    -2.1571586249817916e+00 1.1330608610373461e-02
    -2.4872556519115796e+00 1.2732093354032950e-02
    -2.9021065146238549e+00 1.2491254937576904e-02
    -2.8321858335470651e+00 1.1763266446449398e-02
    -2.6176042198643885e+00 1.2266255378464572e-02
    -2.7664166758624402e+00 1.2266255378464572e-02
    -2.7664166758624402e+00 1.0562701944052757e-02
    -2.2488092087019869e+00 1.3268882882469801e-02
    -3.0563807705575781e+00 1.1671620236633226e-02
    -2.5901912881273663e+00 1.1857708957152227e-02
    -2.6457513110645907e+00 1.1412246316190925e-02
    -2.5120399733257055e+00 1.0817133636141471e-02
    -2.3290003057626292e+00 1.2990592525903073e-02
    -2.9766533416370593e+00 1.3729041743700170e-02
    -3.1871452330953010e+00 1.2609586941304247e-02
    -2.8665992577177275e+00 1.0331795324882698e-02
    -2.1747941810042000e+00 9.3025890978961877e-03
    -1.8238779049719576e+00 1.1582645202546550e-02
    -2.5634797778466232e+00 1.1857708957152227e-02
    -2.6457513110645907e+00 1.1173968587691228e-02
    -2.4394301941500909e+00 1.0277378021150398e-02
    -2.1571586249817916e+00 9.6296004833450483e-03
    -1.9401146728531857e+00 1.1330608610373461e-02
    -2.4872556519115796e+00 1.0387491654342789e-02
    -2.1927651899102623e+00 1.0331795324882698e-02
    -2.1747941810042000e+00 8.3091567100747471e-03
    -1.4092251392015922e+00 7.8432245109109847e-03
    -1.0047281587503070e+00 1.3729041743700172e-02
    -3.1376041154824214e-01 8.3091567100747454e-03
    -7.0960982186746824e-01 7.8897064153745575e-03
    -8.9680283181362452e-01 7.8537164218431404e-03
    -9.4939206415464661e-01 7.8628435509468814e-03
    -1.0734450446852835e+00 8.1657356302109272e-03
    -1.3308800960512410e+00 8.8205875762759657e-03
    -1.6391938633789260e+00 1.0387491654342789e-02
    -2.1927651899102623e+00 1.0387491654342789e-02
    -2.1927651899102623e+00 8.9734025397144417e-03
    -1.6999730165154776e+00 1.1955081314816348e-02
    -2.6746674847251857e+00 1.2732093354032950e-02
    -2.9021065146238549e+00 1.3127116801801441e-02
    -3.0158312444893358e+00 1.3127116801801441e-02
    -3.0158312444893358e+00 1.0817133636141471e-02
    -2.3290003057626292e+00 1.1412246316190925e-02
    -2.5120399733257055e+00 1.2491254937576904e-02
    -2.8321858335470651e+00 1.5293853926993797e-02
    -3.6239941133138371e+00 1.1857708957152227e-02
    -2.6457513110645907e+00 1.3416216820195627e-02
    -3.0983866769659336e+00 1.3268882882469801e-02
    -3.0563807705575781e+00 1.2376878710312515e-02
    -2.7988092706244432e+00 1.3127116801801441e-02
    -3.0158312444893358e+00 1.0121393866128070e-02
    -2.1061570302086783e+00 1.3268882882469801e-02
    -3.0563807705575781e+00 1.4068848824073672e-02
    -3.2829526005987009e+00 1.0502898031360376e-02
    -2.2297602978606235e+00 1.0172216061632300e-02
    -2.1228503259753162e+00 1.1173968587691228e-02
    -2.4394301941500909e+00 1.0562701944052757e-02
    -2.2488092087019869e+00 1.1173968587691228e-02
    -2.4394301941500909e+00 1.1173968587691228e-02
    -2.4394301941500909e+00 1.1582645202546550e-02
    -2.5634797778466232e+00 9.4769852566658000e-03
    -1.8865682561058417e+00 1.1496223971097818e-02
    -2.5374389630546919e+00 1.1098787749752426e-02
    -2.4163422103293546e+00 1.0331795324882698e-02
    -2.1747941810042000e+00 1.0686764049662836e-02
    -2.2880765104443213e+00 7.9793178251774885e-03
    -1.2045194278313329e+00 7.8897064153745575e-03
    -8.9680283181362452e-01 2.2747469377974731e-02
    -1.7784872874525054e-01 9.0005750406448211e-03
    -5.8461282221546784e-01 8.0017385516142105e-03
    -8.1810227880300945e-01 7.8684760871761510e-03
    -9.2278295621423134e-01 7.8487275173757115e-03
    -1.0384755040678713e+00 7.9940592049939085e-03
    -1.2163602113447689e+00 8.1657356302109272e-03
    -1.3308800960512410e+00 8.4347900688911369e-03
    -1.4711149188549517e+00 9.2697153527583395e-03
    -1.8118576883486968e+00 9.7952689325062885e-03
    -1.9970566577134579e+00 9.3025890978961877e-03
    -1.8238779049719576e+00 1.1251213327027703e-02
    -2.4630604269214893e+00 1.2859010164375115e-02
    -2.9387690682262941e+00 1.1582645202546550e-02
    -2.5634797778466232e+00 1.2491254937576904e-02
    -2.8321858335470651e+00 1.2609586941304247e-02
    -2.8665992577177275e+00 1.1330608610373461e-02
    -2.4872556519115796e+00 1.1857708957152227e-02
    -2.6457513110645907e+00 1.1955081314816348e-02
    -2.6746674847251857e+00 1.1955081314816348e-02
    -2.6746674847251857e+00 1.2609586941304247e-02
    -2.8665992577177275e+00 1.0954295162674779e-02
    -2.3717082451262850e+00 1.4068848824073672e-02
    -3.2829526005987009e+00 1.2491254937576904e-02
    -2.8321858335470651e+00 1.0331795324882698e-02
    -2.1747941810042000e+00 1.0502898031360376e-02
    -2.2297602978606235e+00 9.5139906578542034e-03
    -1.8996567195611718e+00 1.2055526227164834e-02
    -2.7043900403226022e+00 1.0751131323915232e-02
    -2.3083236794165640e+00 9.5902778120044666e-03
    -1.9264244369066521e+00 1.1251213327027703e-02
    -2.4630604269214893e+00 1.0277378021150398e-02
    -2.1571586249817916e+00 1.1173968587691228e-02
    -2.4394301941500909e+00 1.0623972901241088e-02
    -2.2682432709548337e+00 1.1496223971097818e-02
    -2.5374389630546919e+00 9.1145245143671675e-03
    -1.7541160386140588e+00 1.0071695402794865e-02
    -2.0897580260869772e+00 9.2374727668845316e-03
    -1.8000000000000000e+00 7.9793178251774885e-03
    -1.2045194278313329e+00 8.2269768914445089e-03
    -7.3227855632810324e-01 2.1228455250327315e-02
    -1.9150670125590089e-01 1.5535603527316240e-02
    -2.7095704736911225e-01 8.1106622087290664e-03
    -7.7070419903229737e-01 7.9228657891282240e-03
    -8.6721745583358700e-01 7.8439226638385446e-03
    -1.0142525001060099e+00 7.8502144412343454e-03
    -1.0433934783862302e+00 8.1003573254011339e-03
    -1.2909944487358056e+00 8.2532851522298060e-03
    -1.3798947746263466e+00 8.5423003207685672e-03
    -1.5206906325745553e+00 9.2374727668845316e-03
    -1.8000000000000000e+00 1.0751131323915232e-02
    -2.3083236794165640e+00 1.1098787749752426e-02
    -2.4163422103293546e+00 9.0852249540747405e-03
    -1.7430132638896456e+00 9.5902778120044666e-03
    -1.9264244369066521e+00 1.1251213327027703e-02
    -2.4630604269214893e+00 8.2668407846038065e-03
    -1.3871329896713156e+00 9.6697378727684229e-03
    -1.9540168418367889e+00 1.3416216820195627e-02
    -3.0983866769659336e+00 1.4637952297041826e-02
    -3.4421628155107435e+00 9.9290042579610414e-03
    -2.0422369371150531e+00 1.1857708957152227e-02
    -2.6457513110645907e+00 1.2491254937576904e-02
    -2.8321858335470651e+00 1.0817133636141471e-02
    -2.3290003057626292e+00 1.4845938375350141e-02
    -3.5000000000000004e+00 1.2159196385486406e-02
    -2.7349588662354680e+00 1.2491254937576904e-02
    -2.8321858335470651e+00 1.0121393866128070e-02
    -2.1061570302086783e+00 9.9755329322074246e-03
    -2.0578065752724584e+00 9.0005750406448176e-03
    -1.7105338131489607e+00 1.0444510629164365e-02
    -2.2110831935702677e+00 1.1251213327027703e-02
    -2.4630604269214893e+00 1.1857708957152227e-02
    -2.6457513110645907e+00 1.1763266446449398e-02
    -2.6176042198643885e+00 1.1173968587691228e-02
    -2.4394301941500909e+00 8.8948651384621116e-03
    -1.6690459207925603e+00 9.9755329322074246e-03
    -2.0578065752724584e+00 9.5139906578542034e-03
    -1.8996567195611718e+00 8.5808887523658884e-03
    -1.5378814535195373e+00 7.9340422793817041e-03
    -1.1642832797715321e+00 1.3729041743700172e-02
    -3.1376041154824214e-01 1.8497796433701329e-02
    -2.2249707974499242e-01 1.7313687392392280e-02
    -2.3949239753863377e-01 8.3387794660994292e-03
    -7.0210949749940943e-01 8.0522468125453252e-03
    -7.9420981533171109e-01 7.8819020232242347e-03
    -9.0539631613475557e-01 7.8432245109109847e-03
    -1.0047281587503070e+00 7.9940592049939085e-03
    -1.2163602113447689e+00 7.9940592049939085e-03
    -1.2163602113447689e+00 8.3238242531943410e-03
    -1.4167188142258718e+00 8.3238242531943410e-03
    -1.4167188142258718e+00 9.0564748108176597e-03
    -1.7320508075688774e+00 1.0623972901241088e-02
    -2.2682432709548337e+00 1.0331795324882698e-02
    -2.1747941810042000e+00 1.0954295162674779e-02
    -2.3717082451262850e+00 1.0172216061632300e-02
    -2.1228503259753162e+00 1.0817133636141471e-02
    -2.3290003057626292e+00 1.1496223971097818e-02
    -2.5374389630546919e+00 1.3268882882469801e-02
    -3.0563807705575781e+00 1.3569473833453496e-02
    -3.1419412584889077e+00 1.2609586941304247e-02
    -2.8665992577177275e+00 9.7525480876356537e-03
    -1.9824814143238609e+00 1.0172216061632300e-02
    -2.1228503259753162e+00 1.1251213327027703e-02
    -2.4630604269214893e+00 1.2266255378464572e-02
    -2.7664166758624402e+00 1.3268882882469801e-02
    -3.0563807705575781e+00 1.5535603527316234e-02
    -3.6906218520965277e+00 1.1955081314816348e-02
    -2.6746674847251857e+00 1.0686764049662836e-02
    -2.2880765104443213e+00 1.1173968587691228e-02
    -2.4394301941500909e+00 1.1330608610373461e-02
    -2.4872556519115796e+00 1.1496223971097818e-02
    -2.5374389630546919e+00 1.2055526227164834e-02
    -2.7043900403226022e+00 1.0502898031360376e-02
    -2.2297602978606235e+00 1.0817133636141471e-02
    -2.3290003057626292e+00 9.6697378727684229e-03
    -1.9540168418367889e+00 1.0172216061632300e-02
    -2.1228503259753162e+00 8.5423003207685672e-03
    -1.5206906325745553e+00 9.0005750406448176e-03
    -1.7105338131489607e+00 7.8434862964123324e-03
    -1.0094788848943892e+00 1.2159196385486407e-02
    -3.6563621206356528e-01 2.1946725411347526e-02
    -1.8478728707195910e-01 1.8074384035748084e-02
    -2.2827435497979007e-01 1.1857708957152227e-02
    -3.7796447300922725e-01 8.1212002491213922e-03
    -7.6682134899428056e-01 7.9124530086715078e-03
    -8.7559503577091302e-01 7.8819020232242347e-03
    -9.0539631613475557e-01 7.8715615049128711e-03
    -1.0888374581677827e+00 7.9940592049939085e-03
    -1.2163602113447689e+00 7.9940592049939085e-03
    -1.2163602113447689e+00 8.2399983408864737e-03
    -1.3727176481332926e+00 8.4518807566886147e-03
    -1.4791788008256572e+00 9.0852249540747405e-03
    -1.7430132638896456e+00 1.0071695402794865e-02
    -2.0897580260869772e+00 1.0884833081733658e-02
    -2.3501227463851597e+00 9.4051542914165322e-03
    -1.8609561775433725e+00 1.0562701944052757e-02
    -2.2488092087019869e+00 9.5902778120044666e-03
    -1.9264244369066521e+00 9.6296004833450483e-03
    -1.9401146728531857e+00 1.1173968587691228e-02
    -2.4394301941500909e+00 1.4637952297041826e-02
    -3.4421628155107435e+00 1.0562701944052757e-02
    -2.2488092087019869e+00 1.1857708957152227e-02
    -2.6457513110645907e+00 1.3268882882469801e-02
    -3.0563807705575781e+00 1.1671620236633226e-02
    -2.5901912881273663e+00 1.0224198157252520e-02
    -2.1398475105532748e+00 1.0562701944052757e-02
    -2.2488092087019869e+00 1.0954295162674779e-02
    -2.3717082451262850e+00 1.0562701944052757e-02
    -2.2488092087019869e+00 1.1496223971097818e-02
    -2.5374389630546919e+00 9.4407126575305738e-03
    -1.8736697408754663e+00 1.1582645202546550e-02
    -2.5634797778466232e+00 1.1412246316190925e-02
    -2.5120399733257055e+00 9.8389006359023493e-03
    -2.0118695404073907e+00 8.8205875762759657e-03
    -1.6391938633789260e+00 9.0564748108176597e-03
    -1.7320508075688774e+00 8.6624808860899568e-03
    -1.5733435213155367e+00 8.3238242531943410e-03
    -1.4167188142258718e+00 8.5423003207685672e-03
    -1.5206906325745553e+00 8.6624808860899603e-03
    -6.3558910463740248e-01 1.2859010164375113e-02
    -3.4027852368936035e-01 2.1946725411347526e-02
    -1.8478728707195910e-01 2.1228455250327315e-02
    -1.9150670125590089e-01 1.7313687392392280e-02
    -2.3949239753863377e-01 8.7967312359198812e-03
    -6.1369648575120306e-01 8.1542389479305841e-03
    -7.5522868746517458e-01 7.9175644998516412e-03
    -8.7139893251315292e-01 7.9228657891282240e-03
    -8.6721745583358700e-01 7.8579249914649523e-03
    -1.0633218075125039e+00 7.9340422793817041e-03
    -1.1642832797715321e+00 8.5614158235586112e-03
    -1.5292425174462534e+00 8.8448893365373760e-03
    -1.6490294859747161e+00 8.2668407846038065e-03
    -1.3871329896713156e+00 1.1025589030334527e-02
    -2.3937749957251060e+00 1.0502898031360376e-02
    -2.2297602978606235e+00 1.1582645202546550e-02
    -2.5634797778466232e+00 1.2732093354032950e-02
    -2.9021065146238549e+00 1.0623972901241088e-02
    -2.2682432709548337e+00 9.9755329322074246e-03
    -2.0578065752724584e+00 1.1251213327027703e-02
    -2.4630604269214893e+00 1.0562701944052757e-02
    -2.2488092087019869e+00 9.6697378727684229e-03
    -1.9540168418367889e+00 1.1412246316190925e-02
    -2.5120399733257055e+00 1.3895344920202203e-02
    -3.2341087581371570e+00 1.3268882882469801e-02
    -3.0563807705575781e+00 1.0172216061632300e-02
    -2.1228503259753162e+00 1.1412246316190925e-02
    -2.5120399733257055e+00 1.0623972901241088e-02
    -2.2682432709548337e+00 1.1330608610373461e-02
    -2.4872556519115796e+00 1.1330608610373461e-02
    -2.4872556519115796e+00 8.6415146917430199e-03
    -1.5643383494451308e+00 1.2859010164375115e-02
    -2.9387690682262941e+00 9.8389006359023493e-03
    -2.0118695404073907e+00 1.0071695402794865e-02
    -2.0897580260869772e+00 9.5139906578542034e-03
    -1.8996567195611718e+00 9.2374727668845316e-03
    -1.8000000000000000e+00 8.8205875762759657e-03
    -1.6391938633789260e+00 8.3238242531943410e-03
    -1.4167188142258718e+00 7.8487275173757115e-03
    -1.0384755040678713e+00 1.0331795324882700e-02
    -4.5981362684088811e-01 1.3729041743700172e-02
    -3.1376041154824214e-01 2.1946725411347526e-02
    -1.8478728707195910e-01 2.1228455250327315e-02
    -1.9150670125590089e-01 1.9989595722209260e-02
    -2.0437475815041778e-01 1.5064286060899788e-02
    -2.8085655969672835e-01 8.4015608672716648e-03
    -6.8718427093627676e-01 8.0522468125453252e-03
    -7.9420981533171109e-01 7.9587250581522814e-03
    -8.4242353917423207e-01 7.8655702996579622e-03
    -9.2717264994553050e-01 7.8602952871273668e-03
    -1.0683698523517693e+00 7.8938841791914918e-03
    -1.1204102592069434e+00 8.2399983408864737e-03
    -1.3727176481332926e+00 8.2269768914445089e-03
    -1.3656005509902465e+00 8.6624808860899568e-03
    -1.5733435213155367e+00 9.1443859478859725e-03
    -1.7653625277457696e+00 9.2058464786055443e-03
    -1.7883008141753434e+00 9.8389006359023493e-03
    -2.0118695404073907e+00 1.2859010164375115e-02
    -2.9387690682262941e+00 1.1330608610373461e-02
    -2.4872556519115796e+00 1.3416216820195627e-02
    -3.0983866769659336e+00 1.2376878710312515e-02
    -2.7988092706244432e+00 1.1671620236633226e-02
    -2.5901912881273663e+00 1.2055526227164834e-02
    -2.7043900403226022e+00 1.3416216820195627e-02
    -3.0983866769659336e+00 1.2859010164375115e-02
    -2.9387690682262941e+00 1.2159196385486406e-02
    -2.7349588662354680e+00 9.6697378727684229e-03
    -1.9540168418367889e+00 9.4407126575305738e-03
    -1.8736697408754663e+00 1.2376878710312515e-02
    -2.7988092706244432e+00 1.1857708957152227e-02
    -2.6457513110645907e+00 1.0884833081733658e-02
    -2.3501227463851597e+00 1.1330608610373461e-02
    -2.4872556519115796e+00 9.7525480876356537e-03
    -1.9824814143238609e+00 8.6415146917430199e-03
    -1.5643383494451308e+00 8.6209317365823594e-03
    -1.5554275420956380e+00 9.0282620499062393e-03
    -1.7212253839721012e+00 8.4518807566886147e-03
    -1.4791788008256572e+00 8.0804372848001012e-03
    -1.2781002983611292e+00 8.3091567100747454e-03
    -7.0960982186746824e-01 1.3416216820195627e-02
    -3.2274861218395140e-01 1.3569473833453503e-02
    -3.1827456904173368e-01 2.8822657254840338e-02
    -1.3867504905630729e-01 2.1228455250327315e-02
    -1.9150670125590089e-01 1.9989595722209260e-02
    -2.0437475815041778e-01 1.8497796433701329e-02
    -2.2249707974499242e-01 1.0623972901241089e-02
    -4.4086981886164378e-01 8.1657356302109272e-03
    -7.5138248965254562e-01 7.9865861799541058e-03
    -8.2615959870940348e-01 7.9793178251774885e-03
    -8.3020661758892667e-01 7.8557321841133503e-03
    -9.4491118252306805e-01 7.8518772977917341e-03
    -1.0483367307263918e+00 7.8602952871273668e-03
    -1.0683698523517693e+00 8.0708174297228763e-03
    -1.2717247935843994e+00 8.1657356302109272e-03
    -1.3308800960512410e+00 9.0005750406448176e-03
    -1.7105338131489607e+00 9.8834698205392917e-03
    -2.0269271656721561e+00 9.1145245143671675e-03
    -1.7541160386140588e+00 9.4769852566658000e-03
    -1.8865682561058417e+00 1.0331795324882698e-02
    -2.1747941810042000e+00 9.5139906578542034e-03
    -1.8996567195611718e+00 9.2374727668845316e-03
    -1.8000000000000000e+00 9.9755329322074246e-03
    -2.0578065752724584e+00 1.0277378021150398e-02
    -2.1571586249817916e+00 9.7952689325062885e-03
    -1.9970566577134579e+00 1.0751131323915232e-02
    -2.3083236794165640e+00 1.0224198157252520e-02
    -2.1398475105532748e+00 9.6296004833450483e-03
    -1.9401146728531857e+00 8.6838372762739653e-03
    -1.5824450168662922e+00 1.1671620236633226e-02
    -2.5901912881273663e+00 9.7107125677820139e-03
    -1.9681369917744040e+00 8.9205579325627553e-03
    -1.6792319136497555e+00 8.5051178317288381e-03
    -1.5038412354828088e+00 8.8696454491342756e-03
    -1.6589793215650794e+00 8.7055910350823003e-03
    -1.5916448515084431e+00 9.2058464786055443e-03
    -1.7883008141753434e+00 8.9205579325627553e-03
    -1.6792319136497555e+00 7.9399198508993633e-03
    -1.1699209733135323e+00 7.8462803071150441e-03
    -9.7208751069045585e-01 9.2374727668845316e-03
    -5.5555555555555558e-01 1.3127116801801441e-02
    -3.3158353997003165e-01 2.1228455250327315e-02
    -1.9150670125590089e-01 2.1946725411347526e-02
    -1.8478728707195910e-01 2.1228455250327315e-02
    -1.9150670125590089e-01 1.8954894173599360e-02
    -2.1659542988464364e-01 1.8497796433701329e-02
    -2.2249707974499242e-01 1.6060110929875276e-02
    -2.6078741450988507e-01 1.1412246316190922e-02
    -3.9808283730298050e-01 8.2806687966957993e-03
    -7.1713716560063623e-01 7.9722525423452113e-03
    -8.3426614458456838e-01 7.9283579947406879e-03
    -8.6305038501711417e-01 7.8602952871273668e-03
    -9.3600544586570933e-01 7.8432245109109847e-03
    -1.0047281587503070e+00 7.8782737862121335e-03
    -1.0992421631894100e+00 8.4015608672716648e-03
    -1.4552137502179978e+00 8.7733116638776133e-03
    -1.6198554330345731e+00 8.9467336753928702e-03
    -1.6895400127092148e+00 8.8948651384621116e-03
    -1.6690459207925603e+00 9.8389006359023493e-03
    -2.0118695404073907e+00 9.3702922818380222e-03
    -1.8484227510682363e+00 1.0751131323915232e-02
    -2.3083236794165640e+00 9.4051542914165322e-03
    -1.8609561775433725e+00 1.1173968587691228e-02
    -2.4394301941500909e+00 1.0277378021150398e-02
    -2.1571586249817916e+00 9.6697378727684229e-03
    -1.9540168418367889e+00 9.1443859478859725e-03
    -1.7653625277457696e+00 9.4051542914165322e-03
    -1.8609561775433725e+00 1.0224198157252520e-02
    -2.1398475105532748e+00 1.0444510629164365e-02
    -2.2110831935702677e+00 1.0686764049662836e-02
    -2.2880765104443213e+00 9.0564748108176597e-03
    -1.7320508075688774e+00 8.7503204787936356e-03
    -1.6103478937742157e+00 8.4692954774605103e-03
    -1.4873201444615793e+00 9.1748221507776239e-03
    -1.7767562424536574e+00 9.3361094126896728e-03
    -1.8360648192856803e+00 9.3361094126896728e-03
    -1.8360648192856803e+00 8.1003573254011339e-03
    -1.2909944487358056e+00 7.8655702996579622e-03
    -9.2717264994553050e-01 8.3238242531943410e-03
    -7.0585637033868520e-01 1.0562701944052759e-02
    -4.4467978703146638e-01 1.3127116801801441e-02
    -3.3158353997003165e-01 2.1228455250327315e-02
    -1.9150670125590089e-01 2.8822657254840338e-02
    -1.3867504905630729e-01 2.1946725411347526e-02
    -1.8478728707195910e-01 1.9450304594097051e-02
    -2.1055872190307895e-01 1.8497796433701329e-02
    -2.2249707974499242e-01 1.7313687392392280e-02
    -2.3949239753863377e-01 1.6970321093791953e-02
    -2.4494897427831783e-01 1.0172216061632300e-02
    -4.7106476974092026e-01 8.1894715588611972e-03
    -7.4371604333478858e-01 7.9793178251774885e-03
    -8.3020661758892667e-01 7.9399198508993633e-03
    -8.5475858866580523e-01 7.8782737862121335e-03
    -9.0971765229468415e-01 7.8748271821125117e-03
    -1.0940252244394753e+00 7.8628435509468814e-03
    -1.0734450446852835e+00 8.0345540958030853e-03
    -1.2466823442520871e+00 8.1774788616324669e-03
    -1.3377121081198771e+00 9.0852249540747405e-03
    -1.7430132638896456e+00 9.1145245143671675e-03
    -1.7541160386140588e+00 9.7525480876356537e-03
    -1.9824814143238609e+00 1.0071695402794865e-02
    -2.0897580260869772e+00 1.1330608610373461e-02
    -2.4872556519115796e+00 1.0884833081733658e-02
    -2.3501227463851597e+00 1.0071695402794865e-02
    -2.0897580260869772e+00 9.4407126575305738e-03
    -1.8736697408754663e+00 1.0172216061632300e-02
    -2.1228503259753162e+00 8.7967312359198829e-03
    -1.6294699794083669e+00 9.5139906578542034e-03
    -1.8996567195611718e+00 9.0282620499062393e-03
    -1.7212253839721012e+00 9.8389006359023493e-03
    -2.0118695404073907e+00 9.7525480876356537e-03
    -1.9824814143238609e+00 9.7107125677820139e-03
    -1.9681369917744040e+00 9.0005750406448176e-03
    -1.7105338131489607e+00 9.2374727668845316e-03
    -1.8000000000000000e+00 8.9734025397144417e-03
    -1.6999730165154776e+00 8.2668407846038065e-03
    -1.3871329896713156e+00 7.8439226638385446e-03
    -9.8594777917281895e-01 8.5051178317288381e-03
    -6.6496381160804485e-01 9.1145245143671658e-03
    -5.7008771254956891e-01 1.1173968587691227e-02
    -4.0993179571117222e-01 1.9989595722209260e-02
    -2.0437475815041778e-01 2.0579537167750486e-02
    -1.9802950859533486e-01 3.0775748812810200e-02
    -1.2956299912940142e-01 2.5841963313326343e-02
    -1.5541746804005230e-01 1.9450304594097051e-02
    -2.1055872190307895e-01 1.8954894173599360e-02
    -2.1659542988464364e-01 1.6970321093791953e-02
    -2.4494897427831783e-01 1.6970321093791953e-02
    -2.4494897427831783e-01 1.6970321093791953e-02
    -2.4494897427831783e-01 1.0884833081733656e-02
    -4.2550968945692302e-01 8.2142174415473779e-03
    -7.3608299927262411e-01 8.0345540958030853e-03
    -8.0212895017769958e-01 8.0345540958030853e-03
    -8.0212895017769958e-01 7.8445337006096180e-03
    -9.8130676292531638e-01 7.8819020232242330e-03
    -1.1044886997874241e+00 7.9940592049939085e-03
    -1.2163602113447689e+00 8.2269768914445089e-03
    -1.3656005509902465e+00 8.7733116638776133e-03
    -1.6198554330345731e+00 8.9205579325627553e-03
    -1.6792319136497555e+00 8.8948651384621116e-03
    -1.6690459207925603e+00 1.0071695402794865e-02
    -2.0897580260869772e+00 9.9290042579610414e-03
    -2.0422369371150531e+00 9.2058464786055443e-03
    -1.7883008141753434e+00 9.5139906578542034e-03
    -1.8996567195611718e+00 8.3540264511534658e-03
    -1.4319077177773070e+00 9.4051542914165322e-03
    -1.8609561775433725e+00 1.0331795324882698e-02
    -2.1747941810042000e+00 9.4769852566658000e-03
    -1.8865682561058417e+00 9.6697378727684229e-03
    -1.9540168418367889e+00 1.0023086107855621e-02
    -2.0736441353327710e+00 8.9205579325627553e-03
    -1.6792319136497555e+00 8.8948651384621116e-03
    -1.6690459207925603e+00 9.0282620499062393e-03
    -1.7212253839721012e+00 8.2142174415473779e-03
    -1.3585424483219573e+00 8.1542389479305824e-03
    -1.3241022442571240e+00 7.8432245109109847e-03
    -9.9529409153199411e-01 8.4180183969854907e-03
    -6.8346764933072046e-01 8.7733116638776133e-03
    -6.1733904125421835e-01 1.0562701944052759e-02
    -4.4467978703146638e-01 1.6060110929875276e-02
    -2.6078741450988507e-01 1.9989595722209260e-02
    -2.0437475815041778e-01 2.5841963313326343e-02
    -1.5541746804005230e-01 2.8822657254840338e-02
    -1.3867504905630729e-01 2.5841963313326343e-02
    -1.5541746804005230e-01 2.4669156932813817e-02
    -1.6320043678429896e-01 1.8954894173599360e-02
    -2.1659542988464364e-01 1.8074384035748084e-02
    -2.2827435497979007e-01 1.8074384035748084e-02
    -2.2827435497979007e-01 1.8074384035748084e-02
    -2.2827435497979007e-01 1.8074384035748084e-02
    -2.2827435497979007e-01 1.0224198157252526e-02
    -4.6732301954611777e-01 8.4347900688911386e-03
    -6.7975654871228819e-01 8.2806687966957993e-03
    -7.1713716560063623e-01 8.0614213327946122e-03
    -7.9026645683398122e-01 7.9522599161667880e-03
    -8.4652181914195279e-01 7.8897064153745592e-03
    -1.1150723041068880e+00 7.9228657891282240e-03
    -1.1531133203941100e+00 8.1657356302109272e-03
    -1.3308800960512410e+00 8.6007252724483781e-03
    -1.5466091943344968e+00 9.1145245143671675e-03
    -1.7541160386140588e+00 8.7967312359198829e-03
    -1.6294699794083669e+00 9.8389006359023493e-03
    -2.0118695404073907e+00 9.1748221507776239e-03
    -1.7767562424536574e+00 9.2697153527583395e-03
    -1.8118576883486968e+00 9.0852249540747405e-03
    -1.7430132638896456e+00 1.0502898031360376e-02
    -2.2297602978606235e+00 9.6296004833450483e-03
    -1.9401146728531857e+00 1.0172216061632300e-02
    -2.1228503259753162e+00 8.8205875762759657e-03
    -1.6391938633789260e+00 9.7107125677820139e-03
    -1.9681369917744040e+00 9.0564748108176597e-03
    -1.7320508075688774e+00 9.0005750406448176e-03
    -1.7105338131489607e+00 8.2806687966957976e-03
    -1.3944333775567923e+00 7.9793178251774885e-03
    -1.2045194278313329e+00 7.8502144412343454e-03
    -1.0433934783862302e+00 8.4692954774605086e-03
    -6.7235020229085074e-01 8.8448893365373742e-03
    -6.0641729484231488e-01 9.5139906578542034e-03
    -5.2641089819164999e-01 1.4068848824073676e-02
    -3.0460384954008574e-01 1.6970321093791953e-02
    -2.4494897427831783e-01 2.4669156932813817e-02
    -1.6320043678429896e-01 3.3201821476891137e-02
    -1.1980845957463077e-01 3.0775748812810200e-02
    -1.2956299912940142e-01 2.7206982237607577e-02
    -1.4726420810214480e-01 2.5841963313326343e-02
    -1.5541746804005230e-01 2.2747469377974731e-02
    -1.7784872874525054e-01 1.8497796433701329e-02
    -2.2249707974499242e-01 1.8954894173599360e-02
    -2.1659542988464364e-01 1.8954894173599360e-02
    -2.1659542988464364e-01 1.8954894173599360e-02
    -2.1659542988464364e-01 1.9450304594097051e-02
    -2.1055872190307895e-01 1.9989595722209260e-02
    -2.0437475815041778e-01 9.6296004833450483e-03
    -5.1543345039980160e-01 8.7277495594409883e-03
    -6.2463103863499236e-01 8.1894715588611972e-03
    -7.4371604333478858e-01 8.0345540958030853e-03
    -8.0212895017769958e-01 7.8502144412343454e-03
    -9.5841120412852809e-01 7.8857126381430120e-03
    -1.1097652667877205e+00 7.9459919630306096e-03
    -1.1755945184927126e+00 8.1657356302109272e-03
    -1.3308800960512410e+00 9.2374727668845316e-03
    -1.8000000000000000e+00 9.3361094126896728e-03
    -1.8360648192856803e+00 9.1748221507776239e-03
    -1.7767562424536574e+00 1.0224198157252520e-02
    -2.1398475105532748e+00 9.5902778120044666e-03
    -1.9264244369066521e+00 9.7952689325062885e-03
    -1.9970566577134579e+00 9.7952689325062885e-03
    -1.9970566577134579e+00 1.0224198157252520e-02
    -2.1398475105532748e+00 1.0023086107855621e-02
    -2.0736441353327710e+00 9.3025890978961877e-03
    -1.8238779049719576e+00 8.3091567100747471e-03
    -1.4092251392015922e+00 7.9722525423452113e-03
    -1.1986582537134605e+00 7.8602952871273668e-03
    -1.0683698523517693e+00 8.0345540958030853e-03
    -8.0212895017769958e-01 8.6209317365823594e-03
    -6.4291005073286367e-01 8.8948651384621116e-03
    -5.9914468951527800e-01 9.9290042579610414e-03
    -4.8965914866501270e-01 1.8074384035748084e-02
    -2.2827435497979007e-01 1.7680775476967069e-02
    -2.3393667553251241e-01 1.9989595722209260e-02
    -2.0437475815041778e-01 2.4669156932813817e-02
    -1.6320043678429896e-01 2.8822657254840338e-02
    -1.3867504905630729e-01 1. 0. 4.6786870929910102e-02
    -8.4414991182502896e-02 4.0566826561782163e-02
    -9.7590007294853301e-02 3.6327345341986034e-02
    -1.0923906912979292e-01 3.3201821476891137e-02
    -1.1980845957463077e-01 2.4669156932813817e-02
    -1.6320043678429896e-01 2.4669156932813817e-02
    -1.6320043678429896e-01 2.3647565938348578e-02
    -1.7066403719657230e-01 2.3647565938348578e-02
    -1.7066403719657230e-01 2.3647565938348578e-02
    -1.7066403719657230e-01 1.9450304594097051e-02
    -2.1055872190307895e-01 1.5064286060899788e-02
    -2.8085655969672835e-01 9.1443859478859708e-03
    -5.6645588896515342e-01 8.2399983408864754e-03
    -7.2848192879275830e-01 8.1003573254011339e-03
    -7.7459666924148340e-01 7.9399198508993633e-03
    -8.5475858866580523e-01 7.8474162271623387e-03
    -9.6750868696913028e-01 7.8462803071150441e-03
    -1.0287139676238806e+00 7.9283579947406896e-03
    -1.1586809036417614e+00 7.8782737862121335e-03
    -1.0992421631894100e+00 8.3238242531943410e-03
    -1.4167188142258718e+00 8.7277495594409900e-03
    -1.6009450990224598e+00 9.0282620499062393e-03
    -1.7212253839721012e+00 8.8948651384621116e-03
    -1.6690459207925603e+00 8.6007252724483781e-03
    -1.5466091943344968e+00 8.6415146917430199e-03
    -1.5643383494451308e+00 8.1003573254011339e-03
    -1.2909944487358056e+00 8.1657356302109272e-03
    -1.3308800960512410e+00 7.8628435509468814e-03
    -1.0734450446852835e+00 8.0177230862655598e-03
    -8.1009258730098255e-01 8.5051178317288381e-03
    -6.6496381160804485e-01 9.0564748108176597e-03
    -5.7735026918962584e-01 1.0502898031360373e-02
    -4.4847870013627250e-01 1.1857708957152227e-02
    -3.7796447300922725e-01 1.9989595722209260e-02
    -2.0437475815041778e-01 1.9989595722209260e-02
    -2.0437475815041778e-01 2.5841963313326343e-02
    -1.5541746804005230e-01 2.5841963313326343e-02
    -1.5541746804005230e-01 3.3201821476891137e-02
    -1.1980845957463077e-01 4.0566826561782163e-02
    -9.7590007294853301e-02 8.0845433196218688e-02
    -4.8621663832631522e-02 4.0566826561782163e-02
    -9.7590007294853301e-02 4.0566826561782163e-02
    -9.7590007294853301e-02 4.0566826561782163e-02
    -9.7590007294853301e-02 4.0566826561782163e-02
    -9.7590007294853301e-02 4.6786870929910102e-02
    -8.4414991182502896e-02 2.7206982237607577e-02
    -1.4726420810214480e-01 2.7206982237607577e-02
    -1.4726420810214480e-01 2.7206982237607577e-02
    -1.4726420810214480e-01 2.5841963313326343e-02
    -1.5541746804005230e-01 2.5841963313326343e-02
    -1.5541746804005230e-01 2.5841963313326343e-02
    -1.5541746804005230e-01 2.0579537167750486e-02
    -1.9802950859533486e-01 1.5535603527316240e-02
    -2.7095704736911225e-01 9.3702922818380222e-03
    -5.4100178080045946e-01 8.8448893365373742e-03
    -6.0641729484231488e-01 8.1212002491213922e-03
    -7.6682134899428056e-01 8.0432917517141399e-03
    -7.9816391616361415e-01 7.9940592049939068e-03
    -8.2212488592867761e-01 7.9865861799541058e-03
    -8.2615959870940348e-01 7.9228657891282240e-03
    -8.6721745583358700e-01 7.9587250581522814e-03
    -8.4242353917423207e-01 8.2532851522298077e-03
    -7.2469293919225419e-01 8.0614213327946122e-03
    -7.9026645683398122e-01 7.8537164218431404e-03
    -9.4939206415464661e-01 7.8897064153745575e-03
    -8.9680283181362452e-01 7.8782737862121335e-03
    -9.0971765229468415e-01 8.2806687966957993e-03
    -7.1713716560063623e-01 8.8448893365373742e-03
    -6.0641729484231488e-01 8.8948651384621116e-03
    -5.9914468951527800e-01 9.4051542914165339e-03
    -5.3735816676784331e-01 9.9290042579610414e-03
    -4.8965914866501270e-01 2.0579537167750486e-02
    -1.9802950859533486e-01 2.0579537167750486e-02
    -1.9802950859533486e-01 2.0579537167750486e-02
    -1.9802950859533486e-01 2.4669156932813817e-02
    -1.6320043678429896e-01 2.7206982237607577e-02
    -1.4726420810214480e-01 2.7206982237607577e-02
    -1.4726420810214480e-01 3.6327345341986034e-02
    -1.0923906912979292e-01 4.0566826561782163e-02
    -9.7590007294853301e-02</input_scale>
  <output_scale>
    1.0526315789473684e+00 0.</output_scale>
  <inv_output_scale>
    9.4999999999999996e-01 0.</inv_output_scale>
  <weights>
    <_>
      -1.1719048386403424e-03 -2.2903224389177911e-04
      -9.9637750405231888e-04 -5.5088375721748159e-04
      2.2039270841974236e-04 1.2144499427915077e-03
      9.9728247011042037e-04 2.0453599492093418e-04
      -7.2831549546728146e-04 -4.2920232853557353e-04
      -1.1054717958401724e-03 -1.2409612586460942e-04
      -2.1397120762249158e-05 -7.8018402384446585e-04
      6.7194088742161514e-04 -1.1208781013474275e-03
      1.1037170489498088e-03 1.0083693640301039e-03
      -2.5698247005999147e-04 -3.4383640164285737e-05
      3.0002183913935715e-04 -7.7645728251324352e-04
      -6.5397802009701264e-04 9.5527311481024093e-04
      -1.0954164450422850e-03 -3.1663012947851025e-04
      6.1523554708813478e-04 -6.3403300196013517e-04
      1.0630743572223426e-03 -2.4215284090006096e-04
      1.2150750992007805e-03 -3.7732545206526025e-04
      2.2581237915161135e-04 8.1166924113520002e-04
      1.1322676431532379e-03 5.1786688077618958e-04
      8.1904968067006900e-04 5.2277548999592920e-04
      1.2256443938238879e-03 -1.5902424652943092e-04
      5.6094599463111217e-01 6.3073251337119078e-03
      4.8734763269321756e-03 -1.0617610975035978e-04
      -5.2899116243143680e-03 -4.0740254348459164e-03
      -1.1692565529612747e-03 -3.9266678601275889e-03
      5.9873942756448282e-03 6.9704708035359525e-03
      -8.2739998575792129e-04 5.1184821456412080e-03
      3.9812054755781269e-04 -1.3361852103230887e-03
      3.3977809334307541e-03 5.0160955960829078e-04
      4.7329869408486019e-03 3.5067605448367502e-03
      -8.7250467995887791e-03 8.5399062377092723e-03
      -3.4869462903013258e-03 -2.4860702083304978e-03
      -4.6529181927878515e-03 6.4511994817595033e-03
      2.2517212866728122e-04 3.5149427834108567e-03
      7.0321690647618925e-03 -7.7913317090224261e-03
      5.9449867604124452e-04 -6.1743018155181956e-04
      -5.4531537235334047e-03 -6.2610846997331569e-03
      6.9222073998587820e-03 8.7503961070194635e-04
      2.2189431642459872e-03 -3.6303867560680213e-03
      6.1914801245320835e-03 5.8807027012445123e-04
      -6.8571648853684034e-03 -5.6340498101943911e-03
      3.0865669399375895e-01 6.4205472952510566e-03
      5.2678057020887443e-03 -1.0310278074714021e-03
      -4.4346106370844515e-03 -5.5513693007674400e-03
      5.3724179278177842e-04 -4.4200910741228972e-03
      7.3990720211371914e-03 7.2061739645926165e-03
      -2.0494428398641286e-03 3.0096701982728125e-03
      -3.0511983222704207e-04 -2.2148910731265982e-03
      4.2945158976210700e-03 -3.0143690220048110e-03
      8.1496571622259543e-03 3.9076213688574515e-03
      -8.6996279277520190e-03 8.3835696333523051e-03
      -2.9966253585156674e-03 -6.0353161031643189e-03
      -7.6351463057289983e-03 6.2582214652980982e-03
      -2.4088101612067740e-03 1.0953815716483691e-02
      6.7469558548479197e-03 -7.8916049950907979e-03
      6.5512398724190430e-04 -1.8505396688139597e-03
      -4.5251533742798550e-03 -7.2660640944188287e-03
      7.0857752817358620e-03 -9.1198294072428838e-04
      2.8758028876049490e-03 -5.8363570738938341e-03
      4.2903499377207116e-03 1.1039331877425484e-03
      -7.1223961023984756e-03 -4.6366236267726089e-03
      3.8163114805501980e-01 5.5389768203494092e-03
      4.4002081440735995e-03 -2.4455141460346989e-05
      -2.8927636023564516e-03 -3.4108560036996160e-03
      1.2112453358190535e-03 -3.6555520639360056e-03
      4.5287768568778291e-03 5.0100497707457232e-03
      -3.1971801385618571e-04 3.4095092974322826e-03
      1.1852248355100141e-04 -1.5564870798918491e-03
      2.5146283345767887e-03 -2.2671701772076144e-04
      4.3853755362994211e-03 2.8681141006346735e-03
      -6.3901165054484213e-03 4.3953058330313518e-03
      -2.1547050274335696e-03 -3.3905902412249239e-03
      -2.6027373068836174e-03 3.5620578539906911e-03
      3.9099124875300223e-04 3.9851125678309019e-03
      4.6318751143748504e-03 -5.8467573165694019e-03
      1.0755691490646055e-03 -1.0162890238524129e-04
      -3.2534737408044787e-03 -3.6812444692680048e-03
      6.8155650957908102e-03 -5.7207291492666066e-04
      1.9745525883949249e-03 -2.8599643868724208e-03
      4.7188999213544826e-03 1.2542462752239676e-03
      -3.4509125555664323e-03 -4.3507484661110055e-03
      1.3940122541328857e+00 9.7089570206500886e-02
      7.9450841052715770e-02 2.6410177772101723e-02
      -7.1909581378275966e-02 -1.4148800867825936e-02
      -2.1321155328820326e-02 -6.1495930952404097e-02
      2.5979838609892562e-02 1.1508738413573920e-01
      1.8257181231733005e-02 6.0574838774753684e-02
      2.2812131218115411e-02 -4.0015466508529954e-02
      2.0879247686123946e-02 7.2639795229252407e-03
      2.7468887704212713e-02 5.1677351420523959e-02
      -1.1510907169807588e-01 1.1578603443266738e-01
      -5.8093672509198266e-02 -1.8805116132552559e-02
      -2.7553209778151025e-02 8.0219885306423988e-02
      9.9794007966058345e-03 2.3136554688874579e-02
      1.0167533993826451e-01 -1.0582001120122052e-01
      2.3438063976516092e-02 1.4191235936130324e-02
      -8.4266586527592752e-02 -9.9083647219237042e-02
      1.1669403401125790e-01 2.7902182505387993e-02
      4.2621733077663107e-02 -2.0141637587810891e-02
      7.8149337158797738e-02 3.5412416382445334e-02
      -9.0610076756343652e-02 -7.3474762741589039e-02
      1.3944380182988523e+00 9.5718577554047821e-02
      8.0301608122870044e-02 2.7040106425911890e-02
      -7.0765495159525904e-02 -1.5498201890618495e-02
      -2.1831983392385484e-02 -6.1953441530530354e-02
      2.6132703760214763e-02 1.1530155838773075e-01
      1.7016556901044189e-02 6.0166559790905204e-02
      2.3006006228977419e-02 -4.0421663907431099e-02
      2.2478824957685911e-02 7.7222777433579998e-03
      2.6769144217073888e-02 5.0279757538183596e-02
      -1.1703268921302237e-01 1.1563424034432146e-01
      -5.8084088230710366e-02 -1.7414531645404463e-02
      -2.6125638616588467e-02 8.0332729532501146e-02
      7.9890011827716319e-03 2.2441240252972935e-02
      1.0327691246749493e-01 -1.0657640032552715e-01
      2.3932000674381004e-02 1.4466070850161033e-02
      -8.4913570174606767e-02 -9.9182314237852426e-02
      1.1817107138393715e-01 2.8801203265430179e-02
      4.3831474613614523e-02 -2.0235463856744778e-02
      7.8928230091975513e-02 3.5399209654435777e-02
      -8.9554426200155676e-02 -7.4900415296572792e-02
      1.3671446635653364e+00 1.0829689338137581e-01
      9.0243490271227161e-02 3.2732742217307237e-02
      -8.0880476483107894e-02 -1.3886035091833632e-02
      -2.7281633628039322e-02 -7.1181810081408114e-02
      2.5505525143560852e-02 1.3049062317960844e-01
      2.2098900609785779e-02 6.9250263780025051e-02
      2.6345947762549404e-02 -4.4789082877451362e-02
      2.3445153039097492e-02 1.2780471739214757e-02
      2.4220058184361546e-02 5.7003325158267594e-02
      -1.3075920481156766e-01 1.3196637134766248e-01
      -6.4641065952303026e-02 -1.5482482064363015e-02
      -2.4544770699808909e-02 8.8860673653229305e-02
      1.2012949063071461e-02 2.0044326412791958e-02
      1.1555205160347247e-01 -1.1916430629270479e-01
      2.8671818947890153e-02 1.8724699222380393e-02
      -9.5139688625316202e-02 -1.1210334905171007e-01
      1.3289862673100175e-01 3.2297083317956735e-02
      5.0537560822925279e-02 -1.8256701222373363e-02
      8.7524388516919738e-02 4.0514043478165902e-02
      -1.0232123278766621e-01 -8.3175074906482724e-02
      1.3673382198263759e+00 1.0827935035361511e-01
      8.8014914739289657e-02 3.1441540403806416e-02
      -8.0761863722880509e-02 -1.2325586180591312e-02
      -2.5692250949887349e-02 -6.9845375429073167e-02
      2.5907051513671096e-02 1.3022766986484510e-01
      2.3590100848402840e-02 7.0006213157600833e-02
      2.5399829847477885e-02 -4.4260722599017026e-02
      2.3630810126474115e-02 1.1017501312666465e-02
      2.3993895146901582e-02 5.8378023430568894e-02
      -1.3104445734102194e-01 1.3160347315101650e-01
      -6.4202972685638002e-02 -1.7118521769153523e-02
      -2.4901273931428065e-02 8.9957047062396323e-02
      1.3113575970423856e-02 1.7824298502504405e-02
      1.1431916065483021e-01 -1.2096019181038671e-01
      2.9974549693404396e-02 1.8283820987631594e-02
      -9.6875887201074401e-02 -1.1325565966277809e-01
      1.3318909523851208e-01 3.2668505427591255e-02
      4.9819401776075523e-02 -1.8582012000260606e-02
      8.8817383457271054e-02 3.9289527256926700e-02
      -1.0038162682353695e-01 -8.2758518706339837e-02
      2.8006050718388697e-02 2.0927526476764640e-02
      1.5736488160934460e-02 2.9341117160113582e-02
      -1.4972036678270777e-02 -7.2366429040095666e-03
      -2.7620249061403652e-02 -1.3854688866909467e-02
      -1.8041248439394308e-02 2.3965446916390409e-02
      2.6306157105669557e-02 1.3235210972523788e-02
      2.7340219586390675e-02 -2.5812860153238380e-02
      -1.6082446632413525e-02 2.1896538411089562e-02
      -1.3637897331250782e-02 1.3707654237669533e-02
      -2.4998270773605048e-02 2.4117758611219887e-02
      -1.2554456113021039e-02 -9.6152552324337316e-03
      1.7884200361517742e-02 1.4550733917170818e-02
      2.2763157135196544e-02 -4.0918837399073057e-03
      2.2416140392391471e-02 -2.2386170921955668e-02
      2.6931330769845833e-02 2.5763336481619097e-02
      -1.7529968951244233e-02 -2.0811356382904756e-02
      2.3736930479295475e-02 2.7734934878312502e-02
      1.7426008154407605e-02 -8.8001630616546134e-03
      1.6384233381284873e-02 2.5952382514744153e-02
      -1.9439136735325119e-02 -1.3623305853338815e-02
      1.3673040122915341e+00 1.0795061621381423e-01
      8.9647677733324910e-02 3.1337740841541860e-02
      -8.0041247730575735e-02 -1.3101235572948147e-02
      -2.6744004616616669e-02 -7.0477545797009378e-02
      2.3542061086598738e-02 1.3060814074104857e-01
      2.2590319480751079e-02 6.9787637383645823e-02
      2.5705474831613891e-02 -4.4467056924304846e-02
      2.4098709102356505e-02 1.1001694103979168e-02
      2.5736950319572259e-02 5.9340188638813615e-02
      -1.3025490637795156e-01 1.3187871546847196e-01
      -6.4565981364671607e-02 -1.6229516052392933e-02
      -2.6744258528973993e-02 8.9310994192090848e-02
      1.4209377995778878e-02 1.9446505396523334e-02
      1.1540748102920444e-01 -1.1965986010325592e-01
      2.8718282282202651e-02 1.8557422278702849e-02
      -9.5835131932796649e-02 -1.1335771969339135e-01
      1.3242575036790169e-01 3.3195045825758954e-02
      4.9687553156956291e-02 -2.0621133000376993e-02
      8.8657376060030060e-02 4.0398383787193175e-02
      -1.0247406268962309e-01 -8.3507308652847917e-02
      2.9501486860499726e-01 4.1665240837886641e-02
      3.3736438105144803e-02 3.3475326018808198e-02
      -2.8781622462666006e-02 -1.1695573042044074e-02
      -3.1690859504818772e-02 -2.7556016543464765e-02
      -5.2094440784057131e-03 5.1107728115776498e-02
      3.1246184224254282e-02 2.5747908261090583e-02
      3.2166044960870395e-02 -3.1928054195252707e-02
      -1.0991569918900754e-02 2.3676725929137554e-02
      -3.8165906291276080e-03 2.4569653705329774e-02
      -5.1208380277304372e-02 4.9988221774030998e-02
      -2.6369886042021555e-02 -1.4088494685722446e-02
      7.7061224679283655e-03 3.3906320178630246e-02
      2.4772354088144672e-02 9.2858633650071357e-03
      4.4335474686883779e-02 -4.6653040124976460e-02
      3.2100561494347861e-02 2.7552442438569729e-02
      -3.6215216979873233e-02 -4.3263429455095218e-02
      5.1049403969962881e-02 3.2611179481149270e-02
      2.6558162144021485e-02 -1.6752839620902453e-02
      3.3808973836828772e-02 3.4301948533244246e-02
      -3.9311296573293561e-02 -3.0677950657595630e-02
      2.7122500441140177e-02 2.1018921728877909e-02
      1.6636784818802965e-02 2.8259083140441635e-02
      -1.5076755292751962e-02 -8.4973762092918972e-03
      -2.7134832688041587e-02 -1.2118515552806382e-02
      -1.7713482759959032e-02 2.3350378952335202e-02
      2.7478936550765554e-02 1.1961180853999581e-02
      2.8518988092711323e-02 -2.5782993971127516e-02
      -1.6303187405607780e-02 2.3564815624460392e-02
      -1.4237481212037672e-02 1.5096737068265094e-02
      -2.3729907464299937e-02 2.5535377353059125e-02
      -1.2371023977602702e-02 -8.5621996082873540e-03
      1.5676048449302184e-02 1.6364125670775269e-02
      2.3741603638344821e-02 -2.6698875841757743e-03
      2.1726005411531756e-02 -2.3085689783861184e-02
      2.8531554851352236e-02 2.3896811332243129e-02
      -1.6525180312029170e-02 -2.0089581097810592e-02
      2.4523026982502853e-02 2.7017317981922757e-02
      1.9269308420260943e-02 -9.1635036642715335e-03
      1.6106952648939139e-02 2.5439260806474004e-02
      -1.7774536848062839e-02 -1.3850217057191912e-02
      4.5891988625659696e-01 2.8976792611225721e-02
      2.5052181537486437e-02 1.7070777939070480e-02
      -2.1990333959218820e-02 -1.4158024816274135e-02
      -1.4082886556285510e-02 -2.0247084967063667e-02
      6.2778273785858230e-03 3.3533391209141748e-02
      1.1962090962603254e-02 2.1361557558116171e-02
      1.3436335703885013e-02 -1.8589997140403755e-02
      1.3052648044650070e-03 1.0428387233864501e-02
      5.5669083476974903e-03 1.8685929831893041e-02
      -3.4931561770412602e-02 3.4633751246843460e-02
      -1.8941922587237113e-02 -1.6397619479092622e-02
      -4.1377129620229222e-03 2.5941940606076776e-02
      9.0544235511872771e-03 1.1808708219511067e-02
      3.1249528778866418e-02 -3.1826871061548877e-02
      1.4627864577338995e-02 1.0967180728724558e-02
      -2.7693449991331175e-02 -3.0569275534691041e-02
      3.6159966620342696e-02 1.6150319789694712e-02
      1.7270667623754198e-02 -1.6585474400736336e-02
      2.4512408531723717e-02 1.7608006942182734e-02
      -2.7531909107239596e-02 -2.4779083907359382e-02
      -1.7247843092948317e-01 1.2223237254710915e-02
      1.2583888684955693e-02 9.3551391883601401e-03
      -1.1743840988745209e-02 -9.1891074550397439e-03
      -9.2717884719947675e-03 -9.2322196947766111e-03
      -2.7170111253326246e-03 1.3167613921394672e-02
      8.1835399384173751e-03 9.6925404606819591e-03
      9.8213495122606194e-03 -1.1458237868199552e-02
      -1.4673103030295490e-03 6.0243271820255876e-03
      -1.2384580180018238e-03 8.2933825083885953e-03
      -1.3929437985218469e-02 1.4988338619415169e-02
      -1.1073877729624633e-02 -8.9830332165074505e-03
      1.3990095229245401e-03 1.2322171779925398e-02
      7.1407153649240525e-03 1.6767319766318662e-03
      1.4001470057685686e-02 -1.2876173127088325e-02
      9.0715979310063352e-03 7.3956399928735463e-03
      -1.2631126678416574e-02 -1.2755334869163963e-02
      1.3162426133917843e-02 1.0346537069361386e-02
      8.7016242577808260e-03 -9.8428420908018271e-03
      1.1107069473460568e-02 9.5851454118894425e-03
      -1.3255699170157393e-02 -1.1150506545782616e-02
      -1.1328719220207204e+00 3.7145108571376595e-02
      2.9569514012752509e-02 1.2713678298075312e-02
      -2.7380521757233583e-02 1.5393583400127523e-03
      -1.1120118728718898e-02 -2.2652015983165665e-02
      4.0471591430801170e-03 4.4145799207899329e-02
      1.0536960216282462e-02 2.3374809742710476e-02
      1.1986894300700190e-02 -1.3881004793954797e-02
      1.0761144380908292e-03 7.5575795045848488e-03
      2.4559906069926115e-03 1.8742764049182351e-02
      -4.2410994637638019e-02 4.4001124439875340e-02
      -2.0627985727316878e-02 1.9561017522929481e-04
      -2.5580921950585510e-03 3.1123395067918100e-02
      7.9029592462121837e-03 1.0557801732478994e-03
      3.8942002380681642e-02 -3.9833407214308829e-02
      1.0691145386184009e-02 9.2697765481432604e-03
      -3.2429751195911995e-02 -3.7091860415787097e-02
      4.5434046344092968e-02 1.3061343560410246e-02
      1.6807307947359563e-02 -1.4131372899982627e-03
      2.9762208223162872e-02 1.5069141420013353e-02
      -3.5102867863244444e-02 -2.9164534655879645e-02
      -1.1663069450220231e+00 7.1895795062685564e-02
      5.7586709518230306e-02 2.7300948977024366e-02
      -5.1077526397658793e-02 2.3923059644487984e-02
      -2.7331949243867129e-02 -4.4012379487564111e-02
      -1.8896571648608800e-02 8.9067705865910493e-02
      2.6709445437508590e-02 4.1988872394615587e-02
      2.7930276922647858e-02 -3.1580802190801956e-02
      -1.0559327889847432e-02 2.3910072396248531e-02
      -1.8290523633658080e-02 3.5535159816208972e-02
      -8.9427692607810014e-02 8.8547101783221185e-02
      -4.0103918827587876e-02 2.3517731602912963e-02
      1.6458350555676467e-02 5.8337059903045572e-02
      2.4342203440640489e-02 -2.3248834113000220e-02
      7.8566133384968553e-02 -8.1016948042127501e-02
      2.8523496189474678e-02 2.4793403619048721e-02
      -6.3417923224313458e-02 -7.5963585011168872e-02
      9.3023385982340140e-02 2.9205291786981884e-02
      3.2470048465494568e-02 2.1288778777365524e-02
      5.7271876940537397e-02 3.0148614383224220e-02
      -6.7792875358107046e-02 -5.3666100623304999e-02
      -1.1670854734908784e+00 7.2191938767508818e-02
      5.8737624421396774e-02 2.9032390394906401e-02
      -5.0680358926710994e-02 2.2060292808024563e-02
      -2.7442531816627841e-02 -4.4756605194399904e-02
      -1.8216106875060312e-02 8.8477214778538385e-02
      2.5335110634435380e-02 4.4135115654474567e-02
      2.7562855679001394e-02 -3.0100973942726237e-02
      -1.2073727176219011e-02 2.5203437055057273e-02
      -1.7832039177200353e-02 3.7457799019378998e-02
      -8.7682741478408974e-02 9.0071345493247842e-02
      -4.0047846621915212e-02 2.1524715647754523e-02
      1.6529951005061466e-02 5.8173128460630698e-02
      2.4968340357856285e-02 -2.3634009331150421e-02
