<?xml version="1.0"?>
<opencv_storage>
<shapeML type_id="opencv-ml-ann-mlp">
  <layer_sizes type_id="opencv-matrix">
    <rows>1</rows>
    <cols>3</cols>
    <dt>i</dt>
    <data>
      1600 40 1</data></layer_sizes>
  <activation_function>SIGMOID_SYM</activation_function>
  <f_param1>5.9999999999999998e-01</f_param1>
  <f_param2>1.</f_param2>
  <min_val>-9.4999999999999996e-01</min_val>
  <max_val>9.4999999999999996e-01</max_val>
  <min_val1>-9.7999999999999998e-01</min_val1>
  <max_val1>9.7999999999999998e-01</max_val1>
  <training_params>
    <train_method>BACKPROP</train_method>
    <dw_scale>1.0000000000000001e-01</dw_scale>
    <moment_scale>1.0000000000000001e-01</moment_scale>
    <term_criteria><epsilon>9.9999999747524271e-07</epsilon>
      <iterations>4000</iterations></term_criteria></training_params>
  <input_scale>
    1. 0. 5.8034526611711566e-02 -6.7884423330213065e-02
    5.8034526611711566e-02 -6.7884423330213065e-02
    8.1978823312795088e-02 -4.7946330148538413e-02
    4.1131489765796871e-02 -9.6225044864937631e-02
    4.1131489765796871e-02 -9.6225044864937631e-02
    4.7439678080272212e-02 -8.3237049842679461e-02
    4.7439678080272212e-02 -8.3237049842679461e-02
    2.7581070387474600e-02 -1.4518017554874818e-01
    4.7439678080272212e-02 -8.3237049842679461e-02
    2.6196393733691221e-02 -1.5321285325897388e-01
    2.7581070387474600e-02 -1.4518017554874818e-01
    1.4826437658587871e-02 -2.8615704792893792e-01
    1.1081150463295721e-02 -4.1478067789217010e-01
    9.8988168232437088e-03 -4.9210287762341143e-01
    1.2000766536701728e-02 -3.7199623794386205e-01
    1.2000766536701728e-02 -3.7199623794386205e-01
    1.0744562373146239e-02 -4.3360223613648641e-01
    9.7704676423905675e-03 -5.0286535297074386e-01
    8.7803563992094064e-03 -6.1623602251332077e-01
    8.3236883872813017e-03 -7.0589077550395896e-01
    8.7803563992094064e-03 -6.1623602251332077e-01
    9.4288905087049051e-03 -5.3491652920370603e-01
    9.6497500686973658e-03 -5.1358360170670270e-01
    1.4826437658587871e-02 -2.8615704792893792e-01
    1.5996950892862363e-02 -2.6196841599779191e-01
    2.0258852229827994e-02 -2.0142689086308338e-01
    2.3057087569369437e-02 -1.7530790204692590e-01
    2.2244675027150895e-02 -1.8214103175901078e-01
    2.3970260704326601e-02 -1.6823164622761330e-01
    2.2244675027150895e-02 -1.8214103175901078e-01
    3.1201009285332353e-02 -1.2773807700531709e-01
    2.9219947468897365e-02 -1.3671718540493263e-01
    3.1201009285332353e-02 -1.2773807700531709e-01
    2.7581070387474600e-02 -1.4518017554874818e-01
    2.7581070387474600e-02 -1.4518017554874818e-01
    3.6831776922671249e-02 -1.0770760453304093e-01
    3.6831776922671249e-02 -1.0770760453304093e-01 1. 0.
    8.1978823312795088e-02 -4.7946330148538413e-02
    8.1978823312795088e-02 -4.7946330148538413e-02
    4.7439678080272212e-02 -8.3237049842679461e-02
    5.8034526611711566e-02 -6.7884423330213065e-02
    5.8034526611711566e-02 -6.7884423330213065e-02
    3.6831776922671249e-02 -1.0770760453304093e-01
    3.6831776922671249e-02 -1.0770760453304093e-01
    2.5006649170151295e-02 -1.6087993330796876e-01
    2.5006649170151295e-02 -1.6087993330796876e-01
    2.5006649170151295e-02 -1.6087993330796876e-01
    2.3970260704326601e-02 -1.6823164622761330e-01
    1.2201995374674510e-02 -3.6396089414596788e-01
    1.2000766536701728e-02 -3.7199623794386205e-01
    9.2015416727741807e-03 -5.5969010358250293e-01
    8.5726268363378252e-03 -6.5179490739586909e-01
    8.0579444841693947e-03 -7.9174849014178184e-01
    7.9523183310609286e-03 -8.4648415996453608e-01
    7.8531409969349580e-03 -9.5075240257617377e-01
    7.8952251160478194e-03 -1.1220817071465667e+00
    7.8498297404906870e-03 -1.0421729232300536e+00
    7.8461095789572940e-03 -9.7284560513401686e-01
    7.8531409969349580e-03 -1.0517985516422406e+00
    7.8514020649412056e-03 -1.0469736606781690e+00
    7.9717419461856533e-03 -8.3456458975606451e-01
    7.9785956284609810e-03 -8.3061572379780713e-01
    7.9785956284609810e-03 -8.3061572379780713e-01
    8.3991712368835948e-03 -6.8773030540537694e-01
    9.7294114124999269e-03 -5.0644264221716939e-01
    1.1904680588950299e-02 -3.7598039382992116e-01
    1.5037673014823885e-02 -2.8143901789211673e-01
    1.7915741926104713e-02 -2.3052135826937484e-01
    1.6560281180517746e-02 -2.5182262437346942e-01
    1.6270570190810744e-02 -2.5693320129296321e-01
    1.8315239964059267e-02 -2.2494979359526920e-01
    2.0857472147331396e-02 -1.9518001458970663e-01
    2.0857472147331396e-02 -1.9518001458970663e-01
    2.6196393733691221e-02 -1.5321285325897388e-01
    3.3661731833113412e-02 -1.1812488464372367e-01
    3.3661731833113412e-02 -1.1812488464372367e-01
    5.8034526611711566e-02 -6.7884423330213065e-02
    5.8034526611711566e-02 -6.7884423330213065e-02 1. 0.
    4.7439678080272212e-02 -8.3237049842679461e-02
    4.7439678080272212e-02 -8.3237049842679461e-02
    5.8034526611711566e-02 -6.7884423330213065e-02
    3.6831776922671249e-02 -1.0770760453304093e-01
    2.3970260704326601e-02 -1.6823164622761330e-01
    2.2244675027150895e-02 -1.8214103175901078e-01
    1.9208855116382473e-02 -2.1345619963044288e-01
    1.0941414702894451e-02 -4.2234864552686613e-01
    9.6111017245192904e-03 -5.1714781297528101e-01
    8.4994424609015490e-03 -6.6611456167203187e-01
    8.3835072552351578e-03 -6.9135092514215624e-01
    7.9586046475842633e-03 -8.4249861814048554e-01
    7.8432197738506348e-03 -9.9542331694042407e-01
    7.8700104588954704e-03 -1.0862780491200215e+00
    8.6718370350064525e-03 -1.5773395322504282e+00
    8.8032532765133439e-03 -1.6321352720343032e+00
    9.2952958800462514e-03 -1.8212170884241998e+00
    9.1418987344156436e-03 -1.7644283910575147e+00
    8.5538324926250041e-03 -1.5258585369585085e+00
    9.1128971972380037e-03 -1.7535011705556933e+00
    8.8032532765133439e-03 -1.6321352720343032e+00
    8.1154670754794711e-03 -1.3005222123021802e+00
    8.3094232724494222e-03 -1.4093620435725567e+00
    8.1694793810181653e-03 -1.3330679141342598e+00
    7.8498297404906870e-03 -1.0421729232300536e+00
    7.9928801498762234e-03 -8.2275335120744242e-01
    8.4151271815960833e-03 -6.8411509851301189e-01
    8.6112453998790639e-03 -6.4465837122030423e-01
    1.1547458553407677e-02 -3.9171310092866868e-01
    1.4432451287822867e-02 -2.9543492601793370e-01
    1.7915741926104713e-02 -2.3052135826937484e-01
    1.7194600108097084e-02 -2.4135539601273889e-01
    1.7543141445930398e-02 -2.3598744169812336e-01
    1.9208855116382473e-02 -2.1345619963044288e-01
    1.9711601715399249e-02 -2.0751433915982234e-01
    3.3661731833113412e-02 -1.1812488464372367e-01
    3.1201009285332353e-02 -1.2773807700531709e-01
    5.8034526611711566e-02 -6.7884423330213065e-02
    8.1978823312795088e-02 -4.7946330148538413e-02 1. 0.
    5.8034526611711566e-02 -6.7884423330213065e-02
    4.7439678080272212e-02 -8.3237049842679461e-02
    4.1131489765796871e-02 -9.6225044864937631e-02
    2.3057087569369437e-02 -1.7530790204692590e-01
    1.5259417315969042e-02 -2.7666443551086067e-01
    1.5037673014823885e-02 -2.8143901789211673e-01
    1.0181192645934482e-02 -4.7041313268887647e-01
    9.2952958800462497e-03 -5.4908336098759447e-01
    8.6112453998790639e-03 -6.4465837122030423e-01
    8.0579444841693947e-03 -7.9174849014178184e-01
    7.9039936565011223e-03 -1.1325734029585037e+00
    8.0003139651191636e-03 -1.2212405870378575e+00
    8.3835072552351595e-03 -1.4464434249428095e+00
    8.8990751127837886e-03 -1.6707197095342132e+00
    9.6891795686362085e-03 -1.9607254893136989e+00
    9.9889516259651524e-03 -2.0622832124111312e+00
    1.0181192645934480e-02 -2.1257909920244158e+00
    9.7294114124999234e-03 -1.9745572679703114e+00
    8.6112453998790622e-03 -1.5512092057488567e+00
    9.9434096993562069e-03 -2.0470652628766355e+00
    1.0131559898481865e-02 -2.1095023109728985e+00
    1.0131559898481865e-02 -2.1095023109728985e+00
    9.8551459654527985e-03 -2.0173664619648215e+00
    9.7704676423905658e-03 -1.9886038958388503e+00
    8.7578670246377475e-03 -1.6134763044817135e+00
    8.3382255192014573e-03 -1.4240006242195882e+00
    8.0857384913775154e-03 -1.2815710056115670e+00
    7.9134694502908318e-03 -8.7474692696506107e-01
    8.2816945248864720e-03 -7.1686043892021889e-01
    8.5726268363378252e-03 -6.5179490739586909e-01
    9.9434096993562086e-03 -4.8850421045919723e-01
    1.5492541375668573e-02 -2.7183014110978115e-01
    1.7194600108097084e-02 -2.4135539601273889e-01
    1.6867681562259425e-02 -2.4663181183349506e-01
    1.7194600108097084e-02 -2.4135539601273889e-01
    2.2244675027150895e-02 -1.8214103175901078e-01
    3.1201009285332353e-02 -1.2773807700531709e-01
    8.1978823312795088e-02 -4.7946330148538413e-02
    8.1978823312795088e-02 -4.7946330148538413e-02
    8.1978823312795088e-02 -4.7946330148538413e-02
    4.7439678080272212e-02 -8.3237049842679461e-02
    4.7439678080272212e-02 -8.3237049842679461e-02
    2.3057087569369437e-02 -1.7530790204692590e-01
    2.0857472147331396e-02 -1.9518001458970663e-01
    1.1304874813316738e-02 -4.0331955899344468e-01
    1.0336851145358336e-02 -4.5946829173634074e-01
    9.9889516259651472e-03 -4.8489945220998243e-01
    8.3236883872813017e-03 -7.0589077550395896e-01
    7.8952251160478177e-03 -8.9120069744562702e-01
    7.9462185100255527e-03 -1.1758034109502260e+00
    8.4994424609015472e-03 -1.5012432658578627e+00
    8.5917625498872097e-03 -1.5426746128851381e+00
    9.3945270415858630e-03 -1.8571428571428568e+00
    9.6891795686362085e-03 -1.9607254893136989e+00
    8.9756269189555041e-03 -1.7008401285415224e+00
    9.9889516259651524e-03 -2.0622832124111312e+00
    9.5360677743421916e-03 -1.9074322720192260e+00
    9.0844263691377582e-03 -1.7427096823731238e+00
    8.9496453535970882e-03 -1.6906824301583123e+00
    9.6891795686362085e-03 -1.9607254893136989e+00
    9.0564748108176597e-03 -1.7320508075688774e+00
    8.9496453535970882e-03 -1.6906824301583123e+00
    8.3681310219832997e-03 -1.4388962906378164e+00
    8.4819591552537568e-03 -1.4931944379850965e+00
    8.9756269189555041e-03 -1.7008401285415224e+00
    9.6111017245192921e-03 -1.9336831267771384e+00
    8.9241312161856320e-03 -1.6806431517454181e+00
    8.0238004980227734e-03 -1.2389042420341585e+00
    7.8434673463250518e-03 -9.9086738861372436e-01
    8.0320299030224376e-03 -8.0329510073691146e-01
    8.2816945248864720e-03 -7.1686043892021889e-01
    8.6927696069850173e-03 -6.3042517195611514e-01
    1.4432451287822867e-02 -2.9543492601793370e-01
    1.6560281180517746e-02 -2.5182262437346942e-01
    1.6270570190810744e-02 -2.5693320129296321e-01
    2.1515905660495979e-02 -1.8875765860412183e-01
    2.2244675027150895e-02 -1.8214103175901078e-01
    5.8034526611711566e-02 -6.7884423330213065e-02
    5.8034526611711566e-02 -6.7884423330213065e-02
    8.1978823312795088e-02 -4.7946330148538413e-02
    4.1131489765796871e-02 -9.6225044864937631e-02
    2.3970260704326601e-02 -1.6823164622761330e-01
    2.3057087569369437e-02 -1.7530790204692590e-01
    1.9208855116382473e-02 -2.1345619963044288e-01
    1.0561591570726801e-02 -4.4474958999666070e-01
    9.5360677743421898e-03 -5.2426501043803275e-01
    8.7357776091634472e-03 -6.2332578307585973e-01
    7.8432197738506331e-03 -1.0045977253914875e+00
    8.2816945248864703e-03 -1.3949716649258310e+00
    7.9650787433816032e-03 -1.1925695879998877e+00
    8.0579444841693930e-03 -1.2630273533214134e+00
    9.1418987344156436e-03 -1.7644283910575147e+00
    8.2420530433282117e-03 -1.3738330388162334e+00
    8.6718370350064525e-03 -1.5773395322504282e+00
    8.6310813238837797e-03 -1.5598303965950056e+00
    1.0035470800313336e-02 -2.0777567640923964e+00
    9.2015416727741772e-03 -1.7867030229749123e+00
    1.0621129455075137e-02 -2.2673431743832992e+00
    9.1128971972380037e-03 -1.7535011705556933e+00
    9.8551459654527985e-03 -2.0173664619648215e+00
    1.1811429885271776e-02 -2.6319712626228884e+00
    9.7704676423905658e-03 -1.9886038958388503e+00
    9.4639237768500400e-03 -1.8819316317727028e+00
    1.0336851145358334e-02 -2.1764287503300346e+00
    1.0391113203990787e-02 -2.1939310229205775e+00
    9.9434096993562069e-03 -2.0470652628766355e+00
    1.0035470800313336e-02 -2.0777567640923964e+00
    8.8503008994653826e-03 -1.6512103822637878e+00
    8.0857384913775154e-03 -1.2815710056115670e+00
    7.8434673463250518e-03 -9.9086738861372436e-01
    7.8471837489720309e-03 -9.6838926975559669e-01
    8.0669977025881918e-03 -7.8791994762550033e-01
    8.8032532765133405e-03 -6.1269431347659931e-01
    1.3435561854078197e-02 -3.2217614491832008e-01
    1.6560281180517746e-02 -2.5182262437346942e-01
    1.8744965510679643e-02 -2.1926450482675730e-01
    1.9208855116382473e-02 -2.1345619963044288e-01
    2.7581070387474600e-02 -1.4518017554874818e-01
    5.8034526611711566e-02 -6.7884423330213065e-02
    8.1978823312795088e-02 -4.7946330148538413e-02
    2.6196393733691221e-02 -1.5321285325897388e-01
    2.3970260704326601e-02 -1.6823164622761330e-01
    1.2099823208015779e-02 -3.6799003609699366e-01
    1.2000766536701728e-02 -3.7199623794386205e-01
    9.8551459654528020e-03 -4.9569575922564213e-01
    8.4819591552537585e-03 -6.6970514660461156e-01
    7.9785956284609810e-03 -8.3061572379780713e-01
    8.1694793810181653e-03 -1.3330679141342598e+00
    8.2168881567571996e-03 -1.3600269124595947e+00
    8.4994424609015472e-03 -1.5012432658578627e+00
    8.9756269189555041e-03 -1.7008401285415224e+00
    1.0181192645934480e-02 -2.1257909920244158e+00
    1.0035470800313336e-02 -2.0777567640923964e+00
    1.0391113203990787e-02 -2.1939310229205775e+00
    9.1714428125115374e-03 -1.7754945655734777e+00
    9.6497500686973658e-03 -1.9471026658111257e+00
    9.8988168232437054e-03 -2.0320954123037338e+00
    9.7704676423905658e-03 -1.9886038958388503e+00
    9.7294114124999234e-03 -1.9745572679703114e+00
    1.0446628812173130e-02 -2.2117621689259215e+00
    9.2322079836264590e-03 -1.7980572039670661e+00
    8.2168881567571996e-03 -1.3600269124595947e+00
    9.5732141604469075e-03 -1.9204614140905705e+00
    9.4639237768500400e-03 -1.8819316317727028e+00
    9.8988168232437054e-03 -2.0320954123037338e+00
    1.0283802370138042e-02 -2.1592446971887318e+00
    1.0181192645934480e-02 -2.1257909920244158e+00
    9.7294114124999234e-03 -1.9745572679703114e+00
    9.4996437008617995e-03 -1.8945906376340316e+00
    8.1053389905217481e-03 -1.2941586555623199e+00
    7.9403039438841107e-03 -1.1702842464082406e+00
    7.8484237242897135e-03 -9.6395204228374809e-01
    8.0857384913775136e-03 -7.8029230968969920e-01
    8.5353739174083357e-03 -6.5894652766046924e-01
    1.4432451287822867e-02 -2.9543492601793370e-01
    1.8744965510679643e-02 -2.1926450482675730e-01
    1.8744965510679643e-02 -2.1926450482675730e-01
    2.7581070387474600e-02 -1.4518017554874818e-01
    2.9219947468897365e-02 -1.3671718540493263e-01
    8.1978823312795088e-02 -4.7946330148538413e-02
    2.5006649170151295e-02 -1.6087993330796876e-01
    2.3970260704326601e-02 -1.6823164622761330e-01
    1.1904680588950299e-02 -3.7598039382992116e-01
    1.0808562623379396e-02 -4.2986347681054748e-01
    9.1418987344156454e-03 -5.6675578621847456e-01
    7.8871569270682305e-03 -8.9951577568455909e-01
    8.3681310219832997e-03 -1.4388962906378164e+00
    8.4313794237794327e-03 -1.4694966110389887e+00
    8.4479324213343112e-03 -1.4773224941849414e+00
    9.4996437008617995e-03 -1.8945906376340316e+00
    1.0231928441234252e-02 -2.1423686866978779e+00
    1.1464355056698379e-02 -2.5278114068249971e+00
    1.1547458553407677e-02 -2.5528888301902892e+00
    1.0561591570726805e-02 -2.2484562605386746e+00
    9.3277451120483013e-03 -1.8330302779823360e+00
    1.0231928441234252e-02 -2.1423686866978779e+00
    1.3435561854078203e-02 -3.1038921278716218e+00
    1.2645109055838375e-02 -2.8769073229217605e+00
    1.1464355056698379e-02 -2.5278114068249971e+00
    1.0621129455075137e-02 -2.2673431743832992e+00
    9.7704676423905658e-03 -1.9886038958388503e+00
    1.3903142513152845e-02 -3.2363071872933080e+00
    1.0446628812173130e-02 -2.2117621689259215e+00
    1.0082996649296039e-02 -2.0934937423796423e+00
    8.9756269189555041e-03 -1.7008401285415224e+00
    9.8551459654527985e-03 -2.0173664619648215e+00
    9.8123711983957862e-03 -2.0028715018376904e+00
    8.7357776091634472e-03 -1.6042975072608192e+00
    8.8032532765133439e-03 -1.6321352720343032e+00
    1.0682102628126371e-02 -2.2866069685390693e+00
    8.3835072552351595e-03 -1.4464434249428095e+00
    8.0404624826708754e-03 -1.2508820417421227e+00
    7.8531409969349580e-03 -9.5075240257617377e-01
    8.0669977025881918e-03 -7.8791994762550033e-01
    9.0290314595091441e-03 -5.8088149642025577e-01
    1.3903142513152842e-02 -3.0899415356066751e-01
    1.8744965510679643e-02 -2.1926450482675730e-01
    2.2244675027150895e-02 -1.8214103175901078e-01
    2.7581070387474600e-02 -1.4518017554874818e-01
    3.1201009285332353e-02 -1.2773807700531709e-01
    2.5006649170151295e-02 -1.6087993330796876e-01
    1.3291486445451703e-02 -3.2649499961189848e-01
    1.2416316837537933e-02 -3.5582999744274418e-01
    9.0290314595091441e-03 -5.8088149642025577e-01
    7.8871569270682305e-03 -8.9951577568455909e-01
    8.3991712368835948e-03 -1.4540583599999397e+00
    8.7803563992094064e-03 -1.6227548592850778e+00
    9.3608171303419981e-03 -1.8450041745319714e+00
    9.0564748108176597e-03 -1.7320508075688774e+00
    8.7803563992094064e-03 -1.6227548592850778e+00
    9.4288905087049051e-03 -1.8694505505160446e+00
    1.1153768291304454e-02 -2.4332354840078514e+00
    1.1228316942206556e-02 -2.4560655660051358e+00
    9.3945270415858630e-03 -1.8571428571428568e+00
    9.3608171303419981e-03 -1.8450041745319714e+00
    1.0874160139676738e-02 -2.3467983906946852e+00
    1.0082996649296039e-02 -2.0934937423796423e+00
    1.1153768291304454e-02 -2.4332354840078514e+00
    1.2307437934369841e-02 -2.7784887978899624e+00
    9.2952958800462514e-03 -1.8212170884241998e+00
    1.2201995374674510e-02 -2.7475479263960323e+00
    1.0744562373146239e-02 -2.3062611690158046e+00
    1.0621129455075137e-02 -2.2673431743832992e+00
    1.1464355056698379e-02 -2.5278114068249971e+00
    1.1720887487190574e-02 -2.6049403612586390e+00
    1.0682102628126371e-02 -2.2866069685390693e+00
    1.0181192645934480e-02 -2.1257909920244158e+00
    1.0336851145358334e-02 -2.1764287503300346e+00
    9.8551459654527985e-03 -2.0173664619648215e+00
    1.0131559898481865e-02 -2.1095023109728985e+00
    1.0503440177617675e-02 -2.2299333487183031e+00
    8.9496453535970882e-03 -1.6906824301583123e+00
    7.9462185100255527e-03 -1.1758034109502260e+00
    7.8911038858869506e-03 -8.9535070925419136e-01
    8.0404624826708754e-03 -7.9943589133895054e-01
    8.7357776091634472e-03 -6.2332578307585973e-01
    1.8744965510679643e-02 -2.1926450482675730e-01
    2.1515905660495979e-02 -1.8875765860412183e-01
    2.2244675027150895e-02 -1.8214103175901078e-01
    8.1978823312795088e-02 -4.7946330148538413e-02
    2.0258852229827994e-02 -2.0142689086308338e-01
    1.2889963074634555e-02 -3.3924845477392551e-01
    1.0621129455075137e-02 -4.4104483666086092e-01
    7.9523183310609286e-03 -8.4648415996453608e-01
    8.5353739174083357e-03 -1.5175738212786565e+00
    8.7357776091634472e-03 -1.6042975072608192e+00
    8.7357776091634472e-03 -1.6042975072608192e+00
    9.5732141604469075e-03 -1.9204614140905705e+00
    9.4288905087049051e-03 -1.8694505505160446e+00
    9.9434096993562069e-03 -2.0470652628766355e+00
    8.9241312161856320e-03 -1.6806431517454181e+00
    1.0503440177617675e-02 -2.2299333487183031e+00
    1.0391113203990787e-02 -2.1939310229205775e+00
    1.2307437934369841e-02 -2.7784887978899624e+00
    1.0621129455075137e-02 -2.2673431743832992e+00
    1.0035470800313336e-02 -2.0777567640923964e+00
    1.2307437934369841e-02 -2.7784887978899624e+00
    9.4639237768500400e-03 -1.8819316317727028e+00
    1.2645109055838375e-02 -2.8769073229217605e+00
    1.4826437658587864e-02 -3.4945845550109675e+00
    1.2099823208015784e-02 -2.7174648819470315e+00
    1.1904680588950303e-02 -2.6597131563524061e+00
    1.1228316942206556e-02 -2.4560655660051358e+00
    1.3018979318073682e-02 -2.9848100289785440e+00
    1.1464355056698379e-02 -2.5278114068249971e+00
    9.9889516259651524e-03 -2.0622832124111312e+00
    1.1464355056698379e-02 -2.5278114068249971e+00
    1.1153768291304454e-02 -2.4332354840078514e+00
    1.0231928441234252e-02 -2.1423686866978779e+00
    1.0682102628126371e-02 -2.2866069685390693e+00
    1.0446628812173130e-02 -2.2117621689259215e+00
    9.9889516259651524e-03 -2.0622832124111312e+00
    8.5726268363378270e-03 -1.5342249358702769e+00
    7.8498297404906870e-03 -1.0421729232300536e+00
    7.8643475017040644e-03 -9.2911132984581735e-01
    8.1927046713225829e-03 -7.4269874342666298e-01
    1.3903142513152842e-02 -3.0899415356066751e-01
    2.1515905660495979e-02 -1.8875765860412183e-01
    2.1515905660495979e-02 -1.8875765860412183e-01
    2.9219947468897365e-02 -1.3671718540493263e-01
    2.0258852229827994e-02 -2.0142689086308338e-01
    1.2307437934369836e-02 -3.5990787537434726e-01
    8.1694793810181670e-03 -7.5014932802537226e-01
    8.1363903579735330e-03 -1.3133925536563698e+00
    8.8265654355234625e-03 -1.6416197045105450e+00
    8.3991712368835948e-03 -1.4540583599999397e+00
    9.0844263691377582e-03 -1.7427096823731238e+00
    8.8744679451545645e-03 -1.6609095970747993e+00
    9.2952958800462514e-03 -1.8212170884241998e+00
    1.0682102628126371e-02 -2.2866069685390693e+00
    9.6891795686362085e-03 -1.9607254893136989e+00
    9.2952958800462514e-03 -1.8212170884241998e+00
    9.7294114124999234e-03 -1.9745572679703114e+00
    1.1153768291304454e-02 -2.4332354840078514e+00
    1.0561591570726805e-02 -2.2484562605386746e+00
    1.0682102628126371e-02 -2.2866069685390693e+00
    9.8988168232437054e-03 -2.0320954123037338e+00
    9.0564748108176597e-03 -1.7320508075688774e+00
    9.9889516259651524e-03 -2.0622832124111312e+00
    1.1228316942206556e-02 -2.4560655660051358e+00
    1.1228316942206556e-02 -2.4560655660051358e+00
    1.1720887487190574e-02 -2.6049403612586390e+00
    1.1547458553407677e-02 -2.5528888301902892e+00
    1.0874160139676738e-02 -2.3467983906946852e+00
    1.1228316942206556e-02 -2.4560655660051358e+00
    1.0874160139676738e-02 -2.3467983906946852e+00
    1.1632934318867125e-02 -2.5785893056121862e+00
    1.0446628812173130e-02 -2.2117621689259215e+00
    1.0682102628126371e-02 -2.2866069685390693e+00
    1.1383524882500495e-02 -2.5033311140691454e+00
    1.0808562623379392e-02 -2.3263199921511974e+00
    1.0561591570726805e-02 -2.2484562605386746e+00
    9.9889516259651524e-03 -2.0622832124111312e+00
    8.4647907595652942e-03 -1.4852213144650115e+00
    7.8498297404906870e-03 -1.0421729232300536e+00
    7.8763541461023840e-03 -9.1210348815759035e-01
    9.1418987344156454e-03 -5.6675578621847456e-01
    1.5037673014823885e-02 -2.8143901789211673e-01
    2.2244675027150895e-02 -1.8214103175901078e-01
    4.7439678080272212e-02 -8.3237049842679461e-02
    1.3291486445451703e-02 -3.2649499961189848e-01
    1.0621129455075137e-02 -4.4104483666086092e-01
    7.8571200413333799e-03 -1.0615221468686760e+00
    8.2954265073876057e-03 -1.4021363680319487e+00
    8.3094232724494222e-03 -1.4093620435725567e+00
    8.6718370350064525e-03 -1.5773395322504282e+00
    9.3608171303419981e-03 -1.8450041745319714e+00
    9.0290314595091459e-03 -1.7215215257545764e+00
    1.1081150463295723e-02 -2.4109126902482392e+00
    1.1304874813316745e-02 -2.4794235184023252e+00
    9.6497500686973658e-03 -1.9471026658111257e+00
    9.3277451120483013e-03 -1.8330302779823360e+00
    8.9756269189555041e-03 -1.7008401285415224e+00
    1.1228316942206556e-02 -2.4560655660051358e+00
    1.0808562623379392e-02 -2.3263199921511974e+00
    1.0035470800313336e-02 -2.0777567640923964e+00
    9.2322079836264590e-03 -1.7980572039670661e+00
    1.1811429885271776e-02 -2.6319712626228884e+00
    1.3903142513152845e-02 -3.2363071872933080e+00
    1.3152726997911656e-02 -3.0231663671920108e+00
    1.1081150463295723e-02 -2.4109126902482392e+00
    9.8551459654527985e-03 -2.0173664619648215e+00
    1.0561591570726805e-02 -2.2484562605386746e+00
    1.2201995374674510e-02 -2.7475479263960323e+00
    1.2416316837537930e-02 -2.8103307961294282e+00
    9.9434096993562069e-03 -2.0470652628766355e+00
    1.0744562373146239e-02 -2.3062611690158046e+00
    1.2000766536701721e-02 -2.6881992289150771e+00
    1.1228316942206556e-02 -2.4560655660051358e+00
    9.9889516259651524e-03 -2.0622832124111312e+00
    9.6891795686362085e-03 -1.9607254893136989e+00
    1.0181192645934480e-02 -2.1257909920244158e+00
    9.5360677743421916e-03 -1.9074322720192260e+00
    9.6111017245192921e-03 -1.9336831267771384e+00
    8.2168881567571996e-03 -1.3600269124595947e+00
    7.8432197738506348e-03 -9.9542331694042407e-01
    7.8995214249067101e-03 -8.8706552514548753e-01
    1.2307437934369836e-02 -3.5990787537434726e-01
    1.9208855116382473e-02 -2.1345619963044288e-01
    2.3970260704326601e-02 -1.6823164622761330e-01
    1.3291486445451703e-02 -3.2649499961189848e-01
    8.1053389905217481e-03 -7.7270278702072592e-01
    8.1258167468033840e-03 -1.3069332554348334e+00
    8.3835072552351595e-03 -1.4464434249428095e+00
    9.6497500686973658e-03 -1.9471026658111257e+00
    9.3277451120483013e-03 -1.8330302779823360e+00
    8.6927696069850173e-03 -1.5862310778250641e+00
    9.5732141604469075e-03 -1.9204614140905705e+00
    1.1081150463295723e-02 -2.4109126902482392e+00
    9.0844263691377582e-03 -1.7427096823731238e+00
    1.0035470800313336e-02 -2.0777567640923964e+00
    9.6891795686362085e-03 -1.9607254893136989e+00
    1.1464355056698379e-02 -2.5278114068249971e+00
    1.1153768291304454e-02 -2.4332354840078514e+00
    1.1153768291304454e-02 -2.4332354840078514e+00
    9.9434096993562069e-03 -2.0470652628766355e+00
    1.1081150463295723e-02 -2.4109126902482392e+00
    1.1547458553407677e-02 -2.5528888301902892e+00
    1.1547458553407677e-02 -2.5528888301902892e+00
    1.0503440177617675e-02 -2.2299333487183031e+00
    1.0446628812173130e-02 -2.2117621689259215e+00
    1.1081150463295723e-02 -2.4109126902482392e+00
    1.0283802370138042e-02 -2.1592446971887318e+00
    1.2765419447850831e-02 -2.9117453304788192e+00
    1.1228316942206556e-02 -2.4560655660051358e+00
    1.4826437658587864e-02 -3.4945845550109675e+00
    1.3291486445451703e-02 -3.0628340439782860e+00
    1.4072102795919547e-02 -3.2838671994743902e+00
    1.0391113203990787e-02 -2.1939310229205775e+00
    1.2099823208015784e-02 -2.7174648819470315e+00
    1.1811429885271776e-02 -2.6319712626228884e+00
    9.3608171303419981e-03 -1.8450041745319714e+00
    1.0391113203990787e-02 -2.1939310229205775e+00
    1.0621129455075137e-02 -2.2673431743832992e+00
    8.9241312161856320e-03 -1.6806431517454181e+00
    7.8434673463250518e-03 -1.0092167846991638e+00
    7.8471837489720309e-03 -9.6838926975559669e-01
    9.4996437008617995e-03 -5.2781850608572733e-01
    1.8744965510679643e-02 -2.1926450482675730e-01
    1.6270570190810744e-02 -2.5693320129296321e-01
    1.1904680588950299e-02 -3.7598039382992116e-01
    7.8498297404906870e-03 -1.0421729232300536e+00
    8.3382255192014573e-03 -1.4240006242195882e+00
    9.7294114124999234e-03 -1.9745572679703114e+00
    9.7294114124999234e-03 -1.9745572679703114e+00
    9.0564748108176597e-03 -1.7320508075688774e+00
    9.1418987344156436e-03 -1.7644283910575147e+00
    1.2528810119980355e-02 -2.8431203515386612e+00
    1.0131559898481865e-02 -2.1095023109728985e+00
    9.4996437008617995e-03 -1.8945906376340316e+00
    9.4639237768500400e-03 -1.8819316317727028e+00
    1.0941414702894446e-02 -2.3677121037112179e+00
    1.0391113203990787e-02 -2.1939310229205775e+00
    1.0561591570726805e-02 -2.2484562605386746e+00
    1.2201995374674510e-02 -2.7475479263960323e+00
    1.0874160139676738e-02 -2.3467983906946852e+00
    1.0336851145358334e-02 -2.1764287503300346e+00
    1.1383524882500495e-02 -2.5033311140691454e+00
    1.0941414702894446e-02 -2.3677121037112179e+00
    1.0808562623379392e-02 -2.3263199921511974e+00
    1.0808562623379392e-02 -2.3263199921511974e+00
    1.2201995374674510e-02 -2.7475479263960323e+00
    1.4248366013071903e-02 -3.3333333333333353e+00
    1.2765419447850831e-02 -2.9117453304788192e+00
    1.4624930932682646e-02 -3.4385359401589404e+00
    1.3585283951342422e-02 -3.1464265445104536e+00
    1.3291486445451703e-02 -3.0628340439782860e+00
    1.1081150463295723e-02 -2.4109126902482392e+00
    9.4288905087049051e-03 -1.8694505505160446e+00
    9.7704676423905658e-03 -1.9886038958388503e+00
    1.0035470800313336e-02 -2.0777567640923964e+00
    1.0874160139676738e-02 -2.3467983906946852e+00
    9.9889516259651524e-03 -2.0622832124111312e+00
    1.1081150463295723e-02 -2.4109126902482392e+00
    9.3945270415858630e-03 -1.8571428571428568e+00
    7.9290258255464048e-03 -1.1593472394004203e+00
    7.8643475017040644e-03 -1.0762972830887190e+00
    7.9134694502908318e-03 -8.7474692696506107e-01
    1.5996950892862363e-02 -2.6196841599779191e-01
    1.3152726997911651e-02 -3.3077901727546161e-01
    8.7803563992094064e-03 -6.1623602251332077e-01
    7.9086426920190866e-03 -1.1378650368586178e+00
    8.7578670246377475e-03 -1.6134763044817135e+00
    9.8988168232437054e-03 -2.0320954123037338e+00
    1.1153768291304454e-02 -2.4332354840078514e+00
    1.0621129455075137e-02 -2.2673431743832992e+00
    1.1228316942206556e-02 -2.4560655660051358e+00
    1.2201995374674510e-02 -2.7475479263960323e+00
    9.3945270415858630e-03 -1.8571428571428568e+00
    9.4996437008617995e-03 -1.8945906376340316e+00
    1.2416316837537930e-02 -2.8103307961294282e+00
    1.3741013045913431e-02 -3.1905308617042341e+00
    1.5492541375668583e-02 -3.6787679096857078e+00
    1.2416316837537930e-02 -2.8103307961294282e+00
    1.1632934318867125e-02 -2.5785893056121862e+00
    1.1153768291304454e-02 -2.4332354840078514e+00
    1.0283802370138042e-02 -2.1592446971887318e+00
    1.0682102628126371e-02 -2.2866069685390693e+00
    1.0283802370138042e-02 -2.1592446971887318e+00
    1.0744562373146239e-02 -2.3062611690158046e+00
    1.1304874813316745e-02 -2.4794235184023252e+00
    1.1464355056698379e-02 -2.5278114068249971e+00
    1.1153768291304454e-02 -2.4332354840078514e+00
    1.0808562623379392e-02 -2.3263199921511974e+00
    1.3291486445451703e-02 -3.0628340439782860e+00
    1.3152726997911656e-02 -3.0231663671920108e+00
    1.2765419447850831e-02 -2.9117453304788192e+00
    1.2645109055838375e-02 -2.8769073229217605e+00
    1.6560281180517736e-02 -3.9710490766585531e+00
    1.2201995374674510e-02 -2.7475479263960323e+00
    1.5996950892862353e-02 -3.8172540616821080e+00
    1.1228316942206556e-02 -2.4560655660051358e+00
    1.0131559898481865e-02 -2.1095023109728985e+00
    9.1714428125115374e-03 -1.7754945655734777e+00
    9.8988168232437054e-03 -2.0320954123037338e+00
    8.9496453535970882e-03 -1.6906824301583123e+00
    7.8431372549019607e-03 -1. 7.8670941742495521e-03
    -9.2483466032376327e-01 1.0035470800313336e-02
    -4.8128828998750423e-01 1.4826437658587871e-02
    -2.8615704792893792e-01 8.2816945248864720e-03
    -7.1686043892021889e-01 7.9928801498762216e-03
    -1.2154310870109943e+00 8.4994424609015472e-03
    -1.5012432658578627e+00 9.8551459654527985e-03
    -2.0173664619648215e+00 9.3945270415858630e-03
    -1.8571428571428568e+00 1.1228316942206556e-02
    -2.4560655660051358e+00 1.1547458553407677e-02
    -2.5528888301902892e+00 1.0082996649296039e-02
    -2.0934937423796423e+00 9.5732141604469075e-03
    -1.9204614140905705e+00 9.4996437008617995e-03
    -1.8945906376340316e+00 9.4996437008617995e-03
    -1.8945906376340316e+00 1.2416316837537930e-02
    -2.8103307961294282e+00 1.1010389322537912e-02
    -2.3890777106850898e+00 1.0874160139676738e-02
    -2.3467983906946852e+00 1.2201995374674510e-02
    -2.7475479263960323e+00 1.0336851145358334e-02
    -2.1764287503300346e+00 9.4288905087049051e-03
    -1.8694505505160446e+00 1.3585283951342422e-02
    -3.1464265445104536e+00 1.2307437934369841e-02
    -2.7784887978899624e+00 1.3435561854078203e-02
    -3.1038921278716218e+00 1.2099823208015784e-02
    -2.7174648819470315e+00 1.2528810119980355e-02
    -2.8431203515386612e+00 1.2528810119980355e-02
    -2.8431203515386612e+00 1.2765419447850831e-02
    -2.9117453304788192e+00 1.2645109055838375e-02
    -2.8769073229217605e+00 1.1632934318867125e-02
    -2.5785893056121862e+00 1.3741013045913431e-02
    -3.1905308617042341e+00 1.2645109055838375e-02
    -2.8769073229217605e+00 1.3741013045913431e-02
    -3.1905308617042341e+00 1.1720887487190574e-02
    -2.6049403612586390e+00 1.3152726997911656e-02
    -3.0231663671920108e+00 1.1720887487190574e-02
    -2.6049403612586390e+00 1.2416316837537930e-02
    -2.8103307961294282e+00 1.0035470800313336e-02
    -2.0777567640923964e+00 1.1010389322537912e-02
    -2.3890777106850898e+00 8.8503008994653826e-03
    -1.6512103822637878e+00 8.0857384913775154e-03
    -1.2815710056115670e+00 7.8432197738506331e-03
    -1.0045977253914875e+00 8.4647907595652942e-03
    -6.7330032922413852e-01 1.3741013045913441e-02
    -3.1342746500369073e-01 7.9290258255464065e-03
    -8.6255434611391291e-01 8.0491000529073174e-03
    -1.2569334337206302e+00 8.6718370350064525e-03
    -1.5773395322504282e+00 1.0231928441234252e-02
    -2.1423686866978779e+00 1.0682102628126371e-02
    -2.2866069685390693e+00 1.0336851145358334e-02
    -2.1764287503300346e+00 1.1464355056698379e-02
    -2.5278114068249971e+00 1.0231928441234252e-02
    -2.1423686866978779e+00 9.6497500686973658e-03
    -1.9471026658111257e+00 8.7578670246377475e-03
    -1.6134763044817135e+00 9.7294114124999234e-03
    -1.9745572679703114e+00 1.0621129455075137e-02
    -2.2673431743832992e+00 1.1153768291304454e-02
    -2.4332354840078514e+00 1.1081150463295723e-02
    -2.4109126902482392e+00 1.1632934318867125e-02
    -2.5785893056121862e+00 1.0035470800313336e-02
    -2.0777567640923964e+00 1.0446628812173130e-02
    -2.2117621689259215e+00 1.1383524882500495e-02
    -2.5033311140691454e+00 1.0744562373146239e-02
    -2.3062611690158046e+00 1.1464355056698379e-02
    -2.5278114068249971e+00 1.2765419447850831e-02
    -2.9117453304788192e+00 1.2000766536701721e-02
    -2.6881992289150771e+00 1.1081150463295723e-02
    -2.4109126902482392e+00 1.0941414702894446e-02
    -2.3677121037112179e+00 9.8988168232437054e-03
    -2.0320954123037338e+00 1.0808562623379392e-02
    -2.3263199921511974e+00 1.0621129455075137e-02
    -2.2673431743832992e+00 1.3291486445451703e-02
    -3.0628340439782860e+00 1.5037673014823888e-02
    -3.5531676008879747e+00 1.2000766536701721e-02
    -2.6881992289150771e+00 1.2000766536701721e-02
    -2.6881992289150771e+00 1.4072102795919547e-02
    -3.2838671994743902e+00 1.0621129455075137e-02
    -2.2673431743832992e+00 1.0283802370138042e-02
    -2.1592446971887318e+00 1.0874160139676738e-02
    -2.3467983906946852e+00 9.9889516259651524e-03
    -2.0622832124111312e+00 7.8995214249067101e-03
    -1.1273124382057238e+00 7.8498297404906870e-03
    -1.0421729232300536e+00 7.9586046475842633e-03
    -8.4249861814048554e-01 1.0181192645934482e-02
    -4.7041313268887647e-01 7.8952251160478177e-03
    -8.9120069744562702e-01 7.8444578707144701e-03
    -1.0185200918833628e+00 8.8265654355234625e-03
    -1.6416197045105450e+00 1.0503440177617675e-02
    -2.2299333487183031e+00 1.0082996649296039e-02
    -2.0934937423796423e+00 1.0446628812173130e-02
    -2.2117621689259215e+00 1.0035470800313336e-02
    -2.0777567640923964e+00 9.6497500686973658e-03
    -1.9471026658111257e+00 9.9889516259651524e-03
    -2.0622832124111312e+00 1.1304874813316745e-02
    -2.4794235184023252e+00 1.0941414702894446e-02
    -2.3677121037112179e+00 1.3585283951342422e-02
    -3.1464265445104536e+00 1.2765419447850831e-02
    -2.9117453304788192e+00 1.4826437658587864e-02
    -3.4945845550109675e+00 1.1228316942206556e-02
    -2.4560655660051358e+00 1.0181192645934480e-02
    -2.1257909920244158e+00 9.6891795686362085e-03
    -1.9607254893136989e+00 1.1547458553407677e-02
    -2.5528888301902892e+00 1.0682102628126371e-02
    -2.2866069685390693e+00 1.2000766536701721e-02
    -2.6881992289150771e+00 1.0941414702894446e-02
    -2.3677121037112179e+00 1.0941414702894446e-02
    -2.3677121037112179e+00 1.0621129455075137e-02
    -2.2673431743832992e+00 1.3291486445451703e-02
    -3.0628340439782860e+00 1.1720887487190574e-02
    -2.6049403612586390e+00 1.1304874813316745e-02
    -2.4794235184023252e+00 1.1720887487190574e-02
    -2.6049403612586390e+00 1.3152726997911656e-02
    -3.0231663671920108e+00 1.3291486445451703e-02
    -3.0628340439782860e+00 1.4826437658587864e-02
    -3.4945845550109675e+00 1.4072102795919547e-02
    -3.2838671994743902e+00 1.4072102795919547e-02
    -3.2838671994743902e+00 1.0941414702894446e-02
    -2.3677121037112179e+00 1.2000766536701721e-02
    -2.6881992289150771e+00 9.3277451120483013e-03
    -1.8330302779823360e+00 9.9434096993562069e-03
    -2.0470652628766355e+00 7.9345734345096924e-03
    -1.1647990198986076e+00 7.8461095789572940e-03
    -1.0279123375000934e+00 7.8700104588954704e-03
    -9.2057461789832340e-01 8.8265654355234608e-03
    -6.0915448154793794e-01 7.8593609134773035e-03
    -9.3771549247497543e-01 7.8444578707144701e-03
    -1.0185200918833628e+00 8.0491000529073174e-03
    -1.2569334337206302e+00 8.2293464238784898e-03
    -1.3669019908653217e+00 9.0020856137567919e-03
    -1.7111189111011333e+00 1.0082996649296039e-02
    -2.0934937423796423e+00 9.3608171303419981e-03
    -1.8450041745319714e+00 1.0503440177617675e-02
    -2.2299333487183031e+00 9.4996437008617995e-03
    -1.8945906376340316e+00 9.4639237768500400e-03
    -1.8819316317727028e+00 1.1464355056698379e-02
    -2.5278114068249971e+00 1.2528810119980355e-02
    -2.8431203515386612e+00 1.2099823208015784e-02
    -2.7174648819470315e+00 1.4826437658587864e-02
    -3.4945845550109675e+00 1.1904680588950303e-02
    -2.6597131563524061e+00 1.0503440177617675e-02
    -2.2299333487183031e+00 1.0181192645934480e-02
    -2.1257909920244158e+00 1.0808562623379392e-02
    -2.3263199921511974e+00 1.0283802370138042e-02
    -2.1592446971887318e+00 1.3585283951342422e-02
    -3.1464265445104536e+00 9.9889516259651524e-03
    -2.0622832124111312e+00 1.1383524882500495e-02
    -2.5033311140691454e+00 1.0082996649296039e-02
    -2.0934937423796423e+00 1.0682102628126371e-02
    -2.2866069685390693e+00 9.1418987344156436e-03
    -1.7644283910575147e+00 1.0446628812173130e-02
    -2.2117621689259215e+00 1.1153768291304454e-02
    -2.4332354840078514e+00 1.0561591570726805e-02
    -2.2484562605386746e+00 1.1228316942206556e-02
    -2.4560655660051358e+00 1.1547458553407677e-02
    -2.5528888301902892e+00 1.2416316837537930e-02
    -2.8103307961294282e+00 1.1904680588950303e-02
    -2.6597131563524061e+00 1.1904680588950303e-02
    -2.6597131563524061e+00 1.1081150463295723e-02
    -2.4109126902482392e+00 1.0941414702894446e-02
    -2.3677121037112179e+00 9.6497500686973658e-03
    -1.9471026658111257e+00 8.1927046713225829e-03
    -1.3464409477605954e+00 7.8670941742495521e-03
    -9.2483466032376327e-01 7.8550468678517289e-03
    -9.4638901827580579e-01 8.7140808359807576e-03
    -6.2687418674434969e-01 8.0079442138397908e-03
    -8.1493689166988881e-01 7.8797827747836193e-03
    -9.0789194424599795e-01 8.0669977025881901e-03
    -1.2691644665344883e+00 8.6310813238837797e-03
    -1.5598303965950056e+00 1.0181192645934480e-02
    -2.1257909920244158e+00 1.0181192645934480e-02
    -2.1257909920244158e+00 1.0336851145358334e-02
    -2.1764287503300346e+00 1.0131559898481865e-02
    -2.1095023109728985e+00 1.0391113203990787e-02
    -2.1939310229205775e+00 1.1632934318867125e-02
    -2.5785893056121862e+00 1.2528810119980355e-02
    -2.8431203515386612e+00 1.0561591570726805e-02
    -2.2484562605386746e+00 1.1632934318867125e-02
    -2.5785893056121862e+00 1.4826437658587864e-02
    -3.4945845550109675e+00 1.1720887487190574e-02
    -2.6049403612586390e+00 1.2645109055838375e-02
    -2.8769073229217605e+00 9.6497500686973658e-03
    -1.9471026658111257e+00 1.2528810119980355e-02
    -2.8431203515386612e+00 1.3291486445451703e-02
    -3.0628340439782860e+00 1.0181192645934480e-02
    -2.1257909920244158e+00 1.0391113203990787e-02
    -2.1939310229205775e+00 1.3585283951342422e-02
    -3.1464265445104536e+00 1.1383524882500495e-02
    -2.5033311140691454e+00 1.0561591570726805e-02
    -2.2484562605386746e+00 1.0941414702894446e-02
    -2.3677121037112179e+00 1.0874160139676738e-02
    -2.3467983906946852e+00 1.2416316837537930e-02
    -2.8103307961294282e+00 1.1464355056698379e-02
    -2.5278114068249971e+00 1.1081150463295723e-02
    -2.4109126902482392e+00 1.7543141445930409e-02
    -4.2375136270141311e+00 1.7915741926104706e-02
    -4.3379928328873252e+00 1.4248366013071903e-02
    -3.3333333333333353e+00 1.0082996649296039e-02
    -2.0934937423796423e+00 1.0336851145358334e-02
    -2.1764287503300346e+00 1.0391113203990787e-02
    -2.1939310229205775e+00 9.7704676423905658e-03
    -1.9886038958388503e+00 8.5353739174083357e-03
    -1.5175738212786565e+00 7.8514020649412073e-03
    -9.5513386588183857e-01 7.8763541461023840e-03
    -9.1210348815759035e-01 8.2816945248864720e-03
    -7.1686043892021889e-01 7.9717419461856533e-03
    -8.3456458975606451e-01 7.9039936565011223e-03
    -8.8294497944928252e-01 8.0762616912287300e-03
    -1.2753454528465551e+00 8.4151271815960851e-03
    -1.4617423327939898e+00 9.6497500686973658e-03
    -1.9471026658111257e+00 9.8123711983957862e-03
    -2.0028715018376904e+00 1.1383524882500495e-02
    -2.5033311140691454e+00 1.0874160139676738e-02
    -2.3467983906946852e+00 1.0874160139676738e-02
    -2.3467983906946852e+00 1.0181192645934480e-02
    -2.1257909920244158e+00 1.2201995374674510e-02
    -2.7475479263960323e+00 9.2634548593924938e-03
    -1.8095606659964649e+00 9.9889516259651524e-03
    -2.0622832124111312e+00 1.1304874813316745e-02
    -2.4794235184023252e+00 1.4072102795919547e-02
    -3.2838671994743902e+00 1.1464355056698379e-02
    -2.5278114068249971e+00 1.1081150463295723e-02
    -2.4109126902482392e+00 1.0744562373146239e-02
    -2.3062611690158046e+00 1.2645109055838375e-02
    -2.8769073229217605e+00 1.2201995374674510e-02
    -2.7475479263960323e+00 9.9889516259651524e-03
    -2.0622832124111312e+00 9.8123711983957862e-03
    -2.0028715018376904e+00 1.0035470800313336e-02
    -2.0777567640923964e+00 1.0446628812173130e-02
    -2.2117621689259215e+00 1.1228316942206556e-02
    -2.4560655660051358e+00 1.2889963074634558e-02
    -2.9476921292578866e+00 1.5259417315969033e-02
    -3.6144869800612427e+00 1.1547458553407677e-02
    -2.5528888301902892e+00 1.1304874813316745e-02
    -2.4794235184023252e+00 1.6270570190810754e-02
    -3.8920621973637788e+00 1.0082996649296039e-02
    -2.0934937423796423e+00 1.1720887487190574e-02
    -2.6049403612586390e+00 1.2528810119980355e-02
    -2.8431203515386612e+00 9.6111017245192921e-03
    -1.9336831267771384e+00 1.1547458553407677e-02
    -2.5528888301902892e+00 1.1081150463295723e-02
    -2.4109126902482392e+00 8.9756269189555041e-03
    -1.7008401285415224e+00 7.8593609134773035e-03
    -1.0664215404617368e+00 7.8643475017040644e-03
    -9.2911132984581735e-01 8.3835072552351578e-03
    -6.9135092514215624e-01 8.0762616912287317e-03
    -7.8410127841677113e-01 7.8833834684707456e-03
    -9.0369611411506390e-01 7.8432197738506348e-03
    -9.9542331694042407e-01 8.3530384385938072e-03
    -1.4314157498613218e+00 9.2322079836264590e-03
    -1.7980572039670661e+00 1.0874160139676738e-02
    -2.3467983906946852e+00 1.2000766536701721e-02
    -2.6881992289150771e+00 1.2307437934369841e-02
    -2.7784887978899624e+00 1.0446628812173130e-02
    -2.2117621689259215e+00 8.6512764363871706e-03
    -1.5685399135238665e+00 9.4639237768500400e-03
    -1.8819316317727028e+00 9.6891795686362085e-03
    -1.9607254893136989e+00 1.4432451287822858e-02
    -3.3848401523768952e+00 1.3435561854078203e-02
    -3.1038921278716218e+00 9.9889516259651524e-03
    -2.0622832124111312e+00 1.0336851145358334e-02
    -2.1764287503300346e+00 1.3018979318073682e-02
    -2.9848100289785440e+00 1.2528810119980355e-02
    -2.8431203515386612e+00 1.4624930932682646e-02
    -3.4385359401589404e+00 1.4624930932682646e-02
    -3.4385359401589404e+00 1.3291486445451703e-02
    -3.0628340439782860e+00 1.0682102628126371e-02
    -2.2866069685390693e+00 1.0561591570726805e-02
    -2.2484562605386746e+00 1.0682102628126371e-02
    -2.2866069685390693e+00 1.0336851145358334e-02
    -2.1764287503300346e+00 1.0391113203990787e-02
    -2.1939310229205775e+00 1.3585283951342422e-02
    -3.1464265445104536e+00 1.2645109055838375e-02
    -2.8769073229217605e+00 1.1464355056698379e-02
    -2.5278114068249971e+00 1.3152726997911656e-02
    -3.0231663671920108e+00 1.1632934318867125e-02
    -2.5785893056121862e+00 1.0283802370138042e-02
    -2.1592446971887318e+00 1.0941414702894446e-02
    -2.3677121037112179e+00 9.0844263691377582e-03
    -1.7427096823731238e+00 9.9889516259651524e-03
    -2.0622832124111312e+00 1.1547458553407677e-02
    -2.5528888301902892e+00 8.7357776091634472e-03
    -1.6042975072608192e+00 7.9236600017413422e-03
    -1.1539284215838681e+00 7.8617699130475865e-03
    -9.3340486135070722e-01 9.3608171303420015e-03
    -5.4200419370523811e-01 8.1154670754794711e-03
    -7.6892189194508476e-01 7.8593609134773035e-03
    -9.3771549247497543e-01 7.8471837489720309e-03
    -9.6838926975559669e-01 8.0238004980227734e-03
    -1.2389042420341585e+00 9.6111017245192921e-03
    -1.9336831267771384e+00 1.1383524882500495e-02
    -2.5033311140691454e+00 1.1383524882500495e-02
    -2.5033311140691454e+00 1.0874160139676738e-02
    -2.3467983906946852e+00 9.2634548593924938e-03
    -1.8095606659964649e+00 9.4639237768500400e-03
    -1.8819316317727028e+00 1.2000766536701721e-02
    -2.6881992289150771e+00 1.1720887487190574e-02
    -2.6049403612586390e+00 1.0283802370138042e-02
    -2.1592446971887318e+00 1.5259417315969033e-02
    -3.6144869800612427e+00 1.0035470800313336e-02
    -2.0777567640923964e+00 1.0446628812173130e-02
    -2.2117621689259215e+00 9.3945270415858630e-03
    -1.8571428571428568e+00 1.0744562373146239e-02
    -2.3062611690158046e+00 1.0874160139676738e-02
    -2.3467983906946852e+00 1.1010389322537912e-02
    -2.3890777106850898e+00 1.0231928441234252e-02
    -2.1423686866978779e+00 1.0231928441234252e-02
    -2.1423686866978779e+00 9.2322079836264590e-03
    -1.7980572039670661e+00 1.0035470800313336e-02
    -2.0777567640923964e+00 1.1464355056698379e-02
    -2.5278114068249971e+00 1.2528810119980355e-02
    -2.8431203515386612e+00 1.2889963074634558e-02
    -2.9476921292578866e+00 1.2099823208015784e-02
    -2.7174648819470315e+00 1.1010389322537912e-02
    -2.3890777106850898e+00 1.1720887487190574e-02
    -2.6049403612586390e+00 1.1811429885271776e-02
    -2.6319712626228884e+00 1.0808562623379392e-02
    -2.3263199921511974e+00 1.0336851145358334e-02
    -2.1764287503300346e+00 9.3277451120483013e-03
    -1.8330302779823360e+00 9.8123711983957862e-03
    -2.0028715018376904e+00 9.7704676423905658e-03
    -1.9886038958388503e+00 9.4288905087049051e-03
    -1.8694505505160446e+00 7.9650787433816032e-03
    -1.1925695879998877e+00 7.8593609134773035e-03
    -9.3771549247497543e-01 1.0808562623379396e-02
    -4.2986347681054748e-01 8.0238004980227734e-03
    -8.0716488496164873e-01 7.8593609134773035e-03
    -9.3771549247497543e-01 7.8471837489720309e-03
    -9.6838926975559669e-01 7.8995214249067101e-03
    -1.1273124382057238e+00 8.6512764363871706e-03
    -1.5685399135238665e+00 9.5360677743421916e-03
    -1.9074322720192260e+00 1.1547458553407677e-02
    -2.5528888301902892e+00 9.8551459654527985e-03
    -2.0173664619648215e+00 9.7704676423905658e-03
    -1.9886038958388503e+00 9.0020856137567919e-03
    -1.7111189111011333e+00 1.1904680588950303e-02
    -2.6597131563524061e+00 1.4248366013071903e-02
    -3.3333333333333353e+00 1.1464355056698379e-02
    -2.5278114068249971e+00 9.8551459654527985e-03
    -2.0173664619648215e+00 1.1464355056698379e-02
    -2.5278114068249971e+00 1.3585283951342422e-02
    -3.1464265445104536e+00 1.2099823208015784e-02
    -2.7174648819470315e+00 1.1081150463295723e-02
    -2.4109126902482392e+00 1.0446628812173130e-02
    -2.2117621689259215e+00 1.0283802370138042e-02
    -2.1592446971887318e+00 1.0744562373146239e-02
    -2.3062611690158046e+00 1.0131559898481865e-02
    -2.1095023109728985e+00 1.1547458553407677e-02
    -2.5528888301902892e+00 1.0336851145358334e-02
    -2.1764287503300346e+00 1.1632934318867125e-02
    -2.5785893056121862e+00 1.2416316837537930e-02
    -2.8103307961294282e+00 1.2765419447850831e-02
    -2.9117453304788192e+00 1.0131559898481865e-02
    -2.1095023109728985e+00 1.1464355056698379e-02
    -2.5278114068249971e+00 1.2000766536701721e-02
    -2.6881992289150771e+00 9.9889516259651524e-03
    -2.0622832124111312e+00 1.0336851145358334e-02
    -2.1764287503300346e+00 1.2201995374674510e-02
    -2.7475479263960323e+00 1.0446628812173130e-02
    -2.2117621689259215e+00 1.0283802370138042e-02
    -2.1592446971887318e+00 1.0283802370138042e-02
    -2.1592446971887318e+00 1.0082996649296039e-02
    -2.0934937423796423e+00 8.0404624826708754e-03
    -1.2508820417421227e+00 7.8471837489720309e-03
    -9.6838926975559669e-01 1.3903142513152842e-02
    -3.0899415356066751e-01 8.1363903579735330e-03
    -7.6138698762688106e-01 7.9039936565011223e-03
    -8.8294497944928252e-01 7.8833834684707456e-03
    -9.0369611411506390e-01 7.8514020649412056e-03
    -1.0469736606781690e+00 8.2420530433282117e-03
    -1.3738330388162334e+00 9.4288905087049051e-03
    -1.8694505505160446e+00 9.6497500686973658e-03
    -1.9471026658111257e+00 8.9241312161856320e-03
    -1.6806431517454181e+00 8.8032532765133439e-03
    -1.6321352720343032e+00 9.4996437008617995e-03
    -1.8945906376340316e+00 1.3435561854078203e-02
    -3.1038921278716218e+00 9.9889516259651524e-03
    -2.0622832124111312e+00 1.1464355056698379e-02
    -2.5278114068249971e+00 1.2889963074634558e-02
    -2.9476921292578866e+00 1.2645109055838375e-02
    -2.8769073229217605e+00 1.1228316942206556e-02
    -2.4560655660051358e+00 1.1383524882500495e-02
    -2.5033311140691454e+00 1.1632934318867125e-02
    -2.5785893056121862e+00 1.0231928441234252e-02
    -2.1423686866978779e+00 1.2416316837537930e-02
    -2.8103307961294282e+00 1.1153768291304454e-02
    -2.4332354840078514e+00 1.1304874813316745e-02
    -2.4794235184023252e+00 1.1547458553407677e-02
    -2.5528888301902892e+00 1.0682102628126371e-02
    -2.2866069685390693e+00 1.2645109055838375e-02
    -2.8769073229217605e+00 1.3903142513152845e-02
    -3.2363071872933080e+00 1.1904680588950303e-02
    -2.6597131563524061e+00 1.0035470800313336e-02
    -2.0777567640923964e+00 9.2952958800462514e-03
    -1.8212170884241998e+00 1.1383524882500495e-02
    -2.5033311140691454e+00 1.1904680588950303e-02
    -2.6597131563524061e+00 1.0682102628126371e-02
    -2.2866069685390693e+00 9.9889516259651524e-03
    -2.0622832124111312e+00 9.6111017245192921e-03
    -1.9336831267771384e+00 1.1464355056698379e-02
    -2.5278114068249971e+00 1.0283802370138042e-02
    -2.1592446971887318e+00 1.0446628812173130e-02
    -2.2117621689259215e+00 8.2420530433282117e-03
    -1.3738330388162334e+00 7.8434673463250518e-03
    -9.9086738861372436e-01 1.3903142513152842e-02
    -3.0899415356066751e-01 8.3681310219832997e-03
    -6.9497711996792499e-01 7.9134694502908318e-03
    -8.7474692696506107e-01 7.8670941742495521e-03
    -9.2483466032376327e-01 7.8498297404906870e-03
    -1.0421729232300536e+00 8.1694793810181653e-03
    -1.3330679141342598e+00 8.8265654355234625e-03
    -1.6416197045105450e+00 9.9434096993562069e-03
    -2.0470652628766355e+00 9.9434096993562069e-03
    -2.0470652628766355e+00 8.9756269189555041e-03
    -1.7008401285415224e+00 1.1153768291304454e-02
    -2.4332354840078514e+00 1.2000766536701721e-02
    -2.6881992289150771e+00 1.3291486445451703e-02
    -3.0628340439782860e+00 1.3291486445451703e-02
    -3.0628340439782860e+00 1.0446628812173130e-02
    -2.2117621689259215e+00 1.0941414702894446e-02
    -2.3677121037112179e+00 1.1547458553407677e-02
    -2.5528888301902892e+00 1.3903142513152845e-02
    -3.2363071872933080e+00 1.1304874813316745e-02
    -2.4794235184023252e+00 1.3152726997911656e-02
    -3.0231663671920108e+00 1.3435561854078203e-02
    -3.1038921278716218e+00 1.2416316837537930e-02
    -2.8103307961294282e+00 1.2201995374674510e-02
    -2.7475479263960323e+00 1.0035470800313336e-02
    -2.0777567640923964e+00 1.2099823208015784e-02
    -2.7174648819470315e+00 1.3741013045913431e-02
    -3.1905308617042341e+00 1.0181192645934480e-02
    -2.1257909920244158e+00 1.0231928441234252e-02
    -2.1423686866978779e+00 1.1228316942206556e-02
    -2.4560655660051358e+00 1.0446628812173130e-02
    -2.2117621689259215e+00 1.1228316942206556e-02
    -2.4560655660051358e+00 1.1228316942206556e-02
    -2.4560655660051358e+00 1.1010389322537912e-02
    -2.3890777106850898e+00 9.5360677743421916e-03
    -1.9074322720192260e+00 1.1632934318867125e-02
    -2.5785893056121862e+00 1.0941414702894446e-02
    -2.3677121037112179e+00 1.0391113203990787e-02
    -2.1939310229205775e+00 1.0621129455075137e-02
    -2.2673431743832992e+00 7.9523183310609286e-03
    -1.1813570144560008e+00 7.9134694502908318e-03
    -8.7474692696506107e-01 2.3057087569369437e-02
    -1.7530790204692590e-01 9.0844263691377599e-03
    -5.7381904175700438e-01 8.0404624826708754e-03
    -7.9943589133895054e-01 7.8871569270682305e-03
    -8.9951577568455909e-01 7.8434673463250518e-03
    -1.0092167846991638e+00 8.0003139651191636e-03
    -1.2212405870378575e+00 8.1694793810181653e-03
    -1.3330679141342598e+00 8.4479324213343112e-03
    -1.4773224941849414e+00 9.2634548593924938e-03
    -1.8095606659964649e+00 9.4639237768500400e-03
    -1.8819316317727028e+00 9.0564748108176597e-03
    -1.7320508075688774e+00 1.0744562373146239e-02
    -2.3062611690158046e+00 1.1811429885271776e-02
    -2.6319712626228884e+00 1.1464355056698379e-02
    -2.5278114068249971e+00 1.1547458553407677e-02
    -2.5528888301902892e+00 1.1904680588950303e-02
    -2.6597131563524061e+00 1.0621129455075137e-02
    -2.2673431743832992e+00 1.1304874813316745e-02
    -2.4794235184023252e+00 1.1383524882500495e-02
    -2.5033311140691454e+00 1.2099823208015784e-02
    -2.7174648819470315e+00 1.2765419447850831e-02
    -2.9117453304788192e+00 1.1081150463295723e-02
    -2.4109126902482392e+00 1.4072102795919547e-02
    -3.2838671994743902e+00 1.1720887487190574e-02
    -2.6049403612586390e+00 1.0283802370138042e-02
    -2.1592446971887318e+00 1.0035470800313336e-02
    -2.0777567640923964e+00 9.6111017245192921e-03
    -1.9336831267771384e+00 1.2099823208015784e-02
    -2.7174648819470315e+00 1.0808562623379392e-02
    -2.3263199921511974e+00 9.5732141604469075e-03
    -1.9204614140905705e+00 1.0621129455075137e-02
    -2.2673431743832992e+00 1.0391113203990787e-02
    -2.1939310229205775e+00 1.1228316942206556e-02
    -2.4560655660051358e+00 1.0682102628126371e-02
    -2.2866069685390693e+00 1.0941414702894446e-02
    -2.3677121037112179e+00 9.1714428125115374e-03
    -1.7754945655734777e+00 9.9889516259651524e-03
    -2.0622832124111312e+00 9.3277451120483013e-03
    -1.8330302779823360e+00 7.9523183310609286e-03
    -1.1813570144560008e+00 8.2816945248864720e-03
    -7.1686043892021889e-01 2.1515905660495979e-02
    -1.8875765860412183e-01 1.5738020449111489e-02
    -2.6693270922288864e-01 8.1582191506332467e-03
    -7.5388681096104015e-01 7.9523183310609286e-03
    -8.4648415996453608e-01 7.8438800192186277e-03
    -9.8633193131573682e-01 7.8531409969349580e-03
    -1.0517985516422406e+00 8.1053389905217481e-03
    -1.2941586555623199e+00 8.1582191506332467e-03
    -1.3264590724504377e+00 8.3991712368835948e-03
    -1.4540583599999397e+00 9.2322079836264590e-03
    -1.7980572039670661e+00 1.0682102628126371e-02
    -2.2866069685390693e+00 1.0446628812173130e-02
    -2.2117621689259215e+00 8.9496453535970882e-03
    -1.6906824301583123e+00 9.3945270415858630e-03
    -1.8571428571428568e+00 1.0808562623379392e-02
    -2.3263199921511974e+00 8.2168881567571996e-03
    -1.3600269124595947e+00 9.3277451120483013e-03
    -1.8330302779823360e+00 1.2528810119980355e-02
    -2.8431203515386612e+00 1.3435561854078203e-02
    -3.1038921278716218e+00 1.0035470800313336e-02
    -2.0777567640923964e+00 1.1304874813316745e-02
    -2.4794235184023252e+00 1.1811429885271776e-02
    -2.6319712626228884e+00 1.0941414702894446e-02
    -2.3677121037112179e+00 1.5037673014823888e-02
    -3.5531676008879747e+00 1.2307437934369841e-02
    -2.7784887978899624e+00 1.1720887487190574e-02
    -2.6049403612586390e+00 9.7294114124999234e-03
    -1.9745572679703114e+00 9.6111017245192921e-03
    -1.9336831267771384e+00 9.0844263691377582e-03
    -1.7427096823731238e+00 1.0391113203990787e-02
    -2.1939310229205775e+00 1.1304874813316745e-02
    -2.4794235184023252e+00 1.1904680588950303e-02
    -2.6597131563524061e+00 1.1811429885271776e-02
    -2.6319712626228884e+00 1.1228316942206556e-02
    -2.4560655660051358e+00 8.8744679451545645e-03
    -1.6609095970747993e+00 1.0035470800313336e-02
    -2.0777567640923964e+00 9.5732141604469075e-03
    -1.9204614140905705e+00 8.6512764363871706e-03
    -1.5685399135238665e+00 7.8995214249067101e-03
    -1.1273124382057238e+00 1.3903142513152842e-02
    -3.0899415356066751e-01 1.8744965510679643e-02
    -2.1926450482675730e-01 1.7543141445930398e-02
    -2.3598744169812336e-01 8.3991712368835948e-03
    -6.8773030540537694e-01 8.0954302038788381e-03
    -7.7649286955553443e-01 7.9039936565011223e-03
    -8.8294497944928252e-01 7.8452010103265309e-03
    -9.7732131393551736e-01 8.0003139651191636e-03
    -1.2212405870378575e+00 8.0003139651191636e-03
    -1.2212405870378575e+00 8.2168881567571996e-03
    -1.3600269124595947e+00 8.2168881567571996e-03
    -1.3600269124595947e+00 9.0564748108176597e-03
    -1.7320508075688774e+00 1.0131559898481865e-02
    -2.1095023109728985e+00 1.0035470800313336e-02
    -2.0777567640923964e+00 1.0561591570726805e-02
    -2.2484562605386746e+00 1.0283802370138042e-02
    -2.1592446971887318e+00 1.0941414702894446e-02
    -2.3677121037112179e+00 1.1383524882500495e-02
    -2.5033311140691454e+00 1.3435561854078203e-02
    -3.1038921278716218e+00 1.3585283951342422e-02
    -3.1464265445104536e+00 1.1904680588950303e-02
    -2.6597131563524061e+00 9.8123711983957862e-03
    -2.0028715018376904e+00 1.0231928441234252e-02
    -2.1423686866978779e+00 1.1304874813316745e-02
    -2.4794235184023252e+00 1.2099823208015784e-02
    -2.7174648819470315e+00 1.3435561854078203e-02
    -3.1038921278716218e+00 1.5492541375668583e-02
    -3.6787679096857078e+00 1.2000766536701721e-02
    -2.6881992289150771e+00 1.0621129455075137e-02
    -2.2673431743832992e+00 1.1228316942206556e-02
    -2.4560655660051358e+00 1.1153768291304454e-02
    -2.4332354840078514e+00 1.1547458553407677e-02
    -2.5528888301902892e+00 1.1811429885271776e-02
    -2.6319712626228884e+00 1.0391113203990787e-02
    -2.1939310229205775e+00 1.0874160139676738e-02
    -2.3467983906946852e+00 9.7294114124999234e-03
    -1.9745572679703114e+00 1.0231928441234252e-02
    -2.1423686866978779e+00 8.5917625498872097e-03
    -1.5426746128851381e+00 9.0844263691377582e-03
    -1.7427096823731238e+00 7.8444578707144684e-03
    -9.8181666514882693e-01 1.2307437934369836e-02
    -3.5990787537434726e-01 2.2244675027150895e-02
    -1.8214103175901078e-01 1.8315239964059267e-02
    -2.2494979359526920e-01 1.2000766536701728e-02
    -3.7199623794386205e-01 8.1694793810181670e-03
    -7.5014932802537226e-01 7.9403039438841125e-03
    -8.5449325928220765e-01 7.9039936565011223e-03
    -8.8294497944928252e-01 7.8763541461023840e-03
    -1.0963668190985176e+00 8.0003139651191636e-03
    -1.2212405870378575e+00 7.9462185100255527e-03
    -1.1758034109502260e+00 8.1471903295079872e-03
    -1.3199008920293502e+00 8.3382255192014573e-03
    -1.4240006242195882e+00 8.8744679451545645e-03
    -1.6609095970747993e+00 9.6891795686362085e-03
    -1.9607254893136989e+00 1.0503440177617675e-02
    -2.2299333487183031e+00 9.2322079836264590e-03
    -1.7980572039670661e+00 1.0231928441234252e-02
    -2.1423686866978779e+00 9.2952958800462514e-03
    -1.8212170884241998e+00 9.4288905087049051e-03
    -1.8694505505160446e+00 1.1304874813316745e-02
    -2.4794235184023252e+00 1.4826437658587864e-02
    -3.4945845550109675e+00 1.0503440177617675e-02
    -2.2299333487183031e+00 1.2000766536701721e-02
    -2.6881992289150771e+00 1.3291486445451703e-02
    -3.0628340439782860e+00 1.0874160139676738e-02
    -2.3467983906946852e+00 9.9434096993562069e-03
    -2.0470652628766355e+00 1.0682102628126371e-02
    -2.2866069685390693e+00 1.0391113203990787e-02
    -2.1939310229205775e+00 1.0621129455075137e-02
    -2.2673431743832992e+00 1.1010389322537912e-02
    -2.3890777106850898e+00 9.4288905087049051e-03
    -1.8694505505160446e+00 1.1720887487190574e-02
    -2.6049403612586390e+00 1.1228316942206556e-02
    -2.4560655660051358e+00 9.5732141604469075e-03
    -1.9204614140905705e+00 8.8032532765133439e-03
    -1.6321352720343032e+00 8.8990751127837886e-03
    -1.6707197095342132e+00 8.7140808359807594e-03
    -1.5952164264307438e+00 8.3236883872813035e-03
    -1.4166497632527733e+00 8.6112453998790622e-03
    -1.5512092057488567e+00 8.7357776091634472e-03
    -6.2332578307585973e-01 1.3018979318073691e-02
    -3.3502969713024494e-01 2.2244675027150895e-02
    -1.8214103175901078e-01 2.1515905660495979e-02
    -1.8875765860412183e-01 1.7543141445930398e-02
    -2.3598744169812336e-01 8.8744679451545645e-03
    -6.0207972893961470e-01 8.2046752193374040e-03
    -7.3898531161325653e-01 7.9462185100255527e-03
    -8.5048230910628997e-01 7.9523183310609286e-03
    -8.4648415996453608e-01 7.8617699130475865e-03
    -1.0713464664764274e+00 7.9403039438841107e-03
    -1.1702842464082406e+00 8.4151271815960851e-03
    -1.4617423327939898e+00 8.6512764363871706e-03
    -1.5685399135238665e+00 8.1809736525739075e-03
    -1.3397282541141675e+00 1.0446628812173130e-02
    -2.2117621689259215e+00 1.0035470800313336e-02
    -2.0777567640923964e+00 1.1720887487190574e-02
    -2.6049403612586390e+00 1.2889963074634558e-02
    -2.9476921292578866e+00 1.0682102628126371e-02
    -2.2866069685390693e+00 9.7294114124999234e-03
    -1.9745572679703114e+00 1.0561591570726805e-02
    -2.2484562605386746e+00 1.0231928441234252e-02
    -2.1423686866978779e+00 9.7704676423905658e-03
    -1.9886038958388503e+00 1.1547458553407677e-02
    -2.5528888301902892e+00 1.3435561854078203e-02
    -3.1038921278716218e+00 1.2000766536701721e-02
    -2.6881992289150771e+00 1.0082996649296039e-02
    -2.0934937423796423e+00 1.0941414702894446e-02
    -2.3677121037112179e+00 1.0682102628126371e-02
    -2.2866069685390693e+00 1.1153768291304454e-02
    -2.4332354840078514e+00 1.0682102628126371e-02
    -2.2866069685390693e+00 8.6512764363871706e-03
    -1.5685399135238665e+00 1.2645109055838375e-02
    -2.8769073229217605e+00 9.8988168232437054e-03
    -2.0320954123037338e+00 1.0131559898481865e-02
    -2.1095023109728985e+00 9.5732141604469075e-03
    -1.9204614140905705e+00 9.2952958800462514e-03
    -1.8212170884241998e+00 8.8744679451545645e-03
    -1.6609095970747993e+00 8.3681310219832997e-03
    -1.4388962906378164e+00 7.8531409969349580e-03
    -1.0517985516422406e+00 1.0446628812173127e-02
    -4.5212817817822681e-01 1.3903142513152842e-02
    -3.0899415356066751e-01 2.2244675027150895e-02
    -1.8214103175901078e-01 2.1515905660495979e-02
    -1.8875765860412183e-01 2.0258852229827994e-02
    -2.0142689086308338e-01 1.5259417315969042e-02
    -2.7666443551086067e-01 8.4647907595652942e-03
    -6.7330032922413852e-01 8.0954302038788381e-03
    -7.7649286955553443e-01 7.9928801498762234e-03
    -8.2275335120744242e-01 7.8593609134773035e-03
    -9.3771549247497543e-01 7.8643475017040644e-03
    -1.0762972830887190e+00 7.8700104588954704e-03
    -1.0862780491200215e+00 8.1471903295079872e-03
    -1.3199008920293502e+00 8.1471903295079872e-03
    -1.3199008920293502e+00 8.5172456691536020e-03
    -1.5093692353833785e+00 8.9241312161856320e-03
    -1.6806431517454181e+00 9.0564748108176597e-03
    -1.7320508075688774e+00 9.8123711983957862e-03
    -2.0028715018376904e+00 1.2889963074634558e-02
    -2.9476921292578866e+00 1.1464355056698379e-02
    -2.5278114068249971e+00 1.3152726997911656e-02
    -3.0231663671920108e+00 1.2528810119980355e-02
    -2.8431203515386612e+00 1.1153768291304454e-02
    -2.4332354840078514e+00 1.1904680588950303e-02
    -2.6597131563524061e+00 1.3585283951342422e-02
    -3.1464265445104536e+00 1.2889963074634558e-02
    -2.9476921292578866e+00 1.2000766536701721e-02
    -2.6881992289150771e+00 9.6497500686973658e-03
    -1.9471026658111257e+00 9.4996437008617995e-03
    -1.8945906376340316e+00 1.2099823208015784e-02
    -2.7174648819470315e+00 1.1720887487190574e-02
    -2.6049403612586390e+00 1.0336851145358334e-02
    -2.1764287503300346e+00 1.1383524882500495e-02
    -2.5033311140691454e+00 9.3945270415858630e-03
    -1.8571428571428568e+00 8.5538324926250041e-03
    -1.5258585369585085e+00 8.6718370350064525e-03
    -1.5773395322504282e+00 9.0844263691377582e-03
    -1.7427096823731238e+00 8.4479324213343112e-03
    -1.4773224941849414e+00 8.0857384913775154e-03
    -1.2815710056115670e+00 8.3530384385938055e-03
    -6.9860905198009893e-01 1.3585283951342425e-02
    -3.1782086308186408e-01 1.3741013045913441e-02
    -3.1342746500369073e-01 2.9219947468897365e-02
    -1.3671718540493263e-01 2.1515905660495979e-02
    -1.8875765860412183e-01 2.0258852229827994e-02
    -2.0142689086308338e-01 1.8744965510679643e-02
    -2.1926450482675730e-01 1.0744562373146239e-02
    -4.3360223613648641e-01 8.2168881567572013e-03
    -7.3527956751349133e-01 8.0238004980227734e-03
    -8.0716488496164873e-01 8.0157725050798209e-03
    -8.1104542215962461e-01 7.8514020649412073e-03
    -9.5513386588183857e-01 7.8550468678517289e-03
    -1.0566479330263849e+00 7.8484237242897152e-03
    -1.0373960074101292e+00 8.0762616912287300e-03
    -1.2753454528465551e+00 8.1809736525739075e-03
    -1.3397282541141675e+00 8.8032532765133439e-03
    -1.6321352720343032e+00 9.8551459654527985e-03
    -2.0173664619648215e+00 9.2015416727741772e-03
    -1.7867030229749123e+00 9.5732141604469075e-03
    -1.9204614140905705e+00 9.8988168232437054e-03
    -2.0320954123037338e+00 9.4996437008617995e-03
    -1.8945906376340316e+00 9.0844263691377582e-03
    -1.7427096823731238e+00 9.7294114124999234e-03
    -1.9745572679703114e+00 9.9434096993562069e-03
    -2.0470652628766355e+00 9.8551459654527985e-03
    -2.0173664619648215e+00 1.0808562623379392e-02
    -2.3263199921511974e+00 1.0181192645934480e-02
    -2.1257909920244158e+00 9.4288905087049051e-03
    -1.8694505505160446e+00 8.6718370350064525e-03
    -1.5773395322504282e+00 1.1547458553407677e-02
    -2.5528888301902892e+00 9.4996437008617995e-03
    -1.8945906376340316e+00 9.0020856137567919e-03
    -1.7111189111011333e+00 8.5726268363378270e-03
    -1.5342249358702769e+00 8.7357776091634472e-03
    -1.6042975072608192e+00 8.7578670246377475e-03
    -1.6134763044817135e+00 9.2634548593924938e-03
    -1.8095606659964649e+00 8.8990751127837886e-03
    -1.6707197095342132e+00 7.9462185100255527e-03
    -1.1758034109502260e+00 7.8531409969349580e-03
    -9.5075240257617377e-01 9.3277451120483013e-03
    -5.4554472558998091e-01 1.3291486445451703e-02
    -3.2649499961189848e-01 2.1515905660495979e-02
    -1.8875765860412183e-01 2.2244675027150895e-02
    -1.8214103175901078e-01 2.1515905660495979e-02
    -1.8875765860412183e-01 1.9208855116382473e-02
    -2.1345619963044288e-01 1.8744965510679643e-02
    -2.1926450482675730e-01 1.6270570190810744e-02
    -2.5693320129296321e-01 1.1547458553407677e-02
    -3.9171310092866868e-01 8.3382255192014573e-03
    -7.0224688317678319e-01 8.0079442138397908e-03
    -8.1493689166988881e-01 7.9586046475842633e-03
    -8.4249861814048554e-01 7.8550468678517289e-03
    -9.4638901827580579e-01 7.8438800192186277e-03
    -1.0138574735850132e+00 7.8833834684707456e-03
    -1.1065666703449761e+00 8.3991712368835948e-03
    -1.4540583599999397e+00 8.6112453998790622e-03
    -1.5512092057488567e+00 8.9496453535970882e-03
    -1.6906824301583123e+00 8.7140808359807594e-03
    -1.5952164264307438e+00 9.4996437008617995e-03
    -1.8945906376340316e+00 9.3608171303419981e-03
    -1.8450041745319714e+00 1.0682102628126371e-02
    -2.2866069685390693e+00 9.4639237768500400e-03
    -1.8819316317727028e+00 1.1081150463295723e-02
    -2.4109126902482392e+00 1.0391113203990787e-02
    -2.1939310229205775e+00 9.4288905087049051e-03
    -1.8694505505160446e+00 9.1128971972380037e-03
    -1.7535011705556933e+00 9.4639237768500400e-03
    -1.8819316317727028e+00 1.0283802370138042e-02
    -2.1592446971887318e+00 1.0503440177617675e-02
    -2.2299333487183031e+00 1.0336851145358334e-02
    -2.1764287503300346e+00 8.8503008994653826e-03
    -1.6512103822637878e+00 8.5726268363378270e-03
    -1.5342249358702769e+00 8.4819591552537568e-03
    -1.4931944379850965e+00 9.2322079836264590e-03
    -1.7980572039670661e+00 9.3945270415858630e-03
    -1.8571428571428568e+00 9.0564748108176597e-03
    -1.7320508075688774e+00 8.1053389905217481e-03
    -1.2941586555623199e+00 7.8593609134773035e-03
    -9.3771549247497543e-01 8.3681310219832997e-03
    -6.9497711996792499e-01 1.0682102628126368e-02
    -4.3732920163315520e-01 1.3291486445451703e-02
    -3.2649499961189848e-01 2.1515905660495979e-02
    -1.8875765860412183e-01 2.9219947468897365e-02
    -1.3671718540493263e-01 2.2244675027150895e-02
    -1.8214103175901078e-01 1.9711601715399249e-02
    -2.0751433915982234e-01 1.8744965510679643e-02
    -2.1926450482675730e-01 1.7543141445930398e-02
    -2.3598744169812336e-01 1.7194600108097084e-02
    -2.4135539601273889e-01 1.0283802370138049e-02
    -4.6312490719646920e-01 8.2420530433282100e-03
    -7.2789048723246041e-01 8.0157725050798209e-03
    -8.1104542215962461e-01 7.9717419461856533e-03
    -8.3456458975606451e-01 7.8995214249067101e-03
    -8.8706552514548753e-01 7.8797827747836193e-03
    -1.1014526633238249e+00 7.8670941742495521e-03
    -1.0812743541098726e+00 7.9785956284609810e-03
    -1.2039261614597430e+00 8.1927046713225829e-03
    -1.3464409477605954e+00 9.0844263691377582e-03
    -1.7427096823731238e+00 8.8990751127837886e-03
    -1.6707197095342132e+00 9.5360677743421916e-03
    -1.9074322720192260e+00 1.0035470800313336e-02
    -2.0777567640923964e+00 1.1383524882500495e-02
    -2.5033311140691454e+00 1.0941414702894446e-02
    -2.3677121037112179e+00 1.0035470800313336e-02
    -2.0777567640923964e+00 9.3945270415858630e-03
    -1.8571428571428568e+00 1.0082996649296039e-02
    -2.0934937423796423e+00 8.8503008994653826e-03
    -1.6512103822637878e+00 9.5732141604469075e-03
    -1.9204614140905705e+00 9.0020856137567919e-03
    -1.7111189111011333e+00 9.7704676423905658e-03
    -1.9886038958388503e+00 9.8123711983957862e-03
    -2.0028715018376904e+00 9.7704676423905658e-03
    -1.9886038958388503e+00 9.0844263691377582e-03
    -1.7427096823731238e+00 9.3277451120483013e-03
    -1.8330302779823360e+00 9.0564748108176597e-03
    -1.7320508075688774e+00 8.1809736525739075e-03
    -1.3397282541141675e+00 7.8431372549019607e-03 -1.
    8.4313794237794309e-03 -6.8050514202476642e-01
    9.2015416727741807e-03 -5.5969010358250293e-01
    1.1304874813316738e-02 -4.0331955899344468e-01
    2.0258852229827994e-02 -2.0142689086308338e-01
    2.0857472147331396e-02 -1.9518001458970663e-01
    3.1201009285332353e-02 -1.2773807700531709e-01
    2.6196393733691221e-02 -1.5321285325897388e-01
    1.9711601715399249e-02 -2.0751433915982234e-01
    1.9208855116382473e-02 -2.1345619963044288e-01
    1.7194600108097084e-02 -2.4135539601273889e-01
    1.7194600108097084e-02 -2.4135539601273889e-01
    1.7194600108097084e-02 -2.4135539601273889e-01
    1.1010389322537908e-02 -4.1857156656207761e-01
    8.2682238550020170e-03 -7.2053019580459088e-01
    8.0762616912287317e-03 -7.8410127841677113e-01
    8.0762616912287317e-03 -7.8410127841677113e-01
    7.8434673463250518e-03 -9.9086738861372436e-01
    7.8871569270682305e-03 -1.1117092407178397e+00
    8.0003139651191636e-03 -1.2212405870378575e+00
    8.2293464238784898e-03 -1.3669019908653217e+00
    8.7803563992094064e-03 -1.6227548592850778e+00
    8.7140808359807594e-03 -1.5952164264307438e+00
    8.8990751127837886e-03 -1.6707197095342132e+00
    1.0181192645934480e-02 -2.1257909920244158e+00
    1.0035470800313336e-02 -2.0777567640923964e+00
    9.2015416727741772e-03 -1.7867030229749123e+00
    9.2952958800462514e-03 -1.8212170884241998e+00
    8.3991712368835948e-03 -1.4540583599999397e+00
    9.4639237768500400e-03 -1.8819316317727028e+00
    1.0391113203990787e-02 -2.1939310229205775e+00
    9.5360677743421916e-03 -1.9074322720192260e+00
    9.7294114124999234e-03 -1.9745572679703114e+00
    9.7294114124999234e-03 -1.9745572679703114e+00
    8.9756269189555041e-03 -1.7008401285415224e+00
    8.9496453535970882e-03 -1.6906824301583123e+00
    9.0844263691377582e-03 -1.7427096823731238e+00
    8.2168881567571996e-03 -1.3600269124595947e+00
    8.1582191506332467e-03 -1.3264590724504377e+00
    7.8471837489720309e-03 -9.6838926975559669e-01
    8.3530384385938055e-03 -6.9860905198009893e-01
    8.8265654355234608e-03 -6.0915448154793794e-01
    1.0682102628126368e-02 -4.3732920163315520e-01
    1.6270570190810744e-02 -2.5693320129296321e-01
    2.0258852229827994e-02 -2.0142689086308338e-01
    2.6196393733691221e-02 -1.5321285325897388e-01
    2.9219947468897365e-02 -1.3671718540493263e-01
    2.6196393733691221e-02 -1.5321285325897388e-01
    2.5006649170151295e-02 -1.6087993330796876e-01
    1.9208855116382473e-02 -2.1345619963044288e-01
    1.8315239964059267e-02 -2.2494979359526920e-01
    1.8315239964059267e-02 -2.2494979359526920e-01
    1.8315239964059267e-02 -2.2494979359526920e-01
    1.8315239964059267e-02 -2.2494979359526920e-01
    1.0336851145358336e-02 -4.5946829173634074e-01
    8.4994424609015490e-03 -6.6611456167203187e-01
    8.3382255192014573e-03 -7.0224688317678319e-01
    8.1053389905217481e-03 -7.7270278702072592e-01
    7.9856412082207947e-03 -8.2667870626845308e-01
    7.8952251160478194e-03 -1.1220817071465667e+00
    7.9290258255464048e-03 -1.1593472394004203e+00
    8.1694793810181653e-03 -1.3330679141342598e+00
    8.6112453998790622e-03 -1.5512092057488567e+00
    8.8990751127837886e-03 -1.6707197095342132e+00
    8.7803563992094064e-03 -1.6227548592850778e+00
    9.5732141604469075e-03 -1.9204614140905705e+00
    9.1714428125115374e-03 -1.7754945655734777e+00
    9.2634548593924938e-03 -1.8095606659964649e+00
    9.0844263691377582e-03 -1.7427096823731238e+00
    1.0621129455075137e-02 -2.2673431743832992e+00
    9.5732141604469075e-03 -1.9204614140905705e+00
    1.0231928441234252e-02 -2.1423686866978779e+00
    8.8744679451545645e-03 -1.6609095970747993e+00
    9.7704676423905658e-03 -1.9886038958388503e+00
    9.0290314595091459e-03 -1.7215215257545764e+00
    9.0564748108176597e-03 -1.7320508075688774e+00
    8.3236883872813035e-03 -1.4166497632527733e+00
    7.9856412082207947e-03 -1.2096598018278495e+00
    7.8531409969349580e-03 -1.0517985516422406e+00
    8.3991712368835948e-03 -6.8773030540537694e-01
    8.7140808359807576e-03 -6.2687418674434969e-01
    9.5732141604469058e-03 -5.2070819682339076e-01
    1.4248366013071894e-02 -2.9999999999999993e-01
    1.7194600108097084e-02 -2.4135539601273889e-01
    2.5006649170151295e-02 -1.6087993330796876e-01
    3.3661731833113412e-02 -1.1812488464372367e-01
    3.1201009285332353e-02 -1.2773807700531709e-01
    2.7581070387474600e-02 -1.4518017554874818e-01
    2.6196393733691221e-02 -1.5321285325897388e-01
    2.3057087569369437e-02 -1.7530790204692590e-01
    1.8744965510679643e-02 -2.1926450482675730e-01
    1.9208855116382473e-02 -2.1345619963044288e-01
    1.9208855116382473e-02 -2.1345619963044288e-01
    1.9208855116382473e-02 -2.1345619963044288e-01
    1.9711601715399249e-02 -2.0751433915982234e-01
    2.0258852229827994e-02 -2.0142689086308338e-01
    9.7294114124999269e-03 -5.0644264221716939e-01
    8.8032532765133405e-03 -6.1269431347659931e-01
    8.2420530433282100e-03 -7.2789048723246041e-01
    8.0762616912287317e-03 -7.8410127841677113e-01
    7.8471837489720309e-03 -9.6838926975559669e-01
    7.8911038858869506e-03 -1.1168807816469810e+00
    7.9586046475842633e-03 -1.1869455669935018e+00
    8.1809736525739075e-03 -1.3397282541141675e+00
    9.2322079836264590e-03 -1.7980572039670661e+00
    9.0844263691377582e-03 -1.7427096823731238e+00
    9.1418987344156436e-03 -1.7644283910575147e+00
    1.0131559898481865e-02 -2.1095023109728985e+00
    9.5360677743421916e-03 -1.9074322720192260e+00
    9.8551459654527985e-03 -2.0173664619648215e+00
    9.8551459654527985e-03 -2.0173664619648215e+00
    1.0283802370138042e-02 -2.1592446971887318e+00
    1.0131559898481865e-02 -2.1095023109728985e+00
    9.3608171303419981e-03 -1.8450041745319714e+00
    8.3530384385938072e-03 -1.4314157498613218e+00
    7.9785956284609810e-03 -1.2039261614597430e+00
    7.8643475017040644e-03 -1.0762972830887190e+00
    8.0079442138397908e-03 -8.1493689166988881e-01
    8.5172456691536020e-03 -6.6252841025079001e-01
    8.7578670246377475e-03 -6.1977978680091217e-01
    1.0035470800313336e-02 -4.8128828998750423e-01
    1.8315239964059267e-02 -2.2494979359526920e-01
    1.7915741926104713e-02 -2.3052135826937484e-01
    2.0258852229827994e-02 -2.0142689086308338e-01
    2.5006649170151295e-02 -1.6087993330796876e-01
    2.9219947468897365e-02 -1.3671718540493263e-01 1. 0.
    4.7439678080272212e-02 -8.3237049842679461e-02
    4.1131489765796871e-02 -9.6225044864937631e-02
    3.6831776922671249e-02 -1.0770760453304093e-01
    3.3661731833113412e-02 -1.1812488464372367e-01
    2.5006649170151295e-02 -1.6087993330796876e-01
    2.5006649170151295e-02 -1.6087993330796876e-01
    2.3970260704326601e-02 -1.6823164622761330e-01
    2.3970260704326601e-02 -1.6823164622761330e-01
    2.3970260704326601e-02 -1.6823164622761330e-01
    1.9711601715399249e-02 -2.0751433915982234e-01
    1.5259417315969042e-02 -2.7666443551086067e-01
    9.2322079836264608e-03 -5.5615583185768114e-01
    8.2954265073876040e-03 -7.1319739135189064e-01
    8.1471903295079872e-03 -7.5763264199518654e-01
    7.9717419461856533e-03 -8.3456458975606451e-01
    7.8452010103265309e-03 -9.7732131393551736e-01
    7.8484237242897152e-03 -1.0373960074101292e+00
    7.9345734345096924e-03 -1.1647990198986076e+00
    7.8833834684707456e-03 -1.1065666703449761e+00
    8.3835072552351595e-03 -1.4464434249428095e+00
    8.8032532765133439e-03 -1.6321352720343032e+00
    9.1128971972380037e-03 -1.7535011705556933e+00
    8.9756269189555041e-03 -1.7008401285415224e+00
    8.6512764363871706e-03 -1.5685399135238665e+00
    8.6927696069850173e-03 -1.5862310778250641e+00
    8.1363903579735330e-03 -1.3133925536563698e+00
    8.2046752193374040e-03 -1.3532068693177814e+00
    7.8763541461023840e-03 -1.0963668190985176e+00
    7.9928801498762234e-03 -8.2275335120744242e-01
    8.4313794237794309e-03 -6.8050514202476642e-01
    9.1128971972380037e-03 -5.7028761473999756e-01
    1.0561591570726801e-02 -4.4474958999666070e-01
    1.2000766536701728e-02 -3.7199623794386205e-01
    2.0258852229827994e-02 -2.0142689086308338e-01
    2.0258852229827994e-02 -2.0142689086308338e-01
    2.6196393733691221e-02 -1.5321285325897388e-01
    2.6196393733691221e-02 -1.5321285325897388e-01
    3.3661731833113412e-02 -1.1812488464372367e-01
    4.1131489765796871e-02 -9.6225044864937631e-02
    8.1978823312795088e-02 -4.7946330148538413e-02
    4.1131489765796871e-02 -9.6225044864937631e-02
    4.1131489765796871e-02 -9.6225044864937631e-02
    4.1131489765796871e-02 -9.6225044864937631e-02
    4.1131489765796871e-02 -9.6225044864937631e-02
    4.7439678080272212e-02 -8.3237049842679461e-02
    2.7581070387474600e-02 -1.4518017554874818e-01
    2.7581070387474600e-02 -1.4518017554874818e-01
    2.7581070387474600e-02 -1.4518017554874818e-01
    2.6196393733691221e-02 -1.5321285325897388e-01
    2.6196393733691221e-02 -1.5321285325897388e-01
    2.6196393733691221e-02 -1.5321285325897388e-01
    2.0857472147331396e-02 -1.9518001458970663e-01
    1.5738020449111489e-02 -2.6693270922288864e-01
    9.4639237768500382e-03 -5.3136893132405727e-01
    8.9241312161856302e-03 -5.9501030838191804e-01
    8.1694793810181670e-03 -7.5014932802537226e-01
    8.0857384913775136e-03 -7.8029230968969920e-01
    8.0320299030224376e-03 -8.0329510073691146e-01
    8.0238004980227734e-03 -8.0716488496164873e-01
    7.8952251160478177e-03 -8.9120069744562702e-01
    7.9236600017413422e-03 -8.6660487886017412e-01
    8.1694793810181670e-03 -7.5014932802537226e-01
    8.0079442138397908e-03 -8.1493689166988881e-01
    7.8484237242897135e-03 -9.6395204228374809e-01
    7.8763541461023840e-03 -9.1210348815759035e-01
    7.8670941742495521e-03 -9.2483466032376327e-01
    8.2168881567572013e-03 -7.3527956751349133e-01
    8.7140808359807576e-03 -6.2687418674434969e-01
    8.7578670246377475e-03 -6.1977978680091217e-01
    9.2015416727741807e-03 -5.5969010358250293e-01
    1.0035470800313336e-02 -4.8128828998750423e-01
    2.0857472147331396e-02 -1.9518001458970663e-01
    2.0857472147331396e-02 -1.9518001458970663e-01
    2.0857472147331396e-02 -1.9518001458970663e-01
    2.5006649170151295e-02 -1.6087993330796876e-01
    2.7581070387474600e-02 -1.4518017554874818e-01
    2.7581070387474600e-02 -1.4518017554874818e-01
    3.6831776922671249e-02 -1.0770760453304093e-01
    4.1131489765796871e-02 -9.6225044864937631e-02</input_scale>
  <output_scale>
    1.0526315789473684e+00 0.</output_scale>
  <inv_output_scale>
    9.4999999999999996e-01 0.</inv_output_scale>
  <weights>
    <_>
      -1.1719048386403424e-03 -2.2903224389177911e-04
      -9.9637750405231888e-04 -5.5088375721748159e-04
      2.2039270841974236e-04 1.2144499427915077e-03
      9.9728247011042037e-04 2.0453599492093418e-04
      -7.2831549546728146e-04 -4.2920232853557353e-04
      -1.1054717958401724e-03 -1.2409612586460942e-04
      -2.1397120762249158e-05 -7.8018402384446585e-04
      6.7194088742161514e-04 -1.1208781013474275e-03
      1.1037170489498088e-03 1.0083693640301039e-03
      -2.5698247005999147e-04 -3.4383640164285737e-05
      3.0002183913935715e-04 -7.7645728251324352e-04
      -6.5397802009701264e-04 9.5527311481024093e-04
      -1.0954164450422850e-03 -3.1663012947851025e-04
      6.1523554708813478e-04 -6.3403300196013517e-04
      1.0630743572223426e-03 -2.4215284090006096e-04
      1.2150750992007805e-03 -3.7732545206526025e-04
      2.2581237915161135e-04 8.1166924113520002e-04
      1.1322676431532379e-03 5.1786688077618958e-04
      8.1904968067006900e-04 5.2277548999592920e-04
      1.2256443938238879e-03 -1.5902424652943092e-04
      5.7457565125496962e-02 9.5857348080456255e-03
      7.7747566180765820e-03 6.7169881324784702e-03
      -8.4875675258942185e-03 6.8835546643287050e-03
      -9.4334110685571852e-03 -7.1185361828154624e-03
      -4.1566525718970161e-03 1.0801355214249679e-02
      7.0436204921850362e-03 8.3139463683200767e-03
      8.5133962456276305e-03 -6.3785870437532855e-03
      -1.4733126202996201e-03 7.8420658576486245e-03
      -5.3210710780728834e-03 6.7242009261241882e-03
      -1.2259845167836087e-02 1.2152857771484544e-02
      -6.5839311001116294e-03 7.6298714042630413e-03
      5.6711754227907526e-03 9.3987206258502910e-03
      7.8527549642717440e-03 -6.2835619430822495e-03
      1.0317318933097057e-02 -1.1369166634151323e-02
      7.9387696351961440e-03 7.7441601121809893e-03
      -8.5650183467109904e-03 -9.4810064191687676e-03
      1.0722117208817092e-02 7.1202822638008999e-03
      6.5125344025775906e-03 7.6442774783272239e-03
      9.1431736909294795e-03 6.3600612171113126e-03
      -1.0135741984547902e-02 -8.5244784829116658e-03
      6.4829493830454443e-02 9.6987655934550592e-03
      8.1685724067559595e-03 6.1752936988738790e-03
      -7.6314395139905978e-03 8.9768252368141802e-03
      -8.3413018007592200e-03 -7.6109602847622589e-03
      -5.6061903949312835e-03 1.1037039852886191e-02
      6.7913636780759339e-03 6.2041690882037480e-03
      8.4582826868021734e-03 -7.2989533055708997e-03
      -1.4779645625838604e-03 6.1753940407986976e-03
      -4.6979154378512323e-03 7.1288049623465556e-03
      -1.2234389466474670e-02 1.1996440830827515e-02
      -6.0932887995305517e-03 7.6425001082767773e-03
      5.0177661016306907e-03 9.2051120805287084e-03
      7.1555149266290616e-03 -4.2423572716987074e-03
      1.0032046557344540e-02 -1.1469384104213123e-02
      8.4670473534713547e-03 7.6380552365043954e-03
      -7.6365570636799211e-03 -1.0485895822725758e-02
      1.0885674750435574e-02 5.6301733844078636e-03
      7.1871329250458851e-03 8.9081697327548191e-03
      7.2413555955134785e-03 6.9646501313645722e-03
      -1.0400663850680912e-02 -7.5264072276604258e-03
      3.6444662423641243e-02 7.8469033259848942e-03
      6.4355562181794080e-03 5.0868393275477781e-03
      -5.1400475622871448e-03 5.8723146446044757e-03
      -5.0989981469344242e-03 -5.9030263167045589e-03
      -4.3849238246371387e-03 7.7401991404218726e-03
      6.1841965948190962e-03 5.6594725288304920e-03
      6.3475092311485980e-03 -5.1775048748746149e-03
      -4.9188848419423050e-04 6.3415777608397698e-03
      -4.2829810123951907e-03 5.1309636833887680e-03
      -8.8860893049001535e-03 6.9514529597371286e-03
      -4.3322215565760698e-03 5.5222350792148572e-03
      6.2329298574436047e-03 5.6312277074148098e-03
      7.1626325905747535e-03 -5.6518915326659895e-03
      6.9470918094788597e-03 -8.3722308292065884e-03
      6.6425470785350217e-03 6.7922506284321350e-03
      -5.4398116392588491e-03 -5.9474055777971688e-03
      9.4969771297327907e-03 4.0515481043717546e-03
      5.0417674294668813e-03 5.9608720379061121e-03
      6.7888811103400419e-03 5.4222235958379219e-03
      -5.7600922605138705e-03 -6.3768363672042682e-03
      4.0776105139518459e-01 1.1850596163282683e-01
      9.4312355082127639e-02 4.5861588994658434e-02
      -9.0164506286781881e-02 3.4234873489928964e-02
      -4.5611670540133813e-02 -7.6676720026914363e-02
      -1.9711763939353505e-02 1.1325957510931274e-01
      4.3671515461639707e-02 7.8093965082713018e-02
      4.6315498619904819e-02 -5.7093628165075558e-02
      -1.1846318250029960e-02 4.0132384560166955e-02
      -1.9850330654758899e-02 6.7923624406858965e-02
      -1.0604631629655135e-01 1.1187072238325813e-01
      -7.5150959575361456e-02 2.8073145824544416e-02
      1.9376572696756255e-02 9.3527019581316470e-02
      4.1788336136335112e-02 -2.4934674329553676e-02
      1.2571172457863494e-01 -1.1673468026711978e-01
      4.4571054120925352e-02 4.2252300778506911e-02
      -1.0029505581026435e-01 -1.2400663162508259e-01
      1.2462666098589852e-01 4.6756386152889705e-02
      5.8755023158848722e-02 2.8157901073488856e-02
      9.2230630453601928e-02 5.3642830820471242e-02
      -1.0331177481742512e-01 -8.8118471627089440e-02
      4.0818681556115127e-01 1.1713496898037375e-01
      9.5163122152281884e-02 4.6491517648468567e-02
      -8.9020420068031833e-02 3.2885472467136488e-02
      -4.6122498603698971e-02 -7.7134230605040613e-02
      -1.9558898789031304e-02 1.1347374936130432e-01
      4.2430891130950894e-02 7.7685686098864545e-02
      4.6509373630766834e-02 -5.7499825563976703e-02
      -1.0246740978468047e-02 4.0590682780599747e-02
      -2.0550074141897745e-02 6.6526030524518595e-02
      -1.0796993381149783e-01 1.1171892829491220e-01
      -7.5141375296873564e-02 2.9463730311692516e-02
      2.0804143858318816e-02 9.3639863807393628e-02
      3.9797936522500903e-02 -2.5629988765455313e-02
      1.2731329710786538e-01 -1.1749106939142642e-01
      4.5064990818790264e-02 4.2527135692537660e-02
      -1.0094203945727837e-01 -1.2410529864369800e-01
      1.2610369835857491e-01 4.7655406912931873e-02
      5.9964764694800145e-02 2.8064074804554969e-02
      9.3009523386779716e-02 5.3629624092461699e-02
      -1.0225612426123716e-01 -8.9544124182073206e-02
      2.4469781264098495e-01 4.7128554029038421e-02
      4.1151993732850028e-02 2.2375828753388408e-02
      -3.8300067174055298e-02 1.8087106606368555e-02
      -2.3234479880647103e-02 -3.4262797232196218e-02
      -1.3006950339913628e-02 3.8520309932639357e-02
      2.1533673175238615e-02 3.3309857721516525e-02
      2.1905161173250240e-02 -2.4202159250741265e-02
      -1.0134410274228815e-02 2.2173727985254944e-02
      -1.5309784494817987e-02 2.6837048843134727e-02
      -3.6156001391446049e-02 3.6549111266961802e-02
      -3.0959837108610291e-02 1.8341270235148664e-02
      1.5305305597181153e-02 3.9551060366041516e-02
      2.0260831062007243e-02 -1.5160482143762238e-02
      4.8337636085066769e-02 -4.7266335033684555e-02
      2.1086203169486145e-02 2.2229396669096107e-02
      -4.2146527766725478e-02 -4.6569002709507451e-02
      2.6724537171425037e-02 2.0664706427439058e-02
      2.6664727571476709e-02 1.7418768645204308e-02
      3.9179666198540415e-02 2.4089688992747951e-02
      -4.5491126193470406e-02 -3.7930915837211129e-02
      2.4489136890202429e-01 4.7111011001277715e-02
      3.8923418200912524e-02 2.1084626939887597e-02
      -3.8181454413827920e-02 1.9647555517610920e-02
      -2.1645097202495339e-02 -3.2926362579861278e-02
      -1.2605423969803353e-02 3.8257356617876027e-02
      2.3024873413855999e-02 3.4065807099092307e-02
      2.0959043258178697e-02 -2.3673798972306929e-02
      -9.9487531868521165e-03 2.0410757558706638e-02
      -1.5535947532277957e-02 2.8211747115436021e-02
      -3.6441253920900307e-02 3.6186213070315817e-02
      -3.0521743841945271e-02 1.6705230530358387e-02
      1.4948802365561982e-02 4.0647433775208505e-02
      2.1361457969359735e-02 -1.7380510054049930e-02
      4.7104745136424549e-02 -4.9062220551366498e-02
      2.2388933915000433e-02 2.1788518434347304e-02
      -4.3882726342483691e-02 -4.7721313320575470e-02
      2.7015005678935371e-02 2.1036128537073578e-02
      2.5946568524626953e-02 1.7093457867317068e-02
      4.0472661138891725e-02 2.2865172771508756e-02
      -4.3551520229341160e-02 -3.7514359637068243e-02
      -2.8679015882250899e-02 -2.1279294473498965e-03
      -4.0260274390123210e-03 -3.2493853135440736e-03
      2.7450963137300058e-03 -1.2038114746637985e-02
      6.4579727389083765e-03 3.2596623939007657e-03
      9.4615557383223806e-03 -1.4740384046317310e-02
      -9.5292566117977980e-03 -3.1235398811619445e-03
      -7.4422592830709596e-03 2.2060133718335742e-04
      8.1788819770969769e-03 -1.0681709738492423e-02
      1.0737622902706172e-02 -4.1567925322618807e-03
      1.3071429996565263e-02 -1.3404319734161570e-02
      3.5178392059889564e-03 -1.3701332007263914e-02
      -7.7371738428888195e-03 -5.6790133025925154e-03
      -1.0890014564872047e-02 1.3099211130701026e-02
      -8.4262382159661347e-03 1.5695016279756297e-02
      -6.6436139185839490e-03 -9.4229203511707570e-03
      2.8165864563066590e-03 7.3094901404093526e-03
      -8.3437973248376915e-03 -2.8346312287083398e-03
      -2.8861424956349627e-03 -1.2977664909230567e-02
      -4.2098231935542496e-03 -3.0911508328491126e-03
      2.6268837805282818e-03 4.9954546115552004e-03
      2.4485716136718227e-01 4.6782276861476825e-02
      4.0556181194947777e-02 2.0980827377623038e-02
      -3.7460838421523125e-02 1.8871906125254020e-02
      -2.2696850869224506e-02 -3.3558532947797488e-02
      -1.4970414396875745e-02 3.8637827494079451e-02
      2.2025092046204162e-02 3.3847231325137304e-02
      2.1264688242314714e-02 -2.3880133297594749e-02
      -9.4808542109697577e-03 2.0394950350019342e-02
      -1.3792892359607256e-02 2.9173912323680735e-02
      -3.5651702957829962e-02 3.6461455387771263e-02
      -3.0884752520978862e-02 1.7594236247118800e-02
      1.3105817768016045e-02 4.0001380904903044e-02
      2.2457259994714710e-02 -1.5758303160030872e-02
      4.8193065510798751e-02 -4.7761888844235705e-02
      2.1132666503798647e-02 2.2062119725418564e-02
      -4.2841971074205933e-02 -4.7823373351188733e-02
      2.6251660808324962e-02 2.1562668935241287e-02
      2.5814719905507724e-02 1.5054336867200585e-02
      4.0312653741650724e-02 2.3974029301775234e-02
      -4.5643956095427270e-02 -3.8263149583576322e-02
      9.7573140260882769e-03 -8.5273437532687338e-04
      -1.7776757546463548e-03 -1.9790753418713223e-03
      2.8830486236103153e-03 -8.6832662499896386e-03
      3.6611431804314818e-03 1.6975824304794227e-03
      7.3284091066392271e-03 -1.0718363396050899e-02
      -4.7610873507061349e-03 -2.5862942001134725e-03
      -3.7700344155189810e-03 6.6127647811240300e-04
      5.1151359721250617e-03 -7.6005359750547898e-03
      7.4357250884057339e-03 -3.2233142721301033e-03
      9.8825254504099156e-03 -1.1002010730394907e-02
      8.5362837177052869e-04 -8.7391869257178196e-03
      -4.8556119608147031e-03 -2.1135850498227556e-03
      -7.3395100060599551e-03 1.1241405374919198e-02
      -7.0683633359672343e-03 1.2409989718469305e-02
      -3.5883071093459197e-03 -6.8984660780916224e-03
      1.1348811369597393e-03 4.9254686495452532e-03
      -5.0856590668743595e-03 -1.4683490882245469e-03
      -1.6753817368683663e-03 -1.0865836848584214e-02
      -2.3721336160895234e-03 9.0203469288661632e-05
      7.3356876558785947e-04 2.6457220924582716e-03
      -2.9562566159499440e-02 -2.0365341952366346e-03
      -3.1257307811438100e-03 -4.3314193332158156e-03
      2.6403776992488192e-03 -1.3298848051920291e-02
      6.9433891122704129e-03 4.9958357080039182e-03
      9.7893214177576255e-03 -1.5355452010372524e-02
      -8.3564771667017073e-03 -4.3975699996861703e-03
      -6.2634907767502605e-03 2.5046751929422122e-04
      7.9581412039027525e-03 -9.0134325251216563e-03
      1.0138039021919308e-02 -2.7677097016661940e-03
      1.4339793305870397e-02 -1.1986700992322324e-02
      3.7012713414072904e-03 -1.2648276383117567e-02
      -9.9453257551042860e-03 -3.8656215489884091e-03
      -9.9115680617237294e-03 1.4521207286432566e-02
      -9.1163731968258426e-03 1.4995497417851320e-02
      -5.0433898370775389e-03 -1.1289445500546726e-02
      3.8213750955217369e-03 8.0312654255034113e-03
      -7.5577008216304248e-03 -3.5522481250980513e-03
      -1.0428422297816347e-03 -1.3341005511847496e-02
      -4.4871039258999592e-03 -3.6042725411192566e-03
      4.2914836677905117e-03 4.7685434077021100e-03
      1.7236616520011624e-01 -4.4785226600675878e-03
      -3.2152785769133819e-03 7.7381180959356878e-03
      1.7622968071576701e-03 2.0993660154589111e-03
      -7.4120239133261944e-03 8.4678036250435693e-04
      -8.9953643010472640e-04 -1.0275674522572123e-02
      4.7493861940172541e-03 8.0013565080426442e-04
      6.4187417847153087e-03 -4.9661359546546626e-03
      -1.0578531396656791e-03 4.9432252596519708e-03
      -2.4586606088107094e-03 4.8943219338958260e-04
      8.4656289378632066e-03 -9.5857564639959172e-03
      5.1064298374601321e-04 1.2011670445449811e-03
      3.7043762141273193e-03 -2.5808618981629271e-03
      3.4725345984581491e-03 -1.0496230243895457e-03
      -7.9363857120813789e-03 1.1307466302880837e-02
      6.2289544320156829e-03 4.9519399729660322e-03
      1.9457435201064514e-03 6.6817377940171663e-03
      -2.1376040286883295e-03 6.3007670779815818e-03
      3.2860337402869119e-03 1.3326822929946619e-03
      -4.1126422066932507e-03 5.6619064181223037e-03
      3.6697356286223217e-03 1.4260406404885953e-03
      -4.4995635005611284e-01 1.3625777898621599e-02
      1.3833694325383523e-02 -1.3472783451305452e-02
      -1.5119238017182811e-02 -2.2732946008043080e-02
      2.0711774673371198e-02 -1.2258826845608101e-02
      2.0330678782129203e-02 1.1630358552754612e-02
      -2.0861765320139398e-02 1.2805166677994454e-02
      -1.9320302223453708e-02 -1.3564968994837865e-02
      1.8122720492198170e-02 -2.0975280426190616e-02
      2.0502468027231473e-02 1.0333278567465133e-02
      -1.2634763518852106e-02 1.2697864229837753e-02
      -1.3772782513600040e-02 -2.3026953557846591e-02
      -2.1938046239027207e-02 1.3443282443965334e-02
      -2.0916178458796474e-02 2.5963974313865650e-02
      1.2251485615551441e-02 -9.4707245334013056e-03
      -1.6945426315626656e-02 -2.2166504279500843e-02
      -1.4602055833320913e-02 -1.1851985110430428e-02
      1.7825770417065637e-02 -6.7486234363615385e-03
      1.2769070884879259e-02 -2.7714538677354888e-02
      1.2046359680430463e-02 8.7515483621530953e-03
      -1.5385598092704808e-02 -1.2814858050287441e-02
      -2.6694231656445838e-01 -1.2445046272353408e-02
      -1.5670704820224580e-02 -1.0969881430159789e-02
      8.9918646687475959e-03 1.1677454603739776e-03
      8.4174329219613361e-03 9.0291230106625368e-03
      -1.3527132372788209e-03 -7.3209910369171315e-03
      -5.3408917081596312e-03 -8.1586798337616520e-03
      -7.0433803095324276e-03 1.9006650864097245e-02
      -3.8062990374776282e-03 -5.0364150134772304e-03
      -2.3526537025077266e-03 -1.2572645048105105e-02
      9.9117962415706928e-03 -9.2362885531416701e-03
      9.8643992852071663e-03 9.0499068967364062e-04
      3.2321475146740337e-03 -1.3892940542576431e-02
      -4.4950964155136058e-03 1.3077896625142988e-03
      -5.1398429372594605e-03 6.1739305084157455e-03
      -1.0606516062873179e-02 -4.0539614052445393e-03
      1.6821673510719240e-02 5.8275755351126597e-03
      -5.7742529279940329e-03 -1.2581187019112207e-02
      -1.7119224614966597e-02 -3.8373099913068245e-03
      -1.4828581579414298e-02 -1.6280729690328118e-02
      1.6265932164920990e-02 1.1762842182151203e-02
      -6.1107961441276171e-01 -1.2281956810671183e-02
      -2.3096739236687876e-02 -1.2710386539228170e-02
      3.1221024161188410e-02 -1.4413200161091997e-02
      1.1089750440267577e-02 2.8662117723622864e-02
      9.8542584944420752e-03 -3.5135179040821992e-03
      -1.8515398473804755e-02 -2.9774889514107936e-02
      -1.1849279371280818e-02 1.6439971275125795e-02
      1.0327399489948260e-02 -1.9637879481481577e-02
      1.1135538362705730e-02 -2.6355694487460966e-02
      5.1650723547786792e-03 -5.9861314443129280e-03
      2.7583045138436894e-02 -1.3511673530851543e-02
      -1.2103891694931774e-02 -2.2622574427732075e-02
      -1.9362487741473703e-02 1.5000644819507651e-02
      -1.2856388293239485e-03 1.4480549463450592e-03
      -1.0550494878321838e-02 -1.9575763283222698e-02
      2.0838813418979155e-02 1.5969282395410806e-03
      -3.6705861448620238e-02 -1.1827743786411283e-02
      -1.9876217000974767e-02 -1.8482923903913682e-02
      -2.3927378645790767e-02 -1.4464325440925930e-02
      1.8932195191756637e-02 2.7474928372591970e-02
      -6.1185814288161700e-01 -1.1985813105847924e-02
      -2.1945824333521404e-02 -1.0978945121346111e-02
      3.1618191632136028e-02 -1.6275966997555631e-02
      1.0979167867506889e-02 2.7917892016787065e-02
      1.0534723267990594e-02 -4.1040089914543059e-03
      -1.9889733276877909e-02 -2.7628646254248969e-02
      -1.2216700614927356e-02 1.7919799523201808e-02
      8.8130002035767367e-03 -1.8344514822672905e-02
      1.1594022819163389e-02 -2.4433055284290954e-02
      6.9100234841797392e-03 -4.4618877342862875e-03
      2.7639117344109544e-02 -1.5504689486009983e-02
      -1.2032291245546781e-02 -2.2786505870146943e-02
      -1.8736350824257928e-02 1.4615469601357530e-02
