<?xml version="1.0"?>
<opencv_storage>
<shapeML type_id="opencv-ml-ann-mlp">
  <layer_sizes type_id="opencv-matrix">
    <rows>1</rows>
    <cols>3</cols>
    <dt>i</dt>
    <data>
      1600 40 1</data></layer_sizes>
  <activation_function>SIGMOID_SYM</activation_function>
  <f_param1>5.9999999999999998e-01</f_param1>
  <f_param2>1.</f_param2>
  <min_val>-9.4999999999999996e-01</min_val>
  <max_val>9.4999999999999996e-01</max_val>
  <min_val1>-9.7999999999999998e-01</min_val1>
  <max_val1>9.7999999999999998e-01</max_val1>
  <training_params>
    <train_method>BACKPROP</train_method>
    <dw_scale>1.0000000000000001e-01</dw_scale>
    <moment_scale>1.0000000000000001e-01</moment_scale>
    <term_criteria><epsilon>9.9999999747524271e-07</epsilon>
      <iterations>4000</iterations></term_criteria></training_params>
  <input_scale>
    1. 0. 2.3863178957040466e-02 -1.6903085094570330e-01
    2.3863178957040466e-02 -1.6903085094570330e-01
    3.3509129172532327e-02 -1.1867816581938533e-01
    1.9624886028901153e-02 -2.0851441405707474e-01
    1.9624886028901153e-02 -2.0851441405707474e-01
    2.3863178957040466e-02 -1.6903085094570330e-01
    2.3863178957040466e-02 -1.6903085094570330e-01
    1.9624886028901153e-02 -2.0851441405707474e-01
    2.3863178957040466e-02 -1.6903085094570330e-01
    1.7120161767270561e-02 -2.4253562503633294e-01
    1.9624886028901153e-02 -2.0851441405707474e-01
    1.9624886028901153e-02 -2.0851441405707474e-01
    1.7120161767270561e-02 -2.4253562503633294e-01
    1.7120161767270561e-02 -2.4253562503633294e-01
    1.2478354962115544e-02 -3.5355339059327373e-01
    1.2478354962115544e-02 -3.5355339059327373e-01
    3.3509129172532327e-02 -1.1867816581938533e-01
    1.9624886028901153e-02 -2.0851441405707474e-01
    9.6562668431543919e-03 -5.1298917604257710e-01
    8.6277505602655180e-03 -6.4168894791974795e-01
    9.9086457366154793e-03 -4.9130368444051753e-01
    1.1857708957152227e-02 -3.7796447300922725e-01
    1.2478354962115544e-02 -3.5355339059327373e-01
    3.3509129172532327e-02 -1.1867816581938533e-01
    2.3863178957040466e-02 -1.6903085094570330e-01
    1.9624886028901153e-02 -2.0851441405707474e-01
    1.7120161767270561e-02 -2.4253562503633294e-01
    1.9624886028901153e-02 -2.0851441405707474e-01
    2.3863178957040466e-02 -1.6903085094570330e-01
    1.9624886028901153e-02 -2.0851441405707474e-01
    3.3509129172532327e-02 -1.1867816581938533e-01
    2.3863178957040466e-02 -1.6903085094570330e-01
    3.3509129172532327e-02 -1.1867816581938533e-01
    1.9624886028901153e-02 -2.0851441405707474e-01
    1.9624886028901153e-02 -2.0851441405707474e-01
    3.3509129172532327e-02 -1.1867816581938533e-01
    3.3509129172532327e-02 -1.1867816581938533e-01 1. 0.
    3.3509129172532327e-02 -1.1867816581938533e-01
    3.3509129172532327e-02 -1.1867816581938533e-01
    1.9624886028901153e-02 -2.0851441405707474e-01
    2.3863178957040466e-02 -1.6903085094570330e-01
    2.3863178957040466e-02 -1.6903085094570330e-01
    1.7120161767270561e-02 -2.4253562503633294e-01
    1.7120161767270561e-02 -2.4253562503633294e-01
    1.5426589121171381e-02 -2.7317918235407651e-01
    1.5426589121171381e-02 -2.7317918235407651e-01
    1.5426589121171381e-02 -2.7317918235407651e-01
    1.4188769156600639e-02 -3.0151134457776357e-01
    1.0900114397395523e-02 -4.2465029006520061e-01
    1.1339566996270572e-02 -4.0160966445124940e-01
    1.1339566996270572e-02 -4.0160966445124940e-01
    9.6562668431543919e-03 -5.1298917604257710e-01
    9.0564748108176597e-03 -5.7735026918962584e-01
    8.6277505602655180e-03 -6.4168894791974795e-01
    8.6277505602655180e-03 -6.4168894791974795e-01
    8.1003573254011339e-03 -7.7459666924148340e-01
    8.1003573254011339e-03 -7.7459666924148340e-01
    8.4106654409576379e-03 -6.8511878904467427e-01
    7.9543929856801549e-03 -8.4515425472851646e-01
    8.4106654409576379e-03 -6.8511878904467427e-01
    8.4106654409576379e-03 -6.8511878904467427e-01
    8.7553930298264783e-03 -6.2017367294604220e-01
    9.2339285670738156e-03 -5.5595944914256934e-01
    9.9086457366154793e-03 -4.9130368444051753e-01
    1.2478354962115544e-02 -3.5355339059327373e-01
    1.3236910050028106e-02 -3.2816506165694681e-01
    1.2478354962115544e-02 -3.5355339059327373e-01
    1.3236910050028106e-02 -3.2816506165694681e-01
    1.5426589121171381e-02 -2.7317918235407651e-01
    1.4188769156600639e-02 -3.0151134457776357e-01
    1.4188769156600639e-02 -3.0151134457776357e-01
    1.5426589121171381e-02 -2.7317918235407651e-01
    1.5426589121171381e-02 -2.7317918235407651e-01
    1.7120161767270561e-02 -2.4253562503633294e-01
    2.3863178957040466e-02 -1.6903085094570330e-01
    2.3863178957040466e-02 -1.6903085094570330e-01
    2.3863178957040466e-02 -1.6903085094570330e-01
    2.3863178957040466e-02 -1.6903085094570330e-01 1. 0.
    1.9624886028901153e-02 -2.0851441405707474e-01
    1.9624886028901153e-02 -2.0851441405707474e-01
    2.3863178957040466e-02 -1.6903085094570330e-01
    1.7120161767270561e-02 -2.4253562503633294e-01
    1.4188769156600639e-02 -3.0151134457776357e-01
    1.2478354962115544e-02 -3.5355339059327373e-01
    1.3236910050028106e-02 -3.2816506165694681e-01
    9.9086457366154793e-03 -4.9130368444051753e-01
    1.0195173807164032e-02 -4.6940279403817725e-01
    9.2339285670738156e-03 -5.5595944914256934e-01
    9.2339285670738156e-03 -5.5595944914256934e-01
    8.5132614939603841e-03 -6.6332495807107994e-01
    8.1003573254011339e-03 -7.7459666924148340e-01
    8.1644460983469214e-03 -7.5180941155611236e-01
    7.8552689516422202e-03 -9.4590530292691744e-01
    7.8552689516422202e-03 -9.4590530292691744e-01
    7.8552689516422202e-03 -9.4590530292691744e-01
    7.8461649088479284e-03 -1.0281745265969473e+00
    7.9957478370155152e-03 -8.2122993409346845e-01
    7.8552689516422202e-03 -9.4590530292691744e-01
    7.9198971311042043e-03 -8.6953870585248250e-01
    8.1644460983469214e-03 -7.5180941155611236e-01
    8.1644460983469214e-03 -7.5180941155611236e-01
    7.8920046264698458e-03 -8.9442719099991586e-01
    7.8920046264698458e-03 -8.9442719099991586e-01
    8.7553930298264783e-03 -6.2017367294604220e-01
    9.9086457366154793e-03 -4.9130368444051753e-01
    9.9086457366154793e-03 -4.9130368444051753e-01
    1.1857708957152227e-02 -3.7796447300922725e-01
    1.2478354962115544e-02 -3.5355339059327373e-01
    1.3236910050028106e-02 -3.2816506165694681e-01
    1.1857708957152227e-02 -3.7796447300922725e-01
    1.2478354962115544e-02 -3.5355339059327373e-01
    1.2478354962115544e-02 -3.5355339059327373e-01
    1.3236910050028106e-02 -3.2816506165694681e-01
    2.3863178957040466e-02 -1.6903085094570330e-01
    1.9624886028901153e-02 -2.0851441405707474e-01
    2.3863178957040466e-02 -1.6903085094570330e-01
    3.3509129172532327e-02 -1.1867816581938533e-01 1. 0.
    2.3863178957040466e-02 -1.6903085094570330e-01
    1.9624886028901153e-02 -2.0851441405707474e-01
    1.7120161767270561e-02 -2.4253562503633294e-01
    1.3236910050028106e-02 -3.2816506165694681e-01
    1.3236910050028106e-02 -3.2816506165694681e-01
    1.2478354962115544e-02 -3.5355339059327373e-01
    9.6562668431543919e-03 -5.1298917604257710e-01
    9.4327497145561545e-03 -5.3452248382484868e-01
    8.7553930298264783e-03 -6.2017367294604220e-01
    8.8976963528930031e-03 -5.9874081708009175e-01
    7.9543929856801549e-03 -8.4515425472851646e-01
    8.0442759853862084e-03 -7.9772403521746571e-01
    7.8552689516422202e-03 -9.4590530292691744e-01
    7.8461649088479302e-03 -9.7259752515927467e-01
    7.8552689516422202e-03 -1.0571882797418488e+00
    8.1003573254011339e-03 -1.2909944487358056e+00
    8.1003573254011339e-03 -1.2909944487358056e+00
    7.8705130353608540e-03 -1.0871146130092180e+00
    7.8461649088479302e-03 -9.7259752515927467e-01
    7.9543929856801549e-03 -1.1832159566199230e+00
    7.9198971311042043e-03 -1.1500350625790898e+00
    7.8920046264698458e-03 -1.1180339887498947e+00
    7.8461649088479284e-03 -1.0281745265969473e+00
    7.8461649088479302e-03 -9.7259752515927467e-01
    7.8705130353608540e-03 -9.1986621100779986e-01
    7.9957478370155152e-03 -8.2122993409346845e-01
    7.8552689516422202e-03 -9.4590530292691744e-01
    9.6562668431543919e-03 -5.1298917604257710e-01
    9.9086457366154793e-03 -4.9130368444051753e-01
    9.4327497145561545e-03 -5.3452248382484868e-01
    9.6562668431543919e-03 -5.1298917604257710e-01
    1.1857708957152227e-02 -3.7796447300922725e-01
    1.1857708957152227e-02 -3.7796447300922725e-01
    1.1339566996270572e-02 -4.0160966445124940e-01
    1.1857708957152227e-02 -3.7796447300922725e-01
    1.5426589121171381e-02 -2.7317918235407651e-01
    1.9624886028901153e-02 -2.0851441405707474e-01
    3.3509129172532327e-02 -1.1867816581938533e-01
    3.3509129172532327e-02 -1.1867816581938533e-01 1. 0.
    2.3863178957040466e-02 -1.6903085094570330e-01
    2.3863178957040466e-02 -1.6903085094570330e-01
    1.3236910050028106e-02 -3.2816506165694681e-01
    1.1857708957152227e-02 -3.7796447300922725e-01
    1.2478354962115544e-02 -3.5355339059327373e-01
    9.9086457366154793e-03 -4.9130368444051753e-01
    9.6562668431543919e-03 -5.1298917604257710e-01
    9.2339285670738156e-03 -5.5595944914256934e-01
    8.6277505602655180e-03 -6.4168894791974795e-01
    7.9198971311042043e-03 -8.6953870585248250e-01
    7.8461649088479302e-03 -9.7259752515927467e-01
    7.8552689516422202e-03 -9.4590530292691744e-01
    7.8461649088479284e-03 -1.0281745265969473e+00
    7.8461649088479284e-03 -1.0281745265969473e+00
    7.8552689516422202e-03 -9.4590530292691744e-01
    8.1644460983469197e-03 -1.3301243435223522e+00
    7.9198971311042043e-03 -1.1500350625790898e+00
    7.8552689516422202e-03 -1.0571882797418488e+00
    7.8552689516422202e-03 -1.0571882797418488e+00
    7.9957478370155152e-03 -1.2176857643454877e+00
    7.8705130353608540e-03 -1.0871146130092180e+00
    7.8705130353608540e-03 -1.0871146130092180e+00
    7.8431372549019607e-03 -1. 7.9198971311042043e-03
    -8.6953870585248250e-01 7.8431372549019607e-03 -1.
    7.8461649088479284e-03 -1.0281745265969473e+00
    7.8431372549019607e-03 -1. 7.9198971311042043e-03
    -8.6953870585248250e-01 8.1644460983469214e-03
    -7.5180941155611236e-01 8.6277505602655180e-03
    -6.4168894791974795e-01 9.6562668431543919e-03
    -5.1298917604257710e-01 9.6562668431543919e-03
    -5.1298917604257710e-01 1.1339566996270572e-02
    -4.0160966445124940e-01 1.1339566996270572e-02
    -4.0160966445124940e-01 1.0900114397395523e-02
    -4.2465029006520061e-01 1.5426589121171381e-02
    -2.7317918235407651e-01 1.7120161767270561e-02
    -2.4253562503633294e-01 3.3509129172532327e-02
    -1.1867816581938533e-01 3.3509129172532327e-02
    -1.1867816581938533e-01 1. 0. 1.9624886028901153e-02
    -2.0851441405707474e-01 1.4188769156600639e-02
    -3.0151134457776357e-01 1.3236910050028106e-02
    -3.2816506165694681e-01 1.1857708957152227e-02
    -3.7796447300922725e-01 9.4327497145561545e-03
    -5.3452248382484868e-01 9.2339285670738156e-03
    -5.5595944914256934e-01 9.2339285670738156e-03
    -5.5595944914256934e-01 8.1644460983469214e-03
    -7.5180941155611236e-01 7.8552689516422202e-03
    -9.4590530292691744e-01 7.8705130353608540e-03
    -9.1986621100779986e-01 7.8461649088479302e-03
    -9.7259752515927467e-01 7.8552689516422202e-03
    -1.0571882797418488e+00 8.0442759853862084e-03
    -7.9772403521746571e-01 7.8705130353608540e-03
    -9.1986621100779986e-01 7.8920046264698458e-03
    -1.1180339887498947e+00 8.7553930298264783e-03
    -1.6124515496597096e+00 8.1003573254011339e-03
    -1.2909944487358056e+00 8.4106654409576362e-03
    -1.4596008983995230e+00 7.8920046264698458e-03
    -1.1180339887498947e+00 7.8920046264698458e-03
    -1.1180339887498947e+00 8.3189033080770299e-03
    -1.4142135623730951e+00 7.8431372549019607e-03 -1.
    7.8461649088479284e-03 -1.0281745265969473e+00
    7.9957478370155152e-03 -1.2176857643454877e+00
    8.0442759853862084e-03 -1.2535663410560176e+00
    8.0442759853862084e-03 -1.2535663410560176e+00
    7.8920046264698458e-03 -1.1180339887498947e+00
    7.9198971311042043e-03 -8.6953870585248250e-01
    7.9957478370155152e-03 -8.2122993409346845e-01
    8.2370818728222817e-03 -7.2932495748947290e-01
    8.3189033080770299e-03 -7.0710678118654757e-01
    9.4327497145561545e-03 -5.3452248382484868e-01
    9.4327497145561545e-03 -5.3452248382484868e-01
    1.0522672835293128e-02 -4.4721359549995793e-01
    1.1339566996270572e-02 -4.0160966445124940e-01
    1.4188769156600639e-02 -3.0151134457776357e-01
    1.5426589121171381e-02 -2.7317918235407651e-01
    1.9624886028901153e-02 -2.0851441405707474e-01
    3.3509129172532327e-02 -1.1867816581938533e-01 1. 0.
    1.7120161767270561e-02 -2.4253562503633294e-01
    1.4188769156600639e-02 -3.0151134457776357e-01
    9.6562668431543919e-03 -5.1298917604257710e-01
    9.6562668431543919e-03 -5.1298917604257710e-01
    9.0564748108176597e-03 -5.7735026918962584e-01
    8.7553930298264783e-03 -6.2017367294604220e-01
    8.6277505602655180e-03 -6.4168894791974795e-01
    7.8705130353608540e-03 -9.1986621100779986e-01
    7.8705130353608540e-03 -9.1986621100779986e-01
    7.9198971311042043e-03 -8.6953870585248250e-01
    7.8705130353608540e-03 -1.0871146130092180e+00
    7.9543929856801549e-03 -1.1832159566199230e+00
    7.8920046264698458e-03 -1.1180339887498947e+00
    8.6277505602655180e-03 -1.5583874449479591e+00
    8.3189033080770299e-03 -1.4142135623730951e+00
    8.3189033080770299e-03 -1.4142135623730951e+00
    8.6277505602655180e-03 -1.5583874449479591e+00
    8.8976963528930048e-03 -1.6701717529076245e+00
    8.3189033080770299e-03 -1.4142135623730951e+00
    8.2370818728222817e-03 -1.3711309200802091e+00
    7.9957478370155152e-03 -1.2176857643454877e+00
    7.9198971311042043e-03 -1.1500350625790898e+00
    7.9543929856801549e-03 -1.1832159566199230e+00
    7.8552689516422202e-03 -1.0571882797418488e+00
    8.1003573254011339e-03 -1.2909944487358056e+00
    8.1644460983469197e-03 -1.3301243435223522e+00
    7.9198971311042043e-03 -1.1500350625790898e+00
    7.8920046264698458e-03 -1.1180339887498947e+00
    8.0442759853862084e-03 -1.2535663410560176e+00
    7.9198971311042043e-03 -8.6953870585248250e-01
    8.1003573254011339e-03 -7.7459666924148340e-01
    8.3189033080770299e-03 -7.0710678118654757e-01
    9.2339285670738156e-03 -5.5595944914256934e-01
    9.2339285670738156e-03 -5.5595944914256934e-01
    1.1857708957152227e-02 -3.7796447300922725e-01
    1.4188769156600639e-02 -3.0151134457776357e-01
    1.4188769156600639e-02 -3.0151134457776357e-01
    1.9624886028901153e-02 -2.0851441405707474e-01
    2.3863178957040466e-02 -1.6903085094570330e-01 1. 0.
    1.5426589121171381e-02 -2.7317918235407651e-01
    1.4188769156600639e-02 -3.0151134457776357e-01
    9.2339285670738156e-03 -5.5595944914256934e-01
    9.0564748108176597e-03 -5.7735026918962584e-01
    1.0900114397395523e-02 -4.2465029006520061e-01
    8.2370818728222817e-03 -7.2932495748947290e-01
    7.8461649088479302e-03 -9.7259752515927467e-01
    7.8461649088479302e-03 -9.7259752515927467e-01
    7.9198971311042043e-03 -8.6953870585248250e-01
    7.8431372549019607e-03 -1. 8.2370818728222817e-03
    -1.3711309200802091e+00 8.4106654409576362e-03
    -1.4596008983995230e+00 8.8976963528930048e-03
    -1.6701717529076245e+00 8.7553930298264783e-03
    -1.6124515496597096e+00 8.2370818728222817e-03
    -1.3711309200802091e+00 8.0442759853862084e-03
    -1.2535663410560176e+00 8.3189033080770299e-03
    -1.4142135623730951e+00 8.2370818728222817e-03
    -1.3711309200802091e+00 8.3189033080770299e-03
    -1.4142135623730951e+00 8.2370818728222817e-03
    -1.3711309200802091e+00 7.9957478370155152e-03
    -1.2176857643454877e+00 8.8976963528930048e-03
    -1.6701717529076245e+00 8.8976963528930048e-03
    -1.6701717529076245e+00 8.4106654409576362e-03
    -1.4596008983995230e+00 7.9957478370155152e-03
    -1.2176857643454877e+00 8.1644460983469197e-03
    -1.3301243435223522e+00 8.1644460983469197e-03
    -1.3301243435223522e+00 7.8552689516422202e-03
    -1.0571882797418488e+00 7.8705130353608540e-03
    -1.0871146130092180e+00 7.9198971311042043e-03
    -1.1500350625790898e+00 7.8705130353608540e-03
    -9.1986621100779986e-01 8.1003573254011339e-03
    -7.7459666924148340e-01 8.1644460983469214e-03
    -7.5180941155611236e-01 9.4327497145561545e-03
    -5.3452248382484868e-01 1.0195173807164032e-02
    -4.6940279403817725e-01 1.4188769156600639e-02
    -3.0151134457776357e-01 1.4188769156600639e-02
    -3.0151134457776357e-01 1.7120161767270561e-02
    -2.4253562503633294e-01 1.9624886028901153e-02
    -2.0851441405707474e-01 3.3509129172532327e-02
    -1.1867816581938533e-01 1.5426589121171381e-02
    -2.7317918235407651e-01 1.2478354962115544e-02
    -3.5355339059327373e-01 1.0522672835293128e-02
    -4.4721359549995793e-01 1.0522672835293128e-02
    -4.4721359549995793e-01 9.2339285670738156e-03
    -5.5595944914256934e-01 7.9198971311042043e-03
    -8.6953870585248250e-01 7.8431372549019607e-03 -1.
    7.8431372549019607e-03 -1. 7.8431372549019607e-03 -1.
    7.8552689516422202e-03 -1.0571882797418488e+00
    8.2370818728222817e-03 -1.3711309200802091e+00
    8.1644460983469197e-03 -1.3301243435223522e+00
    8.2370818728222817e-03 -1.3711309200802091e+00
    7.9957478370155152e-03 -1.2176857643454877e+00
    7.9543929856801549e-03 -1.1832159566199230e+00
    8.0442759853862084e-03 -1.2535663410560176e+00
    8.3189033080770299e-03 -1.4142135623730951e+00
    8.1003573254011339e-03 -1.2909944487358056e+00
    8.1644460983469197e-03 -1.3301243435223522e+00
    7.8461649088479284e-03 -1.0281745265969473e+00
    8.6277505602655180e-03 -1.5583874449479591e+00
    8.4106654409576362e-03 -1.4596008983995230e+00
    8.6277505602655180e-03 -1.5583874449479591e+00
    8.4106654409576362e-03 -1.4596008983995230e+00
    9.0564748108176597e-03 -1.7320508075688774e+00
    8.7553930298264783e-03 -1.6124515496597096e+00
    7.9198971311042043e-03 -1.1500350625790898e+00
    7.9543929856801549e-03 -1.1832159566199230e+00
    7.9957478370155152e-03 -1.2176857643454877e+00
    7.9543929856801549e-03 -1.1832159566199230e+00
    7.9198971311042043e-03 -1.1500350625790898e+00
    7.8431372549019607e-03 -1. 7.9198971311042043e-03
    -8.6953870585248250e-01 8.2370818728222817e-03
    -7.2932495748947290e-01 1.0195173807164032e-02
    -4.6940279403817725e-01 1.0522672835293128e-02
    -4.4721359549995793e-01 1.4188769156600639e-02
    -3.0151134457776357e-01 1.5426589121171381e-02
    -2.7317918235407651e-01 1.7120161767270561e-02
    -2.4253562503633294e-01 1. 0. 1.3236910050028106e-02
    -3.2816506165694681e-01 1.2478354962115544e-02
    -3.5355339059327373e-01 1.1339566996270572e-02
    -4.0160966445124940e-01 9.0564748108176597e-03
    -5.7735026918962584e-01 7.8920046264698458e-03
    -8.9442719099991586e-01 7.9198971311042043e-03
    -8.6953870585248250e-01 7.8552689516422202e-03
    -9.4590530292691744e-01 7.8552689516422202e-03
    -1.0571882797418488e+00 7.8461649088479302e-03
    -9.7259752515927467e-01 7.9543929856801549e-03
    -1.1832159566199230e+00 7.8920046264698458e-03
    -1.1180339887498947e+00 8.1003573254011339e-03
    -1.2909944487358056e+00 8.1644460983469197e-03
    -1.3301243435223522e+00 8.1003573254011339e-03
    -1.2909944487358056e+00 8.4106654409576362e-03
    -1.4596008983995230e+00 8.1003573254011339e-03
    -1.2909944487358056e+00 8.2370818728222817e-03
    -1.3711309200802091e+00 7.8552689516422202e-03
    -1.0571882797418488e+00 7.9198971311042043e-03
    -1.1500350625790898e+00 8.2370818728222817e-03
    -1.3711309200802091e+00 8.1003573254011339e-03
    -1.2909944487358056e+00 8.6277505602655180e-03
    -1.5583874449479591e+00 8.2370818728222817e-03
    -1.3711309200802091e+00 8.4106654409576362e-03
    -1.4596008983995230e+00 9.2339285670738139e-03
    -1.7986923354612532e+00 8.4106654409576362e-03
    -1.4596008983995230e+00 8.8976963528930048e-03
    -1.6701717529076245e+00 8.0442759853862084e-03
    -1.2535663410560176e+00 8.1644460983469197e-03
    -1.3301243435223522e+00 8.0442759853862084e-03
    -1.2535663410560176e+00 7.9198971311042043e-03
    -1.1500350625790898e+00 7.8920046264698458e-03
    -1.1180339887498947e+00 7.8461649088479284e-03
    -1.0281745265969473e+00 7.9543929856801549e-03
    -8.4515425472851646e-01 8.6277505602655180e-03
    -6.4168894791974795e-01 1.0522672835293128e-02
    -4.4721359549995793e-01 1.4188769156600639e-02
    -3.0151134457776357e-01 1.5426589121171381e-02
    -2.7317918235407651e-01 1.5426589121171381e-02
    -2.7317918235407651e-01 2.3863178957040466e-02
    -1.6903085094570330e-01 1.3236910050028106e-02
    -3.2816506165694681e-01 1.3236910050028106e-02
    -3.2816506165694681e-01 9.0564748108176597e-03
    -5.7735026918962584e-01 8.0442759853862084e-03
    -7.9772403521746571e-01 7.9957478370155152e-03
    -8.2122993409346845e-01 8.2370818728222817e-03
    -7.2932495748947290e-01 7.8705130353608540e-03
    -9.1986621100779986e-01 7.8920046264698458e-03
    -8.9442719099991586e-01 7.8920046264698458e-03
    -1.1180339887498947e+00 8.2370818728222817e-03
    -1.3711309200802091e+00 7.9957478370155152e-03
    -1.2176857643454877e+00 7.9198971311042043e-03
    -1.1500350625790898e+00 8.0442759853862084e-03
    -1.2535663410560176e+00 8.3189033080770299e-03
    -1.4142135623730951e+00 8.1644460983469197e-03
    -1.3301243435223522e+00 8.4106654409576362e-03
    -1.4596008983995230e+00 7.9543929856801549e-03
    -1.1832159566199230e+00 7.8552689516422202e-03
    -1.0571882797418488e+00 7.9957478370155152e-03
    -1.2176857643454877e+00 7.9957478370155152e-03
    -1.2176857643454877e+00 7.9198971311042043e-03
    -1.1500350625790898e+00 8.3189033080770299e-03
    -1.4142135623730951e+00 8.2370818728222817e-03
    -1.3711309200802091e+00 8.1644460983469197e-03
    -1.3301243435223522e+00 8.4106654409576362e-03
    -1.4596008983995230e+00 8.5132614939603859e-03
    -1.5075567228888185e+00 8.8976963528930048e-03
    -1.6701717529076245e+00 8.5132614939603859e-03
    -1.5075567228888185e+00 9.0564748108176597e-03
    -1.7320508075688774e+00 8.4106654409576362e-03
    -1.4596008983995230e+00 7.9543929856801549e-03
    -1.1832159566199230e+00 7.8920046264698458e-03
    -1.1180339887498947e+00 7.8705130353608540e-03
    -1.0871146130092180e+00 7.8705130353608540e-03
    -9.1986621100779986e-01 8.4106654409576379e-03
    -6.8511878904467427e-01 9.4327497145561545e-03
    -5.3452248382484868e-01 1.3236910050028106e-02
    -3.2816506165694681e-01 1.4188769156600639e-02
    -3.0151134457776357e-01 1.7120161767270561e-02
    -2.4253562503633294e-01 2.3863178957040466e-02
    -1.6903085094570330e-01 1.2478354962115544e-02
    -3.5355339059327373e-01 1.1857708957152227e-02
    -3.7796447300922725e-01 8.1644460983469214e-03
    -7.5180941155611236e-01 7.9957478370155152e-03
    -8.2122993409346845e-01 8.3189033080770299e-03
    -7.0710678118654757e-01 8.2370818728222817e-03
    -7.2932495748947290e-01 7.8552689516422202e-03
    -9.4590530292691744e-01 7.8431372549019607e-03 -1.
    7.9198971311042043e-03 -1.1500350625790898e+00
    8.1644460983469197e-03 -1.3301243435223522e+00
    8.1003573254011339e-03 -1.2909944487358056e+00
    7.8552689516422202e-03 -1.0571882797418488e+00
    7.8920046264698458e-03 -8.9442719099991586e-01
    7.8705130353608540e-03 -1.0871146130092180e+00
    8.4106654409576362e-03 -1.4596008983995230e+00
    8.0442759853862084e-03 -1.2535663410560176e+00
    7.8705130353608540e-03 -1.0871146130092180e+00
    8.0442759853862084e-03 -1.2535663410560176e+00
    8.0442759853862084e-03 -1.2535663410560176e+00
    7.9198971311042043e-03 -1.1500350625790898e+00
    7.8552689516422202e-03 -1.0571882797418488e+00
    7.8705130353608540e-03 -1.0871146130092180e+00
    8.1644460983469197e-03 -1.3301243435223522e+00
    8.0442759853862084e-03 -1.2535663410560176e+00
    8.1644460983469197e-03 -1.3301243435223522e+00
    8.2370818728222817e-03 -1.3711309200802091e+00
    8.8976963528930048e-03 -1.6701717529076245e+00
    9.9086457366154759e-03 -2.0354009783964289e+00
    9.6562668431543919e-03 -1.9493588689617929e+00
    8.8976963528930048e-03 -1.6701717529076245e+00
    8.1003573254011339e-03 -1.2909944487358056e+00
    7.9957478370155152e-03 -1.2176857643454877e+00
    7.9198971311042043e-03 -1.1500350625790898e+00
    7.8552689516422202e-03 -1.0571882797418488e+00
    8.0442759853862084e-03 -7.9772403521746571e-01
    9.2339285670738156e-03 -5.5595944914256934e-01
    9.4327497145561545e-03 -5.3452248382484868e-01
    1.4188769156600639e-02 -3.0151134457776357e-01
    1.5426589121171381e-02 -2.7317918235407651e-01
    2.3863178957040466e-02 -1.6903085094570330e-01
    1.2478354962115544e-02 -3.5355339059327373e-01
    9.6562668431543919e-03 -5.1298917604257710e-01
    8.1003573254011339e-03 -7.7459666924148340e-01
    7.9957478370155152e-03 -8.2122993409346845e-01
    7.8705130353608540e-03 -9.1986621100779986e-01
    7.8461649088479302e-03 -9.7259752515927467e-01
    7.8920046264698458e-03 -8.9442719099991586e-01
    7.9198971311042043e-03 -1.1500350625790898e+00
    8.1644460983469197e-03 -1.3301243435223522e+00
    7.8552689516422202e-03 -1.0571882797418488e+00
    7.9543929856801549e-03 -1.1832159566199230e+00
    7.9957478370155152e-03 -1.2176857643454877e+00
    7.9957478370155152e-03 -1.2176857643454877e+00
    8.3189033080770299e-03 -1.4142135623730951e+00
    7.9957478370155152e-03 -1.2176857643454877e+00
    7.9543929856801549e-03 -1.1832159566199230e+00
    7.9543929856801549e-03 -1.1832159566199230e+00
    7.9543929856801549e-03 -1.1832159566199230e+00
    8.0442759853862084e-03 -1.2535663410560176e+00
    7.8920046264698458e-03 -1.1180339887498947e+00
    7.8552689516422202e-03 -1.0571882797418488e+00
    7.8705130353608540e-03 -1.0871146130092180e+00
    7.9543929856801549e-03 -1.1832159566199230e+00
    8.3189033080770299e-03 -1.4142135623730951e+00
    7.9957478370155152e-03 -1.2176857643454877e+00
    9.2339285670738139e-03 -1.7986923354612532e+00
    9.2339285670738139e-03 -1.7986923354612532e+00
    1.0195173807164032e-02 -2.1303665267886509e+00
    9.0564748108176597e-03 -1.7320508075688774e+00
    9.2339285670738139e-03 -1.7986923354612532e+00
    8.5132614939603859e-03 -1.5075567228888185e+00
    8.1003573254011339e-03 -1.2909944487358056e+00
    8.1003573254011339e-03 -1.2909944487358056e+00
    7.8461649088479284e-03 -1.0281745265969473e+00
    7.8705130353608540e-03 -9.1986621100779986e-01
    8.5132614939603841e-03 -6.6332495807107994e-01
    9.2339285670738156e-03 -5.5595944914256934e-01
    1.4188769156600639e-02 -3.0151134457776357e-01
    1.7120161767270561e-02 -2.4253562503633294e-01
    2.3863178957040466e-02 -1.6903085094570330e-01
    1.2478354962115544e-02 -3.5355339059327373e-01
    8.3189033080770299e-03 -7.0710678118654757e-01
    7.9957478370155152e-03 -8.2122993409346845e-01
    7.8431372549019607e-03 -1. 7.8431372549019607e-03 -1.
    7.8431372549019607e-03 -1. 7.9957478370155152e-03
    -1.2176857643454877e+00 8.1644460983469197e-03
    -1.3301243435223522e+00 7.9198971311042043e-03
    -1.1500350625790898e+00 7.8920046264698458e-03
    -1.1180339887498947e+00 7.9543929856801549e-03
    -1.1832159566199230e+00 8.1644460983469197e-03
    -1.3301243435223522e+00 8.1003573254011339e-03
    -1.2909944487358056e+00 7.8431372549019607e-03 -1.
    7.8552689516422202e-03 -1.0571882797418488e+00
    7.8705130353608540e-03 -1.0871146130092180e+00
    7.8705130353608540e-03 -9.1986621100779986e-01
    7.9543929856801549e-03 -1.1832159566199230e+00
    7.8920046264698458e-03 -1.1180339887498947e+00
    7.8920046264698458e-03 -1.1180339887498947e+00
    7.8552689516422202e-03 -1.0571882797418488e+00
    7.8461649088479284e-03 -1.0281745265969473e+00
    8.2370818728222817e-03 -1.3711309200802091e+00
    8.3189033080770299e-03 -1.4142135623730951e+00
    8.5132614939603859e-03 -1.5075567228888185e+00
    9.0564748108176597e-03 -1.7320508075688774e+00
    8.8976963528930048e-03 -1.6701717529076245e+00
    9.0564748108176597e-03 -1.7320508075688774e+00
    8.6277505602655180e-03 -1.5583874449479591e+00
    9.2339285670738139e-03 -1.7986923354612532e+00
    8.7553930298264783e-03 -1.6124515496597096e+00
    8.2370818728222817e-03 -1.3711309200802091e+00
    7.8705130353608540e-03 -1.0871146130092180e+00
    7.9198971311042043e-03 -1.1500350625790898e+00
    7.8431372549019607e-03 -1. 8.2370818728222817e-03
    -7.2932495748947290e-01 9.0564748108176597e-03
    -5.7735026918962584e-01 8.8976963528930031e-03
    -5.9874081708009175e-01 1.4188769156600639e-02
    -3.0151134457776357e-01 1.7120161767270561e-02
    -2.4253562503633294e-01 1.0195173807164032e-02
    -4.6940279403817725e-01 8.2370818728222817e-03
    -7.2932495748947290e-01 7.9543929856801549e-03
    -8.4515425472851646e-01 7.8705130353608540e-03
    -1.0871146130092180e+00 7.8461649088479284e-03
    -1.0281745265969473e+00 7.9543929856801549e-03
    -1.1832159566199230e+00 8.1644460983469197e-03
    -1.3301243435223522e+00 8.1644460983469197e-03
    -1.3301243435223522e+00 8.0442759853862084e-03
    -1.2535663410560176e+00 7.9543929856801549e-03
    -1.1832159566199230e+00 7.9957478370155152e-03
    -1.2176857643454877e+00 8.1644460983469197e-03
    -1.3301243435223522e+00 8.2370818728222817e-03
    -1.3711309200802091e+00 7.8705130353608540e-03
    -1.0871146130092180e+00 7.8461649088479284e-03
    -1.0281745265969473e+00 7.8552689516422202e-03
    -1.0571882797418488e+00 7.8552689516422202e-03
    -1.0571882797418488e+00 7.8461649088479284e-03
    -1.0281745265969473e+00 7.8431372549019607e-03 -1.
    7.8431372549019607e-03 -1. 7.9198971311042043e-03
    -8.6953870585248250e-01 7.8461649088479284e-03
    -1.0281745265969473e+00 7.8705130353608540e-03
    -1.0871146130092180e+00 7.8920046264698458e-03
    -1.1180339887498947e+00 8.0442759853862084e-03
    -1.2535663410560176e+00 8.3189033080770299e-03
    -1.4142135623730951e+00 8.1644460983469197e-03
    -1.3301243435223522e+00 8.8976963528930048e-03
    -1.6701717529076245e+00 9.0564748108176597e-03
    -1.7320508075688774e+00 1.0522672835293128e-02
    -2.2360679774997898e+00 9.9086457366154759e-03
    -2.0354009783964289e+00 8.7553930298264783e-03
    -1.6124515496597096e+00 8.0442759853862084e-03
    -1.2535663410560176e+00 7.8461649088479284e-03
    -1.0281745265969473e+00 7.8461649088479284e-03
    -1.0281745265969473e+00 7.9198971311042043e-03
    -8.6953870585248250e-01 8.6277505602655180e-03
    -6.4168894791974795e-01 9.2339285670738156e-03
    -5.5595944914256934e-01 1.2478354962115544e-02
    -3.5355339059327373e-01 2.3863178957040466e-02
    -1.6903085094570330e-01 1.0900114397395523e-02
    -4.2465029006520061e-01 8.1644460983469214e-03
    -7.5180941155611236e-01 8.1644460983469214e-03
    -7.5180941155611236e-01 7.8705130353608540e-03
    -1.0871146130092180e+00 7.8431372549019607e-03 -1.
    7.9198971311042043e-03 -1.1500350625790898e+00
    8.3189033080770299e-03 -1.4142135623730951e+00
    8.2370818728222817e-03 -1.3711309200802091e+00
    7.8920046264698458e-03 -1.1180339887498947e+00
    7.9543929856801549e-03 -1.1832159566199230e+00
    7.9543929856801549e-03 -1.1832159566199230e+00
    8.1003573254011339e-03 -1.2909944487358056e+00
    7.9198971311042043e-03 -1.1500350625790898e+00
    7.8552689516422202e-03 -1.0571882797418488e+00
    7.8705130353608540e-03 -1.0871146130092180e+00
    7.8705130353608540e-03 -1.0871146130092180e+00
    7.8431372549019607e-03 -1. 7.8552689516422202e-03
    -1.0571882797418488e+00 7.8552689516422202e-03
    -1.0571882797418488e+00 7.8431372549019607e-03 -1.
    7.8461649088479302e-03 -9.7259752515927467e-01
    7.8461649088479284e-03 -1.0281745265969473e+00
    7.8461649088479284e-03 -1.0281745265969473e+00
    8.0442759853862084e-03 -1.2535663410560176e+00
    7.9198971311042043e-03 -1.1500350625790898e+00
    8.0442759853862084e-03 -1.2535663410560176e+00
    8.8976963528930048e-03 -1.6701717529076245e+00
    8.4106654409576362e-03 -1.4596008983995230e+00
    9.2339285670738139e-03 -1.7986923354612532e+00
    9.4327497145561563e-03 -1.8708286933869711e+00
    1.0900114397395522e-02 -2.3548788812706576e+00
    9.4327497145561563e-03 -1.8708286933869711e+00
    8.4106654409576362e-03 -1.4596008983995230e+00
    7.9957478370155152e-03 -1.2176857643454877e+00
    7.8920046264698458e-03 -1.1180339887498947e+00
    7.8920046264698458e-03 -8.9442719099991586e-01
    7.9198971311042043e-03 -8.6953870585248250e-01
    8.7553930298264783e-03 -6.2017367294604220e-01
    1.0900114397395523e-02 -4.2465029006520061e-01
    1.5426589121171381e-02 -2.7317918235407651e-01
    1.0900114397395523e-02 -4.2465029006520061e-01
    8.7553930298264783e-03 -6.2017367294604220e-01
    7.9957478370155152e-03 -8.2122993409346845e-01
    7.8552689516422202e-03 -1.0571882797418488e+00
    7.8461649088479284e-03 -1.0281745265969473e+00
    7.8705130353608540e-03 -1.0871146130092180e+00
    8.2370818728222817e-03 -1.3711309200802091e+00
    8.2370818728222817e-03 -1.3711309200802091e+00
    8.0442759853862084e-03 -1.2535663410560176e+00
    7.9543929856801549e-03 -1.1832159566199230e+00
    7.8920046264698458e-03 -1.1180339887498947e+00
    7.8552689516422202e-03 -1.0571882797418488e+00
    7.9198971311042043e-03 -1.1500350625790898e+00
    7.8705130353608540e-03 -9.1986621100779986e-01
    7.8705130353608540e-03 -1.0871146130092180e+00
    7.8431372549019607e-03 -1. 7.8552689516422202e-03
    -9.4590530292691744e-01 7.8431372549019607e-03 -1.
    7.8431372549019607e-03 -1. 7.8461649088479284e-03
    -1.0281745265969473e+00 7.8552689516422202e-03
    -1.0571882797418488e+00 7.8552689516422202e-03
    -1.0571882797418488e+00 7.8461649088479284e-03
    -1.0281745265969473e+00 7.8552689516422202e-03
    -1.0571882797418488e+00 7.8431372549019607e-03 -1.
    7.8552689516422202e-03 -1.0571882797418488e+00
    8.1003573254011339e-03 -1.2909944487358056e+00
    9.0564748108176597e-03 -1.7320508075688774e+00
    9.2339285670738139e-03 -1.7986923354612532e+00
    9.2339285670738139e-03 -1.7986923354612532e+00
    9.2339285670738139e-03 -1.7986923354612532e+00
    9.4327497145561563e-03 -1.8708286933869711e+00
    8.2370818728222817e-03 -1.3711309200802091e+00
    8.1644460983469197e-03 -1.3301243435223522e+00
    8.1003573254011339e-03 -1.2909944487358056e+00
    7.9543929856801549e-03 -1.1832159566199230e+00
    8.2370818728222817e-03 -7.2932495748947290e-01
    8.8976963528930031e-03 -5.9874081708009175e-01
    9.6562668431543919e-03 -5.1298917604257710e-01
    1.5426589121171381e-02 -2.7317918235407651e-01
    1.0900114397395523e-02 -4.2465029006520061e-01
    8.8976963528930031e-03 -5.9874081708009175e-01
    7.9198971311042043e-03 -8.6953870585248250e-01
    7.8431372549019607e-03 -1. 7.8552689516422202e-03
    -9.4590530292691744e-01 7.8552689516422202e-03
    -1.0571882797418488e+00 8.1003573254011339e-03
    -1.2909944487358056e+00 8.4106654409576362e-03
    -1.4596008983995230e+00 7.9957478370155152e-03
    -1.2176857643454877e+00 8.1003573254011339e-03
    -1.2909944487358056e+00 8.1003573254011339e-03
    -1.2909944487358056e+00 7.9198971311042043e-03
    -1.1500350625790898e+00 7.9198971311042043e-03
    -1.1500350625790898e+00 7.8705130353608540e-03
    -1.0871146130092180e+00 7.8552689516422202e-03
    -1.0571882797418488e+00 7.8431372549019607e-03 -1.
    7.8705130353608540e-03 -9.1986621100779986e-01
    7.8461649088479302e-03 -9.7259752515927467e-01
    7.8705130353608540e-03 -1.0871146130092180e+00
    7.8552689516422202e-03 -9.4590530292691744e-01
    7.8705130353608540e-03 -9.1986621100779986e-01
    7.8705130353608540e-03 -1.0871146130092180e+00
    7.8431372549019607e-03 -1. 7.8920046264698458e-03
    -1.1180339887498947e+00 7.8920046264698458e-03
    -1.1180339887498947e+00 7.8552689516422202e-03
    -1.0571882797418488e+00 7.9543929856801549e-03
    -1.1832159566199230e+00 8.7553930298264783e-03
    -1.6124515496597096e+00 8.8976963528930048e-03
    -1.6701717529076245e+00 9.4327497145561563e-03
    -1.8708286933869711e+00 9.2339285670738139e-03
    -1.7986923354612532e+00 9.4327497145561563e-03
    -1.8708286933869711e+00 9.0564748108176597e-03
    -1.7320508075688774e+00 8.4106654409576362e-03
    -1.4596008983995230e+00 7.9957478370155152e-03
    -1.2176857643454877e+00 8.0442759853862084e-03
    -1.2535663410560176e+00 8.0442759853862084e-03
    -7.9772403521746571e-01 9.4327497145561545e-03
    -5.3452248382484868e-01 1.0195173807164032e-02
    -4.6940279403817725e-01 1.3236910050028106e-02
    -3.2816506165694681e-01 1.1339566996270572e-02
    -4.0160966445124940e-01 8.8976963528930031e-03
    -5.9874081708009175e-01 8.3189033080770299e-03
    -7.0710678118654757e-01 8.1003573254011339e-03
    -7.7459666924148340e-01 7.9543929856801549e-03
    -8.4515425472851646e-01 7.8552689516422202e-03
    -1.0571882797418488e+00 7.8431372549019607e-03 -1.
    8.4106654409576362e-03 -1.4596008983995230e+00
    7.9957478370155152e-03 -1.2176857643454877e+00
    7.8705130353608540e-03 -1.0871146130092180e+00
    8.0442759853862084e-03 -1.2535663410560176e+00
    8.1644460983469197e-03 -1.3301243435223522e+00
    7.9198971311042043e-03 -1.1500350625790898e+00
    7.9957478370155152e-03 -1.2176857643454877e+00
    7.8461649088479284e-03 -1.0281745265969473e+00
    7.8461649088479284e-03 -1.0281745265969473e+00
    7.8552689516422202e-03 -9.4590530292691744e-01
    7.8461649088479302e-03 -9.7259752515927467e-01
    7.8552689516422202e-03 -9.4590530292691744e-01
    7.8552689516422202e-03 -1.0571882797418488e+00
    7.8552689516422202e-03 -9.4590530292691744e-01
    7.8552689516422202e-03 -1.0571882797418488e+00
    7.8431372549019607e-03 -1. 7.8552689516422202e-03
    -1.0571882797418488e+00 7.8705130353608540e-03
    -9.1986621100779986e-01 7.8431372549019607e-03 -1.
    7.8920046264698458e-03 -1.1180339887498947e+00
    8.2370818728222817e-03 -1.3711309200802091e+00
    8.6277505602655180e-03 -1.5583874449479591e+00
    8.5132614939603859e-03 -1.5075567228888185e+00
    8.5132614939603859e-03 -1.5075567228888185e+00
    9.2339285670738139e-03 -1.7986923354612532e+00
    9.0564748108176597e-03 -1.7320508075688774e+00
    8.3189033080770299e-03 -1.4142135623730951e+00
    8.1003573254011339e-03 -1.2909944487358056e+00
    7.9957478370155152e-03 -1.2176857643454877e+00
    7.9198971311042043e-03 -8.6953870585248250e-01
    1.0900114397395523e-02 -4.2465029006520061e-01
    1.0195173807164032e-02 -4.6940279403817725e-01
    1.2478354962115544e-02 -3.5355339059327373e-01
    1.0900114397395523e-02 -4.2465029006520061e-01
    9.0564748108176597e-03 -5.7735026918962584e-01
    8.1644460983469214e-03 -7.5180941155611236e-01
    7.9957478370155152e-03 -8.2122993409346845e-01
    7.8705130353608540e-03 -9.1986621100779986e-01
    7.8552689516422202e-03 -1.0571882797418488e+00
    7.8920046264698458e-03 -1.1180339887498947e+00
    8.1003573254011339e-03 -1.2909944487358056e+00
    8.0442759853862084e-03 -1.2535663410560176e+00
    7.9957478370155152e-03 -1.2176857643454877e+00
    8.0442759853862084e-03 -1.2535663410560176e+00
    7.9957478370155152e-03 -1.2176857643454877e+00
    7.8461649088479284e-03 -1.0281745265969473e+00
    7.9957478370155152e-03 -1.2176857643454877e+00
    7.8552689516422202e-03 -1.0571882797418488e+00
    7.8461649088479284e-03 -1.0281745265969473e+00
    7.9198971311042043e-03 -8.6953870585248250e-01
    7.8705130353608540e-03 -1.0871146130092180e+00
    7.8920046264698458e-03 -1.1180339887498947e+00
    7.8705130353608540e-03 -1.0871146130092180e+00
    7.8431372549019607e-03 -1. 7.8552689516422202e-03
    -1.0571882797418488e+00 7.9198971311042043e-03
    -1.1500350625790898e+00 7.8705130353608540e-03
    -1.0871146130092180e+00 7.8705130353608540e-03
    -1.0871146130092180e+00 7.9957478370155152e-03
    -1.2176857643454877e+00 8.3189033080770299e-03
    -1.4142135623730951e+00 8.0442759853862084e-03
    -1.2535663410560176e+00 8.7553930298264783e-03
    -1.6124515496597096e+00 9.0564748108176597e-03
    -1.7320508075688774e+00 9.2339285670738139e-03
    -1.7986923354612532e+00 9.4327497145561563e-03
    -1.8708286933869711e+00 8.5132614939603859e-03
    -1.5075567228888185e+00 8.2370818728222817e-03
    -1.3711309200802091e+00 7.9957478370155152e-03
    -1.2176857643454877e+00 7.9543929856801549e-03
    -1.1832159566199230e+00 7.8920046264698458e-03
    -8.9442719099991586e-01 1.0522672835293128e-02
    -4.4721359549995793e-01 9.6562668431543919e-03
    -5.1298917604257710e-01 1.3236910050028106e-02
    -3.2816506165694681e-01 1.1339566996270572e-02
    -4.0160966445124940e-01 9.0564748108176597e-03
    -5.7735026918962584e-01 7.9957478370155152e-03
    -8.2122993409346845e-01 8.0442759853862084e-03
    -7.9772403521746571e-01 7.9198971311042043e-03
    -8.6953870585248250e-01 7.8920046264698458e-03
    -8.9442719099991586e-01 7.9198971311042043e-03
    -1.1500350625790898e+00 8.5132614939603859e-03
    -1.5075567228888185e+00 8.1644460983469197e-03
    -1.3301243435223522e+00 8.1003573254011339e-03
    -1.2909944487358056e+00 8.1003573254011339e-03
    -1.2909944487358056e+00 7.8461649088479284e-03
    -1.0281745265969473e+00 7.8705130353608540e-03
    -1.0871146130092180e+00 8.0442759853862084e-03
    -1.2535663410560176e+00 7.8552689516422202e-03
    -1.0571882797418488e+00 7.8461649088479284e-03
    -1.0281745265969473e+00 7.8431372549019607e-03 -1.
    7.8552689516422202e-03 -1.0571882797418488e+00
    7.9198971311042043e-03 -1.1500350625790898e+00
    7.9543929856801549e-03 -1.1832159566199230e+00
    7.8920046264698458e-03 -1.1180339887498947e+00
    7.8431372549019607e-03 -1. 7.8552689516422202e-03
    -1.0571882797418488e+00 7.8705130353608540e-03
    -1.0871146130092180e+00 8.1003573254011339e-03
    -1.2909944487358056e+00 8.3189033080770299e-03
    -1.4142135623730951e+00 8.3189033080770299e-03
    -1.4142135623730951e+00 8.3189033080770299e-03
    -1.4142135623730951e+00 8.0442759853862084e-03
    -1.2535663410560176e+00 9.0564748108176597e-03
    -1.7320508075688774e+00 8.5132614939603859e-03
    -1.5075567228888185e+00 8.6277505602655180e-03
    -1.5583874449479591e+00 8.8976963528930048e-03
    -1.6701717529076245e+00 8.3189033080770299e-03
    -1.4142135623730951e+00 8.0442759853862084e-03
    -1.2535663410560176e+00 7.9543929856801549e-03
    -1.1832159566199230e+00 7.8461649088479284e-03
    -1.0281745265969473e+00 9.4327497145561545e-03
    -5.3452248382484868e-01 9.6562668431543919e-03
    -5.1298917604257710e-01 1.4188769156600639e-02
    -3.0151134457776357e-01 1.1857708957152227e-02
    -3.7796447300922725e-01 8.8976963528930031e-03
    -5.9874081708009175e-01 8.3189033080770299e-03
    -7.0710678118654757e-01 8.1644460983469214e-03
    -7.5180941155611236e-01 7.8920046264698458e-03
    -8.9442719099991586e-01 7.8461649088479302e-03
    -9.7259752515927467e-01 7.8920046264698458e-03
    -1.1180339887498947e+00 7.9957478370155152e-03
    -1.2176857643454877e+00 8.0442759853862084e-03
    -1.2535663410560176e+00 7.8461649088479284e-03
    -1.0281745265969473e+00 7.8552689516422202e-03
    -1.0571882797418488e+00 7.8461649088479284e-03
    -1.0281745265969473e+00 8.1003573254011339e-03
    -1.2909944487358056e+00 7.9957478370155152e-03
    -1.2176857643454877e+00 7.8705130353608540e-03
    -9.1986621100779986e-01 7.8705130353608540e-03
    -9.1986621100779986e-01 7.8552689516422202e-03
    -9.4590530292691744e-01 7.8552689516422202e-03
    -9.4590530292691744e-01 7.8552689516422202e-03
    -1.0571882797418488e+00 7.8552689516422202e-03
    -1.0571882797418488e+00 7.8552689516422202e-03
    -1.0571882797418488e+00 7.8461649088479302e-03
    -9.7259752515927467e-01 7.8431372549019607e-03 -1.
    7.8461649088479302e-03 -9.7259752515927467e-01
    7.9957478370155152e-03 -1.2176857643454877e+00
    7.8705130353608540e-03 -1.0871146130092180e+00
    8.1003573254011339e-03 -1.2909944487358056e+00
    8.1644460983469197e-03 -1.3301243435223522e+00
    8.0442759853862084e-03 -1.2535663410560176e+00
    8.5132614939603859e-03 -1.5075567228888185e+00
    8.3189033080770299e-03 -1.4142135623730951e+00
    8.4106654409576362e-03 -1.4596008983995230e+00
    8.7553930298264783e-03 -1.6124515496597096e+00
    7.9198971311042043e-03 -1.1500350625790898e+00
    7.9543929856801549e-03 -1.1832159566199230e+00
    7.9957478370155152e-03 -1.2176857643454877e+00
    7.8461649088479302e-03 -9.7259752515927467e-01
    8.4106654409576379e-03 -6.8511878904467427e-01
    9.9086457366154793e-03 -4.9130368444051753e-01
    1.4188769156600639e-02 -3.0151134457776357e-01
    1.2478354962115544e-02 -3.5355339059327373e-01
    9.2339285670738156e-03 -5.5595944914256934e-01
    8.3189033080770299e-03 -7.0710678118654757e-01
    8.1644460983469214e-03 -7.5180941155611236e-01
    7.9543929856801549e-03 -8.4515425472851646e-01
    7.8705130353608540e-03 -1.0871146130092180e+00
    7.8705130353608540e-03 -1.0871146130092180e+00
    7.9957478370155152e-03 -1.2176857643454877e+00
    7.8920046264698458e-03 -1.1180339887498947e+00
    7.8705130353608540e-03 -1.0871146130092180e+00
    7.8705130353608540e-03 -1.0871146130092180e+00
    8.0442759853862084e-03 -1.2535663410560176e+00
    7.8920046264698458e-03 -8.9442719099991586e-01
    7.9198971311042043e-03 -1.1500350625790898e+00
    7.8461649088479284e-03 -1.0281745265969473e+00
    7.8461649088479302e-03 -9.7259752515927467e-01
    7.9198971311042043e-03 -8.6953870585248250e-01
    7.8461649088479302e-03 -9.7259752515927467e-01
    7.8552689516422202e-03 -9.4590530292691744e-01
    7.8920046264698458e-03 -8.9442719099991586e-01
    7.9957478370155152e-03 -8.2122993409346845e-01
    7.8705130353608540e-03 -9.1986621100779986e-01
    7.8461649088479302e-03 -9.7259752515927467e-01
    7.8552689516422202e-03 -9.4590530292691744e-01
    7.9543929856801549e-03 -1.1832159566199230e+00
    8.3189033080770299e-03 -1.4142135623730951e+00
    8.2370818728222817e-03 -1.3711309200802091e+00
    8.1644460983469197e-03 -1.3301243435223522e+00
    8.1644460983469197e-03 -1.3301243435223522e+00
    7.9957478370155152e-03 -1.2176857643454877e+00
    8.4106654409576362e-03 -1.4596008983995230e+00
    8.1644460983469197e-03 -1.3301243435223522e+00
    8.4106654409576362e-03 -1.4596008983995230e+00
    7.8920046264698458e-03 -1.1180339887498947e+00
    7.9198971311042043e-03 -1.1500350625790898e+00
    7.9543929856801549e-03 -1.1832159566199230e+00
    7.8552689516422202e-03 -9.4590530292691744e-01
    8.5132614939603841e-03 -6.6332495807107994e-01
    9.9086457366154793e-03 -4.9130368444051753e-01
    1.7120161767270561e-02 -2.4253562503633294e-01
    1.1339566996270572e-02 -4.0160966445124940e-01
    9.2339285670738156e-03 -5.5595944914256934e-01
    8.3189033080770299e-03 -7.0710678118654757e-01
    8.2370818728222817e-03 -7.2932495748947290e-01
    7.9957478370155152e-03 -8.2122993409346845e-01
    7.8461649088479302e-03 -9.7259752515927467e-01
    7.8552689516422202e-03 -1.0571882797418488e+00
    7.9198971311042043e-03 -1.1500350625790898e+00
    7.9957478370155152e-03 -1.2176857643454877e+00
    7.8920046264698458e-03 -1.1180339887498947e+00
    8.0442759853862084e-03 -1.2535663410560176e+00
    8.0442759853862084e-03 -1.2535663410560176e+00
    7.9957478370155152e-03 -1.2176857643454877e+00
    7.8461649088479302e-03 -9.7259752515927467e-01
    7.8552689516422202e-03 -1.0571882797418488e+00
    7.8431372549019607e-03 -1. 7.8461649088479302e-03
    -9.7259752515927467e-01 7.8461649088479302e-03
    -9.7259752515927467e-01 7.8705130353608540e-03
    -9.1986621100779986e-01 7.8920046264698458e-03
    -8.9442719099991586e-01 7.8920046264698458e-03
    -8.9442719099991586e-01 7.9198971311042043e-03
    -8.6953870585248250e-01 7.8552689516422202e-03
    -1.0571882797418488e+00 7.9198971311042043e-03
    -1.1500350625790898e+00 7.9543929856801549e-03
    -1.1832159566199230e+00 8.1003573254011339e-03
    -1.2909944487358056e+00 8.3189033080770299e-03
    -1.4142135623730951e+00 8.0442759853862084e-03
    -1.2535663410560176e+00 8.1003573254011339e-03
    -1.2909944487358056e+00 8.4106654409576362e-03
    -1.4596008983995230e+00 7.9543929856801549e-03
    -1.1832159566199230e+00 8.2370818728222817e-03
    -1.3711309200802091e+00 8.5132614939603859e-03
    -1.5075567228888185e+00 7.9543929856801549e-03
    -1.1832159566199230e+00 7.9543929856801549e-03
    -1.1832159566199230e+00 7.8920046264698458e-03
    -1.1180339887498947e+00 7.8552689516422202e-03
    -9.4590530292691744e-01 8.5132614939603841e-03
    -6.6332495807107994e-01 9.9086457366154793e-03
    -4.9130368444051753e-01 1.7120161767270561e-02
    -2.4253562503633294e-01 1.0522672835293128e-02
    -4.4721359549995793e-01 9.9086457366154793e-03
    -4.9130368444051753e-01 8.6277505602655180e-03
    -6.4168894791974795e-01 8.1003573254011339e-03
    -7.7459666924148340e-01 7.9957478370155152e-03
    -8.2122993409346845e-01 7.8552689516422202e-03
    -9.4590530292691744e-01 7.8552689516422202e-03
    -1.0571882797418488e+00 7.8461649088479302e-03
    -9.7259752515927467e-01 7.8705130353608540e-03
    -1.0871146130092180e+00 7.9543929856801549e-03
    -1.1832159566199230e+00 8.1003573254011339e-03
    -1.2909944487358056e+00 7.8552689516422202e-03
    -1.0571882797418488e+00 7.8552689516422202e-03
    -1.0571882797418488e+00 7.8705130353608540e-03
    -1.0871146130092180e+00 7.9957478370155152e-03
    -1.2176857643454877e+00 7.8552689516422202e-03
    -1.0571882797418488e+00 7.9198971311042043e-03
    -1.1500350625790898e+00 7.8461649088479302e-03
    -9.7259752515927467e-01 7.8705130353608540e-03
    -9.1986621100779986e-01 7.8461649088479284e-03
    -1.0281745265969473e+00 7.8461649088479302e-03
    -9.7259752515927467e-01 7.8461649088479284e-03
    -1.0281745265969473e+00 7.8431372549019607e-03 -1.
    7.9543929856801549e-03 -1.1832159566199230e+00
    7.8461649088479302e-03 -9.7259752515927467e-01
    8.0442759853862084e-03 -1.2535663410560176e+00
    7.9957478370155152e-03 -1.2176857643454877e+00
    7.8552689516422202e-03 -1.0571882797418488e+00
    7.9543929856801549e-03 -1.1832159566199230e+00
    8.1003573254011339e-03 -1.2909944487358056e+00
    8.2370818728222817e-03 -1.3711309200802091e+00
    8.5132614939603859e-03 -1.5075567228888185e+00
    8.1003573254011339e-03 -1.2909944487358056e+00
    7.8920046264698458e-03 -1.1180339887498947e+00
    7.9957478370155152e-03 -1.2176857643454877e+00
    7.8920046264698458e-03 -1.1180339887498947e+00
    7.8705130353608540e-03 -9.1986621100779986e-01
    8.2370818728222817e-03 -7.2932495748947290e-01
    9.2339285670738156e-03 -5.5595944914256934e-01
    1.4188769156600639e-02 -3.0151134457776357e-01
    1.0900114397395523e-02 -4.2465029006520061e-01
    9.2339285670738156e-03 -5.5595944914256934e-01
    8.7553930298264783e-03 -6.2017367294604220e-01
    8.1644460983469214e-03 -7.5180941155611236e-01
    8.0442759853862084e-03 -7.9772403521746571e-01
    7.8461649088479302e-03 -9.7259752515927467e-01
    7.8705130353608540e-03 -1.0871146130092180e+00
    7.8920046264698458e-03 -1.1180339887498947e+00
    7.8920046264698458e-03 -8.9442719099991586e-01
    8.0442759853862084e-03 -1.2535663410560176e+00
    8.1003573254011339e-03 -1.2909944487358056e+00
    8.0442759853862084e-03 -1.2535663410560176e+00
    7.8920046264698458e-03 -1.1180339887498947e+00
    7.8920046264698458e-03 -1.1180339887498947e+00
    7.9543929856801549e-03 -1.1832159566199230e+00
    7.9198971311042043e-03 -1.1500350625790898e+00
    7.9543929856801549e-03 -1.1832159566199230e+00
    7.8920046264698458e-03 -1.1180339887498947e+00
    7.8552689516422202e-03 -1.0571882797418488e+00
    7.8461649088479302e-03 -9.7259752515927467e-01
    7.8431372549019607e-03 -1. 7.9543929856801549e-03
    -1.1832159566199230e+00 7.8705130353608540e-03
    -1.0871146130092180e+00 7.9198971311042043e-03
    -1.1500350625790898e+00 7.9543929856801549e-03
    -1.1832159566199230e+00 7.8461649088479284e-03
    -1.0281745265969473e+00 7.8461649088479302e-03
    -9.7259752515927467e-01 8.1003573254011339e-03
    -1.2909944487358056e+00 8.2370818728222817e-03
    -1.3711309200802091e+00 8.0442759853862084e-03
    -1.2535663410560176e+00 8.1003573254011339e-03
    -1.2909944487358056e+00 8.5132614939603859e-03
    -1.5075567228888185e+00 8.1644460983469197e-03
    -1.3301243435223522e+00 8.1003573254011339e-03
    -1.2909944487358056e+00 7.8552689516422202e-03
    -1.0571882797418488e+00 7.8705130353608540e-03
    -1.0871146130092180e+00 7.8461649088479302e-03
    -9.7259752515927467e-01 8.6277505602655180e-03
    -6.4168894791974795e-01 9.4327497145561545e-03
    -5.3452248382484868e-01 2.3863178957040466e-02
    -1.6903085094570330e-01 1.0195173807164032e-02
    -4.6940279403817725e-01 9.6562668431543919e-03
    -5.1298917604257710e-01 8.8976963528930031e-03
    -5.9874081708009175e-01 8.2370818728222817e-03
    -7.2932495748947290e-01 8.0442759853862084e-03
    -7.9772403521746571e-01 7.9957478370155152e-03
    -8.2122993409346845e-01 7.8552689516422202e-03
    -9.4590530292691744e-01 7.8705130353608540e-03
    -9.1986621100779986e-01 7.8461649088479302e-03
    -9.7259752515927467e-01 7.8705130353608540e-03
    -9.1986621100779986e-01 7.8920046264698458e-03
    -1.1180339887498947e+00 7.9543929856801549e-03
    -1.1832159566199230e+00 7.8461649088479284e-03
    -1.0281745265969473e+00 7.9198971311042043e-03
    -1.1500350625790898e+00 7.9543929856801549e-03
    -1.1832159566199230e+00 7.8552689516422202e-03
    -1.0571882797418488e+00 7.8552689516422202e-03
    -1.0571882797418488e+00 7.8552689516422202e-03
    -1.0571882797418488e+00 8.0442759853862084e-03
    -1.2535663410560176e+00 7.9543929856801549e-03
    -1.1832159566199230e+00 7.9198971311042043e-03
    -1.1500350625790898e+00 7.9543929856801549e-03
    -1.1832159566199230e+00 7.9198971311042043e-03
    -1.1500350625790898e+00 7.8461649088479302e-03
    -9.7259752515927467e-01 7.8920046264698458e-03
    -1.1180339887498947e+00 7.8461649088479302e-03
    -9.7259752515927467e-01 8.1644460983469197e-03
    -1.3301243435223522e+00 8.2370818728222817e-03
    -1.3711309200802091e+00 7.9543929856801549e-03
    -1.1832159566199230e+00 8.1644460983469197e-03
    -1.3301243435223522e+00 8.1003573254011339e-03
    -1.2909944487358056e+00 8.6277505602655180e-03
    -1.5583874449479591e+00 7.9957478370155152e-03
    -1.2176857643454877e+00 8.1003573254011339e-03
    -1.2909944487358056e+00 7.8920046264698458e-03
    -1.1180339887498947e+00 7.8920046264698458e-03
    -1.1180339887498947e+00 8.0442759853862084e-03
    -7.9772403521746571e-01 8.3189033080770299e-03
    -7.0710678118654757e-01 9.6562668431543919e-03
    -5.1298917604257710e-01 1.4188769156600639e-02
    -3.0151134457776357e-01 1.1857708957152227e-02
    -3.7796447300922725e-01 9.6562668431543919e-03
    -5.1298917604257710e-01 9.6562668431543919e-03
    -5.1298917604257710e-01 8.1003573254011339e-03
    -7.7459666924148340e-01 8.1644460983469214e-03
    -7.5180941155611236e-01 8.0442759853862084e-03
    -7.9772403521746571e-01 7.9198971311042043e-03
    -8.6953870585248250e-01 7.8552689516422202e-03
    -9.4590530292691744e-01 7.8705130353608540e-03
    -9.1986621100779986e-01 7.8705130353608540e-03
    -1.0871146130092180e+00 7.8920046264698458e-03
    -1.1180339887498947e+00 7.8705130353608540e-03
    -9.1986621100779986e-01 7.8431372549019607e-03 -1.
    7.9543929856801549e-03 -1.1832159566199230e+00
    7.8920046264698458e-03 -8.9442719099991586e-01
    7.9543929856801549e-03 -1.1832159566199230e+00
    8.0442759853862084e-03 -1.2535663410560176e+00
    7.8705130353608540e-03 -1.0871146130092180e+00
    7.8461649088479302e-03 -9.7259752515927467e-01
    7.9957478370155152e-03 -1.2176857643454877e+00
    7.9957478370155152e-03 -1.2176857643454877e+00
    7.8705130353608540e-03 -1.0871146130092180e+00
    7.8920046264698458e-03 -1.1180339887498947e+00
    7.8920046264698458e-03 -1.1180339887498947e+00
    7.9957478370155152e-03 -1.2176857643454877e+00
    7.8705130353608540e-03 -1.0871146130092180e+00
    7.9198971311042043e-03 -1.1500350625790898e+00
    7.8461649088479284e-03 -1.0281745265969473e+00
    7.8920046264698458e-03 -1.1180339887498947e+00
    8.1644460983469197e-03 -1.3301243435223522e+00
    9.0564748108176597e-03 -1.7320508075688774e+00
    9.0564748108176597e-03 -1.7320508075688774e+00
    8.1003573254011339e-03 -1.2909944487358056e+00
    7.8552689516422202e-03 -1.0571882797418488e+00
    7.9543929856801549e-03 -1.1832159566199230e+00
    7.8920046264698458e-03 -1.1180339887498947e+00
    8.2370818728222817e-03 -7.2932495748947290e-01
    8.4106654409576379e-03 -6.8511878904467427e-01
    1.4188769156600639e-02 -3.0151134457776357e-01
    1.4188769156600639e-02 -3.0151134457776357e-01
    1.1857708957152227e-02 -3.7796447300922725e-01
    9.6562668431543919e-03 -5.1298917604257710e-01
    9.6562668431543919e-03 -5.1298917604257710e-01
    9.0564748108176597e-03 -5.7735026918962584e-01
    8.3189033080770299e-03 -7.0710678118654757e-01
    8.0442759853862084e-03 -7.9772403521746571e-01
    8.0442759853862084e-03 -7.9772403521746571e-01
    7.8920046264698458e-03 -8.9442719099991586e-01
    7.8552689516422202e-03 -9.4590530292691744e-01
    7.8920046264698458e-03 -8.9442719099991586e-01
    7.8705130353608540e-03 -1.0871146130092180e+00
    8.0442759853862084e-03 -1.2535663410560176e+00
    7.9543929856801549e-03 -1.1832159566199230e+00
    7.9198971311042043e-03 -1.1500350625790898e+00
    7.8920046264698458e-03 -1.1180339887498947e+00
    7.8705130353608540e-03 -1.0871146130092180e+00
    7.9957478370155152e-03 -1.2176857643454877e+00
    8.1003573254011339e-03 -1.2909944487358056e+00
    8.0442759853862084e-03 -1.2535663410560176e+00
    7.9957478370155152e-03 -1.2176857643454877e+00
    7.8705130353608540e-03 -1.0871146130092180e+00
    7.9543929856801549e-03 -1.1832159566199230e+00
    7.9198971311042043e-03 -1.1500350625790898e+00
    7.9957478370155152e-03 -1.2176857643454877e+00
    7.9957478370155152e-03 -1.2176857643454877e+00
    8.0442759853862084e-03 -1.2535663410560176e+00
    7.9957478370155152e-03 -1.2176857643454877e+00
    8.1003573254011339e-03 -1.2909944487358056e+00
    7.9198971311042043e-03 -1.1500350625790898e+00
    8.5132614939603859e-03 -1.5075567228888185e+00
    9.4327497145561563e-03 -1.8708286933869711e+00
    8.2370818728222817e-03 -1.3711309200802091e+00
    8.1003573254011339e-03 -1.2909944487358056e+00
    7.9198971311042043e-03 -1.1500350625790898e+00
    7.8920046264698458e-03 -1.1180339887498947e+00
    7.8461649088479284e-03 -1.0281745265969473e+00
    7.9957478370155152e-03 -8.2122993409346845e-01
    8.4106654409576379e-03 -6.8511878904467427e-01
    1.4188769156600639e-02 -3.0151134457776357e-01
    1.5426589121171381e-02 -2.7317918235407651e-01
    1.3236910050028106e-02 -3.2816506165694681e-01
    1.1857708957152227e-02 -3.7796447300922725e-01
    9.9086457366154793e-03 -4.9130368444051753e-01
    9.6562668431543919e-03 -5.1298917604257710e-01
    9.0564748108176597e-03 -5.7735026918962584e-01
    8.4106654409576379e-03 -6.8511878904467427e-01
    8.0442759853862084e-03 -7.9772403521746571e-01
    8.0442759853862084e-03 -7.9772403521746571e-01
    7.8920046264698458e-03 -8.9442719099991586e-01
    7.8431372549019607e-03 -1. 7.8461649088479284e-03
    -1.0281745265969473e+00 8.1003573254011339e-03
    -1.2909944487358056e+00 8.2370818728222817e-03
    -1.3711309200802091e+00 7.8461649088479284e-03
    -1.0281745265969473e+00 7.8920046264698458e-03
    -1.1180339887498947e+00 7.8705130353608540e-03
    -1.0871146130092180e+00 7.8920046264698458e-03
    -1.1180339887498947e+00 7.9543929856801549e-03
    -1.1832159566199230e+00 8.1003573254011339e-03
    -1.2909944487358056e+00 7.8552689516422202e-03
    -1.0571882797418488e+00 7.9957478370155152e-03
    -1.2176857643454877e+00 7.9198971311042043e-03
    -1.1500350625790898e+00 7.9198971311042043e-03
    -1.1500350625790898e+00 7.8705130353608540e-03
    -1.0871146130092180e+00 7.8461649088479284e-03
    -1.0281745265969473e+00 7.8552689516422202e-03
    -1.0571882797418488e+00 7.9198971311042043e-03
    -1.1500350625790898e+00 7.9957478370155152e-03
    -1.2176857643454877e+00 7.8920046264698458e-03
    -1.1180339887498947e+00 8.6277505602655180e-03
    -1.5583874449479591e+00 8.3189033080770299e-03
    -1.4142135623730951e+00 8.2370818728222817e-03
    -1.3711309200802091e+00 7.9198971311042043e-03
    -1.1500350625790898e+00 7.8552689516422202e-03
    -1.0571882797418488e+00 7.8552689516422202e-03
    -9.4590530292691744e-01 7.8431372549019607e-03 -1.
    8.1003573254011339e-03 -7.7459666924148340e-01
    1.0522672835293128e-02 -4.4721359549995793e-01
    1.4188769156600639e-02 -3.0151134457776357e-01
    1.7120161767270561e-02 -2.4253562503633294e-01
    1.5426589121171381e-02 -2.7317918235407651e-01
    1.3236910050028106e-02 -3.2816506165694681e-01
    1.0195173807164032e-02 -4.6940279403817725e-01
    1.0195173807164032e-02 -4.6940279403817725e-01
    9.9086457366154793e-03 -4.9130368444051753e-01
    1.0195173807164032e-02 -4.6940279403817725e-01
    8.5132614939603841e-03 -6.6332495807107994e-01
    8.5132614939603841e-03 -6.6332495807107994e-01
    7.8705130353608540e-03 -9.1986621100779986e-01
    7.8705130353608540e-03 -1.0871146130092180e+00
    7.9543929856801549e-03 -8.4515425472851646e-01
    7.8461649088479284e-03 -1.0281745265969473e+00
    7.9957478370155152e-03 -1.2176857643454877e+00
    8.1644460983469197e-03 -1.3301243435223522e+00
    8.2370818728222817e-03 -1.3711309200802091e+00
    7.9957478370155152e-03 -1.2176857643454877e+00
    7.9957478370155152e-03 -1.2176857643454877e+00
    7.8461649088479284e-03 -1.0281745265969473e+00
    7.8705130353608540e-03 -1.0871146130092180e+00
    7.8461649088479302e-03 -9.7259752515927467e-01
    7.8920046264698458e-03 -1.1180339887498947e+00
    7.8705130353608540e-03 -1.0871146130092180e+00
    7.8705130353608540e-03 -1.0871146130092180e+00
    7.8461649088479284e-03 -1.0281745265969473e+00
    7.8705130353608540e-03 -1.0871146130092180e+00
    7.8920046264698458e-03 -1.1180339887498947e+00
    7.8461649088479302e-03 -9.7259752515927467e-01
    7.8920046264698458e-03 -1.1180339887498947e+00
    7.8461649088479302e-03 -9.7259752515927467e-01
    9.2339285670738139e-03 -1.7986923354612532e+00
    8.1003573254011339e-03 -1.2909944487358056e+00
    7.9957478370155152e-03 -1.2176857643454877e+00
    7.9957478370155152e-03 -1.2176857643454877e+00
    7.8552689516422202e-03 -1.0571882797418488e+00
    7.8705130353608540e-03 -9.1986621100779986e-01
    8.0442759853862084e-03 -7.9772403521746571e-01
    8.6277505602655180e-03 -6.4168894791974795e-01
    1.1339566996270572e-02 -4.0160966445124940e-01
    1.7120161767270561e-02 -2.4253562503633294e-01
    1.7120161767270561e-02 -2.4253562503633294e-01
    1.5426589121171381e-02 -2.7317918235407651e-01
    1.3236910050028106e-02 -3.2816506165694681e-01
    1.1857708957152227e-02 -3.7796447300922725e-01
    1.0195173807164032e-02 -4.6940279403817725e-01
    1.0900114397395523e-02 -4.2465029006520061e-01
    1.0195173807164032e-02 -4.6940279403817725e-01
    9.6562668431543919e-03 -5.1298917604257710e-01
    8.4106654409576379e-03 -6.8511878904467427e-01
    8.2370818728222817e-03 -7.2932495748947290e-01
    8.0442759853862084e-03 -7.9772403521746571e-01
    8.1003573254011339e-03 -7.7459666924148340e-01
    7.8920046264698458e-03 -8.9442719099991586e-01
    7.8920046264698458e-03 -8.9442719099991586e-01
    7.8552689516422202e-03 -1.0571882797418488e+00
    8.1003573254011339e-03 -1.2909944487358056e+00
    8.3189033080770299e-03 -1.4142135623730951e+00
    8.2370818728222817e-03 -1.3711309200802091e+00
    7.9543929856801549e-03 -1.1832159566199230e+00
    8.1644460983469197e-03 -1.3301243435223522e+00
    7.9957478370155152e-03 -1.2176857643454877e+00
    7.9957478370155152e-03 -1.2176857643454877e+00
    7.8920046264698458e-03 -1.1180339887498947e+00
    7.9543929856801549e-03 -1.1832159566199230e+00
    7.8461649088479302e-03 -9.7259752515927467e-01
    7.8461649088479302e-03 -9.7259752515927467e-01
    7.8461649088479284e-03 -1.0281745265969473e+00
    7.9198971311042043e-03 -1.1500350625790898e+00
    8.1644460983469197e-03 -1.3301243435223522e+00
    8.1003573254011339e-03 -1.2909944487358056e+00
    8.5132614939603859e-03 -1.5075567228888185e+00
    7.9198971311042043e-03 -1.1500350625790898e+00
    7.8705130353608540e-03 -1.0871146130092180e+00
    7.8431372549019607e-03 -1. 7.8552689516422202e-03
    -1.0571882797418488e+00 7.8431372549019607e-03 -1.
    8.5132614939603841e-03 -6.6332495807107994e-01
    9.2339285670738156e-03 -5.5595944914256934e-01
    1.4188769156600639e-02 -3.0151134457776357e-01
    1.5426589121171381e-02 -2.7317918235407651e-01
    1.9624886028901153e-02 -2.0851441405707474e-01
    1.5426589121171381e-02 -2.7317918235407651e-01
    1.3236910050028106e-02 -3.2816506165694681e-01
    1.1339566996270572e-02 -4.0160966445124940e-01
    1.1339566996270572e-02 -4.0160966445124940e-01
    1.0195173807164032e-02 -4.6940279403817725e-01
    9.4327497145561545e-03 -5.3452248382484868e-01
    9.2339285670738156e-03 -5.5595944914256934e-01
    8.7553930298264783e-03 -6.2017367294604220e-01
    8.2370818728222817e-03 -7.2932495748947290e-01
    8.5132614939603841e-03 -6.6332495807107994e-01
    8.1644460983469214e-03 -7.5180941155611236e-01
    8.0442759853862084e-03 -7.9772403521746571e-01
    7.8431372549019607e-03 -1. 7.8705130353608540e-03
    -1.0871146130092180e+00 7.8461649088479284e-03
    -1.0281745265969473e+00 7.8920046264698458e-03
    -1.1180339887498947e+00 7.8705130353608540e-03
    -1.0871146130092180e+00 7.8920046264698458e-03
    -1.1180339887498947e+00 7.9198971311042043e-03
    -1.1500350625790898e+00 7.9957478370155152e-03
    -1.2176857643454877e+00 7.9543929856801549e-03
    -1.1832159566199230e+00 7.8461649088479284e-03
    -1.0281745265969473e+00 7.9543929856801549e-03
    -1.1832159566199230e+00 7.8552689516422202e-03
    -9.4590530292691744e-01 7.8461649088479302e-03
    -9.7259752515927467e-01 7.9198971311042043e-03
    -8.6953870585248250e-01 8.1003573254011339e-03
    -1.2909944487358056e+00 8.0442759853862084e-03
    -1.2535663410560176e+00 8.1644460983469197e-03
    -1.3301243435223522e+00 7.9543929856801549e-03
    -1.1832159566199230e+00 7.9198971311042043e-03
    -1.1500350625790898e+00 7.8461649088479284e-03
    -1.0281745265969473e+00 7.8705130353608540e-03
    -1.0871146130092180e+00 7.8705130353608540e-03
    -1.0871146130092180e+00 8.1003573254011339e-03
    -7.7459666924148340e-01 8.6277505602655180e-03
    -6.4168894791974795e-01 9.9086457366154793e-03
    -4.9130368444051753e-01 1.2478354962115544e-02
    -3.5355339059327373e-01 1.5426589121171381e-02
    -2.7317918235407651e-01 1.7120161767270561e-02
    -2.4253562503633294e-01 1.5426589121171381e-02
    -2.7317918235407651e-01 1.1857708957152227e-02
    -3.7796447300922725e-01 1.1339566996270572e-02
    -4.0160966445124940e-01 1.1339566996270572e-02
    -4.0160966445124940e-01 1.0900114397395523e-02
    -4.2465029006520061e-01 9.4327497145561545e-03
    -5.3452248382484868e-01 9.0564748108176597e-03
    -5.7735026918962584e-01 8.8976963528930031e-03
    -5.9874081708009175e-01 9.0564748108176597e-03
    -5.7735026918962584e-01 8.4106654409576379e-03
    -6.8511878904467427e-01 8.3189033080770299e-03
    -7.0710678118654757e-01 7.8920046264698458e-03
    -8.9442719099991586e-01 7.8552689516422202e-03
    -9.4590530292691744e-01 7.8552689516422202e-03
    -9.4590530292691744e-01 7.9543929856801549e-03
    -8.4515425472851646e-01 7.9198971311042043e-03
    -1.1500350625790898e+00 7.8552689516422202e-03
    -1.0571882797418488e+00 7.8431372549019607e-03 -1.
    7.8920046264698458e-03 -1.1180339887498947e+00
    8.0442759853862084e-03 -1.2535663410560176e+00
    8.0442759853862084e-03 -1.2535663410560176e+00
    7.9957478370155152e-03 -1.2176857643454877e+00
    7.8920046264698458e-03 -1.1180339887498947e+00
    7.8705130353608540e-03 -1.0871146130092180e+00
    8.1003573254011339e-03 -1.2909944487358056e+00
    8.1003573254011339e-03 -1.2909944487358056e+00
    8.5132614939603859e-03 -1.5075567228888185e+00
    8.1003573254011339e-03 -1.2909944487358056e+00
    7.9957478370155152e-03 -1.2176857643454877e+00
    7.8461649088479302e-03 -9.7259752515927467e-01
    7.8920046264698458e-03 -1.1180339887498947e+00
    7.8705130353608540e-03 -1.0871146130092180e+00
    7.8705130353608540e-03 -1.0871146130092180e+00
    7.9957478370155152e-03 -8.2122993409346845e-01
    8.5132614939603841e-03 -6.6332495807107994e-01
    8.5132614939603841e-03 -6.6332495807107994e-01
    9.9086457366154793e-03 -4.9130368444051753e-01
    1.2478354962115544e-02 -3.5355339059327373e-01
    1.5426589121171381e-02 -2.7317918235407651e-01
    1.9624886028901153e-02 -2.0851441405707474e-01
    1.7120161767270561e-02 -2.4253562503633294e-01
    1.2478354962115544e-02 -3.5355339059327373e-01
    1.1339566996270572e-02 -4.0160966445124940e-01
    1.0522672835293128e-02 -4.4721359549995793e-01
    1.0195173807164032e-02 -4.6940279403817725e-01
    1.0522672835293128e-02 -4.4721359549995793e-01
    9.2339285670738156e-03 -5.5595944914256934e-01
    9.2339285670738156e-03 -5.5595944914256934e-01
    9.2339285670738156e-03 -5.5595944914256934e-01
    9.0564748108176597e-03 -5.7735026918962584e-01
    8.1003573254011339e-03 -7.7459666924148340e-01
    8.3189033080770299e-03 -7.0710678118654757e-01
    8.1644460983469214e-03 -7.5180941155611236e-01
    7.9957478370155152e-03 -8.2122993409346845e-01
    7.8461649088479302e-03 -9.7259752515927467e-01
    7.8552689516422202e-03 -9.4590530292691744e-01
    7.9198971311042043e-03 -1.1500350625790898e+00
    7.8920046264698458e-03 -1.1180339887498947e+00
    8.0442759853862084e-03 -1.2535663410560176e+00
    7.8552689516422202e-03 -1.0571882797418488e+00
    7.8431372549019607e-03 -1. 7.9957478370155152e-03
    -1.2176857643454877e+00 8.0442759853862084e-03
    -1.2535663410560176e+00 7.8461649088479284e-03
    -1.0281745265969473e+00 7.9198971311042043e-03
    -1.1500350625790898e+00 7.9543929856801549e-03
    -1.1832159566199230e+00 8.1003573254011339e-03
    -1.2909944487358056e+00 8.0442759853862084e-03
    -1.2535663410560176e+00 7.9957478370155152e-03
    -1.2176857643454877e+00 7.8552689516422202e-03
    -9.4590530292691744e-01 7.8431372549019607e-03 -1.
    7.8461649088479284e-03 -1.0281745265969473e+00
    7.9198971311042043e-03 -8.6953870585248250e-01
    8.3189033080770299e-03 -7.0710678118654757e-01
    8.5132614939603841e-03 -6.6332495807107994e-01
    8.6277505602655180e-03 -6.4168894791974795e-01
    1.0900114397395523e-02 -4.2465029006520061e-01
    1.3236910050028106e-02 -3.2816506165694681e-01
    1.4188769156600639e-02 -3.0151134457776357e-01
    2.3863178957040466e-02 -1.6903085094570330e-01
    1.5426589121171381e-02 -2.7317918235407651e-01
    1.2478354962115544e-02 -3.5355339059327373e-01
    1.1857708957152227e-02 -3.7796447300922725e-01
    1.0195173807164032e-02 -4.6940279403817725e-01
    1.0195173807164032e-02 -4.6940279403817725e-01
    1.0195173807164032e-02 -4.6940279403817725e-01
    1.0522672835293128e-02 -4.4721359549995793e-01
    9.2339285670738156e-03 -5.5595944914256934e-01
    9.4327497145561545e-03 -5.3452248382484868e-01
    9.4327497145561545e-03 -5.3452248382484868e-01
    8.7553930298264783e-03 -6.2017367294604220e-01
    7.9957478370155152e-03 -8.2122993409346845e-01
    8.0442759853862084e-03 -7.9772403521746571e-01
    7.8920046264698458e-03 -8.9442719099991586e-01
    7.8705130353608540e-03 -9.1986621100779986e-01
    7.8552689516422202e-03 -9.4590530292691744e-01
    7.9198971311042043e-03 -8.6953870585248250e-01
    7.9543929856801549e-03 -1.1832159566199230e+00
    7.9957478370155152e-03 -1.2176857643454877e+00
    7.8552689516422202e-03 -1.0571882797418488e+00
    7.8461649088479284e-03 -1.0281745265969473e+00
    7.8705130353608540e-03 -9.1986621100779986e-01
    7.8461649088479284e-03 -1.0281745265969473e+00
    8.2370818728222817e-03 -1.3711309200802091e+00
    8.1644460983469197e-03 -1.3301243435223522e+00
    8.0442759853862084e-03 -1.2535663410560176e+00
    7.8461649088479284e-03 -1.0281745265969473e+00
    7.8920046264698458e-03 -8.9442719099991586e-01
    7.8431372549019607e-03 -1. 7.8461649088479302e-03
    -9.7259752515927467e-01 7.9957478370155152e-03
    -8.2122993409346845e-01 8.0442759853862084e-03
    -7.9772403521746571e-01 8.1644460983469214e-03
    -7.5180941155611236e-01 8.6277505602655180e-03
    -6.4168894791974795e-01 8.6277505602655180e-03
    -6.4168894791974795e-01 9.9086457366154793e-03
    -4.9130368444051753e-01 1.0195173807164032e-02
    -4.6940279403817725e-01 1.3236910050028106e-02
    -3.2816506165694681e-01 1.5426589121171381e-02
    -2.7317918235407651e-01 1.7120161767270561e-02
    -2.4253562503633294e-01 1.4188769156600639e-02
    -3.0151134457776357e-01 1.3236910050028106e-02
    -3.2816506165694681e-01 1.1339566996270572e-02
    -4.0160966445124940e-01 1.0900114397395523e-02
    -4.2465029006520061e-01 1.0900114397395523e-02
    -4.2465029006520061e-01 1.0900114397395523e-02
    -4.2465029006520061e-01 1.0900114397395523e-02
    -4.2465029006520061e-01 1.0522672835293128e-02
    -4.4721359549995793e-01 9.6562668431543919e-03
    -5.1298917604257710e-01 1.0195173807164032e-02
    -4.6940279403817725e-01 9.9086457366154793e-03
    -4.9130368444051753e-01 9.6562668431543919e-03
    -5.1298917604257710e-01 8.3189033080770299e-03
    -7.0710678118654757e-01 8.0442759853862084e-03
    -7.9772403521746571e-01 7.8552689516422202e-03
    -9.4590530292691744e-01 7.8920046264698458e-03
    -8.9442719099991586e-01 7.8920046264698458e-03
    -8.9442719099991586e-01 7.8431372549019607e-03 -1.
    7.9543929856801549e-03 -1.1832159566199230e+00
    7.8705130353608540e-03 -1.0871146130092180e+00
    7.8461649088479302e-03 -9.7259752515927467e-01
    7.8552689516422202e-03 -9.4590530292691744e-01
    8.1644460983469197e-03 -1.3301243435223522e+00
    8.0442759853862084e-03 -1.2535663410560176e+00
    8.1644460983469197e-03 -1.3301243435223522e+00
    7.8552689516422202e-03 -9.4590530292691744e-01
    7.8552689516422202e-03 -1.0571882797418488e+00
    7.8461649088479302e-03 -9.7259752515927467e-01
    7.8461649088479302e-03 -9.7259752515927467e-01
    7.9957478370155152e-03 -8.2122993409346845e-01
    8.0442759853862084e-03 -7.9772403521746571e-01
    9.0564748108176597e-03 -5.7735026918962584e-01
    8.8976963528930031e-03 -5.9874081708009175e-01
    8.8976963528930031e-03 -5.9874081708009175e-01
    9.6562668431543919e-03 -5.1298917604257710e-01
    1.0900114397395523e-02 -4.2465029006520061e-01
    1.0900114397395523e-02 -4.2465029006520061e-01
    1.3236910050028106e-02 -3.2816506165694681e-01
    2.3863178957040466e-02 -1.6903085094570330e-01
    1.9624886028901153e-02 -2.0851441405707474e-01
    1.5426589121171381e-02 -2.7317918235407651e-01
    1.4188769156600639e-02 -3.0151134457776357e-01
    1.1857708957152227e-02 -3.7796447300922725e-01
    1.1339566996270572e-02 -4.0160966445124940e-01
    1.1857708957152227e-02 -3.7796447300922725e-01
    1.1857708957152227e-02 -3.7796447300922725e-01
    1.1857708957152227e-02 -3.7796447300922725e-01
    1.2478354962115544e-02 -3.5355339059327373e-01
    1.3236910050028106e-02 -3.2816506165694681e-01
    1.1857708957152227e-02 -3.7796447300922725e-01
    1.1857708957152227e-02 -3.7796447300922725e-01
    1.0195173807164032e-02 -4.6940279403817725e-01
    9.6562668431543919e-03 -5.1298917604257710e-01
    9.2339285670738156e-03 -5.5595944914256934e-01
    8.4106654409576379e-03 -6.8511878904467427e-01
    8.3189033080770299e-03 -7.0710678118654757e-01
    8.1003573254011339e-03 -7.7459666924148340e-01
    7.9957478370155152e-03 -8.2122993409346845e-01
    7.8552689516422202e-03 -1.0571882797418488e+00
    7.8705130353608540e-03 -1.0871146130092180e+00
    7.8705130353608540e-03 -1.0871146130092180e+00
    7.8431372549019607e-03 -1. 7.9957478370155152e-03
    -1.2176857643454877e+00 8.0442759853862084e-03
    -1.2535663410560176e+00 7.8705130353608540e-03
    -1.0871146130092180e+00 7.8431372549019607e-03 -1.
    7.8431372549019607e-03 -1. 7.9198971311042043e-03
    -8.6953870585248250e-01 8.1644460983469214e-03
    -7.5180941155611236e-01 8.4106654409576379e-03
    -6.8511878904467427e-01 8.4106654409576379e-03
    -6.8511878904467427e-01 9.2339285670738156e-03
    -5.5595944914256934e-01 9.2339285670738156e-03
    -5.5595944914256934e-01 1.0900114397395523e-02
    -4.2465029006520061e-01 1.3236910050028106e-02
    -3.2816506165694681e-01 1.1857708957152227e-02
    -3.7796447300922725e-01 1.1857708957152227e-02
    -3.7796447300922725e-01 1.3236910050028106e-02
    -3.2816506165694681e-01 1.7120161767270561e-02
    -2.4253562503633294e-01 1. 0. 1.9624886028901153e-02
    -2.0851441405707474e-01 1.7120161767270561e-02
    -2.4253562503633294e-01 1.5426589121171381e-02
    -2.7317918235407651e-01 1.5426589121171381e-02
    -2.7317918235407651e-01 1.5426589121171381e-02
    -2.7317918235407651e-01 1.5426589121171381e-02
    -2.7317918235407651e-01 1.4188769156600639e-02
    -3.0151134457776357e-01 1.4188769156600639e-02
    -3.0151134457776357e-01 1.4188769156600639e-02
    -3.0151134457776357e-01 1.4188769156600639e-02
    -3.0151134457776357e-01 1.3236910050028106e-02
    -3.2816506165694681e-01 1.2478354962115544e-02
    -3.5355339059327373e-01 1.0522672835293128e-02
    -4.4721359549995793e-01 1.0522672835293128e-02
    -4.4721359549995793e-01 1.0195173807164032e-02
    -4.6940279403817725e-01 9.0564748108176597e-03
    -5.7735026918962584e-01 8.3189033080770299e-03
    -7.0710678118654757e-01 7.8705130353608540e-03
    -9.1986621100779986e-01 8.1644460983469214e-03
    -7.5180941155611236e-01 8.1644460983469214e-03
    -7.5180941155611236e-01 7.8461649088479302e-03
    -9.7259752515927467e-01 7.9957478370155152e-03
    -8.2122993409346845e-01 7.8920046264698458e-03
    -1.1180339887498947e+00 8.0442759853862084e-03
    -7.9772403521746571e-01 7.8461649088479302e-03
    -9.7259752515927467e-01 8.0442759853862084e-03
    -7.9772403521746571e-01 7.9957478370155152e-03
    -8.2122993409346845e-01 8.3189033080770299e-03
    -7.0710678118654757e-01 8.4106654409576379e-03
    -6.8511878904467427e-01 8.6277505602655180e-03
    -6.4168894791974795e-01 9.6562668431543919e-03
    -5.1298917604257710e-01 1.0195173807164032e-02
    -4.6940279403817725e-01 1.3236910050028106e-02
    -3.2816506165694681e-01 1.3236910050028106e-02
    -3.2816506165694681e-01 1.3236910050028106e-02
    -3.2816506165694681e-01 1.4188769156600639e-02
    -3.0151134457776357e-01 1.4188769156600639e-02
    -3.0151134457776357e-01 1.4188769156600639e-02
    -3.0151134457776357e-01 1.7120161767270561e-02
    -2.4253562503633294e-01 3.3509129172532327e-02
    -1.1867816581938533e-01 1.7120161767270561e-02
    -2.4253562503633294e-01 1.7120161767270561e-02
    -2.4253562503633294e-01 1.7120161767270561e-02
    -2.4253562503633294e-01 1.9624886028901153e-02
    -2.0851441405707474e-01 2.3863178957040466e-02
    -1.6903085094570330e-01 1.9624886028901153e-02
    -2.0851441405707474e-01 1.9624886028901153e-02
    -2.0851441405707474e-01 1.9624886028901153e-02
    -2.0851441405707474e-01 1.7120161767270561e-02
    -2.4253562503633294e-01 1.7120161767270561e-02
    -2.4253562503633294e-01 1.7120161767270561e-02
    -2.4253562503633294e-01 1.5426589121171381e-02
    -2.7317918235407651e-01 1.5426589121171381e-02
    -2.7317918235407651e-01 1.7120161767270561e-02
    -2.4253562503633294e-01 1.7120161767270561e-02
    -2.4253562503633294e-01 1.0900114397395523e-02
    -4.2465029006520061e-01 1.0900114397395523e-02
    -4.2465029006520061e-01 1.0900114397395523e-02
    -4.2465029006520061e-01 1.0195173807164032e-02
    -4.6940279403817725e-01 8.4106654409576379e-03
    -6.8511878904467427e-01 8.6277505602655180e-03
    -6.4168894791974795e-01 1.1339566996270572e-02
    -4.0160966445124940e-01 9.2339285670738156e-03
    -5.5595944914256934e-01 8.1644460983469214e-03
    -7.5180941155611236e-01 8.6277505602655180e-03
    -6.4168894791974795e-01 8.3189033080770299e-03
    -7.0710678118654757e-01 8.3189033080770299e-03
    -7.0710678118654757e-01 8.4106654409576379e-03
    -6.8511878904467427e-01 8.6277505602655180e-03
    -6.4168894791974795e-01 9.4327497145561545e-03
    -5.3452248382484868e-01 1.1857708957152227e-02
    -3.7796447300922725e-01 1.4188769156600639e-02
    -3.0151134457776357e-01 1.4188769156600639e-02
    -3.0151134457776357e-01 1.4188769156600639e-02
    -3.0151134457776357e-01 1.4188769156600639e-02
    -3.0151134457776357e-01 1.5426589121171381e-02
    -2.7317918235407651e-01 1.5426589121171381e-02
    -2.7317918235407651e-01 1.5426589121171381e-02
    -2.7317918235407651e-01 1.7120161767270561e-02
    -2.4253562503633294e-01</input_scale>
  <output_scale>
    1.0526315789473684e+00 0.</output_scale>
  <inv_output_scale>
    9.4999999999999996e-01 0.</inv_output_scale>
  <weights>
    <_>
      -1.1719048386403424e-03 -2.2903224389177911e-04
      -9.9637750405231888e-04 -5.5088375721748159e-04
      2.2039270841974236e-04 1.2144499427915077e-03
      9.9728247011042037e-04 2.0453599492093418e-04
      -7.2831549546728146e-04 -4.2920232853557353e-04
      -1.1054717958401724e-03 -1.2409612586460942e-04
      -2.1397120762249158e-05 -7.8018402384446585e-04
      6.7194088742161514e-04 -1.1208781013474275e-03
      1.1037170489498088e-03 1.0083693640301039e-03
      -2.5698247005999147e-04 -3.4383640164285737e-05
      3.0002183913935715e-04 -7.7645728251324352e-04
      -6.5397802009701264e-04 9.5527311481024093e-04
      -1.0954164450422850e-03 -3.1663012947851025e-04
      6.1523554708813478e-04 -6.3403300196013517e-04
      1.0630743572223426e-03 -2.4215284090006096e-04
      1.2150750992007805e-03 -3.7732545206526025e-04
      2.2581237915161135e-04 8.1166924113520002e-04
      1.1322676431532379e-03 5.1786688077618958e-04
      8.1904968067006900e-04 5.2277548999592920e-04
      1.2256443938238879e-03 -1.5902424652943092e-04
      1.1244336761038011e-02 2.8257121960529197e-02
      2.2170949976914003e-02 9.9740394111169969e-03
      -2.0516311391128566e-02 -1.3014013807304396e-03
      -1.1833903561583073e-02 -1.8339340436107150e-02
      -1.0044152391311249e-06 3.2265042153618126e-02
      9.1034068310288010e-03 1.9544274541010410e-02
      1.0642324957103638e-02 -1.4502054473857051e-02
      1.2661427343110085e-03 1.0423777207025271e-02
      -8.3072237251268269e-04 1.8414030064488381e-02
      -3.7068442388204011e-02 3.4171025809633090e-02
      -1.7980285464211206e-02 3.1778561895783376e-03
      1.1675434484240313e-03 2.3831930722496494e-02
      1.0023512802371520e-02 -4.0147562083814019e-03
      2.8669997361131898e-02 -3.1721303785865837e-02
      1.1149407989464784e-02 9.6089126338299510e-03
      -2.4077744025101582e-02 -2.8438457985824846e-02
      3.4237350193076832e-02 1.1546425500291495e-02
      1.6621544075857142e-02 2.3545272462910803e-03
      2.3288755661351385e-02 1.2461128652615802e-02
      -2.7197031870776378e-02 -2.1790618537765698e-02
      5.7954487666024346e-02 3.1450799304386885e-02
      2.5355893723545436e-02 1.0472593018328194e-02
      -2.2186033912385036e-02 1.5287633592446473e-03
      -1.1494135257761530e-02 -2.1063354284316233e-02
      -4.2122601082584723e-03 3.5659347249993617e-02
      9.6335051339892560e-03 1.9638102580500850e-02
      1.1288180109876315e-02 -1.6841069398858540e-02
      1.9505815575285869e-03 9.6333039036815282e-03
      -2.7254774906661423e-03 2.0663799017992666e-02
      -4.0204956583771698e-02 3.7132361759300028e-02
      -1.9615348614458360e-02 6.4673806695544518e-03
      3.5125694599427680e-03 2.6416968681218518e-02
      1.0183899227531275e-02 -4.2048515157844706e-03
      3.1450981488317951e-02 -3.4851823053523814e-02
      1.2485680475926516e-02 1.0303144841747448e-02
      -2.6060594645048139e-02 -3.2611691647315026e-02
      3.7496401298726049e-02 1.1277264833060277e-02
      1.8844760279584642e-02 7.2924119481332936e-03
      2.4123736876971755e-02 1.4473778812509627e-02
      -3.0476646934318681e-02 -2.3427604412490498e-02
      2.0510963456268685e-01 3.3241835588614661e-02
      2.7920762523285767e-02 1.2654150741800018e-02
      -2.3706108521036082e-02 1.3534766229801062e-02
      -9.6842126438130196e-03 -2.2142302485236333e-02
      -1.8439477921852219e-02 3.2658960727097279e-02
      8.4363660080536054e-03 2.1658478945719727e-02
      1.0751911363638660e-02 -1.8018261787295035e-02
      -1.3542984771015586e-02 6.6329301789399137e-03
      -1.6974933715146599e-02 2.0390366866612643e-02
      -3.1127974175793108e-02 3.4535660754502921e-02
      -1.9783424741826722e-02 1.8140521151311227e-02
      2.2195008555971344e-02 2.7545608249282039e-02
      6.5895254747997730e-03 -2.2705721243698667e-02
      3.3967864091378405e-02 -3.1956057464822309e-02
      1.2910174440058621e-02 6.8386914564595881e-03
      -2.9634202797644053e-02 -3.2747095685789138e-02
      3.4406748638434237e-02 1.2948217894479376e-02
      1.9019383807706205e-02 2.0512378810054108e-02
      2.8498435980516768e-02 1.6787158751978826e-02
      -3.0977049798448904e-02 -2.6634936208533449e-02
      4.5184410390468638e-02 3.7938457058738315e-02
      3.0673356360818249e-02 1.5342460966768232e-02
      -2.8004409191631843e-02 5.1333171543048416e-03
      -1.3855712842971685e-02 -2.3155895562646595e-02
      -4.1799997736558176e-03 4.1272078636153869e-02
      1.3431559235393084e-02 2.2919483697942878e-02
      1.5183428875692254e-02 -2.0343376356725347e-02
      -2.6705182937502270e-03 1.1271209360700106e-02
      -2.3745199640919077e-03 2.2186245275244137e-02
      -4.0647534854955078e-02 4.3189663968550361e-02
      -2.3462112229159750e-02 4.0489240425696082e-03
      2.8700440183030496e-03 3.1724341716096782e-02
      1.2592577351348415e-02 -5.1221491621707997e-03
      3.8588104984733675e-02 -3.7840794447257332e-02
      1.4015546312862349e-02 1.2039102429020667e-02
      -3.2702017098988352e-02 -3.8000609523103419e-02
      4.2029274344935891e-02 1.6556863340533554e-02
      1.9592459207816507e-02 5.3977294733264531e-03
      3.0190975796281924e-02 1.9783133222306733e-02
      -3.6169623840867117e-02 -2.8078767578543742e-02
      4.5610174556435318e-02 3.6567464406285256e-02
      3.1524123430972495e-02 1.5972389620578471e-02
      -2.6860322972881840e-02 3.7839161315122443e-03
      -1.4366540906536846e-02 -2.3613406140772852e-02
      -4.0271346233336164e-03 4.1486252888145433e-02
      1.2190934904704269e-02 2.2511204714094377e-02
      1.5377303886554259e-02 -2.0749573755626499e-02
      -1.0709410221883251e-03 1.1729507581132895e-02
      -3.0742634512307284e-03 2.0788651392903770e-02
      -4.2571152369901596e-02 4.3037869880204443e-02
      -2.3452527950671851e-02 5.4395085297176873e-03
      4.2976151798655646e-03 3.1837185942173940e-02
      1.0602177737514215e-02 -5.8174635980724346e-03
      4.0189677513964094e-02 -3.8597183571563852e-02
      1.4509483010727265e-02 1.2313937343051412e-02
      -3.3349000746002375e-02 -3.8099276541718817e-02
      4.3506311717615126e-02 1.7455884100575806e-02
      2.0802200743767929e-02 5.3039032043925571e-03
      3.0969868729459834e-02 1.9769926494297190e-02
      -3.5113973284679127e-02 -2.9504420133527560e-02
      1.0101807523196106e-01 5.0199505852968174e-02
      4.2983563678353640e-02 2.3327452905500826e-02
      -3.8252058628937664e-02 8.8577799924960451e-03
      -2.1272731129503130e-02 -3.4268729708527366e-02
      -7.7905527610420437e-03 5.8381579412700009e-02
      1.8199014726895047e-02 3.3163172099373216e-02
      2.0069929038902264e-02 -2.7427405348586065e-02
      -4.2262632368013650e-03 1.7485742507758500e-02
      -9.4711402625873940e-03 2.9559596369324811e-02
      -5.6548133098817711e-02 5.9627280065283367e-02
      -3.1791051779155789e-02 1.1569901726148189e-02
      1.0182331689645921e-02 4.1782660045117263e-02
      1.4831175281873702e-02 -1.0159644625116176e-02
      5.2448287100097059e-02 -5.0396089033750362e-02
      2.0902479741345379e-02 1.7137128375840461e-02
      -4.4467724988452653e-02 -5.1658450917155894e-02
      5.8826503497996931e-02 2.2888899848801037e-02
      2.9779076644325636e-02 1.1891485516841613e-02
      4.1437189093284400e-02 2.7175034731511002e-02
      -4.9035422637378832e-02 -3.9088514924187655e-02
      1.0121163149300068e-01 5.0181962825207482e-02
      4.0754988146416135e-02 2.2036251092000005e-02
      -3.8133445868710293e-02 1.0418228903738390e-02
      -1.9683348451351199e-02 -3.2932295056192433e-02
      -7.3890263909317903e-03 5.8118626097936679e-02
      1.9690214965512383e-02 3.3919121476948991e-02
      1.9123811123830672e-02 -2.6899045070151732e-02
      -4.0406061494247377e-03 1.5722772081210121e-02
      -9.6973033000473732e-03 3.0934294641626139e-02
      -5.6833385628271962e-02 5.9264381868637389e-02
      -3.1352958512490862e-02 9.9338620213578251e-03
      9.8258284580267485e-03 4.2879033454284274e-02
      1.5931802189226001e-02 -1.2379672535403671e-02
      5.1215396151454783e-02 -5.2191974551432298e-02
      2.2205210486859615e-02 1.6696250141091672e-02
      -4.6203923564210853e-02 -5.2810761528223900e-02
      5.9116972005507272e-02 2.3260321958435557e-02
      2.9060917597475873e-02 1.1566174738954353e-02
      4.2730184033635717e-02 2.5950518510271810e-02
      -4.7095816673249559e-02 -3.8671958724044768e-02
      -2.8064928681158718e-01 -2.5312890387744367e-03
      -2.9988437162588688e-03 1.3458078866519734e-02
      2.1875658764116492e-03 -4.5484854066578650e-03
      -1.2862760605528555e-02 6.2415907168289378e-04
      5.8546503254420026e-03 -8.0940796449068091e-03
      1.0490281801379980e-02 -7.4389595450962407e-04
      1.1688396549436351e-02 -1.2335589645846575e-02
      4.0515855412507082e-03 9.5399378044272592e-03
      5.7226209616643379e-03 3.9992737485621118e-03
      7.6553512642546411e-03 -8.3123448600568011e-03
      -4.3041942874781115e-04 -7.6335840638994202e-03
      -5.7229758394411016e-03 -3.9616382703848681e-03
      9.3584197436028475e-03 6.0859264390893519e-03
      -5.6149986083426397e-03 8.1936150160558958e-03
      1.0927578859952275e-02 1.1359610581553478e-02
      2.5866702149195445e-03 4.2587624908588511e-03
      -1.0176754290822338e-02 1.2790285645258550e-02
      8.2499491435261921e-03 -7.0746407455316452e-03
      -1.6442782512539999e-03 1.1936596337059017e-02
      1.6315737692224866e-03 3.8891746228105020e-03
      1.0117742395815878e-01 4.9853228685406592e-02
      4.2387751140451381e-02 2.1932451529735449e-02
      -3.7412829876405512e-02 9.6425795113815448e-03
      -2.0735102118080512e-02 -3.3564465424128637e-02
      -9.7540168180042051e-03 5.8499096974140109e-02
      1.8690433597860545e-02 3.3700545702993981e-02
      1.9429456107966710e-02 -2.7105379395439552e-02
      -3.5727071735423711e-03 1.5706964872522870e-02
      -7.9542481273766376e-03 3.1896459849871106e-02
      -5.6043834665201610e-02 5.9539624186092835e-02
      -3.1715967191524363e-02 1.0822867738118311e-02
      7.9828438604808410e-03 4.2232980583978799e-02
      1.7027604214581053e-02 -1.0757465641384762e-02
      5.2303716525829033e-02 -5.0891642844301511e-02
      2.0948943075657884e-02 1.6969851432162907e-02
      -4.5163168295933087e-02 -5.2912821558837163e-02
      5.8353627134896856e-02 2.3786862356603267e-02
      2.8929068978356641e-02 9.5270537388379307e-03
      4.2570176636394709e-02 2.7059375040538285e-02
      -4.9188252539335696e-02 -3.9420748670552848e-02
      -1.3731338876282190e-01 2.0433759518283081e-03
      9.8675330398104635e-03 2.2193313240305244e-02
      -9.5737865895604846e-03 4.6033677329122803e-04
      -2.2079551992267112e-02 -1.2905413507863169e-02
      3.1570998839133202e-03 7.3973184655427796e-03
      2.1075044364449617e-02 1.1944429368128407e-02
      2.1637980240229195e-02 -2.1823759013917938e-02
      2.8058014670179717e-03 1.7900540252097107e-02
      1.8101400682946586e-03 1.6631364448362464e-02
      -2.1300602409700872e-02 1.9083386249332999e-02
      -1.5640787689319403e-02 -7.6349156231909660e-04
      -1.6239115542217362e-03 1.0057452351283917e-02
      1.8019400336459220e-02 2.1598734436009256e-03
      1.7654665147730505e-02 -1.8728431685765004e-02
      2.1057930686003430e-02 1.9043480483269544e-02
      -8.3895003999072213e-03 -5.6857188902962822e-03
      2.0089482754294750e-02 2.2211017362376160e-02
      2.0117622434763140e-02 -3.0675842091714423e-03
      1.0990468557065583e-02 2.4077489633714921e-02
      -5.8463635631552015e-03 -9.8161594571333222e-03
      -2.8153283708883570e-01 -2.4398937866611705e-03
      -2.0985470583903703e-03 1.2376044846847954e-02
      2.0828472619304609e-03 -5.8092187119401732e-03
      -1.2377344232166514e-02 2.3603323857859888e-03
      6.1824160048772562e-03 -8.7091476089619785e-03
      1.1663061246476035e-02 -2.0179260730338409e-03
      1.2867165055757059e-02 -1.2305723463735714e-02
      3.8308447680564933e-03 1.1208215017798114e-02
      5.1230370808774302e-03 5.3883565791576589e-03
      8.9237145735596903e-03 -6.8947261182176096e-03
      -2.4698729332947339e-04 -6.5805284397530295e-03
      -7.9311277516564069e-03 -2.1482465167807579e-03
      1.0336866246751139e-02 7.5079225948208837e-03
      -6.3051335892023545e-03 7.4940961541504359e-03
      1.2527802941458636e-02 9.4930854321775317e-03
      3.5914588541345860e-03 4.9805377759530069e-03
      -9.3906577876149595e-03 1.2072668748868851e-02
      1.0093249409379538e-02 -7.4379813481485731e-03
      -1.9215589835997304e-03 1.1423474628788864e-02
      3.2961736564847809e-03 3.6622634189574124e-03
      -2.8001722927113115e-01 -4.5394297609950927e-03
      -3.4311239072899427e-03 1.3641775631889395e-02
      4.1010097725844609e-03 -6.1328243708272008e-03
      -1.1771966122827715e-02 1.9383863861061098e-03
      7.2031243355775857e-03 -8.5805864172387170e-03
      1.0158731175409866e-02 -1.8608908699450561e-04
      1.1181687633846756e-02 -1.0934196854789236e-02
      4.7479657594530081e-03 1.0915170004691391e-02
      5.1642090402731679e-03 5.1950151868446958e-03
      7.7290633752851697e-03 -8.3041753804598811e-03
      -2.5690912631013834e-04 -7.8852445963251520e-03
      -6.4920358810795099e-03 -2.4276342312247504e-03
      8.8671094689789544e-03 6.6100020250362060e-03
      -6.5502067800021551e-03 8.5210938542331586e-03
      1.1607396306721812e-02 9.9209075850872422e-03
      2.4055285944278469e-03 4.3447669967546423e-03
      -8.9285041553918421e-03 1.2622776932897321e-02
      9.0058548274805673e-03 -7.7012346427183225e-03
      -3.4627570461714871e-03 1.2250335058139911e-02
      3.4862868680575138e-03 2.0833846288887885e-03
      -2.6014636696408361e-01 3.0003047005421231e-03
      4.3826756750936918e-03 1.6359544043518803e-02
      -4.7634698611845466e-03 -5.7472656850478107e-03
      -1.6345677493572831e-02 -4.9685708735526342e-03
      7.5746992315343549e-03 6.8549173739636399e-03
      1.5117008699996114e-02 5.6803551793020409e-03
      1.6880907324787923e-02 -1.7666748997975816e-02
      7.6624223658999019e-03 1.4171416367383487e-02
      6.5490614187322721e-03 1.0615147275459546e-02
      -4.1499225066620590e-03 3.1241230956119011e-03
      -9.3903197110246205e-03 -6.5799352188794479e-03
      -9.0671192530432255e-03 4.3946579042245023e-03
      1.4510306617046463e-02 7.6835553069675155e-03
      4.1911542809855325e-03 -1.1972441387318989e-03
      1.5973047671816090e-02 1.4558100000214010e-02
      -4.2101908177970349e-03 -4.0153273441393836e-03
      -4.9952677137847989e-04 1.7612611958542794e-02
      1.4859804965065834e-02 -8.2876852990442906e-03
      3.5294599724379140e-03 1.6874017186788735e-02
      -4.8147510114879633e-03 -3.5745682192918245e-03
      -6.2886453221945093e-01 -1.6541018849376187e-03
      -3.8176695994713173e-03 2.2881097141575185e-02
      2.4674259272256817e-03 -1.5197052520008371e-02
      -2.1624705303351567e-02 1.5125454831613466e-03
      2.4414965640103498e-02 -1.3593770318845884e-03
      2.2971781093787429e-02 -3.9764677210281898e-05
      2.3111331157030405e-02 -1.4909413349203987e-02
      1.5755894793328729e-02 2.1808051708108175e-02
      2.2159924187294077e-02 5.5575289149861155e-03
      7.6977404837381914e-04 -4.4546265559960380e-03
      -9.2749684925072713e-04 -2.3466019876411084e-02
      -2.6590655725981020e-02 -2.3327047529676129e-03
      2.1609380387163552e-02 2.7381598424421016e-02
      -5.5481607567240878e-03 3.9904735402001880e-03
      2.1039406779772292e-02 2.1955027784671510e-02
      3.5703832052221408e-03 3.7196380320354801e-03
      -2.9852486663799493e-03 2.2352488911695296e-02
      1.2063312208141778e-02 -2.6613835665440441e-02
      -3.3885410012092277e-03 2.0806919083946263e-02
      1.8106845290009352e-03 2.2114404276633343e-03
      -4.9799374403704405e-01 2.5992839962733105e-02
      2.0013290762140801e-02 2.9660046210013790e-02
      -1.7876928450488029e-02 -1.3898296037738875e-02
      -3.0066694420581436e-02 -1.7966939188330065e-02
      2.4623493584037391e-02 3.3334506908634091e-02
      3.0468295389102382e-02 1.6920017107192337e-02
      3.0717591795176528e-02 -2.7742156771823220e-02
      1.9770919167630480e-02 2.9051800582038653e-02
      2.3956601270134298e-02 2.1095721942037009e-02
      -3.5339370770993812e-02 2.8685992561858501e-02
      -1.9148927934977397e-02 -2.2351391616112513e-02
      -2.9956011680932371e-02 2.0693127132725607e-02
      2.8923908032564762e-02 2.7185162108685414e-02
      2.4217200048505309e-02 -2.7453100395086149e-02
      3.0817632196093587e-02 2.8804744195775382e-02
      -2.2024756195415170e-02 -2.6617994479141125e-02
      3.2277840477632394e-02 3.1038266562531273e-02
      2.4705537932635861e-02 -2.6582037727203932e-02
      2.0154499499005246e-02 2.9802645285098985e-02
      -2.4816454153246372e-02 -1.8786408416318841e-02
      -4.9877227250589923e-01 2.6288983667556352e-02
      2.1164205665307311e-02 3.1391487627895655e-02
      -1.7479760979540231e-02 -1.5761062874202321e-02
      -3.0177276993342168e-02 -1.8711164895165857e-02
      2.5303958357585900e-02 3.2744015821261969e-02
      2.9093960586029199e-02 1.9066260367051335e-02
      3.0350170551530043e-02 -2.6262328523747266e-02
      1.8256519881258849e-02 3.0345165240847353e-02
      2.4415085726592026e-02 2.3018361145207111e-02
      -3.3594419641592779e-02 3.0210236271885162e-02
      -1.9092855729304744e-02 -2.4344407571271050e-02
      -2.9884411231547378e-02 2.0529195690310732e-02
      2.9550044949780557e-02 2.6799986890535293e-02
      2.3581697566721221e-02 -2.7213630542171418e-02
      2.8990527131996294e-02 3.0092237608731191e-02
      -2.2066168171226787e-02 -2.4476380225266686e-02
      3.1701292411420431e-02 2.9798699099815189e-02
      2.5251627068055560e-02 -2.5504358579663974e-02
      2.0425442039473066e-02 2.7774552872762110e-02
      -2.4910427262567949e-02 -1.8911661332519474e-02
      -6.4598455875078509e-02 3.9352270655091788e-02
      3.1530489900160677e-02 1.8487451627498593e-02
      -2.6903960679988039e-02 -1.8814034265038011e-03
      -1.7642714480993894e-02 -2.6185906373887843e-02
      6.2087626824611011e-03 4.7964960523361709e-02
      1.7256724214040193e-02 2.4074747186395951e-02
      1.8273597232267104e-02 -2.0441437182890172e-02
      7.0933651348995801e-03 1.6302241399720151e-02
      6.0805303104053939e-03 2.4680071067468359e-02
      -4.7782923932469801e-02 4.6273406552605603e-02
      -2.3514592646686035e-02 -3.1147131830967429e-03
      -9.3809214514190761e-03 3.1770589192992249e-02
      1.6097242512704845e-02 7.9968829417117748e-03
      3.8053599204423492e-02 -4.1189570073361659e-02
      1.9467380779625950e-02 1.5959408385925692e-02
      -3.2485995895716102e-02 -4.0165658598258554e-02
      4.7643482771340361e-02 2.0224735694742646e-02
      2.3143605007287169e-02 -4.4126914104855326e-03
      3.2516669615673774e-02 2.1088276192118723e-02
