<?xml version="1.0"?>
<opencv_storage>
<shapeML type_id="opencv-ml-ann-mlp">
  <layer_sizes type_id="opencv-matrix">
    <rows>1</rows>
    <cols>3</cols>
    <dt>i</dt>
    <data>
      1600 40 1</data></layer_sizes>
  <activation_function>SIGMOID_SYM</activation_function>
  <f_param1>5.9999999999999998e-01</f_param1>
  <f_param2>1.</f_param2>
  <min_val>-9.4999999999999996e-01</min_val>
  <max_val>9.4999999999999996e-01</max_val>
  <min_val1>-9.7999999999999998e-01</min_val1>
  <max_val1>9.7999999999999998e-01</max_val1>
  <training_params>
    <train_method>BACKPROP</train_method>
    <dw_scale>1.0000000000000001e-01</dw_scale>
    <moment_scale>1.0000000000000001e-01</moment_scale>
    <term_criteria><epsilon>9.9999999747524271e-07</epsilon>
      <iterations>4000</iterations></term_criteria></training_params>
  <input_scale>
    1. 0. 5.3770608841162873e-02 -7.3323557510676637e-02
    5.3770608841162873e-02 -7.3323557510676637e-02
    7.5941121384846336e-02 -5.1778037307849772e-02
    3.8124184626735995e-02 -1.0397504898200725e-01
    3.8124184626735995e-02 -1.0397504898200725e-01
    4.3962647617546577e-02 -8.9923597399527086e-02
    4.3962647617546577e-02 -8.9923597399527086e-02
    2.5589613993299339e-02 -1.5702717677706413e-01
    4.3962647617546577e-02 -8.9923597399527086e-02
    2.4309763284832513e-02 -1.6574838603294895e-01
    2.5589613993299339e-02 -1.5702717677706413e-01
    1.3826022596405670e-02 -3.1108550841912758e-01
    1.1244521282269070e-02 -4.0633610997290498e-01
    9.5203979499360672e-03 -5.2578561405328739e-01
    1.2831478917646844e-02 -3.4120068940106379e-01
    1.2831478917646844e-02 -3.4120068940106379e-01
    1.0478061725732271e-02 -4.5008037867349981e-01
    9.4783571655075918e-03 -5.2992633243519716e-01
    9.0404173332281953e-03 -5.7940856544780706e-01
    8.3133629518886577e-03 -7.0852525158141977e-01
    8.8604573688425958e-03 -6.0412209333017708e-01
    9.6985728993774396e-03 -5.0917507721731559e-01
    9.9995609793257882e-03 -4.8406965649918016e-01
    1.3826022596405670e-02 -3.1108550841912758e-01
    1.4900963698652035e-02 -2.8447294333790246e-01
    1.8826641510556207e-02 -2.1821789023599242e-01
    3.4145481126512708e-02 -1.1640504929492969e-01
    2.4309763284832513e-02 -1.6574838603294895e-01
    3.8124184626735995e-02 -1.0397504898200725e-01
    2.4309763284832513e-02 -1.6574838603294895e-01
    4.3962647617546577e-02 -8.9923597399527086e-02
    3.8124184626735995e-02 -1.0397504898200725e-01
    4.3962647617546577e-02 -8.9923597399527086e-02
    3.4145481126512708e-02 -1.1640504929492969e-01
    3.4145481126512708e-02 -1.1640504929492969e-01
    7.5941121384846336e-02 -5.1778037307849772e-02
    7.5941121384846336e-02 -5.1778037307849772e-02 1. 0.
    7.5941121384846336e-02 -5.1778037307849772e-02
    7.5941121384846336e-02 -5.1778037307849772e-02
    4.3962647617546577e-02 -8.9923597399527086e-02
    5.3770608841162873e-02 -7.3323557510676637e-02
    5.3770608841162873e-02 -7.3323557510676637e-02
    3.4145481126512708e-02 -1.1640504929492969e-01
    3.4145481126512708e-02 -1.1640504929492969e-01
    2.3210354127426377e-02 -1.7407765595569782e-01
    2.3210354127426377e-02 -1.7407765595569782e-01
    2.3210354127426377e-02 -1.7407765595569782e-01
    2.2252894731261498e-02 -1.8206913871032135e-01
    1.1830650276822669e-02 -3.7911856568909008e-01
    1.1940309498806995e-02 -3.7449152518985573e-01
    9.4783571655075918e-03 -5.2992633243519716e-01
    8.6532395327251939e-03 -6.3719309286430981e-01
    7.9760812529117899e-03 -8.3205029433784350e-01
    8.0289698263169736e-03 -8.0472174850131495e-01
    7.8979850367878988e-03 -8.8852331663863859e-01
    7.8797264138106265e-03 -1.1013708510212581e+00
    7.8522367418614042e-03 -1.0493443645942058e+00
    7.8435858699715325e-03 -9.8936139950777291e-01
    7.8593360582622351e-03 -1.0663690060869442e+00
    7.8567420131838619e-03 -1.0606601717798214e+00
    7.9842318656712739e-03 -8.2745675698775023e-01
    8.0697004355840315e-03 -7.8679579246944309e-01
    8.0697004355840315e-03 -7.8679579246944309e-01
    8.7269127145305665e-03 -6.2476761479025644e-01
    9.5203979499360672e-03 -5.2578561405328739e-01
    1.2293716592366154e-02 -3.6042941827618952e-01
    1.7034697338384829e-02 -2.4390589370869187e-01
    2.0659326226697073e-02 -1.9720265943665388e-01
    1.8321885731009947e-02 -2.2485950669875845e-01
    1.7858313586059705e-02 -2.3134633509213709e-01
    2.1409481257815863e-02 -1.8976585660336787e-01
    2.2252894731261498e-02 -1.8206913871032135e-01
    2.2252894731261498e-02 -1.8206913871032135e-01
    3.1212739461154111e-02 -1.2768847961381227e-01
    5.3770608841162873e-02 -7.3323557510676637e-02
    5.3770608841162873e-02 -7.3323557510676637e-02
    5.3770608841162873e-02 -7.3323557510676637e-02
    5.3770608841162873e-02 -7.3323557510676637e-02 1. 0.
    4.3962647617546577e-02 -8.9923597399527086e-02
    4.3962647617546577e-02 -8.9923597399527086e-02
    5.3770608841162873e-02 -7.3323557510676637e-02
    3.4145481126512708e-02 -1.1640504929492969e-01
    2.2252894731261498e-02 -1.8206913871032135e-01
    2.0659326226697073e-02 -1.9720265943665388e-01
    1.7858313586059705e-02 -2.3134633509213709e-01
    1.0990661904386644e-02 -4.1964345453112639e-01
    9.8943380390742134e-03 -4.9246818876301202e-01
    8.4983109858720717e-03 -6.6634483866496919e-01
    8.2809675852763987e-03 -7.1705651136143367e-01
    7.8839374631880631e-03 -9.0306920032881455e-01
    7.8449321772025207e-03 -9.7883358301913259e-01
    7.8486380997192118e-03 -1.0381607668264958e+00
    8.8326172519858463e-03 -1.6440712566764564e+00
    8.7018399684569252e-03 -1.5900634851453108e+00
    9.2450032704204863e-03 -1.8027756377319948e+00
    9.6524656523653673e-03 -1.9480430680228287e+00
    8.8888888888888889e-03 -1.6666666666666667e+00
    9.2817709528813189e-03 -1.8162738160070035e+00
    8.8888888888888889e-03 -1.6666666666666667e+00
    8.3647166879118936e-03 -1.4372104127412253e+00
    8.2809675852763987e-03 -1.3945902228840481e+00
    8.1784951736669585e-03 -1.3382992102364113e+00
    7.8449321772025207e-03 -1.0216241221675100e+00
    8.0917769872360032e-03 -7.7791401490927947e-01
    8.7525151271486256e-03 -6.2063289083417528e-01
    9.0727049490887616e-03 -5.7529197290812828e-01
    1.1940309498806995e-02 -3.7449152518985573e-01
    1.5152517780247066e-02 -2.7894407731818466e-01
    2.0659326226697073e-02 -1.9720265943665388e-01
    1.9378935494661968e-02 -2.1140656903267599e-01
    1.9986583759681150e-02 -2.0440824299673901e-01
    1.9986583759681150e-02 -2.0440824299673901e-01
    2.0659326226697073e-02 -1.9720265943665388e-01
    5.3770608841162873e-02 -7.3323557510676637e-02
    4.3962647617546577e-02 -8.9923597399527086e-02
    5.3770608841162873e-02 -7.3323557510676637e-02
    7.5941121384846336e-02 -5.1778037307849772e-02 1. 0.
    5.3770608841162873e-02 -7.3323557510676637e-02
    4.3962647617546577e-02 -8.9923597399527086e-02
    3.8124184626735995e-02 -1.0397504898200725e-01
    2.1409481257815863e-02 -1.8976585660336787e-01
    1.5701773342117552e-02 -2.6764386378609467e-01
    1.5418961562809936e-02 -2.7333613679526703e-01
    1.0110135046273606e-02 -4.7563589876787193e-01
    9.4783571655075918e-03 -5.2992633243519716e-01
    8.5619318123955797e-03 -6.5382024749202605e-01
    7.9760812529117899e-03 -8.3205029433784350e-01
    7.8621585888104962e-03 -1.0721125348377951e+00
    7.9391864745310455e-03 -1.1692256444309359e+00
    8.3301069022902862e-03 -1.4199045856176624e+00
    9.0404173332281935e-03 -1.7258978545253825e+00
    9.6524656523653673e-03 -1.9480430680228287e+00
    9.9995609793257917e-03 -2.0658183932288967e+00
    9.9995609793257917e-03 -2.0658183932288967e+00
    9.6985728993774396e-03 -1.9639610121239315e+00
    8.4008637365090861e-03 -1.4548768561863463e+00
    9.6074220198702175e-03 -1.9324019289966232e+00
    9.7941149283146088e-03 -1.9966638842495918e+00
    9.7941149283146088e-03 -1.9966638842495918e+00
    9.6524656523653673e-03 -1.9480430680228287e+00
    9.7941149283146088e-03 -1.9966638842495918e+00
    8.7018399684569252e-03 -1.5900634851453108e+00
    8.3472227937314205e-03 -1.4285133553817635e+00
    8.1521749080421570e-03 -1.3228756555322956e+00
    7.9681907288959575e-03 -8.3666002653407556e-01
    8.4580827394487440e-03 -6.7472432762420653e-01
    9.0088118657380249e-03 -5.8352531403075836e-01
    1.1334485575145083e-02 -4.0185903402787110e-01
    1.6666666666666666e-02 -2.5000000000000000e-01
    1.9378935494661968e-02 -2.1140656903267599e-01
    1.8826641510556207e-02 -2.1821789023599242e-01
    1.9378935494661968e-02 -2.1140656903267599e-01
    2.4309763284832513e-02 -1.6574838603294895e-01
    4.3962647617546577e-02 -8.9923597399527086e-02
    7.5941121384846336e-02 -5.1778037307849772e-02
    7.5941121384846336e-02 -5.1778037307849772e-02
    7.5941121384846336e-02 -5.1778037307849772e-02
    4.3962647617546577e-02 -8.9923597399527086e-02
    4.3962647617546577e-02 -8.9923597399527086e-02
    2.1409481257815863e-02 -1.8976585660336787e-01
    1.9378935494661968e-02 -2.1140656903267599e-01
    1.1427337982521947e-02 -3.9735970711951313e-01
    1.0478061725732271e-02 -4.5008037867349981e-01
    9.7457775347007270e-03 -5.0500847225267409e-01
    8.3133629518886577e-03 -7.0852525158141977e-01
    7.8621585888104962e-03 -9.3273790530888168e-01
    7.8930655633429898e-03 -1.1193802071650059e+00
    8.4580827394487440e-03 -1.4820867709352230e+00
    8.5619318123955797e-03 -1.5294723646688466e+00
    9.3577844549224201e-03 -1.8439088914585768e+00
    9.6524656523653673e-03 -1.9480430680228287e+00
    9.5203979499360707e-03 -1.9019158631804105e+00
    9.7941149283146088e-03 -1.9966638842495918e+00
    9.3577844549224201e-03 -1.8439088914585768e+00
    9.4372591503256806e-03 -1.8724380086896180e+00
    9.4783571655075935e-03 -1.8870547447692392e+00
    9.6985728993774396e-03 -1.9639610121239315e+00
    8.9778719593638454e-03 -1.7017148213885105e+00
    8.9475816484112479e-03 -1.6898728067794881e+00
    8.4580827394487440e-03 -1.4820867709352230e+00
    8.6066296582387042e-03 -1.5491933384829668e+00
    8.7269127145305665e-03 -1.6005951274150381e+00
    9.4372591503256806e-03 -1.8724380086896180e+00
    9.1056919522544862e-03 -1.7507762253652945e+00
    8.0387323745769682e-03 -1.2496574873206014e+00
    7.8471775639842051e-03 -9.6841304937350525e-01
    8.0697004355840315e-03 -7.8679579246944309e-01
    8.5402767894743204e-03 -6.5798950718904425e-01
    9.2090321348488376e-03 -5.5882081363741809e-01
    1.6002645283972775e-02 -2.6186146828319085e-01
    1.8321885731009947e-02 -2.2485950669875845e-01
    1.7858313586059705e-02 -2.3134633509213709e-01
    2.3210354127426377e-02 -1.7407765595569782e-01
    2.4309763284832513e-02 -1.6574838603294895e-01
    5.3770608841162873e-02 -7.3323557510676637e-02
    5.3770608841162873e-02 -7.3323557510676637e-02
    7.5941121384846336e-02 -5.1778037307849772e-02
    3.8124184626735995e-02 -1.0397504898200725e-01
    2.2252894731261498e-02 -1.8206913871032135e-01
    2.1409481257815863e-02 -1.8976585660336787e-01
    1.9378935494661968e-02 -2.1140656903267599e-01
    1.0758460732205060e-02 -4.3278353400006719e-01
    9.3970768764704282e-03 -5.3819622110694276e-01
    8.6772858076966039e-03 -6.3304744187968409e-01
    7.8503243470476637e-03 -9.5809640326468082e-01
    8.3472227937314205e-03 -1.4285133553817635e+00
    8.0387323745769682e-03 -1.2496574873206014e+00
    8.1271051183516817e-03 -1.3077250963165887e+00
    9.3577844549224201e-03 -1.8439088914585768e+00
    8.6532395327251974e-03 -1.5693829879806154e+00
    8.6296908102028291e-03 -1.5592282259343748e+00
    8.6532395327251974e-03 -1.5693829879806154e+00
    1.0054155780296500e-02 -2.0839522890069109e+00
    9.7457775347007253e-03 -1.9801647990960110e+00
    1.0758460732205061e-02 -2.3106239527122234e+00
    9.0088118657380267e-03 -1.7137217117324381e+00
    9.4783571655075935e-03 -1.8870547447692392e+00
    1.1724707122169793e-02 -2.6060826285186494e+00
    1.0685404631536216e-02 -2.2876479915697989e+00
    9.9463033849808355e-03 -2.0480342879074174e+00
    9.9463033849808355e-03 -2.0480342879074174e+00
    1.0412633627862856e-02 -2.2008521077073766e+00
    9.7457775347007253e-03 -1.9801647990960110e+00
    1.0110135046273609e-02 -2.1024485380318985e+00
    8.7269127145305665e-03 -1.6005951274150381e+00
    8.4779836399666748e-03 -1.4913543948486832e+00
    7.8486380997192136e-03 -9.6324194860190349e-01
    7.8503243470476637e-03 -9.5809640326468082e-01
    8.2060993986221818e-03 -7.3854894587599640e-01
    9.3970768764704282e-03 -5.3819622110694276e-01
    1.5418961562809936e-02 -2.7333613679526703e-01
    1.8321885731009947e-02 -2.2485950669875845e-01
    2.2252894731261498e-02 -1.8206913871032135e-01
    2.3210354127426377e-02 -1.7407765595569782e-01
    2.5589613993299339e-02 -1.5702717677706413e-01
    5.3770608841162873e-02 -7.3323557510676637e-02
    7.5941121384846336e-02 -5.1778037307849772e-02
    2.4309763284832513e-02 -1.6574838603294895e-01
    2.2252894731261498e-02 -1.8206913871032135e-01
    1.2053889777637593e-02 -3.6983525454115346e-01
    1.1940309498806995e-02 -3.7449152518985573e-01
    9.8943380390742134e-03 -4.9246818876301202e-01
    8.3647166879118936e-03 -6.9579234267630752e-01
    7.8979850367878988e-03 -8.8852331663863859e-01
    8.3301069022902862e-03 -1.4199045856176624e+00
    8.1032544282775044e-03 -1.2928374110570018e+00
    8.4983109858720735e-03 -1.5007244627324094e+00
    8.8326172519858463e-03 -1.6440712566764564e+00
    1.0167548487649700e-02 -2.1213203435596419e+00
    1.0110135046273609e-02 -2.1024485380318985e+00
    1.0758460732205061e-02 -2.3106239527122234e+00
    9.2090321348488376e-03 -1.7894823807490354e+00
    9.4372591503256806e-03 -1.8724380086896180e+00
    1.0478061725732268e-02 -2.2218253613882286e+00
    1.0226448431092210e-02 -2.1405815920536191e+00
    9.8436221431390195e-03 -2.0134681656420721e+00
    1.0054155780296500e-02 -2.0839522890069109e+00
    1.0348931294826494e-02 -2.1803316614327635e+00
    8.5619318123955797e-03 -1.5294723646688466e+00
    9.5203979499360707e-03 -1.9019158631804105e+00
    9.1056919522544862e-03 -1.7507762253652945e+00
    9.7941149283146088e-03 -1.9966638842495918e+00
    1.0110135046273609e-02 -2.1024485380318985e+00
    1.0167548487649700e-02 -2.1213203435596419e+00
    9.7941149283146088e-03 -1.9966638842495918e+00
    9.4372591503256806e-03 -1.8724380086896180e+00
    8.5190726543672799e-03 -1.5101992432741997e+00
    7.9141811006888177e-03 -1.1439589045541108e+00
    7.8503243470476637e-03 -9.5809640326468082e-01
    8.1921346127453720e-03 -7.4287766147395540e-01
    8.9475816484112462e-03 -5.9176051356538018e-01
    1.6323524880524347e-02 -2.5598254926276814e-01
    2.2252894731261498e-02 -1.8206913871032135e-01
    2.2252894731261498e-02 -1.8206913871032135e-01
    2.5589613993299339e-02 -1.5702717677706413e-01
    2.7104779935001003e-02 -1.4784425419091454e-01
    7.5941121384846336e-02 -5.1778037307849772e-02
    2.3210354127426377e-02 -1.7407765595569782e-01
    2.2252894731261498e-02 -1.8206913871032135e-01
    1.1830650276822669e-02 -3.7911856568909008e-01
    1.0614372764661831e-02 -4.4146141271207162e-01
    8.9778719593638489e-03 -5.8764252824927010e-01
    7.8797264138106265e-03 -9.0795938450045177e-01
    8.4580827394487440e-03 -1.4820867709352230e+00
    8.4580827394487440e-03 -1.4820867709352230e+00
    8.3301069022902862e-03 -1.4199045856176624e+00
    9.3193570758813987e-03 -1.8299828439912567e+00
    1.0478061725732268e-02 -2.2218253613882286e+00
    1.1072730647165329e-02 -2.4083189157584592e+00
    1.1427337982521945e-02 -2.5166114784235827e+00
    1.0412633627862856e-02 -2.2008521077073766e+00
    1.0478061725732268e-02 -2.2218253613882286e+00
    9.8436221431390195e-03 -2.0134681656420721e+00
    1.3296024945388087e-02 -3.0641293851417095e+00
    1.2293716592366156e-02 -2.7744683127771803e+00
    1.1157311356586718e-02 -2.4343224778007384e+00
    1.0226448431092210e-02 -2.1405815920536191e+00
    9.5634097342171907e-03 -1.9170289512680825e+00
    1.4223402983473221e-02 -3.3263367431804420e+00
    1.1072730647165329e-02 -2.4083189157584592e+00
    9.8436221431390195e-03 -2.0134681656420721e+00
    8.7269127145305665e-03 -1.6005951274150381e+00
    9.5203979499360707e-03 -1.9019158631804105e+00
    9.4783571655075935e-03 -1.8870547447692392e+00
    9.2090321348488376e-03 -1.7894823807490354e+00
    8.6532395327251974e-03 -1.5693829879806154e+00
    1.0545283989955931e-02 -2.2432695033178978e+00
    8.7269127145305665e-03 -1.6005951274150381e+00
    8.0590946748373971e-03 -1.2638125740085917e+00
    7.8593360582622351e-03 -9.3776168876992572e-01
    8.2060993986221818e-03 -7.3854894587599640e-01
    9.7941149283146071e-03 -5.0083542247063328e-01
    1.4437485900899560e-02 -2.9531221160930915e-01
    2.2252894731261498e-02 -1.8206913871032135e-01
    2.4309763284832513e-02 -1.6574838603294895e-01
    2.5589613993299339e-02 -1.5702717677706413e-01
    2.8936724509607589e-02 -1.3810709425039985e-01
    2.3210354127426377e-02 -1.7407765595569782e-01
    1.2979859299087794e-02 -3.3629635456727469e-01
    1.2420461549847437e-02 -3.5567685347290390e-01
    8.7786586856071647e-03 -6.1650125769377595e-01
    7.8621585888104962e-03 -9.3273790530888168e-01
    8.4983109858720735e-03 -1.5007244627324094e+00
    8.9179255603297463e-03 -1.6781914463529615e+00
    9.3193570758813987e-03 -1.8299828439912567e+00
    8.9179255603297463e-03 -1.6781914463529615e+00
    9.2090321348488376e-03 -1.7894823807490354e+00
    9.7941149283146088e-03 -1.9966638842495918e+00
    1.0833627121110143e-02 -2.3341542070028218e+00
    1.1622289825671473e-02 -2.5753937681885652e+00
    1.0758460732205061e-02 -2.3106239527122234e+00
    1.0110135046273609e-02 -2.1024485380318985e+00
    1.1334485575145076e-02 -2.4884347876341235e+00
    1.0110135046273609e-02 -2.1024485380318985e+00
    1.1427337982521945e-02 -2.5166114784235827e+00
    1.2979859299087794e-02 -2.9735677667001128e+00
    9.8436221431390195e-03 -2.0134681656420721e+00
    1.2831478917646841e-02 -2.9308264345988806e+00
    1.0545283989955931e-02 -2.2432695033178978e+00
    1.0910995152345964e-02 -2.3582628158820480e+00
    1.1830650276822677e-02 -2.6376972549006927e+00
    1.1724707122169793e-02 -2.6060826285186494e+00
    1.0545283989955931e-02 -2.2432695033178978e+00
    9.8436221431390195e-03 -2.0134681656420721e+00
    1.0167548487649700e-02 -2.1213203435596419e+00
    9.6524656523653673e-03 -1.9480430680228287e+00
    9.9463033849808355e-03 -2.0480342879074174e+00
    1.0167548487649700e-02 -2.1213203435596419e+00
    9.1738365282764602e-03 -1.7763883459298964e+00
    7.9391864745310455e-03 -1.1692256444309359e+00
    7.9141811006888194e-03 -8.7415727612153782e-01
    8.1651766894975854e-03 -7.5156739982875509e-01
    9.1738365282764637e-03 -5.6293996878060126e-01
    2.2252894731261498e-02 -1.8206913871032135e-01
    2.3210354127426377e-02 -1.7407765595569782e-01
    2.4309763284832513e-02 -1.6574838603294895e-01
    7.5941121384846336e-02 -5.1778037307849772e-02
    2.1409481257815863e-02 -1.8976585660336787e-01
    1.2979859299087794e-02 -3.3629635456727469e-01
    1.0833627121110136e-02 -4.2842070888026446e-01
    7.9460579615253345e-03 -8.5058938633600745e-01
    8.4008637365090861e-03 -1.4548768561863463e+00
    8.9475816484112479e-03 -1.6898728067794881e+00
    8.6296908102028291e-03 -1.5592282259343748e+00
    9.3970768764704265e-03 -1.8580583823930161e+00
    9.1056919522544862e-03 -1.7507762253652945e+00
    1.0167548487649700e-02 -2.1213203435596419e+00
    8.9475816484112479e-03 -1.6898728067794881e+00
    1.1157311356586718e-02 -2.4343224778007384e+00
    1.0286889997472794e-02 -2.1602468994692869e+00
    1.2053889777637597e-02 -2.7039066387564334e+00
    1.1244521282269077e-02 -2.4610168170057092e+00
    9.9463033849808355e-03 -2.0480342879074174e+00
    1.3134562435811552e-02 -3.0179642324103364e+00
    9.1393962652866288e-03 -1.7634880520973519e+00
    1.2293716592366156e-02 -2.7744683127771803e+00
    1.5701773342117562e-02 -3.7363083384538838e+00
    1.2053889777637597e-02 -2.7039066387564334e+00
    1.2831478917646841e-02 -2.9308264345988806e+00
    1.0833627121110143e-02 -2.3341542070028218e+00
    1.3464726939836471e-02 -3.1121880222303839e+00
    1.1830650276822677e-02 -2.6376972549006927e+00
    9.8436221431390195e-03 -2.0134681656420721e+00
    1.1427337982521945e-02 -2.5166114784235827e+00
    1.1072730647165329e-02 -2.4083189157584592e+00
    1.0054155780296500e-02 -2.0839522890069109e+00
    1.0348931294826494e-02 -2.1803316614327635e+00
    1.0226448431092210e-02 -2.1405815920536191e+00
    9.7941149283146088e-03 -1.9966638842495918e+00
    8.6532395327251974e-03 -1.5693829879806154e+00
    7.8449321772025207e-03 -1.0216241221675100e+00
    7.8757491928847425e-03 -9.1287092917527690e-01
    8.4008637365090861e-03 -6.8734339662347066e-01
    1.4437485900899560e-02 -2.9531221160930915e-01
    2.3210354127426377e-02 -1.7407765595569782e-01
    2.3210354127426377e-02 -1.7407765595569782e-01
    2.7104779935001003e-02 -1.4784425419091454e-01
    2.1409481257815863e-02 -1.8976585660336787e-01
    1.2293716592366154e-02 -3.6042941827618952e-01
    8.4008637365090861e-03 -6.8734339662347066e-01
    8.0590946748373971e-03 -1.2638125740085917e+00
    8.8888888888888889e-03 -1.6666666666666667e+00
    8.7786586856071630e-03 -1.6220567071360508e+00
    9.0088118657380267e-03 -1.7137217117324381e+00
    8.7525151271486256e-03 -1.6112584665887242e+00
    9.1393962652866288e-03 -1.7634880520973519e+00
    1.0833627121110143e-02 -2.3341542070028218e+00
    9.6524656523653673e-03 -1.9480430680228287e+00
    9.6074220198702175e-03 -1.9324019289966232e+00
    9.6074220198702175e-03 -1.9324019289966232e+00
    1.1724707122169793e-02 -2.6060826285186494e+00
    1.0348931294826494e-02 -2.1803316614327635e+00
    1.0758460732205061e-02 -2.3106239527122234e+00
    1.0685404631536216e-02 -2.2876479915697989e+00
    9.1393962652866288e-03 -1.7634880520973519e+00
    1.0348931294826494e-02 -2.1803316614327635e+00
    1.1830650276822677e-02 -2.6376972549006927e+00
    1.0833627121110143e-02 -2.3341542070028218e+00
    1.1724707122169793e-02 -2.6060826285186494e+00
    1.1622289825671473e-02 -2.5753937681885652e+00
    1.1622289825671473e-02 -2.5753937681885652e+00
    1.1830650276822677e-02 -2.6376972549006927e+00
    1.1334485575145076e-02 -2.4884347876341235e+00
    1.1244521282269077e-02 -2.4610168170057092e+00
    1.1622289825671473e-02 -2.5753937681885652e+00
    1.0910995152345964e-02 -2.3582628158820480e+00
    1.0990661904386648e-02 -2.3829753310874686e+00
    1.0614372764661831e-02 -2.2652036422766950e+00
    1.0167548487649700e-02 -2.1213203435596419e+00
    1.0054155780296500e-02 -2.0839522890069109e+00
    8.5840464323961897e-03 -1.5392755989001350e+00
    7.8441467470768984e-03 -1.0161735558713254e+00
    7.9085413906303872e-03 -8.7892653182233171e-01
    9.1393962652866253e-03 -5.6705799555073833e-01
    1.6002645283972775e-02 -2.6186146828319085e-01
    2.4309763284832513e-02 -1.6574838603294895e-01
    4.3962647617546577e-02 -8.9923597399527086e-02
    1.2979859299087794e-02 -3.3629635456727469e-01
    1.0478061725732271e-02 -4.5008037867349981e-01
    7.8543757791152552e-03 -1.0549854739675262e+00
    8.2060993986221818e-03 -1.3540064007726600e+00
    8.6066296582387042e-03 -1.5491933384829668e+00
    8.9778719593638454e-03 -1.7017148213885105e+00
    9.4783571655075935e-03 -1.8870547447692392e+00
    8.8326172519858463e-03 -1.6440712566764564e+00
    1.0990661904386648e-02 -2.3829753310874686e+00
    1.1244521282269077e-02 -2.4610168170057092e+00
    9.6524656523653673e-03 -1.9480430680228287e+00
    1.0167548487649700e-02 -2.1213203435596419e+00
    9.7457775347007253e-03 -1.9801647990960110e+00
    1.1427337982521945e-02 -2.5166114784235827e+00
    1.1830650276822677e-02 -2.6376972549006927e+00
    1.0412633627862856e-02 -2.2008521077073766e+00
    9.5634097342171907e-03 -1.9170289512680825e+00
    1.1334485575145076e-02 -2.4884347876341235e+00
    1.3641197749745955e-02 -3.1622776601683804e+00
    1.2293716592366156e-02 -2.7744683127771803e+00
    1.1334485575145076e-02 -2.4884347876341235e+00
    9.6524656523653673e-03 -1.9480430680228287e+00
    1.0348931294826494e-02 -2.1803316614327635e+00
    1.1940309498806994e-02 -2.6702873970059273e+00
    1.2979859299087794e-02 -2.9735677667001128e+00
    1.1622289825671473e-02 -2.5753937681885652e+00
    1.0348931294826494e-02 -2.1803316614327635e+00
    1.1940309498806994e-02 -2.6702873970059273e+00
    1.1830650276822677e-02 -2.6376972549006927e+00
    1.0226448431092210e-02 -2.1405815920536191e+00
    9.3193570758813987e-03 -1.8299828439912567e+00
    1.0286889997472794e-02 -2.1602468994692869e+00
    9.2090321348488376e-03 -1.7894823807490354e+00
    9.6985728993774396e-03 -1.9639610121239315e+00
    8.2203940671977793e-03 -1.3619698352243594e+00
    7.8459423627000695e-03 -9.7361012046232687e-01
    7.9460579615253345e-03 -8.5058938633600745e-01
    1.2420461549847437e-02 -3.5567685347290390e-01
    2.3210354127426377e-02 -1.7407765595569782e-01
    2.7104779935001003e-02 -1.4784425419091454e-01
    1.2979859299087794e-02 -3.3629635456727469e-01
    8.2499919433711762e-03 -7.2562429138287388e-01
    8.1032544282775044e-03 -1.2928374110570018e+00
    8.2969850736927097e-03 -1.4029447488244036e+00
    9.4372591503256806e-03 -1.8724380086896180e+00
    9.2817709528813189e-03 -1.8162738160070035e+00
    8.5840464323961897e-03 -1.5392755989001350e+00
    9.6074220198702175e-03 -1.9324019289966232e+00
    1.1830650276822677e-02 -2.6376972549006927e+00
    9.0404173332281935e-03 -1.7258978545253825e+00
    1.0167548487649700e-02 -2.1213203435596419e+00
    9.9463033849808355e-03 -2.0480342879074174e+00
    1.2552128501320139e-02 -2.8499037210951861e+00
    1.1724707122169793e-02 -2.6060826285186494e+00
    1.1244521282269077e-02 -2.4610168170057092e+00
    9.9463033849808355e-03 -2.0480342879074174e+00
    1.0685404631536216e-02 -2.2876479915697989e+00
    1.1157311356586718e-02 -2.4343224778007384e+00
    1.0833627121110143e-02 -2.3341542070028218e+00
    1.0167548487649700e-02 -2.1213203435596419e+00
    1.0054155780296500e-02 -2.0839522890069109e+00
    1.0478061725732268e-02 -2.2218253613882286e+00
    1.1157311356586718e-02 -2.4343224778007384e+00
    1.2420461549847444e-02 -2.8115408417381942e+00
    1.0545283989955931e-02 -2.2432695033178978e+00
    1.4663001374427333e-02 -3.4491378233027929e+00
    1.2420461549847444e-02 -2.8115408417381942e+00
    1.3826022596405670e-02 -3.2145502536643185e+00
    1.1523221619336327e-02 -2.5455844122715705e+00
    1.2171612389003692e-02 -2.7386127875258306e+00
    1.2293716592366156e-02 -2.7744683127771803e+00
    9.1056919522544862e-03 -1.7507762253652945e+00
    1.0054155780296500e-02 -2.0839522890069109e+00
    1.0685404631536216e-02 -2.2876479915697989e+00
    9.0404173332281935e-03 -1.7258978545253825e+00
    7.8431372549019607e-03 -1. 7.8567420131838619e-03
    -9.4280904158206347e-01 9.3970768764704282e-03
    -5.3819622110694276e-01 1.9378935494661968e-02
    -2.1140656903267599e-01 1.5152517780247066e-02
    -2.7894407731818466e-01 1.1523221619336331e-02
    -3.9283710065919314e-01 7.8435858699715325e-03
    -1.0107529973349680e+00 8.2060993986221818e-03
    -1.3540064007726600e+00 9.5203979499360707e-03
    -1.9019158631804105e+00 9.8436221431390195e-03
    -2.0134681656420721e+00 9.3193570758813987e-03
    -1.8299828439912567e+00 9.0088118657380267e-03
    -1.7137217117324381e+00 1.2552128501320139e-02
    -2.8499037210951861e+00 1.0412633627862856e-02
    -2.2008521077073766e+00 9.6074220198702175e-03
    -1.9324019289966232e+00 9.2090321348488376e-03
    -1.7894823807490354e+00 1.1427337982521945e-02
    -2.5166114784235827e+00 1.0910995152345964e-02
    -2.3582628158820480e+00 1.0110135046273609e-02
    -2.1024485380318985e+00 1.1940309498806994e-02
    -2.6702873970059273e+00 1.0478061725732268e-02
    -2.2218253613882286e+00 1.1427337982521945e-02
    -2.5166114784235827e+00 1.0685404631536216e-02
    -2.2876479915697989e+00 1.0545283989955931e-02
    -2.2432695033178978e+00 1.0990661904386648e-02
    -2.3829753310874686e+00 1.0412633627862856e-02
    -2.2008521077073766e+00 1.1830650276822677e-02
    -2.6376972549006927e+00 1.4223402983473221e-02
    -3.3263367431804420e+00 1.2420461549847444e-02
    -2.8115408417381942e+00 1.3641197749745955e-02
    -3.1622776601683804e+00 1.3296024945388087e-02
    -3.0641293851417095e+00 1.2979859299087794e-02
    -2.9735677667001128e+00 1.0990661904386648e-02
    -2.3829753310874686e+00 1.0167548487649700e-02
    -2.1213203435596419e+00 9.7457775347007253e-03
    -1.9801647990960110e+00 9.8436221431390195e-03
    -2.0134681656420721e+00 1.2053889777637597e-02
    -2.7039066387564334e+00 1.0990661904386648e-02
    -2.3829753310874686e+00 1.0990661904386648e-02
    -2.3829753310874686e+00 9.6524656523653673e-03
    -1.9480430680228287e+00 8.1032544282775044e-03
    -1.2928374110570018e+00 7.8503243470476654e-03
    -1.0437363052324737e+00 7.9681907288959575e-03
    -8.3666002653407556e-01 1.6002645283972775e-02
    -2.6186146828319085e-01 1.3464726939836479e-02
    -3.2131734742791596e-01 8.5619318123955797e-03
    -6.5382024749202605e-01 7.8930655633429898e-03
    -1.1193802071650059e+00 8.8053552845146939e-03
    -1.6329931618554525e+00 9.6985728993774396e-03
    -1.9639610121239315e+00 1.1157311356586718e-02
    -2.4343224778007384e+00 1.0478061725732268e-02
    -2.2218253613882286e+00 1.1244521282269077e-02
    -2.4610168170057092e+00 1.1830650276822677e-02
    -2.6376972549006927e+00 1.0286889997472794e-02
    -2.1602468994692869e+00 9.0088118657380267e-03
    -1.7137217117324381e+00 1.3134562435811552e-02
    -3.0179642324103364e+00 1.2831478917646841e-02
    -2.9308264345988806e+00 1.4437485900899549e-02
    -3.3862466931200759e+00 1.2053889777637597e-02
    -2.7039066387564334e+00 1.1244521282269077e-02
    -2.4610168170057092e+00 1.0833627121110143e-02
    -2.3341542070028218e+00 1.0412633627862856e-02
    -2.2008521077073766e+00 1.1334485575145076e-02
    -2.4884347876341235e+00 1.0478061725732268e-02
    -2.2218253613882286e+00 1.0910995152345964e-02
    -2.3582628158820480e+00 1.2552128501320139e-02
    -2.8499037210951861e+00 1.2552128501320139e-02
    -2.8499037210951861e+00 1.1427337982521945e-02
    -2.5166114784235827e+00 1.0348931294826494e-02
    -2.1803316614327635e+00 1.3641197749745955e-02
    -3.1622776601683804e+00 1.2420461549847444e-02
    -2.8115408417381942e+00 1.2053889777637597e-02
    -2.7039066387564334e+00 1.2831478917646841e-02
    -2.9308264345988806e+00 1.5418961562809939e-02
    -3.6584990617212676e+00 1.1523221619336327e-02
    -2.5455844122715705e+00 1.4900963698652028e-02
    -3.5152727998183648e+00 1.2689023237109680e-02
    -2.8896366553599768e+00 1.0110135046273609e-02
    -2.1024485380318985e+00 1.0054155780296500e-02
    -2.0839522890069109e+00 9.5203979499360707e-03
    -1.9019158631804105e+00 8.9475816484112479e-03
    -1.6898728067794881e+00 7.8720047524543126e-03
    -1.0895570214192447e+00 7.8757491928847425e-03
    -9.1287092917527690e-01 9.8436221431390247e-03
    -4.9665548085837807e-01 1.3826022596405670e-02
    -3.1108550841912758e-01 8.1032544282775044e-03
    -7.7349246815376183e-01 8.0194825088860822e-03
    -1.2357293502329010e+00 8.8888888888888889e-03
    -1.6666666666666667e+00 9.9995609793257917e-03
    -2.0658183932288967e+00 9.2090321348488376e-03
    -1.7894823807490354e+00 1.0910995152345964e-02
    -2.3582628158820480e+00 1.2053889777637597e-02
    -2.7039066387564334e+00 1.0226448431092210e-02
    -2.1405815920536191e+00 1.0614372764661831e-02
    -2.2652036422766950e+00 9.6985728993774396e-03
    -1.9639610121239315e+00 9.6985728993774396e-03
    -1.9639610121239315e+00 1.2689023237109680e-02
    -2.8896366553599768e+00 1.3134562435811552e-02
    -3.0179642324103364e+00 1.0226448431092210e-02
    -2.1405815920536191e+00 1.1427337982521945e-02
    -2.5166114784235827e+00 1.0110135046273609e-02
    -2.1024485380318985e+00 9.6524656523653673e-03
    -1.9480430680228287e+00 1.2689023237109680e-02
    -2.8896366553599768e+00 1.1940309498806994e-02
    -2.6702873970059273e+00 1.3296024945388087e-02
    -3.0641293851417095e+00 1.1724707122169793e-02
    -2.6060826285186494e+00 1.1830650276822677e-02
    -2.6376972549006927e+00 1.3464726939836471e-02
    -3.1121880222303839e+00 1.1940309498806994e-02
    -2.6702873970059273e+00 1.2293716592366156e-02
    -2.7744683127771803e+00 1.1334485575145076e-02
    -2.4884347876341235e+00 1.2979859299087794e-02
    -2.9735677667001128e+00 1.2293716592366156e-02
    -2.7744683127771803e+00 1.4223402983473221e-02
    -3.3263367431804420e+00 1.1724707122169793e-02
    -2.6060826285186494e+00 1.2293716592366156e-02
    -2.7744683127771803e+00 1.2552128501320139e-02
    -2.8499037210951861e+00 1.3134562435811552e-02
    -3.0179642324103364e+00 1.0054155780296500e-02
    -2.0839522890069109e+00 1.0614372764661831e-02
    -2.2652036422766950e+00 8.8053552845146939e-03
    -1.6329931618554525e+00 8.0487730064235687e-03
    -1.2567061489574980e+00 7.8441467470768984e-03
    -9.8408386463328357e-01 8.2653049844514624e-03
    -7.2133570773394573e-01 1.2831478917646844e-02
    -3.4120068940106379e-01 7.8459423627000695e-03
    -9.7361012046232687e-01 8.2499919433711745e-03
    -1.3781236541767756e+00 9.2450032704204863e-03
    -1.8027756377319948e+00 9.9995609793257917e-03
    -2.0658183932288967e+00 1.0614372764661831e-02
    -2.2652036422766950e+00 1.0348931294826494e-02
    -2.1803316614327635e+00 1.1523221619336327e-02
    -2.5455844122715705e+00 1.0685404631536216e-02
    -2.2876479915697989e+00 9.8436221431390195e-03
    -2.0134681656420721e+00 8.8604573688425958e-03
    -1.6552945357246849e+00 1.1427337982521945e-02
    -2.5166114784235827e+00 1.0758460732205061e-02
    -2.3106239527122234e+00 1.1334485575145076e-02
    -2.4884347876341235e+00 1.0685404631536216e-02
    -2.2876479915697989e+00 1.0910995152345964e-02
    -2.3582628158820480e+00 9.9463033849808355e-03
    -2.0480342879074174e+00 1.0990661904386648e-02
    -2.3829753310874686e+00 1.1724707122169793e-02
    -2.6060826285186494e+00 1.0110135046273609e-02
    -2.1024485380318985e+00 1.0758460732205061e-02
    -2.3106239527122234e+00 1.1940309498806994e-02
    -2.6702873970059273e+00 1.1334485575145076e-02
    -2.4884347876341235e+00 1.0758460732205061e-02
    -2.3106239527122234e+00 1.1334485575145076e-02
    -2.4884347876341235e+00 1.1724707122169793e-02
    -2.6060826285186494e+00 1.0910995152345964e-02
    -2.3582628158820480e+00 1.0412633627862856e-02
    -2.2008521077073766e+00 1.2979859299087794e-02
    -2.9735677667001128e+00 1.4223402983473221e-02
    -3.3263367431804420e+00 1.1622289825671473e-02
    -2.5753937681885652e+00 1.1622289825671473e-02
    -2.5753937681885652e+00 1.4663001374427333e-02
    -3.4491378233027929e+00 1.1523221619336327e-02
    -2.5455844122715705e+00 1.1334485575145076e-02
    -2.4884347876341235e+00 1.1244521282269077e-02
    -2.4610168170057092e+00 9.7457775347007253e-03
    -1.9801647990960110e+00 7.9926448665651358e-03
    -1.2152453217572898e+00 7.8522367418614042e-03
    -1.0493443645942058e+00 8.0013226419863859e-03
    -8.1831708838497119e-01 9.7941149283146071e-03
    -5.0083542247063328e-01 7.8435858699715325e-03
    -1.0107529973349680e+00 7.8930655633429898e-03
    -1.1193802071650059e+00 8.6772858076966004e-03
    -1.5796604390829492e+00 1.0545283989955931e-02
    -2.2432695033178978e+00 1.0110135046273609e-02
    -2.1024485380318985e+00 1.0833627121110143e-02
    -2.3341542070028218e+00 9.8943380390742099e-03
    -2.0305880112009116e+00 9.7457775347007253e-03
    -1.9801647990960110e+00 1.0110135046273609e-02
    -2.1024485380318985e+00 1.1334485575145076e-02
    -2.4884347876341235e+00 1.1334485575145076e-02
    -2.4884347876341235e+00 1.4019850403200999e-02
    -3.2691742076555057e+00 1.1940309498806994e-02
    -2.6702873970059273e+00 1.3826022596405670e-02
    -3.2145502536643185e+00 1.0833627121110143e-02
    -2.3341542070028218e+00 1.0286889997472794e-02
    -2.1602468994692869e+00 9.6524656523653673e-03
    -1.9480430680228287e+00 1.0833627121110143e-02
    -2.3341542070028218e+00 1.1427337982521945e-02
    -2.5166114784235827e+00 1.1244521282269077e-02
    -2.4610168170057092e+00 1.0286889997472794e-02
    -2.1602468994692869e+00 1.1427337982521945e-02
    -2.5166114784235827e+00 1.0910995152345964e-02
    -2.3582628158820480e+00 1.2979859299087794e-02
    -2.9735677667001128e+00 1.1523221619336327e-02
    -2.5455844122715705e+00 1.2689023237109680e-02
    -2.8896366553599768e+00 1.1334485575145076e-02
    -2.4884347876341235e+00 1.3826022596405670e-02
    -3.2145502536643185e+00 1.3826022596405670e-02
    -3.2145502536643185e+00 1.4437485900899549e-02
    -3.3862466931200759e+00 1.3134562435811552e-02
    -3.0179642324103364e+00 1.4663001374427333e-02
    -3.4491378233027929e+00 1.1622289825671473e-02
    -2.5753937681885652e+00 1.2420461549847444e-02
    -2.8115408417381942e+00 9.4783571655075935e-03
    -1.8870547447692392e+00 9.8436221431390195e-03
    -2.0134681656420721e+00 8.0194825088860822e-03
    -1.2357293502329010e+00 7.8471775639842051e-03
    -1.0326172294424669e+00 7.8652103400434995e-03
    -9.2773731056422182e-01 8.4386006640679648e-03
    -6.7892378070001347e-01 7.8621585888104962e-03
    -1.0721125348377951e+00 7.8930655633429898e-03
    -1.1193802071650059e+00 8.3133629518886577e-03
    -1.4113823011501880e+00 8.4779836399666748e-03
    -1.4913543948486832e+00 9.3970768764704265e-03
    -1.8580583823930161e+00 1.0348931294826494e-02
    -2.1803316614327635e+00 9.2450032704204863e-03
    -1.8027756377319948e+00 1.1072730647165329e-02
    -2.4083189157584592e+00 9.5203979499360707e-03
    -1.9019158631804105e+00 1.0412633627862856e-02
    -2.2008521077073766e+00 1.2552128501320139e-02
    -2.8499037210951861e+00 1.2831478917646841e-02
    -2.9308264345988806e+00 1.1334485575145076e-02
    -2.4884347876341235e+00 1.4663001374427333e-02
    -3.4491378233027929e+00 1.1244521282269077e-02
    -2.4610168170057092e+00 1.0758460732205061e-02
    -2.3106239527122234e+00 9.9995609793257917e-03
    -2.0658183932288967e+00 1.0412633627862856e-02
    -2.2008521077073766e+00 1.0990661904386648e-02
    -2.3829753310874686e+00 1.2689023237109680e-02
    -2.8896366553599768e+00 9.4372591503256806e-03
    -1.8724380086896180e+00 1.1334485575145076e-02
    -2.4884347876341235e+00 1.0478061725732268e-02
    -2.2218253613882286e+00 1.0614372764661831e-02
    -2.2652036422766950e+00 9.6524656523653673e-03
    -1.9480430680228287e+00 1.2420461549847444e-02
    -2.8115408417381942e+00 1.2053889777637597e-02
    -2.7039066387564334e+00 1.0685404631536216e-02
    -2.2876479915697989e+00 1.0545283989955931e-02
    -2.2432695033178978e+00 1.1427337982521945e-02
    -2.5166114784235827e+00 1.1724707122169793e-02
    -2.6060826285186494e+00 1.2420461549847444e-02
    -2.8115408417381942e+00 1.3134562435811552e-02
    -3.0179642324103364e+00 1.1622289825671473e-02
    -2.5753937681885652e+00 1.1072730647165329e-02
    -2.4083189157584592e+00 9.5203979499360707e-03
    -1.9019158631804105e+00 8.1150292678898225e-03
    -1.3002490076959830e+00 7.8432494014528363e-03
    -1.0053619687316817e+00 7.8503243470476637e-03
    -9.5809640326468082e-01 8.4195300411246000e-03
    -6.8313005106397329e-01 7.8757491928847425e-03
    -9.1287092917527690e-01 7.8435858699715325e-03
    -1.0107529973349680e+00 8.3472227937314205e-03
    -1.4285133553817635e+00 9.0088118657380267e-03
    -1.7137217117324381e+00 1.1334485575145076e-02
    -2.4884347876341235e+00 1.0348931294826494e-02
    -2.1803316614327635e+00 1.0910995152345964e-02
    -2.3582628158820480e+00 1.0545283989955931e-02
    -2.2432695033178978e+00 1.0478061725732268e-02
    -2.2218253613882286e+00 1.1622289825671473e-02
    -2.5753937681885652e+00 1.3296024945388087e-02
    -3.0641293851417095e+00 1.1157311356586718e-02
    -2.4343224778007384e+00 1.1244521282269077e-02
    -2.4610168170057092e+00 1.4663001374427333e-02
    -3.4491378233027929e+00 1.1334485575145076e-02
    -2.4884347876341235e+00 1.3464726939836471e-02
    -3.1121880222303839e+00 1.1244521282269077e-02
    -2.4610168170057092e+00 1.2053889777637597e-02
    -2.7039066387564334e+00 1.2979859299087794e-02
    -2.9735677667001128e+00 1.0910995152345964e-02
    -2.3582628158820480e+00 9.7941149283146088e-03
    -1.9966638842495918e+00 1.2689023237109680e-02
    -2.8896366553599768e+00 1.2293716592366156e-02
    -2.7744683127771803e+00 1.0286889997472794e-02
    -2.1602468994692869e+00 1.0286889997472794e-02
    -2.1602468994692869e+00 1.0758460732205061e-02
    -2.3106239527122234e+00 1.4223402983473221e-02
    -3.3263367431804420e+00 1.1427337982521945e-02
    -2.5166114784235827e+00 1.1072730647165329e-02
    -2.4083189157584592e+00 1.7430698579856050e-02
    -4.2071367935925288e+00 1.7858313586059677e-02
    -4.3225236293530811e+00 1.4663001374427333e-02
    -3.4491378233027929e+00 1.1830650276822677e-02
    -2.6376972549006927e+00 1.0348931294826494e-02
    -2.1803316614327635e+00 1.0478061725732268e-02
    -2.2218253613882286e+00 9.6524656523653673e-03
    -1.9480430680228287e+00 8.6066296582387042e-03
    -1.5491933384829668e+00 7.8503243470476654e-03
    -1.0437363052324737e+00 7.8621585888104962e-03
    -9.3273790530888168e-01 8.0194825088860822e-03
    -8.0923868953305012e-01 7.8593360582622351e-03
    -9.3776168876992572e-01 7.8449321772025207e-03
    -9.7883358301913259e-01 8.2969850736927097e-03
    -1.4029447488244036e+00 8.6772858076966004e-03
    -1.5796604390829492e+00 1.0685404631536216e-02
    -2.2876479915697989e+00 1.0758460732205061e-02
    -2.3106239527122234e+00 1.0990661904386648e-02
    -2.3829753310874686e+00 1.0685404631536216e-02
    -2.2876479915697989e+00 1.1334485575145076e-02
    -2.4884347876341235e+00 1.0167548487649700e-02
    -2.1213203435596419e+00 1.1830650276822677e-02
    -2.6376972549006927e+00 1.0054155780296500e-02
    -2.0839522890069109e+00 1.1157311356586718e-02
    -2.4343224778007384e+00 1.1334485575145076e-02
    -2.4884347876341235e+00 1.3641197749745955e-02
    -3.1622776601683804e+00 1.1830650276822677e-02
    -2.6376972549006927e+00 1.0685404631536216e-02
    -2.2876479915697989e+00 1.0412633627862856e-02
    -2.2008521077073766e+00 1.2293716592366156e-02
    -2.7744683127771803e+00 1.2420461549847444e-02
    -2.8115408417381942e+00 1.0167548487649700e-02
    -2.1213203435596419e+00 1.0110135046273609e-02
    -2.1024485380318985e+00 1.0226448431092210e-02
    -2.1405815920536191e+00 1.0685404631536216e-02
    -2.2876479915697989e+00 1.1157311356586718e-02
    -2.4343224778007384e+00 1.3296024945388087e-02
    -3.0641293851417095e+00 1.4223402983473221e-02
    -3.3263367431804420e+00 1.2171612389003692e-02
    -2.7386127875258306e+00 1.0910995152345964e-02
    -2.3582628158820480e+00 1.7430698579856050e-02
    -4.2071367935925288e+00 1.1157311356586718e-02
    -2.4343224778007384e+00 1.1940309498806994e-02
    -2.6702873970059273e+00 1.2171612389003692e-02
    -2.7386127875258306e+00 9.1393962652866288e-03
    -1.7634880520973519e+00 1.1244521282269077e-02
    -2.4610168170057092e+00 1.0990661904386648e-02
    -2.3829753310874686e+00 8.9179255603297463e-03
    -1.6781914463529615e+00 7.8593360582622351e-03
    -1.0663690060869442e+00 7.8621585888104962e-03
    -9.3273790530888168e-01 8.0917769872360032e-03
    -7.7791401490927947e-01 7.9141811006888194e-03
    -8.7415727612153782e-01 7.8441467470768984e-03
    -9.8408386463328357e-01 7.8652103400434978e-03
    -1.0778913261468701e+00 8.7786586856071630e-03
    -1.6220567071360508e+00 9.1056919522544862e-03
    -1.7507762253652945e+00 1.0990661904386648e-02
    -2.3829753310874686e+00 1.2053889777637597e-02
    -2.7039066387564334e+00 1.1622289825671473e-02
    -2.5753937681885652e+00 1.0286889997472794e-02
    -2.1602468994692869e+00 9.0404173332281935e-03
    -1.7258978545253825e+00 9.6524656523653673e-03
    -1.9480430680228287e+00 1.0054155780296500e-02
    -2.0839522890069109e+00 1.4019850403200999e-02
    -3.2691742076555057e+00 1.3464726939836471e-02
    -3.1121880222303839e+00 1.1427337982521945e-02
    -2.5166114784235827e+00 9.9463033849808355e-03
    -2.0480342879074174e+00 1.2171612389003692e-02
    -2.7386127875258306e+00 1.2171612389003692e-02
    -2.7386127875258306e+00 1.3641197749745955e-02
    -3.1622776601683804e+00 1.3641197749745955e-02
    -3.1622776601683804e+00 1.3641197749745955e-02
    -3.1622776601683804e+00 1.0833627121110143e-02
    -2.3341542070028218e+00 1.0910995152345964e-02
    -2.3582628158820480e+00 1.0833627121110143e-02
    -2.3341542070028218e+00 1.0545283989955931e-02
    -2.2432695033178978e+00 1.0286889997472794e-02
    -2.1602468994692869e+00 1.4900963698652028e-02
    -3.5152727998183648e+00 1.2689023237109680e-02
    -2.8896366553599768e+00 1.1157311356586718e-02
    -2.4343224778007384e+00 1.4437485900899549e-02
    -3.3862466931200759e+00 1.1244521282269077e-02
    -2.4610168170057092e+00 1.1157311356586718e-02
    -2.4343224778007384e+00 1.1427337982521945e-02
    -2.5166114784235827e+00 8.8326172519858463e-03
    -1.6440712566764564e+00 1.0226448431092210e-02
    -2.1405815920536191e+00 1.1523221619336327e-02
    -2.5455844122715705e+00 8.6772858076966004e-03
    -1.5796604390829492e+00 7.9141811006888177e-03
    -1.1439589045541108e+00 7.8503243470476637e-03
    -9.5809640326468082e-01 8.8888888888888889e-03
    -5.9999999999999998e-01 7.9141811006888194e-03
    -8.7415727612153782e-01 7.8432494014528363e-03
    -1.0053619687316817e+00 7.8503243470476654e-03
    -1.0437363052324737e+00 8.1032544282775044e-03
    -1.2928374110570018e+00 1.0614372764661831e-02
    -2.2652036422766950e+00 1.1334485575145076e-02
    -2.4884347876341235e+00 1.1334485575145076e-02
    -2.4884347876341235e+00 1.1072730647165329e-02
    -2.4083189157584592e+00 9.1393962652866288e-03
    -1.7634880520973519e+00 9.1056919522544862e-03
    -1.7507762253652945e+00 1.1244521282269077e-02
    -2.4610168170057092e+00 1.1724707122169793e-02
    -2.6060826285186494e+00 9.8943380390742099e-03
    -2.0305880112009116e+00 1.4223402983473221e-02
    -3.3263367431804420e+00 9.9995609793257917e-03
    -2.0658183932288967e+00 1.1072730647165329e-02
    -2.4083189157584592e+00 9.5634097342171907e-03
    -1.9170289512680825e+00 1.1072730647165329e-02
    -2.4083189157584592e+00 1.0758460732205061e-02
    -2.3106239527122234e+00 1.0614372764661831e-02
    -2.2652036422766950e+00 1.2293716592366156e-02
    -2.7744683127771803e+00 1.0286889997472794e-02
    -2.1602468994692869e+00 9.4783571655075935e-03
    -1.8870547447692392e+00 1.0348931294826494e-02
    -2.1803316614327635e+00 1.1427337982521945e-02
    -2.5166114784235827e+00 1.2420461549847444e-02
    -2.8115408417381942e+00 1.2171612389003692e-02
    -2.7386127875258306e+00 1.2831478917646841e-02
    -2.9308264345988806e+00 1.0910995152345964e-02
    -2.3582628158820480e+00 1.1724707122169793e-02
    -2.6060826285186494e+00 1.1724707122169793e-02
    -2.6060826285186494e+00 1.2053889777637597e-02
    -2.7039066387564334e+00 1.0685404631536216e-02
    -2.2876479915697989e+00 8.9778719593638454e-03
    -1.7017148213885105e+00 1.0167548487649700e-02
    -2.1213203435596419e+00 9.7457775347007253e-03
    -1.9801647990960110e+00 9.2090321348488376e-03
    -1.7894823807490354e+00 8.1150292678898225e-03
    -1.3002490076959830e+00 7.8486380997192136e-03
    -9.6324194860190349e-01 1.0167548487649704e-02
    -4.7140452079103173e-01 7.9031431858324428e-03
    -8.8371510168853673e-01 7.8432494014528363e-03
    -1.0053619687316817e+00 7.8503243470476654e-03
    -1.0437363052324737e+00 7.9842318656712756e-03
    -1.2085223687584250e+00 9.0088118657380267e-03
    -1.7137217117324381e+00 1.0545283989955931e-02
    -2.2432695033178978e+00 1.1940309498806994e-02
    -2.6702873970059273e+00 1.0110135046273609e-02
    -2.1024485380318985e+00 1.0226448431092210e-02
    -2.1405815920536191e+00 8.9778719593638454e-03
    -1.7017148213885105e+00 1.1157311356586718e-02
    -2.4343224778007384e+00 1.3296024945388087e-02
    -3.0641293851417095e+00 1.2552128501320139e-02
    -2.8499037210951861e+00 1.0054155780296500e-02
    -2.0839522890069109e+00 1.1072730647165329e-02
    -2.4083189157584592e+00 1.3296024945388087e-02
    -3.0641293851417095e+00 1.1724707122169793e-02
    -2.6060826285186494e+00 1.2293716592366156e-02
    -2.7744683127771803e+00 1.0685404631536216e-02
    -2.2876479915697989e+00 1.0226448431092210e-02
    -2.1405815920536191e+00 1.0614372764661831e-02
    -2.2652036422766950e+00 1.0167548487649700e-02
    -2.1213203435596419e+00 1.1940309498806994e-02
    -2.6702873970059273e+00 1.1072730647165329e-02
    -2.4083189157584592e+00 1.1724707122169793e-02
    -2.6060826285186494e+00 1.2053889777637597e-02
    -2.7039066387564334e+00 1.3134562435811552e-02
    -3.0179642324103364e+00 1.0167548487649700e-02
    -2.1213203435596419e+00 1.1334485575145076e-02
    -2.4884347876341235e+00 1.1724707122169793e-02
    -2.6060826285186494e+00 1.0226448431092210e-02
    -2.1405815920536191e+00 1.0348931294826494e-02
    -2.1803316614327635e+00 1.3464726939836471e-02
    -3.1121880222303839e+00 1.0054155780296500e-02
    -2.0839522890069109e+00 1.0167548487649700e-02
    -2.1213203435596419e+00 1.0348931294826494e-02
    -2.1803316614327635e+00 9.6985728993774396e-03
    -1.9639610121239315e+00 8.1921346127453720e-03
    -1.3461166647761145e+00 7.8486380997192136e-03
    -9.6324194860190349e-01 1.2979859299087794e-02
    -3.3629635456727469e-01 7.9842318656712739e-03
    -8.2745675698775023e-01 7.8503243470476637e-03
    -9.5809640326468082e-01 7.8486380997192136e-03
    -9.6324194860190349e-01 7.9141811006888177e-03
    -1.1439589045541108e+00 8.4195300411246017e-03
    -1.4638501094228002e+00 1.0833627121110143e-02
    -2.3341542070028218e+00 9.8436221431390195e-03
    -2.0134681656420721e+00 1.0110135046273609e-02
    -2.1024485380318985e+00 8.9179255603297463e-03
    -1.6781914463529615e+00 9.6985728993774396e-03
    -1.9639610121239315e+00 1.2552128501320139e-02
    -2.8499037210951861e+00 1.0110135046273609e-02
    -2.1024485380318985e+00 1.1072730647165329e-02
    -2.4083189157584592e+00 1.2831478917646841e-02
    -2.9308264345988806e+00 1.2552128501320139e-02
    -2.8499037210951861e+00 1.3641197749745955e-02
    -3.1622776601683804e+00 1.2293716592366156e-02
    -2.7744683127771803e+00 1.2293716592366156e-02
    -2.7744683127771803e+00 1.0685404631536216e-02
    -2.2876479915697989e+00 1.2552128501320139e-02
    -2.8499037210951861e+00 1.1072730647165329e-02
    -2.4083189157584592e+00 1.1244521282269077e-02
    -2.4610168170057092e+00 1.1157311356586718e-02
    -2.4343224778007384e+00 1.0286889997472794e-02
    -2.1602468994692869e+00 1.2293716592366156e-02
    -2.7744683127771803e+00 1.3641197749745955e-02
    -3.1622776601683804e+00 1.2420461549847444e-02
    -2.8115408417381942e+00 9.8436221431390195e-03
    -2.0134681656420721e+00 9.0404173332281935e-03
    -1.7258978545253825e+00 1.1334485575145076e-02
    -2.4884347876341235e+00 1.2053889777637597e-02
    -2.7039066387564334e+00 1.1244521282269077e-02
    -2.4610168170057092e+00 1.0226448431092210e-02
    -2.1405815920536191e+00 9.3577844549224201e-03
    -1.8439088914585768e+00 1.1072730647165329e-02
    -2.4083189157584592e+00 1.0348931294826494e-02
    -2.1803316614327635e+00 1.0286889997472794e-02
    -2.1602468994692869e+00 8.2350233028944952e-03
    -1.3700084222088116e+00 7.8471775639842051e-03
    -9.6841304937350525e-01 1.3641197749745950e-02
    -3.1622776601683794e-01 8.1784951736669602e-03
    -7.4721705904866320e-01 7.8471775639842051e-03
    -9.6841304937350525e-01 7.8435858699715325e-03
    -9.8936139950777291e-01 7.9085413906303890e-03
    -1.1377515227884174e+00 8.3133629518886577e-03
    -1.4113823011501880e+00 9.2817709528813189e-03
    -1.8162738160070035e+00 1.0758460732205061e-02
    -2.3106239527122234e+00 1.0478061725732268e-02
    -2.2218253613882286e+00 9.5203979499360707e-03
    -1.9019158631804105e+00 1.2420461549847444e-02
    -2.8115408417381942e+00 1.2552128501320139e-02
    -2.8499037210951861e+00 1.2420461549847444e-02
    -2.8115408417381942e+00 1.2979859299087794e-02
    -2.9735677667001128e+00 1.0545283989955931e-02
    -2.2432695033178978e+00 1.1157311356586718e-02
    -2.4343224778007384e+00 1.2293716592366156e-02
    -2.7744683127771803e+00 1.4437485900899549e-02
    -3.3862466931200759e+00 1.1244521282269077e-02
    -2.4610168170057092e+00 1.2689023237109680e-02
    -2.8896366553599768e+00 1.3134562435811552e-02
    -3.0179642324103364e+00 1.1724707122169793e-02
    -2.6060826285186494e+00 1.2420461549847444e-02
    -2.8115408417381942e+00 9.6524656523653673e-03
    -1.9480430680228287e+00 1.3134562435811552e-02
    -3.0179642324103364e+00 1.3296024945388087e-02
    -3.0641293851417095e+00 1.2552128501320139e-02
    -2.8499037210951861e+00 9.6985728993774396e-03
    -1.9639610121239315e+00 1.0910995152345964e-02
    -2.3582628158820480e+00 1.0545283989955931e-02
    -2.2432695033178978e+00 1.1244521282269077e-02
    -2.4610168170057092e+00 1.1244521282269077e-02
    -2.4610168170057092e+00 1.1334485575145076e-02
    -2.4884347876341235e+00 9.3577844549224201e-03
    -1.8439088914585768e+00 1.1244521282269077e-02
    -2.4610168170057092e+00 1.1157311356586718e-02
    -2.4343224778007384e+00 1.0286889997472794e-02
    -2.1602468994692869e+00 1.0412633627862856e-02
    -2.2008521077073766e+00 8.0917769872360049e-03
    -1.2854891168359017e+00 7.9460579615253345e-03
    -8.5058938633600745e-01 2.5589613993299339e-02
    -1.5702717677706413e-01 8.8604573688425958e-03
    -6.0412209333017708e-01 7.9141811006888194e-03
    -8.7415727612153782e-01 7.8449321772025207e-03
    -9.7883358301913259e-01 7.8757491928847425e-03
    -1.0954451150103324e+00 8.1394857126683203e-03
    -1.3152668958425400e+00 8.3133629518886577e-03
    -1.4113823011501880e+00 8.7018399684569252e-03
    -1.5900634851453108e+00 9.9995609793257917e-03
    -2.0658183932288967e+00 1.0910995152345964e-02
    -2.3582628158820480e+00 9.8436221431390195e-03
    -2.0134681656420721e+00 1.1334485575145076e-02
    -2.4884347876341235e+00 1.2171612389003692e-02
    -2.7386127875258306e+00 1.0990661904386648e-02
    -2.3829753310874686e+00 1.2293716592366156e-02
    -2.7744683127771803e+00 1.2420461549847444e-02
    -2.8115408417381942e+00 1.1072730647165329e-02
    -2.4083189157584592e+00 1.1622289825671473e-02
    -2.5753937681885652e+00 1.1940309498806994e-02
    -2.6702873970059273e+00 1.1940309498806994e-02
    -2.6702873970059273e+00 1.2420461549847444e-02
    -2.8115408417381942e+00 1.0412633627862856e-02
    -2.2008521077073766e+00 1.3296024945388087e-02
    -3.0641293851417095e+00 1.2293716592366156e-02
    -2.7744683127771803e+00 1.0054155780296500e-02
    -2.0839522890069109e+00 9.9995609793257917e-03
    -2.0658183932288967e+00 9.4783571655075935e-03
    -1.8870547447692392e+00 1.1427337982521945e-02
    -2.5166114784235827e+00 1.0478061725732268e-02
    -2.2218253613882286e+00 1.0545283989955931e-02
    -2.2432695033178978e+00 1.1334485575145076e-02
    -2.4884347876341235e+00 1.0226448431092210e-02
    -2.1405815920536191e+00 1.1244521282269077e-02
    -2.4610168170057092e+00 1.0614372764661831e-02
    -2.2652036422766950e+00 1.1244521282269077e-02
    -2.4610168170057092e+00 9.1738365282764602e-03
    -1.7763883459298964e+00 1.0348931294826494e-02
    -2.1803316614327635e+00 9.9463033849808355e-03
    -2.0480342879074174e+00 7.9200638359717777e-03
    -1.1502092707240832e+00 8.4008637365090861e-03
    -6.8734339662347066e-01 2.8936724509607589e-02
    -1.3810709425039985e-01 1.7034697338384829e-02
    -2.4390589370869187e-01 8.0013226419863859e-03
    -8.1831708838497119e-01 7.8621585888104962e-03
    -9.3273790530888168e-01 7.8593360582622351e-03
    -1.0663690060869442e+00 7.8797264138106265e-03
    -1.1013708510212581e+00 8.2203940671977793e-03
    -1.3619698352243594e+00 8.4386006640679613e-03
    -1.4729193886373169e+00 8.8604573688425958e-03
    -1.6552945357246849e+00 9.9463033849808355e-03
    -2.0480342879074174e+00 1.1244521282269077e-02
    -2.4610168170057092e+00 1.1334485575145076e-02
    -2.4884347876341235e+00 9.9995609793257917e-03
    -2.0658183932288967e+00 1.0685404631536216e-02
    -2.2876479915697989e+00 1.1157311356586718e-02
    -2.4343224778007384e+00 8.4983109858720735e-03
    -1.5007244627324094e+00 9.6524656523653673e-03
    -1.9480430680228287e+00 1.2689023237109680e-02
    -2.8896366553599768e+00 1.3826022596405670e-02
    -3.2145502536643185e+00 9.4783571655075935e-03
    -1.8870547447692392e+00 1.1244521282269077e-02
    -2.4610168170057092e+00 1.1830650276822677e-02
    -2.6376972549006927e+00 1.0286889997472794e-02
    -2.1602468994692869e+00 1.4019850403200999e-02
    -3.2691742076555057e+00 1.1523221619336327e-02
    -2.5455844122715705e+00 1.1830650276822677e-02
    -2.6376972549006927e+00 9.9463033849808355e-03
    -2.0480342879074174e+00 9.9995609793257917e-03
    -2.0658183932288967e+00 9.0404173332281935e-03
    -1.7258978545253825e+00 1.0412633627862856e-02
    -2.2008521077073766e+00 1.1334485575145076e-02
    -2.4884347876341235e+00 1.2053889777637597e-02
    -2.7039066387564334e+00 1.1523221619336327e-02
    -2.5455844122715705e+00 1.1244521282269077e-02
    -2.4610168170057092e+00 8.9179255603297463e-03
    -1.6781914463529615e+00 1.0226448431092210e-02
    -2.1405815920536191e+00 9.6524656523653673e-03
    -1.9480430680228287e+00 8.9179255603297463e-03
    -1.6781914463529615e+00 7.8839374631880631e-03
    -1.1073348527841418e+00 1.4437485900899560e-02
    -2.9531221160930915e-01 2.2252894731261498e-02
    -1.8206913871032135e-01 1.9986583759681150e-02
    -2.0440824299673901e-01 8.2060993986221818e-03
    -7.3854894587599640e-01 7.9531811733435671e-03
    -8.4592927025563391e-01 7.8503243470476637e-03
    -9.5809640326468082e-01 7.8543757791152552e-03
    -1.0549854739675262e+00 8.0697004355840315e-03
    -1.2709778186044849e+00 8.0697004355840315e-03
    -1.2709778186044849e+00 8.5402767894743221e-03
    -1.5197810741269080e+00 8.6772858076966004e-03
    -1.5796604390829492e+00 9.7457775347007253e-03
    -1.9801647990960110e+00 1.0758460732205061e-02
    -2.3106239527122234e+00 1.0685404631536216e-02
    -2.2876479915697989e+00 1.1157311356586718e-02
    -2.4343224778007384e+00 1.0226448431092210e-02
    -2.1405815920536191e+00 1.0990661904386648e-02
    -2.3829753310874686e+00 1.0910995152345964e-02
    -2.3582628158820480e+00 1.2552128501320139e-02
    -2.8499037210951861e+00 1.2831478917646841e-02
    -2.9308264345988806e+00 1.1940309498806994e-02
    -2.6702873970059273e+00 9.5634097342171907e-03
    -1.9170289512680825e+00 1.0910995152345964e-02
    -2.3582628158820480e+00 1.0685404631536216e-02
    -2.2876479915697989e+00 1.1622289825671473e-02
    -2.5753937681885652e+00 1.2552128501320139e-02
    -2.8499037210951861e+00 1.4663001374427333e-02
    -3.4491378233027929e+00 1.1334485575145076e-02
    -2.4884347876341235e+00 1.0685404631536216e-02
    -2.2876479915697989e+00 1.1244521282269077e-02
    -2.4610168170057092e+00 1.1427337982521945e-02
    -2.5166114784235827e+00 1.1622289825671473e-02
    -2.5753937681885652e+00 1.2293716592366156e-02
    -2.7744683127771803e+00 1.0478061725732268e-02
    -2.2218253613882286e+00 1.0833627121110143e-02
    -2.3341542070028218e+00 9.8436221431390195e-03
    -2.0134681656420721e+00 1.0110135046273609e-02
    -2.1024485380318985e+00 8.6066296582387042e-03
    -1.5491933384829668e+00 8.8604573688425958e-03
    -1.6552945357246849e+00 7.8459423627000695e-03
    -9.7361012046232687e-01 1.2420461549847437e-02
    -3.5567685347290390e-01 3.1212739461154111e-02
    -1.2768847961381227e-01 2.1409481257815863e-02
    -1.8976585660336787e-01 1.2053889777637593e-02
    -3.6983525454115346e-01 8.0102676672972831e-03
    -8.1377037438224675e-01 7.8567420131838619e-03
    -9.4280904158206347e-01 7.8503243470476637e-03
    -9.5809640326468082e-01 7.9261911880638102e-03
    -1.1565033506220377e+00 8.0697004355840315e-03
    -1.2709778186044849e+00 8.0697004355840315e-03
    -1.2709778186044849e+00 8.4195300411246017e-03
    -1.4638501094228002e+00 8.8888888888888889e-03
    -1.6666666666666667e+00 9.0088118657380267e-03
    -1.7137217117324381e+00 1.0348931294826494e-02
    -2.1803316614327635e+00 1.1072730647165329e-02
    -2.4083189157584592e+00 1.0348931294826494e-02
    -2.1803316614327635e+00 1.0545283989955931e-02
    -2.2432695033178978e+00 9.1738365282764602e-03
    -1.7763883459298964e+00 9.4372591503256806e-03
    -1.8724380086896180e+00 1.0910995152345964e-02
    -2.3582628158820480e+00 1.3826022596405670e-02
    -3.2145502536643185e+00 1.1940309498806994e-02
    -2.6702873970059273e+00 1.1244521282269077e-02
    -2.4610168170057092e+00 1.3134562435811552e-02
    -3.0179642324103364e+00 1.1072730647165329e-02
    -2.4083189157584592e+00 9.9463033849808355e-03
    -2.0480342879074174e+00 1.0545283989955931e-02
    -2.2432695033178978e+00 1.2689023237109680e-02
    -2.8896366553599768e+00 1.0545283989955931e-02
    -2.2432695033178978e+00 1.1622289825671473e-02
    -2.5753937681885652e+00 9.3193570758813987e-03
    -1.8299828439912567e+00 1.1724707122169793e-02
    -2.6060826285186494e+00 1.1523221619336327e-02
    -2.5455844122715705e+00 9.8436221431390195e-03
    -2.0134681656420721e+00 8.8326172519858463e-03
    -1.6440712566764564e+00 8.9179255603297463e-03
    -1.6781914463529615e+00 8.5190726543672799e-03
    -1.5101992432741997e+00 8.3472227937314205e-03
    -1.4285133553817635e+00 8.4008637365090861e-03
    -1.4548768561863463e+00 8.6532395327251939e-03
    -6.3719309286430981e-01 1.3296024945388072e-02
    -3.2635697593225271e-01 2.4309763284832513e-02
    -1.6574838603294895e-01 2.3210354127426377e-02
    -1.7407765595569782e-01 1.7858313586059705e-02
    -2.3134633509213709e-01 8.5619318123955797e-03
    -6.5382024749202605e-01 8.0013226419863859e-03
    -8.1831708838497119e-01 7.8593360582622351e-03
    -9.3776168876992572e-01 7.8621585888104962e-03
    -9.3273790530888168e-01 7.8883834536518996e-03
    -1.1133377556176884e+00 8.0194825088860822e-03
    -1.2357293502329010e+00 8.4195300411246017e-03
    -1.4638501094228002e+00 8.7018399684569252e-03
    -1.5900634851453108e+00 8.5402767894743221e-03
    -1.5197810741269080e+00 1.1072730647165329e-02
    -2.4083189157584592e+00 1.0758460732205061e-02
    -2.3106239527122234e+00 1.2171612389003692e-02
    -2.7386127875258306e+00 1.3134562435811552e-02
    -3.0179642324103364e+00 1.0758460732205061e-02
    -2.3106239527122234e+00 9.9995609793257917e-03
    -2.0658183932288967e+00 1.0990661904386648e-02
    -2.3829753310874686e+00 1.0685404631536216e-02
    -2.2876479915697989e+00 1.0412633627862856e-02
    -2.2008521077073766e+00 1.1523221619336327e-02
    -2.5455844122715705e+00 1.3826022596405670e-02
    -3.2145502536643185e+00 1.3826022596405670e-02
    -3.2145502536643185e+00 1.0110135046273609e-02
    -2.1024485380318985e+00 1.1940309498806994e-02
    -2.6702873970059273e+00 1.0910995152345964e-02
    -2.3582628158820480e+00 1.1427337982521945e-02
    -2.5166114784235827e+00 1.1830650276822677e-02
    -2.6376972549006927e+00 9.1393962652866288e-03
    -1.7634880520973519e+00 1.4019850403200999e-02
    -3.2691742076555057e+00 9.7457775347007253e-03
    -1.9801647990960110e+00 9.9995609793257917e-03
    -2.0658183932288967e+00 9.3970768764704265e-03
    -1.8580583823930161e+00 9.2450032704204863e-03
    -1.8027756377319948e+00 8.8888888888888889e-03
    -1.6666666666666667e+00 8.3133629518886577e-03
    -1.4113823011501880e+00 7.8839374631880631e-03
    -1.1073348527841418e+00 1.0412633627862855e-02
    -4.5436946739765183e-01 1.3641197749745950e-02
    -3.1622776601683794e-01 2.4309763284832513e-02
    -1.6574838603294895e-01 2.3210354127426377e-02
    -1.7407765595569782e-01 2.1409481257815863e-02
    -1.8976585660336787e-01 1.5152517780247066e-02
    -2.7894407731818466e-01 8.2060993986221818e-03
    -7.3854894587599640e-01 7.9261911880638102e-03
    -8.6467540233423390e-01 7.8839374631880631e-03
    -9.0306920032881455e-01 7.8432494014528363e-03
    -1.0053619687316817e+00 7.8930655633429898e-03
    -1.1193802071650059e+00 7.9531811733435653e-03
    -1.1821319289469754e+00 8.4983109858720735e-03
    -1.5007244627324094e+00 8.4779836399666748e-03
    -1.4913543948486832e+00 9.1738365282764602e-03
    -1.7763883459298964e+00 9.9995609793257917e-03
    -2.0658183932288967e+00 9.8943380390742099e-03
    -2.0305880112009116e+00 9.9463033849808355e-03
    -2.0480342879074174e+00 1.3296024945388087e-02
    -3.0641293851417095e+00 1.1622289825671473e-02
    -2.5753937681885652e+00 1.3296024945388087e-02
    -3.0641293851417095e+00 1.2171612389003692e-02
    -2.7386127875258306e+00 1.1830650276822677e-02
    -2.6376972549006927e+00 1.1830650276822677e-02
    -2.6376972549006927e+00 1.4019850403200999e-02
    -3.2691742076555057e+00 1.3296024945388087e-02
    -3.0641293851417095e+00 1.2979859299087794e-02
    -2.9735677667001128e+00 9.8436221431390195e-03
    -2.0134681656420721e+00 1.0286889997472794e-02
    -2.1602468994692869e+00 1.2689023237109680e-02
    -2.8896366553599768e+00 1.2552128501320139e-02
    -2.8499037210951861e+00 1.1244521282269077e-02
    -2.4610168170057092e+00 1.1830650276822677e-02
    -2.6376972549006927e+00 9.6524656523653673e-03
    -1.9480430680228287e+00 8.4983109858720735e-03
    -1.5007244627324094e+00 8.5619318123955797e-03
    -1.5294723646688466e+00 9.0088118657380267e-03
    -1.7137217117324381e+00 8.3825948461590874e-03
    -1.4459976109624426e+00 8.3133629518886577e-03
    -1.4113823011501880e+00 8.2653049844514624e-03
    -7.2133570773394573e-01 1.3296024945388072e-02
    -3.2635697593225271e-01 1.3464726939836479e-02
    -3.2131734742791596e-01 3.8124184626735995e-02
    -1.0397504898200725e-01 2.3210354127426377e-02
    -1.7407765595569782e-01 2.1409481257815863e-02
    -1.8976585660336787e-01 1.9378935494661968e-02
    -2.1140656903267599e-01 1.0348931294826494e-02
    -4.5864581874799237e-01 8.0102676672972831e-03
    -8.1377037438224675e-01 7.9031431858324428e-03
    -8.8371510168853673e-01 7.8979850367878988e-03
    -8.8852331663863859e-01 7.8459423627000695e-03
    -1.0271051820261909e+00 7.8757491928847425e-03
    -1.0954451150103324e+00 7.8930655633429898e-03
    -1.1193802071650059e+00 8.2350233028944952e-03
    -1.3700084222088116e+00 8.4983109858720735e-03
    -1.5007244627324094e+00 9.1738365282764602e-03
    -1.7763883459298964e+00 1.0110135046273609e-02
    -2.1024485380318985e+00 1.0054155780296500e-02
    -2.0839522890069109e+00 9.6074220198702175e-03
    -1.9324019289966232e+00 1.0545283989955931e-02
    -2.2432695033178978e+00 9.4783571655075935e-03
    -1.8870547447692392e+00 1.0286889997472794e-02
    -2.1602468994692869e+00 9.8943380390742099e-03
    -2.0305880112009116e+00 1.0348931294826494e-02
    -2.1803316614327635e+00 9.8943380390742099e-03
    -2.0305880112009116e+00 1.0758460732205061e-02
    -2.3106239527122234e+00 1.0167548487649700e-02
    -2.1213203435596419e+00 1.0614372764661831e-02
    -2.2652036422766950e+00 9.0727049490887616e-03
    -1.7382477891095058e+00 1.1830650276822677e-02
    -2.6376972549006927e+00 1.1072730647165329e-02
    -2.4083189157584592e+00 8.9475816484112479e-03
    -1.6898728067794881e+00 8.5619318123955797e-03
    -1.5294723646688466e+00 8.7269127145305665e-03
    -1.6005951274150381e+00 8.5619318123955797e-03
    -1.5294723646688466e+00 9.2090321348488376e-03
    -1.7894823807490354e+00 9.0088118657380267e-03
    -1.7137217117324381e+00 8.1394857126683203e-03
    -1.3152668958425400e+00 7.8459423627000695e-03
    -1.0271051820261909e+00 9.3193570758813953e-03
    -5.4645321035849992e-01 1.2979859299087794e-02
    -3.3629635456727469e-01 2.3210354127426377e-02
    -1.7407765595569782e-01 2.4309763284832513e-02
    -1.6574838603294895e-01 2.3210354127426377e-02
    -1.7407765595569782e-01 1.9986583759681150e-02
    -2.0440824299673901e-01 1.9378935494661968e-02
    -2.1140656903267599e-01 1.6323524880524347e-02
    -2.5598254926276814e-01 1.1157311356586718e-02
    -4.1079191812887467e-01 8.1032544282775044e-03
    -7.7349246815376183e-01 7.8930655633429898e-03
    -8.9335151148745662e-01 7.8652103400434995e-03
    -9.2773731056422182e-01 7.8441467470768984e-03
    -9.8408386463328357e-01 7.8503243470476654e-03
    -1.0437363052324737e+00 7.9261911880638102e-03
    -1.1565033506220377e+00 8.3301069022902862e-03
    -1.4199045856176624e+00 8.7786586856071630e-03
    -1.6220567071360508e+00 9.1056919522544862e-03
    -1.7507762253652945e+00 9.6524656523653673e-03
    -1.9480430680228287e+00 9.9463033849808355e-03
    -2.0480342879074174e+00 9.3970768764704265e-03
    -1.8580583823930161e+00 1.0758460732205061e-02
    -2.3106239527122234e+00 1.0226448431092210e-02
    -2.1405815920536191e+00 1.0910995152345964e-02
    -2.3582628158820480e+00 1.0478061725732268e-02
    -2.2218253613882286e+00 9.7457775347007253e-03
    -1.9801647990960110e+00 9.3577844549224201e-03
    -1.8439088914585768e+00 9.2817709528813189e-03
    -1.8162738160070035e+00 1.0412633627862856e-02
    -2.2008521077073766e+00 1.0412633627862856e-02
    -2.2008521077073766e+00 1.0685404631536216e-02
    -2.2876479915697989e+00 8.9179255603297463e-03
    -1.6781914463529615e+00 8.8604573688425958e-03
    -1.6552945357246849e+00 8.4008637365090861e-03
    -1.4548768561863463e+00 9.0404173332281935e-03
    -1.7258978545253825e+00 9.2090321348488376e-03
    -1.7894823807490354e+00 9.2090321348488376e-03
    -1.7894823807490354e+00 8.3472227937314205e-03
    -1.4285133553817635e+00 7.8459423627000695e-03
    -9.7361012046232687e-01 8.2809675852763987e-03
    -7.1705651136143367e-01 1.0990661904386644e-02
    -4.1964345453112639e-01 1.2979859299087794e-02
    -3.3629635456727469e-01 2.3210354127426377e-02
    -1.7407765595569782e-01 3.8124184626735995e-02
    -1.0397504898200725e-01 2.4309763284832513e-02
    -1.6574838603294895e-01 2.0659326226697073e-02
    -1.9720265943665388e-01 1.9378935494661968e-02
    -2.1140656903267599e-01 1.7858313586059705e-02
    -2.3134633509213709e-01 1.7430698579856040e-02
    -2.3769134427076419e-01 9.8943380390742134e-03
    -4.9246818876301202e-01 8.0289698263169736e-03
    -8.0472174850131495e-01 7.8979850367878988e-03
    -8.8852331663863859e-01 7.8720047524543126e-03
    -9.1780419045660511e-01 7.8441467470768984e-03
    -9.8408386463328357e-01 7.8471775639842051e-03
    -1.0326172294424669e+00 7.8979850367878988e-03
    -1.1254628677422756e+00 8.1784951736669585e-03
    -1.3382992102364113e+00 8.4008637365090861e-03
    -1.4548768561863463e+00 9.1393962652866288e-03
    -1.7634880520973519e+00 9.3193570758813987e-03
    -1.8299828439912567e+00 9.9463033849808355e-03
    -2.0480342879074174e+00 1.0226448431092210e-02
    -2.1405815920536191e+00 1.1427337982521945e-02
    -2.5166114784235827e+00 1.0910995152345964e-02
    -2.3582628158820480e+00 9.9995609793257917e-03
    -2.0658183932288967e+00 9.4783571655075935e-03
    -1.8870547447692392e+00 1.0110135046273609e-02
    -2.1024485380318985e+00 9.3970768764704265e-03
    -1.8580583823930161e+00 9.5634097342171907e-03
    -1.9170289512680825e+00 9.6074220198702175e-03
    -1.9324019289966232e+00 9.7457775347007253e-03
    -1.9801647990960110e+00 9.6524656523653673e-03
    -1.9480430680228287e+00 9.6074220198702175e-03
    -1.9324019289966232e+00 8.8604573688425958e-03
    -1.6552945357246849e+00 9.1056919522544862e-03
    -1.7507762253652945e+00 8.9475816484112479e-03
    -1.6898728067794881e+00 8.6296908102028291e-03
    -1.5592282259343748e+00 7.8503243470476654e-03
    -1.0437363052324737e+00 8.3647166879118936e-03
    -6.9579234267630752e-01 9.1738365282764637e-03
    -5.6293996878060126e-01 1.1830650276822669e-02
    -3.7911856568909008e-01 2.1409481257815863e-02
    -1.8976585660336787e-01 2.2252894731261498e-02
    -1.8206913871032135e-01 4.3962647617546577e-02
    -8.9923597399527086e-02 3.1212739461154111e-02
    -1.2768847961381227e-01 2.0659326226697073e-02
    -1.9720265943665388e-01 1.9986583759681150e-02
    -2.0440824299673901e-01 1.7430698579856040e-02
    -2.3769134427076419e-01 1.7430698579856040e-02
    -2.3769134427076419e-01 1.7430698579856040e-02
    -2.3769134427076419e-01 1.0614372764661831e-02
    -4.4146141271207162e-01 8.0917769872360032e-03
    -7.7791401490927947e-01 7.9391864745310455e-03
    -8.5526690657448090e-01 7.9391864745310455e-03
    -8.5526690657448090e-01 7.8486380997192136e-03
    -9.6324194860190349e-01 7.8652103400434978e-03
    -1.0778913261468701e+00 7.9325648213952396e-03
    -1.1628418885908931e+00 8.1032544282775044e-03
    -1.2928374110570018e+00 8.6296908102028291e-03
    -1.5592282259343748e+00 8.7786586856071630e-03
    -1.6220567071360508e+00 8.9179255603297463e-03
    -1.6781914463529615e+00 1.0348931294826494e-02
    -2.1803316614327635e+00 1.0054155780296500e-02
    -2.0839522890069109e+00 1.0110135046273609e-02
    -2.1024485380318985e+00 1.0412633627862856e-02
    -2.2008521077073766e+00 8.6772858076966004e-03
    -1.5796604390829492e+00 9.4372591503256806e-03
    -1.8724380086896180e+00 1.0545283989955931e-02
    -2.2432695033178978e+00 9.7941149283146088e-03
    -1.9966638842495918e+00 9.7457775347007253e-03
    -1.9801647990960110e+00 9.9463033849808355e-03
    -2.0480342879074174e+00 8.8888888888888889e-03
    -1.6666666666666667e+00 8.7525151271486256e-03
    -1.6112584665887242e+00 8.8888888888888889e-03
    -1.6666666666666667e+00 8.4580827394487440e-03
    -1.4820867709352230e+00 8.4386006640679613e-03
    -1.4729193886373169e+00 7.8543757791152552e-03
    -1.0549854739675262e+00 8.3825948461590874e-03
    -6.9156407480812476e-01 8.7786586856071647e-03
    -6.1650125769377595e-01 1.0990661904386644e-02
    -4.1964345453112639e-01 1.7858313586059705e-02
    -2.3134633509213709e-01 2.1409481257815863e-02
    -1.8976585660336787e-01 3.1212739461154111e-02
    -1.2768847961381227e-01 3.8124184626735995e-02
    -1.0397504898200725e-01 3.1212739461154111e-02
    -1.2768847961381227e-01 2.8936724509607589e-02
    -1.3810709425039985e-01 1.9986583759681150e-02
    -2.0440824299673901e-01 1.8826641510556207e-02
    -2.1821789023599242e-01 1.8826641510556207e-02
    -2.1821789023599242e-01 1.8826641510556207e-02
    -2.1821789023599242e-01 1.8826641510556207e-02
    -2.1821789023599242e-01 9.9463033849808390e-03
    -4.8827307526269575e-01 8.2969850736927080e-03
    -7.1278644496723720e-01 8.1521749080421570e-03
    -7.5592894601845462e-01 7.9605580793547463e-03
    -8.4128625156817205e-01 7.8797264138106265e-03
    -9.0795938450045177e-01 7.8720047524543126e-03
    -1.0895570214192447e+00 7.9261911880638102e-03
    -1.1565033506220377e+00 8.0487730064235687e-03
    -1.2567061489574980e+00 8.4580827394487440e-03
    -1.4820867709352230e+00 9.2450032704204863e-03
    -1.8027756377319948e+00 8.8604573688425958e-03
    -1.6552945357246849e+00 9.9463033849808355e-03
    -2.0480342879074174e+00 9.1738365282764602e-03
    -1.7763883459298964e+00 1.0226448431092210e-02
    -2.1405815920536191e+00 1.0110135046273609e-02
    -2.1024485380318985e+00 1.0478061725732268e-02
    -2.2218253613882286e+00 9.6985728993774396e-03
    -1.9639610121239315e+00 1.0110135046273609e-02
    -2.1024485380318985e+00 9.2817709528813189e-03
    -1.8162738160070035e+00 9.6074220198702175e-03
    -1.9324019289966232e+00 9.0404173332281935e-03
    -1.7258978545253825e+00 8.8604573688425958e-03
    -1.6552945357246849e+00 8.5619318123955797e-03
    -1.5294723646688466e+00 8.1394857126683203e-03
    -1.3152668958425400e+00 7.8883834536518996e-03
    -1.1133377556176884e+00 8.4386006640679648e-03
    -6.7892378070001347e-01 8.8604573688425958e-03
    -6.0412209333017708e-01 9.6524656523653656e-03
    -5.1333567333033991e-01 1.6666666666666666e-02
    -2.5000000000000000e-01 1.9378935494661968e-02
    -2.1140656903267599e-01 2.8936724509607589e-02
    -1.3810709425039985e-01 5.3770608841162873e-02
    -7.3323557510676637e-02 4.3962647617546577e-02
    -8.9923597399527086e-02 3.4145481126512708e-02
    -1.1640504929492969e-01 3.1212739461154111e-02
    -1.2768847961381227e-01 2.5589613993299339e-02
    -1.5702717677706413e-01 1.9378935494661968e-02
    -2.1140656903267599e-01 1.9986583759681150e-02
    -2.0440824299673901e-01 1.9986583759681150e-02
    -2.0440824299673901e-01 1.9986583759681150e-02
    -2.0440824299673901e-01 2.0659326226697073e-02
    -1.9720265943665388e-01 2.1409481257815863e-02
    -1.8976585660336787e-01 9.5203979499360672e-03
    -5.2578561405328739e-01 8.5840464323961915e-03
    -6.4965624136089362e-01 8.0697004355840315e-03
    -7.8679579246944309e-01 7.9391864745310455e-03
    -8.5526690657448090e-01 7.8503243470476654e-03
    -1.0437363052324737e+00 7.8684921084660273e-03
    -1.0837059585750937e+00 8.2060993986221818e-03
    -1.3540064007726600e+00 8.1394857126683203e-03
    -1.3152668958425400e+00 9.3970768764704265e-03
    -1.8580583823930161e+00 9.5203979499360707e-03
    -1.9019158631804105e+00 9.1738365282764602e-03
    -1.7763883459298964e+00 1.0412633627862856e-02
    -2.2008521077073766e+00 9.6524656523653673e-03
    -1.9480430680228287e+00 9.9995609793257917e-03
    -2.0658183932288967e+00 9.6985728993774396e-03
    -1.9639610121239315e+00 1.0412633627862856e-02
    -2.2008521077073766e+00 1.0167548487649700e-02
    -2.1213203435596419e+00 9.3193570758813987e-03
    -1.8299828439912567e+00 8.6066296582387042e-03
    -1.5491933384829668e+00 8.0805934498897666e-03
    -1.2782029638916541e+00 7.9141811006888177e-03
    -1.1439589045541108e+00 7.9842318656712739e-03
    -8.2745675698775023e-01 8.6066296582387042e-03
    -6.4549722436790280e-01 8.9179255603297463e-03
    -5.9587957153112392e-01 1.0167548487649704e-02
    -4.7140452079103173e-01 2.1409481257815863e-02
    -1.8976585660336787e-01 2.0659326226697073e-02
    -1.9720265943665388e-01 2.5589613993299339e-02
    -1.5702717677706413e-01 2.8936724509607589e-02
    -1.3810709425039985e-01 3.8124184626735995e-02
    -1.0397504898200725e-01 1. 0. 4.3962647617546577e-02
    -8.9923597399527086e-02 3.8124184626735995e-02
    -1.0397504898200725e-01 3.4145481126512708e-02
    -1.1640504929492969e-01 3.1212739461154111e-02
    -1.2768847961381227e-01 2.3210354127426377e-02
    -1.7407765595569782e-01 2.3210354127426377e-02
    -1.7407765595569782e-01 2.2252894731261498e-02
    -1.8206913871032135e-01 2.2252894731261498e-02
    -1.8206913871032135e-01 2.2252894731261498e-02
    -1.8206913871032135e-01 1.8321885731009947e-02
    -2.2485950669875845e-01 1.4223402983473216e-02
    -3.0063101760522931e-01 8.8888888888888889e-03
    -5.9999999999999998e-01 8.0697004355840315e-03
    -7.8679579246944309e-01 7.9605580793547463e-03
    -8.4128625156817205e-01 7.8503243470476637e-03
    -9.5809640326468082e-01 7.8435858699715325e-03
    -9.8936139950777291e-01 7.8567420131838619e-03
    -1.0606601717798214e+00 7.9605580793547463e-03
    -1.1886560586672883e+00 7.9141811006888177e-03
    -1.1439589045541108e+00 8.4580827394487440e-03
    -1.4820867709352230e+00 8.7786586856071630e-03
    -1.6220567071360508e+00 9.1393962652866288e-03
    -1.7634880520973519e+00 9.1056919522544862e-03
    -1.7507762253652945e+00 8.7269127145305665e-03
    -1.6005951274150381e+00 9.2817709528813189e-03
    -1.8162738160070035e+00 8.3472227937314205e-03
    -1.4285133553817635e+00 8.4580827394487440e-03
    -1.4820867709352230e+00 7.9200638359717777e-03
    -1.1502092707240832e+00 7.9391864745310455e-03
    -8.5526690657448090e-01 8.4008637365090861e-03
    -6.8734339662347066e-01 8.9778719593638489e-03
    -5.8764252824927010e-01 1.0614372764661831e-02
    -4.4146141271207162e-01 1.2293716592366154e-02
    -3.6042941827618952e-01 2.1409481257815863e-02
    -1.8976585660336787e-01 2.1409481257815863e-02
    -1.8976585660336787e-01 3.1212739461154111e-02
    -1.2768847961381227e-01 3.1212739461154111e-02
    -1.2768847961381227e-01 3.1212739461154111e-02
    -1.2768847961381227e-01 3.8124184626735995e-02
    -1.0397504898200725e-01 7.5941121384846336e-02
    -5.1778037307849772e-02 3.8124184626735995e-02
    -1.0397504898200725e-01 3.8124184626735995e-02
    -1.0397504898200725e-01 3.8124184626735995e-02
    -1.0397504898200725e-01 3.8124184626735995e-02
    -1.0397504898200725e-01 4.3962647617546577e-02
    -8.9923597399527086e-02 2.5589613993299339e-02
    -1.5702717677706413e-01 2.5589613993299339e-02
    -1.5702717677706413e-01 2.5589613993299339e-02
    -1.5702717677706413e-01 2.4309763284832513e-02
    -1.6574838603294895e-01 2.4309763284832513e-02
    -1.6574838603294895e-01 2.4309763284832513e-02
    -1.6574838603294895e-01 2.2252894731261498e-02
    -1.8206913871032135e-01 1.5701773342117552e-02
    -2.6764386378609467e-01 8.9778719593638489e-03
    -5.8764252824927010e-01 8.5190726543672799e-03
    -6.6216428358945678e-01 8.1921346127453720e-03
    -7.4287766147395540e-01 8.0917769872360032e-03
    -7.7791401490927947e-01 8.0289698263169736e-03
    -8.0472174850131495e-01 8.0194825088860822e-03
    -8.0923868953305012e-01 7.9391864745310455e-03
    -8.5526690657448090e-01 7.9531811733435671e-03
    -8.4592927025563391e-01 8.0387323745769665e-03
    -8.0021926819652534e-01 7.9760812529117899e-03
    -8.3205029433784350e-01 7.8449321772025207e-03
    -1.0216241221675100e+00 7.8593360582622351e-03
    -9.3776168876992572e-01 7.8522367418614059e-03
    -9.5297600458045240e-01 8.2350233028944952e-03
    -7.2992252002928482e-01 8.7525151271486256e-03
    -6.2063289083417528e-01 8.8053552845146921e-03
    -6.1237243569579447e-01 9.3577844549224236e-03
    -5.4232614454664041e-01 9.9463033849808390e-03
    -4.8827307526269575e-01 2.2252894731261498e-02
    -1.8206913871032135e-01 2.2252894731261498e-02
    -1.8206913871032135e-01 2.2252894731261498e-02
    -1.8206913871032135e-01 2.8936724509607589e-02
    -1.3810709425039985e-01 3.4145481126512708e-02
    -1.1640504929492969e-01 3.4145481126512708e-02
    -1.1640504929492969e-01 3.4145481126512708e-02
    -1.1640504929492969e-01 3.8124184626735995e-02
    -1.0397504898200725e-01</input_scale>
  <output_scale>
    1.0526315789473684e+00 0.</output_scale>
  <inv_output_scale>
    9.4999999999999996e-01 0.</inv_output_scale>
  <weights>
    <_>
      -1.1719048386403424e-03 -2.2903224389177911e-04
      -9.9637750405231888e-04 -5.5088375721748159e-04
      2.2039270841974236e-04 1.2144499427915077e-03
      9.9728247011042037e-04 2.0453599492093418e-04
      -7.2831549546728146e-04 -4.2920232853557353e-04
      -1.1054717958401724e-03 -1.2409612586460942e-04
      -2.1397120762249158e-05 -7.8018402384446585e-04
      6.7194088742161514e-04 -1.1208781013474275e-03
      1.1037170489498088e-03 1.0083693640301039e-03
      -2.5698247005999147e-04 -3.4383640164285737e-05
      3.0002183913935715e-04 -7.7645728251324352e-04
      -6.5397802009701264e-04 9.5527311481024093e-04
      -1.0954164450422850e-03 -3.1663012947851025e-04
      6.1523554708813478e-04 -6.3403300196013517e-04
      1.0630743572223426e-03 -2.4215284090006096e-04
      1.2150750992007805e-03 -3.7732545206526025e-04
      2.2581237915161135e-04 8.1166924113520002e-04
      1.1322676431532379e-03 5.1786688077618958e-04
      8.1904968067006900e-04 5.2277548999592920e-04
      1.2256443938238879e-03 -1.5902424652943092e-04
      7.6897897502820625e-02 6.9517001511028688e-03
      5.1852341379496729e-03 4.0621015477878761e-03
      -5.4146848880462532e-03 5.1207498216165248e-03
      -5.1845790489378155e-03 -3.8999430024270645e-03
      -5.6014441596073045e-03 7.6542517576523922e-03
      3.2455528147776465e-03 5.1092258059806470e-03
      4.4974741578828270e-03 -4.9102417013005680e-03
      -4.9264142227921255e-03 6.8554489829735004e-03
      -6.4484310880019574e-03 5.8035277072389152e-03
      -9.3080461986327148e-03 9.2517093973298256e-03
      -4.5571493598539434e-03 7.0606570826107426e-03
      6.2186425272501410e-03 6.7912935664890964e-03
      7.2203551807617245e-03 -7.3860741770907174e-03
      7.6972739307754837e-03 -8.4995692913024962e-03
      4.7832898903177887e-03 5.4893259993806917e-03
      -5.9271678577994865e-03 -6.9581830782673177e-03
      7.3366979199227418e-03 4.9763224379441688e-03
      5.3932011134496137e-03 6.1636955898464931e-03
      6.4767786439462295e-03 4.4153492064297030e-03
      -7.4264611553852625e-03 -5.8215692842662125e-03
      8.4274336721783888e-02 7.0638635849870615e-03
      5.5771608480640542e-03 3.4378755415202886e-03
      -4.5570360554750182e-03 7.1905813678253844e-03
      -4.0113435959841957e-03 -4.4043866016769805e-03
      -7.8859901023536245e-03 7.8896601033884503e-03
      2.9236234950498568e-03 3.0145862013342801e-03
      4.3655698892395688e-03 -5.7730734493786143e-03
      -3.7952568831965015e-03 5.0961165572509549e-03
      -5.9687925097272878e-03 6.1707198052052851e-03
      -9.2823819064055558e-03 9.0950708612421351e-03
      -4.0552532503233575e-03 7.0728666872451555e-03
      6.5947589044888580e-03 6.5957073315794481e-03
      6.4505726732710664e-03 -5.3735488469490280e-03
      7.4115085392796346e-03 -8.5992860807784996e-03
      5.2339174878055063e-03 5.3101567383576128e-03
      -4.9971836296498484e-03 -7.9624154525583871e-03
      7.5001269030817016e-03 3.4045730023857679e-03
      6.0202553136965830e-03 7.4621875107238628e-03
      4.5728552071581689e-03 4.9552882037115819e-03
      -7.6901795791652610e-03 -4.8215596581285278e-03
      1.6989448047946946e-02 5.9953012953564196e-03
      4.6162611599933293e-03 3.1006768068672619e-03
      -2.9794258794287585e-03 3.1599364846479337e-03
      -1.9009551348824474e-03 -3.6621175686258273e-03
      2.2707240281397466e-03 5.5030621787269720e-03
      2.9242258395055839e-03 3.4341812731094462e-03
      3.2754469062450434e-03 -4.1348201356034876e-03
      2.9635899860393222e-03 3.7162083310311950e-03
      -1.3785560486123960e-03 4.5115538682689756e-03
      -6.8019301472245480e-03 4.9040967425098732e-03
      -2.9246621034950794e-03 2.7078435848750262e-03
      -6.4176170387825063e-04 3.7971408672377392e-03
      4.6181449878457117e-03 -2.7740278615624179e-03
      5.1077138003727401e-03 -6.3512112511540158e-03
      4.2360879617646388e-03 4.0781586538062358e-03
      -3.5849118293598912e-03 -4.1772339997804336e-03
      7.1182803668600947e-03 2.4811183550751069e-03
      4.2547692990087807e-03 3.3021252791138327e-03
      4.9140865021413118e-03 4.0347991935729653e-03
      -3.8517369253680076e-03 -4.4801138341973717e-03
      2.7017606752668838e-01 1.0771537804103091e-02
      8.5113765443276014e-03 1.8351567014467374e-02
      -8.2014197693321880e-03 2.7058588285777851e-02
      -2.3482303030818403e-02 -5.0203320069037924e-03
      -1.6551082076607708e-02 1.1496147845577752e-02
      3.0524137696177567e-02 5.0211729810043688e-03
      2.5717886898939279e-02 -1.2986045258627241e-02
      -1.4863598309310673e-02 6.6397388926986338e-03
      -1.9792638870195046e-02 9.1671345662967686e-03
      -1.1259377011670582e-02 1.1397911249684839e-02
      -7.9978924115777714e-03 2.3403144099479165e-02
      1.5986265218270110e-02 9.1639425095509982e-03
      1.9584754063879131e-02 -2.1441830675865595e-02
      1.0019147318994514e-02 -1.0162040849038351e-02
      1.9864063291848706e-02 2.0808909346390743e-02
      -7.9895563559713376e-03 -9.5916734384194555e-03
      1.1082800403935809e-02 1.8559252666722811e-02
      1.0120636009951193e-02 2.3897099906768329e-02
      8.1294580337429572e-03 1.5121752402003722e-02
      -1.0033363869888170e-02 -7.0900507712419484e-03
      2.7060183169265523e-01 9.4005451516500221e-03
      9.3621436144818940e-03 1.8981495668277514e-02
      -7.0573335505820954e-03 2.5709187262985243e-02
      -2.3993131094383561e-02 -5.4778425850300471e-03
      -1.6398216926285517e-02 1.1710322097569309e-02
      2.9283513365488761e-02 4.6128939971558855e-03
      2.5911761909801320e-02 -1.3392242657528393e-02
      -1.3264021037748628e-02 7.0980371131314232e-03
      -2.0492382357333864e-02 7.7695406839563370e-03
      -1.3182994526617069e-02 1.1246117161338920e-02
      -7.9883081330898720e-03 2.4793728586627223e-02
      1.7413836379832660e-02 9.2767867356281525e-03
      1.7594354450044911e-02 -2.2137145111767224e-02
      1.1620719848224926e-02 -1.0918429973344981e-02
      2.0357999989713618e-02 2.1083744260421488e-02
      -8.6365400029853098e-03 -9.6903404570348479e-03
      1.2559837776615051e-02 1.9458273426764979e-02
      1.1330377545902590e-02 2.3803273637834441e-02
      8.9083509669206466e-03 1.5108545673994172e-02
      -8.9777133137001770e-03 -8.5157033262258115e-03
      3.0379366540541647e-01 8.6229198073897485e-03
      8.4184454056005255e-03 2.1034186127132391e-02
      -7.4351078914788307e-03 2.8464574461199120e-02
      -2.7096555012886731e-02 -6.0488937471024559e-03
      -1.9605732657910414e-02 1.0826462084244525e-02
      3.3291080037427777e-02 5.1523123456820343e-03
      2.7057710541963462e-02 -1.1942220911266085e-02
      -1.7697847589522944e-02 8.9907144556006253e-03
      -2.6202799501830878e-02 6.9764503314724150e-03
      -1.0945121536685360e-02 1.1405668133307937e-02
      -6.4110670959513297e-03 2.8306066324971461e-02
      2.2408879317788236e-02 6.8922174120199711e-03
      1.9864010045578091e-02 -2.4662155784834040e-02
      9.6915159205322662e-03 -8.7046731894666225e-03
      2.2035916096439408e-02 2.3519479860083261e-02
      -7.1073764965186971e-03 -8.7259317456934247e-03
      1.1047489929850022e-02 1.9233467103396167e-02
      1.1600793566807035e-02 2.7630774455696731e-02
      6.7793332120055913e-03 1.5239758566499617e-02
      -9.3077190467919339e-03 -6.6390115308482310e-03
      3.0398722166645609e-01 8.6053767796290450e-03
      6.1898698736629855e-03 1.9742984313631560e-02
      -7.3164951312514525e-03 3.0025023372441464e-02
      -2.5507172334734769e-02 -4.7124590947675172e-03
      -1.9204206287800160e-02 1.0563508769481198e-02
      3.4782280276045137e-02 5.9082617232578127e-03
      2.6111592626891899e-02 -1.1413860632831736e-02
      -1.7512190502146318e-02 7.2277440290523147e-03
      -2.6428962539290852e-02 8.3511486037737958e-03
      -1.1230374066139611e-02 1.1042769936661955e-02
      -5.9729738292863058e-03 2.6670026620181066e-02
      2.2052376086169060e-02 7.9885908211870076e-03
      2.0964636952930542e-02 -2.6882183695121541e-02
      8.4586249718899519e-03 -1.0500558707148704e-02
      2.3338646841953629e-02 2.3078601625334458e-02
      -8.8435750722771680e-03 -9.8782423567614856e-03
      1.1337958437360357e-02 1.9604889213030694e-02
      1.0882634519957281e-02 2.7305463677809481e-02
      8.0723281523568599e-03 1.4015242345260441e-02
      -7.3681130826628556e-03 -6.2224553307053442e-03
      4.2757522556249081e-02 -2.2286581607514660e-02
      -2.0639599996673152e-02 -6.1475698962878272e-03
      1.8321368259891214e-02 -6.1050675216229242e-03
      2.5444410277718683e-03 1.5668318408768336e-02
      7.0658226578270023e-03 -2.2195051205795645e-02
      -2.6026432212093687e-04 -1.5332959871866100e-02
      -3.1464872847877779e-03 1.1728773281139157e-02
      5.8243695282710296e-03 -1.7811622651636022e-02
      5.3298939226294811e-03 -1.5106916762707999e-02
      2.0998464193478075e-02 -2.2159348026593365e-02
      1.5693512415716187e-02 -7.5461957186684723e-03
      -5.3490358723448043e-03 -2.1968648961389524e-02
      -1.2221589419037721e-02 6.2797741490792890e-03
      -2.1753157116245286e-02 2.3407823429169295e-02
      -6.7527317312585846e-03 -8.6362580504895023e-03
      2.1318374159039487e-02 2.2926981863829660e-02
      -2.2217008960923545e-02 -7.5070124365321598e-03
      -1.4378044661397171e-02 -6.8305818253087255e-03
      -1.9812397155523357e-02 -1.1699693954980776e-02
      2.1619466265201247e-02 2.0510118468523228e-02
      3.0395301413161419e-01 8.2766426398281825e-03
      7.8226328676982357e-03 1.9639184751367000e-02
      -6.5958791389466752e-03 2.9249373980084609e-02
      -2.6558926001464096e-02 -5.3446294627037278e-03
      -2.1569196714872538e-02 1.0943979645684627e-02
      3.3782498908393320e-02 5.6896859493028046e-03
      2.6417237611027912e-02 -1.1620194958119568e-02
      -1.7044291526263956e-02 7.2119368203649994e-03
      -2.4685907366620134e-02 9.3133138120185168e-03
      -1.0440823103069265e-02 1.1318012254117401e-02
      -6.3359825083199039e-03 2.7559032336941573e-02
      2.0209391488623132e-02 7.3425379508815086e-03
      2.2060438978285558e-02 -2.5259976801102663e-02
      9.5469453462642528e-03 -9.2002270000179250e-03
      2.2082379430751913e-02 2.3352202916405721e-02
      -7.8028198039991432e-03 -9.9803023873747485e-03
      1.0574613566749947e-02 2.0131429611198386e-02
      1.0750785900838045e-02 2.5266342677693034e-02
      7.9123207551158557e-03 1.5124098875526898e-02
      -9.4605489487487975e-03 -6.9712452772134267e-03
      1.4614458834049526e-01 9.0198866425069048e-03
      6.6048801601430122e-03 4.6352337964403302e-03
      -3.7996979807800898e-03 9.2784372095361693e-04
      -7.9600308823994711e-03 -5.1433635761656367e-03
      4.1303931779948814e-03 1.3858318642718500e-02
      1.1142925878819930e-02 4.2708973279221921e-03
      8.0646616603689270e-03 -1.2264021122806834e-03
      3.7639712243549284e-03 -7.8577483928712888e-03
      9.0604495176608039e-04 2.5658984300136090e-03
      -1.5908661195273316e-02 1.3814919373389210e-02
      -5.2210121787441702e-03 8.6145048364656744e-05
      -1.6412401616947181e-03 6.6457514044370586e-03
      -2.1974413335787415e-03 2.2618883062330620e-03
      1.0898181323443707e-02 -1.1223467053888754e-02
      4.9643248973430480e-03 4.3904283086541781e-04
      -7.2380163118693219e-03 -9.9135708295621794e-03
      1.6707700869332345e-02 3.9731473803239258e-03
      1.4228793973024363e-03 -2.1979183760048732e-03
      6.5648715496638369e-03 3.3275023386577910e-03
      -8.5795017705636925e-03 -5.0978102407764937e-03
      4.1873972279000332e-02 -2.2195186355401398e-02
      -1.9739303338804647e-02 -7.2296039159595923e-03
      1.8216649645410029e-02 -7.3658008269052054e-03
      3.0298574011338440e-03 1.7404491722871420e-02
      7.3935883372622923e-03 -2.2810119169850852e-02
      9.1251512297501215e-04 -1.6606989990390245e-02
      -1.9677187784670901e-03 1.1758639463250021e-02
      5.6036287550767739e-03 -1.6143345438265278e-02
      4.7303100418425942e-03 -1.3717833932112438e-02
      2.2266827502783179e-02 -2.0741729284754127e-02
      1.5876944551134507e-02 -6.4931400945221034e-03
      -7.5571877845601234e-03 -2.0155257207785368e-02
      -1.1243142915889489e-02 7.7017703048107809e-03
      -2.2443292097105008e-02 2.2708304567263790e-02
      -5.1525076497522197e-03 -1.0502783199865567e-02
      2.2323162798254543e-02 2.3648757148923824e-02
      -2.1430912457716163e-02 -8.2246293329220430e-03
      -1.2534744395543819e-02 -7.1939224279256690e-03
      -2.0089677887869091e-02 -1.2212815663250920e-02
      2.3284066152463527e-02 2.0283207264670134e-02
      1.2953203650233128e-01 -7.8559809581416774e-03
      -6.4169710503553263e-03 -5.6421387706048036e-03
      6.1485890809884480e-03 -8.9002085715887223e-03
      5.3009551261516121e-03 3.5208928244946365e-03
      8.4460810970992152e-03 -8.6696379303045877e-03
      -4.5674415288279842e-03 -1.6593201787038041e-03
      -5.6191457504781057e-03 8.7617263557484854e-03
      6.2840682045333125e-03 -1.1529810186145949e-02
      6.4177119988573523e-03 -6.1748894697274603e-03
      6.4745294160736119e-03 -7.8238288476231155e-03
      5.3240495831511558e-03 -9.2253357548007456e-03
      -6.3743218774483835e-03 -5.6447231721954514e-03
      -1.1335996190686462e-02 8.1559447266659774e-03
      -6.6919724815105962e-03 7.2401296482664653e-03
      -6.4434359082046746e-03 -9.1833352900678109e-03
      5.7450983484083487e-03 6.7577008405529425e-03
      -6.3363243298578797e-03 -6.9198201574670534e-03
      -8.1195122379645723e-03 -8.7854023447780389e-03
      -6.6702497687394337e-03 -8.2911694533423872e-03
      7.3428903743549961e-03 4.5179938812206647e-03
      -5.3967437685619635e-01 8.5358194538770644e-03
      8.5936360051538287e-03 -1.6365295952751290e-02
      -7.0461208441925660e-03 -1.6208131308806311e-02
      1.4483702375412882e-02 -2.2352157647893773e-03
      1.3751622083987130e-02 6.3081774413718938e-03
      -1.3799573892987440e-02 2.2009305264003741e-03
      -1.3677251001374405e-02 1.6541627288215108e-02
      1.3367218307942581e-02 -2.0383271990244135e-02
      1.3496145387888920e-02 -1.5799271910620742e-02
      -9.1887214257882661e-03 8.9700515090523920e-03
      9.7468787502188736e-03 -1.5058082816995447e-02
      -1.3777418910760881e-02 8.2966222382652704e-03
      -1.8379807236176451e-02 1.5642547217263807e-02
      1.1527736722821841e-02 -8.1008861064568328e-03
      -1.5690274911189944e-02 -1.7703551368310800e-02
      -8.9809765542433612e-03 -8.7985205190653660e-03
      1.1408972892834936e-02 -1.5479394737364087e-02
      -1.7282062319324519e-02 -1.6065074418458558e-02
      6.9672825249433613e-03 -1.7674105092152871e-02
      -9.9316855149088508e-03 -6.8834486975224559e-03
      2.7497862029844744e-01 -7.7083780361127448e-03
      -5.2691636248784245e-03 -1.2945972329765124e-03
      1.8723430481749964e-03 -6.1733274083585615e-03
      1.0152646389320402e-03 2.2484533163610380e-04
      3.4082113044778799e-03 -1.3436132019113829e-02
      9.1510377895213468e-04 1.3274351947205581e-03
      4.3435080618777893e-04 4.7192406368415834e-03
      1.0381226435623810e-03 -8.1626515626538575e-03
      4.3250344971041566e-03 -2.3319866478422524e-03
      1.4322152030687579e-02 -1.4022809875570204e-02
      1.4244252106966023e-03 -6.5095373841842948e-03
      -1.8392856903682027e-03 -3.7730180263446894e-03
      -7.3314908718642878e-03 6.6897555801401012e-03
      -9.1115483473816483e-03 1.1494544226973559e-02
      -2.3131875177627701e-03 -5.7776328700137247e-03
      5.9312505961737899e-03 1.0080178167825596e-02
      -1.1449905665330331e-02 -1.5273548549741525e-03
      -3.0503774516626083e-03 -7.4533856046208342e-03
      -4.4958061837492179e-03 -1.7977907612437693e-03
      5.9497828057133214e-03 2.3131867536865238e-03
      2.1870871320559293e-01 5.4606943827192878e-04
      2.7328609143509827e-03 4.0150974430565780e-03
      -4.4686053442924076e-03 3.9332800240696837e-03
      -6.4838360420601954e-03 -5.7476959681389437e-03
      3.5763929606136074e-04 -3.2179684700360755e-03
      8.3236336289747373e-03 4.7400197587767496e-03
      7.3080739889485602e-03 -3.7434279502503234e-03
      4.5688707858801311e-04 -1.2031211617687799e-03
      -2.1593855628433013e-03 2.6555034897110569e-03
      1.6767203239047232e-03 -3.2002690901793340e-03
      -4.5173716882632225e-03 3.9174629038958714e-03
      -1.2710811552055516e-03 3.3915763910072781e-03
      1.8144757777875376e-03 -2.8607211998272074e-03
      1.7812510172220452e-03 1.3743047914491994e-03
      6.1843874348171592e-03 2.6399045880955100e-03
      -2.8884643391330865e-03 -7.6594371937635834e-04
      1.2110349795767072e-03 5.5889948654493293e-03
      2.7380645819859630e-03 2.1012833195478073e-03
      3.2205252072573087e-03 4.2300268651221879e-03
      -2.7391584478924191e-03 -3.7279198324194451e-03
      2.1793018473673770e-01 8.4221314309516578e-04
      3.8837758175174707e-03 5.7465388609385850e-03
      -4.0714378733445952e-03 2.0705131876062165e-03
      -6.5944186148209072e-03 -6.4919216749747379e-03
      1.0381040696098600e-03 -3.8084595574082113e-03
      6.9492988259016123e-03 6.8862630186357484e-03
      6.9406527453021137e-03 -2.2635997021742526e-03
      -1.0575122077835523e-03 9.0243497039884684e-05
      -1.7009011063855986e-03 4.5781426928811165e-03
      3.4216714533057300e-03 -1.6760253801527169e-03
      -4.4612994825905640e-03 1.9244469487373727e-03
      -1.1994807058205469e-03 3.2276449485923969e-03
      2.4406126950033513e-03 -3.2458964179773371e-03
