<?xml version="1.0"?>
<opencv_storage>
<shapeML type_id="opencv-ml-ann-mlp">
  <layer_sizes type_id="opencv-matrix">
    <rows>1</rows>
    <cols>3</cols>
    <dt>i</dt>
    <data>
      1600 40 1</data></layer_sizes>
  <activation_function>SIGMOID_SYM</activation_function>
  <f_param1>5.9999999999999998e-01</f_param1>
  <f_param2>1.</f_param2>
  <min_val>-9.4999999999999996e-01</min_val>
  <max_val>9.4999999999999996e-01</max_val>
  <min_val1>-9.7999999999999998e-01</min_val1>
  <max_val1>9.7999999999999998e-01</max_val1>
  <training_params>
    <train_method>BACKPROP</train_method>
    <dw_scale>1.0000000000000001e-01</dw_scale>
    <moment_scale>1.0000000000000001e-01</moment_scale>
    <term_criteria><epsilon>9.9999999747524271e-07</epsilon>
      <iterations>4000</iterations></term_criteria></training_params>
  <input_scale>
    1. 0. 5.7435212435961773e-02 -6.8599434057003528e-02
    5.7435212435961773e-02 -6.8599434057003528e-02
    8.1130265093574294e-02 -4.8450158311150925e-02
    4.0708726385360119e-02 -9.7243327665263044e-02
    4.0708726385360119e-02 -9.7243327665263044e-02
    4.6950923489667236e-02 -8.4115823113806637e-02
    4.6950923489667236e-02 -8.4115823113806637e-02
    2.7300983907844367e-02 -1.4673479641335557e-01
    4.6950923489667236e-02 -8.4115823113806637e-02
    2.5931023998650212e-02 -1.5485740327062772e-01
    2.7300983907844367e-02 -1.4673479641335557e-01
    1.4685292924903497e-02 -2.8940688515939794e-01
    1.1617340706626102e-02 -3.8851434494290571e-01
    9.8650886332120932e-03 -4.9487165930539356e-01
    1.1991413773130895e-02 -3.7237973450050510e-01
    1.1991413773130895e-02 -3.7237973450050510e-01
    1.0654219400704832e-02 -4.3901871277611593e-01
    9.6949708901119622e-03 -5.0949683085272235e-01
    8.7242456148386074e-03 -6.2520354991583460e-01
    8.2809304922394616e-03 -7.1706652213244515e-01
    8.7242456148386074e-03 -6.2520354991583460e-01
    9.3593320949881473e-03 -5.4216177838297852e-01
    9.5762915510885435e-03 -5.2041649986653316e-01
    1.4685292924903497e-02 -2.8940688515939794e-01
    1.5842445839405427e-02 -2.6490647141300883e-01
    2.0057246204618673e-02 -2.0362567282674932e-01
    2.2825266025279057e-02 -1.7720317769039831e-01
    2.2021588898744206e-02 -1.8411492357966469e-01
    2.3728649601981663e-02 -1.7004606037954073e-01
    2.2021588898744206e-02 -1.8411492357966469e-01
    3.0882612303091823e-02 -1.2909944487358058e-01
    2.8922490667591210e-02 -1.3817770717069336e-01
    3.0882612303091823e-02 -1.2909944487358058e-01
    2.7300983907844367e-02 -1.4673479641335557e-01
    2.7300983907844367e-02 -1.4673479641335557e-01
    3.6454107248355724e-02 -1.0885008604602704e-01
    3.6454107248355724e-02 -1.0885008604602704e-01 1. 0.
    8.1130265093574294e-02 -4.8450158311150925e-02
    8.1130265093574294e-02 -4.8450158311150925e-02
    4.6950923489667236e-02 -8.4115823113806637e-02
    5.7435212435961773e-02 -6.8599434057003528e-02
    5.7435212435961773e-02 -6.8599434057003528e-02
    3.6454107248355724e-02 -1.0885008604602704e-01
    3.6454107248355724e-02 -1.0885008604602704e-01
    2.4753960106601792e-02 -1.6261090889699772e-01
    2.4753960106601792e-02 -1.6261090889699772e-01
    2.4753960106601792e-02 -1.6261090889699772e-01
    2.3728649601981663e-02 -1.7004606037954073e-01
    1.2092293622452210e-02 -3.6829105049178218e-01
    1.1893617260623365e-02 -3.7644552055579572e-01
    9.4288092561849845e-03 -5.3492483426482729e-01
    8.7023049145396637e-03 -6.2882814552253241e-01
    8.0360528640637356e-03 -8.0144100987389733e-01
    7.9356198228897890e-03 -8.5777173987231425e-01
    7.8638887022489563e-03 -9.2985419338770448e-01
    7.9139654037998393e-03 -1.1437255388020797e+00
    7.8566145386947655e-03 -1.0603669692388273e+00
    7.8436750152078207e-03 -9.8835815970317753e-01
    7.8638887022489581e-03 -1.0754374256857797e+00
    7.8612884678419103e-03 -1.0703871464176316e+00
    7.9475878779535648e-03 -8.4957294774986059e-01
    7.9538614177779247e-03 -8.4549360597878220e-01
    7.9538614177779247e-03 -8.4549360597878220e-01
    8.3537741258714257e-03 -6.9843029576957827e-01
    9.6546012428727866e-03 -5.1314092554332058e-01
    1.1798760858291658e-02 -3.8048931386106827e-01
    1.4894096303626380e-02 -2.8462722678592800e-01
    1.7739805037379864e-02 -2.3306863292670033e-01
    1.6399433054553610e-02 -2.5463288325922817e-01
    1.6112978100913083e-02 -2.5980762113533157e-01
    1.8134894375809060e-02 -2.2742941307367101e-01
    2.0649369343706349e-02 -1.9730544946679601e-01
    2.0649369343706349e-02 -1.9730544946679601e-01
    2.5931023998650212e-02 -1.5485740327062772e-01
    3.3317393754838991e-02 -1.1938082539790083e-01
    3.3317393754838991e-02 -1.1938082539790083e-01
    5.7435212435961773e-02 -6.8599434057003528e-02
    5.7435212435961773e-02 -6.8599434057003528e-02 1. 0.
    4.6950923489667236e-02 -8.4115823113806637e-02
    4.6950923489667236e-02 -8.4115823113806637e-02
    5.7435212435961773e-02 -6.8599434057003528e-02
    3.6454107248355724e-02 -1.0885008604602704e-01
    2.3728649601981663e-02 -1.7004606037954073e-01
    2.2021588898744206e-02 -1.8411492357966469e-01
    1.9018699326583996e-02 -2.1579765395152098e-01
    1.0848310969695579e-02 -4.2758096866505058e-01
    9.9099035377725932e-03 -4.9120165896242840e-01
    8.6184509962225851e-03 -6.4335626581872341e-01
    8.3537741258714257e-03 -6.9843029576957827e-01
    7.9356198228897890e-03 -8.5777173987231425e-01
    7.8441913691806153e-03 -1.0165300454651274e+00
    7.8612884678419103e-03 -1.0703871464176316e+00
    8.6388421333791505e-03 -1.5631853335726933e+00
    8.7693509562001143e-03 -1.6182225025615644e+00
    9.2600603749484062e-03 -1.8083141320025125e+00
    9.0778341863704971e-03 -1.7402016799188689e+00
    8.5036659460560240e-03 -1.5031772965065777e+00
    9.2925129593639053e-03 -1.8202008991128737e+00
    8.9409293650336737e-03 -1.6872601597995631e+00
    8.1666888748890294e-03 -1.3314380468978919e+00
    8.3849259200458048e-03 -1.4471361022898726e+00
    8.2275809211426361e-03 -1.3659325796248278e+00
    7.8566145386947655e-03 -1.0603669692388273e+00
    7.9669941806594525e-03 -8.3737400193910128e-01
    8.3692020080730935e-03 -6.9472216668887776e-01
    8.5594747594796468e-03 -6.5428865608762454e-01
    1.1446178510597762e-02 -3.9646131187761330e-01
    1.4295871601842747e-02 -2.9880715233359845e-01
    1.7739805037379864e-02 -2.3306863292670033e-01
    1.7026663404507349e-02 -2.4403555043462524e-01
    1.7371330937854448e-02 -2.3860153618387900e-01
    1.9018699326583996e-02 -2.1579765395152098e-01
    1.9515954100944644e-02 -2.0978508038251972e-01
    3.3317393754838991e-02 -1.1938082539790083e-01
    3.0882612303091823e-02 -1.2909944487358058e-01
    5.7435212435961773e-02 -6.8599434057003528e-02
    8.1130265093574294e-02 -4.8450158311150925e-02 1. 0.
    5.7435212435961773e-02 -6.8599434057003528e-02
    4.6950923489667236e-02 -8.4115823113806637e-02
    4.0708726385360119e-02 -9.7243327665263044e-02
    2.2825266025279057e-02 -1.7720317769039831e-01
    1.5113298312323381e-02 -2.7979068655483919e-01
    1.4894096303626380e-02 -2.8462722678592800e-01
    1.0099143122902665e-02 -4.7645723234396770e-01
    9.5383087761848982e-03 -5.2404853369858950e-01
    8.7465917395597986e-03 -6.2158156050806113e-01
    8.1016237960492739e-03 -7.7411299971618353e-01
    7.8910849933584038e-03 -1.1168564908047194e+00
    7.9809172868405606e-03 -1.2058287558794349e+00
    8.3537741258714274e-03 -1.4317821063276357e+00
    8.8646807598898800e-03 -1.6569894492988542e+00
    9.6150487257731978e-03 -1.9350567031599994e+00
    9.9556866935841121e-03 -2.0511745594099819e+00
    1.0149103460850600e-02 -2.1152680620571411e+00
    1.0002467196234896e-02 -2.0667861375264751e+00
    8.5594747594796468e-03 -1.5283774075796854e+00
    9.9099035377725932e-03 -2.0358237431695829e+00
    1.0099143122902665e-02 -2.0988242639962120e+00
    1.0099143122902665e-02 -2.0988242639962120e+00
    9.7782532156120514e-03 -1.9912599727483511e+00
    9.7361803438834466e-03 -1.9768778356316037e+00
    8.7023049145396655e-03 -1.5902596076850821e+00
    8.2949396524380804e-03 -1.4018836534383936e+00
    8.1330976428983306e-03 -1.3113905684158080e+00
    7.8952941335394943e-03 -8.9113278867900692e-01
    8.2405222293349453e-03 -7.2833093427424078e-01
    8.5219266884934679e-03 -6.6159688459849753e-01
    9.8650886332120932e-03 -4.9487165930539356e-01
    1.5343760600737676e-02 -2.7489407165256025e-01
    1.7026663404507349e-02 -2.4403555043462524e-01
    1.6703391628155265e-02 -2.4937733402690823e-01
    1.7026663404507349e-02 -2.4403555043462524e-01
    2.2021588898744206e-02 -1.8411492357966469e-01
    3.0882612303091823e-02 -1.2909944487358058e-01
    8.1130265093574294e-02 -4.8450158311150925e-02
    8.1130265093574294e-02 -4.8450158311150925e-02
    8.1130265093574294e-02 -4.8450158311150925e-02
    4.6950923489667236e-02 -8.4115823113806637e-02
    4.6950923489667236e-02 -8.4115823113806637e-02
    2.2825266025279057e-02 -1.7720317769039831e-01
    2.0649369343706349e-02 -1.9730544946679601e-01
    1.1206815816655063e-02 -4.0824829046386302e-01
    1.0252442451773380e-02 -4.6532162696807516e-01
    9.9099035377725932e-03 -4.9120165896242840e-01
    8.4172794521458500e-03 -6.8363290726093229e-01
    7.9139654037998393e-03 -8.7433563916687917e-01
    7.9299227827528546e-03 -1.1602387022306431e+00
    8.4681434999396305e-03 -1.4867838833500566e+00
    8.5594747594796468e-03 -1.5283774075796854e+00
    9.3593320949881490e-03 -1.8444679058389994e+00
    9.6150487257731978e-03 -1.9350567031599994e+00
    8.9150422632344583e-03 -1.6770509831248428e+00
    9.9099035377725932e-03 -2.0358237431695829e+00
    9.5010802625328586e-03 -1.8950983746134040e+00
    9.0494214901156340e-03 -1.7293508046684678e+00
    8.9150422632344583e-03 -1.6770509831248428e+00
    1.0002467196234896e-02 -2.0667861375264751e+00
    9.2600603749484062e-03 -1.8083141320025125e+00
    9.1067855382823033e-03 -1.7511900715418265e+00
    8.4508712500464683e-03 -1.4787045560824870e+00
    8.4508712500464683e-03 -1.4787045560824870e+00
    8.9150422632344583e-03 -1.6770509831248428e+00
    9.5762915510885453e-03 -1.9215378456610459e+00
    9.0778341863704971e-03 -1.7402016799188689e+00
    8.0628373011742329e-03 -1.2663564018811473e+00
    7.8436750152078207e-03 -1.0117789691748169e+00
    8.0033103237524394e-03 -8.1729355191387620e-01
    8.2405222293349453e-03 -7.2833093427424078e-01
    8.6388421333791540e-03 -6.3971941043899028e-01
    1.4295871601842747e-02 -2.9880715233359845e-01
    1.6399433054553610e-02 -2.5463288325922817e-01
    1.6112978100913083e-02 -2.5980762113533157e-01
    2.1300679461903227e-02 -1.9080819424304413e-01
    2.2021588898744206e-02 -1.8411492357966469e-01
    5.7435212435961773e-02 -6.8599434057003528e-02
    5.7435212435961773e-02 -6.8599434057003528e-02
    8.1130265093574294e-02 -4.8450158311150925e-02
    4.0708726385360119e-02 -9.7243327665263044e-02
    2.3728649601981663e-02 -1.7004606037954073e-01
    2.2825266025279057e-02 -1.7720317769039831e-01
    1.9018699326583996e-02 -2.1579765395152098e-01
    1.0473872186026871e-02 -4.5035197502448099e-01
    9.4645866371326545e-03 -5.3130243955988221e-01
    8.8646807598898782e-03 -6.0350414447306500e-01
    7.8441913691806135e-03 -9.8373875367592944e-01
    8.3692020080730952e-03 -1.4394243453697615e+00
    8.0033103237524411e-03 -1.2235505806429960e+00
    8.1118840709219452e-03 -1.2982813990791702e+00
    9.3593320949881490e-03 -1.8444679058389994e+00
    8.3237895684937051e-03 -1.4167011870966746e+00
    8.7925311742848289e-03 -1.6277507946773200e+00
    8.7465917395597986e-03 -1.6087993330796877e+00
    1.0360589864969332e-02 -2.1840948400356308e+00
    9.1663529798726162e-03 -1.7735927006957271e+00
    1.1057749009718624e-02 -2.4037008503093271e+00
    9.2925129593639053e-03 -1.8202008991128737e+00
    9.7782532156120514e-03 -1.9912599727483511e+00
    1.1706710533978631e-02 -2.6006992066819974e+00
    9.6949708901119605e-03 -1.9627207461258276e+00
    9.3937301708549217e-03 -1.8568566629297649e+00
    1.0252442451773381e-02 -2.1490511982341371e+00
    1.0360589864969332e-02 -2.1840948400356308e+00
    9.8650886332120932e-03 -2.0207259421636903e+00
    1.0416567525440040e-02 -2.2021160433758138e+00
    8.7925311742848289e-03 -1.6277507946773200e+00
    8.1330976428983306e-03 -1.3113905684158080e+00
    7.8433308358700129e-03 -1.0070506161043875e+00
    7.8436750152078207e-03 -9.8835815970317753e-01
    8.0360528640637356e-03 -8.0144100987389733e-01
    8.7465917395597986e-03 -6.2158156050806113e-01
    1.3310737348646628e-02 -3.2591044257634777e-01
    1.6399433054553610e-02 -2.5463288325922817e-01
    1.8559894026340083e-02 -2.2167554926073635e-01
    1.9018699326583996e-02 -2.1579765395152098e-01
    2.7300983907844367e-02 -1.4673479641335557e-01
    5.7435212435961773e-02 -6.8599434057003528e-02
    8.1130265093574294e-02 -4.8450158311150925e-02
    2.5931023998650212e-02 -1.5485740327062772e-01
    2.3728649601981663e-02 -1.7004606037954073e-01
    1.1991413773130895e-02 -3.7237973450050510e-01
    1.1893617260623365e-02 -3.7644552055579572e-01
    9.7782532156120566e-03 -5.0219459723272231e-01
    8.4339182021901399e-03 -6.7994762086743687e-01
    8.0192635993279870e-03 -8.0934464827409747e-01
    8.2275809211426361e-03 -1.3659325796248278e+00
    8.1902951723533089e-03 -1.3450689671224256e+00
    8.4681434999396305e-03 -1.4867838833500566e+00
    8.9409293650336737e-03 -1.6872601597995631e+00
    1.0149103460850600e-02 -2.1152680620571411e+00
    9.9556866935841121e-03 -2.0511745594099819e+00
    1.0781992933504287e-02 -2.3180022278587669e+00
    9.3593320949881490e-03 -1.8444679058389994e+00
    9.5762915510885453e-03 -1.9215378456610459e+00
    1.0200191135444890e-02 -2.1320071635561044e+00
    1.0050275426404694e-02 -2.0826665599658529e+00
    1.0002467196234896e-02 -2.0667861375264751e+00
    1.0360589864969332e-02 -2.1840948400356308e+00
    9.4288092561849845e-03 -1.8694215260623437e+00
    8.2809304922394616e-03 -1.3945707533886174e+00
    9.8212141011181347e-03 -2.0058737277716920e+00
    9.3937301708549217e-03 -1.8568566629297649e+00
    9.8212141011181347e-03 -2.0058737277716920e+00
    1.0252442451773381e-02 -2.1490511982341371e+00
    1.0149103460850600e-02 -2.1152680620571411e+00
    9.6546012428727866e-03 -1.9487823913892401e+00
    9.7361803438834466e-03 -1.9768778356316037e+00
    8.1552521513746697e-03 -1.3247032534410939e+00
    7.9669941806594542e-03 -1.1942095141290594e+00
    7.8441913691806135e-03 -9.8373875367592944e-01
    8.0536931145575065e-03 -7.9358111895786210e-01
    8.4857399998092015e-03 -6.6892273628472532e-01
    1.4295871601842747e-02 -2.9880715233359845e-01
    1.8559894026340083e-02 -2.2167554926073635e-01
    1.8559894026340083e-02 -2.2167554926073635e-01
    2.7300983907844367e-02 -1.4673479641335557e-01
    2.8922490667591210e-02 -1.3817770717069336e-01
    8.1130265093574294e-02 -4.8450158311150925e-02
    2.4753960106601792e-02 -1.6261090889699772e-01
    2.3728649601981663e-02 -1.7004606037954073e-01
    1.1798760858291658e-02 -3.8048931386106827e-01
    1.0717315454064234e-02 -4.3521838401281926e-01
    9.0778341863704953e-03 -5.7464603760560773e-01
    7.9090204994674892e-03 -8.7851251121719676e-01
    8.3237895684937051e-03 -1.4167011870966746e+00
    8.5405277355136682e-03 -1.5198939171468000e+00
    8.4172794521458483e-03 -1.4627733530362592e+00
    9.4645866371326545e-03 -1.8821671529089445e+00
    1.0592648630969771e-02 -2.2583179581272437e+00
    1.1364171507044340e-02 -2.4974563330703532e+00
    1.1446178510597756e-02 -2.5223142083248145e+00
    1.0473872186026870e-02 -2.2204854324123708e+00
    9.5762915510885453e-03 -1.9215378456610459e+00
    1.0149103460850600e-02 -2.1152680620571411e+00
    1.3458672226586017e-02 -3.1104662029991594e+00
    1.2529881603701163e-02 -2.8434321484745735e+00
    1.1446178510597756e-02 -2.5223142083248145e+00
    1.0532549800248953e-02 -2.2392151542543322e+00
    9.6949708901119605e-03 -1.9627207461258276e+00
    1.3772763677245675e-02 -3.1995065409001984e+00
    1.0916331887965132e-02 -2.3599217718455767e+00
    1.0002467196234896e-02 -2.0667861375264751e+00
    8.9150422632344583e-03 -1.6770509831248428e+00
    9.8212141011181347e-03 -2.0058737277716920e+00
    9.7782532156120514e-03 -1.9912599727483511e+00
    8.8896292522032769e-03 -1.6669616258171345e+00
    8.7693509562001143e-03 -1.6182225025615644e+00
    1.0654219400704835e-02 -2.2778072344036171e+00
    8.4681434999396305e-03 -1.4867838833500566e+00
    8.0817842117573251e-03 -1.2789849370245931e+00
    7.8467746695533563e-03 -9.7000468602429490e-01
    8.0360528640637356e-03 -8.0144100987389733e-01
    8.9673004465882587e-03 -5.8906973659672279e-01
    1.3772763677245678e-02 -3.1254819679744877e-01
    1.8559894026340083e-02 -2.2167554926073635e-01
    2.2021588898744206e-02 -1.8411492357966469e-01
    2.7300983907844367e-02 -1.4673479641335557e-01
    3.0882612303091823e-02 -1.2909944487358058e-01
    2.4753960106601792e-02 -1.6261090889699772e-01
    1.3168390131903527e-02 -3.3028912953790812e-01
    1.2303927251879223e-02 -3.6004114991154779e-01
    8.9673004465882587e-03 -5.8906973659672279e-01
    7.9042609667911053e-03 -8.8270417845769045e-01
    8.3537741258714274e-03 -1.4317821063276357e+00
    8.7465917395597986e-03 -1.6087993330796877e+00
    9.3255983746495050e-03 -1.8322507626258087e+00
    9.0215357678969186e-03 -1.7186342553620020e+00
    8.7465917395597986e-03 -1.6087993330796877e+00
    9.6949708901119605e-03 -1.9627207461258276e+00
    1.1131287954095365e-02 -2.4263340195021690e+00
    1.1131287954095365e-02 -2.4263340195021690e+00
    9.6546012428727866e-03 -1.9487823913892401e+00
    9.2925129593639053e-03 -1.8202008991128737e+00
    1.1364171507044340e-02 -2.4974563330703532e+00
    1.0416567525440040e-02 -2.2021160433758138e+00
    1.1706710533978631e-02 -2.6006992066819974e+00
    1.3168390131903532e-02 -3.0276503540974922e+00
    9.2282256978328068e-03 -1.7965864221565369e+00
    1.3031303348907980e-02 -2.9883494705505136e+00
    1.0654219400704835e-02 -2.2778072344036171e+00
    1.0592648630969771e-02 -2.2583179581272437e+00
    1.1446178510597756e-02 -2.5223142083248145e+00
    1.1706710533978631e-02 -2.6006992066819974e+00
    1.0654219400704835e-02 -2.2778072344036171e+00
    1.0149103460850600e-02 -2.1152680620571411e+00
    1.0305895421210805e-02 -2.1664102412362571e+00
    9.8212141011181347e-03 -2.0058737277716920e+00
    1.0099143122902665e-02 -2.0988242639962120e+00
    1.0473872186026870e-02 -2.2204854324123708e+00
    9.1362876328198485e-03 -1.7623192760590325e+00
    7.9738562091503269e-03 -1.2000000000000002e+00
    7.8760573371810857e-03 -9.1247905496568682e-01
    8.0111833646487277e-03 -8.1331334627054408e-01
    8.6807622043837875e-03 -6.3245553203367599e-01
    1.8559894026340083e-02 -2.2167554926073635e-01
    2.1300679461903227e-02 -1.9080819424304413e-01
    2.2021588898744206e-02 -1.8411492357966469e-01
    8.1130265093574294e-02 -4.8450158311150925e-02
    2.0057246204618673e-02 -2.0362567282674932e-01
    1.2771730807537887e-02 -3.4322157146720667e-01
    1.0532549800248953e-02 -4.4658504480915057e-01
    7.9809172868405623e-03 -8.2930515226490809e-01
    8.4857399998092015e-03 -1.4949409636666211e+00
    8.8896292522032769e-03 -1.6669616258171345e+00
    8.7023049145396655e-03 -1.5902596076850821e+00
    9.5383087761848982e-03 -1.9082202042285596e+00
    9.3937301708549217e-03 -1.8568566629297649e+00
    1.0305895421210805e-02 -2.1664102412362571e+00
    9.1067855382823033e-03 -1.7511900715418265e+00
    1.0986121432440743e-02 -2.3815698604072071e+00
    1.0360589864969332e-02 -2.1840948400356308e+00
    1.2303927251879223e-02 -2.7774602993176543e+00
    1.1057749009718624e-02 -2.4037008503093271e+00
    9.9556866935841121e-03 -2.0511745594099819e+00
    1.3310737348646627e-02 -3.0683275813285422e+00
    9.4288092561849845e-03 -1.8694215260623437e+00
    1.2529881603701163e-02 -2.8434321484745735e+00
    1.4894096303626368e-02 -3.5133673306387960e+00
    1.1991413773130892e-02 -2.6854307776478725e+00
    1.2648711613411712e-02 -2.8779521704941797e+00
    1.1131287954095365e-02 -2.4263340195021690e+00
    1.3031303348907980e-02 -2.9883494705505136e+00
    1.2092293622452203e-02 -2.7152438232335299e+00
    9.9556866935841121e-03 -2.0511745594099819e+00
    1.1446178510597756e-02 -2.5223142083248145e+00
    1.1131287954095365e-02 -2.4263340195021690e+00
    1.0200191135444890e-02 -2.1320071635561044e+00
    1.0654219400704835e-02 -2.2778072344036171e+00
    1.0360589864969332e-02 -2.1840948400356308e+00
    9.9556866935841121e-03 -2.0511745594099819e+00
    8.6807622043837858e-03 -1.5811388300841895e+00
    7.8566145386947655e-03 -1.0603669692388273e+00
    7.8545399111067879e-03 -9.4751136023679305e-01
    8.1552521513746697e-03 -7.5488604515944679e-01
    1.3772763677245678e-02 -3.1254819679744877e-01
    2.1300679461903227e-02 -1.9080819424304413e-01
    2.1300679461903227e-02 -1.9080819424304413e-01
    2.8922490667591210e-02 -1.3817770717069336e-01
    2.0057246204618673e-02 -2.0362567282674932e-01
    1.2196410054563964e-02 -3.6417852036461484e-01
    8.1330976428983306e-03 -7.6254933052326623e-01
    8.1016237960492721e-03 -1.2918010682763810e+00
    8.7693509562001143e-03 -1.6182225025615644e+00
    8.3692020080730952e-03 -1.4394243453697615e+00
    9.2925129593639053e-03 -1.8202008991128737e+00
    9.0215357678969186e-03 -1.7186342553620020e+00
    9.2282256978328068e-03 -1.7965864221565369e+00
    1.1131287954095365e-02 -2.4263340195021690e+00
    9.9556866935841121e-03 -2.0511745594099819e+00
    9.5010802625328586e-03 -1.8950983746134040e+00
    9.6546012428727866e-03 -1.9487823913892401e+00
    1.1706710533978631e-02 -2.6006992066819974e+00
    1.0473872186026870e-02 -2.2204854324123708e+00
    1.0654219400704835e-02 -2.2778072344036171e+00
    1.0200191135444890e-02 -2.1320071635561044e+00
    9.2282256978328068e-03 -1.7965864221565369e+00
    1.0305895421210805e-02 -2.1664102412362571e+00
    1.1798760858291658e-02 -2.6281947050033048e+00
    1.1131287954095365e-02 -2.4263340195021690e+00
    1.1617340706626105e-02 -2.5739075352467511e+00
    1.1530533575028834e-02 -2.5477888590256921e+00
    1.0848310969695577e-02 -2.3387383286073216e+00
    1.1206815816655070e-02 -2.4494897427831797e+00
    1.1364171507044340e-02 -2.4974563330703532e+00
    1.1530533575028834e-02 -2.5477888590256921e+00
    1.0416567525440040e-02 -2.2021160433758138e+00
    1.1206815816655070e-02 -2.4494897427831797e+00
    1.1284414680788092e-02 -2.4731895735399378e+00
    1.0717315454064241e-02 -2.2976970567735622e+00
    1.0473872186026870e-02 -2.2204854324123708e+00
    1.0360589864969332e-02 -2.1840948400356308e+00
    8.5594747594796468e-03 -1.5283774075796854e+00
    7.8566145386947655e-03 -1.0603669692388273e+00
    7.8638887022489563e-03 -9.2985419338770448e-01
    9.0778341863704953e-03 -5.7464603760560773e-01
    1.4894096303626380e-02 -2.8462722678592800e-01
    2.2021588898744206e-02 -1.8411492357966469e-01
    4.6950923489667236e-02 -8.4115823113806637e-02
    1.3168390131903527e-02 -3.3028912953790812e-01
    1.0532549800248953e-02 -4.4658504480915057e-01
    7.8696183122639041e-03 -1.0856202966836190e+00
    8.2537253176242376e-03 -1.3801311186847087e+00
    8.2671935762269801e-03 -1.3873202709708297e+00
    8.6388421333791505e-03 -1.5631853335726933e+00
    9.6150487257731978e-03 -1.9350567031599994e+00
    8.9941657267620934e-03 -1.7080489432860377e+00
    1.0986121432440743e-02 -2.3815698604072071e+00
    1.1206815816655070e-02 -2.4494897427831797e+00
    9.9556866935841121e-03 -2.0511745594099819e+00
    9.5383087761848982e-03 -1.9082202042285596e+00
    9.1362876328198485e-03 -1.7623192760590325e+00
    1.1131287954095365e-02 -2.4263340195021690e+00
    1.1284414680788092e-02 -2.4731895735399378e+00
    1.0360589864969332e-02 -2.1840948400356308e+00
    9.1663529798726162e-03 -1.7735927006957271e+00
    1.1706710533978631e-02 -2.6006992066819974e+00
    1.3939735363265787e-02 -3.2466198638800527e+00
    1.3031303348907980e-02 -2.9883494705505136e+00
    1.1617340706626105e-02 -2.5739075352467511e+00
    1.0149103460850600e-02 -2.1152680620571411e+00
    1.0473872186026870e-02 -2.2204854324123708e+00
    1.2196410054563967e-02 -2.7459060435491969e+00
    1.2415021355023209e-02 -2.8099525500145623e+00
    1.0252442451773381e-02 -2.1490511982341371e+00
    1.0654219400704835e-02 -2.2778072344036171e+00
    1.1893617260623360e-02 -2.6564268809031613e+00
    1.1798760858291658e-02 -2.6281947050033048e+00
    1.0305895421210805e-02 -2.1664102412362571e+00
    9.6150487257731978e-03 -1.9350567031599994e+00
    1.0592648630969771e-02 -2.2583179581272437e+00
    9.5010802625328586e-03 -1.8950983746134040e+00
    9.8650886332120932e-03 -2.0207259421636903e+00
    8.2809304922394616e-03 -1.3945707533886174e+00
    7.8441913691806153e-03 -1.0165300454651274e+00
    7.8832109667907081e-03 -9.0389229258565118e-01
    1.2196410054563964e-02 -3.6417852036461484e-01
    1.9018699326583996e-02 -2.1579765395152098e-01
    2.3728649601981663e-02 -1.7004606037954073e-01
    1.3168390131903527e-02 -3.3028912953790812e-01
    8.0722002851463994e-03 -7.8576347740541008e-01
    8.1902951723533089e-03 -1.3450689671224256e+00
    8.3386380231114682e-03 -1.4242081288653849e+00
    9.5762915510885453e-03 -1.9215378456610459e+00
    9.5762915510885453e-03 -1.9215378456610459e+00
    8.8401875188659756e-03 -1.6471318946158713e+00
    9.5010802625328586e-03 -1.8950983746134040e+00
    1.1706710533978631e-02 -2.6006992066819974e+00
    9.0215357678969186e-03 -1.7186342553620020e+00
    9.9556866935841121e-03 -2.0511745594099819e+00
    9.9556866935841121e-03 -2.0511745594099819e+00
    1.2092293622452203e-02 -2.7152438232335299e+00
    1.1798760858291658e-02 -2.6281947050033048e+00
    1.1057749009718624e-02 -2.4037008503093271e+00
    1.0252442451773381e-02 -2.1490511982341371e+00
    1.0986121432440743e-02 -2.3815698604072071e+00
    1.1446178510597756e-02 -2.5223142083248145e+00
    1.1446178510597756e-02 -2.5223142083248145e+00
    1.0473872186026870e-02 -2.2204854324123708e+00
    1.0360589864969332e-02 -2.1840948400356308e+00
    1.1057749009718624e-02 -2.4037008503093271e+00
    1.0200191135444890e-02 -2.1320071635561044e+00
    1.2648711613411712e-02 -2.8779521704941797e+00
    1.1131287954095365e-02 -2.4263340195021690e+00
    1.4894096303626368e-02 -3.5133673306387960e+00
    1.3168390131903532e-02 -3.0276503540974922e+00
    1.3939735363265787e-02 -3.2466198638800527e+00
    1.0360589864969332e-02 -2.1840948400356308e+00
    1.1991413773130892e-02 -2.6854307776478725e+00
    1.2529881603701163e-02 -2.8434321484745735e+00
    9.2925129593639053e-03 -1.8202008991128737e+00
    1.0360589864969332e-02 -2.1840948400356308e+00
    1.0532549800248953e-02 -2.2392151542543322e+00
    9.0778341863704971e-03 -1.7402016799188689e+00
    7.8457410431681113e-03 -1.0261016593810848e+00
    7.8436750152078207e-03 -9.8835815970317753e-01
    9.4288092561849845e-03 -5.3492483426482729e-01
    1.8559894026340083e-02 -2.2167554926073635e-01
    1.6112978100913083e-02 -2.5980762113533157e-01
    1.1798760858291658e-02 -3.8048931386106827e-01
    7.8588639080823131e-03 -1.0653637876331257e+00
    8.2949396524380804e-03 -1.4018836534383936e+00
    9.6546012428727866e-03 -1.9487823913892401e+00
    9.6949708901119605e-03 -1.9627207461258276e+00
    9.2600603749484062e-03 -1.8083141320025125e+00
    9.1067855382823033e-03 -1.7511900715418265e+00
    1.2415021355023209e-02 -2.8099525500145623e+00
    1.0473872186026870e-02 -2.2204854324123708e+00
    9.7361803438834466e-03 -1.9768778356316037e+00
    9.4288092561849845e-03 -1.8694215260623437e+00
    1.1530533575028834e-02 -2.5477888590256921e+00
    1.0781992933504287e-02 -2.3180022278587669e+00
    1.0473872186026870e-02 -2.2204854324123708e+00
    1.2196410054563967e-02 -2.7459060435491969e+00
    1.0781992933504287e-02 -2.3180022278587669e+00
    1.0305895421210805e-02 -2.1664102412362571e+00
    1.1284414680788092e-02 -2.4731895735399378e+00
    1.0848310969695577e-02 -2.3387383286073216e+00
    1.1284414680788092e-02 -2.4731895735399378e+00
    1.0717315454064241e-02 -2.2976970567735622e+00
    1.2092293622452203e-02 -2.7152438232335299e+00
    1.4295871601842744e-02 -3.3466401061363014e+00
    1.2648711613411712e-02 -2.8779521704941797e+00
    1.4486116077311656e-02 -3.3998269852173011e+00
    1.3612551263638913e-02 -3.1541588337808757e+00
    1.3310737348646627e-02 -3.0683275813285422e+00
    1.1617340706626105e-02 -2.5739075352467511e+00
    9.6949708901119605e-03 -1.9627207461258276e+00
    1.0050275426404694e-02 -2.0826665599658529e+00
    9.9556866935841121e-03 -2.0511745594099819e+00
    1.1364171507044340e-02 -2.4974563330703532e+00
    9.9099035377725932e-03 -2.0358237431695829e+00
    1.1057749009718624e-02 -2.4037008503093271e+00
    9.6150487257731978e-03 -1.9350567031599994e+00
    7.9538614177779247e-03 -1.1827410555545885e+00
    7.8795444786506144e-03 -1.1011063677777100e+00
    7.8952941335394943e-03 -8.9113278867900692e-01
    1.5842445839405427e-02 -2.6490647141300883e-01
    1.3031303348907980e-02 -3.3463288342102110e-01
    8.7242456148386074e-03 -6.2520354991583460e-01
    7.9356198228897872e-03 -1.1658113149645815e+00
    8.7023049145396655e-03 -1.5902596076850821e+00
    9.8212141011181347e-03 -2.0058737277716920e+00
    1.1131287954095365e-02 -2.4263340195021690e+00
    1.0592648630969771e-02 -2.2583179581272437e+00
    1.1206815816655070e-02 -2.4494897427831797e+00
    1.2092293622452203e-02 -2.7152438232335299e+00
    9.6150487257731978e-03 -1.9350567031599994e+00
    9.4288092561849845e-03 -1.8694215260623437e+00
    1.3310737348646627e-02 -3.0683275813285422e+00
    1.3612551263638913e-02 -3.1541588337808757e+00
    1.5343760600737676e-02 -3.6377648815355470e+00
    1.2303927251879223e-02 -2.7774602993176543e+00
    1.1530533575028834e-02 -2.5477888590256921e+00
    1.1131287954095365e-02 -2.4263340195021690e+00
    1.0717315454064241e-02 -2.2976970567735622e+00
    1.1131287954095365e-02 -2.4263340195021690e+00
    1.0654219400704835e-02 -2.2778072344036171e+00
    1.1206815816655070e-02 -2.4494897427831797e+00
    1.1206815816655070e-02 -2.4494897427831797e+00
    1.2092293622452203e-02 -2.7152438232335299e+00
    1.1706710533978631e-02 -2.6006992066819974e+00
    1.0717315454064241e-02 -2.2976970567735622e+00
    1.3310737348646627e-02 -3.0683275813285422e+00
    1.3168390131903532e-02 -3.0276503540974922e+00
    1.2771730807537877e-02 -2.9135697844549520e+00
    1.2648711613411712e-02 -2.8779521704941797e+00
    1.6399433054553623e-02 -3.9272225456519458e+00
    1.2196410054563967e-02 -2.7459060435491969e+00
    1.5842445839405427e-02 -3.7749172176353754e+00
    1.1798760858291658e-02 -2.6281947050033048e+00
    1.0099143122902665e-02 -2.0988242639962120e+00
    9.1362876328198485e-03 -1.7623192760590325e+00
    9.8212141011181347e-03 -2.0058737277716920e+00
    9.1067855382823033e-03 -1.7511900715418265e+00
    7.8448799997998999e-03 -1.0213041667186802e+00
    7.8566145386947655e-03 -9.4306973812833772e-01
    9.9556866935841121e-03 -4.8752554745396670e-01
    1.4685292924903497e-02 -2.8940688515939794e-01
    8.2405222293349453e-03 -7.2833093427424078e-01
    8.0360528640637339e-03 -1.2477524704623548e+00
    8.4508712500464683e-03 -1.4787045560824870e+00
    1.0149103460850600e-02 -2.1152680620571411e+00
    9.3593320949881490e-03 -1.8444679058389994e+00
    1.1206815816655070e-02 -2.4494897427831797e+00
    1.2303927251879223e-02 -2.7774602993176543e+00
    1.0416567525440040e-02 -2.2021160433758138e+00
    9.8212141011181347e-03 -2.0058737277716920e+00
    9.7361803438834466e-03 -1.9768778356316037e+00
    9.7361803438834466e-03 -1.9768778356316037e+00
    1.3458672226586017e-02 -3.1104662029991594e+00
    1.1530533575028834e-02 -2.5477888590256921e+00
    1.0781992933504287e-02 -2.3180022278587669e+00
    1.2092293622452203e-02 -2.7152438232335299e+00
    1.0305895421210805e-02 -2.1664102412362571e+00
    9.6949708901119605e-03 -1.9627207461258276e+00
    1.3458672226586017e-02 -3.1104662029991594e+00
    1.2196410054563967e-02 -2.7459060435491969e+00
    1.3458672226586017e-02 -3.1104662029991594e+00
    1.1991413773130892e-02 -2.6854307776478725e+00
    1.2529881603701163e-02 -2.8434321484745735e+00
    1.3612551263638913e-02 -3.1541588337808757e+00
    1.2648711613411712e-02 -2.8779521704941797e+00
    1.2529881603701163e-02 -2.8434321484745735e+00
    1.1617340706626105e-02 -2.5739075352467511e+00
    1.3772763677245675e-02 -3.1995065409001984e+00
    1.2648711613411712e-02 -2.8779521704941797e+00
    1.5113298312323374e-02 -3.5741003830876212e+00
    1.2415021355023209e-02 -2.8099525500145623e+00
    1.3031303348907980e-02 -2.9883494705505136e+00
    1.2529881603701163e-02 -2.8434321484745735e+00
    1.3310737348646627e-02 -3.0683275813285422e+00
    1.0360589864969332e-02 -2.1840948400356308e+00
    1.0916331887965132e-02 -2.3599217718455767e+00
    8.9941657267620934e-03 -1.7080489432860377e+00
    8.1440559753666146e-03 -1.3180210495965103e+00
    7.8457410431681113e-03 -1.0261016593810848e+00
    8.4172794521458500e-03 -6.8363290726093229e-01
    1.3612551263638920e-02 -3.1704173844704697e-01
    7.9090204994674892e-03 -8.7851251121719676e-01
    8.0275528172657814e-03 -1.2416387021459452e+00
    8.6184509962225885e-03 -1.5543487382180365e+00
    1.0149103460850600e-02 -2.1152680620571411e+00
    1.0654219400704835e-02 -2.2778072344036171e+00
    1.0305895421210805e-02 -2.1664102412362571e+00
    1.2196410054563967e-02 -2.7459060435491969e+00
    1.0654219400704835e-02 -2.2778072344036171e+00
    9.9099035377725932e-03 -2.0358237431695829e+00
    8.8896292522032769e-03 -1.6669616258171345e+00
    1.0002467196234896e-02 -2.0667861375264751e+00
    1.1057749009718624e-02 -2.4037008503093271e+00
    1.1706710533978631e-02 -2.6006992066819974e+00
    1.0986121432440743e-02 -2.3815698604072071e+00
    1.1530533575028834e-02 -2.5477888590256921e+00
    9.9556866935841121e-03 -2.0511745594099819e+00
    1.0848310969695577e-02 -2.3387383286073216e+00
    1.1991413773130892e-02 -2.6854307776478725e+00
    1.0654219400704835e-02 -2.2778072344036171e+00
    1.1364171507044340e-02 -2.4974563330703532e+00
    1.2648711613411712e-02 -2.8779521704941797e+00
    1.1991413773130892e-02 -2.6854307776478725e+00
    1.1057749009718624e-02 -2.4037008503093271e+00
    1.1446178510597756e-02 -2.5223142083248145e+00
    1.0200191135444890e-02 -2.1320071635561044e+00
    1.1284414680788092e-02 -2.4731895735399378e+00
    1.0532549800248953e-02 -2.2392151542543322e+00
    1.3168390131903532e-02 -3.0276503540974922e+00
    1.5113298312323374e-02 -3.5741003830876212e+00
    1.1893617260623360e-02 -2.6564268809031613e+00
    1.1991413773130892e-02 -2.6854307776478725e+00
    1.5586448166217275e-02 -3.7046103615676609e+00
    1.1057749009718624e-02 -2.4037008503093271e+00
    1.0654219400704835e-02 -2.2778072344036171e+00
    1.0848310969695577e-02 -2.3387383286073216e+00
    9.9099035377725932e-03 -2.0358237431695829e+00
    7.9244154594654524e-03 -1.1547005383792517e+00
    7.8588639080823131e-03 -1.0653637876331257e+00
    7.9356198228897890e-03 -8.5777173987231425e-01
    1.0099143122902665e-02 -4.7645723234396770e-01
    7.8795444786506144e-03 -9.0817747427819673e-01
    7.8493605238563902e-03 -1.0406377031744971e+00
    8.7693509562001143e-03 -1.6182225025615644e+00
    1.0416567525440040e-02 -2.2021160433758138e+00
    1.0050275426404694e-02 -2.0826665599658529e+00
    1.0916331887965132e-02 -2.3599217718455767e+00
    1.0416567525440040e-02 -2.2021160433758138e+00
    9.9556866935841121e-03 -2.0511745594099819e+00
    1.0305895421210805e-02 -2.1664102412362571e+00
    1.1991413773130892e-02 -2.6854307776478725e+00
    1.1446178510597756e-02 -2.5223142083248145e+00
    1.4894096303626368e-02 -3.5133673306387960e+00
    1.2648711613411712e-02 -2.8779521704941797e+00
    1.4685292924903500e-02 -3.4553428106909947e+00
    1.1131287954095365e-02 -2.4263340195021690e+00
    1.0592648630969771e-02 -2.2583179581272437e+00
    9.9556866935841121e-03 -2.0511745594099819e+00
    1.1446178510597756e-02 -2.5223142083248145e+00
    1.1206815816655070e-02 -2.4494897427831797e+00
    1.1893617260623360e-02 -2.6564268809031613e+00
    1.0848310969695577e-02 -2.3387383286073216e+00
    1.1530533575028834e-02 -2.5477888590256921e+00
    1.1057749009718624e-02 -2.4037008503093271e+00
    1.3168390131903532e-02 -3.0276503540974922e+00
    1.1617340706626105e-02 -2.5739075352467511e+00
    1.1893617260623360e-02 -2.6564268809031613e+00
    1.1617340706626105e-02 -2.5739075352467511e+00
    1.3031303348907980e-02 -2.9883494705505136e+00
    1.4685292924903500e-02 -3.4553428106909947e+00
    1.4685292924903500e-02 -3.4553428106909947e+00
    1.3939735363265787e-02 -3.2466198638800527e+00
    1.5586448166217275e-02 -3.7046103615676609e+00
    1.1446178510597756e-02 -2.5223142083248145e+00
    1.2771730807537877e-02 -2.9135697844549520e+00
    9.5383087761848982e-03 -1.9082202042285596e+00
    9.8650886332120932e-03 -2.0207259421636903e+00
    7.9669941806594542e-03 -1.1942095141290594e+00
    7.8526396121990950e-03 -1.0504514628777808e+00
    7.8588639080823131e-03 -9.3864650892786416e-01
    8.7693509562001108e-03 -6.1796199126946449e-01
    7.8509132640760936e-03 -9.5645083840102674e-01
    7.8493605238563902e-03 -1.0406377031744971e+00
    8.1016237960492721e-03 -1.2918010682763810e+00
    8.2024705525297580e-03 -1.3519669261991671e+00
    8.9409293650336737e-03 -1.6872601597995631e+00
    1.0473872186026870e-02 -2.2204854324123708e+00
    9.3255983746495050e-03 -1.8322507626258087e+00
    1.0916331887965132e-02 -2.3599217718455767e+00
    9.7361803438834466e-03 -1.9768778356316037e+00
    9.6949708901119605e-03 -1.9627207461258276e+00
    1.2092293622452203e-02 -2.7152438232335299e+00
    1.3612551263638913e-02 -3.1541588337808757e+00
    1.1991413773130892e-02 -2.6854307776478725e+00
    1.4685292924903500e-02 -3.4553428106909947e+00
    1.1893617260623360e-02 -2.6564268809031613e+00
    1.0916331887965132e-02 -2.3599217718455767e+00
    1.0532549800248953e-02 -2.2392151542543322e+00
    1.0717315454064241e-02 -2.2976970567735622e+00
    1.0252442451773381e-02 -2.1490511982341371e+00
    1.3458672226586017e-02 -3.1104662029991594e+00
    9.9099035377725932e-03 -2.0358237431695829e+00
    1.1991413773130892e-02 -2.6854307776478725e+00
    1.0416567525440040e-02 -2.2021160433758138e+00
    1.0592648630969771e-02 -2.2583179581272437e+00
    9.3255983746495050e-03 -1.8322507626258087e+00
    1.0848310969695577e-02 -2.3387383286073216e+00
    1.1706710533978631e-02 -2.6006992066819974e+00
    1.0986121432440743e-02 -2.3815698604072071e+00
    1.1131287954095365e-02 -2.4263340195021690e+00
    1.1446178510597756e-02 -2.5223142083248145e+00
    1.2415021355023209e-02 -2.8099525500145623e+00
    1.2771730807537877e-02 -2.9135697844549520e+00
    1.2648711613411712e-02 -2.8779521704941797e+00
    1.1617340706626105e-02 -2.5739075352467511e+00
    1.1446178510597756e-02 -2.5223142083248145e+00
    9.5762915510885453e-03 -1.9215378456610459e+00
    8.2671935762269801e-03 -1.3873202709708297e+00
    7.8566145386947655e-03 -9.4306973812833772e-01
    7.8479810834830386e-03 -9.6546708738961129e-01
    8.6596102748975421e-03 -6.3608589290904305e-01
    7.9809172868405623e-03 -8.2930515226490809e-01
    7.8666651315520229e-03 -9.2548459691689899e-01
    8.1223745260253256e-03 -1.3048109616222652e+00
    8.5984302815813665e-03 -1.5456030825826179e+00
    1.0099143122902665e-02 -2.0988242639962120e+00
    1.0149103460850600e-02 -2.1152680620571411e+00
    1.0781992933504287e-02 -2.3180022278587669e+00
    1.0473872186026870e-02 -2.2204854324123708e+00
    1.0781992933504287e-02 -2.3180022278587669e+00
    1.2303927251879223e-02 -2.7774602993176543e+00
    1.3458672226586017e-02 -3.1104662029991594e+00
    1.0986121432440743e-02 -2.3815698604072071e+00
    1.1530533575028834e-02 -2.5477888590256921e+00
    1.4685292924903500e-02 -3.4553428106909947e+00
    1.1617340706626105e-02 -2.5739075352467511e+00
    1.3612551263638913e-02 -3.1541588337808757e+00
    9.9099035377725932e-03 -2.0358237431695829e+00
    1.2415021355023209e-02 -2.8099525500145623e+00
    1.3168390131903532e-02 -3.0276503540974922e+00
    1.0592648630969771e-02 -2.2583179581272437e+00
    1.0305895421210805e-02 -2.1664102412362571e+00
    1.3458672226586017e-02 -3.1104662029991594e+00
    1.1991413773130892e-02 -2.6854307776478725e+00
    1.0473872186026870e-02 -2.2204854324123708e+00
    1.0848310969695577e-02 -2.3387383286073216e+00
    1.1364171507044340e-02 -2.4974563330703532e+00
    1.3310737348646627e-02 -3.0683275813285422e+00
    1.2092293622452203e-02 -2.7152438232335299e+00
    1.1706710533978631e-02 -2.6006992066819974e+00
    1.7371330937854455e-02 -4.1910878529690070e+00
    1.7739805037379860e-02 -4.2905816516051640e+00
    1.4113933456217132e-02 -3.2956199888808646e+00
    1.0416567525440040e-02 -2.2021160433758138e+00
    1.0717315454064241e-02 -2.2976970567735622e+00
    1.0781992933504287e-02 -2.3180022278587669e+00
    9.6949708901119605e-03 -1.9627207461258276e+00
    8.5036659460560240e-03 -1.5031772965065777e+00
    7.8457410431681113e-03 -9.7456230662678367e-01
    7.8638887022489563e-03 -9.2985419338770448e-01
    8.2405222293349453e-03 -7.2833093427424078e-01
    7.9475878779535648e-03 -8.4957294774986059e-01
    7.8870575445534764e-03 -8.9962327331961833e-01
    8.1330976428983306e-03 -1.3113905684158080e+00
    8.3849259200458048e-03 -1.4471361022898726e+00
    9.5762915510885453e-03 -1.9215378456610459e+00
    9.7782532156120514e-03 -1.9912599727483511e+00
    1.1364171507044340e-02 -2.4974563330703532e+00
    1.0848310969695577e-02 -2.3387383286073216e+00
    1.1446178510597756e-02 -2.5223142083248145e+00
    1.0149103460850600e-02 -2.1152680620571411e+00
    1.2092293622452203e-02 -2.7152438232335299e+00
    9.4645866371326545e-03 -1.8821671529089445e+00
    1.0360589864969332e-02 -2.1840948400356308e+00
    1.1991413773130892e-02 -2.6854307776478725e+00
    1.3939735363265787e-02 -3.2466198638800527e+00
    1.2092293622452203e-02 -2.7152438232335299e+00
    1.0986121432440743e-02 -2.3815698604072071e+00
    1.0717315454064241e-02 -2.2976970567735622e+00
    1.2529881603701163e-02 -2.8434321484745735e+00
    1.3168390131903532e-02 -3.0276503540974922e+00
    1.0360589864969332e-02 -2.1840948400356308e+00
    1.0099143122902665e-02 -2.0988242639962120e+00
    1.0360589864969332e-02 -2.1840948400356308e+00
    1.0848310969695577e-02 -2.3387383286073216e+00
    1.1798760858291658e-02 -2.6281947050033048e+00
    1.4113933456217132e-02 -3.2956199888808646e+00
    1.5113298312323374e-02 -3.5741003830876212e+00
    1.2196410054563967e-02 -2.7459060435491969e+00
    1.1206815816655070e-02 -2.4494897427831797e+00
    1.6112978100913083e-02 -3.8490017945975050e+00
    1.0002467196234896e-02 -2.0667861375264751e+00
    1.1617340706626105e-02 -2.5739075352467511e+00
    1.2415021355023209e-02 -2.8099525500145623e+00
    9.5762915510885453e-03 -1.9215378456610459e+00
    1.1530533575028834e-02 -2.5477888590256921e+00
    1.0986121432440743e-02 -2.3815698604072071e+00
    8.9409293650336737e-03 -1.6872601597995631e+00
    7.8727488374738218e-03 -1.0907536796837265e+00
    7.8545399111067879e-03 -9.4751136023679305e-01
    8.3386380231114682e-03 -7.0214456702803940e-01
    8.0447656426551172e-03 -7.9750569005524852e-01
    7.8696183122639041e-03 -9.2113237294367667e-01
    7.8441913691806153e-03 -1.0165300454651274e+00
    8.4508712500464683e-03 -1.4787045560824870e+00
    9.1663529798726162e-03 -1.7735927006957271e+00
    1.0781992933504287e-02 -2.3180022278587669e+00
    1.1991413773130892e-02 -2.6854307776478725e+00
    1.2303927251879223e-02 -2.7774602993176543e+00
    1.0848310969695577e-02 -2.3387383286073216e+00
    8.7693509562001143e-03 -1.6182225025615644e+00
    9.6949708901119605e-03 -1.9627207461258276e+00
    9.6150487257731978e-03 -1.9350567031599994e+00
    1.4295871601842744e-02 -3.3466401061363014e+00
    1.3310737348646627e-02 -3.0683275813285422e+00
    1.0305895421210805e-02 -2.1664102412362571e+00
    1.0252442451773381e-02 -2.1490511982341371e+00
    1.2899176027661044e-02 -2.9503466668419573e+00
    1.2415021355023209e-02 -2.8099525500145623e+00
    1.4486116077311656e-02 -3.3998269852173011e+00
    1.4486116077311656e-02 -3.3998269852173011e+00
    1.4486116077311656e-02 -3.3998269852173011e+00
    1.1131287954095365e-02 -2.4263340195021690e+00
    1.0986121432440743e-02 -2.3815698604072071e+00
    1.1131287954095365e-02 -2.4263340195021690e+00
    1.0717315454064241e-02 -2.2976970567735622e+00
    1.0305895421210805e-02 -2.1664102412362571e+00
    1.4894096303626368e-02 -3.5133673306387960e+00
    1.2529881603701163e-02 -2.8434321484745735e+00
    1.1446178510597756e-02 -2.5223142083248145e+00
    1.4486116077311656e-02 -3.3998269852173011e+00
    1.1530533575028834e-02 -2.5477888590256921e+00
    1.0200191135444890e-02 -2.1320071635561044e+00
    1.1446178510597756e-02 -2.5223142083248145e+00
    9.0215357678969186e-03 -1.7186342553620020e+00
    1.0305895421210805e-02 -2.1664102412362571e+00
    1.1446178510597756e-02 -2.5223142083248145e+00
    8.7023049145396655e-03 -1.5902596076850821e+00
    7.9538614177779247e-03 -1.1827410555545885e+00
    7.8526396121990933e-03 -9.5197163823298847e-01
    9.2925129593639053e-03 -5.4938990552492217e-01
    8.0817842117573251e-03 -7.8187003697352475e-01
    7.8509132640760936e-03 -9.5645083840102674e-01
    7.8436750152078207e-03 -9.8835815970317753e-01
    8.0033103237524411e-03 -1.2235505806429960e+00
    9.5383087761848982e-03 -1.9082202042285596e+00
    1.1364171507044340e-02 -2.4974563330703532e+00
    1.1364171507044340e-02 -2.4974563330703532e+00
    1.1446178510597756e-02 -2.5223142083248145e+00
    9.4645866371326545e-03 -1.8821671529089445e+00
    9.3937301708549217e-03 -1.8568566629297649e+00
    1.1893617260623360e-02 -2.6564268809031613e+00
    1.2415021355023209e-02 -2.8099525500145623e+00
    1.0200191135444890e-02 -2.1320071635561044e+00
    1.5113298312323374e-02 -3.5741003830876212e+00
    1.0002467196234896e-02 -2.0667861375264751e+00
    1.0916331887965132e-02 -2.3599217718455767e+00
    9.6150487257731978e-03 -1.9350567031599994e+00
    1.1206815816655070e-02 -2.4494897427831797e+00
    1.1364171507044340e-02 -2.4974563330703532e+00
    1.0916331887965132e-02 -2.3599217718455767e+00
    1.0592648630969771e-02 -2.2583179581272437e+00
    1.0592648630969771e-02 -2.2583179581272437e+00
    9.4288092561849845e-03 -1.8694215260623437e+00
    1.0360589864969332e-02 -2.1840948400356308e+00
    1.2092293622452203e-02 -2.7152438232335299e+00
    1.2415021355023209e-02 -2.8099525500145623e+00
    1.2899176027661044e-02 -2.9503466668419573e+00
    1.1991413773130892e-02 -2.6854307776478725e+00
    1.0986121432440743e-02 -2.3815698604072071e+00
    1.1706710533978631e-02 -2.6006992066819974e+00
    1.1706710533978631e-02 -2.6006992066819974e+00
    1.0717315454064241e-02 -2.2976970567735622e+00
    1.0717315454064241e-02 -2.2976970567735622e+00
    9.2600603749484062e-03 -1.8083141320025125e+00
    1.0099143122902665e-02 -2.0988242639962120e+00
    9.7361803438834466e-03 -1.9768778356316037e+00
    9.3593320949881490e-03 -1.8444679058389994e+00
    8.0033103237524411e-03 -1.2235505806429960e+00
    7.8509132640760936e-03 -9.5645083840102674e-01
    1.0717315454064234e-02 -4.3521838401281926e-01
    7.9956427421295270e-03 -8.2128545824309385e-01
    7.8509132640760936e-03 -9.5645083840102674e-01
    7.8436750152078207e-03 -9.8835815970317753e-01
    7.9244154594654524e-03 -1.1547005383792517e+00
    8.5984302815813665e-03 -1.5456030825826179e+00
    9.5010802625328586e-03 -1.8950983746134040e+00
    1.1530533575028834e-02 -2.5477888590256921e+00
    9.7782532156120514e-03 -1.9912599727483511e+00
    1.0050275426404694e-02 -2.0826665599658529e+00
    9.1663529798726162e-03 -1.7735927006957271e+00
    1.1798760858291658e-02 -2.6281947050033048e+00
    1.4113933456217132e-02 -3.2956199888808646e+00
    1.2196410054563967e-02 -2.7459060435491969e+00
    1.0200191135444890e-02 -2.1320071635561044e+00
    1.1364171507044340e-02 -2.4974563330703532e+00
    1.3458672226586017e-02 -3.1104662029991594e+00
    1.1991413773130892e-02 -2.6854307776478725e+00
    1.1617340706626105e-02 -2.5739075352467511e+00
    1.0848310969695577e-02 -2.3387383286073216e+00
    1.0200191135444890e-02 -2.1320071635561044e+00
    1.1206815816655070e-02 -2.4494897427831797e+00
    1.0473872186026870e-02 -2.2204854324123708e+00
    1.2196410054563967e-02 -2.7459060435491969e+00
    1.0717315454064241e-02 -2.2976970567735622e+00
    1.2415021355023209e-02 -2.8099525500145623e+00
    1.2303927251879223e-02 -2.7774602993176543e+00
    1.3939735363265787e-02 -3.2466198638800527e+00
    1.0473872186026870e-02 -2.2204854324123708e+00
    1.1364171507044340e-02 -2.4974563330703532e+00
    1.1991413773130892e-02 -2.6854307776478725e+00
    1.0360589864969332e-02 -2.1840948400356308e+00
    1.0252442451773381e-02 -2.1490511982341371e+00
    1.3031303348907980e-02 -2.9883494705505136e+00
    1.0360589864969332e-02 -2.1840948400356308e+00
    1.0252442451773381e-02 -2.1490511982341371e+00
    1.0252442451773381e-02 -2.1490511982341371e+00
    1.0002467196234896e-02 -2.0667861375264751e+00
    8.0915912903913815e-03 -1.2853691738343032e+00
    7.8436750152078207e-03 -9.8835815970317753e-01
    1.3772763677245678e-02 -3.1254819679744877e-01
    8.1016237960492739e-03 -7.7411299971618353e-01
    7.8870575445534764e-03 -8.9962327331961833e-01
    7.8696183122639041e-03 -9.2113237294367667e-01
    7.8612884678419103e-03 -1.0703871464176316e+00
    8.2148980970180707e-03 -1.3589211407093007e+00
    9.6546012428727866e-03 -1.9487823913892401e+00
    9.5762915510885453e-03 -1.9215378456610459e+00
    9.0778341863704971e-03 -1.7402016799188689e+00
    8.9409293650336737e-03 -1.6872601597995631e+00
    9.7361803438834466e-03 -1.9768778356316037e+00
    1.3310737348646627e-02 -3.0683275813285422e+00
    1.0305895421210805e-02 -2.1664102412362571e+00
    1.1364171507044340e-02 -2.4974563330703532e+00
    1.2771730807537877e-02 -2.9135697844549520e+00
    1.2529881603701163e-02 -2.8434321484745735e+00
    1.1798760858291658e-02 -2.6281947050033048e+00
    1.1991413773130892e-02 -2.6854307776478725e+00
    1.2303927251879223e-02 -2.7774602993176543e+00
    1.0592648630969771e-02 -2.2583179581272437e+00
    1.3310737348646627e-02 -3.0683275813285422e+00
    1.1706710533978631e-02 -2.6006992066819974e+00
    1.1893617260623360e-02 -2.6564268809031613e+00
    1.1446178510597756e-02 -2.5223142083248145e+00
    1.0654219400704835e-02 -2.2778072344036171e+00
    1.2648711613411712e-02 -2.8779521704941797e+00
    1.3772763677245675e-02 -3.1995065409001984e+00
    1.2648711613411712e-02 -2.8779521704941797e+00
    1.0360589864969332e-02 -2.1840948400356308e+00
    9.2282256978328068e-03 -1.7965864221565369e+00
    1.1364171507044340e-02 -2.4974563330703532e+00
    1.1893617260623360e-02 -2.6564268809031613e+00
    1.1206815816655070e-02 -2.4494897427831797e+00
    1.0305895421210805e-02 -2.1664102412362571e+00
    9.5383087761848982e-03 -1.9082202042285596e+00
    1.1364171507044340e-02 -2.4974563330703532e+00
    1.0252442451773381e-02 -2.1490511982341371e+00
    1.0360589864969332e-02 -2.1840948400356308e+00
    8.3237895684937051e-03 -1.4167011870966746e+00
    7.8436750152078207e-03 -1.0117789691748169e+00
    1.3772763677245678e-02 -3.1254819679744877e-01
    8.3237895684937051e-03 -7.0586515286922025e-01
    7.8952941335394943e-03 -8.9113278867900692e-01
    7.8566145386947655e-03 -9.4306973812833772e-01
    7.8588639080823131e-03 -1.0653637876331257e+00
    8.1440559753666146e-03 -1.3180210495965103e+00
    8.7693509562001143e-03 -1.6182225025615644e+00
    1.0252442451773381e-02 -2.1490511982341371e+00
    1.0252442451773381e-02 -2.1490511982341371e+00
    8.9150422632344583e-03 -1.6770509831248428e+00
    1.1706710533978631e-02 -2.6006992066819974e+00
    1.2771730807537877e-02 -2.9135697844549520e+00
    1.3168390131903532e-02 -3.0276503540974922e+00
    1.3168390131903532e-02 -3.0276503540974922e+00
    1.0848310969695577e-02 -2.3387383286073216e+00
    1.1446178510597756e-02 -2.5223142083248145e+00
    1.2196410054563967e-02 -2.7459060435491969e+00
    1.5343760600737676e-02 -3.6377648815355470e+00
    1.1893617260623360e-02 -2.6564268809031613e+00
    1.3031303348907980e-02 -2.9883494705505136e+00
    1.3310737348646627e-02 -3.0683275813285422e+00
    1.2415021355023209e-02 -2.8099525500145623e+00
    1.3168390131903532e-02 -3.0276503540974922e+00
    1.0002467196234896e-02 -2.0667861375264751e+00
    1.2899176027661044e-02 -2.9503466668419573e+00
    1.3612551263638913e-02 -3.1541588337808757e+00
    1.0532549800248953e-02 -2.2392151542543322e+00
    1.0200191135444890e-02 -2.1320071635561044e+00
    1.1206815816655070e-02 -2.4494897427831797e+00
    1.0416567525440040e-02 -2.2021160433758138e+00
    1.1206815816655070e-02 -2.4494897427831797e+00
    1.1206815816655070e-02 -2.4494897427831797e+00
    1.1617340706626105e-02 -2.5739075352467511e+00
    9.5010802625328586e-03 -1.8950983746134040e+00
    1.1530533575028834e-02 -2.5477888590256921e+00
    1.0916331887965132e-02 -2.3599217718455767e+00
    1.0360589864969332e-02 -2.1840948400356308e+00
    1.0532549800248953e-02 -2.2392151542543322e+00
    7.9881789391201587e-03 -1.2116963697583434e+00
    7.8952941335394943e-03 -8.9113278867900692e-01
    2.2825266025279057e-02 -1.7720317769039831e-01
    9.0215357678969203e-03 -5.8185736545171240e-01
    8.0111833646487277e-03 -8.1331334627054408e-01
    7.8727488374738218e-03 -9.1679727387209786e-01
    7.8467746695533545e-03 -1.0309228547118108e+00
    7.9809172868405606e-03 -1.2058287558794349e+00
    8.1440559753666146e-03 -1.3180210495965103e+00
    8.4009502348522062e-03 -1.4549186647946619e+00
    9.1969945307735397e-03 -1.7850138682385412e+00
    9.6949708901119605e-03 -1.9627207461258276e+00
    9.2282256978328068e-03 -1.7965864221565369e+00
    1.1284414680788092e-02 -2.4731895735399378e+00
    1.2529881603701163e-02 -2.8434321484745735e+00
    1.1364171507044340e-02 -2.4974563330703532e+00
    1.2196410054563967e-02 -2.7459060435491969e+00
    1.2648711613411712e-02 -2.8779521704941797e+00
    1.1131287954095365e-02 -2.4263340195021690e+00
    1.1893617260623360e-02 -2.6564268809031613e+00
    1.1991413773130892e-02 -2.6854307776478725e+00
    1.1991413773130892e-02 -2.6854307776478725e+00
    1.2648711613411712e-02 -2.8779521704941797e+00
    1.0986121432440743e-02 -2.3815698604072071e+00
    1.4113933456217132e-02 -3.2956199888808646e+00
    1.2529881603701163e-02 -2.8434321484745735e+00
    1.0200191135444890e-02 -2.1320071635561044e+00
    1.0360589864969332e-02 -2.1840948400356308e+00
    9.5383087761848982e-03 -1.9082202042285596e+00
    1.2092293622452203e-02 -2.7152438232335299e+00
    1.0781992933504287e-02 -2.3180022278587669e+00
    9.5010802625328586e-03 -1.8950983746134040e+00
    1.1057749009718624e-02 -2.4037008503093271e+00
    1.0305895421210805e-02 -2.1664102412362571e+00
    1.1206815816655070e-02 -2.4494897427831797e+00
    1.0654219400704835e-02 -2.2778072344036171e+00
    1.1530533575028834e-02 -2.5477888590256921e+00
    9.1362876328198485e-03 -1.7623192760590325e+00
    9.9556866935841121e-03 -2.0511745594099819e+00
    9.2600603749484062e-03 -1.8083141320025125e+00
    7.9881789391201587e-03 -1.2116963697583434e+00
    8.2405222293349453e-03 -7.2833093427424078e-01
    2.1300679461903227e-02 -1.9080819424304413e-01
    1.5586448166217279e-02 -2.6993392081774420e-01
    8.1223745260253256e-03 -7.6639454251419292e-01
    7.9299227827528528e-03 -8.6189160737133463e-01
    7.8433308358700129e-03 -1.0070506161043875e+00
    7.8479810834830386e-03 -1.0357680888985636e+00
    8.0817842117573251e-03 -1.2789849370245931e+00
    8.2275809211426361e-03 -1.3659325796248278e+00
    8.5036659460560240e-03 -1.5031772965065777e+00
    9.1663529798726162e-03 -1.7735927006957271e+00
    1.0592648630969771e-02 -2.2583179581272437e+00
    1.0916331887965132e-02 -2.3599217718455767e+00
    9.1067855382823033e-03 -1.7511900715418265e+00
    9.6150487257731978e-03 -1.9350567031599994e+00
    1.1284414680788092e-02 -2.4731895735399378e+00
    8.2809304922394616e-03 -1.3945707533886174e+00
    9.5762915510885453e-03 -1.9215378456610459e+00
    1.3458672226586017e-02 -3.1104662029991594e+00
    1.4685292924903500e-02 -3.4553428106909947e+00
    9.9556866935841121e-03 -2.0511745594099819e+00
    1.1893617260623360e-02 -2.6564268809031613e+00
    1.2529881603701163e-02 -2.8434321484745735e+00
    1.0848310969695577e-02 -2.3387383286073216e+00
    1.4894096303626368e-02 -3.5133673306387960e+00
    1.2196410054563967e-02 -2.7459060435491969e+00
    1.2529881603701163e-02 -2.8434321484745735e+00
    1.0002467196234896e-02 -2.0667861375264751e+00
    9.8650886332120932e-03 -2.0207259421636903e+00
    9.0215357678969186e-03 -1.7186342553620020e+00
    1.0305895421210805e-02 -2.1664102412362571e+00
    1.1284414680788092e-02 -2.4731895735399378e+00
    1.1893617260623360e-02 -2.6564268809031613e+00
    1.1798760858291658e-02 -2.6281947050033048e+00
    1.1206815816655070e-02 -2.4494897427831797e+00
    8.8401875188659756e-03 -1.6471318946158713e+00
    1.0002467196234896e-02 -2.0667861375264751e+00
    9.5383087761848982e-03 -1.9082202042285596e+00
    8.5984302815813665e-03 -1.5456030825826179e+00
    7.9244154594654524e-03 -1.1547005383792517e+00
    1.3772763677245678e-02 -3.1254819679744877e-01
    1.8559894026340083e-02 -2.2167554926073635e-01
    1.7371330937854448e-02 -2.3860153618387900e-01
    8.3537741258714257e-03 -6.9843029576957827e-01
    8.0628373011742329e-03 -7.8966710991828204e-01
    7.8870575445534764e-03 -8.9962327331961833e-01
    7.8431587631905969e-03 -9.9766081550982966e-01
    7.9809172868405606e-03 -1.2058287558794349e+00
    7.9809172868405606e-03 -1.2058287558794349e+00
    8.2949396524380804e-03 -1.4018836534383936e+00
    8.2949396524380804e-03 -1.4018836534383936e+00
    8.9941657267620934e-03 -1.7080489432860377e+00
    1.0473872186026870e-02 -2.2204854324123708e+00
    1.0360589864969332e-02 -2.1840948400356308e+00
    1.0986121432440743e-02 -2.3815698604072071e+00
    1.0200191135444890e-02 -2.1320071635561044e+00
    1.0848310969695577e-02 -2.3387383286073216e+00
    1.1284414680788092e-02 -2.4731895735399378e+00
    1.3310737348646627e-02 -3.0683275813285422e+00
    1.3612551263638913e-02 -3.1541588337808757e+00
    1.2648711613411712e-02 -2.8779521704941797e+00
    9.7782532156120514e-03 -1.9912599727483511e+00
    1.0200191135444890e-02 -2.1320071635561044e+00
    1.1284414680788092e-02 -2.4731895735399378e+00
    1.1991413773130892e-02 -2.6854307776478725e+00
    1.3310737348646627e-02 -3.0683275813285422e+00
    1.5586448166217275e-02 -3.7046103615676609e+00
    1.1991413773130892e-02 -2.6854307776478725e+00
    1.0532549800248953e-02 -2.2392151542543322e+00
    1.1206815816655070e-02 -2.4494897427831797e+00
    1.1131287954095365e-02 -2.4263340195021690e+00
    1.1530533575028834e-02 -2.5477888590256921e+00
    1.1798760858291658e-02 -2.6281947050033048e+00
    1.0360589864969332e-02 -2.1840948400356308e+00
    1.0848310969695577e-02 -2.3387383286073216e+00
    9.6949708901119605e-03 -1.9627207461258276e+00
    1.0200191135444890e-02 -2.1320071635561044e+00
    8.5594747594796468e-03 -1.5283774075796854e+00
    9.0215357678969186e-03 -1.7186342553620020e+00
    7.8431587631905969e-03 -1.0023446691037725e+00
    1.2196410054563964e-02 -3.6417852036461484e-01
    2.2021588898744206e-02 -1.8411492357966469e-01
    1.8134894375809060e-02 -2.2742941307367101e-01
    1.1893617260623365e-02 -3.7644552055579572e-01
    8.1330976428983306e-03 -7.6254933052326623e-01
    7.9190967022654823e-03 -8.7017334255338741e-01
    7.8870575445534764e-03 -8.9962327331961833e-01
    7.8666651315520229e-03 -1.0805150116288669e+00
    7.9809172868405606e-03 -1.2058287558794349e+00
    7.9809172868405606e-03 -1.2058287558794349e+00
    8.2148980970180707e-03 -1.3589211407093007e+00
    8.4172794521458483e-03 -1.4627733530362592e+00
    9.0215357678969186e-03 -1.7186342553620020e+00
    9.9556866935841121e-03 -2.0511745594099819e+00
    1.0916331887965132e-02 -2.3599217718455767e+00
    9.4288092561849845e-03 -1.8694215260623437e+00
    1.0592648630969771e-02 -2.2583179581272437e+00
    9.5010802625328586e-03 -1.8950983746134040e+00
    9.6546012428727866e-03 -1.9487823913892401e+00
    1.1206815816655070e-02 -2.4494897427831797e+00
    1.4685292924903500e-02 -3.4553428106909947e+00
    1.0416567525440040e-02 -2.2021160433758138e+00
    1.1893617260623360e-02 -2.6564268809031613e+00
    1.3310737348646627e-02 -3.0683275813285422e+00
    1.1446178510597756e-02 -2.5223142083248145e+00
    1.0252442451773381e-02 -2.1490511982341371e+00
    1.0592648630969771e-02 -2.2583179581272437e+00
    1.0781992933504287e-02 -2.3180022278587669e+00
    1.0592648630969771e-02 -2.2583179581272437e+00
    1.1530533575028834e-02 -2.5477888590256921e+00
    9.3593320949881490e-03 -1.8444679058389994e+00
    1.1617340706626105e-02 -2.5739075352467511e+00
    1.1206815816655070e-02 -2.4494897427831797e+00
    9.8650886332120932e-03 -2.0207259421636903e+00
    8.7693509562001143e-03 -1.6182225025615644e+00
    9.0778341863704971e-03 -1.7402016799188689e+00
    8.6807622043837858e-03 -1.5811388300841895e+00
    8.2949396524380804e-03 -1.4018836534383936e+00
    8.5594747594796468e-03 -1.5283774075796854e+00
    8.6807622043837875e-03 -6.3245553203367599e-01
    1.2899176027661049e-02 -3.3894322021160883e-01
    2.2021588898744206e-02 -1.8411492357966469e-01
    2.1300679461903227e-02 -1.9080819424304413e-01
    1.7371330937854448e-02 -2.3860153618387900e-01
    8.8161405545994134e-03 -6.1072936207271811e-01
    8.1666888748890294e-03 -7.5106761619881079e-01
    7.9244154594654524e-03 -8.6602540378443882e-01
    7.9299227827528528e-03 -8.6189160737133463e-01
    7.8545399111067879e-03 -1.0553963170954377e+00
    7.9244154594654524e-03 -1.1547005383792517e+00
    8.5219266884934662e-03 -1.5114944209673364e+00
    8.7925311742848289e-03 -1.6277507946773200e+00
    8.2405222293349453e-03 -1.3730022342061703e+00
    1.0848310969695577e-02 -2.3387383286073216e+00
    1.0360589864969332e-02 -2.1840948400356308e+00
    1.1617340706626105e-02 -2.5739075352467511e+00
    1.2771730807537877e-02 -2.9135697844549520e+00
    1.0654219400704835e-02 -2.2778072344036171e+00
    1.0002467196234896e-02 -2.0667861375264751e+00
    1.1057749009718624e-02 -2.4037008503093271e+00
    1.0592648630969771e-02 -2.2583179581272437e+00
    9.6949708901119605e-03 -1.9627207461258276e+00
    1.1446178510597756e-02 -2.5223142083248145e+00
    1.3458672226586017e-02 -3.1104662029991594e+00
    1.2899176027661044e-02 -2.9503466668419573e+00
    1.0050275426404694e-02 -2.0826665599658529e+00
    1.1446178510597756e-02 -2.5223142083248145e+00
    1.0654219400704835e-02 -2.2778072344036171e+00
    1.1131287954095365e-02 -2.4263340195021690e+00
    1.1131287954095365e-02 -2.4263340195021690e+00
    8.5984302815813665e-03 -1.5456030825826179e+00
    1.2529881603701163e-02 -2.8434321484745735e+00
    9.8650886332120932e-03 -2.0207259421636903e+00
    1.0099143122902665e-02 -2.0988242639962120e+00
    9.5383087761848982e-03 -1.9082202042285596e+00
    9.2600603749484062e-03 -1.8083141320025125e+00
    8.8401875188659756e-03 -1.6471318946158713e+00
    8.3386380231114682e-03 -1.4242081288653849e+00
    7.8467746695533545e-03 -1.0309228547118108e+00
    1.0360589864969334e-02 -4.5785557553154876e-01
    1.3772763677245678e-02 -3.1254819679744877e-01
    2.2021588898744206e-02 -1.8411492357966469e-01
    2.1300679461903227e-02 -1.9080819424304413e-01
    2.0057246204618673e-02 -2.0362567282674932e-01
    1.5113298312323381e-02 -2.7979068655483919e-01
    8.4172794521458500e-03 -6.8363290726093229e-01
    8.0628373011742329e-03 -7.8966710991828204e-01
    7.9669941806594525e-03 -8.3737400193910128e-01
    7.8696183122639041e-03 -9.2113237294367667e-01
    7.8566145386947655e-03 -1.0603669692388273e+00
    7.8870575445534781e-03 -1.1115764005415183e+00
    8.2148980970180707e-03 -1.3589211407093007e+00
    8.2024705525297580e-03 -1.3519669261991671e+00
    8.6184509962225885e-03 -1.5543487382180365e+00
    9.0778341863704971e-03 -1.7402016799188689e+00
    9.2282256978328068e-03 -1.7965864221565369e+00
    9.7361803438834466e-03 -1.9768778356316037e+00
    1.2899176027661044e-02 -2.9503466668419573e+00
    1.1364171507044340e-02 -2.4974563330703532e+00
    1.3031303348907980e-02 -2.9883494705505136e+00
    1.2415021355023209e-02 -2.8099525500145623e+00
    1.1706710533978631e-02 -2.6006992066819974e+00
    1.1798760858291658e-02 -2.6281947050033048e+00
    1.3458672226586017e-02 -3.1104662029991594e+00
    1.2899176027661044e-02 -2.9503466668419573e+00
    1.1893617260623360e-02 -2.6564268809031613e+00
    9.5762915510885453e-03 -1.9215378456610459e+00
    9.4645866371326545e-03 -1.8821671529089445e+00
    1.2092293622452203e-02 -2.7152438232335299e+00
    1.1617340706626105e-02 -2.5739075352467511e+00
    1.0717315454064241e-02 -2.2976970567735622e+00
    1.1364171507044340e-02 -2.4974563330703532e+00
    9.6546012428727866e-03 -1.9487823913892401e+00
    8.6596102748975421e-03 -1.5721147271898301e+00
    8.6388421333791505e-03 -1.5631853335726933e+00
    9.0494214901156340e-03 -1.7293508046684678e+00
    8.4172794521458483e-03 -1.4627733530362592e+00
    8.0628373011742329e-03 -1.2663564018811473e+00
    8.3237895684937051e-03 -7.0586515286922025e-01
    1.3458672226586012e-02 -3.2149521478027476e-01
    1.3612551263638920e-02 -3.1704173844704697e-01
    2.8922490667591210e-02 -1.3817770717069336e-01
    2.1300679461903227e-02 -1.9080819424304413e-01
    2.0057246204618673e-02 -2.0362567282674932e-01
    1.8559894026340083e-02 -2.2167554926073635e-01
    1.0654219400704832e-02 -4.3901871277611593e-01
    8.1783689278754814e-03 -7.4725776047087100e-01
    7.9956427421295270e-03 -8.2128545824309385e-01
    7.9881789391201604e-03 -8.2528925971729705e-01
    7.8588639080823131e-03 -9.3864650892786416e-01
    7.8493605238563902e-03 -1.0406377031744971e+00
    7.8566145386947655e-03 -1.0603669692388273e+00
    8.0536931145575048e-03 -1.2601106252543017e+00
    8.1440559753666146e-03 -1.3180210495965103e+00
    8.9409293650336737e-03 -1.6872601597995631e+00
    9.7782532156120514e-03 -1.9912599727483511e+00
    9.1362876328198485e-03 -1.7623192760590325e+00
    9.5010802625328586e-03 -1.8950983746134040e+00
    1.0200191135444890e-02 -2.1320071635561044e+00
    9.4288092561849845e-03 -1.8694215260623437e+00
    9.2600603749484062e-03 -1.8083141320025125e+00
    1.0002467196234896e-02 -2.0667861375264751e+00
    1.0305895421210805e-02 -2.1664102412362571e+00
    9.8212141011181347e-03 -2.0058737277716920e+00
    1.0781992933504287e-02 -2.3180022278587669e+00
    1.0099143122902665e-02 -2.0988242639962120e+00
    9.6546012428727866e-03 -1.9487823913892401e+00
    8.6388421333791505e-03 -1.5631853335726933e+00
    1.1446178510597756e-02 -2.5223142083248145e+00
    9.7361803438834466e-03 -1.9768778356316037e+00
    8.9409293650336737e-03 -1.6872601597995631e+00
    8.5219266884934662e-03 -1.5114944209673364e+00
    8.8896292522032769e-03 -1.6669616258171345e+00
    8.7242456148386091e-03 -1.5994790818680107e+00
    9.2282256978328068e-03 -1.7965864221565369e+00
    8.8646807598898800e-03 -1.6569894492988542e+00
    7.9299227827528546e-03 -1.1602387022306431e+00
    7.8479810834830386e-03 -9.6546708738961129e-01
    9.2600603749484062e-03 -5.5300126360933111e-01
    1.3168390131903527e-02 -3.3028912953790812e-01
    2.1300679461903227e-02 -1.9080819424304413e-01
    2.2021588898744206e-02 -1.8411492357966469e-01
    2.1300679461903227e-02 -1.9080819424304413e-01
    1.9018699326583996e-02 -2.1579765395152098e-01
    1.8559894026340083e-02 -2.2167554926073635e-01
    1.6112978100913083e-02 -2.5980762113533157e-01
    1.1446178510597762e-02 -3.9646131187761330e-01
    8.2949396524380804e-03 -7.1332595793331699e-01
    7.9809172868405623e-03 -8.2930515226490809e-01
    7.9356198228897890e-03 -8.5777173987231425e-01
    7.8638887022489563e-03 -9.2985419338770448e-01
    7.8431587631905969e-03 -9.9766081550982966e-01
    7.8727488374738218e-03 -1.0907536796837265e+00
    8.3692020080730952e-03 -1.4394243453697615e+00
    8.7242456148386091e-03 -1.5994790818680107e+00
    8.8896292522032769e-03 -1.6669616258171345e+00
    8.8401875188659756e-03 -1.6471318946158713e+00
    9.7361803438834466e-03 -1.9768778356316037e+00
    9.2925129593639053e-03 -1.8202008991128737e+00
    1.0592648630969771e-02 -2.2583179581272437e+00
    9.4288092561849845e-03 -1.8694215260623437e+00
    1.0986121432440743e-02 -2.3815698604072071e+00
    1.0305895421210805e-02 -2.1664102412362571e+00
    9.6949708901119605e-03 -1.9627207461258276e+00
    9.0778341863704971e-03 -1.7402016799188689e+00
    9.4288092561849845e-03 -1.8694215260623437e+00
    1.0252442451773381e-02 -2.1490511982341371e+00
    1.0473872186026870e-02 -2.2204854324123708e+00
    1.0717315454064241e-02 -2.2976970567735622e+00
    8.9941657267620934e-03 -1.7080489432860377e+00
    8.7023049145396655e-03 -1.5902596076850821e+00
    8.4339182021901382e-03 -1.4707015206910485e+00
    9.1969945307735397e-03 -1.7850138682385412e+00
    9.3593320949881490e-03 -1.8444679058389994e+00
    9.2600603749484062e-03 -1.8083141320025125e+00
    8.0817842117573251e-03 -1.2789849370245931e+00
    7.8696183122639041e-03 -9.2113237294367667e-01
    8.3386380231114682e-03 -7.0214456702803940e-01
    1.0592648630969767e-02 -4.4280744277004769e-01
    1.3168390131903527e-02 -3.3028912953790812e-01
    2.1300679461903227e-02 -1.9080819424304413e-01
    2.8922490667591210e-02 -1.3817770717069336e-01
    2.2021588898744206e-02 -1.8411492357966469e-01
    1.9515954100944644e-02 -2.0978508038251972e-01
    1.8559894026340083e-02 -2.2167554926073635e-01
    1.7371330937854448e-02 -2.3860153618387900e-01
    1.7026663404507349e-02 -2.4403555043462524e-01
    1.0200191135444890e-02 -4.6904157598234292e-01
    8.2024705525297580e-03 -7.3966306469592125e-01
    7.9881789391201604e-03 -8.2528925971729705e-01
    7.9475878779535648e-03 -8.4957294774986059e-01
    7.8832109667907081e-03 -9.0389229258565118e-01
    7.8696183122639041e-03 -1.0856202966836190e+00
    7.8588639080823131e-03 -1.0653637876331257e+00
    8.0192635993279887e-03 -1.2355675695545396e+00
    8.1552521513746697e-03 -1.3247032534410939e+00
    9.0215357678969186e-03 -1.7186342553620020e+00
    9.0494214901156340e-03 -1.7293508046684678e+00
    9.7782532156120514e-03 -1.9912599727483511e+00
    9.9556866935841121e-03 -2.0511745594099819e+00
    1.1364171507044340e-02 -2.4974563330703532e+00
    1.0916331887965132e-02 -2.3599217718455767e+00
    9.9556866935841121e-03 -2.0511745594099819e+00
    9.3593320949881490e-03 -1.8444679058389994e+00
    1.0050275426404694e-02 -2.0826665599658529e+00
    8.8161405545994116e-03 -1.6373864793501318e+00
    9.5383087761848982e-03 -1.9082202042285596e+00
    8.9673004465882587e-03 -1.6975918772832830e+00
    9.7361803438834466e-03 -1.9768778356316037e+00
    9.7782532156120514e-03 -1.9912599727483511e+00
    9.7361803438834466e-03 -1.9768778356316037e+00
    9.0215357678969186e-03 -1.7186342553620020e+00
    9.2600603749484062e-03 -1.8083141320025125e+00
    8.9941657267620934e-03 -1.7080489432860377e+00
    8.2405222293349453e-03 -1.3730022342061703e+00
    7.8448799997998999e-03 -9.7914023323029431e-01
    8.5219266884934679e-03 -6.6159688459849753e-01
    9.1362876328198468e-03 -5.6743407031002890e-01
    1.1206815816655063e-02 -4.0824829046386302e-01
    2.0057246204618673e-02 -2.0362567282674932e-01
    2.0649369343706349e-02 -1.9730544946679601e-01
    3.0882612303091823e-02 -1.2909944487358058e-01
    2.5931023998650212e-02 -1.5485740327062772e-01
    1.9515954100944644e-02 -2.0978508038251972e-01
    1.9018699326583996e-02 -2.1579765395152098e-01
    1.7026663404507349e-02 -2.4403555043462524e-01
    1.7026663404507349e-02 -2.4403555043462524e-01
    1.7026663404507349e-02 -2.4403555043462524e-01
    1.0916331887965133e-02 -4.2374285958553176e-01
    8.2275809211426361e-03 -7.3210055526654438e-01
    8.0447656426551172e-03 -7.9750569005524852e-01
    8.0447656426551172e-03 -7.9750569005524852e-01
    7.8457410431681113e-03 -9.7456230662678367e-01
    7.8760573371810839e-03 -1.0959155660154896e+00
    7.9809172868405606e-03 -1.2058287558794349e+00
    8.2024705525297580e-03 -1.3519669261991671e+00
    8.7242456148386091e-03 -1.5994790818680107e+00
    8.8646807598898800e-03 -1.6569894492988542e+00
    8.8401875188659756e-03 -1.6471318946158713e+00
    1.0099143122902665e-02 -2.0988242639962120e+00
    9.9556866935841121e-03 -2.0511745594099819e+00
    9.1362876328198485e-03 -1.7623192760590325e+00
    9.5383087761848982e-03 -1.9082202042285596e+00
    8.3692020080730952e-03 -1.4394243453697615e+00
    9.4288092561849845e-03 -1.8694215260623437e+00
    1.0360589864969332e-02 -2.1840948400356308e+00
    9.5010802625328586e-03 -1.8950983746134040e+00
    9.6949708901119605e-03 -1.9627207461258276e+00
    1.0050275426404694e-02 -2.0826665599658529e+00
    8.9409293650336737e-03 -1.6872601597995631e+00
    8.9150422632344583e-03 -1.6770509831248428e+00
    9.0494214901156340e-03 -1.7293508046684678e+00
    8.1902951723533089e-03 -1.3450689671224256e+00
    8.1330976428983306e-03 -1.3113905684158080e+00
    7.8436750152078207e-03 -9.8835815970317753e-01
    8.4339182021901399e-03 -6.7994762086743687e-01
    8.7925311742848324e-03 -6.1434465476531142e-01
    1.0592648630969767e-02 -4.4280744277004769e-01
    1.6112978100913083e-02 -2.5980762113533157e-01
    2.0057246204618673e-02 -2.0362567282674932e-01
    2.5931023998650212e-02 -1.5485740327062772e-01
    2.8922490667591210e-02 -1.3817770717069336e-01
    2.5931023998650212e-02 -1.5485740327062772e-01
    2.4753960106601792e-02 -1.6261090889699772e-01
    1.9018699326583996e-02 -2.1579765395152098e-01
    1.8134894375809060e-02 -2.2742941307367101e-01
    1.8134894375809060e-02 -2.2742941307367101e-01
    1.8134894375809060e-02 -2.2742941307367101e-01
    1.8134894375809060e-02 -2.2742941307367101e-01
    1.0252442451773380e-02 -4.6532162696807516e-01
    8.4508712500464683e-03 -6.7626761267936253e-01
    8.2949396524380804e-03 -7.1332595793331699e-01
    8.0722002851463994e-03 -7.8576347740541008e-01
    7.9603297257738268e-03 -8.4142735871850505e-01
    7.8832109667907081e-03 -1.1063265039459793e+00
    7.9139654037998393e-03 -1.1437255388020797e+00
    8.1440559753666146e-03 -1.3180210495965103e+00
    8.5594747594796468e-03 -1.5283774075796854e+00
    9.0494214901156340e-03 -1.7293508046684678e+00
    8.7465917395597986e-03 -1.6087993330796877e+00
    9.8650886332120932e-03 -2.0207259421636903e+00
    9.1067855382823033e-03 -1.7511900715418265e+00
    9.1969945307735397e-03 -1.7850138682385412e+00
    9.0215357678969186e-03 -1.7186342553620020e+00
    1.0532549800248953e-02 -2.2392151542543322e+00
    9.5383087761848982e-03 -1.9082202042285596e+00
    1.0200191135444890e-02 -2.1320071635561044e+00
    8.8401875188659756e-03 -1.6471318946158713e+00
    9.7361803438834466e-03 -1.9768778356316037e+00
    8.9941657267620934e-03 -1.7080489432860377e+00
    9.0215357678969186e-03 -1.7186342553620020e+00
    8.2949396524380804e-03 -1.4018836534383936e+00
    7.9669941806594542e-03 -1.1942095141290594e+00
    7.8479810834830386e-03 -1.0357680888985636e+00
    8.4857399998092015e-03 -6.6892273628472532e-01
    8.8646807598898782e-03 -6.0350414447306500e-01
    9.5383087761848982e-03 -5.2404853369858950e-01
    1.4113933456217132e-02 -3.0343304245450420e-01
    1.7026663404507349e-02 -2.4403555043462524e-01
    2.4753960106601792e-02 -1.6261090889699772e-01
    3.3317393754838991e-02 -1.1938082539790083e-01
    3.0882612303091823e-02 -1.2909944487358058e-01
    2.7300983907844367e-02 -1.4673479641335557e-01
    2.5931023998650212e-02 -1.5485740327062772e-01
    2.2825266025279057e-02 -1.7720317769039831e-01
    1.8559894026340083e-02 -2.2167554926073635e-01
    1.9018699326583996e-02 -2.1579765395152098e-01
    1.9018699326583996e-02 -2.1579765395152098e-01
    1.9018699326583996e-02 -2.1579765395152098e-01
    1.9515954100944644e-02 -2.0978508038251972e-01
    2.0057246204618673e-02 -2.0362567282674932e-01
    9.6546012428727866e-03 -5.1314092554332058e-01
    8.7465917395597986e-03 -6.2158156050806113e-01
    8.2024705525297580e-03 -7.3966306469592125e-01
    8.0447656426551172e-03 -7.9750569005524852e-01
    7.8526396121990933e-03 -9.5197163823298847e-01
    7.8795444786506144e-03 -1.1011063677777100e+00
    7.9356198228897872e-03 -1.1658113149645815e+00
    8.1440559753666146e-03 -1.3180210495965103e+00
    9.1663529798726162e-03 -1.7735927006957271e+00
    9.2600603749484062e-03 -1.8083141320025125e+00
    9.1067855382823033e-03 -1.7511900715418265e+00
    1.0099143122902665e-02 -2.0988242639962120e+00
    9.5010802625328586e-03 -1.8950983746134040e+00
    9.8212141011181347e-03 -2.0058737277716920e+00
    9.8212141011181347e-03 -2.0058737277716920e+00
    1.0252442451773381e-02 -2.1490511982341371e+00
    1.0050275426404694e-02 -2.0826665599658529e+00
    9.3255983746495050e-03 -1.8322507626258087e+00
    8.3237895684937051e-03 -1.4167011870966746e+00
    7.9603297257738286e-03 -1.1884567213538211e+00
    7.8566145386947655e-03 -1.0603669692388273e+00
    8.0447656426551172e-03 -7.9750569005524852e-01
    8.6388421333791540e-03 -6.3971941043899028e-01
    8.9150422632344566e-03 -5.9628479399994405e-01
    9.9556866935841121e-03 -4.8752554745396670e-01
    1.8134894375809060e-02 -2.2742941307367101e-01
    1.7739805037379864e-02 -2.3306863292670033e-01
    2.0057246204618673e-02 -2.0362567282674932e-01
    2.4753960106601792e-02 -1.6261090889699772e-01
    2.8922490667591210e-02 -1.3817770717069336e-01 1. 0.
    4.6950923489667236e-02 -8.4115823113806637e-02
    4.0708726385360119e-02 -9.7243327665263044e-02
    3.6454107248355724e-02 -1.0885008604602704e-01
    3.3317393754838991e-02 -1.1938082539790083e-01
    2.4753960106601792e-02 -1.6261090889699772e-01
    2.4753960106601792e-02 -1.6261090889699772e-01
    2.3728649601981663e-02 -1.7004606037954073e-01
    2.3728649601981663e-02 -1.7004606037954073e-01
    2.3728649601981663e-02 -1.7004606037954073e-01
    1.9515954100944644e-02 -2.0978508038251972e-01
    1.5113298312323381e-02 -2.7979068655483919e-01
    9.1663529798726179e-03 -5.6382730917178991e-01
    8.2537253176242359e-03 -7.2456883730947186e-01
    8.1118840709219469e-03 -7.7024903900592578e-01
    7.9475878779535648e-03 -8.4957294774986059e-01
    7.8493605238563902e-03 -9.6094923040888236e-01
    7.8448799997998999e-03 -1.0213041667186802e+00
    7.9190967022654823e-03 -1.1491963165243106e+00
    7.8727488374738218e-03 -1.0907536796837265e+00
    8.3386380231114682e-03 -1.4242081288653849e+00
    8.7465917395597986e-03 -1.6087993330796877e+00
    9.0494214901156340e-03 -1.7293508046684678e+00
    8.9150422632344583e-03 -1.6770509831248428e+00
    8.6184509962225885e-03 -1.5543487382180365e+00
    8.6596102748975421e-03 -1.5721147271898301e+00
    8.1118840709219452e-03 -1.2982813990791702e+00
    8.1783689278754814e-03 -1.3382263161373766e+00
    7.8666651315520229e-03 -1.0805150116288669e+00
    8.0275528172657814e-03 -8.0538726625682922e-01
    8.5219266884934679e-03 -6.6159688459849753e-01
    9.0778341863704953e-03 -5.7464603760560773e-01
    1.0532549800248953e-02 -4.4658504480915057e-01
    1.1893617260623365e-02 -3.7644552055579572e-01
    2.0057246204618673e-02 -2.0362567282674932e-01
    2.0057246204618673e-02 -2.0362567282674932e-01
    2.5931023998650212e-02 -1.5485740327062772e-01
    2.5931023998650212e-02 -1.5485740327062772e-01
    3.3317393754838991e-02 -1.1938082539790083e-01
    4.0708726385360119e-02 -9.7243327665263044e-02
    8.1130265093574294e-02 -4.8450158311150925e-02
    4.0708726385360119e-02 -9.7243327665263044e-02
    4.0708726385360119e-02 -9.7243327665263044e-02
    4.0708726385360119e-02 -9.7243327665263044e-02
    4.0708726385360119e-02 -9.7243327665263044e-02
    4.6950923489667236e-02 -8.4115823113806637e-02
    2.7300983907844367e-02 -1.4673479641335557e-01
    2.7300983907844367e-02 -1.4673479641335557e-01
    2.7300983907844367e-02 -1.4673479641335557e-01
    2.5931023998650212e-02 -1.5485740327062772e-01
    2.5931023998650212e-02 -1.5485740327062772e-01
    2.5931023998650212e-02 -1.5485740327062772e-01
    2.0649369343706349e-02 -1.9730544946679601e-01
    1.5586448166217279e-02 -2.6993392081774420e-01
    9.3937301708549269e-03 -5.3854453063824026e-01
    8.8646807598898782e-03 -6.0350414447306500e-01
    8.1330976428983306e-03 -7.6254933052326623e-01
    8.0536931145575065e-03 -7.9358111895786210e-01
    8.0033103237524394e-03 -8.1729355191387620e-01
    7.9956427421295270e-03 -8.2128545824309385e-01
    7.9139654037998393e-03 -8.7433563916687917e-01
    7.9475878779535648e-03 -8.4957294774986059e-01
    8.2275809211426361e-03 -7.3210055526654438e-01
    8.0447656426551172e-03 -7.9750569005524852e-01
    7.8566145386947655e-03 -9.4306973812833772e-01
    7.8952941335394943e-03 -8.9113278867900692e-01
    7.8832109667907081e-03 -9.0389229258565118e-01
    8.2949396524380804e-03 -7.1332595793331699e-01
    8.8646807598898782e-03 -6.0350414447306500e-01
    8.9150422632344566e-03 -5.9628479399994405e-01
    9.4288092561849845e-03 -5.3492483426482729e-01
    9.9556866935841121e-03 -4.8752554745396670e-01
    2.0649369343706349e-02 -1.9730544946679601e-01
    2.0649369343706349e-02 -1.9730544946679601e-01
    2.0649369343706349e-02 -1.9730544946679601e-01
    2.4753960106601792e-02 -1.6261090889699772e-01
    2.7300983907844367e-02 -1.4673479641335557e-01
    2.7300983907844367e-02 -1.4673479641335557e-01
    3.6454107248355724e-02 -1.0885008604602704e-01
    4.0708726385360119e-02 -9.7243327665263044e-02</input_scale>
  <output_scale>
    1.0526315789473684e+00 0.</output_scale>
  <inv_output_scale>
    9.4999999999999996e-01 0.</inv_output_scale>
  <weights>
    <_>
      -1.1719048386403424e-03 -2.2903224389177911e-04
      -9.9637750405231888e-04 -5.5088375721748159e-04
      2.2039270841974236e-04 1.2144499427915077e-03
      9.9728247011042037e-04 2.0453599492093418e-04
      -7.2831549546728146e-04 -4.2920232853557353e-04
      -1.1054717958401724e-03 -1.2409612586460942e-04
      -2.1397120762249158e-05 -7.8018402384446585e-04
      6.7194088742161514e-04 -1.1208781013474275e-03
      1.1037170489498088e-03 1.0083693640301039e-03
      -2.5698247005999147e-04 -3.4383640164285737e-05
      3.0002183913935715e-04 -7.7645728251324352e-04
      -6.5397802009701264e-04 9.5527311481024093e-04
      -1.0954164450422850e-03 -3.1663012947851025e-04
      6.1523554708813478e-04 -6.3403300196013517e-04
      1.0630743572223426e-03 -2.4215284090006096e-04
      1.2150750992007805e-03 -3.7732545206526025e-04
      2.2581237915161135e-04 8.1166924113520002e-04
      1.1322676431532379e-03 5.1786688077618958e-04
      8.1904968067006900e-04 5.2277548999592920e-04
      1.2256443938238879e-03 -1.5902424652943092e-04
      9.4722363787483332e-02 2.0512223952574234e-02
      1.8169036918437232e-02 1.3526861234182792e-02
      -1.8063093566810125e-02 1.0420300326006807e-02
      -1.5016157150876041e-02 -1.5946358859859625e-02
      -1.9618808167881458e-03 2.0336994137022012e-02
      1.2881786911791813e-02 1.7027222172793292e-02
      1.4297949757321573e-02 -1.4309229240967872e-02
      -2.4933877557906867e-03 1.4046966980105777e-02
      -3.8684429237747309e-03 1.5881929231543378e-02
      -2.3761165794452897e-02 2.3051978393262326e-02
      -1.5285764194576900e-02 1.0978653249231680e-02
      3.1562778487288917e-03 1.9902699498907793e-02
      1.3623929467778064e-02 -9.9979550583620090e-03
      2.2220812575570837e-02 -2.2749321439792740e-02
      1.4524062585829688e-02 1.3099229957759188e-02
      -1.8102163385791500e-02 -2.1206427122436599e-02
      2.1240120911093542e-02 1.4459878488349133e-02
      1.5189516486815369e-02 9.7317937049970441e-03
      1.9645136474162252e-02 1.4373072676430869e-02
      -1.9772562842703345e-02 -1.8826699702762389e-02
      8.1279238447344845e-02 2.0607057122687244e-02
      1.8543838697781603e-02 1.2966624730483963e-02
      -1.7186419333438899e-02 1.2503754846389527e-02
      -1.3902072329443864e-02 -1.6417958578575462e-02
      -2.0034647218992656e-03 2.0557822349043055e-02
      1.2598766305997237e-02 1.4896850944132524e-02
      1.4222437179409181e-02 -1.5210374861682413e-02
      1.9932193532907453e-03 1.2349058230785010e-02
      -3.9222597430050654e-03 1.6266070541896126e-02
      -2.3721972256217479e-02 2.2880606005838813e-02
      -1.4776148950639606e-02 1.0977767667074931e-02
      3.0133662862373654e-03 1.9689297172742506e-02
      1.2901912747874635e-02 -7.9543234109520494e-03
      2.1918424765658723e-02 -2.2832086467815725e-02
      1.5033043678374930e-02 1.2965439974273300e-02
      -1.7154231414876670e-02 -2.2194376005677679e-02
      2.1389658542581978e-02 1.2950459845355561e-02
      1.5844567899942173e-02 1.1017763507158475e-02
      1.7723485453214432e-02 1.4956922471239477e-02
      -2.0018435689217368e-02 -1.7808731816747501e-02
      5.5800629304840726e-02 6.4308221967743816e-03
      5.7582847600645233e-03 6.1034589152432640e-03
      -4.4147577211713649e-03 5.8981601863693188e-03
      -5.4323104483939245e-03 -5.3291407663934144e-03
      -4.4922890329018609e-03 5.4862273864385884e-03
      6.6392812064003997e-03 5.1411921463531147e-03
      6.8530039041780023e-03 -6.0244463976073387e-03
      -4.3109086919671637e-03 7.1304448664222652e-03
      -4.3359640157479397e-03 5.8206831653942409e-03
      -7.1215873852305033e-03 4.9961113196328412e-03
      -4.1597431450154342e-03 5.4535348675414782e-03
      6.0934612451123745e-03 4.9537751187104786e-03
      7.7605953065985785e-03 -5.5997369947243881e-03
      5.8011177718682912e-03 -6.9980755514564997e-03
      7.5424078941030703e-03 7.0965096013043735e-03
      -3.9004593648013864e-03 -4.9682807323850192e-03
      7.2096240617540398e-03 5.3163561400225009e-03
      6.0070573066349307e-03 5.9915587498331870e-03
      6.1679369485356074e-03 6.7026311798960110e-03
      -3.7201801369783605e-03 -5.8384791409301770e-03
      5.9135737094566998e-01 1.1453126617027789e-02
      1.0721317340490401e-02 4.4735122863887922e-02
      -1.1332325887789277e-02 3.7817801132455246e-02
      -4.1526235970188542e-02 -9.2313401372985607e-03
      -2.9399631133320399e-02 1.1531013884920640e-02
      4.1131103050357824e-02 9.3806768722598591e-03
      4.2639238827799887e-02 -4.9936432170066554e-02
      -2.5790254429549103e-02 4.1574684533568891e-02
      -2.8423473499250465e-02 1.6903885288914504e-02
      -1.1934173092133890e-02 1.1652050045624637e-02
      -1.1284601039177278e-02 3.4653839557302085e-02
      2.7863450090410115e-02 1.1413009000345118e-02
      4.2303135092675526e-02 -3.3536211565122209e-02
      1.1313992189566590e-02 -1.1429481473799637e-02
      4.4158325107931821e-02 3.9633424803245908e-02
      -8.4288698326424865e-03 -1.1135056509740164e-02
      1.1383996987856054e-02 4.9923589712759904e-02
      4.3973392981280543e-02 3.5211002449021395e-02
      1.0559991561805673e-02 4.1267040193613005e-02
      -9.5327753563351821e-03 -9.9037759659066377e-03
      5.9178313511163660e-01 1.0082133964574705e-02
      1.1572084410644664e-02 4.5365051517698055e-02
      -1.0188239669039218e-02 3.6468400109662728e-02
      -4.2037064033753707e-02 -9.6888507154248207e-03
      -2.9246765982998212e-02 1.1745188136912194e-02
      3.9890478719669026e-02 8.9723978884113723e-03
      4.2833113838661889e-02 -5.0342629568967699e-02
      -2.4190677157987183e-02 4.2032982754001677e-02
      -2.9123216986389290e-02 1.5506291406574212e-02
      -1.3857790607080384e-02 1.1500255957278719e-02
      -1.1275016760689378e-02 3.6044424044450116e-02
      2.9291021251972658e-02 1.1525853226422276e-02
      4.0312735478841288e-02 -3.4231526001023596e-02
      1.2915564718796990e-02 -1.2185870598106276e-02
      4.4652261805796727e-02 3.9908259717276663e-02
      -9.0758534796565073e-03 -1.1233723528355557e-02
      1.2861034360535293e-02 5.0822610472802114e-02
      4.5183134517231965e-02 3.5117176180087507e-02
      1.1338884494983451e-02 4.1253833465603455e-02
      -8.4771248001471854e-03 -1.1329428520890387e-02
      6.2517010357900094e-01 9.1324166937723356e-03
      1.0247873184071828e-02 4.9230692032983289e-02
      -1.0153447338700619e-02 3.6101937467425467e-02
      -4.4960240535204365e-02 -9.8937125997413614e-03
      -2.6465108495941782e-02 1.0733643490902662e-02
      4.2122828918567244e-02 9.1514429975822383e-03
      4.3507620709351671e-02 -5.3326488962119598e-02
      -2.3388329431131755e-02 4.4766160594133887e-02
      -2.9203383307757475e-02 1.4958326036713949e-02
      -1.1433957712912174e-02 1.1500396140806109e-02
      -9.3955485626872736e-03 3.5900494489019080e-02
      2.8794497845709408e-02 8.7598506431992053e-03
      4.1483708493207878e-02 -3.2470608293528380e-02
      1.0706506979176486e-02 -9.6518314265004145e-03
      4.7481720189328232e-02 4.1136312856388975e-02
      -7.3983358842252354e-03 -9.8913738995962674e-03
      1.1143955127924623e-02 5.3437096693481102e-02
      4.9484883670082594e-02 3.5228900179476802e-02
      8.8165491288474829e-03 4.3608179519364326e-02
      -8.7952790788549968e-03 -9.0437422459931499e-03
      6.2536365984004050e-01 9.1148736660116320e-03
      8.0192976521343187e-03 4.7939490219482489e-02
      -1.0034834578473241e-02 3.7662386378667798e-02
      -4.3370857857052428e-02 -8.5572779474064001e-03
      -2.6063582125831524e-02 1.0470690176139337e-02
      4.3614029157184632e-02 9.9073923751580133e-03
      4.2561502794280129e-02 -5.2798128683685275e-02
      -2.3202672343755129e-02 4.3003190167585602e-02
      -2.9429546345217442e-02 1.6333024309015606e-02
      -1.1719210242366428e-02 1.1137497944160126e-02
      -8.9574552960222584e-03 3.4264454784228709e-02
      2.8437994614090231e-02 9.8562240523662227e-03
      4.2584335400560343e-02 -3.4690636203816037e-02
      9.4736160305342269e-03 -1.1447716944182323e-02
      4.8784450934842426e-02 4.0695434621640179e-02
      -9.1345344599833879e-03 -1.1043684510664275e-02
      1.1434423635434961e-02 5.3808518803115615e-02
      4.8766724623232859e-02 3.4903589401589510e-02
      1.0109544069198806e-02 4.2383663298125138e-02
      -6.8556731147258318e-03 -8.6271860458502700e-03
      1.7106299566688105e-01 -4.2942007381766505e-02
      -3.5429553787450767e-02 5.0703352804356457e-03
      2.9659908285964369e-02 2.6896134127394750e-03
      -3.1219645200466122e-03 2.5270441451851269e-02
      -3.1026209068261471e-03 -5.6783019096944783e-02
      9.3186312875665595e-04 -2.5224156830340110e-02
      1.8530662227589554e-03 -3.7799624999151891e-03
      -2.9052808719507357e-03 2.0123236017971554e-03
      -2.1737519437395590e-03 -1.8507128089448717e-02
      5.4060286228997556e-02 -5.6668044276011249e-02
      2.3542398661278753e-02 1.6012153673283242e-03
      3.9831991714581773e-03 -3.6445181480448827e-02
      1.7659556702854786e-03 -3.4014412529869416e-03
      -4.5680605161093527e-02 4.8802476020782727e-02
      2.7619576773255292e-03 2.1911061901789810e-03
      3.8809906741387033e-02 4.4615362190461826e-02
      -5.9143364940254101e-02 6.5435669411912393e-03
      -2.0548236176336889e-03 2.5199036017766940e-03
      -3.3568242743560496e-02 -3.2648633932185712e-03
      4.1611860529752777e-02 3.3304212453902450e-02
      6.2532945230519865e-01 8.7861395262107279e-03
      9.6520606461695749e-03 4.7835690657217933e-02
      -9.3142185861684289e-03 3.6886736986310939e-02
      -4.4422611523781748e-02 -9.1894483153426090e-03
      -2.8428572552903906e-02 1.0851161052342767e-02
      4.2614247789532787e-02 9.6888166012030034e-03
      4.2867147778416145e-02 -5.3004463008973088e-02
      -2.2734773367872760e-02 4.2987382958898313e-02
      -2.7686491172546731e-02 1.7295189517260244e-02
      -1.0929659279296072e-02 1.1412740261615576e-02
      -9.3204639750558461e-03 3.5153460500989171e-02
      2.6595010016544289e-02 9.2101711820607550e-03
      4.3680137425915318e-02 -3.3068429309797094e-02
      1.0561936404908467e-02 -1.0147385237051543e-02
      4.7528183523640737e-02 4.0969035912711428e-02
      -8.0937791917056728e-03 -1.1145744541277538e-02
      1.0671078764824544e-02 5.4335059201283308e-02
      4.8634876004113613e-02 3.2864468401472773e-02
      9.9495366719577986e-03 4.3492519828391613e-02
      -8.9481089808118742e-03 -9.3759759923583638e-03
      1.8765302401114989e-01 -4.0077539942365736e-02
      -3.1840608570842838e-02 5.9817654113637677e-03
      2.8727202145306174e-02 4.6349561259091780e-03
      -5.1644042868385746e-03 2.2839682532535186e-02
      -4.3338707647882216e-03 -5.1425392771173591e-02
      4.7190998739802753e-03 -2.3792697156445743e-02
      4.8259517881115302e-03 -3.2967211013574401e-03
      -4.3547595261283168e-03 3.9408290287451259e-03
      -4.4318482907163715e-03 -1.6624584896372131e-02
      4.9427448759776810e-02 -5.2777420660121581e-02
      1.9959685148942558e-02 5.2466227146377321e-03
      6.0266443415064840e-03 -3.1576261135242582e-02
      4.1004873614162007e-03 -4.0270317781338364e-03
      -4.2834032834666295e-02 4.4313650628451065e-02
      5.3404556836659962e-03 3.4735401721614585e-03
      3.5834167948045954e-02 4.0681333525162677e-02
      -5.4376770337779483e-02 7.6477573667715296e-03
      -6.4066171879186516e-04 3.3736895088842989e-03
      -3.0490742701521224e-02 2.1283742024550632e-04
      3.8432881820105298e-02 2.9731394986512498e-02
      1.7017944538963264e-01 -4.2850612129653250e-02
      -3.4529257129582276e-02 3.9883012607638806e-03
      2.9555189671483177e-02 1.4288801074572202e-03
      -2.6365481466845316e-03 2.7006614765954361e-02
      -2.7748552273909057e-03 -5.7398087060999935e-02
      2.1046425738527504e-03 -2.6498186948864164e-02
      3.0318347290795530e-03 -3.7500963178043203e-03
      -3.1260216451450247e-03 3.6806008151680195e-03
      -2.7733358245264485e-03 -1.7118045258853156e-02
      5.5328649538302653e-02 -5.5250425534171997e-02
      2.3725830796697090e-02 2.6542709914747142e-03
      1.7750472592429178e-03 -3.4631789726844664e-02
      2.7444021734337664e-03 -1.9794450972553958e-03
      -4.6370740141953248e-02 4.8102957158877219e-02
      4.3621817588319917e-03 3.2458104080300778e-04
      3.9814695380602082e-02 4.5337137475555990e-02
      -5.8357268437046736e-02 5.8259500448015417e-03
      -2.1152335178033127e-04 2.1565629991597583e-03
      -3.3845523475906227e-02 -3.7779851014887109e-03
      4.3276460417015057e-02 3.3077301250049360e-02
      2.8743566886041555e-01 -2.3660457025642145e-03
      -5.2717513097548397e-03 1.7264518556178741e-02
      3.2907662047260348e-03 9.6967140855893207e-03
      -1.4711752918767982e-02 5.1317618791975469e-04
      -7.6040073656255067e-03 -7.5092862465452465e-03
      1.2718101823218437e-02 1.2049387898468685e-03
      1.3897574947939651e-02 -1.4508254467768548e-02
      -6.3226447691673284e-03 1.4129935118914565e-02
      -8.1596919901044066e-03 5.9232312345384392e-03
      3.3881075936717762e-03 -6.2112876856489779e-03
      -1.4283432412994462e-03 8.3140602551995384e-03
      8.5545483308709126e-03 -4.2034247344407243e-03
      1.2177286240581356e-02 -8.9136372339371182e-03
      -8.9504462846839669e-04 1.7381154541105939e-03
      1.5424862084157475e-02 1.2927692897531907e-02
      3.0513628820452235e-03 6.8645459007900668e-04
      -6.0142373101307522e-03 1.7219623564842246e-02
      1.3094869578610970e-02 8.5646541090969829e-03
      -4.8063374111775529e-03 1.2528641121452298e-02
      4.9315684690520636e-03 2.3123569418343794e-03
      -2.1053028729570170e-01 -1.1976628911199044e-03
      -2.4442092483783376e-03 -1.5684743033609623e-02
      2.5989759647938567e-03 -1.2283479085217399e-02
      1.4847780877158736e-02 4.1571910416773536e-03
      8.6158529242284457e-03 -7.5883860868185167e-03
      -1.4969487767049558e-02 -3.5545212821965796e-03
      -1.3976224694486845e-02 9.2305197638358968e-03
      9.3560774557512466e-03 -1.4367807780808992e-02
      9.3681996905728027e-03 -1.2833648658788303e-02
      3.2214976767310300e-03 -5.0398462294945013e-03
      2.1756042015336863e-03 -1.0846061726712186e-02
      -9.8950732302878729e-03 -2.5022991186326800e-03
      -1.3833913749182173e-02 1.0539005915719877e-02
      9.8522080368916641e-04 9.3403026065288998e-04
      -1.4454106705956466e-02 -1.5133006469429193e-02
      2.8923459642937492e-03 -4.2728853174986057e-04
      -7.7878176899016322e-03 -1.3092066847603877e-02
      -1.1210111956520986e-02 -1.1514872863018135e-02
      -4.5089629885227177e-03 -1.5615093760091386e-02
      3.7619196812748875e-03 3.5741281375782879e-03
      -7.5814212773305953e-02 1.8962455319737295e-02
      1.0053845957971751e-02 -4.3830234078182017e-03
      -9.2315094159766600e-03 -3.0577288607995887e-03
      4.6983582209871701e-03 -4.0083178408440463e-03
      1.8668455216796526e-03 2.7590081221890089e-02
      -3.6733102032523077e-03 3.5299277179704556e-03
      -3.3214387146072882e-03 1.8493452265376607e-03
      1.1770335607713801e-03 -4.4430661822269270e-03
      2.8942003648689306e-03 -4.0790774622014450e-03
      -2.4352315887760750e-02 2.8104337165363254e-02
      2.2480536441771724e-03 -3.6632344547752986e-03
      -1.6811252879987248e-03 1.1692603434568389e-02
      -4.4530005003024734e-03 3.9705642389563029e-03
      2.1267253094440185e-02 -2.2789508724841576e-02
      -4.7466155373275132e-03 -4.5259752156872977e-03
      -1.1928596186860698e-02 -2.0252617671720260e-02
      2.9003492592618269e-02 -3.1188646908186192e-03
      -7.9282944316678159e-04 -4.6078399864158378e-03
      1.0205180546284266e-02 -2.7589697099781245e-03
      -1.2571100499945359e-02 -1.0624982111113726e-02
      -4.1929913480690995e-01 -6.9130452316242853e-03
      -7.4266506704362386e-03 -8.8819716541041586e-03
      6.0699189590705726e-03 -2.1495161486041851e-02
      2.1827997250327191e-02 4.6091077342094999e-03
      1.8479371701224601e-02 4.1488360237246750e-04
      -2.2431327167188170e-02 -5.4810749480322576e-03
      -2.1247100883708112e-02 -1.6599162892723068e-03
      1.7293651076198745e-02 -2.5747653842876802e-02
      1.9743267983645774e-02 -2.2448859784606305e-03
      3.4800372158630623e-03 -2.7556308461344542e-04
      2.9028187968783391e-03 -2.0222832551971832e-02
      -2.1112551732429246e-02 -6.8722886470002856e-03
      -2.5756605073203192e-02 1.9526755552583368e-02
      -6.3410966928711919e-03 5.6073006667695640e-03
      -1.8685607314781496e-02 -2.4633096770468876e-02
      7.0015264277745260e-03 6.2591412890757626e-03
      1.7329952926922478e-03 -3.8315567463809296e-03
      -7.4061662052852650e-04 -2.1294022105512015e-02
      -7.0504210738385944e-03 -1.4305401186006482e-02
      7.7010793994542782e-03 6.8839489195489855e-03
      -4.2007766327576501e-01 -6.6169015268010313e-03
      -6.2757357672697618e-03 -7.1505302362221248e-03
      6.4670864300183832e-03 -2.3357928322505314e-02
      2.1717414677566473e-02 3.8648820273737305e-03
      1.9159836474773012e-02 -1.7560748499965639e-04
      -2.3805661970261346e-02 -3.3348316881732704e-03
      -2.1614522127354575e-02 -1.8008804119626297e-04
      1.5779251789827167e-02 -2.4454289184068109e-02
      2.0201752440103516e-02 -3.2224677529057386e-04
      5.2249883452641704e-03 1.2486806254131996e-03
      2.9588910025509993e-03 -2.2215848507130376e-02
      -2.1040951283044253e-02 -7.0362200894151551e-03
      -2.5130468155987389e-02 1.9141580334433236e-02
